%YAML:1.0
---
opencv_ml_ann_mlp:
   format: 3
   layer_sizes: [ 324, 50, 2 ]
   activation_function: SIGMOID_SYM
   f_param1: 6.6666666666666663e-01
   f_param2: 1.7159000000000000e+00
   min_val: -9.4999999999999996e-01
   max_val: 9.4999999999999996e-01
   min_val1: -9.7999999999999998e-01
   max_val1: 9.7999999999999998e-01
   training_params:
      train_method: BACKPROP
      dw_scale: 1.0000000000000000e-03
      moment_scale: 0.
      term_criteria:
         epsilon: 1.0000000000000001e-01
         iterations: 100
   input_scale:
      - 1.1961573180177039e+01
      - -1.8291222467868400e+00
      - 1.1676164760312981e+01
      - -1.6053380828778394e+00
      - 1.1895127640442553e+01
      - -1.4712059180077042e+00
      - 1.3022782532736899e+01
      - -1.3757075654267721e+00
      - 1.3376438178153609e+01
      - -1.6041601360738746e+00
      - 1.3265034770089690e+01
      - -1.3928147144794771e+00
      - 1.1927953087620097e+01
      - -1.4707892533225064e+00
      - 1.1334280529736480e+01
      - -1.5946386459874553e+00
      - 1.1737146670620394e+01
      - -1.8118195917516058e+00
      - 1.1726194111106585e+01
      - -1.8734835710460966e+00
      - 1.1310150180237205e+01
      - -1.7293484327797146e+00
      - 1.1411170745680522e+01
      - -1.5690330973655076e+00
      - 1.2374328470467894e+01
      - -1.4757727519657944e+00
      - 1.2691447283760786e+01
      - -1.7090862812759031e+00
      - 1.2466175754152635e+01
      - -1.4716712964570988e+00
      - 1.1594060931885021e+01
      - -1.5896138916435656e+00
      - 1.1290521369137002e+01
      - -1.7328547084857857e+00
      - 1.1592225211312336e+01
      - -1.8552761386062600e+00
      - 1.1961459168700058e+01
      - -2.0051639703283177e+00
      - 1.1255402919235259e+01
      - -1.7312339297006720e+00
      - 1.1469478771628623e+01
      - -1.5992185930318648e+00
      - 1.2448483669869573e+01
      - -1.4914578155627962e+00
      - 1.2661502528603615e+01
      - -1.5500611758441873e+00
      - 1.2519662865149884e+01
      - -1.5116506688979203e+00
      - 1.1477183111539391e+01
      - -1.5906908597887446e+00
      - 1.1175591116050111e+01
      - -1.7286596205501679e+00
      - 1.1859697638815490e+01
      - -1.9905691478709886e+00
      - 1.1749879386190774e+01
      - -2.0282650912710594e+00
      - 1.1253259456608371e+01
      - -1.8625377784435002e+00
      - 1.1268504020294460e+01
      - -1.7161403527968566e+00
      - 1.1817834144888772e+01
      - -1.5937347912225683e+00
      - 1.2069725669503226e+01
      - -1.6487897928294213e+00
      - 1.2006476292520540e+01
      - -1.6242174307388328e+00
      - 1.1223608911383538e+01
      - -1.7313144763123245e+00
      - 1.1113903829384325e+01
      - -1.8901940943036222e+00
      - 1.1597504227668727e+01
      - -2.0272299860521930e+00
      - 1.1817430878078785e+01
      - -1.7224031850350969e+00
      - 1.1650428536162698e+01
      - -1.5966792467809816e+00
      - 1.1940128875082419e+01
      - -1.4846452752667136e+00
      - 1.3020280256038184e+01
      - -1.4033014193886020e+00
      - 1.3186127780225059e+01
      - -1.6313045565720703e+00
      - 1.3098815639038735e+01
      - -1.4262900558912865e+00
      - 1.1797464193111040e+01
      - -1.5102858927235852e+00
      - 1.1303828317776549e+01
      - -1.6153124434238397e+00
      - 1.1542150518151528e+01
      - -1.7038128557522030e+00
      - 1.1694949162894845e+01
      - -1.8318034629017956e+00
      - 1.1300453205341036e+01
      - -1.6863616319198707e+00
      - 1.1418306223526734e+01
      - -1.5629402641705454e+00
      - 1.2256886563394541e+01
      - -1.4733896140295084e+00
      - 1.2483920894572455e+01
      - -1.7153679639780706e+00
      - 1.2464689322442313e+01
      - -1.5103006756289297e+00
      - 1.1642213550913356e+01
      - -1.6189488889596084e+00
      - 1.1260171876880825e+01
      - -1.7360915787831788e+00
      - 1.1435026111604040e+01
      - -1.8119961592245293e+00
      - 1.1737754453703412e+01
      - -1.8664041910786060e+00
      - 1.1220411998107005e+01
      - -1.7216561942272006e+00
      - 1.1441518205046778e+01
      - -1.6145497323966893e+00
      - 1.2255176739262394e+01
      - -1.5215615974483852e+00
      - 1.2530605383083131e+01
      - -1.5774760002549206e+00
      - 1.2447943956746096e+01
      - -1.5362609450861708e+00
      - 1.1403394213257958e+01
      - -1.6160132400831686e+00
      - 1.1217497536608057e+01
      - -1.7377525374108684e+00
      - 1.1526041108632610e+01
      - -1.8458273424917606e+00
      - 1.1778109076898163e+01
      - -1.9934321571890588e+00
      - 1.1224420116410126e+01
      - -1.8226436200433505e+00
      - 1.1176887605546712e+01
      - -1.7009074297597415e+00
      - 1.1602844649678627e+01
      - -1.5913625182271283e+00
      - 1.1973773015494190e+01
      - -1.6637604504041097e+00
      - 1.1978950187087591e+01
      - -1.6402784142248981e+00
      - 1.1210562563766226e+01
      - -1.7409305255339560e+00
      - 1.1090832648215084e+01
      - -1.8701787123891211e+00
      - 1.1430189526245156e+01
      - -1.9661850974121629e+00
      - 1.1981997844841930e+01
      - -1.7243889923756051e+00
      - 1.1817911845898106e+01
      - -1.5905740025587713e+00
      - 1.1896167006612657e+01
      - -1.4788563496172575e+00
      - 1.2642402871524816e+01
      - -1.3965479859064780e+00
      - 1.2945945460809815e+01
      - -1.6493611752761566e+00
      - 1.3005343319137605e+01
      - -1.4486911068433881e+00
      - 1.1881777175341274e+01
      - -1.5347359525895838e+00
      - 1.1298046433651971e+01
      - -1.6345213163949772e+00
      - 1.1435887640506387e+01
      - -1.6972353843123866e+00
      - 1.2097042344975936e+01
      - -1.9627506342158263e+00
      - 1.1528197018842221e+01
      - -1.6467477198767573e+00
      - 1.1540531113875740e+01
      - -1.5342174258986183e+00
      - 1.2108546799913485e+01
      - -1.4441518387774543e+00
      - 1.2462303957388741e+01
      - -1.7237034975446646e+00
      - 1.2535831314127318e+01
      - -1.5069310622796797e+00
      - 1.1786628110909261e+01
      - -1.6229636659609756e+00
      - 1.1204995465449558e+01
      - -1.7152333748890529e+00
      - 1.1638829817948011e+01
      - -1.9303326628825164e+00
      - 1.1785871076654738e+01
      - -1.8557974358265439e+00
      - 1.1488979102938430e+01
      - -1.7331465845265361e+00
      - 1.1483060066951085e+01
      - -1.6261046805095054e+00
      - 1.2086184186676084e+01
      - -1.5294084048801535e+00
      - 1.2394995533462382e+01
      - -1.6041135112070224e+00
      - 1.2403796979001966e+01
      - -1.5590021015327962e+00
      - 1.1512049180821171e+01
      - -1.6428649063729965e+00
      - 1.1367239057930380e+01
      - -1.7708233459256524e+00
      - 1.1466906989203826e+01
      - -1.8347267223886123e+00
      - 1.2165284373236382e+01
      - -2.1324300922425139e+00
      - 1.1500708369417580e+01
      - -1.8017962631058342e+00
      - 1.1416657130915764e+01
      - -1.6986051937858229e+00
      - 1.1695699256673938e+01
      - -1.5813634282286166e+00
      - 1.1970868282939753e+01
      - -1.6733698950705225e+00
      - 1.2145205781785924e+01
      - -1.6448005763457343e+00
      - 1.1393002447538272e+01
      - -1.7372610546313798e+00
      - 1.1149752204938972e+01
      - -1.8577761042503713e+00
      - 1.1715500512784860e+01
      - -2.1065102879792716e+00
      - 1.2353779253433487e+01
      - -1.8426953500712902e+00
      - 1.1763777210972881e+01
      - -1.6192700563467122e+00
      - 1.1917218643175707e+01
      - -1.5078745245307987e+00
      - 1.3055388445032852e+01
      - -1.4350232595535859e+00
      - 1.3430251046465031e+01
      - -1.5025573913868844e+00
      - 1.3249788241648043e+01
      - -1.4700353183817978e+00
      - 1.1802835029932014e+01
      - -1.5365021231327940e+00
      - 1.1203366626503236e+01
      - -1.6202494023464640e+00
      - 1.2040135210825810e+01
      - -1.8170253001054564e+00
      - 1.1995753896505519e+01
      - -1.8831690000979715e+00
      - 1.1366914593676256e+01
      - -1.7406642491548079e+00
      - 1.1521668006882143e+01
      - -1.6289291709080067e+00
      - 1.2325115395852993e+01
      - -1.5339795910601417e+00
      - 1.2530916091525615e+01
      - -1.5859012363960543e+00
      - 1.2571676067069181e+01
      - -1.5699434894348605e+00
      - 1.1504421364490565e+01
      - -1.6446519319575055e+00
      - 1.1228707915117226e+01
      - -1.7521265041448095e+00
      - 1.1778378674527762e+01
      - -1.8534290695723834e+00
      - 1.2445920609421785e+01
      - -1.9898658428052813e+00
      - 1.1392523192927433e+01
      - -1.7014556199480637e+00
      - 1.1525181938216035e+01
      - -1.5991683567005339e+00
      - 1.2353201125025485e+01
      - -1.5243645662526797e+00
      - 1.2779241451078985e+01
      - -1.5991131640882743e+00
      - 1.2603248117480449e+01
      - -1.5664306898611200e+00
      - 1.1402969312357211e+01
      - -1.6392053121808223e+00
      - 1.1219136729548234e+01
      - -1.7489925905298069e+00
      - 1.2009753143553718e+01
      - -1.9597193582522197e+00
      - 1.2088547867772935e+01
      - -2.0276018621785346e+00
      - 1.1476067078993733e+01
      - -1.8646628525984157e+00
      - 1.1426085611997872e+01
      - -1.7439502986087891e+00
      - 1.1860015074438676e+01
      - -1.6370764350540699e+00
      - 1.2197871996437858e+01
      - -1.7132737524220618e+00
      - 1.2172641503440458e+01
      - -1.7024685304281908e+00
      - 1.1260944631937516e+01
      - -1.7848665455449682e+00
      - 1.1168713834981965e+01
      - -1.9043499656535403e+00
      - 1.1750838506654885e+01
      - -2.0080029624935265e+00
      - 1.2156283397929634e+01
      - -1.7285811563826277e+00
      - 1.1809302035270559e+01
      - -1.6233323534950634e+00
      - 1.1954028342435405e+01
      - -1.5265263939245819e+00
      - 1.2742136436792505e+01
      - -1.4450488947722302e+00
      - 1.3201362767042131e+01
      - -1.5224806406413194e+00
      - 1.3211856380103136e+01
      - -1.4865554963595304e+00
      - 1.1739073817039559e+01
      - -1.5437395236110301e+00
      - 1.1250393650754560e+01
      - -1.6236434979837830e+00
      - 1.1933563940079372e+01
      - -1.7172005086356779e+00
      - 1.1914069133136334e+01
      - -1.8365243221412071e+00
      - 1.1403995429006166e+01
      - -1.7126619450994736e+00
      - 1.1507221303963766e+01
      - -1.6243133072165701e+00
      - 1.2028386002260346e+01
      - -1.5155580014799397e+00
      - 1.2452989784624103e+01
      - -1.5901575319952344e+00
      - 1.2596921328944537e+01
      - -1.5601260015184855e+00
      - 1.1559255157316697e+01
      - -1.6427764844125894e+00
      - 1.1265852085608309e+01
      - -1.7400660089769588e+00
      - 1.1661223339255688e+01
      - -1.8061861529417034e+00
      - 1.2130827254524432e+01
      - -1.8784387509128455e+00
      - 1.1438555930988274e+01
      - -1.7360028125571088e+00
      - 1.1561683891952118e+01
      - -1.6511289166126710e+00
      - 1.2241111817000641e+01
      - -1.5598050316910004e+00
      - 1.2570475026424470e+01
      - -1.6332010689261631e+00
      - 1.2514708252817925e+01
      - -1.5894547980410654e+00
      - 1.1435610770119840e+01
      - -1.6522603475057827e+00
      - 1.1169147625241708e+01
      - -1.7348424707644383e+00
      - 1.1713642281287786e+01
      - -1.8369964644687105e+00
      - 1.1988948615560480e+01
      - -2.0039438979043371e+00
      - 1.1406766740378751e+01
      - -1.8472406468680871e+00
      - 1.1295378522435552e+01
      - -1.7383892846418674e+00
      - 1.1745045440331220e+01
      - -1.6520332200526870e+00
      - 1.2081121436312037e+01
      - -1.7247273523386497e+00
      - 1.2173474065380029e+01
      - -1.6919310757429109e+00
      - 1.1245730165640781e+01
      - -1.7754687682213153e+00
      - 1.1060225122662501e+01
      - -1.8691046213953333e+00
      - 1.1542518188503507e+01
      - -1.9583257943082981e+00
      - 1.2269712354563760e+01
      - -1.7338588376979813e+00
      - 1.1930000427028061e+01
      - -1.6318366552745005e+00
      - 1.1957737603435161e+01
      - -1.5476656015754051e+00
      - 1.2517680403003817e+01
      - -1.4541748029819748e+00
      - 1.2942237373328878e+01
      - -1.5349247038786875e+00
      - 1.3067485860864231e+01
      - -1.4969716581656047e+00
      - 1.1799971335043686e+01
      - -1.5612243797844334e+00
      - 1.1477593901424525e+01
      - -1.6570291147580669e+00
      - 1.1916292811952628e+01
      - -1.7177722443151053e+00
      - 1.2309412684408100e+01
      - -1.9740456486609959e+00
      - 1.1636581077914400e+01
      - -1.7065481840273844e+00
      - 1.1579981122517164e+01
      - -1.6188764570776457e+00
      - 1.2158036042496379e+01
      - -1.5299774258674632e+00
      - 1.2481837635533990e+01
      - -1.5999579365914580e+00
      - 1.2616686831177766e+01
      - -1.5578148172876811e+00
      - 1.1775995938926627e+01
      - -1.6511592672664077e+00
      - 1.1402225513778625e+01
      - -1.7279940686224653e+00
      - 1.2113687832334378e+01
      - -1.9571355308012379e+00
      - 1.2164304484765522e+01
      - -1.8834751634137659e+00
      - 1.1541587787626002e+01
      - -1.7590253548696386e+00
      - 1.1519508296360645e+01
      - -1.6712777431732253e+00
      - 1.2066761284242036e+01
      - -1.5769455222396986e+00
      - 1.2316174867864305e+01
      - -1.6437898778675597e+00
      - 1.2527064379612490e+01
      - -1.6111167878668018e+00
      - 1.1463650601522245e+01
      - -1.6640045301106119e+00
      - 1.1357373490405658e+01
      - -1.7659634277104226e+00
      - 1.1870053249239815e+01
      - -1.8531162257400446e+00
      - 1.2469177626582747e+01
      - -2.1447086170376868e+00
      - 1.1533132730052934e+01
      - -1.8326804435537623e+00
      - 1.1416740359442072e+01
      - -1.7394942050749689e+00
      - 1.1742495449695321e+01
      - -1.6326751381684959e+00
      - 1.2123448776538169e+01
      - -1.7180178439910878e+00
      - 1.2238174595680340e+01
      - -1.6864998570841025e+00
      - 1.1401230592892393e+01
      - -1.7555042256859952e+00
      - 1.1235537133004975e+01
      - -1.8479653097961537e+00
      - 1.2220749377185379e+01
      - -2.1334118267228619e+00
      - 1.2702317450477473e+01
      - -1.8351084335613319e+00
      - 1.1903184744183493e+01
      - -1.5917465939076108e+00
      - 1.2114945082791374e+01
      - -1.5215664374565734e+00
      - 1.3036806038087720e+01
      - -1.4626555353338537e+00
      - 1.3492782808434153e+01
      - -1.5351856019814789e+00
      - 1.3569408561551965e+01
      - -1.5332714168429733e+00
      - 1.1782738141464547e+01
      - -1.5904668563160849e+00
      - 1.1131987321875075e+01
      - -1.6611603843629348e+00
      - 1.2276240788233872e+01
      - -1.8610130193764642e+00
      - 1.2301503860179711e+01
      - -1.8904359892876015e+00
      - 1.1643312102941350e+01
      - -1.7553931448999567e+00
      - 1.1596599975068008e+01
      - -1.6671326073132879e+00
      - 1.2355050995644051e+01
      - -1.5764066597107229e+00
      - 1.2552412781120863e+01
      - -1.6335429148741547e+00
      - 1.2783625145026692e+01
      - -1.6335261230081253e+00
      - 1.1636947147977454e+01
      - -1.7061337861210388e+00
      - 1.1258052400778055e+01
      - -1.7952589519450135e+00
      - 1.1964667666038078e+01
      - -1.8839001962303721e+00
      - 1.2719161114829074e+01
      - -1.9687990687848116e+00
      - 1.1526144151607495e+01
      - -1.6458808143487362e+00
      - 1.1614402818787344e+01
      - -1.5526618328556252e+00
      - 1.2626367241284784e+01
      - -1.5190010571950876e+00
      - 1.3208628204872950e+01
      - -1.8812668498727523e+00
      - 1.3009380177503493e+01
      - -1.5874404920228109e+00
      - 1.1588799854466711e+01
      - -1.6912162471087255e+00
      - 1.1122002175344035e+01
      - -1.7743115683340760e+00
      - 1.2245074732324184e+01
      - -2.0029162354233829e+00
      - 1.2401763533590939e+01
      - -2.0169754614759841e+00
      - 1.1549326184453959e+01
      - -1.8214485137880898e+00
      - 1.1348956431965458e+01
      - -1.6951752690556254e+00
      - 1.1837372867020383e+01
      - -1.6115997750919040e+00
      - 1.2819628033229325e+01
      - -2.0465092223336825e+00
      - 1.2375025725536428e+01
      - -1.6979414898584919e+00
      - 1.1489956077063841e+01
      - -1.8290844609063008e+00
      - 1.1108726631022357e+01
      - -1.9113399171763408e+00
      - 1.1873776781002009e+01
      - -2.0205633732867634e+00
      - 1.2530880765793222e+01
      - -1.7567611577155935e+00
      - 1.1990730081483246e+01
      - -1.6430394923943206e+00
      - 1.1921144602426553e+01
      - -1.5573980395155294e+00
      - 1.2714043706242323e+01
      - -1.4836578817671084e+00
      - 1.3148550531279673e+01
      - -1.5701362774258678e+00
      - 1.3309332114285844e+01
      - -1.5399649356879497e+00
      - 1.1908163252583917e+01
      - -1.5958500268748721e+00
      - 1.1232112860714901e+01
      - -1.6421605955951384e+00
      - 1.2046067231989268e+01
      - -1.7360481410506698e+00
      - 1.2226018137971959e+01
      - -1.8657055695856530e+00
      - 1.1643597114082000e+01
      - -1.7566569183540575e+00
      - 1.1415257844495406e+01
      - -1.6434820433084136e+00
      - 1.2143393477823800e+01
      - -1.5834617101642137e+00
      - 1.2534897452729153e+01
      - -1.6615742210723772e+00
      - 1.2710211084659978e+01
      - -1.6211426112309317e+00
      - 1.1682445495615545e+01
      - -1.6870894481054715e+00
      - 1.1261786178217319e+01
      - -1.7512886224853055e+00
      - 1.1767447451773196e+01
      - -1.8241886934263327e+00
      - 1.2489949949369878e+01
      - -1.8639696167030189e+00
      - 1.1557533483369744e+01
      - -1.7080261394812724e+00
      - 1.1457643596093721e+01
      - -1.6047657209095310e+00
      - 1.2207606167112028e+01
      - -1.5366523571586888e+00
      - 1.3082699614742632e+01
      - -1.9278340740846984e+00
      - 1.2802954292611428e+01
      - -1.5886303857340585e+00
      - 1.1594487142106825e+01
      - -1.6663795866853175e+00
      - 1.1167900979809717e+01
      - -1.7293811806509494e+00
      - 1.1856827423566157e+01
      - -1.8285191412350119e+00
      - 1.2349014188045366e+01
      - -1.9874663488132291e+00
      - 1.1704696761664502e+01
      - -1.8492448894803839e+00
      - 1.1308174049836445e+01
      - -1.7194355688693703e+00
      - 1.1730495562692576e+01
      - -1.6415125695878763e+00
      - 1.2894620586644850e+01
      - -2.0841889790550514e+00
      - 1.2423451847554317e+01
      - -1.6943593535986734e+00
      - 1.1355922011160313e+01
      - -1.7732161436661185e+00
      - 1.1121895436886961e+01
      - -1.8577873249424821e+00
      - 1.1761458090332740e+01
      - -1.9501739213536777e+00
      - 1.2587705228870385e+01
      - -1.7543784380251928e+00
      - 1.2040393133901254e+01
      - -1.6684716988796313e+00
      - 1.1890993696673444e+01
      - -1.5789023976684218e+00
      - 1.2627283824707677e+01
      - -1.5131195376372024e+00
      - 1.3016183265442233e+01
      - -1.5881986488622706e+00
      - 1.3282690271431742e+01
      - -1.5643074580893690e+00
      - 1.1959178142230970e+01
      - -1.6131564995085625e+00
      - 1.1383170330566381e+01
      - -1.6558675908267846e+00
      - 1.2007524636343755e+01
      - -1.7203683087798556e+00
      - 1.2480682820927765e+01
      - -1.9748541973169791e+00
      - 1.1705968454011764e+01
      - -1.7281486133215618e+00
      - 1.1534299729420317e+01
      - -1.6442717635128512e+00
      - 1.2233927060716683e+01
      - -1.5719083959771947e+00
      - 1.2591594772174835e+01
      - -1.6468880683607510e+00
      - 1.2864870918459712e+01
      - -1.6163188430253819e+00
      - 1.1908258234447121e+01
      - -1.6766002776171316e+00
      - 1.1461811121383052e+01
      - -1.7353518314345839e+00
      - 1.2222566441825052e+01
      - -1.9540749375630717e+00
      - 1.2453297027586828e+01
      - -1.8576669481262935e+00
      - 1.1797215374522377e+01
      - -1.7563174645073494e+00
      - 1.1407831862437188e+01
      - -1.6473226158485532e+00
      - 1.1984732061563548e+01
      - -1.5727892050026693e+00
      - 1.3008839858486137e+01
      - -1.9748999363949353e+00
      - 1.2742333072912800e+01
      - -1.6049377479680726e+00
      - 1.1702895380624112e+01
      - -1.6754247130862696e+00
      - 1.1364083193229948e+01
      - -1.7394783034801928e+00
      - 1.1875245528701710e+01
      - -1.8050865790752399e+00
      - 1.2599940706056307e+01
      - -2.1118238260200446e+00
      - 1.1688698468342297e+01
      - -1.8234410731786177e+00
      - 1.1422524075250699e+01
      - -1.7372981897176454e+00
      - 1.1763872680009236e+01
      - -1.6449550151491761e+00
      - 1.2844688293578120e+01
      - -2.0802907808404107e+00
      - 1.2343984827760213e+01
      - -1.6693693013620978e+00
      - 1.1501848198962294e+01
      - -1.7384843374678516e+00
      - 1.1252226491544425e+01
      - -1.8153671478368321e+00
      - 1.2132869657121979e+01
      - -2.0667780867138394e+00
   output_scale:
      - 5.2631578947368418e-01
      - 4.9999999999999994e-01
      - 5.2631578947368418e-01
      - 4.9999999999999994e-01
   inv_output_scale:
      - 1.8999999999999999e+00
      - -9.4999999999999996e-01
      - 1.8999999999999999e+00
      - -9.4999999999999996e-01
   weights:
      -
         - -4.7433380966294784e-02
         - 1.3359436649144499e-02
         - 1.9307639578325386e-02
         - -7.3626770015474807e-03
         - 5.8516413480951164e-03
         - 1.8847472266156656e-02
         - -2.4484700618775862e-02
         - 1.3890110797971318e-02
         - 2.7366682781000674e-02
         - 5.2642729425108128e-02
         - -1.6441423025952272e-02
         - 9.1540747922046750e-02
         - -1.6271883517038635e-02
         - -2.2376507163448793e-02
         - -2.7518734538229360e-02
         - -1.2118124548001468e-02
         - -3.2513584626515567e-02
         - 1.9371577534546533e-02
         - 2.1733791814473515e-02
         - -2.6021031702199979e-02
         - 1.6414805228296653e-02
         - 3.0066954596195412e-02
         - 2.8385865894448480e-02
         - 2.4983417816627634e-02
         - -3.8207751796545938e-02
         - 4.3459467178192081e-02
         - -4.9061452486471226e-03
         - 4.0697754244399940e-02
         - -1.6675174501334473e-03
         - 3.1805129337597486e-02
         - -4.4892883387636379e-03
         - 4.7568838035880273e-02
         - -4.4466567214118076e-02
         - 1.6815738410748297e-02
         - 1.9295022340251690e-02
         - -7.4856250205818800e-03
         - -1.9345239304814715e-02
         - -1.0302194833123005e-03
         - -2.9516290224346264e-02
         - 1.2335533564472820e-02
         - 6.8531734931053870e-03
         - 1.6131764758847401e-02
         - -6.0505935602713440e-03
         - -3.7352839396649830e-02
         - -5.6861113422212676e-03
         - 1.0935611166652426e-02
         - -4.8013604202331472e-02
         - 6.7416663244413274e-03
         - -3.9452341444374834e-03
         - 2.9130182151359263e-02
         - 2.0434076131254895e-02
         - 6.2860891031870248e-04
         - -2.6537560659463302e-03
         - 1.2105470555270135e-03
         - -8.4871312844504963e-03
         - -4.6351229742906275e-03
         - 1.2715406657016870e-02
         - -6.3626038639220056e-03
         - -7.3285356360326724e-03
         - -3.5205911207287548e-02
         - 7.9026718231910969e-03
         - -2.1978014043086383e-03
         - 1.2820643678401095e-02
         - 1.3233398301632887e-02
         - 1.1826785242776194e-02
         - 1.7997626513009037e-03
         - 2.0122247352130154e-02
         - -7.8084916343763335e-03
         - -6.5172081819565254e-03
         - 4.8261161432015713e-03
         - -6.4415643657731300e-03
         - -1.0181537518481071e-02
         - -1.2829628249378791e-02
         - -7.0833218310158369e-03
         - 1.3262071881255335e-02
         - -3.1050901998350970e-02
         - 5.1274301125767488e-03
         - -1.9071246439438479e-02
         - 1.4229424268550886e-03
         - -2.1153670858305031e-02
         - -3.4703616675904251e-03
         - 1.3905176989681141e-02
         - 2.9237024126322668e-02
         - -4.9980776359532303e-03
         - -6.8771153093099028e-03
         - 2.6191453502834639e-03
         - 2.1210494521183579e-02
         - 2.1763275015476875e-03
         - 1.6872350549024719e-02
         - -2.0113454959264560e-03
         - 3.2654156696135593e-03
         - -1.1169890638424130e-02
         - 1.1483655778440547e-02
         - 1.0847038336977635e-02
         - 4.4667070459569712e-03
         - -1.0516044833868825e-02
         - 2.4651473238238547e-02
         - -3.6240664712037124e-04
         - 3.4746107964321285e-03
         - -1.0120731201397703e-02
         - 7.7265992702128502e-04
         - 1.7041846185126840e-02
         - -2.7055609835423570e-03
         - 4.5845967075717189e-03
         - -5.0444201636865157e-03
         - 4.7672861330497179e-03
         - 3.7891436535526508e-03
         - 2.8613065484938650e-03
         - 1.1284758198729793e-03
         - -1.2859889277890984e-02
         - -5.5085256050858445e-03
         - -1.8267210509447757e-02
         - -5.9649618394219594e-03
         - 4.4103880704827372e-03
         - -3.0971448369966591e-03
         - 3.1132284082617018e-03
         - 4.8043961006337841e-03
         - -4.9232922853505445e-03
         - 1.4920553429039411e-03
         - -6.3846557744136404e-03
         - -4.5665181704903765e-03
         - -2.8355429782448132e-03
         - 1.4295453977750216e-03
         - 6.3645367078305479e-04
         - 2.5212076277829182e-03
         - -2.7637762316617665e-03
         - 8.2951290321513248e-04
         - -4.2996343210283863e-03
         - -4.3506068090303010e-03
         - -2.8898238222032006e-03
         - 5.7357492371307994e-03
         - 3.3847137069520139e-02
         - 1.6545474968186979e-02
         - 3.6688991251695312e-03
         - -7.0283970788410869e-03
         - -4.1437329330896756e-03
         - -3.4049866001500538e-03
         - -5.2238717612804733e-03
         - 9.2554429622033454e-04
         - 3.7939331673894146e-03
         - 3.2406068201810095e-03
         - 3.2465519776226914e-03
         - 1.5732320070705470e-03
         - 5.8654780853690288e-04
         - -1.8034035315879831e-03
         - 2.6040269555830694e-03
         - 1.6560017609200981e-02
         - 7.8938670978682967e-04
         - 2.8195073065165267e-03
         - -4.0467980933833218e-03
         - -1.6941585516426955e-02
         - 1.1307647338808360e-02
         - -1.6240467744474663e-03
         - 2.0096285634778170e-04
         - 4.2102195966973706e-03
         - 4.2602281437976409e-03
         - -4.7971223500985595e-03
         - 8.8285669282831894e-03
         - 7.0513184090217097e-03
         - 2.3458070206514321e-02
         - -9.5745892613745415e-03
         - -1.9715124867307966e-03
         - 1.2814373762291920e-03
         - -1.2664763582006126e-02
         - -6.4614596235251795e-03
         - -8.4142978573058039e-03
         - -1.0545843898950523e-02
         - -2.4024998067222539e-03
         - 5.6846813158198586e-03
         - -8.0131197754650194e-04
         - -2.1596044707418977e-04
         - 9.2768658743970622e-03
         - 1.0740544265005674e-03
         - 5.7334438450312502e-03
         - -6.8188522834298267e-03
         - 6.0304545740723697e-03
         - -7.1873474245146953e-03
         - 1.6565313947658963e-03
         - 3.7957699869835180e-03
         - 6.8110030476106458e-03
         - -2.9775962455062667e-03
         - 1.6516464531352585e-02
         - -1.4522049393905124e-02
         - 5.4227681778410428e-03
         - 3.7784979898949244e-04
         - -5.3290139774195607e-03
         - -2.8066103069282677e-03
         - -3.8121063095732277e-03
         - -7.8876806933659768e-03
         - -1.3415469374499101e-03
         - -3.1535660509734867e-03
         - 7.9147404849437862e-05
         - -5.9501558684686992e-03
         - -9.9144307639977003e-03
         - -3.7881682028043867e-03
         - 8.3844726315515702e-03
         - -9.5593723133937537e-03
         - -1.7289645413764180e-03
         - -3.3118048606598396e-03
         - 3.3941329745579485e-03
         - -1.7819828939463257e-02
         - 4.8698305295429654e-03
         - 8.9744968743297408e-03
         - -4.7911105932007233e-03
         - -3.1833601846476905e-03
         - -2.1142238243878741e-04
         - -9.1784679224836112e-03
         - 6.6668432738833964e-03
         - 9.2178465572704156e-03
         - 5.9741821633631448e-03
         - 2.1397931369230446e-03
         - -3.9429634377909140e-02
         - -7.6328475267498086e-03
         - -1.1354744201524235e-02
         - -1.0277644899992527e-02
         - 3.7874333966333891e-03
         - -6.8173923336495865e-03
         - 1.0008261428635265e-02
         - 1.3338197496816371e-03
         - -4.1964516821620711e-03
         - 6.1576491918649426e-03
         - 1.0830518644832190e-02
         - 1.1782457643113519e-03
         - 5.2412069523811097e-03
         - -6.0685779679908441e-03
         - -2.7016697206996673e-03
         - -6.3561391988674609e-03
         - 9.5422863850298054e-03
         - -1.6533916413206159e-03
         - 1.3283459289931040e-02
         - -6.0570436030673495e-04
         - -1.5644916005151742e-02
         - -1.5658831121259726e-02
         - 7.2668241622022922e-03
         - 6.1900839899538245e-03
         - -6.8379037140773790e-03
         - -4.8310017337143468e-03
         - 3.5692035635455301e-03
         - -1.3303199837163880e-02
         - -2.8955520222399530e-03
         - -3.8665145322422088e-03
         - 3.0999925094435327e-03
         - -1.8480347081858185e-03
         - -1.0101487281080793e-02
         - -8.3495577270298379e-03
         - -1.4605264658441289e-03
         - -6.8440665552925320e-04
         - 5.5737657531722239e-03
         - -4.5287514806468627e-03
         - 6.1334443188958551e-03
         - -3.1930701907074449e-02
         - 6.4488637833161134e-03
         - 1.3362213050821600e-02
         - -9.1077915271121305e-03
         - 3.2696711388036990e-03
         - 8.9243987648478604e-03
         - -1.2258550107122779e-02
         - 9.8746323761732865e-03
         - 1.7105011537147129e-02
         - 2.0759849186417760e-02
         - -1.3047845083432132e-02
         - 6.8832946281812621e-03
         - -1.5844680237273777e-02
         - -2.6654543237448366e-02
         - -1.0849112154362054e-02
         - -6.2759916510932027e-03
         - -2.2187391995819660e-02
         - 8.5633821127988549e-03
         - 1.0874589287704293e-02
         - -1.4431904318140509e-02
         - 4.0103029590931056e-03
         - 2.3911774678849466e-02
         - 1.6970002315291114e-02
         - 9.0495142698233666e-03
         - -2.4986254415256606e-02
         - 4.6172341956252569e-03
         - -9.8374946680269385e-04
         - 3.0804355291163973e-02
         - 1.9173105013747692e-05
         - 3.5266801279556614e-02
         - 1.3249668896589224e-03
         - -1.2363097892408045e-02
         - -2.9395917672579267e-02
         - 3.1427764943834889e-03
         - 1.0253554778526778e-02
         - -1.1343829083990346e-02
         - -1.3172692940237450e-02
         - 1.2445218686032622e-03
         - -2.0233820331573716e-02
         - 3.8383388902882209e-03
         - 2.6086128201548158e-03
         - 7.3874003402884152e-03
         - -7.3456297685225765e-03
         - -2.3592649927079240e-02
         - -3.5148745215900748e-03
         - 5.5298305376677891e-03
         - -3.7652280667552392e-02
         - 6.1213694869520288e-03
         - -4.3022339031224882e-03
         - 1.3675480926875948e-02
         - 1.8869028114525305e-02
         - -2.4143962980940337e-02
         - -9.2383999956603229e-03
         - 6.2071290644264707e-03
         - 4.2060075331591397e-04
         - -4.6220189499543611e-03
         - 2.8509805421009890e-03
         - -8.8507320201742946e-03
         - -1.1927682402909045e-02
         - -3.7126547299380162e-02
         - 7.0419592073557588e-03
         - -6.4276783694024744e-02
         - 4.0444503559909179e-03
         - 4.7181527898290535e-03
         - 5.8937474472191527e-03
         - 9.7795361669160766e-04
         - 8.7081167921401435e-03
         - 1.1307527365852403e-03
         - -2.7834423453498812e-03
         - 1.2763177207596897e-02
         - 1.8514766847132116e-03
         - -1.6627879680422449e-02
         - -2.2307633553847648e-03
         - -8.4829435903097349e-03
         - 8.6642847114207396e-03
         - -3.6210356908863893e-02
         - 6.5199577094563347e-03
         - -9.9585468798887196e-03
         - 6.9307840126479961e-03
         - -6.7497950928564789e-03
         - 1.1251036229314624e-03
         - -4.6443229562865694e-02
         - 1.6720984446177079e-02
         - 1.6456200522620003e-03
         - -6.3129450781610240e-03
         - -2.5241148423679146e-03
         - 1.5599119350422901e-02
         - 2.6810725845387805e-04
         - 1.4090058391766531e-02
         - -8.1638459401602546e-03
         - -1.1834838073530513e-03
         - -2.8768619239790544e-03
         - 4.1270566346562889e-03
         - 1.6078496158001800e-02
         - -2.6875592604980701e-04
         - -5.6903537786101091e-03
         - 2.9774276940887161e-03
         - 3.0734647859784292e-03
         - 6.5513811681395728e-03
         - -1.4753453123235206e-02
         - -1.3436148107790350e-02
         - -9.6533616932126028e-03
         - 3.6166539400138116e-03
         - -1.5553194168982831e-03
         - -2.6070157505440178e-03
         - 1.7913368451865604e-03
         - -8.2830346002761449e-04
         - 3.4113986881140657e-03
         - -1.6042660639779766e-03
         - 8.4223450635055805e-03
         - -6.5708124197786690e-03
         - -7.2232452445225137e-02
         - -8.9719780259567526e-03
         - -3.5695643225289418e-03
         - -7.1054205580249391e-03
         - -5.3482254719722493e-03
         - -1.5125896939516907e-02
         - 1.9933191427624749e-03
         - -5.8934068325726234e-04
         - -6.9846131441406098e-03
         - -1.8969825140391092e-03
         - 7.2111716520966637e-03
         - 8.6894840516398581e-03
         - -8.9645342987721744e-04
         - -1.3939361184329023e-02
         - 1.0553585530838877e-02
         - 1.2187277294128482e-03
         - 9.5450187441004086e-03
         - -6.1330159459645458e-03
         - 4.3527625266884182e-03
         - -2.7514026426491878e-03
         - -2.4921185772491208e-02
         - -1.3871076683210882e-02
         - -9.9752600292686046e-04
         - -1.9736704042178561e-03
         - -5.4516312975824745e-03
         - -8.2481329315593540e-03
         - 4.8218229347354256e-04
         - 1.1885213965910928e-03
         - 5.3497968425799325e-03
         - -3.5125549093777938e-03
         - -4.4926967082093675e-04
         - -7.5508838354167033e-03
         - -1.0503670022972122e-02
         - 3.5424051352174165e-03
         - 5.2565576962842675e-03
         - 9.9582708409973273e-03
         - 8.4924717936625928e-04
         - 3.0436024856998548e-03
         - 6.3134240199734133e-03
         - -1.4120115938898177e-02
         - -7.0333637262388927e-03
         - 3.8432340336346936e-03
         - -2.2159704369084990e-04
         - -6.0160937163215888e-04
         - 2.8639201109702775e-03
         - -5.5336692889002255e-03
         - -1.5730506085995999e-03
         - 2.4616384451459634e-03
         - 1.8007154323681777e-02
         - -4.2356655935865909e-03
         - -2.7247778533452682e-02
         - -6.7440926370274422e-03
         - 2.9162053989669628e-04
         - -9.2104779856286741e-03
         - -7.0391692258530770e-04
         - -1.1808116439378827e-02
         - 1.8647822533899537e-03
         - 4.7782751070818323e-03
         - 1.1667861926386517e-03
         - 5.8035524054074082e-03
         - 1.4271149623213068e-03
         - -9.9253216650671008e-04
         - -7.4578593309422017e-04
         - -7.4042948582291462e-03
         - 2.5007179636635880e-02
         - -7.9195251586064363e-05
         - 1.6345103769653832e-03
         - -4.2286495534067988e-03
         - 1.0807102184711134e-02
         - -4.0845214832639668e-03
         - -9.0820414262814673e-04
         - -1.0364688784060529e-02
         - 6.7363082201373024e-03
         - -2.0061058146646198e-03
         - -7.9148974253338313e-04
         - -8.2993256679038674e-03
         - 6.7277578623526637e-04
         - -7.2898956926522578e-03
         - 1.8438417416437908e-03
         - 2.0231727957209307e-03
         - 3.8494595870630375e-03
         - -1.4180529773729543e-04
         - -7.9476327724698516e-03
         - 4.4356490886702924e-04
         - 2.8981202432816610e-03
         - 1.1151498671385590e-02
         - -8.7690745411267293e-04
         - -6.4756704380896733e-03
         - 1.5012536048080109e-03
         - 1.3314948786650502e-02
         - -5.4967590530712370e-03
         - -8.2874253168393371e-03
         - 5.3077297447845524e-03
         - -4.5789040082808881e-03
         - -1.3749885972461746e-03
         - 3.5217280243559396e-03
         - -1.9839458423841568e-03
         - -3.4322102716301886e-03
         - -1.8961456673903310e-02
         - 6.5985445628495261e-03
         - 6.2008754283027094e-02
         - -1.5666850793896799e-03
         - 6.9788163969358363e-03
         - 1.0516948858537885e-02
         - 5.8885110355490558e-03
         - 1.2835180704074823e-02
         - -3.1871715189134384e-04
         - 1.2731838630943727e-03
         - 7.0070028448492618e-03
         - 1.1536502436998045e-03
         - -8.7149442770940513e-03
         - -2.8746201712286030e-03
         - -1.2911489339587875e-03
         - 6.3788325300102172e-03
         - -1.0946351625016507e-02
         - -2.0136675761003638e-03
         - -6.4850839363982844e-03
         - 7.6735892005089668e-03
         - -8.9860484941534369e-03
         - 9.4154805302606765e-05
         - -3.3446819168802895e-03
         - 1.4962951671073994e-02
         - 1.0068619794609951e-03
         - -6.2430559291046612e-03
         - -4.2573234899394548e-03
         - 2.3482410249274749e-02
         - -5.2535223292682776e-03
         - 4.7315168506578036e-03
         - -3.2704123039508726e-03
         - 1.2094966386785152e-03
         - -2.7022080741633302e-03
         - 8.0693741408754769e-03
         - 3.9883534988433850e-03
         - 8.0788072888330967e-03
         - -4.2888119491384441e-03
         - 8.9953581585427260e-03
         - 5.0308227709855056e-04
         - 6.8140544685283315e-03
         - -3.2966799362379126e-03
         - -3.6167028953351140e-04
         - 1.7910754516978614e-02
         - 4.6152356581917039e-03
         - -6.2485585030180747e-03
         - 4.6712797026349680e-03
         - 6.5197822267153756e-03
         - 1.4267932163863238e-03
         - 5.6918230993419725e-03
         - 7.1852907719627077e-03
         - -5.2874256991047109e-03
         - -1.0250790273234648e-02
         - 4.8877654313945688e-02
         - -5.7853940404589766e-03
         - -1.5743526098152035e-03
         - -7.3428793669267894e-03
         - -5.9629698063852514e-03
         - -1.1448122783502013e-02
         - 8.9599783811355090e-03
         - 5.9478374706488607e-04
         - -1.1050037326661851e-02
         - 6.4047828944505860e-03
         - 1.2946944576663660e-02
         - 8.0226660051109337e-03
         - 4.7829109498106741e-03
         - -3.0753000538102804e-03
         - -4.9976039217556152e-03
         - 2.7403579140549950e-03
         - 1.5126602213481799e-03
         - -4.5306128296312706e-03
         - 8.2732669115056987e-03
         - -2.7803464672907330e-03
         - 3.0084586548512197e-02
         - 2.3450195035294593e-03
         - 2.2478149600560222e-04
         - -2.2284302559744053e-03
         - 3.6984513349744520e-03
         - -2.2847143641864021e-03
         - -6.4085223227214197e-03
         - -3.1941816179767938e-03
         - 2.0621915033918583e-03
         - -3.6224174458292929e-03
         - 1.2274198966090232e-04
         - 4.6414115638543563e-04
         - -1.4352817435357519e-02
         - 1.2748408021082775e-03
         - -2.2695491496025856e-03
         - -1.0918519361240156e-03
         - 5.2434376637555040e-04
         - 4.0649358618668916e-03
         - 2.5861620824455820e-03
         - -6.6831865561879124e-04
         - 2.2362639642903411e-02
         - 5.1234046963582218e-03
         - 9.7949166303727057e-04
         - 1.5213403986606882e-03
         - 8.9286880433084893e-03
         - -8.5568426097109597e-04
         - 5.7168439231570752e-03
         - 7.5987338590806659e-03
         - 5.2354292976276697e-03
         - 1.2062755242444036e-04
         - -1.7810150970315661e-02
         - -4.8435839279926778e-03
         - -1.1118656909369248e-02
         - -6.8792350179329919e-03
         - -6.9895238361949536e-03
         - 1.4959959624442911e-03
         - 1.2412243831947736e-03
         - 6.9786436992408333e-03
         - -9.6671334734067717e-03
         - 5.6681094177773216e-03
         - 1.3186023471551452e-03
         - -7.1199361953217801e-04
         - -1.3521750992970694e-03
         - 3.5859541657278582e-03
         - 1.0121315747761173e-02
         - -1.1150968753431785e-03
         - -4.5937118482010453e-03
         - -9.0741747162163312e-04
         - -1.6721704733829868e-03
         - -4.3128265154766003e-03
         - 1.6830425606211844e-02
         - 1.3416573380578259e-02
         - 3.2016556299916941e-03
         - 1.5561786522836954e-03
         - -1.9963811082513226e-03
         - -2.6718052731235366e-03
         - 2.6024932549931091e-03
         - -1.0604338556668794e-02
         - 2.1781842155583269e-03
         - 3.7596411435806250e-03
         - 5.9828127593289423e-03
         - 2.0801499409309940e-03
         - -5.9490714045721312e-03
         - -3.4457497070307543e-04
         - 3.6589150926849162e-03
         - 1.6018259003771455e-02
         - -3.4814725066924027e-03
         - 3.5115083614528004e-03
         - 7.8686545554885728e-03
         - -5.8288954262230826e-03
         - 1.3555036046640016e-02
         - 4.6912783477338228e-03
         - 3.7844479905928172e-03
         - 5.3141772513334356e-03
         - -4.5206598985532143e-03
         - -3.2130385946135052e-03
         - 1.1040931651712645e-03
         - 9.1294199811860349e-03
         - 1.3679027215992186e-02
         - -6.6703475263479089e-03
         - 1.3352801422181721e-02
         - -4.6758604471367421e-03
         - -1.2115550999506676e-02
         - 3.7646264019351159e-03
         - -7.1249618131547761e-03
         - -2.6748128437402759e-03
         - -7.9634936350519476e-05
         - -6.0689487483020464e-03
         - -3.8812475001294257e-03
         - -3.0353680702642242e-03
         - 3.1288117565555877e-03
         - -5.6177375037461084e-03
         - -2.6841623977850015e-03
         - 5.3986135033359034e-03
         - -2.7161472581803945e-03
         - 4.2280549416499847e-03
         - -6.0838639006891111e-03
         - 1.3448616100398061e-03
         - 1.0833273081437191e-03
         - 3.3684787585976724e-03
         - 4.1750174572994687e-03
         - 1.5032624879550919e-03
         - 3.9657293341322985e-03
         - 1.3745147847971375e-03
         - -3.4408800201718632e-03
         - 2.5731776084656375e-03
         - -2.4015831571398442e-03
         - -7.0699856299643888e-03
         - 1.4550462647689309e-04
         - -2.6842664092603864e-04
         - -4.4820998837135102e-03
         - -2.4975392426064011e-03
         - -3.2554868042777435e-03
         - -1.0471147150780680e-03
         - 3.6665337175188759e-03
         - -6.1795932427504549e-03
         - -1.8937212317765000e-03
         - -4.9424846620287318e-03
         - 3.8387873843498017e-03
         - 7.7225430360320256e-03
         - -6.9851215043782219e-03
         - 1.4620079367600642e-03
         - 4.9620828760031724e-03
         - -4.7416111196569065e-03
         - -1.0569871592817118e-02
         - 5.4894235585087213e-03
         - 1.2101983066283182e-03
         - -1.3337272880949234e-02
         - -1.8122158507580474e-02
         - 5.6850263308077520e-03
         - -6.8242123589101311e-02
         - -8.2710752213479535e-04
         - 3.7578753371997485e-03
         - 4.5490972078181579e-03
         - -2.9230645907299675e-03
         - 8.8515122717103441e-03
         - -8.8385735072365468e-03
         - -7.6444546845499360e-03
         - 1.0484694657971210e-02
         - -1.6025894517689367e-03
         - -6.1943935582970894e-03
         - -1.2170575635695281e-02
         - -5.5527606605451970e-03
         - 1.1873949789651169e-02
         - -2.6767123692597573e-02
         - 1.6488392125540150e-03
         - -7.6021226418855016e-03
         - 1.9119037643076573e-03
         - -1.8107915921026084e-02
         - 4.0387008469697514e-03
         - -2.6320335654557315e-02
         - 1.6312225885393557e-02
         - -1.2708450395700910e-03
         - -3.6870010521689194e-03
         - 1.4149260863807441e-03
         - 2.5746606214723744e-02
         - 2.7101554381096528e-03
         - 6.7639951019508099e-03
         - -1.8922542592489356e-03
         - -1.8794222856938526e-03
         - -7.3836611637361233e-03
         - 7.5772005743642342e-03
         - 1.6228563420327816e-02
         - -2.1396915529839269e-03
         - -8.3520729158444683e-03
         - 1.4397391277339435e-02
         - -7.1492655198381093e-03
         - 1.9924556302578812e-03
         - -8.6244081102982116e-03
         - 8.3642007016131153e-03
         - -2.2889484338570756e-02
         - -8.5198013448669254e-03
         - -2.1194449140490416e-03
         - -6.4014468463314579e-03
         - -1.5463356912391395e-03
         - 4.3565354930347579e-03
         - -8.8572258560456456e-03
         - -1.5483737025389790e-02
         - -2.7578962645747010e-02
         - 4.3097314556196356e-03
         - -3.4295178969473067e-02
         - 9.2791578201488444e-03
         - 6.3476626380424735e-03
         - 2.3887603085944844e-03
         - 3.4947482624479087e-03
         - 1.1686870456117255e-02
         - -5.5096600128194126e-03
         - -5.4936939561940337e-03
         - 1.0451875546958428e-02
         - -4.3210516322658406e-03
         - -9.4346461770076738e-03
         - -9.1229486990262087e-04
         - -8.7148740362093888e-03
         - 7.3191200491022372e-03
         - -4.0121226139186797e-02
         - 6.1054938785958758e-03
         - -7.7036759067116252e-03
         - 6.6068060058047011e-03
         - -1.1792168384857459e-02
         - 4.8535477381903376e-03
         - -4.5747163220685463e-02
         - 6.7852240470157076e-03
         - -6.7308636131813517e-04
         - -4.3894384251351734e-03
         - 5.1826332412863944e-03
         - 2.6923267875241002e-02
         - 3.5139942608753819e-03
         - 1.4110870264353982e-02
         - -4.3188417635502685e-03
         - -6.5975885535115610e-03
         - -5.1193629300580407e-03
         - 3.0566880621481218e-03
         - 1.0288017042222555e-02
         - 5.0856132305116524e-03
         - 1.5109560740751797e-03
         - -3.4039904024385508e-03
         - 2.8907242227724545e-03
         - -5.5504430226569303e-04
         - -9.2468914221447863e-03
         - 1.2141878181698684e-02
         - -2.2460926980059262e-02
         - -8.2273225171038949e-03
         - 2.3188371658789154e-03
         - -7.6072916726965369e-03
         - -8.3943044491052495e-03
         - 1.2971936322059603e-02
         - 5.8761218802698509e-04
         - -1.8960812240618137e-02
         - -3.9531549012531413e-02
         - 9.9027792870265349e-03
         - -9.3824099330053978e-02
         - 1.0409243566723276e-02
         - 1.1550825657511338e-02
         - 5.4925047392214649e-03
         - 4.0254249181845307e-03
         - 1.2648247145733805e-02
         - -7.0545265423233375e-03
         - -3.7240574120190610e-03
         - 9.2585388988650676e-03
         - -1.0221962900832701e-02
         - -1.4972154339817472e-02
         - -9.4702146002510201e-03
         - -1.0923230067773709e-02
         - 1.1826345678744465e-02
         - -3.9991923493290830e-02
         - -2.6163202197439159e-03
         - -1.3744482033861567e-02
         - 6.6523813748693662e-03
         - -8.8082618231944670e-03
         - 1.6033538305641561e-03
         - -4.8554243080865499e-02
         - 2.4890296694329621e-02
         - -1.1379984920626828e-03
         - -8.0711148898380512e-03
         - 6.7712051490515244e-03
         - 1.2770544524084000e-02
         - 5.3092760879325986e-03
         - 9.7479363877901806e-03
         - -5.7305236523533011e-03
         - 1.8277434228263110e-03
         - -8.5014931901310192e-03
         - 4.4107059671684538e-03
         - 1.9762031254379763e-02
         - 8.4653935416893790e-03
         - -1.0807808832753623e-03
         - 1.1971423323092400e-02
         - -5.8857269405329501e-03
         - -9.3228458169105147e-04
         - -1.7116752022567003e-02
         - -3.1739676453960176e-02
         - 8.2149456334330018e-03
         - 7.2246364236038425e-03
         - -1.1320835265414041e-02
         - 6.4106395481298845e-03
         - 1.3418478511667258e-02
         - -1.5128302146421682e-02
         - 2.0170471175856752e-03
         - 1.7626498548475592e-02
         - 2.9452134931914658e-02
         - -8.9379060114365000e-03
         - -5.5196431325737497e-02
         - -1.2899463093078056e-02
         - -1.6755015952444469e-02
         - -1.4358750145524402e-02
         - -5.3323791195393809e-03
         - -2.3539416448256443e-02
         - 9.0413055811332486e-03
         - 1.7141022286110752e-02
         - -1.8090496302820572e-02
         - 5.8496620128830595e-03
         - 1.6339028189854096e-02
         - 1.9885052218592856e-02
         - 1.5392567212411258e-02
         - -1.9746914089537406e-02
         - 2.3988844938814924e-02
         - 1.1244060501129998e-03
         - 2.6507927851280554e-02
         - -1.7292275815573663e-03
         - 2.5441731608407368e-02
         - 2.9248271350191413e-03
         - 1.6128944038398998e-02
         - -2.6766106957370535e-02
         - 6.1951863661256403e-03
         - 9.4085301624911438e-03
         - -6.9585238385659739e-03
         - -2.5948280701749444e-02
         - -3.6075660598682306e-03
         - -1.7692849233802724e-02
         - 4.4462262795449238e-03
         - -5.7542154843930483e-04
         - 5.7181439838876720e-03
         - -2.2314183634758299e-03
         - -2.6614749896112257e-02
         - -1.0150812973678494e-02
         - 6.0166994200629084e-03
         - -1.7774269079104194e-02
         - 5.4994804810693633e-03
         - -8.9814520887187728e-03
         - 1.3349488212715206e-02
         - 2.7746213628037815e-03
         - -1.1790712685714416e-02
         - 1.4262597796898724e-03
         - -2.5593958296154201e-03
         - 3.1907839304724261e-03
         - 2.7808092981146215e-03
         - -2.3996549412396164e-03
         - 1.6268672888799674e-03
         - -1.2589487040725761e-02
         - -3.8461123726603315e-03
         - 1.0493372909846940e-03
         - -4.4668442854580673e-02
         - -3.9129132979826529e-03
         - 5.5285654750558098e-03
         - 4.2545176212323843e-03
         - 3.2115970205079470e-03
         - -3.0337909097680352e-05
         - -6.5599256411387312e-04
         - 2.2342012755452384e-03
         - 2.0557044684393223e-03
         - -1.7915862991782451e-03
         - -6.2009472997995316e-03
         - -4.8071489333246587e-03
         - 5.4299036179038067e-04
         - 4.8018664684565410e-03
         - 1.5585230699933185e-03
         - 2.7592522193199452e-03
         - -4.0154663838974074e-03
         - 4.2393683329831561e-03
         - -9.0085773402245588e-03
         - 4.8705498834448946e-03
         - -1.3463082880375874e-02
         - 1.2117853470738536e-02
         - -4.2152132632104931e-03
         - -3.1515169221747606e-03
         - 4.8155768610348921e-03
         - 1.9069168628067167e-03
         - 4.2819121632741812e-03
         - 3.6168456381236713e-05
         - -1.2031768789377379e-03
         - 3.4312627524479547e-03
         - 2.1588557425458385e-03
         - -1.2773971616420542e-04
         - 4.8665534454044755e-03
         - 4.8960025619332439e-03
         - -6.6662761437591535e-03
         - 2.0654094563358542e-02
         - -1.7296835336901234e-04
         - -3.1020419291069700e-03
         - -3.8375325219034469e-03
         - -2.0387969759548675e-03
         - -1.8758853784870714e-03
         - -2.8338377338098983e-03
         - -6.0300099978904975e-04
         - 3.3026945675094298e-03
         - -2.3987460606633370e-03
         - 5.0042582243528090e-03
         - 3.8661962435339418e-03
         - -2.6474595462316151e-03
         - -2.7372076580564064e-03
         - -1.8059361378917472e-03
         - 5.6208430153848306e-02
         - 5.0670959680480592e-04
         - 7.1932049337694592e-03
         - -1.2615266095634130e-03
         - -2.3768209498761521e-03
         - -2.3043870305371871e-03
         - 3.8704889602821837e-03
         - 3.1558282238552829e-04
         - -3.8908536732671496e-03
         - -1.5461144141719662e-03
         - -4.1146375719036130e-03
         - -7.3783152001675976e-03
         - -3.2869346152805414e-03
         - 7.6615465593665305e-03
         - -2.9562497314754754e-03
         - 5.1962969747238437e-03
         - -3.8653553328610035e-03
         - 2.7337834894877043e-03
         - -4.6134066504639982e-03
         - 6.6332471191493181e-03
         - 1.5184141509336434e-02
         - 3.1896826205513127e-03
         - -3.1396825729429335e-03
         - 1.3027382166699694e-03
         - -3.0004961264482222e-03
         - 1.1073940355882474e-02
         - -4.4200924618405515e-03
         - 2.8202293339869063e-03
         - 5.7172309903859063e-03
         - 2.7059210918903382e-03
         - -4.2329011249972806e-03
         - 4.9044379660194834e-03
         - 1.7222388725625579e-03
         - -2.3228067473046368e-03
         - 2.7406510023131872e-03
         - 6.1833659149087671e-04
         - -4.4041884109167814e-03
         - -3.9967505326908709e-03
         - -1.2497324321250934e-03
         - -1.2683794113191838e-02
         - 2.2522926029284608e-02
         - 4.3607011868268433e-04
         - 7.4299815643647383e-04
         - -8.1092642110447904e-05
         - 9.0262909667260856e-03
         - -2.7586444504079559e-03
         - 3.4258509925663410e-03
         - 2.1760237111196176e-02
         - -7.9696575486050848e-03
         - -3.2672531922718355e-03
         - 3.3616824430571346e-02
         - -5.3489191957724665e-03
         - -5.4557796234772126e-03
         - -1.3576530915852312e-02
         - -8.5972870540598819e-03
         - -1.0309981585039390e-02
         - 2.4017595745214615e-03
         - 5.3279670451046694e-03
         - -4.2736891635925560e-03
         - 7.5488650056777067e-03
         - 1.2764146009438355e-02
         - 1.1482947389069220e-02
         - 1.0862785057856031e-02
         - -9.9119533141891446e-03
         - 2.1394142809151970e-03
         - -2.0852621142303084e-03
         - 1.1696037172039240e-02
         - -5.5752479036433123e-03
         - 1.1917732287470147e-02
         - -4.2586899432274410e-03
         - 5.5130448775376789e-02
         - 1.7019328838114092e-03
         - 5.9810146227415473e-03
         - -1.6395149360967671e-03
         - -7.2427334423960015e-04
         - -2.3494228282293530e-03
         - -2.6405252761649094e-03
         - -1.2684013394782227e-02
         - 1.0566680848338254e-02
         - 1.1707623895334447e-03
         - 9.7840424233114299e-04
         - -3.5866556018726149e-03
         - -1.2770675037441614e-02
         - -5.1934146079885592e-03
         - 9.9692297976870861e-03
         - 4.8803320443015826e-03
         - 1.9337047073330029e-04
         - 2.0274552350018175e-03
         - 1.0603747839808188e-02
         - 2.3308057304505430e-03
         - 2.3770012936656010e-02
         - 9.1520042218741905e-04
         - -6.7257036262499039e-03
         - 5.0830172033319229e-03
         - 1.9665286512532873e-03
         - -6.1885092745844203e-03
         - 4.4170591937574260e-03
         - 1.5238512306827330e-02
         - -5.6032756797424147e-03
         - -2.4947538754338068e-03
         - -9.6782921962329013e-03
         - -3.3854696780727411e-03
         - -4.1371479602204915e-03
         - -8.5416895161745370e-03
         - -6.1409833075781414e-04
         - -6.9766857562637346e-03
         - 1.7109805785170866e-03
         - -3.0496545564878672e-03
         - -1.0615589416907564e-02
         - 4.5487776828550298e-03
         - 2.1238583622209175e-03
         - 8.7156374463573470e-03
         - 7.3598594485413636e-03
         - 4.9205521001459884e-04
         - -8.9839508123379635e-04
         - 1.6497494783720128e-03
         - -3.2334683365723852e-03
         - -6.6999746222690696e-03
         - -2.3132878737406222e-03
         - 1.5455640154933557e-03
         - 3.7768553548787526e-02
         - 1.5673246046059072e-02
         - -3.9415828444149207e-03
         - -4.1321230199519721e-03
         - -3.5965080631234461e-03
         - -2.5447742440883902e-03
         - -1.4564276816888752e-03
         - -4.9964585625558323e-03
         - 8.9268640825501796e-04
         - -2.9715758201264704e-03
         - -5.0689214996260733e-04
         - 2.3806442794043728e-03
         - -1.7129713996180806e-03
         - -6.0763378907633279e-03
         - 7.4407442395013693e-03
         - 1.2783471716279689e-02
         - 5.5991690794428457e-03
         - 4.0649075587570195e-04
         - 3.9831383131482484e-03
         - 1.0542097841563149e-02
         - 7.0539945002858675e-03
         - -7.8720724717466217e-03
         - 1.1964074607604140e-03
         - 3.3709936564230974e-03
         - -3.8369274011824561e-03
         - 4.8577829961276115e-03
         - -5.4152154884038531e-03
         - -1.1702573643612645e-02
         - -7.0887497874460486e-03
         - 4.6649217031338149e-03
         - -6.9665115197976753e-03
         - 1.1560243355372913e-02
         - 5.0282715227517056e-03
         - 2.2815083412426459e-03
         - 7.8636754943093321e-04
         - 1.0055375151577121e-02
         - -9.4172983019135646e-03
         - -1.3543058166670001e-02
         - 4.9368411746876740e-03
         - -9.7274883826694181e-04
         - -1.0646610997850685e-02
         - -7.4933059442040808e-03
         - -2.2288793305115014e-03
         - 1.5645335122944953e-02
         - -2.0295689759158225e-02
         - 6.3512942552811959e-03
         - -1.5393825140825906e-02
         - -2.6971075048885253e-03
         - -1.4954799991947059e-02
         - -9.7235245241185863e-04
         - -6.4618902111138908e-03
         - 1.6090663256753582e-02
         - -2.0504651197932725e-03
         - -1.1817784586217133e-02
         - 1.6277925468642764e-03
         - 1.8927014208618677e-02
         - -4.1522522042260201e-03
         - 1.0367102174893443e-02
         - -7.5338234316933944e-04
         - 2.5206485598457794e-03
         - -1.1817416852173697e-02
         - 8.7191235589395306e-03
         - 8.6648262828796195e-03
         - 8.3829026358456986e-04
         - -4.4667976734623950e-03
         - 9.3346591380104611e-03
         - -2.6388762012459930e-03
         - 4.8483452441137080e-03
         - -9.9075165103106322e-03
         - 5.2601929691964370e-03
         - -1.0241442490045095e-02
         - -3.8725332211457992e-03
         - -3.4568175708805044e-03
         - -4.1997417502322816e-03
         - 2.5988102271800787e-04
         - -4.6237581962189423e-04
         - 3.1997897634542262e-03
         - -3.3661628416434249e-03
         - -5.2377594940232631e-03
         - 9.1284350656256463e-03
         - -3.7407425044135287e-02
         - -4.9612311441961821e-04
         - 1.0929592115920046e-02
         - 5.5666902411196694e-03
         - 5.4460657126485113e-03
         - 3.6064822592019622e-03
         - -3.8838845644358316e-03
         - -5.6712949241947215e-04
         - 5.9047999599783334e-03
         - -1.0761616339832567e-03
         - -4.2137835865830283e-03
         - -7.0846783831275770e-03
         - -4.0284807314505079e-03
         - 9.9329312800975501e-03
         - -1.7541632442464927e-02
         - 3.0233255585287271e-03
         - -3.2587539919143099e-03
         - -6.1068121772834662e-03
         - -7.8036031584060323e-03
         - -3.4479924024178820e-03
         - -2.4873421844060353e-02
         - 8.2746299034178981e-03
         - -5.5846442959745692e-03
         - -7.0472049145342830e-03
         - 4.4202429110783002e-04
         - 1.5679844502824461e-02
         - -4.3850829700996337e-03
         - 7.3178107147932750e-03
         - 5.5007063737914149e-04
         - -3.4258859501113438e-03
         - 3.1472881927778261e-03
         - 1.8354046801085534e-03
         - 1.8641888373594636e-03
         - 7.2198727432716244e-03
         - -3.5125656450722656e-03
         - 1.2806657752980607e-02
         - 1.0560669643585991e-03
         - -3.1891636402771122e-03
         - -8.3353746141920440e-03
         - -2.3656618257364304e-02
         - 6.8165235524899640e-03
         - 7.6280914199335758e-03
         - -9.6183453006627867e-03
         - 4.7751154566900343e-04
         - 6.9722275260301989e-04
         - -8.5103764451959878e-03
         - 1.0195300890732411e-02
         - 9.5562146409121553e-03
         - 2.7678770926342182e-02
         - -5.6407049433189350e-03
         - -1.0211716234528222e-02
         - -1.0110098122012525e-02
         - -1.5345249936684333e-02
         - -1.2838801923613318e-02
         - -8.7046885437555063e-03
         - -1.4018325378809381e-02
         - 7.3412351493847517e-03
         - 1.2514734781812691e-02
         - -1.0398755128528768e-02
         - 8.9326733315552714e-03
         - 1.9249881453248921e-02
         - 6.1691660856397941e-03
         - 1.3647625848004719e-02
         - -1.9613800680737713e-02
         - 4.4389915686582793e-04
         - -3.8276117082482334e-03
         - 2.8034966520034510e-02
         - 2.5980078388880611e-05
         - 1.9290810187070146e-02
         - -3.5313728419734567e-04
         - -1.4237804312704501e-02
         - -3.1647353042850851e-02
         - 2.8363648020172162e-03
         - 9.8028916885716348e-03
         - -3.1351171268005906e-03
         - -4.6628979315710192e-03
         - 2.1433669439768215e-03
         - -1.7280415750685851e-02
         - -2.1534673767412342e-03
         - 4.5179452909061592e-03
         - 6.4217089661251676e-03
         - -7.2689321732323647e-03
         - -1.0596139295225328e-02
         - 1.6508468029977555e-04
         - 1.0915545817757527e-02
         - -3.4270921450397396e-02
         - -4.7948895911891512e-04
         - -2.8622952579758264e-03
         - 7.3441874912722827e-03
         - 1.8394506893015562e-02
         - -2.5198375389102551e-02
         - -9.7518226893140141e-03
         - 6.7096053248107846e-03
         - -7.6384379555411832e-03
         - -1.1206174162542949e-02
         - 3.0776995926369705e-03
         - 1.0186660236595822e-03
         - -9.6881925900783906e-03
         - -1.7064433869892051e-02
         - 1.2675620126835454e-02
         - -4.1754987127113626e-02
         - -4.9400315592257732e-05
         - 1.2119608571723714e-02
         - 1.3650406148295340e-02
         - -1.8296914377625203e-03
         - 1.1634396981236840e-02
         - -2.5338598377115410e-03
         - -1.1026558884007566e-02
         - 9.0321394536108761e-03
         - -6.7096564936184786e-04
         - -1.4543024667281709e-02
         - -1.1281963593989759e-02
         - -5.8879467310341245e-03
         - 5.0434669673915938e-03
         - -2.9168236417870620e-02
         - 2.5913842110836275e-03
         - -1.0286156277962064e-02
         - -2.6104140414680969e-03
         - -8.3159780601650603e-03
         - 5.1518811770576590e-03
         - -4.1105979627345073e-02
         - 1.5257334961392147e-02
         - -5.4643472827246142e-03
         - -6.6804804466625237e-03
         - -1.5389738840589045e-03
         - 7.5958031959542276e-03
         - 2.1801480654339176e-03
         - 8.3486650515289008e-03
         - -4.5485451578912177e-03
         - 5.6994162186179507e-03
         - 1.8525474642934865e-04
         - -1.1885281740423568e-04
         - 8.9364328391755427e-03
         - 2.5187417366083752e-04
         - 9.7288030509351477e-04
         - 4.9791121292908238e-05
         - 3.7663509225977360e-03
         - 1.7259809379082242e-03
         - -1.3660185885036232e-02
         - -2.6926162175588641e-02
         - -6.0944897084302969e-03
         - 1.0324074530643592e-02
         - 1.7491150522845523e-05
         - 2.3679215936681795e-03
         - 1.4166194147336051e-02
         - -6.4853795918095730e-03
         - 6.3133073182215452e-03
         - 1.4172111128894145e-02
         - 3.1113755037158505e-02
         - -1.0723336269787066e-02
         - -2.1642977803044475e-02
         - -1.1401599118238756e-02
         - -8.2559614679407201e-03
         - -1.0686858728359732e-02
         - -2.6075050257882084e-03
         - -1.2572281597555798e-02
         - 1.2705003294560584e-02
         - 1.4624563466331134e-02
         - -1.0291054685542473e-02
         - 5.1513112122870157e-03
         - 1.5147149820535732e-02
         - 1.4924507368768970e-02
         - 1.4247777270196103e-02
         - -1.3918360549151625e-02
         - 3.7369686027764616e-02
         - -1.6422360362245664e-03
         - 2.2894742410298808e-02
         - 3.0800210582336367e-03
         - 2.3154756238586861e-02
         - -1.3471305026621235e-03
         - -4.8582218526780265e-03
         - -3.0863877909232448e-02
         - 1.1670226232552894e-02
         - 1.0808779238302389e-02
         - -1.1636480336864108e-03
         - -3.0598754707111629e-02
         - 7.3540231963021240e-04
         - -6.1574108990313072e-03
         - 4.5874422882693673e-03
         - -4.0051925160937626e-03
         - 1.0006088399820636e-02
         - -8.4156387993066760e-03
         - -1.9271317338861331e-02
         - -6.5423041793799975e-03
         - 1.1594435771394790e-02
         - -1.9040423544524222e-02
         - 6.2140661332972646e-03
         - -6.6665710171231335e-04
         - 9.6390278690357233e-03
         - -6.0411524391801429e-03
         - -1.4572021535126059e-02
         - 2.5390915534003991e-03
         - -6.2769536041436548e-05
         - 3.5470258010983319e-03
         - 1.4956567795658608e-03
         - -3.6451482344674394e-03
         - 4.1100901883971488e-03
         - -1.0042795660852375e-02
         - 5.8801008864570170e-04
         - 4.3909079319336694e-03
         - -1.5214364456598147e-03
         - -5.1243386617680882e-03
         - 9.3793637068861173e-03
         - -2.6086059227863269e-03
         - -5.2026054430563294e-03
         - 3.1263856610650653e-03
         - -6.1070286489407193e-03
         - 5.2992354617564979e-03
         - 2.7958038178612105e-03
         - 3.3246046675064559e-04
         - -8.4475984855533477e-04
         - -4.1641646406804017e-03
         - -4.3275007998788504e-03
         - 5.3247691180285028e-03
         - 1.1394103440182640e-02
         - 6.5045968369961075e-03
         - -5.6955465105230649e-03
         - 1.9611457233850546e-03
         - -5.7918279020623790e-03
         - -2.3750502361999785e-03
         - -9.9465643354132317e-03
         - 4.0284939519775881e-03
         - -2.1417589501234882e-03
         - 5.3210618847390088e-03
         - 3.2734378951975239e-03
         - -3.1981750996218422e-03
         - -2.1738162350586148e-03
         - 8.8601498189203281e-04
         - 2.1084735753569574e-03
         - 3.2199656901824880e-03
         - -2.2671661912429951e-03
         - -1.5900523151204124e-03
         - 7.5500702415430606e-03
         - -8.7231776291171552e-04
         - -2.6312270828583373e-03
         - 4.6239876938867714e-03
         - -4.2201994914562533e-03
         - 1.9618366383472431e-04
         - -4.8719385191638535e-03
         - -3.1547327095815948e-03
         - 2.5415037173789398e-03
         - 3.4331299518566630e-03
         - -1.4162252920859048e-03
         - -5.2489862454270864e-03
         - -8.4101551792161811e-04
         - 4.0310758312609822e-03
         - -5.9297082928446770e-03
         - -4.4439242140952209e-03
         - -2.0270573375785528e-02
         - 5.5162660574405173e-03
         - 7.0185060952878228e-02
         - -2.5077100206599965e-03
         - 8.5844504143231977e-03
         - 7.0098147992438808e-03
         - -4.1458231525136249e-03
         - 4.3969606148310247e-03
         - -4.7636318752948565e-03
         - 4.0351723250457022e-03
         - -3.8674284652969221e-03
         - -5.9811269083264729e-03
         - 3.0247157351600035e-03
         - -7.3231230723557013e-03
         - -1.1204513416642771e-03
         - 5.9291279846178926e-03
         - -1.1351034143027582e-02
         - 3.1965461101262946e-03
         - -4.9733082658036517e-04
         - 2.2038230959738067e-03
         - -4.8871217817457969e-03
         - -1.4165365350389898e-03
         - 1.2408274513065750e-02
         - 9.1330318975958984e-03
         - -1.2491356716406350e-03
         - 4.8328240756297337e-03
         - 5.9093861600297351e-03
         - 1.6179787287363769e-02
         - 5.2506911503007354e-03
         - 8.1929910449879857e-03
         - -1.2310548499296569e-03
         - 1.2156509663091952e-03
         - -3.7123567515401626e-03
         - -2.8079662673161109e-03
         - 7.7771174344668185e-03
         - -4.6766508978724163e-03
         - 5.2249954188742778e-03
         - 1.1608111989640610e-02
         - 5.3875422402824939e-03
         - 2.5237566615450531e-06
         - -8.0419063190042186e-03
         - 1.4653565000889802e-02
         - 1.4714712803711762e-02
         - 2.4550849088002097e-03
         - 5.7527117873167055e-03
         - -4.4827959813744251e-04
         - -2.7692741561343597e-03
         - 9.0196203458051767e-04
         - -1.7633188188880809e-03
         - 7.1372380146501727e-04
         - -3.1414318881082530e-02
         - 3.8417910903526457e-03
         - 2.3708437141680128e-02
         - -1.2945739668588556e-03
         - 8.2464527019617158e-03
         - 8.3703344467192381e-03
         - 3.7415632754322029e-03
         - 2.4375921445082827e-03
         - -7.9847786362143777e-03
         - -5.2537230929366055e-03
         - 1.4058403455283850e-03
         - -3.8799908720883267e-03
         - -5.7235466793711708e-03
         - -9.3786344995865027e-03
         - -3.9451004288067349e-03
         - 3.2042244548768407e-04
         - -1.6528356202158631e-02
         - 5.0380515137909533e-03
         - -1.0254732791318789e-02
         - 2.4936158668074650e-03
         - -1.3814839123487375e-02
         - -4.0794789950024703e-03
         - 2.2298179246153075e-02
         - 2.7745007590942769e-02
         - -6.7489090979371566e-03
         - -2.0456269416298990e-04
         - -1.4792167907866089e-03
         - 2.0953158381703259e-02
         - 9.8481934759093895e-04
         - 2.3958843865635473e-03
         - 5.3239074769277491e-03
         - -1.3620063906931378e-03
         - -5.5623354488607427e-03
         - 5.3178589026240926e-03
         - 5.8845887548899878e-03
         - 6.5982016603711455e-03
         - 4.6219340025271353e-04
         - 3.1309180156795763e-02
         - -2.2401513785423664e-03
         - 5.0389208980702021e-03
         - -9.8887027073360934e-03
         - -1.7986738080278290e-02
         - 3.4992747972653254e-02
         - 6.3646956894042065e-03
         - -7.8942642542660004e-03
         - -2.6418044531120163e-04
         - 9.9060907533187782e-03
         - -1.1917254099744000e-02
         - 1.3548124529340897e-03
         - 2.1974331945879704e-02
         - 2.3414750135736323e-02
         - -7.4350061217660019e-03
         - 2.8399810017267833e-03
         - -6.6507106501937042e-03
         - -1.7442429005701435e-02
         - -1.2777467247396817e-02
         - 7.0762030267947670e-04
         - -1.3459423811211626e-02
         - 6.7914879400626941e-03
         - 7.3004619925168277e-03
         - -7.5329121303369150e-03
         - 5.2520930117577391e-03
         - 1.5461805990521113e-02
         - 1.3262716621089353e-02
         - 9.1091166682705834e-03
         - -1.5945607654854550e-02
         - 2.1454634721614706e-02
         - -1.6190415240589955e-03
         - 9.1482856786588417e-03
         - 1.9127959702703867e-03
         - 7.2215455810862765e-03
         - -4.4802395017628782e-03
         - 3.9348914088934379e-02
         - -1.1962141262901300e-03
         - 7.3189104751882166e-03
         - 8.6261500921671532e-03
         - -6.5985365651541530e-03
         - -1.3926067749893811e-02
         - -2.9879384633860638e-03
         - -9.5368584737056464e-03
         - 3.1112378079222874e-03
         - 4.8681677990086141e-03
         - 1.9954599959391395e-03
         - -3.8955023356100349e-03
         - -1.6189014841686791e-02
         - -3.5372624195559913e-03
         - 1.1964086405890275e-02
         - 7.8196310564656139e-03
         - -1.0574136428567236e-04
         - -4.1467913381045352e-03
         - 1.5044621866282545e-02
         - 7.9420359088455978e-03
         - 6.8285435327429932e-03
         - -6.7491415403337918e-03
         - 8.3034876683492770e-03
         - -4.3266157990490698e-03
         - -1.2745535644346717e-02
         - 5.5681838163554786e-04
         - 1.0990485470997100e-03
         - -3.3083673134570077e-03
         - 1.1354148179750754e-02
         - 6.5456027195930338e-03
         - 2.9738486744511510e-03
         - 3.9446301658599015e-03
         - 5.5487665331707568e-03
         - 1.6755486449333658e-03
         - 3.7958501265918944e-04
         - 1.7781118015247815e-02
         - -5.8231432412980642e-03
         - -9.6452714267209125e-03
         - 1.8539693052900426e-03
         - -7.0882670531088659e-04
         - -1.0542602337475266e-02
         - -6.2426641552335640e-03
         - -8.0443234338591595e-03
         - 1.3769482667204104e-02
         - -2.4572220796948228e-02
         - -2.6342121535774736e-03
         - -2.0486015158782497e-02
         - 2.3352013589107963e-03
         - -1.8340713970997569e-02
         - -7.6725469229982043e-04
         - -3.0004805715630510e-03
         - 1.7048065723873308e-03
         - -2.5790987299297943e-03
         - -1.0057538496541920e-02
         - 3.9482410576243739e-03
         - 1.6829020508135881e-02
         - 2.2171104943251420e-03
         - 3.8757536846626491e-03
         - -8.3916538635964693e-03
         - 3.4474841012752718e-03
         - -4.8399118059506566e-03
         - 3.6206037471851246e-03
         - 1.1882235632667186e-02
         - 4.0029274576384643e-03
         - -4.8478627360504963e-03
         - 2.1808142728105825e-02
         - 2.4866127408748232e-04
         - 4.7355974364222527e-03
         - -1.0139456487912748e-02
         - -1.1850484271374652e-02
         - 5.1686890496164730e-03
         - 1.0227186288935698e-02
         - -4.2855399038935447e-03
         - -2.8648688996310220e-03
         - 5.6157720019061209e-03
         - -1.0626336009237146e-02
         - 7.7365243792717293e-03
         - 9.1550260947396069e-03
         - 3.3034531694828680e-02
         - 8.2517509671586317e-05
         - -1.7954921216354489e-02
         - -8.0942697862418161e-04
         - -1.0084664362397489e-02
         - -8.9285265239517717e-03
         - -6.9849501654616845e-03
         - -8.6851590985471266e-03
         - 5.2124992890433203e-03
         - 1.0792490878452044e-02
         - -9.8449655719756116e-03
         - 1.8884019516157406e-04
         - 5.0480449215141590e-03
         - 1.0565809432302599e-02
         - 1.2505014629647891e-02
         - -8.2848307148182115e-03
         - -1.0102693712732060e-02
         - -2.7689423819110843e-03
         - 1.7162183542090419e-02
         - -5.4567949840645781e-03
         - 1.7057700144227216e-02
         - -3.5254387965549696e-03
         - -7.2699422648445783e-03
         - -1.9805786592189390e-02
         - 1.6827245191368674e-03
         - 9.0870962506224076e-03
         - 7.0837726630355630e-04
         - 2.9258142672550043e-03
         - -4.9397453994073351e-03
         - -1.3824052279860301e-02
         - 3.3700805511901800e-03
         - 1.2177180523246266e-03
         - 8.6917543037227357e-03
         - -4.2929665566220181e-03
         - -9.5279820345135369e-03
         - -5.6137542826927445e-03
         - 5.3833617429841236e-03
         - -2.4875220158172888e-02
         - -3.6718765345844836e-03
         - 4.3491197692726181e-03
         - 1.4084219311130680e-02
         - -2.2909534760965619e-02
         - 2.3659289637458354e-04
         - 1.0904362353546063e-02
         - -7.1287820158704735e-03
         - 8.9754413277497863e-03
         - 6.9416138815109104e-03
         - -1.5384776055111685e-02
         - 1.1148663493912381e-02
         - 1.1512870995603526e-02
         - 3.5487234514560685e-02
         - -1.0828523797269911e-02
         - -3.3896522674347401e-03
         - -1.1121585535320246e-02
         - -1.2441969052623918e-02
         - -1.4996735843588576e-02
         - -5.4731385002894407e-03
         - -1.4004460671565506e-02
         - 2.2505199588495413e-03
         - 3.1986751665329669e-03
         - -1.2122491902556584e-02
         - 3.7639312590978663e-03
         - 1.2210190749770132e-02
         - 1.5151688680750024e-02
         - 6.8814644699514253e-03
         - -1.2502982019686073e-02
         - 3.5439843659986784e-03
         - 5.9909920407708672e-05
         - 2.7145739357792749e-02
         - -2.8276129517742373e-03
         - 3.0150030910647371e-02
         - -4.9007374256669293e-03
         - -1.3785703629050176e-02
         - -3.6800202231631086e-02
         - 7.3673930624749097e-03
         - 1.3256726065287076e-02
         - -3.8166967725716413e-03
         - -6.8437756573386114e-03
         - 4.2832215852443203e-03
         - -1.5069793667335664e-02
         - 4.9490705547799666e-03
         - -3.1367078366922982e-04
         - 3.8241575929366303e-03
         - -9.7641260446692749e-03
         - -2.0729110349643826e-02
         - -1.0115637765454356e-03
         - 7.5331960099865305e-03
         - -4.0621784720133641e-02
         - 2.5935901797357976e-03
         - -1.7854430685786387e-03
         - 1.6527898869857765e-02
         - -2.6855421355489729e-02
         - 7.8623119305598083e-03
         - 1.2746526815911662e-02
         - -1.7367667091975807e-03
         - 1.0067478752270461e-02
         - 1.1332430219591705e-02
         - -7.5312762138889707e-03
         - 5.6610395913985433e-04
         - 1.3994546879308772e-02
         - 3.2806857596571273e-02
         - -1.6222608728861464e-02
         - -2.8697365548791497e-02
         - -1.2850372196684508e-02
         - -2.7982316295585351e-02
         - -1.7721988701930667e-02
         - -4.2703291135838392e-03
         - -2.5189729908016493e-02
         - 1.5897891269782416e-02
         - 1.1196010286804389e-02
         - -1.2613607256629336e-02
         - 9.9626334342093510e-03
         - 2.0690926047060281e-02
         - 1.8777184117869217e-02
         - 1.5034649088655261e-02
         - -2.0486063500049872e-02
         - 2.0346696645762052e-02
         - -3.5917251949922533e-03
         - 3.6212258768233835e-02
         - -4.7485114856145880e-03
         - 2.8846337716985308e-02
         - -5.6069217335863054e-03
         - 4.5870538092893732e-03
         - -3.4363557163970208e-02
         - 8.3572164187796436e-03
         - 7.6391886205271348e-03
         - -1.5073476456171383e-03
         - -3.1440395431282027e-02
         - -7.3938214230640648e-03
         - -2.0707773673005810e-02
         - 6.8346891576632693e-03
         - 1.0906810971306631e-03
         - 1.3682754342240894e-02
         - -9.0444795311713563e-03
         - -1.9860338065453311e-02
         - -6.2210223438481631e-03
         - 4.0332059454652363e-03
         - -4.6328096533513705e-02
         - 6.0303090602556323e-03
         - -3.8309399486327351e-03
         - 1.9355498101245011e-02
         - 2.1269662576502705e-02
         - -3.0416091057409181e-02
         - -6.3758086073875666e-03
         - 2.9010151614298580e-03
         - -7.7258180676130807e-03
         - -8.2497060181489397e-03
         - 1.6236292241344610e-02
         - -7.9322767263369908e-03
         - -2.0628107054625075e-02
         - -2.7127286191239421e-02
         - 7.4970463926416009e-03
         - -4.5933296416537983e-02
         - 1.1374215864417518e-02
         - 1.5978086399774653e-02
         - 1.5256885214793608e-02
         - 4.9550854948889342e-03
         - 2.3510096238524580e-02
         - -1.1549325978443711e-02
         - -7.4143369446928818e-03
         - 1.4867655792835987e-02
         - -1.2684914085404083e-02
         - -1.4761924363970155e-02
         - -1.2867390462549977e-02
         - -1.4338830742002071e-02
         - 1.5336695068779100e-02
         - -1.2705508763228778e-02
         - 3.2722621441855582e-03
         - -1.1786750134207859e-02
         - -6.8072079172629303e-04
         - -1.2316619445851261e-02
         - 4.0124714941285142e-04
         - -4.6071651491998294e-02
         - 1.0662972229819750e-02
         - -8.0489031031393335e-03
         - -2.7800781800502959e-03
         - -2.6887972679734305e-03
         - 4.3756946921772706e-03
         - 2.3543978058628264e-03
         - 1.5059970289406876e-02
         - 7.7835500659498682e-04
         - -5.4216969524207874e-03
         - -9.2607467588715665e-03
         - 9.6025831456685480e-03
         - 2.4391669993972954e-02
         - 6.5209244754534778e-03
         - -7.6378259361733281e-03
         - 1.5675700170952558e-02
         - 5.4355088830138878e-04
         - 4.3330509952630965e-03
         - -1.6364837501111801e-02
         - 3.9206160149747663e-03
         - -1.6012404826811894e-02
         - 1.9112529261185022e-03
         - 7.5363562072675548e-03
         - -2.8639657888014629e-03
         - -8.0760842545387901e-03
         - 1.1698495715344676e-02
         - -2.9221817279820698e-03
         - -1.3905669244071776e-02
         - -2.0027604681603150e-02
         - 4.3150990838434974e-03
         - -1.1327299085512597e-03
         - -5.3100777115177732e-04
         - 6.5609793040935513e-03
         - 6.2881451419654162e-03
         - 1.4824233276991394e-03
         - 2.9225567232581385e-03
         - -2.3600271229172755e-03
         - -3.6774743296470744e-03
         - 4.6422855827288447e-03
         - -4.9389011008855923e-04
         - -1.2589920864305382e-02
         - -7.6457222090058549e-03
         - -3.4724476648436177e-03
         - 9.7448296369482580e-03
         - -9.0298568594495863e-05
         - 3.5175325041680249e-03
         - -1.5984956815676698e-02
         - 8.0952246124382492e-03
         - -7.5509972058084686e-03
         - 5.1925242780285485e-03
         - -1.1812399867923637e-02
         - 6.2124988574892718e-03
         - -6.6466867084272446e-03
         - -1.0606545771894621e-02
         - 3.8787594949672398e-03
         - 1.1365890856168842e-02
         - 6.4277377237000628e-03
         - 1.1713819737094835e-02
         - -4.7217247729589807e-03
         - -3.6581449602603529e-03
         - 1.9024286740225149e-03
         - 4.4735398211008586e-03
         - 4.6252369594839806e-03
         - 1.0618561023224894e-03
         - -7.2262909217422795e-03
         - 1.4402158412000661e-02
         - -2.2857987544253550e-03
         - 4.6372218728661034e-04
         - -1.3228463888991238e-02
         - 1.4457944803658901e-03
         - -5.7296373595033326e-03
         - 2.9326983561341414e-03
         - 5.0708817689473660e-03
         - -3.7134489442230078e-03
         - -4.0781653932706909e-04
         - 3.7187399499511082e-03
         - 4.3035973415470937e-03
         - -7.3572092914757341e-03
         - -1.4568893885610217e-02
         - 2.9844316739798421e-03
         - 6.4903508609637589e-02
         - -2.8971860135542601e-03
         - 1.0108089772129947e-02
         - 5.1161403083346208e-03
         - 6.1989777972521693e-03
         - 6.3143172424514902e-03
         - -8.1869466669621160e-04
         - 2.0352806597187562e-03
         - 7.4608131876059882e-03
         - 1.2597295681648821e-03
         - -2.4343028644843306e-03
         - -6.2859992848538502e-03
         - -5.9056059642410121e-03
         - -3.9749030437847988e-03
         - -4.6764508454863072e-03
         - -2.9419283402990315e-03
         - -3.3167405747620946e-03
         - 6.7826916200294067e-03
         - -6.2536271345992192e-03
         - -6.8915058632281566e-05
         - -6.3794147770245501e-04
         - 1.3544252960791617e-03
         - -6.0420217702996954e-03
         - 5.5917763049559074e-04
         - 4.8107239939635072e-03
         - 7.9476096435799528e-03
         - 2.7442020566321865e-04
         - 3.0182377198679174e-03
         - -5.5445754817064668e-03
         - -2.8410548361508412e-03
         - -5.0532187020056367e-03
         - 2.5822573341585703e-03
         - -3.0433530601007594e-03
         - -4.2523340935844310e-03
         - 1.7989066080301408e-03
         - 5.1693069545167376e-03
         - 4.1420211212039914e-03
         - 8.8654699836729475e-04
         - -5.5596415502870257e-03
         - 9.6132238380776704e-03
         - 4.1323013414832814e-03
         - -5.7088663522886383e-03
         - -2.9138625946827550e-03
         - -9.2045889718342193e-04
         - 2.9130050338280075e-04
         - -8.2040059627445916e-04
         - 4.8781530177076626e-04
         - 7.0824683871299034e-03
         - -1.5928934283553197e-02
         - -6.9264372742582796e-04
         - 4.6774072867543579e-02
         - 2.3148036016516329e-03
         - -4.1715138496214088e-03
         - -4.7879289197687268e-03
         - -5.1909224671236823e-03
         - 8.0252471648369107e-03
         - -2.2737548397290240e-03
         - -5.4388592554482462e-04
         - -2.5499897740971470e-03
         - 4.1691383747664056e-03
         - -7.6554726686375706e-03
         - -4.4723917561036245e-04
         - -2.3333327478855283e-03
         - -3.2354904232898907e-03
         - -1.1353138581502824e-02
         - -2.7051927875761713e-03
         - -1.2103766735750450e-02
         - -1.4269673324574786e-03
         - -8.9479533218246084e-03
         - -2.3829050052715968e-03
         - 3.0498942837016646e-04
         - 1.1975424035009577e-02
         - -3.6492935107038439e-03
         - -8.7730450941172480e-04
         - -4.9822207926696806e-03
         - 1.4837916357884633e-02
         - -5.3429744931085283e-03
         - -1.7388587360194902e-03
         - 3.6237916481431107e-03
         - -6.3040853999774505e-03
         - 4.5397927778513545e-03
         - -6.3650873055000144e-03
         - -1.5368363102682449e-03
         - 1.2885367863791478e-03
         - -2.3860792436536859e-03
         - 1.7628018328305656e-02
         - 3.2420705330172823e-03
         - -1.4567410129579903e-03
         - -3.4363845613187296e-03
         - 2.9536676286615309e-02
         - -2.4840748119215918e-03
         - -1.1535706329939789e-02
         - 1.4209117492088974e-03
         - 1.7466696343271079e-03
         - -6.7416986157454546e-03
         - 1.0464715180310174e-02
         - -6.5150442119779632e-03
         - -9.1785376463952989e-03
         - -2.5963556014165442e-02
         - 1.6881205862635810e-02
         - -5.5332900953719656e-02
         - 4.5818035784978934e-03
         - 1.0944532925515855e-02
         - 7.0520186846889923e-03
         - 7.2021209249952698e-03
         - 2.4565256675865354e-02
         - -4.3255721199146223e-03
         - -6.7957800718379527e-03
         - 1.1288139549122930e-02
         - -7.2806122490353025e-03
         - -1.7184202505946565e-02
         - -1.7078513396168900e-02
         - -1.6190280561424644e-02
         - 2.5367220467919383e-02
         - -1.3738929287658293e-02
         - 6.8589329296889802e-03
         - -3.4259989099392006e-02
         - -6.9383747769704034e-04
         - -3.6246530225130962e-02
         - -4.0054007872512686e-03
         - -6.9478682742629182e-03
         - 4.3128551116652751e-02
         - -1.6964468615757293e-03
         - -7.6128373060353680e-03
         - 1.6366111762206772e-03
         - 1.8514588465394048e-02
         - 2.7657077426875456e-03
         - 5.7894643569438593e-03
         - -4.1469601392841752e-03
         - 1.3507607487373448e-03
         - -8.4015695877898769e-03
         - 1.5260538510363652e-03
         - 1.6175265680718413e-02
         - 2.9233491565458362e-03
         - -2.8341162614992995e-03
         - 5.3810992043971481e-02
         - -3.9390100531544486e-04
         - 7.4186145355316201e-05
         - -1.4390349259839300e-02
         - -7.2090187885416367e-03
         - 2.0840814365695542e-02
         - 3.5066053858698221e-03
         - 3.5838362840970401e-03
         - 6.4011170439350756e-03
         - 3.7141698427703282e-03
         - -9.4971251386105505e-03
         - 3.8808522366788390e-03
         - 1.0070703480026070e-02
         - 2.4838915529253505e-02
         - -1.1958399077505967e-02
         - -2.6033469209806590e-04
         - -6.5563163447141352e-03
         - -1.5081664128053899e-02
         - -3.1644783308629196e-03
         - 4.1006404794732842e-04
         - -1.1645941149078421e-02
         - 3.2313590787439723e-03
         - -6.3077796589585940e-04
         - -1.2271610226327558e-02
         - -4.8493200349754908e-04
         - 9.3819120791879020e-03
         - 1.8465834486620359e-03
         - 1.0813911413834566e-02
         - -6.7223089365487125e-03
         - 1.1978005232964339e-02
         - 4.3067388630666026e-03
         - 9.6984303022682877e-03
         - -4.6180148590013615e-03
         - 7.0117436041079034e-03
         - -1.1482285908780360e-03
         - 9.4569153371000438e-03
         - -1.9400789339304350e-02
         - 4.7176279250663051e-03
         - 5.5643343017276522e-03
         - -4.7018817212391697e-03
         - -9.1431608263895688e-03
         - -3.6186120114650826e-03
         - -1.0929919564106048e-02
         - 6.8811964636418237e-03
         - -6.4070551999056687e-04
         - 1.0913783425226485e-03
         - -1.3584682143512328e-03
         - -6.6096241096815960e-03
         - -2.3526732344961001e-03
         - 3.5237084586069401e-03
         - -1.5866426367065204e-02
         - 4.0104324936354931e-03
         - 4.1653230232692072e-03
         - 4.1926213482671231e-03
         - 2.6453320308586136e-03
         - -1.4019530944453060e-02
         - -5.1544099521909988e-04
         - 1.1779529494268918e-05
         - -1.1290121854961334e-03
         - -3.2731002703783505e-03
         - 5.3436506704735362e-03
         - -2.6802078150787545e-03
         - -7.7473523637563079e-03
         - -7.6675160440164581e-03
         - 3.1220485776914868e-03
         - -6.7360018500431565e-02
         - 3.5347912230719960e-03
         - 5.1077207352211136e-03
         - 6.1857346279247426e-03
         - 1.3590397588358423e-03
         - 8.8976050178797249e-03
         - -2.7889661761534086e-04
         - -8.6700643871573026e-03
         - 4.8690045414296005e-03
         - -5.2199611159771866e-03
         - -9.7748049211051902e-03
         - 3.3776864565015271e-04
         - 9.2457779940437852e-04
         - 6.2866648969143119e-03
         - -2.3336742776293825e-02
         - 4.4272908489087427e-04
         - -1.0257694219345012e-02
         - -2.9594420873775679e-03
         - -6.2664501371299617e-03
         - -3.7460318899942163e-03
         - -3.1545009239999901e-02
         - 8.2945886418257925e-03
         - -3.8012595144352674e-03
         - -9.3301011160408422e-03
         - -6.0910307782732699e-04
         - 1.5030428609355329e-02
         - -2.6742481431323022e-03
         - 4.7228370608708257e-04
         - 1.3660098754872719e-03
         - 5.0433809044830738e-04
         - -2.4217372609170525e-03
         - -3.3981877843584645e-03
         - 8.0328511177148870e-03
         - 6.7150862742303054e-03
         - -5.0924088402477547e-03
         - 1.4075054531453267e-02
         - -6.1030322784698290e-04
         - 7.6076491338184730e-03
         - -7.2761202443408762e-03
         - -3.4331101122690277e-02
         - 1.1404715946594628e-02
         - 7.7537056138314913e-03
         - -2.6465117365637538e-03
         - 2.7977380158768408e-03
         - 9.6675596079876178e-03
         - -1.8772680165862005e-02
         - 1.2464366388105158e-02
         - 1.4806832361865504e-02
         - 1.9039249583978290e-02
         - -6.7419548558806351e-03
         - -8.5956650671179732e-03
         - -6.3595515127782840e-03
         - -2.4579639711143436e-02
         - -1.9764602711838223e-02
         - -7.8968289153357480e-03
         - -3.0287856078884279e-02
         - 7.6890864058519453e-03
         - 1.4148668812403965e-02
         - -1.7761458626304533e-02
         - 1.0363780713156023e-02
         - 2.6261166951193016e-02
         - 1.8221662548637736e-02
         - 1.4559608509011113e-02
         - -2.2140002571700207e-02
         - 6.1796493343634646e-03
         - -7.1772202144133566e-03
         - 3.4076407801795848e-02
         - -6.4382114162315270e-04
         - 3.0197985838629385e-02
         - -6.3347711799463672e-03
         - 2.0808498915384226e-03
         - -2.7927045534560584e-02
         - 1.1432214710928356e-02
         - 1.4696800456371497e-02
         - -8.3554802554397685e-03
         - -1.4883868319195562e-02
         - -5.7088893649429534e-03
         - -2.1231688288128651e-02
         - 4.7058006236982584e-03
         - 3.5367188524014241e-03
         - 6.2103070616106827e-03
         - -7.0030451590688426e-03
         - -1.9335339321899361e-02
         - -1.0212658923328437e-02
         - 1.0591592964875279e-02
         - -5.8394556924289472e-02
         - 3.2954276499980459e-03
         - -2.5263082941986573e-03
         - 2.5423334660610808e-02
         - 1.5439689040608710e-02
         - -1.7881639235378152e-02
         - -7.1151408316347938e-03
         - 3.5876211068692114e-03
         - -3.8482549175746991e-03
         - -8.3399675962889819e-03
         - 7.1319029826729429e-03
         - -3.3127625027241691e-03
         - -7.9990875200305171e-03
         - -4.2791793837854267e-02
         - 1.9100738554464591e-03
         - -8.8977327917722851e-02
         - 3.5962275485249375e-04
         - 1.4178650824712270e-02
         - 1.2081440374178526e-02
         - 6.7129778010343677e-04
         - 8.9920730129634720e-03
         - 1.2122033323540670e-03
         - -9.9429829872175520e-03
         - 6.1771402339267263e-03
         - -9.8712218423733667e-03
         - -2.9550969437489630e-03
         - -1.7088803082625497e-03
         - -3.0589895583538838e-03
         - 1.1010299590594352e-02
         - -3.5145949669854792e-02
         - 2.1516356671903761e-03
         - -3.5917850411654542e-04
         - -4.1341239955860424e-03
         - -1.1538398950286676e-02
         - 1.7314590749799943e-03
         - -3.4918563828547827e-02
         - 2.2500455550732636e-02
         - -4.5649631297355947e-03
         - 1.9089325750261490e-03
         - -2.4733041508179345e-03
         - 9.7054583210455930e-03
         - 1.4474625219279202e-03
         - 1.5426644646949308e-02
         - 3.3389005014964417e-03
         - -1.5279700359612433e-03
         - -4.9330660992247507e-03
         - 1.1611576779066582e-03
         - 1.1492081240053301e-02
         - 9.9279479925192806e-04
         - -8.8398283591926523e-03
         - 4.0913647089615476e-03
         - 2.7070962524237789e-03
         - 4.5427179107774837e-03
         - -5.2768344036873745e-03
         - 1.1642705815270365e-02
         - -1.9389131157711396e-02
         - 9.8401634323078793e-06
         - 3.2909951233457959e-03
         - 1.9702347250841155e-03
         - 1.9330735977090151e-03
         - 3.0638252779009690e-04
         - 2.7195002750511144e-04
         - -1.5142689535679725e-02
         - -1.8309652226807662e-02
         - 7.2389602187726962e-03
         - -1.0028463230327286e-01
         - 1.0020886374641215e-02
         - 4.6455099403123010e-03
         - 2.9313088114332878e-03
         - -2.7516635984695054e-03
         - 5.0157366231204283e-03
         - 2.0370268562043903e-03
         - -1.7660019215736881e-03
         - 1.3203081511470992e-02
         - 1.6152324847950280e-03
         - 1.2462350289884539e-05
         - -2.6064931604183571e-03
         - -2.3602035846033396e-03
         - 2.2268227816308267e-03
         - -9.7355768677247524e-03
         - 3.1407300225482259e-03
         - -3.1027742841313027e-03
         - -1.5331729277830129e-03
         - -9.3114509894948704e-03
         - 1.9727794721850250e-03
         - -2.3038870673218449e-02
         - 1.8279922011367276e-02
         - -4.8062237593813261e-03
         - -6.3315704384270038e-03
         - -3.0165408747217155e-03
         - -6.3292465346762913e-03
         - 2.7641728523397054e-03
         - 4.1517418271014000e-03
         - -5.3795752190843472e-03
         - 8.0287903778312047e-03
         - -3.6720375042560032e-03
         - 9.0242043242591673e-03
         - 2.7427351162129026e-03
         - -2.1581167642672409e-03
         - -1.8386691547240687e-03
         - 2.3320087278469622e-02
         - -4.2679590333968556e-03
         - -4.4513024771750988e-03
         - -1.3500361881959889e-02
         - -3.4933051033012003e-02
         - -1.1775772974676037e-03
         - 5.6966890920716572e-03
         - -7.2840402305565915e-03
         - 5.0779464428979959e-03
         - 1.0398413014438184e-02
         - -8.7229784205460556e-03
         - 5.4637635107406572e-03
         - 1.6738377873808687e-02
         - 2.7214699900814317e-02
         - -9.4856150991325903e-03
         - -7.6578860759123875e-03
         - -4.9839795626586700e-03
         - -2.4507171828857737e-02
         - -1.0719152262978943e-02
         - -1.1221963156618072e-02
         - -3.0347067573840251e-02
         - 8.1058520801870586e-03
         - 1.7991625806863441e-02
         - -1.9158097022899133e-02
         - 8.4671750254554125e-03
         - 1.5984896709513599e-02
         - 1.1358556750454215e-02
         - 8.9926098769687445e-03
         - -2.5239926827675244e-02
         - 4.1158360448292693e-02
         - 4.5230528518452239e-04
         - 1.6539619620674399e-02
         - -1.2496719670290505e-03
         - 2.1218363442562008e-02
         - -3.7249022814746620e-04
         - 8.6548315685477054e-03
         - -3.4427981960571799e-02
         - 6.0824546188637208e-03
         - 9.6447719463615290e-03
         - 1.2261632181574714e-03
         - -3.5141487183365433e-02
         - 2.7328535152926535e-03
         - -1.9876901035615759e-02
         - 5.4607323234882555e-03
         - 4.3673201608284027e-03
         - 1.2357913288606096e-02
         - -8.3660668760542657e-03
         - -2.1913860566020002e-02
         - 1.1234984882712580e-03
         - 1.3493478477295994e-02
         - -1.7712523844538110e-02
         - 9.1650676694799600e-03
         - -2.8014265474240463e-03
         - 1.4829555419764114e-02
         - 1.4558333869623234e-02
         - -9.7071066101734604e-03
         - -9.3999725838337788e-04
         - -7.1583867867517584e-04
         - -4.2512802449591689e-03
         - -5.5925250524623089e-03
         - 2.3714174530291387e-03
         - 5.8270106223167579e-04
         - -1.8874991411308144e-03
         - -7.1616283460675988e-03
         - -1.9834557987949879e-03
         - 5.7874361056703759e-02
         - -2.5645985067571653e-03
         - 5.8506472955898864e-03
         - 8.8272531399951424e-03
         - -1.6340804361387397e-03
         - 8.9297218982297094e-04
         - -6.7267140118692252e-03
         - -4.6980007548380739e-03
         - 8.2977375206434170e-04
         - -6.8818907239718849e-03
         - 2.8926395738114257e-04
         - -7.1158809196830812e-03
         - -8.4541939936368746e-03
         - -8.5982500192917518e-04
         - -7.6916057841347396e-03
         - 5.1015543353874577e-03
         - -1.2552710301166104e-02
         - 3.8921660028581372e-03
         - -1.4076778731070876e-02
         - -6.4433482513401633e-04
         - -8.9411110899491227e-03
