%YAML:1.0
---
opencv_ml_ann_mlp:
   format: 3
   layer_sizes: [ 1024, 50, 2 ]
   activation_function: SIGMOID_SYM
   f_param1: 6.6666666666666663e-01
   f_param2: 1.7159000000000000e+00
   min_val: -9.4999999999999996e-01
   max_val: 9.4999999999999996e-01
   min_val1: -9.7999999999999998e-01
   max_val1: 9.7999999999999998e-01
   training_params:
      train_method: BACKPROP
      dw_scale: 1.0000000000000000e-03
      moment_scale: 0.
      term_criteria:
         epsilon: 1.0000000000000001e-01
         iterations: 100
   input_scale:
      - 2.6457543247252131e+00
      - -1.3506487721437725e+00
      - 2.6406538918296851e+00
      - -1.3523746018540030e+00
      - 2.6306482985668800e+00
      - -1.3469086731171267e+00
      - 2.6260896772292353e+00
      - -1.3456303124218914e+00
      - 2.6169081771506564e+00
      - -1.3472389773509015e+00
      - 2.6099132991868763e+00
      - -1.3475956829592479e+00
      - 2.6037045076734424e+00
      - -1.3492303511054260e+00
      - 2.6025060040767443e+00
      - -1.3530930037660664e+00
      - 2.5964435898312872e+00
      - -1.3531633117102115e+00
      - 2.6026832254162593e+00
      - -1.3601218065593070e+00
      - 2.6005296465157310e+00
      - -1.3595754580941131e+00
      - 2.6042825181015967e+00
      - -1.3625996849071633e+00
      - 2.5985055312361212e+00
      - -1.3609512818600347e+00
      - 2.5974691047260992e+00
      - -1.3578571290020662e+00
      - 2.5967250511702935e+00
      - -1.3570764057579823e+00
      - 2.5973502599233100e+00
      - -1.3569217999067882e+00
      - 2.5944855545739256e+00
      - -1.3537872980446228e+00
      - 2.5889476236636071e+00
      - -1.3511239118829583e+00
      - 2.5942265537494147e+00
      - -1.3537433177339018e+00
      - 2.5997428280741888e+00
      - -1.3484094110543570e+00
      - 2.6006133300361305e+00
      - -1.3409161614047294e+00
      - 2.6025587284088725e+00
      - -1.3389960375818259e+00
      - 2.6055947882019979e+00
      - -1.3347932714348119e+00
      - 2.6084111777601482e+00
      - -1.3356756180665730e+00
      - 2.6145394557920767e+00
      - -1.3357704252545908e+00
      - 2.6247306202173797e+00
      - -1.3358411034326991e+00
      - 2.6272753442096684e+00
      - -1.3321504984075929e+00
      - 2.6274567410304681e+00
      - -1.3277452041488527e+00
      - 2.6320621508772351e+00
      - -1.3230924650338902e+00
      - 2.6406603164028195e+00
      - -1.3203583402644472e+00
      - 2.6577198053616118e+00
      - -1.3220050962472762e+00
      - 2.6601077231822057e+00
      - -1.3152135424151956e+00
      - 2.6440283117202723e+00
      - -1.3528586411056844e+00
      - 2.6377385001424147e+00
      - -1.3544080832712895e+00
      - 2.6311880920798290e+00
      - -1.3522954522553947e+00
      - 2.6257892035572028e+00
      - -1.3507583841310582e+00
      - 2.6128848680164962e+00
      - -1.3501668292289795e+00
      - 2.6066799285546902e+00
      - -1.3509352200546696e+00
      - 2.6008329619916202e+00
      - -1.3531534495086635e+00
      - 2.6019758310151251e+00
      - -1.3569183936412055e+00
      - 2.5990347724988303e+00
      - -1.3556486570291186e+00
      - 2.5957943679159441e+00
      - -1.3597322897081754e+00
      - 2.5982858098962041e+00
      - -1.3639160793768335e+00
      - 2.5996934064325359e+00
      - -1.3659686751297910e+00
      - 2.5958175415279521e+00
      - -1.3659097474553621e+00
      - 2.5951403733584391e+00
      - -1.3630819302865584e+00
      - 2.5924609558170837e+00
      - -1.3600841644952539e+00
      - 2.5901899146397409e+00
      - -1.3596712372597641e+00
      - 2.5913758658264738e+00
      - -1.3592562207964469e+00
      - 2.5897735381963756e+00
      - -1.3561966220861816e+00
      - 2.5947628935036744e+00
      - -1.3556110187984869e+00
      - 2.5998436446680167e+00
      - -1.3512691833527071e+00
      - 2.6038347968318445e+00
      - -1.3459188800809565e+00
      - 2.6065689162812968e+00
      - -1.3436829434526312e+00
      - 2.6053704552010890e+00
      - -1.3394327719036216e+00
      - 2.6058973214246470e+00
      - -1.3374422571134836e+00
      - 2.6132801796520639e+00
      - -1.3380775476969817e+00
      - 2.6184423036273730e+00
      - -1.3361109036906078e+00
      - 2.6199791063548958e+00
      - -1.3320213847601114e+00
      - 2.6207195632359674e+00
      - -1.3294489411814170e+00
      - 2.6306252904743057e+00
      - -1.3270039151402353e+00
      - 2.6405533080891979e+00
      - -1.3224051141723665e+00
      - 2.6536025762931716e+00
      - -1.3238702887543903e+00
      - 2.6556687087273891e+00
      - -1.3167505369831718e+00
      - 2.6423351015856125e+00
      - -1.3509118009944614e+00
      - 2.6334397600337747e+00
      - -1.3547031276821475e+00
      - 2.6242812008705800e+00
      - -1.3557173695365596e+00
      - 2.6194725717795730e+00
      - -1.3570731333779606e+00
      - 2.6128127011587301e+00
      - -1.3589762061099206e+00
      - 2.6067088263338998e+00
      - -1.3588355835334245e+00
      - 2.6005544907485216e+00
      - -1.3594581972899384e+00
      - 2.6035085365373836e+00
      - -1.3613546514992776e+00
      - 2.5991353669805064e+00
      - -1.3585992782444924e+00
      - 2.5924530961888359e+00
      - -1.3611871006299758e+00
      - 2.5975057341767411e+00
      - -1.3690596568605340e+00
      - 2.5960825911887095e+00
      - -1.3682367668786870e+00
      - 2.5920973540174597e+00
      - -1.3683607830139259e+00
      - 2.5940130673654767e+00
      - -1.3694770021488181e+00
      - 2.5881626774590893e+00
      - -1.3653201409631952e+00
      - 2.5837354677348152e+00
      - -1.3649827413424878e+00
      - 2.5877731952243921e+00
      - -1.3644249708966534e+00
      - 2.5921110957761955e+00
      - -1.3629821925844474e+00
      - 2.5934031202760806e+00
      - -1.3579773593095319e+00
      - 2.5954723525507419e+00
      - -1.3542170355759342e+00
      - 2.6013785711579875e+00
      - -1.3536722381724486e+00
      - 2.6056443963804701e+00
      - -1.3500003955365922e+00
      - 2.6041856430251733e+00
      - -1.3457214374014062e+00
      - 2.6075703828279901e+00
      - -1.3450415605776997e+00
      - 2.6135450253228010e+00
      - -1.3419139237500639e+00
      - 2.6143627845267763e+00
      - -1.3390457009085375e+00
      - 2.6155034186273318e+00
      - -1.3358749362436164e+00
      - 2.6232582038916226e+00
      - -1.3352598726463856e+00
      - 2.6275909851715302e+00
      - -1.3303366614852850e+00
      - 2.6409142018243736e+00
      - -1.3270758076088138e+00
      - 2.6490928967595808e+00
      - -1.3247200254576044e+00
      - 2.6574462729271460e+00
      - -1.3187315905660546e+00
      - 2.6397719062298886e+00
      - -1.3509823921322492e+00
      - 2.6263016598662232e+00
      - -1.3519800233810946e+00
      - 2.6213630130030667e+00
      - -1.3577337950095065e+00
      - 2.6176515185693865e+00
      - -1.3611370686633766e+00
      - 2.6166019442109647e+00
      - -1.3640729971752039e+00
      - 2.6103735731255484e+00
      - -1.3642737348001719e+00
      - 2.6024601450743563e+00
      - -1.3652443986648526e+00
      - 2.6004291247327367e+00
      - -1.3659553576580548e+00
      - 2.5950985977262766e+00
      - -1.3636537643968283e+00
      - 2.5934688352718025e+00
      - -1.3676294303506498e+00
      - 2.5937169794562878e+00
      - -1.3693054711588240e+00
      - 2.5932837756285152e+00
      - -1.3690221075861961e+00
      - 2.5906841431266137e+00
      - -1.3704061378626782e+00
      - 2.5858583094316221e+00
      - -1.3705162070584298e+00
      - 2.5811178451874488e+00
      - -1.3693063449617799e+00
      - 2.5833256773090625e+00
      - -1.3712734609233816e+00
      - 2.5859899104278963e+00
      - -1.3703203667406332e+00
      - 2.5880890132015604e+00
      - -1.3666628253887589e+00
      - 2.5894932985311523e+00
      - -1.3633050845625718e+00
      - 2.5948603244232511e+00
      - -1.3602914276437199e+00
      - 2.5987749901486374e+00
      - -1.3590567927265560e+00
      - 2.6013195745873450e+00
      - -1.3548357564953621e+00
      - 2.5973843505145906e+00
      - -1.3484543733225971e+00
      - 2.6047674936465657e+00
      - -1.3501258004396177e+00
      - 2.6072674635317701e+00
      - -1.3462009504319781e+00
      - 2.6062021761035710e+00
      - -1.3423591138081208e+00
      - 2.6093464142996967e+00
      - -1.3405729855662321e+00
      - 2.6170184737585149e+00
      - -1.3371400335598989e+00
      - 2.6234928970275577e+00
      - -1.3342115874419658e+00
      - 2.6350257003929176e+00
      - -1.3326267409046502e+00
      - 2.6403728335835375e+00
      - -1.3258594021077619e+00
      - 2.6528799486074357e+00
      - -1.3209299184339338e+00
      - 2.6321344227997852e+00
      - -1.3503101995253115e+00
      - 2.6255018961962078e+00
      - -1.3537776547870939e+00
      - 2.6207990494117301e+00
      - -1.3582744696986224e+00
      - 2.6209638952494063e+00
      - -1.3645525056419554e+00
      - 2.6159490605902840e+00
      - -1.3643012440091715e+00
      - 2.6070544243484477e+00
      - -1.3633194104420143e+00
      - 2.5986123420102611e+00
      - -1.3641214284317056e+00
      - 2.5949625350040106e+00
      - -1.3658745377953867e+00
      - 2.5894350478992894e+00
      - -1.3645466955876115e+00
      - 2.5887975556313441e+00
      - -1.3685330923439902e+00
      - 2.5909042148796311e+00
      - -1.3705250753712972e+00
      - 2.5878556760864595e+00
      - -1.3677203907587068e+00
      - 2.5871506872097227e+00
      - -1.3701997489862543e+00
      - 2.5809125910040542e+00
      - -1.3700181379431198e+00
      - 2.5808282927928032e+00
      - -1.3721198920947486e+00
      - 2.5837010223177570e+00
      - -1.3741806482424190e+00
      - 2.5826419720494775e+00
      - -1.3713129607321697e+00
      - 2.5856639722803680e+00
      - -1.3696957523125557e+00
      - 2.5901833181188336e+00
      - -1.3682993912826142e+00
      - 2.5918212481881229e+00
      - -1.3638523651920802e+00
      - 2.5983152566734486e+00
      - -1.3619543691026479e+00
      - 2.5983851753404532e+00
      - -1.3585492437750639e+00
      - 2.6011550759416839e+00
      - -1.3555007742654319e+00
      - 2.6025382318645724e+00
      - -1.3518304742685658e+00
      - 2.6018230997066669e+00
      - -1.3480861440735161e+00
      - 2.6029446531090286e+00
      - -1.3426287004869988e+00
      - 2.6036404324089024e+00
      - -1.3393023403524928e+00
      - 2.6102274912635237e+00
      - -1.3362756174206278e+00
      - 2.6201242117790624e+00
      - -1.3345642372517423e+00
      - 2.6277353716978094e+00
      - -1.3323619790587422e+00
      - 2.6346669012330497e+00
      - -1.3271682062319801e+00
      - 2.6470588267878190e+00
      - -1.3234222900973334e+00
      - 2.6287733613908064e+00
      - -1.3509361533144137e+00
      - 2.6284132786786447e+00
      - -1.3589691304701066e+00
      - 2.6238659528002541e+00
      - -1.3617768653824978e+00
      - 2.6186105602726273e+00
      - -1.3636320422990038e+00
      - 2.6093629764041784e+00
      - -1.3618689168019464e+00
      - 2.5990627402697721e+00
      - -1.3618002193303487e+00
      - 2.6006873620129802e+00
      - -1.3676594045725583e+00
      - 2.5980888453933590e+00
      - -1.3703036174541401e+00
      - 2.5899485407419820e+00
      - -1.3685591885625155e+00
      - 2.5861371499064063e+00
      - -1.3713190686334105e+00
      - 2.5848688863848155e+00
      - -1.3732597803776483e+00
      - 2.5852457311865518e+00
      - -1.3730004851979414e+00
      - 2.5840445918523964e+00
      - -1.3757472018760268e+00
      - 2.5776600894289539e+00
      - -1.3744110492926020e+00
      - 2.5764138681642152e+00
      - -1.3750448588735831e+00
      - 2.5792226700836980e+00
      - -1.3755387387357598e+00
      - 2.5775200197227943e+00
      - -1.3717588608915923e+00
      - 2.5845861912338655e+00
      - -1.3718553164856528e+00
      - 2.5895715066059886e+00
      - -1.3719574456336809e+00
      - 2.5924404206558402e+00
      - -1.3686064715458341e+00
      - 2.5953619482247774e+00
      - -1.3657729694223621e+00
      - 2.5979444982439452e+00
      - -1.3635263544192873e+00
      - 2.5984206397125234e+00
      - -1.3589366110850949e+00
      - 2.6042778145114363e+00
      - -1.3558987001861045e+00
      - 2.6052991991588303e+00
      - -1.3543311005070027e+00
      - 2.6026390715286474e+00
      - -1.3472696040245931e+00
      - 2.6015903207354172e+00
      - -1.3396095218287460e+00
      - 2.6090715198756769e+00
      - -1.3360077402958048e+00
      - 2.6188924710790831e+00
      - -1.3361502791856235e+00
      - 2.6258594128182513e+00
      - -1.3317355917460074e+00
      - 2.6371600288602193e+00
      - -1.3315663539771656e+00
      - 2.6476344267889900e+00
      - -1.3290320123755357e+00
      - 2.6315378950555015e+00
      - -1.3546167476044950e+00
      - 2.6267935011465058e+00
      - -1.3600714565691265e+00
      - 2.6228388477272442e+00
      - -1.3633914476796769e+00
      - 2.6188327981514470e+00
      - -1.3653821818773912e+00
      - 2.6067590603340109e+00
      - -1.3645299283445111e+00
      - 2.5986666106350436e+00
      - -1.3649786335392418e+00
      - 2.5982734022678833e+00
      - -1.3685411263287439e+00
      - 2.5967353039038388e+00
      - -1.3730201756611462e+00
      - 2.5924340616109616e+00
      - -1.3741712753055710e+00
      - 2.5873315702106350e+00
      - -1.3763239996668459e+00
      - 2.5834495428414592e+00
      - -1.3772032556071603e+00
      - 2.5835497684368631e+00
      - -1.3776654811220848e+00
      - 2.5815225125026129e+00
      - -1.3810740813359765e+00
      - 2.5773599085414922e+00
      - -1.3803606777192510e+00
      - 2.5700918724895940e+00
      - -1.3762182148127318e+00
      - 2.5745905878539097e+00
      - -1.3746184934839674e+00
      - 2.5768405130501191e+00
      - -1.3727445104616809e+00
      - 2.5845320356721473e+00
      - -1.3734302601552413e+00
      - 2.5887811106436773e+00
      - -1.3747052089349918e+00
      - 2.5905870284891184e+00
      - -1.3730396767355988e+00
      - 2.5902278186238972e+00
      - -1.3690069026741336e+00
      - 2.5938417101452171e+00
      - -1.3662396020633474e+00
      - 2.5955878387339442e+00
      - -1.3602969617996044e+00
      - 2.6011112550578650e+00
      - -1.3600310050374826e+00
      - 2.6023641879036141e+00
      - -1.3584676942281206e+00
      - 2.6023158032308991e+00
      - -1.3541423543008388e+00
      - 2.6040645405058220e+00
      - -1.3452352669337195e+00
      - 2.6091130918932000e+00
      - -1.3396251298689570e+00
      - 2.6141855472895084e+00
      - -1.3360321913646205e+00
      - 2.6269461063076780e+00
      - -1.3357337008096981e+00
      - 2.6355496372121454e+00
      - -1.3343075206713011e+00
      - 2.6467575102419070e+00
      - -1.3327894229184098e+00
      - 2.6292222422897153e+00
      - -1.3560501690736850e+00
      - 2.6261707348350893e+00
      - -1.3616426236764987e+00
      - 2.6186669936432834e+00
      - -1.3621749727975425e+00
      - 2.6141489634626143e+00
      - -1.3627653777388229e+00
      - 2.6027043305706634e+00
      - -1.3657034808808459e+00
      - 2.6041231618207430e+00
      - -1.3722908029690084e+00
      - 2.5988575302920274e+00
      - -1.3707657019570203e+00
      - 2.5934127265432041e+00
      - -1.3733255101918809e+00
      - 2.5918734203580076e+00
      - -1.3776422952356107e+00
      - 2.5854808712307817e+00
      - -1.3789381599045227e+00
      - 2.5796338499000795e+00
      - -1.3788740410635458e+00
      - 2.5821106566274770e+00
      - -1.3813477758946830e+00
      - 2.5770800590885976e+00
      - -1.3830440151798724e+00
      - 2.5730549017123194e+00
      - -1.3835240846837837e+00
      - 2.5659718464585124e+00
      - -1.3792309762760238e+00
      - 2.5698733674859731e+00
      - -1.3765940400424495e+00
      - 2.5743183445322662e+00
      - -1.3739315499019062e+00
      - 2.5733384464031319e+00
      - -1.3704679174675281e+00
      - 2.5796302765584174e+00
      - -1.3735527641260281e+00
      - 2.5855720341696338e+00
      - -1.3740642303994623e+00
      - 2.5831286976170933e+00
      - -1.3704038071392759e+00
      - 2.5854044702306966e+00
      - -1.3665404285035418e+00
      - 2.5920859077345697e+00
      - -1.3641868067846046e+00
      - 2.5996026492500004e+00
      - -1.3655021032523571e+00
      - 2.5993960723768330e+00
      - -1.3609684945838472e+00
      - 2.6009737488224238e+00
      - -1.3568537147949740e+00
      - 2.5999571136246655e+00
      - -1.3496858793914102e+00
      - 2.6038780706233591e+00
      - -1.3415173575680983e+00
      - 2.6117773164958935e+00
      - -1.3373672877478151e+00
      - 2.6221710795574329e+00
      - -1.3347825109044427e+00
      - 2.6341731473690491e+00
      - -1.3347008280047725e+00
      - 2.6464137609498826e+00
      - -1.3317333895477992e+00
      - 2.6260718613931657e+00
      - -1.3577944418969381e+00
      - 2.6243205869383375e+00
      - -1.3622779543184964e+00
      - 2.6150762743045566e+00
      - -1.3622234734429055e+00
      - 2.6087568810739739e+00
      - -1.3628602818485418e+00
      - 2.6012919957817422e+00
      - -1.3673813025586876e+00
      - 2.5961657920699719e+00
      - -1.3716032503966500e+00
      - 2.5948381933310576e+00
      - -1.3701485256930110e+00
      - 2.5875830170947705e+00
      - -1.3715865006393690e+00
      - 2.5866231999211431e+00
      - -1.3789378771493344e+00
      - 2.5842970929834457e+00
      - -1.3803508305761527e+00
      - 2.5774213202505902e+00
      - -1.3808396605671420e+00
      - 2.5774000617941790e+00
      - -1.3841099022603871e+00
      - 2.5681388887694605e+00
      - -1.3838329154805369e+00
      - 2.5664616122653525e+00
      - -1.3856681167620672e+00
      - 2.5633668908996081e+00
      - -1.3817691269219119e+00
      - 2.5662180679237201e+00
      - -1.3782577877232767e+00
      - 2.5701973858909466e+00
      - -1.3753016285771245e+00
      - 2.5706309063485659e+00
      - -1.3721531307833070e+00
      - 2.5723511041164757e+00
      - -1.3710616639380457e+00
      - 2.5763442483528318e+00
      - -1.3734022551089402e+00
      - 2.5752700972293150e+00
      - -1.3725901102986455e+00
      - 2.5815192801573636e+00
      - -1.3696376923081568e+00
      - 2.5869984089659339e+00
      - -1.3682330959485638e+00
      - 2.5945832830564264e+00
      - -1.3667748696918831e+00
      - 2.5969155398571071e+00
      - -1.3589912194296152e+00
      - 2.5996693923395457e+00
      - -1.3567391687121728e+00
      - 2.6002442959050858e+00
      - -1.3528771608459143e+00
      - 2.6043470793690586e+00
      - -1.3422301645091839e+00
      - 2.6142716135898421e+00
      - -1.3376568172559129e+00
      - 2.6210566174738821e+00
      - -1.3330313408529360e+00
      - 2.6313586034824512e+00
      - -1.3322609046927718e+00
      - 2.6427126374661714e+00
      - -1.3322260432760289e+00
      - 2.6214252334838846e+00
      - -1.3577901824432892e+00
      - 2.6195238047899525e+00
      - -1.3615712856859448e+00
      - 2.6130796533923561e+00
      - -1.3633017103346690e+00
      - 2.6058755264805376e+00
      - -1.3664319564962344e+00
      - 2.5986092736159061e+00
      - -1.3683619844796930e+00
      - 2.5938937957739649e+00
      - -1.3693783909026500e+00
      - 2.5919642407153396e+00
      - -1.3716103562940367e+00
      - 2.5813304685690035e+00
      - -1.3725048491271621e+00
      - 2.5821943494666000e+00
      - -1.3771044710648721e+00
      - 2.5795922571798258e+00
      - -1.3807446287179139e+00
      - 2.5770062589232472e+00
      - -1.3849468000558005e+00
      - 2.5690647687532251e+00
      - -1.3843540585944130e+00
      - 2.5609766329684782e+00
      - -1.3846054636200269e+00
      - 2.5582503175257778e+00
      - -1.3852183381700074e+00
      - 2.5580720495591720e+00
      - -1.3825226326175244e+00
      - 2.5598526546100344e+00
      - -1.3786871813382224e+00
      - 2.5612770809303744e+00
      - -1.3761421324082710e+00
      - 2.5618200745044377e+00
      - -1.3729746259841795e+00
      - 2.5658730299440689e+00
      - -1.3706671414589620e+00
      - 2.5711718172746290e+00
      - -1.3747380882209133e+00
      - 2.5704390591339226e+00
      - -1.3734695238868815e+00
      - 2.5802478144751078e+00
      - -1.3716195113042839e+00
      - 2.5834637302487438e+00
      - -1.3673595746682705e+00
      - 2.5900811419728487e+00
      - -1.3646335294564464e+00
      - 2.5949056018520129e+00
      - -1.3595909610605605e+00
      - 2.6021915243281803e+00
      - -1.3565213166629249e+00
      - 2.6057097588422411e+00
      - -1.3532306980478459e+00
      - 2.6123144028870979e+00
      - -1.3433167118282412e+00
      - 2.6137542767966946e+00
      - -1.3365892583582726e+00
      - 2.6194519296482777e+00
      - -1.3320425850658859e+00
      - 2.6307841768724298e+00
      - -1.3328661064015959e+00
      - 2.6414478132432486e+00
      - -1.3336550473842879e+00
      - 2.6222946597057550e+00
      - -1.3602118229268134e+00
      - 2.6203876136649691e+00
      - -1.3640969846515525e+00
      - 2.6128438630620665e+00
      - -1.3648612830324611e+00
      - 2.6063090508943545e+00
      - -1.3685853417873173e+00
      - 2.6000348995729112e+00
      - -1.3704006895376932e+00
      - 2.5945865629946674e+00
      - -1.3726635479188967e+00
      - 2.5894785651329024e+00
      - -1.3738751420232800e+00
      - 2.5798767589269920e+00
      - -1.3727824091606888e+00
      - 2.5777137585918526e+00
      - -1.3744416405293234e+00
      - 2.5740065798513818e+00
      - -1.3791096478089440e+00
      - 2.5714492924702403e+00
      - -1.3836651813778744e+00
      - 2.5604201649333036e+00
      - -1.3815930952300806e+00
      - 2.5557424526935995e+00
      - -1.3827209136381309e+00
      - 2.5523935477534723e+00
      - -1.3833201490450122e+00
      - 2.5540049628679089e+00
      - -1.3844564873693137e+00
      - 2.5536836884378684e+00
      - -1.3796055990262797e+00
      - 2.5510115454392648e+00
      - -1.3762857719091830e+00
      - 2.5543820258021395e+00
      - -1.3763636053392296e+00
      - 2.5619470827494935e+00
      - -1.3737754052479800e+00
      - 2.5642599683366347e+00
      - -1.3738165470185695e+00
      - 2.5646445373747966e+00
      - -1.3721325248570764e+00
      - 2.5742137198604267e+00
      - -1.3721708881511314e+00
      - 2.5832987471627020e+00
      - -1.3710048144550653e+00
      - 2.5861103075073064e+00
      - -1.3654309140676248e+00
      - 2.5907434122414230e+00
      - -1.3619839842068517e+00
      - 2.5976465742859540e+00
      - -1.3543557076344308e+00
      - 2.6036083328532182e+00
      - -1.3486822909993310e+00
      - 2.6110540681652123e+00
      - -1.3437763985081119e+00
      - 2.6115025853115448e+00
      - -1.3357683234302482e+00
      - 2.6163433250225157e+00
      - -1.3310349924887914e+00
      - 2.6259830002043447e+00
      - -1.3302576393296595e+00
      - 2.6367364177791144e+00
      - -1.3313402089001818e+00
      - 2.6247734015012463e+00
      - -1.3622675299190645e+00
      - 2.6227966442190107e+00
      - -1.3673704598621517e+00
      - 2.6174143579135123e+00
      - -1.3691389031372740e+00
      - 2.6115939921938134e+00
      - -1.3688209653687489e+00
      - 2.6043022715456576e+00
      - -1.3722328437010403e+00
      - 2.5959932090828333e+00
      - -1.3766460229448554e+00
      - 2.5841276796817381e+00
      - -1.3734160881191175e+00
      - 2.5785605673928989e+00
      - -1.3731211442084061e+00
      - 2.5804372078461495e+00
      - -1.3761150903721404e+00
      - 2.5726220590162541e+00
      - -1.3777487794756891e+00
      - 2.5649073535132700e+00
      - -1.3800482508025054e+00
      - 2.5542364154924377e+00
      - -1.3782183233578675e+00
      - 2.5505080166693599e+00
      - -1.3795813395898995e+00
      - 2.5533760482780088e+00
      - -1.3841394285505506e+00
      - 2.5500988193565193e+00
      - -1.3844591206318377e+00
      - 2.5466086377457828e+00
      - -1.3812678519998849e+00
      - 2.5466754777564162e+00
      - -1.3795170034528481e+00
      - 2.5492121618723025e+00
      - -1.3776359256627320e+00
      - 2.5551649093428561e+00
      - -1.3760753420244385e+00
      - 2.5591373832017528e+00
      - -1.3758575842395153e+00
      - 2.5626729080893935e+00
      - -1.3755830282982546e+00
      - 2.5687499114198999e+00
      - -1.3739878122225841e+00
      - 2.5778202273607107e+00
      - -1.3707949066502987e+00
      - 2.5824509699906266e+00
      - -1.3652986750114855e+00
      - 2.5844029991099697e+00
      - -1.3608043229562423e+00
      - 2.5933861400027629e+00
      - -1.3545370171147069e+00
      - 2.6000257448118007e+00
      - -1.3459401756071798e+00
      - 2.6075415654770948e+00
      - -1.3426143293890855e+00
      - 2.6076975092784020e+00
      - -1.3351522063142169e+00
      - 2.6152719242708073e+00
      - -1.3323655772494916e+00
      - 2.6226289687881663e+00
      - -1.3293082955502649e+00
      - 2.6332784169994827e+00
      - -1.3300460588060123e+00
      - 2.6244405637098733e+00
      - -1.3615423543685412e+00
      - 2.6210933211910801e+00
      - -1.3663126631829241e+00
      - 2.6152209037652390e+00
      - -1.3699655442974730e+00
      - 2.6108995429546078e+00
      - -1.3716519984024134e+00
      - 2.6022543496196606e+00
      - -1.3717123630234291e+00
      - 2.5943062539953958e+00
      - -1.3740654968916186e+00
      - 2.5813476792250034e+00
      - -1.3705294479254331e+00
      - 2.5753592249714954e+00
      - -1.3725232735098301e+00
      - 2.5780217216082351e+00
      - -1.3761941587321593e+00
      - 2.5714692345976733e+00
      - -1.3760245730658607e+00
      - 2.5592355735873071e+00
      - -1.3752373649178671e+00
      - 2.5553240493368214e+00
      - -1.3787938565586297e+00
      - 2.5507287939189505e+00
      - -1.3819915964069385e+00
      - 2.5506107400619302e+00
      - -1.3864545542005480e+00
      - 2.5431181306792507e+00
      - -1.3826689481041803e+00
      - 2.5387232557752060e+00
      - -1.3794308141859413e+00
      - 2.5410619100431782e+00
      - -1.3781657658602260e+00
      - 2.5474642547463762e+00
      - -1.3776397130683193e+00
      - 2.5516950465262327e+00
      - -1.3769263308891895e+00
      - 2.5503654833086427e+00
      - -1.3732710474505916e+00
      - 2.5552371016809925e+00
      - -1.3741509512977392e+00
      - 2.5634326344366829e+00
      - -1.3726793539635789e+00
      - 2.5761019817115369e+00
      - -1.3703783562759622e+00
      - 2.5806962281736996e+00
      - -1.3644811632014116e+00
      - 2.5827126050061326e+00
      - -1.3588859743351691e+00
      - 2.5915570071867289e+00
      - -1.3537533229345593e+00
      - 2.5950171257013985e+00
      - -1.3450473475174032e+00
      - 2.6019293076094452e+00
      - -1.3404595868559683e+00
      - 2.6079897925192688e+00
      - -1.3360039095216731e+00
      - 2.6184777022688128e+00
      - -1.3363013006286040e+00
      - 2.6243208204826276e+00
      - -1.3311935750470303e+00
      - 2.6346628208733640e+00
      - -1.3315971925335144e+00
      - 2.6217946089426825e+00
      - -1.3596654196242153e+00
      - 2.6169359141309245e+00
      - -1.3642223894268339e+00
      - 2.6146241183362400e+00
      - -1.3683850560422353e+00
      - 2.6128802579758013e+00
      - -1.3737244276969385e+00
      - 2.6033995466891602e+00
      - -1.3718375240073162e+00
      - 2.5942409114750102e+00
      - -1.3719315375519014e+00
      - 2.5871394209578407e+00
      - -1.3718428119364716e+00
      - 2.5793393196645402e+00
      - -1.3736409903262061e+00
      - 2.5714389763001955e+00
      - -1.3717185251047477e+00
      - 2.5662014278022731e+00
      - -1.3721600030912247e+00
      - 2.5561261014729837e+00
      - -1.3730817950921987e+00
      - 2.5573807522436889e+00
      - -1.3801299366068560e+00
      - 2.5519537331520414e+00
      - -1.3853486859722894e+00
      - 2.5427272357805402e+00
      - -1.3859516885214105e+00
      - 2.5376111396227734e+00
      - -1.3828965999739877e+00
      - 2.5389188309582358e+00
      - -1.3812890726839504e+00
      - 2.5388094429763459e+00
      - -1.3787965911876594e+00
      - 2.5426791265532604e+00
      - -1.3802026373938214e+00
      - 2.5491108553102904e+00
      - -1.3797574823893846e+00
      - 2.5464163890849254e+00
      - -1.3738722587607024e+00
      - 2.5485053364045007e+00
      - -1.3717224265922243e+00
      - 2.5588786854807171e+00
      - -1.3726772306119344e+00
      - 2.5666461011050070e+00
      - -1.3672314878945204e+00
      - 2.5770064734514695e+00
      - -1.3643173245031037e+00
      - 2.5831962284145060e+00
      - -1.3582776352328478e+00
      - 2.5873436050707754e+00
      - -1.3509372889418818e+00
      - 2.5918042743593359e+00
      - -1.3424057920937382e+00
      - 2.5998115276288996e+00
      - -1.3370574145098602e+00
      - 2.6088980332208922e+00
      - -1.3366395414493639e+00
      - 2.6171701962160090e+00
      - -1.3365303241186508e+00
      - 2.6263562766002377e+00
      - -1.3340998814573064e+00
      - 2.6350314146092799e+00
      - -1.3320280850176176e+00
      - 2.6165330846710093e+00
      - -1.3576567766841405e+00
      - 2.6151690645117558e+00
      - -1.3629368993517743e+00
      - 2.6123596910502518e+00
      - -1.3650707445590322e+00
      - 2.6057218763477410e+00
      - -1.3658442207422214e+00
      - 2.5999951110879391e+00
      - -1.3660959245329476e+00
      - 2.5936361338817657e+00
      - -1.3701207919745255e+00
      - 2.5911129406062789e+00
      - -1.3745406958334718e+00
      - 2.5825719126903719e+00
      - -1.3750613825485618e+00
      - 2.5709644691475968e+00
      - -1.3703153417196707e+00
      - 2.5625729512779736e+00
      - -1.3697837620372144e+00
      - 2.5545877643351136e+00
      - -1.3723859278730068e+00
      - 2.5537379143078174e+00
      - -1.3782565448393904e+00
      - 2.5493032325236031e+00
      - -1.3821805925079338e+00
      - 2.5379842380163837e+00
      - -1.3803503737428675e+00
      - 2.5390233690234676e+00
      - -1.3830891713683071e+00
      - 2.5411792578304744e+00
      - -1.3829800935214258e+00
      - 2.5372039765681027e+00
      - -1.3788884010387126e+00
      - 2.5353862048962421e+00
      - -1.3783087090992936e+00
      - 2.5420600983749360e+00
      - -1.3788077618543262e+00
      - 2.5467605834600087e+00
      - -1.3750849104978988e+00
      - 2.5500777651297226e+00
      - -1.3699307350831849e+00
      - 2.5524646398106459e+00
      - -1.3700817864143902e+00
      - 2.5599799467711213e+00
      - -1.3668726426239990e+00
      - 2.5707532726111699e+00
      - -1.3625754364276434e+00
      - 2.5775722621883763e+00
      - -1.3559225441903264e+00
      - 2.5828500735238773e+00
      - -1.3484695263429649e+00
      - 2.5904496469008613e+00
      - -1.3409487729933016e+00
      - 2.5995669878945398e+00
      - -1.3364580165481590e+00
      - 2.6046304920638375e+00
      - -1.3359571593081789e+00
      - 2.6145279305047229e+00
      - -1.3369541873595898e+00
      - 2.6236071135867842e+00
      - -1.3357118317467553e+00
      - 2.6371275210651746e+00
      - -1.3343022777731861e+00
      - 2.6191180785775923e+00
      - -1.3609791839289789e+00
      - 2.6107727366036366e+00
      - -1.3609469983474416e+00
      - 2.6086931722595468e+00
      - -1.3640555345943963e+00
      - 2.6011350768006114e+00
      - -1.3652290823162074e+00
      - 2.5974308827369317e+00
      - -1.3660079314015574e+00
      - 2.5945432569584841e+00
      - -1.3686851050828739e+00
      - 2.5876372713529827e+00
      - -1.3716510117955580e+00
      - 2.5795728953478632e+00
      - -1.3720977909562648e+00
      - 2.5716367795831361e+00
      - -1.3704106004922416e+00
      - 2.5615604085086958e+00
      - -1.3699607147123669e+00
      - 2.5519321276867961e+00
      - -1.3698679774436897e+00
      - 2.5484169961737733e+00
      - -1.3732411655803090e+00
      - 2.5442363547344247e+00
      - -1.3754229740277009e+00
      - 2.5403448158153670e+00
      - -1.3775072312185928e+00
      - 2.5377623161142324e+00
      - -1.3801464699229911e+00
      - 2.5381738073344633e+00
      - -1.3816916079332284e+00
      - 2.5347870390132563e+00
      - -1.3797075871331670e+00
      - 2.5325893980194865e+00
      - -1.3760027327027342e+00
      - 2.5415254965376279e+00
      - -1.3790807222740904e+00
      - 2.5436774350369165e+00
      - -1.3767703948776948e+00
      - 2.5454999613313509e+00
      - -1.3704878548243478e+00
      - 2.5521410948017329e+00
      - -1.3692022951645002e+00
      - 2.5602635863316823e+00
      - -1.3674175163064726e+00
      - 2.5680905729332695e+00
      - -1.3606796552486682e+00
      - 2.5769034405822335e+00
      - -1.3570834217055416e+00
      - 2.5809535518778581e+00
      - -1.3505423497609279e+00
      - 2.5901261322693019e+00
      - -1.3435078843792765e+00
      - 2.5976867186599151e+00
      - -1.3383495648698562e+00
      - 2.6092163861745559e+00
      - -1.3369383760390052e+00
      - 2.6196078698195957e+00
      - -1.3395086745725315e+00
      - 2.6258641267370377e+00
      - -1.3385535254084870e+00
      - 2.6352100172566515e+00
      - -1.3360447312629427e+00
      - 2.6164076759043668e+00
      - -1.3633274238297191e+00
      - 2.6117298599943575e+00
      - -1.3634308835781153e+00
      - 2.6069127002175851e+00
      - -1.3626572743851117e+00
      - 2.6054763466923676e+00
      - -1.3675485795977429e+00
      - 2.5958514329415214e+00
      - -1.3674498910988317e+00
      - 2.5911998507522700e+00
      - -1.3680136544364307e+00
      - 2.5843348728321485e+00
      - -1.3693975823030977e+00
      - 2.5776048217901777e+00
      - -1.3717314771984135e+00
      - 2.5723708774876219e+00
      - -1.3711596901786189e+00
      - 2.5615185671829575e+00
      - -1.3704404323854653e+00
      - 2.5559312563342766e+00
      - -1.3705737311377850e+00
      - 2.5511514706374649e+00
      - -1.3717090664778784e+00
      - 2.5478744286602932e+00
      - -1.3753465719876270e+00
      - 2.5422804880861118e+00
      - -1.3768570871251342e+00
      - 2.5385060348374258e+00
      - -1.3790764756478524e+00
      - 2.5358574560308669e+00
      - -1.3799748067663025e+00
      - 2.5317314584439030e+00
      - -1.3783291323312414e+00
      - 2.5345201995135151e+00
      - -1.3771029248571363e+00
      - 2.5370479690121384e+00
      - -1.3780746008833844e+00
      - 2.5376737639173133e+00
      - -1.3766342153609050e+00
      - 2.5427460083772568e+00
      - -1.3721776046808165e+00
      - 2.5506318593279591e+00
      - -1.3668744799332961e+00
      - 2.5580836709635548e+00
      - -1.3643112445873904e+00
      - 2.5644699192198881e+00
      - -1.3558984125434952e+00
      - 2.5760052748218936e+00
      - -1.3550420129374454e+00
      - 2.5830353296950479e+00
      - -1.3516059696896492e+00
      - 2.5925928196043846e+00
      - -1.3471203949727792e+00
      - 2.5979433439360831e+00
      - -1.3406274124088644e+00
      - 2.6104433707343242e+00
      - -1.3360331634617568e+00
      - 2.6218038639741343e+00
      - -1.3384614226802776e+00
      - 2.6290203049700658e+00
      - -1.3396746926990775e+00
      - 2.6373504642537760e+00
      - -1.3378085291905588e+00
      - 2.6160601168042525e+00
      - -1.3598949502080970e+00
      - 2.6130184702842945e+00
      - -1.3641289750761816e+00
      - 2.6079799174214724e+00
      - -1.3633992284481085e+00
      - 2.6027976020867865e+00
      - -1.3654278217587468e+00
      - 2.5971008793319355e+00
      - -1.3685390389327778e+00
      - 2.5901780857038226e+00
      - -1.3680645262260513e+00
      - 2.5848969031833691e+00
      - -1.3684148210591465e+00
      - 2.5766934016627787e+00
      - -1.3697495786817078e+00
      - 2.5692295943629007e+00
      - -1.3685759036490430e+00
      - 2.5634125813197484e+00
      - -1.3689583923779141e+00
      - 2.5555800996994327e+00
      - -1.3674041318786563e+00
      - 2.5550937065865877e+00
      - -1.3706337222967464e+00
      - 2.5485955213385267e+00
      - -1.3730309161331939e+00
      - 2.5461245266713837e+00
      - -1.3765968444060850e+00
      - 2.5415896819006543e+00
      - -1.3785506868543729e+00
      - 2.5350089903818098e+00
      - -1.3785667558460071e+00
      - 2.5324559705811418e+00
      - -1.3762350455723604e+00
      - 2.5338605518458341e+00
      - -1.3755934819765026e+00
      - 2.5334436544254220e+00
      - -1.3728986924018320e+00
      - 2.5370584741855184e+00
      - -1.3727609016640558e+00
      - 2.5468899531720579e+00
      - -1.3726434593159440e+00
      - 2.5534275791815131e+00
      - -1.3657087128149759e+00
      - 2.5627585634303465e+00
      - -1.3636192027252152e+00
      - 2.5689737678779085e+00
      - -1.3587574769153079e+00
      - 2.5758098815720563e+00
      - -1.3543852909662868e+00
      - 2.5814348549726920e+00
      - -1.3505876859716859e+00
      - 2.5924324933513501e+00
      - -1.3464779700967553e+00
      - 2.5977393483236288e+00
      - -1.3411328393079351e+00
      - 2.6077324351053979e+00
      - -1.3355688898356848e+00
      - 2.6223658857241303e+00
      - -1.3370985008405063e+00
      - 2.6321726486607511e+00
      - -1.3391503099052628e+00
      - 2.6387812858514748e+00
      - -1.3339111996215245e+00
      - 2.6159589384815307e+00
      - -1.3558334100334264e+00
      - 2.6145487252154638e+00
      - -1.3601753624933486e+00
      - 2.6065066943103274e+00
      - -1.3607472635948965e+00
      - 2.6025355914619417e+00
      - -1.3636229256501660e+00
      - 2.5945302551813239e+00
      - -1.3644098319411748e+00
      - 2.5896184829343563e+00
      - -1.3641267184651429e+00
      - 2.5830493387955538e+00
      - -1.3639789791368582e+00
      - 2.5727345252860245e+00
      - -1.3655238596202290e+00
      - 2.5671118393131529e+00
      - -1.3652582329109160e+00
      - 2.5616025506385185e+00
      - -1.3637494053394734e+00
      - 2.5566294629299469e+00
      - -1.3648051378448316e+00
      - 2.5508712700681913e+00
      - -1.3685545800115893e+00
      - 2.5486587311435707e+00
      - -1.3732040032135175e+00
      - 2.5488130551392314e+00
      - -1.3759922280690733e+00
      - 2.5411110516606703e+00
      - -1.3722145674485677e+00
      - 2.5372814851565675e+00
      - -1.3734105506135070e+00
      - 2.5384777197423745e+00
      - -1.3773062139007832e+00
      - 2.5365573262592158e+00
      - -1.3781838269756193e+00
      - 2.5368049881783579e+00
      - -1.3742126052036594e+00
      - 2.5424220039321592e+00
      - -1.3730498882684139e+00
      - 2.5546785920527415e+00
      - -1.3733246727617219e+00
      - 2.5579835795189063e+00
      - -1.3659055238208750e+00
      - 2.5663379727935731e+00
      - -1.3641360500865618e+00
      - 2.5728832617059272e+00
      - -1.3616062905896029e+00
      - 2.5758490931791869e+00
      - -1.3564584820305736e+00
      - 2.5836397531256829e+00
      - -1.3518317467090346e+00
      - 2.5912999977218765e+00
      - -1.3463503201538807e+00
      - 2.5981415799163470e+00
      - -1.3400579467928024e+00
      - 2.6093906348321254e+00
      - -1.3371093013216433e+00
      - 2.6231327512495080e+00
      - -1.3381579618487160e+00
      - 2.6323353380395544e+00
      - -1.3381493675806038e+00
      - 2.6425943140399868e+00
      - -1.3336074834890896e+00
      - 2.6179692063392657e+00
      - -1.3540420908233455e+00
      - 2.6139436321985996e+00
      - -1.3550533113731824e+00
      - 2.6092621184382074e+00
      - -1.3593145468619765e+00
      - 2.5998508672546699e+00
      - -1.3610506865164069e+00
      - 2.5968926120653752e+00
      - -1.3639939097885030e+00
      - 2.5885888738352034e+00
      - -1.3625487926065059e+00
      - 2.5836364151786295e+00
      - -1.3635208318820153e+00
      - 2.5743350827342222e+00
      - -1.3637915212697533e+00
      - 2.5650636714694341e+00
      - -1.3615985443066669e+00
      - 2.5641493694254325e+00
      - -1.3638384283381868e+00
      - 2.5561232150079891e+00
      - -1.3641426355252508e+00
      - 2.5508622668567011e+00
      - -1.3651828437799929e+00
      - 2.5487568221199801e+00
      - -1.3700183878320700e+00
      - 2.5478461593589383e+00
      - -1.3727877144882215e+00
      - 2.5399882331093280e+00
      - -1.3662159736167723e+00
      - 2.5409311159507824e+00
      - -1.3694794877656329e+00
      - 2.5408585354448334e+00
      - -1.3756536697580100e+00
      - 2.5386325244271331e+00
      - -1.3752933150095110e+00
      - 2.5393166737379813e+00
      - -1.3744258831128422e+00
      - 2.5453991528243614e+00
      - -1.3751473238083216e+00
      - 2.5555875417657878e+00
      - -1.3730529076599509e+00
      - 2.5621874201307255e+00
      - -1.3669956084045647e+00
      - 2.5688016846849853e+00
      - -1.3639423524861936e+00
      - 2.5777319303419057e+00
      - -1.3626236656322530e+00
      - 2.5809252863346828e+00
      - -1.3562971196328089e+00
      - 2.5846434294655447e+00
      - -1.3485015542049867e+00
      - 2.5936679377200251e+00
      - -1.3448282545854802e+00
      - 2.6016792622475347e+00
      - -1.3397460371240328e+00
      - 2.6130165700233170e+00
      - -1.3364752959599078e+00
      - 2.6209230405230866e+00
      - -1.3344283554856320e+00
      - 2.6316612625595992e+00
      - -1.3332257088247041e+00
      - 2.6399171925756644e+00
      - -1.3313655152780062e+00
      - 2.6135886591181761e+00
      - -1.3488197494382141e+00
      - 2.6141106796587317e+00
      - -1.3541982091722990e+00
      - 2.6089748596271556e+00
      - -1.3574984215750692e+00
      - 2.6012229446345749e+00
      - -1.3607613001883681e+00
      - 2.5992224833841635e+00
      - -1.3644450042887026e+00
      - 2.5882502475083609e+00
      - -1.3620810193549631e+00
      - 2.5840182640033751e+00
      - -1.3621388381446762e+00
      - 2.5752041427508234e+00
      - -1.3598708234956012e+00
      - 2.5675646414499380e+00
      - -1.3598035438311267e+00
      - 2.5667891785322725e+00
      - -1.3633455351683119e+00
      - 2.5627921657415258e+00
      - -1.3670482667728245e+00
      - 2.5565789873420210e+00
      - -1.3640057952303133e+00
      - 2.5544497985860923e+00
      - -1.3661590636279415e+00
      - 2.5530009252456414e+00
      - -1.3719836440811917e+00
      - 2.5439651609480518e+00
      - -1.3650487178323087e+00
      - 2.5413114604344291e+00
      - -1.3649542113415671e+00
      - 2.5430672006228705e+00
      - -1.3709080679622934e+00
      - 2.5452658245487352e+00
      - -1.3723464916461652e+00
      - 2.5462880861441723e+00
      - -1.3753989817571968e+00
      - 2.5502530230629472e+00
      - -1.3744781836676290e+00
      - 2.5568602586339284e+00
      - -1.3702279088914371e+00
      - 2.5638193471618251e+00
      - -1.3672463471115299e+00
      - 2.5713192193859715e+00
      - -1.3634443644223928e+00
      - 2.5787888956656877e+00
      - -1.3606297988949627e+00
      - 2.5830764684414658e+00
      - -1.3553116318221303e+00
      - 2.5912600333297182e+00
      - -1.3484086370542270e+00
      - 2.6014484744405291e+00
      - -1.3456372067122930e+00
      - 2.6149086532677202e+00
      - -1.3444263722610916e+00
      - 2.6202271166343198e+00
      - -1.3387362913878080e+00
      - 2.6254981732990847e+00
      - -1.3342537594902257e+00
      - 2.6324516170904610e+00
      - -1.3311433492901916e+00
      - 2.6407495501702023e+00
      - -1.3317653864615120e+00
      - 2.6101489836297520e+00
      - -1.3454138242765818e+00
      - 2.6091822715972346e+00
      - -1.3496925096760064e+00
      - 2.6057308650395998e+00
      - -1.3526858181126722e+00
      - 2.6019378977820811e+00
      - -1.3575710393954064e+00
      - 2.5973748586560115e+00
      - -1.3612207083453853e+00
      - 2.5914311228215308e+00
      - -1.3603079947385388e+00
      - 2.5882718846958066e+00
      - -1.3592008740829367e+00
      - 2.5748602220469370e+00
      - -1.3565002474937058e+00
      - 2.5680974808340391e+00
      - -1.3568672995358615e+00
      - 2.5672731218736033e+00
      - -1.3617006910035394e+00
      - 2.5694484756653497e+00
      - -1.3679307009252477e+00
      - 2.5623580339282941e+00
      - -1.3628703992176128e+00
      - 2.5574167137826351e+00
      - -1.3632534946646540e+00
      - 2.5557170155629376e+00
      - -1.3682472386109077e+00
      - 2.5479046286036375e+00
      - -1.3620933002032811e+00
      - 2.5458874085511951e+00
      - -1.3643813681847787e+00
      - 2.5497784189497215e+00
      - -1.3705059227230385e+00
      - 2.5475937087911840e+00
      - -1.3695144413263691e+00
      - 2.5501186812512695e+00
      - -1.3707285636000139e+00
      - 2.5529312783326934e+00
      - -1.3704666770523988e+00
      - 2.5585166118441083e+00
      - -1.3676480098884005e+00
      - 2.5675348272250149e+00
      - -1.3671914659499091e+00
      - 2.5785062072770115e+00
      - -1.3622987016890864e+00
      - 2.5820897496152218e+00
      - -1.3579625183409800e+00
      - 2.5906892276444244e+00
      - -1.3543382197218656e+00
      - 2.6025692344867162e+00
      - -1.3497379579700621e+00
      - 2.6047539143955869e+00
      - -1.3451560455153304e+00
      - 2.6174655258150294e+00
      - -1.3419985462996358e+00
      - 2.6230490745023762e+00
      - -1.3367326694216461e+00
      - 2.6301592651517236e+00
      - -1.3337557335845478e+00
      - 2.6398505836427035e+00
      - -1.3318728759026874e+00
      - 2.6474855207462507e+00
      - -1.3306114599235401e+00
      - 2.6097898786598606e+00
      - -1.3437704577346448e+00
      - 2.6059739534310191e+00
      - -1.3461267438520115e+00
      - 2.6095779980889642e+00
      - -1.3545431285083542e+00
      - 2.6067746840702481e+00
      - -1.3596218103650233e+00
      - 2.5969803835654761e+00
      - -1.3587285555519131e+00
      - 2.5940307964323623e+00
      - -1.3586202850906539e+00
      - 2.5921463937958573e+00
      - -1.3583318979333476e+00
      - 2.5795045458714116e+00
      - -1.3546847719648174e+00
      - 2.5722685554640381e+00
      - -1.3549941539174384e+00
      - 2.5718246741626767e+00
      - -1.3619838456079782e+00
      - 2.5692766686858994e+00
      - -1.3637666207442711e+00
      - 2.5691362731776346e+00
      - -1.3633972176909599e+00
      - 2.5647904656461900e+00
      - -1.3629314233462091e+00
      - 2.5566621299253232e+00
      - -1.3619581165274792e+00
      - 2.5500275013125377e+00
      - -1.3586887343478067e+00
      - 2.5487767385169033e+00
      - -1.3624340429109310e+00
      - 2.5492647243512132e+00
      - -1.3669351176574169e+00
      - 2.5532042979197236e+00
      - -1.3675799041905807e+00
      - 2.5564165172169893e+00
      - -1.3661825312774911e+00
      - 2.5577390705460612e+00
      - -1.3648568782551562e+00
      - 2.5629989168662135e+00
      - -1.3647745079306857e+00
      - 2.5728035851907523e+00
      - -1.3661290679854696e+00
      - 2.5817428798346120e+00
      - -1.3602163840021166e+00
      - 2.5868975471285705e+00
      - -1.3552200235057903e+00
      - 2.5963104579408607e+00
      - -1.3520974467329132e+00
      - 2.6052857957854445e+00
      - -1.3471927639863504e+00
      - 2.6105560955052418e+00
      - -1.3456572744571871e+00
      - 2.6192963319171296e+00
      - -1.3415407735027500e+00
      - 2.6283969373869933e+00
      - -1.3368456809774594e+00
      - 2.6353045064620400e+00
      - -1.3332265222231139e+00
      - 2.6462183844175020e+00
      - -1.3309948335203126e+00
      - 2.6534407040566661e+00
      - -1.3294981381268145e+00
      - 2.6142523961761777e+00
      - -1.3424026069277328e+00
      - 2.6080315541145458e+00
      - -1.3448118302996228e+00
      - 2.6080462843705470e+00
      - -1.3531091598503602e+00
      - 2.6036998655047321e+00
      - -1.3577561465374139e+00
      - 2.6016175131979140e+00
      - -1.3584382114020901e+00
      - 2.5935144535175474e+00
      - -1.3540091010084310e+00
      - 2.5919502659013220e+00
      - -1.3545976551399561e+00
      - 2.5814512191297880e+00
      - -1.3538417165074321e+00
      - 2.5769894529333186e+00
      - -1.3543986068859220e+00
      - 2.5709914745242637e+00
      - -1.3573323818187242e+00
      - 2.5692608113119961e+00
      - -1.3597845551690559e+00
      - 2.5703075205547461e+00
      - -1.3607133474394904e+00
      - 2.5682277249350443e+00
      - -1.3613245278070998e+00
      - 2.5613784765408512e+00
      - -1.3617244846871759e+00
      - 2.5591737025167594e+00
      - -1.3622410418481730e+00
      - 2.5541619339029569e+00
      - -1.3618768398950154e+00
      - 2.5555432342760747e+00
      - -1.3651447791756317e+00
      - 2.5583654621533358e+00
      - -1.3652104539647365e+00
      - 2.5604722868287269e+00
      - -1.3624566714436528e+00
      - 2.5631858986741753e+00
      - -1.3606871803235250e+00
      - 2.5698115966027775e+00
      - -1.3610397827755498e+00
      - 2.5791890048132049e+00
      - -1.3626606830635390e+00
      - 2.5872243952436156e+00
      - -1.3588622436036089e+00
      - 2.5916476785593390e+00
      - -1.3536788095594994e+00
      - 2.5968815342051923e+00
      - -1.3504611384060508e+00
      - 2.6063397014365117e+00
      - -1.3437307490412660e+00
      - 2.6153058339859099e+00
      - -1.3421415170419950e+00
      - 2.6243297755955095e+00
      - -1.3424702103332373e+00
      - 2.6331941735312379e+00
      - -1.3380614798100317e+00
      - 2.6426931980413562e+00
      - -1.3342147992372781e+00
      - 2.6503445188809351e+00
      - -1.3291852468802883e+00
      - 2.6595327631928609e+00
      - -1.3265395252698071e+00
      - 2.6139646554808915e+00
      - -1.3399735953687586e+00
      - 2.6056179176359469e+00
      - -1.3432291629211315e+00
      - 2.6070161519623820e+00
      - -1.3510990191751047e+00
      - 2.6047691695302699e+00
      - -1.3557717293902380e+00
      - 2.6004613313516209e+00
      - -1.3560015822320302e+00
      - 2.5926988602755316e+00
      - -1.3513431485708378e+00
      - 2.5889356037657056e+00
      - -1.3515947839522719e+00
      - 2.5828160865978522e+00
      - -1.3512291381959844e+00
      - 2.5750739535377414e+00
      - -1.3506066399214478e+00
      - 2.5747263446607960e+00
      - -1.3545994042295220e+00
      - 2.5751359890415051e+00
      - -1.3582323499520061e+00
      - 2.5719496878279084e+00
      - -1.3577025715820699e+00
      - 2.5727469076722422e+00
      - -1.3609456383732388e+00
      - 2.5659552593094097e+00
      - -1.3617616561776429e+00
      - 2.5638846544493372e+00
      - -1.3633861393934594e+00
      - 2.5612032430278155e+00
      - -1.3621874806074272e+00
      - 2.5591243605971923e+00
      - -1.3601947705301920e+00
      - 2.5619649893271070e+00
      - -1.3600943166807333e+00
      - 2.5640489779592515e+00
      - -1.3567117057507354e+00
      - 2.5700054610081264e+00
      - -1.3564223693150286e+00
      - 2.5788239478727837e+00
      - -1.3590252436881243e+00
      - 2.5833353883677592e+00
      - -1.3579597826804606e+00
      - 2.5921790874379456e+00
      - -1.3566828421434121e+00
      - 2.5984362160779209e+00
      - -1.3516175524985612e+00
      - 2.6033095958637751e+00
      - -1.3478625156449153e+00
      - 2.6068917889163790e+00
      - -1.3415957301023247e+00
      - 2.6179932343320549e+00
      - -1.3396181849721207e+00
      - 2.6270296454250235e+00
      - -1.3377864756966165e+00
      - 2.6396743082940710e+00
      - -1.3357183874249738e+00
      - 2.6483019510035288e+00
      - -1.3328801718964733e+00
      - 2.6529508979717842e+00
      - -1.3267166893968947e+00
      - 2.6597217723037176e+00
      - -1.3214724162443501e+00
      - 2.6148954286359176e+00
      - -1.3383479641820333e+00
      - 2.6093655794072315e+00
      - -1.3427159624306386e+00
      - 2.6083262496374950e+00
      - -1.3482258246465264e+00
      - 2.6030309484754737e+00
      - -1.3499398501324993e+00
      - 2.5972673548240759e+00
      - -1.3511430801493507e+00
      - 2.5947379776778763e+00
      - -1.3534082273882511e+00
      - 2.5865071661197212e+00
      - -1.3482814488028676e+00
      - 2.5824554519117888e+00
      - -1.3463204758097498e+00
      - 2.5755056590902066e+00
      - -1.3456767492477815e+00
      - 2.5774798791495916e+00
      - -1.3532267752405689e+00
      - 2.5769434921820324e+00
      - -1.3548740242110264e+00
      - 2.5776284385101653e+00
      - -1.3554288061607553e+00
      - 2.5794228700053283e+00
      - -1.3594458493248041e+00
      - 2.5716783400570082e+00
      - -1.3619021243918374e+00
      - 2.5685236689819502e+00
      - -1.3618722481191463e+00
      - 2.5652115929451456e+00
      - -1.3575868952976602e+00
      - 2.5659643804943673e+00
      - -1.3549753853532509e+00
      - 2.5726801331400675e+00
      - -1.3564126583421525e+00
      - 2.5772466359405253e+00
      - -1.3542542729352458e+00
      - 2.5822749953622948e+00
      - -1.3542973174347555e+00
      - 2.5831716587323612e+00
      - -1.3532260564563916e+00
      - 2.5857613933023051e+00
      - -1.3524422229320157e+00
      - 2.5910319428868762e+00
      - -1.3508369989751479e+00
      - 2.5989173727613579e+00
      - -1.3453957881742828e+00
      - 2.6095928004324715e+00
      - -1.3428195145742055e+00
      - 2.6132929705857606e+00
      - -1.3414046557387973e+00
      - 2.6250677078884341e+00
      - -1.3406400442143687e+00
      - 2.6342217694519579e+00
      - -1.3371457546149452e+00
      - 2.6421405318684537e+00
      - -1.3345095930807978e+00
      - 2.6470570488417344e+00
      - -1.3292282559851882e+00
      - 2.6546085915856268e+00
      - -1.3244712076491436e+00
      - 2.6583351248275364e+00
      - -1.3201149403102286e+00
      - 2.6187659970479102e+00
      - -1.3351113196740434e+00
      - 2.6125402109785072e+00
      - -1.3386468925701798e+00
      - 2.6098492044147612e+00
      - -1.3429503647422125e+00
      - 2.6031543813560383e+00
      - -1.3449073715531714e+00
      - 2.5924273249375589e+00
      - -1.3431652017414766e+00
      - 2.5956032327481822e+00
      - -1.3489927971646558e+00
      - 2.5903949004682985e+00
      - -1.3470919131356449e+00
      - 2.5873507642220077e+00
      - -1.3445036523387282e+00
      - 2.5799640443590883e+00
      - -1.3447421881518749e+00
      - 2.5788238682544513e+00
      - -1.3499073708679183e+00
      - 2.5837635956578393e+00
      - -1.3527143171254088e+00
      - 2.5813348010465313e+00
      - -1.3522257457841531e+00
      - 2.5820657719576552e+00
      - -1.3557677039699045e+00
      - 2.5793134970811891e+00
      - -1.3601773668870014e+00
      - 2.5729354946057623e+00
      - -1.3565992581753032e+00
      - 2.5693043490914853e+00
      - -1.3522881405822818e+00
      - 2.5687366399814637e+00
      - -1.3506386051267272e+00
      - 2.5809338237786781e+00
      - -1.3540201706634021e+00
      - 2.5846436526320313e+00
      - -1.3502416033896842e+00
      - 2.5895092219576372e+00
      - -1.3496522727357243e+00
      - 2.5912748196837900e+00
      - -1.3474660487281576e+00
      - 2.5941522174651257e+00
      - -1.3475953258504296e+00
      - 2.5963751352771816e+00
      - -1.3454756563028223e+00
      - 2.6032324466935259e+00
      - -1.3412397132169971e+00
      - 2.6137445238442090e+00
      - -1.3395793933207660e+00
      - 2.6207305937017100e+00
      - -1.3398220372097229e+00
      - 2.6284734433242014e+00
      - -1.3381513002521193e+00
      - 2.6388836238751523e+00
      - -1.3354336924767571e+00
      - 2.6449137742630602e+00
      - -1.3331380291348769e+00
      - 2.6486981533545881e+00
      - -1.3247530965911125e+00
      - 2.6564909082802592e+00
      - -1.3216940266641759e+00
      - 2.6608804410357663e+00
      - -1.3196441569360153e+00
      - 2.6189957328872508e+00
      - -1.3299497607952893e+00
      - 2.6140003880688889e+00
      - -1.3337121203035955e+00
      - 2.6123744014454533e+00
      - -1.3361212276796208e+00
      - 2.6074156847722016e+00
      - -1.3389413238062973e+00
      - 2.6006757711590662e+00
      - -1.3402765251104625e+00
      - 2.5986913037605395e+00
      - -1.3459833534815875e+00
      - 2.5951837839768288e+00
      - -1.3453264446539837e+00
      - 2.5909595096263729e+00
      - -1.3418921068189655e+00
      - 2.5855282495902769e+00
      - -1.3423700992486931e+00
      - 2.5834670541962930e+00
      - -1.3469826652312691e+00
      - 2.5883802632869948e+00
      - -1.3514907030905718e+00
      - 2.5840179794348992e+00
      - -1.3513871361081413e+00
      - 2.5840340010462182e+00
      - -1.3524742867244037e+00
      - 2.5833793045289974e+00
      - -1.3548860826634745e+00
      - 2.5817592068693864e+00
      - -1.3531261287990486e+00
      - 2.5825391715119310e+00
      - -1.3508137882183247e+00
      - 2.5798412303461360e+00
      - -1.3496463781496346e+00
      - 2.5837777548107144e+00
      - -1.3515685490965188e+00
      - 2.5898032496636749e+00
      - -1.3493196108453402e+00
      - 2.5926069954758173e+00
      - -1.3469788562806986e+00
      - 2.5965339184599143e+00
      - -1.3443959966504424e+00
      - 2.6013143644810430e+00
      - -1.3426933382353901e+00
      - 2.6040624820990677e+00
      - -1.3405337215436304e+00
      - 2.6066628102883223e+00
      - -1.3376584300510939e+00
      - 2.6133625288524360e+00
      - -1.3377448073663676e+00
      - 2.6201983651185237e+00
      - -1.3364629427512267e+00
      - 2.6256942644099071e+00
      - -1.3326423510927721e+00
      - 2.6366464136548324e+00
      - -1.3315496437943266e+00
      - 2.6453959944235002e+00
      - -1.3280756777661471e+00
      - 2.6489151993748816e+00
      - -1.3206225721402458e+00
      - 2.6540138408198608e+00
      - -1.3169962263230337e+00
      - 2.6655973924899650e+00
      - -1.3164528683715175e+00
      - 2.6194334300215227e+00
      - -1.3262314408568909e+00
      - 2.6220459728341927e+00
      - -1.3320830007085038e+00
      - 2.6176324641596658e+00
      - -1.3330227367991816e+00
      - 2.6116120408179464e+00
      - -1.3361143579464447e+00
      - 2.6064363566325319e+00
      - -1.3382668196029208e+00
      - 2.6051525787306109e+00
      - -1.3440290702942357e+00
      - 2.6025164099512672e+00
      - -1.3459130304425058e+00
      - 2.5993636072530961e+00
      - -1.3421643186670515e+00
      - 2.5932570367372945e+00
      - -1.3388182619750260e+00
      - 2.5903189917588918e+00
      - -1.3442804517801692e+00
      - 2.5916748220708152e+00
      - -1.3485273260056472e+00
      - 2.5916550800705052e+00
      - -1.3504026964276272e+00
      - 2.5954994336953998e+00
      - -1.3530477935689966e+00
      - 2.5931787332800038e+00
      - -1.3556071939660415e+00
      - 2.5922049141608543e+00
      - -1.3550203377646517e+00
      - 2.5940092489233382e+00
      - -1.3520982263791466e+00
      - 2.5892734528702648e+00
      - -1.3479172003261277e+00
      - 2.5892565119469322e+00
      - -1.3474745537993513e+00
      - 2.5918143672920202e+00
      - -1.3452257375935537e+00
      - 2.5953020187776055e+00
      - -1.3454628691682562e+00
      - 2.6018595739007511e+00
      - -1.3440744474227437e+00
      - 2.6084557943333651e+00
      - -1.3422141348519581e+00
      - 2.6112315757990436e+00
      - -1.3381294290766459e+00
      - 2.6133856619425826e+00
      - -1.3362818039748676e+00
      - 2.6169449791666199e+00
      - -1.3369501352888447e+00
      - 2.6193234132998686e+00
      - -1.3310750785002734e+00
      - 2.6271683820421567e+00
      - -1.3264371317862631e+00
      - 2.6345781423573031e+00
      - -1.3253712175574686e+00
      - 2.6423638427037175e+00
      - -1.3216355078747568e+00
      - 2.6491699126947883e+00
      - -1.3187995158144690e+00
      - 2.6575229584524762e+00
      - -1.3165620793850605e+00
      - 2.6673301562557152e+00
      - -1.3150038521757723e+00
      - 2.6260439296976501e+00
      - -1.3251046823092951e+00
      - 2.6274957777371291e+00
      - -1.3312249725705010e+00
      - 2.6230958519635492e+00
      - -1.3330316356655862e+00
      - 2.6195469892902699e+00
      - -1.3342048588650941e+00
      - 2.6122192603380703e+00
      - -1.3345522680883726e+00
      - 2.6082372208616587e+00
      - -1.3391310846387590e+00
      - 2.6112159714461796e+00
      - -1.3447483276420507e+00
      - 2.6038755292751716e+00
      - -1.3418364631769555e+00
      - 2.5977659204877601e+00
      - -1.3379740079238833e+00
      - 2.5987687543322986e+00
      - -1.3420477909213002e+00
      - 2.5960853510667303e+00
      - -1.3442413439675909e+00
      - 2.5948503228343691e+00
      - -1.3469378186135039e+00
      - 2.5966132430219901e+00
      - -1.3508295363034357e+00
      - 2.5952188151091131e+00
      - -1.3511860645006220e+00
      - 2.6003546094785088e+00
      - -1.3521186005504742e+00
      - 2.5996839215783210e+00
      - -1.3487707558724307e+00
      - 2.5977146296415285e+00
      - -1.3450670882867637e+00
      - 2.5985093354537110e+00
      - -1.3436334194364916e+00
      - 2.5955008711084213e+00
      - -1.3407155331950589e+00
      - 2.5993788707714147e+00
      - -1.3425285640532818e+00
      - 2.6047157104586414e+00
      - -1.3416947871111384e+00
      - 2.6126284588465611e+00
      - -1.3408759452338019e+00
      - 2.6161258213741241e+00
      - -1.3367536352214697e+00
      - 2.6176249467265031e+00
      - -1.3335897967017147e+00
      - 2.6223141416444582e+00
      - -1.3331168634164778e+00
      - 2.6247681475606792e+00
      - -1.3283762088283988e+00
      - 2.6308855376747347e+00
      - -1.3255967787690999e+00
      - 2.6351973449793693e+00
      - -1.3218638447263940e+00
      - 2.6431004962567028e+00
      - -1.3171895402063745e+00
      - 2.6523778469127994e+00
      - -1.3153174748561798e+00
      - 2.6613887893179875e+00
      - -1.3146658251030345e+00
      - 2.6659907472112772e+00
      - -1.3141249524059671e+00
      - 2.6295096743142388e+00
      - -1.3235844415046716e+00
      - 2.6232693544426153e+00
      - -1.3254183415955589e+00
      - 2.6240265499430122e+00
      - -1.3298791861438015e+00
      - 2.6243211601279426e+00
      - -1.3315779974690454e+00
      - 2.6226091783668029e+00
      - -1.3350942292832184e+00
      - 2.6135449479123136e+00
      - -1.3397568827629589e+00
      - 2.6074562311342286e+00
      - -1.3401822567953925e+00
      - 2.6037690065039611e+00
      - -1.3398129915279982e+00
      - 2.6042973426629428e+00
      - -1.3390557701419001e+00
      - 2.6091477977133470e+00
      - -1.3405982311562552e+00
      - 2.6048589371896185e+00
      - -1.3419615411799888e+00
      - 2.5998931380916663e+00
      - -1.3453445500453720e+00
      - 2.5988758432016530e+00
      - -1.3471929092624797e+00
      - 2.6040250738151305e+00
      - -1.3487239819549377e+00
      - 2.6043254181573889e+00
      - -1.3452468217469113e+00
      - 2.6028689077148983e+00
      - -1.3433466800760989e+00
      - 2.6073225164629514e+00
      - -1.3446013331892332e+00
      - 2.6048247841271079e+00
      - -1.3417744483033722e+00
      - 2.6012869971822425e+00
      - -1.3388894030588918e+00
      - 2.6055647212723585e+00
      - -1.3392507297873546e+00
      - 2.6080394989657090e+00
      - -1.3395223798580476e+00
      - 2.6148901941501528e+00
      - -1.3399098122273316e+00
      - 2.6203415547816293e+00
      - -1.3376351736358254e+00
      - 2.6216855868228017e+00
      - -1.3311277462620588e+00
      - 2.6247939501236446e+00
      - -1.3268572024897520e+00
      - 2.6299128393228726e+00
      - -1.3266581338303787e+00
      - 2.6345618871454684e+00
      - -1.3241663220991324e+00
      - 2.6395227327963680e+00
      - -1.3179567972742450e+00
      - 2.6434717970766815e+00
      - -1.3108908608333645e+00
      - 2.6561337527816620e+00
      - -1.3086887011184019e+00
      - 2.6664040613754705e+00
      - -1.3090068376368387e+00
      - 2.6706624173920348e+00
      - -1.3103402839403311e+00
      - 2.6322287958824102e+00
      - -1.3226547958479211e+00
      - 2.6257782290223743e+00
      - -1.3244458863228918e+00
      - 2.6254243553948573e+00
      - -1.3262134571340927e+00
      - 2.6264692401682979e+00
      - -1.3279607787160590e+00
      - 2.6259206147141145e+00
      - -1.3336472596904885e+00
      - 2.6149459168780114e+00
      - -1.3380124782540805e+00
      - 2.6080645046740871e+00
      - -1.3376372838560684e+00
      - 2.6076222272995659e+00
      - -1.3380531639549167e+00
      - 2.6100854377742326e+00
      - -1.3384755857126183e+00
      - 2.6159843523705488e+00
      - -1.3393502230885757e+00
      - 2.6103823744164347e+00
      - -1.3411078394215394e+00
      - 2.6036589358152127e+00
      - -1.3423307330562437e+00
      - 2.6071395711431182e+00
      - -1.3431072663894299e+00
      - 2.6104225747630614e+00
      - -1.3442788397449381e+00
      - 2.6078480377615865e+00
      - -1.3408581498619421e+00
      - 2.6082762539177908e+00
      - -1.3398050764819758e+00
      - 2.6137321420157789e+00
      - -1.3442944206860776e+00
      - 2.6111302577186954e+00
      - -1.3433365072897621e+00
      - 2.6116940429336521e+00
      - -1.3395846625974224e+00
      - 2.6155386772265095e+00
      - -1.3377724688631942e+00
      - 2.6142424176691144e+00
      - -1.3372635145672356e+00
      - 2.6161870149190865e+00
      - -1.3358608773307106e+00
      - 2.6238018056600589e+00
      - -1.3353938327321582e+00
      - 2.6287680216745337e+00
      - -1.3306453671474197e+00
      - 2.6325670159499941e+00
      - -1.3262481482578696e+00
      - 2.6343667704974258e+00
      - -1.3240298705079305e+00
      - 2.6386034614092750e+00
      - -1.3221061311943556e+00
      - 2.6445250795407125e+00
      - -1.3153502446836611e+00
      - 2.6493981706126442e+00
      - -1.3068756943459043e+00
      - 2.6589796694290651e+00
      - -1.3035506821590641e+00
      - 2.6672384297560310e+00
      - -1.3023461994205019e+00
      - 2.6744274096609777e+00
      - -1.3051661951134828e+00
   output_scale:
      - 5.2631578947368418e-01
      - 4.9999999999999994e-01
      - 5.2631578947368418e-01
      - 4.9999999999999994e-01
   inv_output_scale:
      - 1.8999999999999999e+00
      - -9.4999999999999996e-01
      - 1.8999999999999999e+00
      - -9.4999999999999996e-01
   weights:
      -
         - 2.4172158067163885e-02
         - -1.0644644053016045e-02
         - 1.8552663326795182e-03
         - -2.2702588119348759e-02
         - -2.2393816068810232e-02
         - 2.0037625199825729e-02
         - -7.5825238466198626e-03
         - -1.6954484932416407e-02
         - -6.2838971203266637e-03
         - -1.4589586883177333e-02
         - 2.4803708916137038e-02
         - -2.7589336469944912e-02
         - -7.9285012133200466e-03
         - -1.5524746971741781e-03
         - 5.7328892733080549e-04
         - 1.4510741827043327e-02
         - -8.1640113310695538e-04
         - 9.8569958818427051e-03
         - -1.2209560807660159e-02
         - 2.2633628616803528e-02
         - -1.7531433048134318e-02
         - -3.9019437855987819e-03
         - 9.2139370261038276e-03
         - 7.9069738884763267e-03
         - -2.0011999406172303e-02
         - 1.5262234459861313e-02
         - -2.7175956717095731e-02
         - 2.5651664893656920e-02
         - -1.8271033928109810e-02
         - 4.5827713375271211e-03
         - -1.9785801084287260e-02
         - -1.4914135000739678e-02
         - -1.9351966630117637e-02
         - -2.6512409473912753e-02
         - -2.3034309455049837e-02
         - -1.7495239536796329e-02
         - -5.2155056391421477e-03
         - 7.5463134598668770e-03
         - -1.6707599935968286e-02
         - -1.3794801734221475e-03
         - -2.1181139143852994e-02
         - 1.5949788785172257e-02
         - 1.8165394750462517e-03
         - -8.0333548059342461e-04
         - -8.4597387559010584e-03
         - -2.7000235902921416e-02
         - 1.3828912686471871e-02
         - 2.0110604177324742e-02
         - 1.8321818981298209e-02
         - -1.7195491686324710e-03
         - 1.5194023343595016e-02
         - -2.1099495163200356e-03
         - -8.7370602418642860e-04
         - -1.3148003040801133e-02
         - -1.2038914323631519e-02
         - 1.1226576966534282e-02
         - -1.1558070249925832e-02
         - -1.9746564149358482e-02
         - 1.9124653811341521e-03
         - -5.8665443056755270e-03
         - 1.3211489753832689e-02
         - -1.3695778700703628e-02
         - -1.5012237548971848e-03
         - -2.2853000830543595e-03
         - 2.1156719698014301e-03
         - 4.1538853247953056e-03
         - 3.1225487767905642e-04
         - 2.8286817960099086e-03
         - -1.6071462765859853e-02
         - 1.3386473598349906e-02
         - -1.0193535323360566e-02
         - -8.6231777116874703e-03
         - 6.7573003381204170e-03
         - 4.1530862956067564e-03
         - -1.1274368379929426e-02
         - 4.3064265047740588e-03
         - -1.5596097727788675e-02
         - 1.4174680088542418e-02
         - -1.2329379858817572e-02
         - -5.4414830759925070e-04
         - -1.3031482159309445e-02
         - -4.5609773796122964e-03
         - -2.1364129886959033e-02
         - -1.6429179026068799e-02
         - -1.4677595737985667e-02
         - -1.8444768989236960e-02
         - 3.5428570844915383e-03
         - 1.2556605933942229e-02
         - -1.7996020385061512e-02
         - -1.6517590996976276e-03
         - -2.2097807857079901e-02
         - 8.6520522674794504e-03
         - 2.2606337019007148e-03
         - 1.0853379928429199e-03
         - -9.4128986174690462e-04
         - -1.3041108553706106e-02
         - 3.9697324404415410e-03
         - 2.2713383303044649e-02
         - 1.3443225608309196e-02
         - 1.5557863038291396e-03
         - 1.2102709569076480e-02
         - -1.1619700228424027e-03
         - 9.0151855695573936e-04
         - -1.1749148296006897e-02
         - -1.0132530278578520e-02
         - 1.2610371791580137e-02
         - -8.9660891463022811e-03
         - -2.2457423400526842e-02
         - -1.0199188898497174e-03
         - -5.6549030226583172e-03
         - 1.2660517876810943e-02
         - -1.4782202548466275e-02
         - 1.2326102985701891e-03
         - 3.5406179851276955e-04
         - 1.0758351946047985e-03
         - 5.7360217926663700e-03
         - 6.9181201499049212e-04
         - 2.0064249435441869e-03
         - -1.5911661218230094e-02
         - 1.2513704485942670e-02
         - -9.1840438920719504e-03
         - -5.1118620951977820e-03
         - 5.2423655368283202e-03
         - 3.7465383260259577e-03
         - -9.2381717247856654e-03
         - 5.9577855291049926e-03
         - -1.1157968108921199e-02
         - 1.0783084064793703e-02
         - -9.9859171613507734e-03
         - -3.4887904716037916e-06
         - -1.2173687874981637e-02
         - -3.9220489731325563e-03
         - -2.0176022444337770e-02
         - -1.2359250416068912e-02
         - -1.3521264546364032e-02
         - -2.1178395629761957e-02
         - 2.4375556290625326e-03
         - 8.5387989877142925e-03
         - -2.0435782225020800e-02
         - 1.0820048667790193e-03
         - -2.3628987811909610e-02
         - 6.2186257144743974e-03
         - 1.1923620745743410e-03
         - -2.3342895041852463e-03
         - -2.6755894088093007e-04
         - -1.1126930594658179e-02
         - 6.6890348129518057e-03
         - 2.4284583063942548e-02
         - 9.1446835226593852e-03
         - 4.0379275085318418e-03
         - 3.9529435348828164e-03
         - 1.1422017218913965e-03
         - -4.6092734828686281e-04
         - -7.4563554625136233e-03
         - -7.2761072505955560e-03
         - 6.6588086231577862e-03
         - -1.2246698904720967e-02
         - -2.5372457231082283e-02
         - 2.4661549383522283e-03
         - -3.5203838220719662e-03
         - 6.3211818843299569e-03
         - -5.8866912394736660e-03
         - 3.1004955829496516e-03
         - -1.1708163466497077e-03
         - 6.0840158099141302e-05
         - 2.2763227659030176e-03
         - -2.4730500365090636e-03
         - 3.0872836034373269e-04
         - -1.6804310549762412e-02
         - 6.6938559689746716e-03
         - -3.4996022750844410e-03
         - -8.9613401756564893e-03
         - 3.7235984493138043e-03
         - 1.0481868862694814e-03
         - -7.0762328346764642e-03
         - 3.3147655165680738e-03
         - -3.6963148952108521e-03
         - 4.3612740049771247e-03
         - -3.7957415178404477e-03
         - -4.9673408570058495e-04
         - -9.4397425270760209e-03
         - -3.1641926554798723e-03
         - -2.0310253615750562e-02
         - -3.2577909331421694e-03
         - -5.0962116227726093e-03
         - -2.1971770485458935e-02
         - 6.1642903436948315e-03
         - 1.1749340193637449e-02
         - -2.5802651434529221e-02
         - -1.7543253359101515e-04
         - -2.5588374739991530e-02
         - 5.4670494872518776e-03
         - 1.0370884479193028e-03
         - 1.7634786899763463e-04
         - 3.6680464574494892e-03
         - -4.4256467705517050e-03
         - 6.6245354581022625e-04
         - 2.8718016203817760e-02
         - 9.3099915826248495e-03
         - 4.3845448023663164e-03
         - 1.0511927833297781e-02
         - -1.7066515791915452e-03
         - -1.4009171218978390e-03
         - -1.2221545796057937e-02
         - -1.1846823205650068e-02
         - 9.3512640492245582e-03
         - -1.0401987519002100e-02
         - -1.3640366421233672e-02
         - 7.7379152556495659e-04
         - -1.0235711286902005e-03
         - 1.2682975071385818e-02
         - -1.1207121260337592e-02
         - 2.0600766438402481e-03
         - -1.6286960176143648e-03
         - 1.2417904994297159e-03
         - 1.5647183290574916e-03
         - 2.4761840593769497e-03
         - 2.2090919002656787e-03
         - -1.0240593085244769e-02
         - 1.1948615598762721e-02
         - -9.4711505932589621e-03
         - -8.4146848732005643e-03
         - 6.1310706881984702e-03
         - 1.7626002242281729e-03
         - -9.8012155989492689e-03
         - 5.5208612282101601e-03
         - -1.1425195426383958e-02
         - 1.0210444350266244e-02
         - -8.7318920926544984e-03
         - 1.0502125457313182e-03
         - -8.4036130126013339e-03
         - -5.1216606934714895e-03
         - -1.3423979925023137e-02
         - -1.0775963221254377e-02
         - -9.4188643054481519e-03
         - -1.4377142115973537e-02
         - 1.7975123397180907e-03
         - 7.8568073380838842e-03
         - -1.7541997545000673e-02
         - 7.9131292571078566e-04
         - -1.6763046044193930e-02
         - 5.3337864532950899e-03
         - -1.1457609810064601e-04
         - -8.0927371360561297e-04
         - -2.1990777198772561e-03
         - -1.3553868692940745e-02
         - 3.8306694723612756e-03
         - 1.8671251487816117e-02
         - 1.1054237363690222e-02
         - 6.4983911211916772e-04
         - 5.5879636154723003e-03
         - -2.3939749292561463e-04
         - -2.2875143205879299e-03
         - -8.2972960272855618e-03
         - -4.9662927635518109e-03
         - 5.6939612877947082e-03
         - -1.0518974238977567e-02
         - -1.5335375856782204e-02
         - 2.7464623915469254e-03
         - 5.3922823791750178e-04
         - 8.9817753750262037e-03
         - -5.4931151961672402e-03
         - 2.0877850827130530e-03
         - -1.9198290471909951e-03
         - 5.2136798957526278e-04
         - -1.0887093744582738e-03
         - -7.5130329831478437e-04
         - -1.6078282271582940e-04
         - -1.1400379097773443e-02
         - 5.6456680727531624e-03
         - -4.9719809052336823e-03
         - -8.2950125449990676e-03
         - 5.2276444972160167e-03
         - 3.7075953671313095e-03
         - -7.3676390670965692e-03
         - 5.1180490825753801e-03
         - -5.6572084030077924e-03
         - 2.6217712800144931e-03
         - -4.1433435920073154e-03
         - 2.8316874078810569e-03
         - -7.7215024085264729e-03
         - -5.3074391839696899e-03
         - -1.4855760437137596e-02
         - -5.5403481100460604e-03
         - -7.7650490179645790e-03
         - -1.3994252227113240e-02
         - 4.4480799763824434e-03
         - 9.9416932550313152e-03
         - -1.7963951843782518e-02
         - 1.6415029434672151e-03
         - -1.7059609818765274e-02
         - 4.6860932341567345e-03
         - 3.5725355015254275e-04
         - -9.6105684777943736e-06
         - 7.3712411385015763e-04
         - -7.5113968287847648e-03
         - 8.2452601096670282e-04
         - 1.9140818052226720e-02
         - 7.6037099897263592e-03
         - 5.4252652054212723e-03
         - 7.0503476435081454e-03
         - 3.0402124743622058e-03
         - -1.2359130330339496e-03
         - -4.1942361593234672e-03
         - -4.9245925433178874e-03
         - 6.2024729759657749e-03
         - -9.5101031045852439e-03
         - -1.3072962935077767e-02
         - 4.2013752189698694e-03
         - -1.7243282072288903e-03
         - 6.9513277713669280e-03
         - -4.9084395245432748e-03
         - 2.0157973584184969e-03
         - 2.8564794664380922e-04
         - 5.9629759917481244e-05
         - 5.7128000926996215e-04
         - -1.6781653532390623e-03
         - -1.7392091007141369e-03
         - -9.9687832650166112e-03
         - 6.7357135402023177e-03
         - -5.6282513613901001e-03
         - -8.6627140364937145e-03
         - 3.5180327460129206e-03
         - -2.8325476407551068e-05
         - -5.8074979131878812e-03
         - 2.5912126074717412e-03
         - -4.6293950809490206e-03
         - 2.8980259123676244e-03
         - -6.2977074356573379e-03
         - 7.1781745292909553e-04
         - -5.7411646825246019e-03
         - -1.7927944844410785e-03
         - -1.3956102823453678e-02
         - -3.2887408022714568e-03
         - -5.7606480658145155e-03
         - -1.1585106214958481e-02
         - 6.9225172513368754e-03
         - 1.0890425266908491e-02
         - -1.4986624594570501e-02
         - -5.9901433402662812e-04
         - -1.5713325280897989e-02
         - 3.3599607841662462e-04
         - -3.3513445861668744e-04
         - -1.4077683301407724e-03
         - 3.3587447526674708e-03
         - -4.7961546813833677e-03
         - -1.4453475016530069e-03
         - 1.8778432286391918e-02
         - 5.6312603069776273e-03
         - 3.7521414546638704e-03
         - 1.1062552258809597e-02
         - -1.6628794743910364e-04
         - -8.7370933739371677e-04
         - -1.2292653684033575e-02
         - -1.0617681360486577e-02
         - 1.0505526445677239e-02
         - -7.9504220078414935e-03
         - -8.3686573672944430e-03
         - 7.0943180589326971e-04
         - -3.4828577568615069e-03
         - 1.1414545878378372e-02
         - -1.0850712664666558e-02
         - -7.8562891392306865e-04
         - -1.5485904687108250e-03
         - -1.6970579911294297e-03
         - 1.0531314932490318e-03
         - 6.6929734218051777e-04
         - 1.0718139432620278e-03
         - -9.8741592072026322e-03
         - 1.0106613255161313e-02
         - -9.4934965294123080e-03
         - -8.0042962012694622e-03
         - 5.8408355779144810e-03
         - 3.5795035769870648e-03
         - -8.8469112676593173e-03
         - 5.1762539439742144e-03
         - -1.1741785666998029e-02
         - 7.9539715604351607e-03
         - -9.1151903987500126e-03
         - 6.3747595928422625e-04
         - -1.0504659445547572e-02
         - -5.0623149174103326e-03
         - -1.1386374706144738e-02
         - -1.1617631139216152e-02
         - -1.0320384903287821e-02
         - -8.7183573366813299e-03
         - 3.5420740275275042e-03
         - 6.6112519965604863e-03
         - -9.2035219617612549e-03
         - 4.7852838852867205e-04
         - -9.9642134885646657e-03
         - 3.5577757275203439e-03
         - 2.5706108054490565e-03
         - -2.3042789297482587e-03
         - -1.8545012013970407e-03
         - -1.1026947921874575e-02
         - 1.2711029987795548e-03
         - 9.4374499502970950e-03
         - 8.8485906276741834e-03
         - 4.1880014732525997e-03
         - 2.0729319873024718e-02
         - -6.3338470953577261e-03
         - 7.0366888772487523e-04
         - -2.1584664212444073e-02
         - -1.9325527548801628e-02
         - 1.5990273695349798e-02
         - -8.2465437972178935e-04
         - -4.4983276695940676e-03
         - -3.9827406787098403e-03
         - -8.4721318891904252e-03
         - 1.9715031575858254e-02
         - -2.2472854985626522e-02
         - -6.0376853852300190e-03
         - -1.1371028632581760e-03
         - -9.9553444861898177e-04
         - 6.6023624295621329e-03
         - -2.2966837446847434e-03
         - 9.4778402274899917e-03
         - -5.0025726658592933e-03
         - 1.9751658922139221e-02
         - -1.4654037051089808e-02
         - 2.7512070747897710e-04
         - 9.2912929400347684e-03
         - 5.6245207954469332e-03
         - -1.2091184899231078e-02
         - 9.7336242156370843e-03
         - -1.9951543980618193e-02
         - 2.1596085309493793e-02
         - -1.7563225262373944e-02
         - 2.5847112968988132e-03
         - -1.4499449516520961e-02
         - -7.9261894321119280e-03
         - -5.6234620623299416e-03
         - -2.2803424651087284e-02
         - -2.0486977209772710e-02
         - -6.9771764473862434e-03
         - -3.4336851094861173e-03
         - 2.3779993083540164e-03
         - -3.7445315312099512e-03
         - -7.5061128463652495e-04
         - -4.6440618444792527e-03
         - 1.1525008021737866e-02
         - 2.2716029901175714e-03
         - 8.0126724404862412e-04
         - -6.5173907140176528e-03
         - -2.2500524077558235e-02
         - 1.0282857956806109e-02
         - 7.8277473338714369e-03
         - 1.6590026194931638e-02
         - -2.0712577225499985e-03
         - 4.8057068588541439e-03
         - 4.2912027659157727e-03
         - 6.2330762093013514e-05
         - -4.5485466305913045e-03
         - -3.8579533229207894e-03
         - 4.1371644076016205e-03
         - -8.7568735181683434e-03
         - -1.4588542837043597e-02
         - 4.1910586667824809e-03
         - 4.4176853482409684e-03
         - 5.8672879669967254e-03
         - -3.4303389640987394e-03
         - 5.0594372432871265e-03
         - 9.3641485384131438e-04
         - -6.5488644657073821e-04
         - -3.4035647037433908e-03
         - -8.8306220526627739e-04
         - -3.6318094406164126e-04
         - -1.3481453992812838e-02
         - 3.4573263651796336e-03
         - -1.2841813401471263e-03
         - -1.0316429686305962e-02
         - 1.1238947547752257e-03
         - -1.8127585793710813e-03
         - -2.8983267374697356e-03
         - 9.1242599120940841e-04
         - 4.1732931262395578e-04
         - -2.2835220606276822e-03
         - -5.5778622480340033e-03
         - -1.2494709947407626e-03
         - -3.8133410046781138e-03
         - -6.6798532788722264e-04
         - -1.2923063347683122e-02
         - -2.7980896303702154e-03
         - -4.9637392482365797e-03
         - -1.5829287281232590e-02
         - 5.4727426793339980e-03
         - 1.0031406128072235e-02
         - -1.6173172475524362e-02
         - -4.6501449759502847e-04
         - -1.5365812451799988e-02
         - 5.9872384471358479e-04
         - -3.8856068896483097e-04
         - 1.0306022406865649e-03
         - 4.1077676230136667e-03
         - -4.4784882540558632e-03
         - 8.2717540867804256e-04
         - 1.6650032876580009e-02
         - 3.4514456968624393e-03
         - 8.2284230936988216e-03
         - 2.6093169872789027e-03
         - 4.0356857234645780e-03
         - 2.1766270863569984e-03
         - -1.3398958702170360e-03
         - -3.2182302616421436e-03
         - 2.8572580534819321e-03
         - -1.1115731588413577e-02
         - -1.5458209308525412e-02
         - 6.5871022377058091e-03
         - 3.9620742272684136e-03
         - 2.7007416299791660e-03
         - -1.4038855839649919e-03
         - 6.4148951176110107e-03
         - -1.8459895547919965e-04
         - -5.7425294879937070e-04
         - -4.6923307627291010e-03
         - 1.5092976605979253e-03
         - -4.2385261823328869e-03
         - -1.3981040702000120e-02
         - -7.2970287641534279e-04
         - -1.2072655302557832e-03
         - -1.1355600062219230e-02
         - 3.3226819855605495e-03
         - -2.7087774833560101e-03
         - -2.7477416540420642e-03
         - -3.0362029724784849e-03
         - 3.6384918893682958e-03
         - -5.6359720052020683e-03
         - -2.8870543140494579e-03
         - 1.3125329113821830e-03
         - -2.5557887076245291e-03
         - 1.0515831492442502e-03
         - -1.3438280317726618e-02
         - 1.2472527676690613e-03
         - -1.3607392945076031e-03
         - -1.5461415979044128e-02
         - 8.3920724559208189e-03
         - 1.3081786563161332e-02
         - -1.7512825564437753e-02
         - -1.3324917145705842e-03
         - -1.8274429416774055e-02
         - -2.9547931405573272e-04
         - 1.7228429266863353e-03
         - -7.7687697675965874e-04
         - 5.7904937828172779e-03
         - -1.7052764853133990e-03
         - -6.9840271994814969e-04
         - 1.9009244089844234e-02
         - 5.2545303879830679e-03
         - 8.3315671936603254e-03
         - 6.1987032402301455e-03
         - 2.9510920036467830e-04
         - -6.2706348606888693e-04
         - -7.4636606166445674e-03
         - -6.2840391610602363e-03
         - 7.8413951612615659e-03
         - -1.0930097223407318e-02
         - -1.2617360823335571e-02
         - 4.1546708416124942e-03
         - 3.5775557797872253e-03
         - 6.3159974756593767e-03
         - -6.3090969763825496e-03
         - 5.1869725996901740e-03
         - 1.0115018749647156e-03
         - -1.4063454258113209e-03
         - -7.6549519577606608e-05
         - 2.6551416269236436e-04
         - 1.6428311365053253e-03
         - -1.0569328523688779e-02
         - 5.5813617054956697e-03
         - -3.5325888413145147e-03
         - -1.1698012129451459e-02
         - 3.5078175545103160e-03
         - 7.1476931444952672e-04
         - -5.3228699185109080e-03
         - 4.4447048998336371e-03
         - -2.8487353291759376e-03
         - 3.3873227063975150e-04
         - -5.2087711389344872e-03
         - -2.6508081783744333e-04
         - -8.0660868269057055e-03
         - -1.8493147908669341e-03
         - -1.5968711273480023e-02
         - -4.6261417184685705e-03
         - -5.7188883235958516e-03
         - -1.2840131758245957e-02
         - 7.4157811847144258e-03
         - 1.3945647944403334e-02
         - -1.1059639343969394e-02
         - 7.4556716657285838e-05
         - -1.4369135728082089e-02
         - 3.6958554418313741e-03
         - 6.9320333573590531e-04
         - -4.9339492340350348e-04
         - 2.8456323906631154e-03
         - -4.4467202914957515e-03
         - 8.2408174929402169e-05
         - 1.5121486150855571e-02
         - 6.8239918942969010e-03
         - 3.8532780847075399e-03
         - 5.2783545427092793e-03
         - 2.0504327392081938e-03
         - -3.2244969459783697e-04
         - -7.9344643320947046e-03
         - -7.2309890443704788e-03
         - 7.4693804725723895e-03
         - -1.2185935490020344e-02
         - -9.4139679166985735e-03
         - 3.6526178103208850e-03
         - 5.2851163303830823e-03
         - 5.1005785837994061e-03
         - -6.5900461390230210e-03
         - 2.3139117357098716e-03
         - -1.4823718066850928e-03
         - -6.7260391597948369e-04
         - -1.1043574958325578e-03
         - 1.3705858988103802e-03
         - 1.9251686187100095e-03
         - -9.2245694843062116e-03
         - 5.6170386966617339e-03
         - -4.2167287332286656e-03
         - -1.4883420474345205e-02
         - 5.3611945968647084e-03
         - 2.7285762628707449e-04
         - -5.2038227743534497e-03
         - 3.1860386938400479e-03
         - -3.9018466909302410e-03
         - 3.5648991410114983e-03
         - -6.2640419799234980e-03
         - -8.1014477153080834e-05
         - -6.0187228460655212e-03
         - -4.3403928731448327e-03
         - -1.7015512565431996e-02
         - -7.9135728383974493e-03
         - -7.2248709183226787e-03
         - -1.0765674608719930e-02
         - 9.3338712708485073e-03
         - 1.3833655459994045e-02
         - -1.1727375044198959e-02
         - 1.4132310082872433e-03
         - -1.1124328534015205e-02
         - 3.3276200241852188e-03
         - -5.0394372020519341e-04
         - 8.0020840773895258e-05
         - 4.2151120685411684e-03
         - -7.7853955279278842e-03
         - 4.8436859072752576e-04
         - 1.2033146692117580e-02
         - 8.7257933840778415e-03
         - 5.1871161009838405e-03
         - 9.1624731037368567e-03
         - 1.5288643897122575e-03
         - -1.8420976450506401e-03
         - -1.0612829322004559e-02
         - -1.1497325390605519e-02
         - 9.7258398969580304e-03
         - -9.5282439295388769e-03
         - -8.4527152235497182e-03
         - 2.1553174496585048e-03
         - 5.8290011411581584e-03
         - 1.1941856216648139e-02
         - -9.9450357660595401e-03
         - 2.8566185868423404e-03
         - -1.8299016921580849e-03
         - 2.3050895431763869e-03
         - 7.5473210787164969e-04
         - -1.1146934197889147e-03
         - 3.8869112455033935e-03
         - -1.0463342070318477e-02
         - 7.9062643975993368e-03
         - -7.9491274151514742e-03
         - -1.4282726279886885e-02
         - 3.7231179500987074e-03
         - 1.4825640705276417e-03
         - -6.7156127470116853e-03
         - 2.7155040276918238e-03
         - -1.0435411418186309e-02
         - 6.6175403028703485e-03
         - -7.8646103399280121e-03
         - 9.4791855150366919e-04
         - -6.7455455476808047e-03
         - -4.4150281486960439e-03
         - -1.4163137659988124e-02
         - -1.1556113418280377e-02
         - -9.8130725665189315e-03
         - -1.1499358401721204e-02
         - 6.0511643395060174e-03
         - 1.1491618943344110e-02
         - -9.2024213659717899e-03
         - 7.0016018250602388e-04
         - -1.0344433078606632e-02
         - 4.9417975331419598e-03
         - -1.2638013708818367e-03
         - 6.7561736488506248e-04
         - 1.5639490170002218e-03
         - -8.2810934902639178e-03
         - 3.9232630918534916e-03
         - 6.8459041716205492e-03
         - 8.7350769816234106e-03
         - 4.2076163774814254e-03
         - 1.1271041568899642e-02
         - -3.0784600293549827e-03
         - 3.6627062515954433e-04
         - -1.1632049428360578e-02
         - -1.1852842281275875e-02
         - 1.1540950015071589e-02
         - -1.1312683526959218e-02
         - -8.5131866521240170e-03
         - -3.9454471056871176e-04
         - 7.0961919584358341e-03
         - 1.0403454202730988e-02
         - -1.2656046340069666e-02
         - 7.7425158664992723e-05
         - -2.3228456145069020e-03
         - 2.2626584155837643e-03
         - 5.6906178217102912e-03
         - 5.3888090810592481e-04
         - 3.3951292172745367e-03
         - -9.0373423115126597e-03
         - 1.1102316120430215e-02
         - -1.1186320644695238e-02
         - -1.2219562568137304e-02
         - 5.2663478505630985e-03
         - 3.3283772051546897e-03
         - -8.2385202898705469e-03
         - 6.1307425623472935e-03
         - -1.4394582329380940e-02
         - 1.1609292135434384e-02
         - -1.2628036730933817e-02
         - 2.0533566328626335e-03
         - -1.2028040822788777e-02
         - -9.0864855036340460e-03
         - -1.7500839253320237e-02
         - -1.2271918082926464e-02
         - -1.1787610322555363e-02
         - -8.8916815339629401e-03
         - 6.8124144436063749e-03
         - 1.2647926843464158e-02
         - -7.5670649483058783e-03
         - -1.9589428327580296e-03
         - -7.6379355748780187e-03
         - 9.2411080688158780e-03
         - 1.1424628571389986e-03
         - 2.0712443215373851e-03
         - 8.3860631431500066e-04
         - -1.1962302590066736e-02
         - 5.3222663811018905e-03
         - 8.4830147459426450e-03
         - 1.2553342929043528e-02
         - 5.4273248016629971e-03
         - 1.0851331531415969e-02
         - -9.3570576543499924e-04
         - 2.4061377906495026e-04
         - -1.1115955344445679e-02
         - -1.0890189598243803e-02
         - 9.8576916958157540e-03
         - -7.4912754130768179e-03
         - -5.2557326585434680e-03
         - -1.3242492402824504e-03
         - 3.7664958725846299e-03
         - 1.0926069453916155e-02
         - -1.1147642904289511e-02
         - -6.4715407145482583e-04
         - -2.3029818812299653e-03
         - 2.5218234625306165e-03
         - 3.2290450525229203e-03
         - -1.1451955092924365e-03
         - 3.8942306353541970e-03
         - -1.0377512717475113e-02
         - 1.0441727634211168e-02
         - -8.4436535121759967e-03
         - -1.0196624032379052e-02
         - 3.4873562444023339e-03
         - 4.2003119670489643e-03
         - -8.6707704784032610e-03
         - 4.1059593539728018e-03
         - -1.3814668536434645e-02
         - 1.1015145945447559e-02
         - -8.4888255170894582e-03
         - 1.9031661439657670e-03
         - -9.4588711727666575e-03
         - -6.3796008790921099e-03
         - -1.5511810093665238e-02
         - -1.1179583740760527e-02
         - -1.0249885665951950e-02
         - -8.8166647257477016e-03
         - 5.5612724126646272e-03
         - 1.2373526976167224e-02
         - -7.9317114973559890e-03
         - -1.7843437006186324e-03
         - -9.5575294444640441e-03
         - 7.5592251960767270e-03
         - 2.0098768063312963e-03
         - 1.5673273325885064e-04
         - 2.8016005538531600e-03
         - -1.2631109286064559e-02
         - 2.9120606472959241e-03
         - 6.3659551252441444e-03
         - 8.8068999821234954e-03
         - 3.4068846930339976e-03
         - 8.6498683768088287e-03
         - 3.6125445732381797e-03
         - -1.1748120493549421e-03
         - -9.2908138608335817e-03
         - -7.6181536846571260e-03
         - 9.4051436664709873e-03
         - -8.2517677654134342e-03
         - -6.9617108328503307e-03
         - 3.7111961613540555e-03
         - 2.8552963326769990e-03
         - 9.7202039928123811e-03
         - -8.4184457321719221e-03
         - 2.6541155420374825e-03
         - -1.8163615672311608e-03
         - 1.0141697551871358e-03
         - -1.1888512115512766e-03
         - 2.3426163578265111e-03
         - -1.2165147899133814e-03
         - -6.7596832114999676e-03
         - 1.0575810110798939e-02
         - -5.9248184847454453e-03
         - -8.3887112494889816e-03
         - 2.3902854815705680e-03
         - 1.4681052734302734e-03
         - -3.8418082957879427e-03
         - 1.0200948392425418e-03
         - -1.1066486924086962e-02
         - 7.7044767599731513e-03
         - -8.0833089074399088e-03
         - -8.7159179735456444e-04
         - -7.5094277291323196e-03
         - -1.0745386731790603e-03
         - -1.0123215887050828e-02
         - -1.0943665109889171e-02
         - -8.8358893624693770e-03
         - -7.7531150159860238e-03
         - 3.5827066639386456e-03
         - 7.1109061081821197e-03
         - -6.4779133272360352e-03
         - -1.4724071679390193e-03
         - -7.3833742041629893e-03
         - 3.6252097520433259e-03
         - -1.3372798929695742e-03
         - -1.4652381305624346e-03
         - 1.6457409498448336e-03
         - -9.2706777513221865e-03
         - -1.6364492509587114e-04
         - 5.6002851598174180e-03
         - 7.4667606743771368e-03
         - 4.3238165755064362e-03
         - 5.1502083181451525e-03
         - 4.4666194861070945e-03
         - 1.7060677690206841e-03
         - -7.2078251553700651e-03
         - -3.9837799856702379e-03
         - 5.6939319660579907e-03
         - -1.1910998891983032e-02
         - -4.8358853680119723e-03
         - 3.6076371170538305e-03
         - 6.4454315470289731e-03
         - 3.2106644347276486e-03
         - -3.3261226524636095e-03
         - 4.7727237926850083e-03
         - 1.1551713344084473e-03
         - 5.6925535400466777e-04
         - -3.7087991626396730e-03
         - -1.0182110539521975e-03
         - -1.2891214289279561e-03
         - -8.8486315561343738e-03
         - 6.0138437578473886e-03
         - -4.1473462976794910e-03
         - -1.1858350323246490e-02
         - 2.6150690546063817e-03
         - -8.8452639123532632e-04
         - -8.0857987215612827e-04
         - 7.8981725999032848e-04
         - -7.6257088980437116e-03
         - 3.9460746717547342e-03
         - -2.5799476579234240e-03
         - 2.1291352551613117e-03
         - -4.4543033210549306e-03
         - 5.9613389319984546e-04
         - -1.0879134291539545e-02
         - -5.1957929702599161e-03
         - -4.5587542211475620e-03
         - -7.5497681823116390e-03
         - 7.5268370071772646e-03
         - 1.1611668298969331e-02
         - -6.6840662855046232e-03
         - -6.4008306890805445e-04
         - -4.8197753553112527e-03
         - 1.1767014085659454e-03
         - -1.6863365483878825e-03
         - 1.4119210410405759e-03
         - 5.8539934634217403e-03
         - -3.1954286563521195e-03
         - -6.0546026361463700e-04
         - 5.0093823696070721e-03
         - 5.0369936829585222e-03
         - 6.5395349733334699e-03
         - 6.4014826851871752e-03
         - 4.5271227767964854e-03
         - 1.5783305297867333e-03
         - -7.8607804899216531e-03
         - -6.8011554325513174e-03
         - 5.4722596728598357e-03
         - -8.7738624802879434e-03
         - -3.6502417858855231e-03
         - 3.0445774270583671e-03
         - 1.0185676299403715e-02
         - 6.3741212060759792e-03
         - -5.2500329940326235e-03
         - 4.0629591960032367e-03
         - -7.1937723259502266e-04
         - 9.5203331838652854e-04
         - -1.9253625104138858e-03
         - 2.2059899405923893e-03
         - -7.4974594379613631e-04
         - -7.8657992238508959e-03
         - 7.6289694502695128e-03
         - -4.8250355128505945e-03
         - -1.3248718197597022e-02
         - 3.1477078189425757e-03
         - -1.3236459149218380e-03
         - -3.3473140721194251e-03
         - -1.4013896081479038e-03
         - -1.0546393152105201e-02
         - 8.4426893974532281e-03
         - -5.4710154704860096e-03
         - -3.1646162070005264e-04
         - -4.6235158039448247e-03
         - 6.0082031172594926e-05
         - -1.2219475855296468e-02
         - -1.0243548280517380e-02
         - -7.1985453089879635e-03
         - -3.3436386935981979e-03
         - 6.7896935964863051e-03
         - 1.0884185738205435e-02
         - -7.2546993184359389e-03
         - -8.3849220897948837e-04
         - -5.2798424057558489e-03
         - 4.9530798035958524e-04
         - -1.1141905283496111e-04
         - -7.1398238179869698e-04
         - 5.9470368759483132e-03
         - -5.8618876696075340e-03
         - -2.5677364902056778e-03
         - 2.9857704765096668e-03
         - 6.1125134944218871e-03
         - 4.1321901989244039e-03
         - 9.9881868048978095e-03
         - -5.0832568494030533e-04
         - 2.9574836020835785e-04
         - -9.5450347872912712e-03
         - -9.0492127457530470e-03
         - 7.8844261578424543e-03
         - -8.6525673990226846e-03
         - -1.4460533245198106e-03
         - 3.1079094016874865e-03
         - 8.5781085742900869e-03
         - 9.6252099763726780e-03
         - -9.0840979497259430e-03
         - 4.1756997326586713e-03
         - -5.9414571786172755e-04
         - 1.4439204539015729e-04
         - 1.0857863553940176e-03
         - -2.5006551822671602e-03
         - 2.2354909259052077e-03
         - -6.8566838070975716e-03
         - 8.7222227956799715e-03
         - -1.0816521358738156e-02
         - -1.2774224359738511e-02
         - 1.5153739760353387e-03
         - 1.7009935011043278e-03
         - -3.7609665495465018e-03
         - -9.0644531614305875e-04
         - -1.1603739428677004e-02
         - 1.0710022998253617e-02
         - -7.8093084087614301e-03
         - 1.5888014966736687e-03
         - -7.4926488622993137e-03
         - -1.5369381587097598e-03
         - -7.8633988931321001e-03
         - -1.3192928110762824e-02
         - -9.5517689646856668e-03
         - -4.4123986538222608e-03
         - 9.2763856275986257e-03
         - 1.2507800724985198e-02
         - -1.6720100305363790e-03
         - -7.6515770087509465e-04
         - -1.2399702500927687e-03
         - 1.3737492393880734e-03
         - 3.6411614566672981e-04
         - 9.0121043175927747e-04
         - 3.2068240543034637e-03
         - -8.8910577494042669e-03
         - 3.1072890262910879e-03
         - -2.0345596229272294e-03
         - 8.5764424601826230e-03
         - 2.5188750947919385e-03
         - 1.3286520010066163e-03
         - 5.4527275791187487e-03
