%YAML:1.0
---
opencv_ml_ann_mlp:
   format: 3
   layer_sizes: [ 1024, 50, 2 ]
   activation_function: SIGMOID_SYM
   f_param1: 6.6666666666666663e-01
   f_param2: 1.7159000000000000e+00
   min_val: -9.4999999999999996e-01
   max_val: 9.4999999999999996e-01
   min_val1: -9.7999999999999998e-01
   max_val1: 9.7999999999999998e-01
   training_params:
      train_method: BACKPROP
      dw_scale: 1.0000000000000000e-03
      moment_scale: 0.
      term_criteria:
         epsilon: 1.0000000000000001e-01
         iterations: 100
   input_scale:
      - 2.6088009411688882e+00
      - -1.3164896708021139e+00
      - 2.6003759361760346e+00
      - -1.3196850678133458e+00
      - 2.5905750104729846e+00
      - -1.3155141703362963e+00
      - 2.5836786509533165e+00
      - -1.3124467045957033e+00
      - 2.5742617383269821e+00
      - -1.3148674847259540e+00
      - 2.5689306800799221e+00
      - -1.3170101857767136e+00
      - 2.5608696948670451e+00
      - -1.3188026084851798e+00
      - 2.5543467798119548e+00
      - -1.3200124175946646e+00
      - 2.5499435696920343e+00
      - -1.3204056473422596e+00
      - 2.5531099752006554e+00
      - -1.3279650890807411e+00
      - 2.5503043103030496e+00
      - -1.3267314565004993e+00
      - 2.5552072348409811e+00
      - -1.3289658193474576e+00
      - 2.5543844510750859e+00
      - -1.3301529578660494e+00
      - 2.5531935483449151e+00
      - -1.3278353128944775e+00
      - 2.5508060475589254e+00
      - -1.3242762986587289e+00
      - 2.5523781113919131e+00
      - -1.3240364170731367e+00
      - 2.5511245281055634e+00
      - -1.3219641433676090e+00
      - 2.5517536175120830e+00
      - -1.3223915670367172e+00
      - 2.5567765387535890e+00
      - -1.3251935090102354e+00
      - 2.5611611872879188e+00
      - -1.3222271110368744e+00
      - 2.5657624390460230e+00
      - -1.3216498953176510e+00
      - 2.5710393164781409e+00
      - -1.3189618753286532e+00
      - 2.5775672032052599e+00
      - -1.3156743492368257e+00
      - 2.5842105179442245e+00
      - -1.3183564802961634e+00
      - 2.5890852475227235e+00
      - -1.3160174046695212e+00
      - 2.5998961289262632e+00
      - -1.3165680412801199e+00
      - 2.6052724744053974e+00
      - -1.3160810222950583e+00
      - 2.6071144839881080e+00
      - -1.3145066126405380e+00
      - 2.6137331561321928e+00
      - -1.3104280006879094e+00
      - 2.6271761461087042e+00
      - -1.3086257324196384e+00
      - 2.6413059716844161e+00
      - -1.3105447541342268e+00
      - 2.6504343593726287e+00
      - -1.3098187044285052e+00
      - 2.6050330922771106e+00
      - -1.3208093966558565e+00
      - 2.5952564949078667e+00
      - -1.3226167459402818e+00
      - 2.5876770035081345e+00
      - -1.3212730251215519e+00
      - 2.5809424967219301e+00
      - -1.3184643146219515e+00
      - 2.5697280578819561e+00
      - -1.3182192961131736e+00
      - 2.5624404363959998e+00
      - -1.3178560997284701e+00
      - 2.5547551454465376e+00
      - -1.3212566805237209e+00
      - 2.5556371772004920e+00
      - -1.3238166582236572e+00
      - 2.5482641281129945e+00
      - -1.3205970276623917e+00
      - 2.5437143874278410e+00
      - -1.3262053427623546e+00
      - 2.5477384585263101e+00
      - -1.3320481464165586e+00
      - 2.5535485655077106e+00
      - -1.3366935946596747e+00
      - 2.5529054209206743e+00
      - -1.3363224498346475e+00
      - 2.5492549126807815e+00
      - -1.3302642905199820e+00
      - 2.5464896702944566e+00
      - -1.3264042867500991e+00
      - 2.5450403319923920e+00
      - -1.3261687933652988e+00
      - 2.5509602854869162e+00
      - -1.3279114449722271e+00
      - 2.5513366701425895e+00
      - -1.3269845732338093e+00
      - 2.5552495886498510e+00
      - -1.3263662698893883e+00
      - 2.5628761574641175e+00
      - -1.3257356098878583e+00
      - 2.5668029076433370e+00
      - -1.3256020706557974e+00
      - 2.5723623976502994e+00
      - -1.3239941799138508e+00
      - 2.5756627027649746e+00
      - -1.3198536523072741e+00
      - 2.5795555408792668e+00
      - -1.3188575624008239e+00
      - 2.5853665071032679e+00
      - -1.3178227674367538e+00
      - 2.5926714474663104e+00
      - -1.3158258082918637e+00
      - 2.5994644001085105e+00
      - -1.3170530123514494e+00
      - 2.5987144817714025e+00
      - -1.3146004437513321e+00
      - 2.6087353109800575e+00
      - -1.3124101107252741e+00
      - 2.6280055099559481e+00
      - -1.3135399787627944e+00
      - 2.6398230674516405e+00
      - -1.3137853620254860e+00
      - 2.6445706750447830e+00
      - -1.3099668622928573e+00
      - 2.6007368203984416e+00
      - -1.3183952619465968e+00
      - 2.5913405066066972e+00
      - -1.3226565838195325e+00
      - 2.5804451934442656e+00
      - -1.3241183525010984e+00
      - 2.5744441973086607e+00
      - -1.3253645791544262e+00
      - 2.5691921527648360e+00
      - -1.3264882454317273e+00
      - 2.5616378664209654e+00
      - -1.3252927627806825e+00
      - 2.5533243386279065e+00
      - -1.3261382328912543e+00
      - 2.5526984048753194e+00
      - -1.3270003531883374e+00
      - 2.5460320174754267e+00
      - -1.3241140340563506e+00
      - 2.5418333677020186e+00
      - -1.3289561590994212e+00
      - 2.5480831401449775e+00
      - -1.3386798239042483e+00
      - 2.5509679648237675e+00
      - -1.3401538799540220e+00
      - 2.5455272500488326e+00
      - -1.3367538513708401e+00
      - 2.5462935124884094e+00
      - -1.3344470996539162e+00
      - 2.5432378622296072e+00
      - -1.3319003063646719e+00
      - 2.5433024973565250e+00
      - -1.3339037024362570e+00
      - 2.5453521180306948e+00
      - -1.3321803161653318e+00
      - 2.5497683298848561e+00
      - -1.3323513974886179e+00
      - 2.5519427235512651e+00
      - -1.3284362931300633e+00
      - 2.5586913186252640e+00
      - -1.3279800879046775e+00
      - 2.5653217074561070e+00
      - -1.3300624423609679e+00
      - 2.5710854383261519e+00
      - -1.3275573291733656e+00
      - 2.5703076493804122e+00
      - -1.3240069371020020e+00
      - 2.5784454702693478e+00
      - -1.3246993406082659e+00
      - 2.5861193460072354e+00
      - -1.3228059668649135e+00
      - 2.5880567207830842e+00
      - -1.3200783174508544e+00
      - 2.5923773675331625e+00
      - -1.3194836268996479e+00
      - 2.5987984174437311e+00
      - -1.3187173366937288e+00
      - 2.6047216503214679e+00
      - -1.3161345307901893e+00
      - 2.6247623225827370e+00
      - -1.3170364179382676e+00
      - 2.6331280829510288e+00
      - -1.3148747763488218e+00
      - 2.6408755358759066e+00
      - -1.3111709927082569e+00
      - 2.6008700001067853e+00
      - -1.3191354172633600e+00
      - 2.5872809100158602e+00
      - -1.3203686237133434e+00
      - 2.5803428570380671e+00
      - -1.3261320910368040e+00
      - 2.5718682136046711e+00
      - -1.3293954330734095e+00
      - 2.5674590232673880e+00
      - -1.3301151866762659e+00
      - 2.5573990934369588e+00
      - -1.3281574017253190e+00
      - 2.5509051318119536e+00
      - -1.3307931335612624e+00
      - 2.5496474357279326e+00
      - -1.3318063513814122e+00
      - 2.5414023778983212e+00
      - -1.3286266639770714e+00
      - 2.5415597929604163e+00
      - -1.3345370488610628e+00
      - 2.5404272517596476e+00
      - -1.3379940087935343e+00
      - 2.5431752989252518e+00
      - -1.3381681718700140e+00
      - 2.5424559773041846e+00
      - -1.3381581591696274e+00
      - 2.5420988392798094e+00
      - -1.3379461328613744e+00
      - 2.5360205836775496e+00
      - -1.3361248049878347e+00
      - 2.5371144687799281e+00
      - -1.3385595378017017e+00
      - 2.5397029505253781e+00
      - -1.3372200710051612e+00
      - 2.5415342662951006e+00
      - -1.3338751507911242e+00
      - 2.5465809160156638e+00
      - -1.3325477284180214e+00
      - 2.5558269114925372e+00
      - -1.3319480477417978e+00
      - 2.5612233320937134e+00
      - -1.3313626393251039e+00
      - 2.5673905470799170e+00
      - -1.3302620234702118e+00
      - 2.5672213513554270e+00
      - -1.3282067020340134e+00
      - 2.5749804856448493e+00
      - -1.3289856941554039e+00
      - 2.5810354590139069e+00
      - -1.3264553402482491e+00
      - 2.5804476961412659e+00
      - -1.3242644187034753e+00
      - 2.5875564780915172e+00
      - -1.3229117139376811e+00
      - 2.5940476341134069e+00
      - -1.3186388759232721e+00
      - 2.6021023274195616e+00
      - -1.3183343926291349e+00
      - 2.6138493799496434e+00
      - -1.3179596028811293e+00
      - 2.6213882122781356e+00
      - -1.3140607296859486e+00
      - 2.6343033648699947e+00
      - -1.3101913241827083e+00
      - 2.5955741248301387e+00
      - -1.3193038282973404e+00
      - 2.5871126476270976e+00
      - -1.3226926527402012e+00
      - 2.5796224995812600e+00
      - -1.3259022112867418e+00
      - 2.5742167733623424e+00
      - -1.3306511137588932e+00
      - 2.5647817787328027e+00
      - -1.3307333892294650e+00
      - 2.5547463297428359e+00
      - -1.3297249117472065e+00
      - 2.5495993470149858e+00
      - -1.3314549779354941e+00
      - 2.5474590204618619e+00
      - -1.3332337556534808e+00
      - 2.5395032879256667e+00
      - -1.3317456825468967e+00
      - 2.5373636795599399e+00
      - -1.3363055270768145e+00
      - 2.5373355225252858e+00
      - -1.3381597970392842e+00
      - 2.5377763218131526e+00
      - -1.3367789149223208e+00
      - 2.5375521124259430e+00
      - -1.3369946763598362e+00
      - 2.5373813807267256e+00
      - -1.3386116312680856e+00
      - 2.5347831473262414e+00
      - -1.3400488341798262e+00
      - 2.5372992605814404e+00
      - -1.3418571908209329e+00
      - 2.5350940329681686e+00
      - -1.3385079630487686e+00
      - 2.5341262591458409e+00
      - -1.3346061683262807e+00
      - 2.5447441498997092e+00
      - -1.3357789943299976e+00
      - 2.5513573961451943e+00
      - -1.3358161793008945e+00
      - 2.5595836767623905e+00
      - -1.3340950981860478e+00
      - 2.5641626181679174e+00
      - -1.3330230413506061e+00
      - 2.5712211944900418e+00
      - -1.3343343140042436e+00
      - 2.5739241920075329e+00
      - -1.3311402812419848e+00
      - 2.5719904216698914e+00
      - -1.3274944507824871e+00
      - 2.5738584966261446e+00
      - -1.3252641407503436e+00
      - 2.5787065877948638e+00
      - -1.3220673710818929e+00
      - 2.5883085697047434e+00
      - -1.3191101677576007e+00
      - 2.6009491805784979e+00
      - -1.3195516050405096e+00
      - 2.6088090584009200e+00
      - -1.3168848268112592e+00
      - 2.6136041208180179e+00
      - -1.3121098488749194e+00
      - 2.6270754074402749e+00
      - -1.3089640071954773e+00
      - 2.5937432655864190e+00
      - -1.3199726979010951e+00
      - 2.5906895761658939e+00
      - -1.3269360793374172e+00
      - 2.5807377375576039e+00
      - -1.3286964726631108e+00
      - 2.5744844692361637e+00
      - -1.3319450258153336e+00
      - 2.5594091366901002e+00
      - -1.3302052275187339e+00
      - 2.5518760824025803e+00
      - -1.3305835442319536e+00
      - 2.5496026789440918e+00
      - -1.3337129519669899e+00
      - 2.5490024271058100e+00
      - -1.3357911643562812e+00
      - 2.5406983465460398e+00
      - -1.3360007130272167e+00
      - 2.5353355050440540e+00
      - -1.3387456300336753e+00
      - 2.5326274619670839e+00
      - -1.3405194847506579e+00
      - 2.5349447588016871e+00
      - -1.3411871217271809e+00
      - 2.5357092167667785e+00
      - -1.3428851519015881e+00
      - 2.5341837710586024e+00
      - -1.3423223625086014e+00
      - 2.5304172522142672e+00
      - -1.3428077417638653e+00
      - 2.5302171193035625e+00
      - -1.3415957578468998e+00
      - 2.5293334658194615e+00
      - -1.3385266826935094e+00
      - 2.5327853046803224e+00
      - -1.3378970144045284e+00
      - 2.5423626119280605e+00
      - -1.3402478929202686e+00
      - 2.5490031279148226e+00
      - -1.3395559080417183e+00
      - 2.5529617140650505e+00
      - -1.3370270948733882e+00
      - 2.5596553553819388e+00
      - -1.3375018127501317e+00
      - 2.5652357856520909e+00
      - -1.3364135136420912e+00
      - 2.5712071973196196e+00
      - -1.3331281453184305e+00
      - 2.5710874740846728e+00
      - -1.3321496238359380e+00
      - 2.5731639798920396e+00
      - -1.3284746194823553e+00
      - 2.5734556259528856e+00
      - -1.3221130435549959e+00
      - 2.5831293015612058e+00
      - -1.3184729686497294e+00
      - 2.6002086288331352e+00
      - -1.3212071787106598e+00
      - 2.6055434990957131e+00
      - -1.3149414711621221e+00
      - 2.6124487145710646e+00
      - -1.3132789643959959e+00
      - 2.6226663144636904e+00
      - -1.3123176201396571e+00
      - 2.5961635458094485e+00
      - -1.3227624817895707e+00
      - 2.5886375558807782e+00
      - -1.3267876587627108e+00
      - 2.5800563563123453e+00
      - -1.3317659655049021e+00
      - 2.5703072651310830e+00
      - -1.3325933894363149e+00
      - 2.5570294492206895e+00
      - -1.3308573825881689e+00
      - 2.5519595879361887e+00
      - -1.3324793124805927e+00
      - 2.5472908320947316e+00
      - -1.3348945798628389e+00
      - 2.5464175629182071e+00
      - -1.3392839887535464e+00
      - 2.5436360770915893e+00
      - -1.3401417363872830e+00
      - 2.5376350485305319e+00
      - -1.3426464894041594e+00
      - 2.5312204849049760e+00
      - -1.3429149503533195e+00
      - 2.5326129933619157e+00
      - -1.3440727183987746e+00
      - 2.5312487357539664e+00
      - -1.3456662771239183e+00
      - 2.5320632517003303e+00
      - -1.3453515661846147e+00
      - 2.5240573248330977e+00
      - -1.3419921185331081e+00
      - 2.5260954621338385e+00
      - -1.3401447603271430e+00
      - 2.5287008890321054e+00
      - -1.3394144022471208e+00
      - 2.5338881919613363e+00
      - -1.3397626286089908e+00
      - 2.5385812262114387e+00
      - -1.3424302473987906e+00
      - 2.5444271213658727e+00
      - -1.3436432628264743e+00
      - 2.5479944271206363e+00
      - -1.3408521782204197e+00
      - 2.5546024447348072e+00
      - -1.3407647514957377e+00
      - 2.5602779448662560e+00
      - -1.3377570483914973e+00
      - 2.5683587338578109e+00
      - -1.3374268339568798e+00
      - 2.5672630399999461e+00
      - -1.3357395417477969e+00
      - 2.5740790419397044e+00
      - -1.3349921045821298e+00
      - 2.5755260412098262e+00
      - -1.3273806114656574e+00
      - 2.5839294000642061e+00
      - -1.3219314943890867e+00
      - 2.5942235557801849e+00
      - -1.3212553394521895e+00
      - 2.6048652594477626e+00
      - -1.3188581714880123e+00
      - 2.6122558017554582e+00
      - -1.3158154711747463e+00
      - 2.6230854098276959e+00
      - -1.3159533190182360e+00
      - 2.5916566578159457e+00
      - -1.3229421914380188e+00
      - 2.5859802393927014e+00
      - -1.3270465299159404e+00
      - 2.5764946955909287e+00
      - -1.3303459157205648e+00
      - 2.5668584640572925e+00
      - -1.3306351815664565e+00
      - 2.5518823975021085e+00
      - -1.3298872669356090e+00
      - 2.5556610870725778e+00
      - -1.3373668279303228e+00
      - 2.5491581639952856e+00
      - -1.3377810986931102e+00
      - 2.5453946842067254e+00
      - -1.3416117425741469e+00
      - 2.5420181559428574e+00
      - -1.3441135485247118e+00
      - 2.5352380822535210e+00
      - -1.3449662740054107e+00
      - 2.5294653343187363e+00
      - -1.3435870974695749e+00
      - 2.5304503693208820e+00
      - -1.3453025839833110e+00
      - 2.5276242114132135e+00
      - -1.3479711627656119e+00
      - 2.5260130875936166e+00
      - -1.3491800930556632e+00
      - 2.5189921664762047e+00
      - -1.3443101584368138e+00
      - 2.5220833613040750e+00
      - -1.3428709212854262e+00
      - 2.5277687059152170e+00
      - -1.3413118119519059e+00
      - 2.5275943048975416e+00
      - -1.3392572255888475e+00
      - 2.5340385745299305e+00
      - -1.3433794677531428e+00
      - 2.5409252381068979e+00
      - -1.3451764472285210e+00
      - 2.5405240129855664e+00
      - -1.3403183824528999e+00
      - 2.5459895265798314e+00
      - -1.3386833972475334e+00
      - 2.5558099770720295e+00
      - -1.3394336788983405e+00
      - 2.5636436186426597e+00
      - -1.3405220426463074e+00
      - 2.5659611444618342e+00
      - -1.3370735517563090e+00
      - 2.5704411323689769e+00
      - -1.3350591640614058e+00
      - 2.5705470471716820e+00
      - -1.3305580316775976e+00
      - 2.5780878416505772e+00
      - -1.3243900433273299e+00
      - 2.5886124642730910e+00
      - -1.3218326983651127e+00
      - 2.6011134011073356e+00
      - -1.3188194029721558e+00
      - 2.6144621763018083e+00
      - -1.3167028963737586e+00
      - 2.6230797349682970e+00
      - -1.3153037776019041e+00
      - 2.5901224900407169e+00
      - -1.3240265969649601e+00
      - 2.5836434349988653e+00
      - -1.3270105736967654e+00
      - 2.5733263089886247e+00
      - -1.3290958851096339e+00
      - 2.5622575699485095e+00
      - -1.3299411206959322e+00
      - 2.5526270734857821e+00
      - -1.3315855432756243e+00
      - 2.5505435400159269e+00
      - -1.3378544629333935e+00
      - 2.5474060789587996e+00
      - -1.3382819708221680e+00
      - 2.5380798862984109e+00
      - -1.3393196931622049e+00
      - 2.5352954047494745e+00
      - -1.3447055144184834e+00
      - 2.5340517130494202e+00
      - -1.3471669680013827e+00
      - 2.5294314506043287e+00
      - -1.3468093873534408e+00
      - 2.5261335640708174e+00
      - -1.3481336674158630e+00
      - 2.5158406345575841e+00
      - -1.3464112838180220e+00
      - 2.5172366070140981e+00
      - -1.3494611884558507e+00
      - 2.5144798877616110e+00
      - -1.3458666984089711e+00
      - 2.5160719490516859e+00
      - -1.3424547949889498e+00
      - 2.5220177512605777e+00
      - -1.3422460470606885e+00
      - 2.5247601681791143e+00
      - -1.3417479032916462e+00
      - 2.5252316042191141e+00
      - -1.3397103225916229e+00
      - 2.5324700573789456e+00
      - -1.3436741260250697e+00
      - 2.5328116081974859e+00
      - -1.3404649869468248e+00
      - 2.5413021918443697e+00
      - -1.3396793052999667e+00
      - 2.5483610887886994e+00
      - -1.3406769317348588e+00
      - 2.5574163662227152e+00
      - -1.3398083619695071e+00
      - 2.5639649370875417e+00
      - -1.3346236674138203e+00
      - 2.5668618679872033e+00
      - -1.3337122748470189e+00
      - 2.5688096873966098e+00
      - -1.3312341486096426e+00
      - 2.5715665883168746e+00
      - -1.3205819215725501e+00
      - 2.5869492842584170e+00
      - -1.3190122669602260e+00
      - 2.6014718025544243e+00
      - -1.3180805248278655e+00
      - 2.6109202967749652e+00
      - -1.3164911182430930e+00
      - 2.6196028096843587e+00
      - -1.3180853250166091e+00
      - 2.5857203647370768e+00
      - -1.3239129791464084e+00
      - 2.5803317080733961e+00
      - -1.3263681719888822e+00
      - 2.5710315837312741e+00
      - -1.3292127223110470e+00
      - 2.5599382145755150e+00
      - -1.3324947961132387e+00
      - 2.5515808974328489e+00
      - -1.3332123603011321e+00
      - 2.5482819180821230e+00
      - -1.3374562318872534e+00
      - 2.5448821450622545e+00
      - -1.3390751572986537e+00
      - 2.5336831626954024e+00
      - -1.3395331465547207e+00
      - 2.5324494971171099e+00
      - -1.3438268814967855e+00
      - 2.5318326955579473e+00
      - -1.3487444263215271e+00
      - 2.5280788935569070e+00
      - -1.3505835016834735e+00
      - 2.5200835993471480e+00
      - -1.3493259640637689e+00
      - 2.5117822372355381e+00
      - -1.3479180550983807e+00
      - 2.5110795118168809e+00
      - -1.3484863777533493e+00
      - 2.5084857478447709e+00
      - -1.3462371820147749e+00
      - 2.5092189327625194e+00
      - -1.3425333265944821e+00
      - 2.5142345654513418e+00
      - -1.3435006751462084e+00
      - 2.5150734062132312e+00
      - -1.3417072252812563e+00
      - 2.5195912005882577e+00
      - -1.3390368199975931e+00
      - 2.5256497745325968e+00
      - -1.3421374826509997e+00
      - 2.5280497794217109e+00
      - -1.3406025608354466e+00
      - 2.5384465816239490e+00
      - -1.3396551578012676e+00
      - 2.5436645107595655e+00
      - -1.3400661564745391e+00
      - 2.5528619741605465e+00
      - -1.3389764450452821e+00
      - 2.5610854183772793e+00
      - -1.3355184359598786e+00
      - 2.5664714720570601e+00
      - -1.3334105770753506e+00
      - 2.5703948472789215e+00
      - -1.3304014669094846e+00
      - 2.5758380481792775e+00
      - -1.3195748983809308e+00
      - 2.5826697088240023e+00
      - -1.3152826140819551e+00
      - 2.5951800185124512e+00
      - -1.3156162749819720e+00
      - 2.6050492281737152e+00
      - -1.3168124368335608e+00
      - 2.6191399214924735e+00
      - -1.3186675062191846e+00
      - 2.5856760806307393e+00
      - -1.3260710765577095e+00
      - 2.5787165132765897e+00
      - -1.3279683233277637e+00
      - 2.5684742450103815e+00
      - -1.3283808693957759e+00
      - 2.5607877745873244e+00
      - -1.3332611041612541e+00
      - 2.5534195102838688e+00
      - -1.3358346235148415e+00
      - 2.5474200308095556e+00
      - -1.3387339957076407e+00
      - 2.5426971238726619e+00
      - -1.3389991701116024e+00
      - 2.5317158447392583e+00
      - -1.3380202212626480e+00
      - 2.5289124180249951e+00
      - -1.3412833116532406e+00
      - 2.5235717867781919e+00
      - -1.3458890600414553e+00
      - 2.5203355496024740e+00
      - -1.3487870378448101e+00
      - 2.5130273351587249e+00
      - -1.3478625472955350e+00
      - 2.5069929071877715e+00
      - -1.3465778761604625e+00
      - 2.5064068721151522e+00
      - -1.3464866337145551e+00
      - 2.5046193337876890e+00
      - -1.3472846878238507e+00
      - 2.5038850154804848e+00
      - -1.3448837950567551e+00
      - 2.5018320212397542e+00
      - -1.3424230578235041e+00
      - 2.5061823950678632e+00
      - -1.3431837112358609e+00
      - 2.5157490064707559e+00
      - -1.3419117314505082e+00
      - 2.5187376852457493e+00
      - -1.3405772114110379e+00
      - 2.5206032760952879e+00
      - -1.3399606496143353e+00
      - 2.5336016507793535e+00
      - -1.3424700690664111e+00
      - 2.5433051468045949e+00
      - -1.3431032410866197e+00
      - 2.5503365696031448e+00
      - -1.3407466944490549e+00
      - 2.5576795778512498e+00
      - -1.3389569398836474e+00
      - 2.5642759879763397e+00
      - -1.3340978092072200e+00
      - 2.5682108317472117e+00
      - -1.3284075618354689e+00
      - 2.5768652746776950e+00
      - -1.3216973466513591e+00
      - 2.5814222031748164e+00
      - -1.3153297114889944e+00
      - 2.5902633781630504e+00
      - -1.3140343097838347e+00
      - 2.6000384810672297e+00
      - -1.3150497215442081e+00
      - 2.6143478308965187e+00
      - -1.3152643990350081e+00
      - 2.5868872106585683e+00
      - -1.3285412812945099e+00
      - 2.5806975772892935e+00
      - -1.3312245303918540e+00
      - 2.5696201635673050e+00
      - -1.3303815466317905e+00
      - 2.5618213914946466e+00
      - -1.3311105244133032e+00
      - 2.5532526976253056e+00
      - -1.3356093829460540e+00
      - 2.5455321062925083e+00
      - -1.3397792639738195e+00
      - 2.5370751153238311e+00
      - -1.3378133828013052e+00
      - 2.5318238986076702e+00
      - -1.3396920696318919e+00
      - 2.5306059002731240e+00
      - -1.3423159069663029e+00
      - 2.5209659668687401e+00
      - -1.3433075760183815e+00
      - 2.5146803290432671e+00
      - -1.3458286688079235e+00
      - 2.5070203402828128e+00
      - -1.3457026020331682e+00
      - 2.5007913066212177e+00
      - -1.3437699966698271e+00
      - 2.5037504616350477e+00
      - -1.3466793442431393e+00
      - 2.5025712323030844e+00
      - -1.3485048022558204e+00
      - 2.4962207010060560e+00
      - -1.3471456771247019e+00
      - 2.4962757253649870e+00
      - -1.3457847872972049e+00
      - 2.5024212063284197e+00
      - -1.3443448061170631e+00
      - 2.5114630413780721e+00
      - -1.3428251482395708e+00
      - 2.5152943507559131e+00
      - -1.3405629053404982e+00
      - 2.5186630868930093e+00
      - -1.3408173599731936e+00
      - 2.5267705355818180e+00
      - -1.3441679810674720e+00
      - 2.5350612912617625e+00
      - -1.3413128770002425e+00
      - 2.5461278267444545e+00
      - -1.3403950991477063e+00
      - 2.5525295858491162e+00
      - -1.3391287125116587e+00
      - 2.5565767962808796e+00
      - -1.3336954120438025e+00
      - 2.5635236699790407e+00
      - -1.3265741029285849e+00
      - 2.5727188887639363e+00
      - -1.3219232090054134e+00
      - 2.5788608831857758e+00
      - -1.3169347901158752e+00
      - 2.5894246744320415e+00
      - -1.3157032014963850e+00
      - 2.5999024164280611e+00
      - -1.3149666204007804e+00
      - 2.6101204874110389e+00
      - -1.3156585010560675e+00
      - 2.5838663847319054e+00
      - -1.3272233900920336e+00
      - 2.5781941165259212e+00
      - -1.3299414541155488e+00
      - 2.5663692590779776e+00
      - -1.3307071936350883e+00
      - 2.5612700437946767e+00
      - -1.3329030321990905e+00
      - 2.5538084498707656e+00
      - -1.3351329917433221e+00
      - 2.5443791528259716e+00
      - -1.3385090164344473e+00
      - 2.5339452417854211e+00
      - -1.3374500826483877e+00
      - 2.5274741204708144e+00
      - -1.3396404581323114e+00
      - 2.5274956448115957e+00
      - -1.3424868230051943e+00
      - 2.5208360047359939e+00
      - -1.3431943011025980e+00
      - 2.5094506493362938e+00
      - -1.3425631831426155e+00
      - 2.5037455545841438e+00
      - -1.3444376014292900e+00
      - 2.5000264735540254e+00
      - -1.3458456075082841e+00
      - 2.4972128778150715e+00
      - -1.3476669308062461e+00
      - 2.4909647133463864e+00
      - -1.3460180304065950e+00
      - 2.4893712990354953e+00
      - -1.3452434543271781e+00
      - 2.4936192459097835e+00
      - -1.3460699595252232e+00
      - 2.4990279727893001e+00
      - -1.3437531124139934e+00
      - 2.5067426236845285e+00
      - -1.3432400944281349e+00
      - 2.5094615501602613e+00
      - -1.3383420611341397e+00
      - 2.5124344557911207e+00
      - -1.3382804293701935e+00
      - 2.5213961087424996e+00
      - -1.3405800961107623e+00
      - 2.5332351459753917e+00
      - -1.3427965672788080e+00
      - 2.5423152329289902e+00
      - -1.3415074653236656e+00
      - 2.5467109984429106e+00
      - -1.3359170355224195e+00
      - 2.5551952382053682e+00
      - -1.3322184445787693e+00
      - 2.5590995896478592e+00
      - -1.3251488916975196e+00
      - 2.5655860099039733e+00
      - -1.3200411238037488e+00
      - 2.5757630791599366e+00
      - -1.3175584164824865e+00
      - 2.5901712084711295e+00
      - -1.3187356326732815e+00
      - 2.5972982189230103e+00
      - -1.3138238358962169e+00
      - 2.6073799933446029e+00
      - -1.3158373418834226e+00
      - 2.5774475108715524e+00
      - -1.3244317691500487e+00
      - 2.5719351870864062e+00
      - -1.3282668637105119e+00
      - 2.5689380595710838e+00
      - -1.3310775551191929e+00
      - 2.5632023329934759e+00
      - -1.3338069946231026e+00
      - 2.5523123921047230e+00
      - -1.3340616244280186e+00
      - 2.5424886893667322e+00
      - -1.3368524207950188e+00
      - 2.5364031764061985e+00
      - -1.3395888161870200e+00
      - 2.5287962013466552e+00
      - -1.3397293917748896e+00
      - 2.5218154805806896e+00
      - -1.3387748617998922e+00
      - 2.5159322226576202e+00
      - -1.3404899001518267e+00
      - 2.5053150432699609e+00
      - -1.3404004691021145e+00
      - 2.5040508763286167e+00
      - -1.3446219897261804e+00
      - 2.5001281120053123e+00
      - -1.3475387599601645e+00
      - 2.4901519947920701e+00
      - -1.3472713893638864e+00
      - 2.4827098129858558e+00
      - -1.3443889608295287e+00
      - 2.4888023814976492e+00
      - -1.3456970096981504e+00
      - 2.4895292481038109e+00
      - -1.3449340924999718e+00
      - 2.4927971613868429e+00
      - -1.3440004963522583e+00
      - 2.5017824478348247e+00
      - -1.3426117112847669e+00
      - 2.5026358468869430e+00
      - -1.3385942049965642e+00
      - 2.5044300638941461e+00
      - -1.3360070517871636e+00
      - 2.5157816803463833e+00
      - -1.3395355155937121e+00
      - 2.5264588571102986e+00
      - -1.3410340423212674e+00
      - 2.5368946839376885e+00
      - -1.3413342595043740e+00
      - 2.5443337287167114e+00
      - -1.3358743293023261e+00
      - 2.5494543936226948e+00
      - -1.3289893141527676e+00
      - 2.5571551446549785e+00
      - -1.3220061573543309e+00
      - 2.5652859667751979e+00
      - -1.3176621458327924e+00
      - 2.5743439289456158e+00
      - -1.3169373566162514e+00
      - 2.5839729557992901e+00
      - -1.3166888785658357e+00
      - 2.5950313325638890e+00
      - -1.3144105828712760e+00
      - 2.6075242216598884e+00
      - -1.3171977102377905e+00
      - 2.5771628729496356e+00
      - -1.3236210606033803e+00
      - 2.5709270563130562e+00
      - -1.3284620871252819e+00
      - 2.5662620276897217e+00
      - -1.3304486751599669e+00
      - 2.5591442278899561e+00
      - -1.3306553664572143e+00
      - 2.5524018559022639e+00
      - -1.3316085195269789e+00
      - 2.5427794052827188e+00
      - -1.3356780016417620e+00
      - 2.5378469925606342e+00
      - -1.3409902132655396e+00
      - 2.5340588537373758e+00
      - -1.3435423270653524e+00
      - 2.5231787788040276e+00
      - -1.3391107381170686e+00
      - 2.5144183058126481e+00
      - -1.3395154120603052e+00
      - 2.5060284243049327e+00
      - -1.3401865278458849e+00
      - 2.5020155128361883e+00
      - -1.3441262365355822e+00
      - 2.4963270630738950e+00
      - -1.3456010039437600e+00
      - 2.4885937578920201e+00
      - -1.3439870286133315e+00
      - 2.4836485426496919e+00
      - -1.3436624336095875e+00
      - 2.4876073230586608e+00
      - -1.3454827549538284e+00
      - 2.4873962639389924e+00
      - -1.3431875437873939e+00
      - 2.4881123032074703e+00
      - -1.3424803313449085e+00
      - 2.4985822396224160e+00
      - -1.3430981867036662e+00
      - 2.5009643147127170e+00
      - -1.3389219114372932e+00
      - 2.5069263817711422e+00
      - -1.3367331492517038e+00
      - 2.5120511418138300e+00
      - -1.3393361840589877e+00
      - 2.5194693356859910e+00
      - -1.3392080288251176e+00
      - 2.5257004686366056e+00
      - -1.3369043259372355e+00
      - 2.5352665763121736e+00
      - -1.3340790354325427e+00
      - 2.5432924389807643e+00
      - -1.3268026371285384e+00
      - 2.5567794149016381e+00
      - -1.3211156444805137e+00
      - 2.5635500062633167e+00
      - -1.3164761548046453e+00
      - 2.5703460316690907e+00
      - -1.3153347462492710e+00
      - 2.5831354993985682e+00
      - -1.3169818420927670e+00
      - 2.5916498989920336e+00
      - -1.3167209390950421e+00
      - 2.6075205100059362e+00
      - -1.3185749539290448e+00
      - 2.5787821722107207e+00
      - -1.3258180606357941e+00
      - 2.5690506540814328e+00
      - -1.3281018837806051e+00
      - 2.5600553125332914e+00
      - -1.3298004143511941e+00
      - 2.5560657532310134e+00
      - -1.3314844696557737e+00
      - 2.5503366361835149e+00
      - -1.3320288983333219e+00
      - 2.5430636759157741e+00
      - -1.3330631429563429e+00
      - 2.5368957558376994e+00
      - -1.3388835268698478e+00
      - 2.5323431367465519e+00
      - -1.3418453064567095e+00
      - 2.5229627503611298e+00
      - -1.3383184983224283e+00
      - 2.5116851139690111e+00
      - -1.3381845977402842e+00
      - 2.5009911158336244e+00
      - -1.3363216140595089e+00
      - 2.4972415169532316e+00
      - -1.3394184363132584e+00
      - 2.4915252190509554e+00
      - -1.3412137787896077e+00
      - 2.4893274301330401e+00
      - -1.3430124684404738e+00
      - 2.4849101965965041e+00
      - -1.3430682419566000e+00
      - 2.4856684856041378e+00
      - -1.3442258174260366e+00
      - 2.4836878098389459e+00
      - -1.3426279072218201e+00
      - 2.4860052707427842e+00
      - -1.3422147845976478e+00
      - 2.4972818243289079e+00
      - -1.3448047387128634e+00
      - 2.4977456794926440e+00
      - -1.3410700097337445e+00
      - 2.5040883602264818e+00
      - -1.3393899537767342e+00
      - 2.5132753965094681e+00
      - -1.3414899382293879e+00
      - 2.5187599504785276e+00
      - -1.3395655826109063e+00
      - 2.5225445953915049e+00
      - -1.3345525983083333e+00
      - 2.5313796080663025e+00
      - -1.3341410010713346e+00
      - 2.5424578257969186e+00
      - -1.3301815451595851e+00
      - 2.5576846635618771e+00
      - -1.3248282664443205e+00
      - 2.5631272801025484e+00
      - -1.3191314818697859e+00
      - 2.5736424110588909e+00
      - -1.3173791289767212e+00
      - 2.5872874189376693e+00
      - -1.3206206681738299e+00
      - 2.5947646372261968e+00
      - -1.3210903188550815e+00
      - 2.6031252237357476e+00
      - -1.3188838083351047e+00
      - 2.5741408653799525e+00
      - -1.3283653244338711e+00
      - 2.5690988395686936e+00
      - -1.3309324217315477e+00
      - 2.5586260442952597e+00
      - -1.3295116590567544e+00
      - 2.5572135085608378e+00
      - -1.3321996055616598e+00
      - 2.5488641237304357e+00
      - -1.3330090601090505e+00
      - 2.5399684555809294e+00
      - -1.3333389004136837e+00
      - 2.5331383774453853e+00
      - -1.3371414822449830e+00
      - 2.5263353410402631e+00
      - -1.3397963187504656e+00
      - 2.5214580779389948e+00
      - -1.3372275553879645e+00
      - 2.5106104239996614e+00
      - -1.3377736822758015e+00
      - 2.5022419316646931e+00
      - -1.3357236342182122e+00
      - 2.4980483487576493e+00
      - -1.3360494743702978e+00
      - 2.4947839977849706e+00
      - -1.3398703720630516e+00
      - 2.4891334270549632e+00
      - -1.3404702966889632e+00
      - 2.4837114192241798e+00
      - -1.3412611780655341e+00
      - 2.4839262870210095e+00
      - -1.3434720406903360e+00
      - 2.4804828907763774e+00
      - -1.3418341462085275e+00
      - 2.4844152144961926e+00
      - -1.3443214033024158e+00
      - 2.4905957943256611e+00
      - -1.3461473764019209e+00
      - 2.4910165870311136e+00
      - -1.3427487803919584e+00
      - 2.4971064654905355e+00
      - -1.3411222327881758e+00
      - 2.5093104355742422e+00
      - -1.3399706006122440e+00
      - 2.5161644972790809e+00
      - -1.3375265250668171e+00
      - 2.5188753682708653e+00
      - -1.3300506303623363e+00
      - 2.5313076037800810e+00
      - -1.3316595331287739e+00
      - 2.5451533500519972e+00
      - -1.3310202475195971e+00
      - 2.5558097922490903e+00
      - -1.3267887471849349e+00
      - 2.5629851874420586e+00
      - -1.3207389142767982e+00
      - 2.5726519292448833e+00
      - -1.3166677189027882e+00
      - 2.5871391857890718e+00
      - -1.3214534310344226e+00
      - 2.5950375403332346e+00
      - -1.3228272474277727e+00
      - 2.6071006842945454e+00
      - -1.3216940599914837e+00
      - 2.5722024452840198e+00
      - -1.3257771439832837e+00
      - 2.5690402915156518e+00
      - -1.3311808872806130e+00
      - 2.5624306641696100e+00
      - -1.3326488371044134e+00
      - 2.5567855735508989e+00
      - -1.3334671493705057e+00
      - 2.5475349708983788e+00
      - -1.3356212163619505e+00
      - 2.5407203239236869e+00
      - -1.3356521887295800e+00
      - 2.5324992611215298e+00
      - -1.3359507167046809e+00
      - 2.5237726234210132e+00
      - -1.3367785705242727e+00
      - 2.5175034128022289e+00
      - -1.3354865415195314e+00
      - 2.5086125196083464e+00
      - -1.3359032300992379e+00
      - 2.5011100979787702e+00
      - -1.3339603343312840e+00
      - 2.4999015638604267e+00
      - -1.3355137196610340e+00
      - 2.4928784453392527e+00
      - -1.3371831877057068e+00
      - 2.4900468375317915e+00
      - -1.3404165074157219e+00
      - 2.4879777203181943e+00
      - -1.3428064755686180e+00
      - 2.4844641377949679e+00
      - -1.3434571658145513e+00
      - 2.4812500185796980e+00
      - -1.3406583940358012e+00
      - 2.4840813764355834e+00
      - -1.3438438212124233e+00
      - 2.4822433183360193e+00
      - -1.3412222189023761e+00
      - 2.4864393497561088e+00
      - -1.3394639301710747e+00
      - 2.4978998430365555e+00
      - -1.3414084226492122e+00
      - 2.5079211878890684e+00
      - -1.3386571171317039e+00
      - 2.5172695805504008e+00
      - -1.3379844371837295e+00
      - 2.5237802145129771e+00
      - -1.3320941197933636e+00
      - 2.5366874580434096e+00
      - -1.3321163203141766e+00
      - 2.5452405766699862e+00
      - -1.3290335997970111e+00
      - 2.5560584321906363e+00
      - -1.3243331936982450e+00
      - 2.5623991487088098e+00
      - -1.3203446506522210e+00
      - 2.5725977449929798e+00
      - -1.3175040350080613e+00
      - 2.5881277483150260e+00
      - -1.3212117290951870e+00
      - 2.5965561632950558e+00
      - -1.3208644935180680e+00
      - 2.6051235357372278e+00
      - -1.3173848874673086e+00
      - 2.5693161857334830e+00
      - -1.3207179282561492e+00
      - 2.5649827705987001e+00
      - -1.3255540349623902e+00
      - 2.5590245442719941e+00
      - -1.3290185756747956e+00
      - 2.5543579516923334e+00
      - -1.3319120202010089e+00
      - 2.5437985295014069e+00
      - -1.3345596344369592e+00
      - 2.5388833638597803e+00
      - -1.3342541347793011e+00
      - 2.5296414258370601e+00
      - -1.3313179269312012e+00
      - 2.5209910514646934e+00
      - -1.3326531195283322e+00
      - 2.5153874078141407e+00
      - -1.3340308928934770e+00
      - 2.5063952372743183e+00
      - -1.3328990136883669e+00
      - 2.5008563217864372e+00
      - -1.3332905543334248e+00
      - 2.4951023790831770e+00
      - -1.3350734834876508e+00
      - 2.4900848607275123e+00
      - -1.3371617490110279e+00
      - 2.4888481586834699e+00
      - -1.3375948967705547e+00
      - 2.4858761158458189e+00
      - -1.3373372409717836e+00
      - 2.4834275731840800e+00
      - -1.3381420823119397e+00
      - 2.4845234027764711e+00
      - -1.3411966707923457e+00
      - 2.4852230499914163e+00
      - -1.3449030723298283e+00
      - 2.4832853866444240e+00
      - -1.3412100782580565e+00
      - 2.4909378273890512e+00
      - -1.3398427881589190e+00
      - 2.5015456034258778e+00
      - -1.3404958827104669e+00
      - 2.5101340268743204e+00
      - -1.3377725167111845e+00
      - 2.5208810640590871e+00
      - -1.3392857349880707e+00
      - 2.5297127225927669e+00
      - -1.3358195198902536e+00
      - 2.5371087799308505e+00
      - -1.3325975520665594e+00
      - 2.5445549954342974e+00
      - -1.3274297206274326e+00
      - 2.5538770803013389e+00
      - -1.3220546930147017e+00
      - 2.5604169579384468e+00
      - -1.3178102186192864e+00
      - 2.5720225639184551e+00
      - -1.3194350579801188e+00
      - 2.5860177409675651e+00
      - -1.3219746188530670e+00
      - 2.5980650575488538e+00
      - -1.3197658203045215e+00
      - 2.6063875893432877e+00
      - -1.3159381526846221e+00
      - 2.5753099454170307e+00
      - -1.3196474621603462e+00
      - 2.5692202736866601e+00
      - -1.3232256597644403e+00
      - 2.5608937211705767e+00
      - -1.3279425002273768e+00
      - 2.5528485686226778e+00
      - -1.3322688468423090e+00
      - 2.5451541372186473e+00
      - -1.3341542799125872e+00
      - 2.5366170076288945e+00
      - -1.3331874624933677e+00
      - 2.5321268424390904e+00
      - -1.3341307352515324e+00
      - 2.5230190536027179e+00
      - -1.3339475980516835e+00
      - 2.5107465129840030e+00
      - -1.3305082362055218e+00
      - 2.5063513741455927e+00
      - -1.3336871271019928e+00
      - 2.5001996284836725e+00
      - -1.3333976924385180e+00
      - 2.4939261713581264e+00
      - -1.3327422335034194e+00
      - 2.4918866617006756e+00
      - -1.3360642880942593e+00
      - 2.4880530580275191e+00
      - -1.3356141049467094e+00
      - 2.4845233567379319e+00
      - -1.3338963899818237e+00
      - 2.4865088970290596e+00
      - -1.3364566169995427e+00
      - 2.4855718256847208e+00
      - -1.3388822095896078e+00
      - 2.4863655253662946e+00
      - -1.3400292803476759e+00
      - 2.4864183128420003e+00
      - -1.3409535970877522e+00
      - 2.4923872404797951e+00
      - -1.3402817596068328e+00
      - 2.5029389451871253e+00
      - -1.3386728423992695e+00
      - 2.5137938874239252e+00
      - -1.3365447734725897e+00
      - 2.5208308761022877e+00
      - -1.3366582175855115e+00
      - 2.5298136481529485e+00
      - -1.3358087363354156e+00
      - 2.5336250253912196e+00
      - -1.3294847272680363e+00
      - 2.5426644988057934e+00
      - -1.3251016478886048e+00
      - 2.5524921852883486e+00
      - -1.3213332471020283e+00
      - 2.5608050263797280e+00
      - -1.3169194898378234e+00
      - 2.5715635099669720e+00
      - -1.3175671476928523e+00
      - 2.5823655865297424e+00
      - -1.3176896735532522e+00
      - 2.5973094172975344e+00
      - -1.3158482460150653e+00
      - 2.6059970600582250e+00
      - -1.3158174648367462e+00
      - 2.5737928684569717e+00
      - -1.3157944927303897e+00
      - 2.5696274989729955e+00
      - -1.3208753041239534e+00
      - 2.5614024816017160e+00
      - -1.3260379865257674e+00
      - 2.5548930042904723e+00
      - -1.3330385643126199e+00
      - 2.5478030735870121e+00
      - -1.3355753665285564e+00
      - 2.5359362494289956e+00
      - -1.3336119784451965e+00
      - 2.5317359070746308e+00
      - -1.3344664451633277e+00
      - 2.5219902596731636e+00
      - -1.3312475062274998e+00
      - 2.5111197941747685e+00
      - -1.3293167703723745e+00
      - 2.5071681486010320e+00
      - -1.3314822413765524e+00
      - 2.5036260932374361e+00
      - -1.3342827172996228e+00
      - 2.4989403405843089e+00
      - -1.3318144153229228e+00
      - 2.4954444488970742e+00
      - -1.3332086923304818e+00
      - 2.4924396808198588e+00
      - -1.3370215365418443e+00
      - 2.4880543684525622e+00
      - -1.3347290319063188e+00
      - 2.4877345318347883e+00
      - -1.3335100009078944e+00
      - 2.4887512655815653e+00
      - -1.3359243690188689e+00
      - 2.4905739809006180e+00
      - -1.3356671561025881e+00
      - 2.4942800136295236e+00
      - -1.3407614253074345e+00
      - 2.4978155514128852e+00
      - -1.3394318663805855e+00
      - 2.5048239011183457e+00
      - -1.3358086870509553e+00
      - 2.5136656007256231e+00
      - -1.3358550949285626e+00
      - 2.5202125606194810e+00
      - -1.3350582395713397e+00
      - 2.5254658553513156e+00
      - -1.3327785124998179e+00
      - 2.5330133394658993e+00
      - -1.3278229669374098e+00
      - 2.5452881253631925e+00
      - -1.3247176669352447e+00
      - 2.5555588000420633e+00
      - -1.3218317692641210e+00
      - 2.5705538983893010e+00
      - -1.3218830933834802e+00
      - 2.5804277412166172e+00
      - -1.3201793282892869e+00
      - 2.5873357987490437e+00
      - -1.3166799142713286e+00
      - 2.5963396604084314e+00
      - -1.3147217858266982e+00
      - 2.6027667797274776e+00
      - -1.3160731272104620e+00
      - 2.5697209450383931e+00
      - -1.3139812137687805e+00
      - 2.5670868811633709e+00
      - -1.3186429498624461e+00
      - 2.5609530400153671e+00
      - -1.3220689802054142e+00
      - 2.5565152678298917e+00
      - -1.3287144397914934e+00
      - 2.5462855862605380e+00
      - -1.3325153719298215e+00
      - 2.5404377287248239e+00
      - -1.3348345407079616e+00
      - 2.5349073885161268e+00
      - -1.3338458470743955e+00
      - 2.5221394616595418e+00
      - -1.3301901461460537e+00
      - 2.5143724608626092e+00
      - -1.3286115328121104e+00
      - 2.5085704958911035e+00
      - -1.3305081889166281e+00
      - 2.5080937723234360e+00
      - -1.3344181245373135e+00
      - 2.5024409277065063e+00
      - -1.3305268528588334e+00
      - 2.4992904194735521e+00
      - -1.3322789926234675e+00
      - 2.4964648783770866e+00
      - -1.3339407145177529e+00
      - 2.4941168686405049e+00
      - -1.3328429212819690e+00
      - 2.4923934571665729e+00
      - -1.3334398116235644e+00
      - 2.4963753726309328e+00
      - -1.3368889726614077e+00
      - 2.4951755617013793e+00
      - -1.3341913068847910e+00
      - 2.5007228156034835e+00
      - -1.3372750654323353e+00
      - 2.5035553642395527e+00
      - -1.3372697775631388e+00
      - 2.5069802709007480e+00
      - -1.3350933176144977e+00
      - 2.5156260549325111e+00
      - -1.3369227767632668e+00
      - 2.5227183241570361e+00
      - -1.3340461843458902e+00
      - 2.5259208546763405e+00
      - -1.3290480152963586e+00
      - 2.5381197775047823e+00
      - -1.3276815219331199e+00
      - 2.5543903041701208e+00
      - -1.3268523211413605e+00
      - 2.5606006153378464e+00
      - -1.3233696084894901e+00
      - 2.5712954216140669e+00
      - -1.3206726975762531e+00
      - 2.5814403226383078e+00
      - -1.3180947401404137e+00
      - 2.5905333316771855e+00
      - -1.3168058704683889e+00
      - 2.5985718359474790e+00
      - -1.3160027576006581e+00
      - 2.6062185141288490e+00
      - -1.3154788248243638e+00
      - 2.5698498440698501e+00
      - -1.3130231675307882e+00
      - 2.5643574882840863e+00
      - -1.3171015169597859e+00
      - 2.5650343024214894e+00
      - -1.3243690612122048e+00
      - 2.5593002307766142e+00
      - -1.3286663771635419e+00
      - 2.5496007674217611e+00
      - -1.3308509631289089e+00
      - 2.5429883080624669e+00
      - -1.3319679863058984e+00
      - 2.5372690770358766e+00
      - -1.3304783686808410e+00
      - 2.5258427180749918e+00
      - -1.3278079490058092e+00
      - 2.5209259752877644e+00
      - -1.3270453118292629e+00
      - 2.5154642815159498e+00
      - -1.3308735622899797e+00
      - 2.5088831898903701e+00
      - -1.3321432292431381e+00
      - 2.5088223779036718e+00
      - -1.3318999294701031e+00
      - 2.5045407524111449e+00
      - -1.3307718394887718e+00
      - 2.4988566744797596e+00
      - -1.3295108834072373e+00
      - 2.4946039723580538e+00
      - -1.3291953937151391e+00
      - 2.4951447921691923e+00
      - -1.3330301986189612e+00
      - 2.4975217244252299e+00
      - -1.3346787819542760e+00
      - 2.5018398411069596e+00
      - -1.3334292847435341e+00
      - 2.5068113461685231e+00
      - -1.3327310574208695e+00
      - 2.5081255985117372e+00
      - -1.3320988195833694e+00
      - 2.5114033961425855e+00
      - -1.3333067359141848e+00
      - 2.5195402221214493e+00
      - -1.3354524802282000e+00
      - 2.5231829036935780e+00
      - -1.3305593300003076e+00
      - 2.5301752568479712e+00
      - -1.3267979323536487e+00
      - 2.5412898014797434e+00
      - -1.3259935659137390e+00
      - 2.5530333125665234e+00
      - -1.3239922871470415e+00
      - 2.5621203665465697e+00
      - -1.3244171249234757e+00
      - 2.5720156427140739e+00
      - -1.3206551869668930e+00
      - 2.5828353487217877e+00
      - -1.3170911737500337e+00
      - 2.5919883160527419e+00
      - -1.3156858891601477e+00
      - 2.6022814742072651e+00
      - -1.3162462117231328e+00
      - 2.6091669669526998e+00
      - -1.3162695372037230e+00
      - 2.5731808207080022e+00
      - -1.3094023807106883e+00
      - 2.5645142862605423e+00
      - -1.3150375260355660e+00
      - 2.5641447213322599e+00
      - -1.3226814013112258e+00
      - 2.5561026412086552e+00
      - -1.3255271428163526e+00
      - 2.5520021720832005e+00
      - -1.3299465329099218e+00
      - 2.5441710357700376e+00
      - -1.3276086296291068e+00
      - 2.5410885829504344e+00
      - -1.3276334874849041e+00
      - 2.5301146937083647e+00
      - -1.3260170114598313e+00
      - 2.5280742446022186e+00
      - -1.3265557882081001e+00
      - 2.5198551465089585e+00
      - -1.3286236769053705e+00
      - 2.5121559797232234e+00
      - -1.3290966265601405e+00
      - 2.5119322075819341e+00
      - -1.3305376544737830e+00
      - 2.5077324681946900e+00
      - -1.3295414375084948e+00
      - 2.5045616807808737e+00
      - -1.3299161608281731e+00
      - 2.5024465088267975e+00
      - -1.3326366878543223e+00
      - 2.4991550662317965e+00
      - -1.3325397242739399e+00
      - 2.5026985938331356e+00
      - -1.3334779293016497e+00
      - 2.5074548796766569e+00
      - -1.3327548951483035e+00
      - 2.5108896624204515e+00
      - -1.3295576632598456e+00
      - 2.5124523267894063e+00
      - -1.3297670358357447e+00
      - 2.5152200297517244e+00
      - -1.3303483708425565e+00
      - 2.5222027714979189e+00
      - -1.3320205930947535e+00
      - 2.5285692258483818e+00
      - -1.3289520761785880e+00
      - 2.5344183888611274e+00
      - -1.3258174001226917e+00
      - 2.5459678629236477e+00
      - -1.3264154161311408e+00
      - 2.5542138555469265e+00
      - -1.3214280100960225e+00
      - 2.5627142093574253e+00
      - -1.3209892161792263e+00
      - 2.5741590900350491e+00
      - -1.3221936540813919e+00
      - 2.5842626692577269e+00
      - -1.3185395315145301e+00
      - 2.5953403967013413e+00
      - -1.3156391050796508e+00
      - 2.6028778503589369e+00
      - -1.3129308485696829e+00
      - 2.6129927321692246e+00
      - -1.3135233130424162e+00
      - 2.5739714155173110e+00
      - -1.3075687445036284e+00
      - 2.5659892988484483e+00
      - -1.3132302165019973e+00
      - 2.5665735052141976e+00
      - -1.3209365732082490e+00
      - 2.5604779800057345e+00
      - -1.3240605115160846e+00
      - 2.5542075344835071e+00
      - -1.3277790209709888e+00
      - 2.5456110393175457e+00
      - -1.3251289831638040e+00
      - 2.5404162462226973e+00
      - -1.3226678081615042e+00
      - 2.5332491288972903e+00
      - -1.3238688378768912e+00
      - 2.5264210773188074e+00
      - -1.3244624784951924e+00
      - 2.5246225862584639e+00
      - -1.3276537795036534e+00
      - 2.5187602117724039e+00
      - -1.3295930311278068e+00
      - 2.5165700273215075e+00
      - -1.3305350717764783e+00
      - 2.5133423031130211e+00
      - -1.3303871663305489e+00
      - 2.5079731897980952e+00
      - -1.3300738125565421e+00
      - 2.5078637930471537e+00
      - -1.3332370829218383e+00
      - 2.5068135654696992e+00
      - -1.3322761969008718e+00
      - 2.5056149168615840e+00
      - -1.3276286897237521e+00
      - 2.5116796631184286e+00
      - -1.3282390053272772e+00
      - 2.5127327131751511e+00
      - -1.3243891970336934e+00
      - 2.5168010475361688e+00
      - -1.3259385815185267e+00
      - 2.5218503907923249e+00
      - -1.3284839094085774e+00
      - 2.5255701218040238e+00
      - -1.3287702355195803e+00
      - 2.5303060129712538e+00
      - -1.3268598543997672e+00
      - 2.5388941224848263e+00
      - -1.3240368217539222e+00
      - 2.5488424116386064e+00
      - -1.3231943679242271e+00
      - 2.5531682113042566e+00
      - -1.3202364935746038e+00
      - 2.5637169311065988e+00
      - -1.3189054179068460e+00
      - 2.5748603776544745e+00
      - -1.3196434131606802e+00
      - 2.5861367583166825e+00
      - -1.3176018913608183e+00
      - 2.5970094818391134e+00
      - -1.3157830655095886e+00
      - 2.6042365553785007e+00
      - -1.3098731242461774e+00
      - 2.6094399569785227e+00
      - -1.3068289573589071e+00
      - 2.5741893005827623e+00
      - -1.3074799309978264e+00
      - 2.5740353023861724e+00
      - -1.3129612606720777e+00
      - 2.5683260653939679e+00
      - -1.3160648151677794e+00
      - 2.5612662956357135e+00
      - -1.3182563897956561e+00
      - 2.5499278128584377e+00
      - -1.3212252686512416e+00
      - 2.5475210756318023e+00
      - -1.3259025465429406e+00
      - 2.5422885250022529e+00
      - -1.3206030488641622e+00
      - 2.5376412414606353e+00
      - -1.3213337715237952e+00
      - 2.5278597753918373e+00
      - -1.3214180805930811e+00
      - 2.5277674738187796e+00
      - -1.3259777454569066e+00
      - 2.5263032156580483e+00
      - -1.3293137650821218e+00
      - 2.5210584898545725e+00
      - -1.3283524038999379e+00
      - 2.5191887184129165e+00
      - -1.3285689187526892e+00
      - 2.5138812717434944e+00
      - -1.3303357628808672e+00
      - 2.5146192459908123e+00
      - -1.3329307331541389e+00
      - 2.5083065458863887e+00
      - -1.3267329966142134e+00
      - 2.5120392074723736e+00
      - -1.3231296436230713e+00
      - 2.5191708269681619e+00
      - -1.3246470428080497e+00
      - 2.5236705201205525e+00
      - -1.3233960868484329e+00
      - 2.5271107478255721e+00
      - -1.3236823697807898e+00
      - 2.5260709761925395e+00
      - -1.3226522057199552e+00
      - 2.5292941581398543e+00
      - -1.3255997313308747e+00
      - 2.5308178914053681e+00
      - -1.3235298784822109e+00
      - 2.5383761699527447e+00
      - -1.3190909722497746e+00
      - 2.5509831855790273e+00
      - -1.3183733812591660e+00
      - 2.5554857700515505e+00
      - -1.3191777993501252e+00
      - 2.5695900570745684e+00
      - -1.3205831153648033e+00
      - 2.5812088522128538e+00
      - -1.3186231335158385e+00
      - 2.5898008305804621e+00
      - -1.3177405941206393e+00
      - 2.5958891205170791e+00
      - -1.3134115512199018e+00
      - 2.6036587454815332e+00
      - -1.3085917329039360e+00
      - 2.6095016272228531e+00
      - -1.3065599374354953e+00
      - 2.5780277754814125e+00
      - -1.3047120291562799e+00
      - 2.5735299577358237e+00
      - -1.3074753317099010e+00
      - 2.5679047175587866e+00
      - -1.3097645539405283e+00
      - 2.5624325683535090e+00
      - -1.3131394833252987e+00
      - 2.5473612428434405e+00
      - -1.3134411308158189e+00
      - 2.5466069134070830e+00
      - -1.3198473461972260e+00
      - 2.5450058051222681e+00
      - -1.3197236834069921e+00
      - 2.5371024318335924e+00
      - -1.3181804382052809e+00
      - 2.5306274112672775e+00
      - -1.3203992364918404e+00
      - 2.5306400285807604e+00
      - -1.3256451410856260e+00
      - 2.5316476794134934e+00
      - -1.3285052048959336e+00
      - 2.5249454924773769e+00
      - -1.3276856715693639e+00
      - 2.5219214031563641e+00
      - -1.3263211838795002e+00
      - 2.5194289412654718e+00
      - -1.3277771333570256e+00
      - 2.5169184942023897e+00
      - -1.3274118229280873e+00
      - 2.5129450914175293e+00
      - -1.3229351114525199e+00
      - 2.5129521173966136e+00
      - -1.3203470014647642e+00
      - 2.5248861122986015e+00
      - -1.3236032593642559e+00
      - 2.5283924969619838e+00
      - -1.3210118032660050e+00
      - 2.5302850768274432e+00
      - -1.3198819170190026e+00
      - 2.5313488260302468e+00
      - -1.3187192521816420e+00
      - 2.5343907642949914e+00
      - -1.3208221122445847e+00
      - 2.5368602211094564e+00
      - -1.3196291730275582e+00
      - 2.5425172439628296e+00
      - -1.3163756374521172e+00
      - 2.5556331518186419e+00
      - -1.3165692391886590e+00
      - 2.5630279753505421e+00
      - -1.3180924513299570e+00
      - 2.5748731307433146e+00
      - -1.3197354548445326e+00
      - 2.5840007183623506e+00
      - -1.3166320062039116e+00
      - 2.5890065662750299e+00
      - -1.3159725321912425e+00
      - 2.5944234991646073e+00
      - -1.3099352263813406e+00
      - 2.6045434802578038e+00
      - -1.3072846307666133e+00
      - 2.6116876212500983e+00
      - -1.3045630377824253e+00
      - 2.5820702377964446e+00
      - -1.3014320217707442e+00
      - 2.5751348165462260e+00
      - -1.3028389072984279e+00
      - 2.5716780350295521e+00
      - -1.3055307874456898e+00
      - 2.5658780826447654e+00
      - -1.3075762990493216e+00
      - 2.5596693618540760e+00
      - -1.3117530591772932e+00
      - 2.5528935651783615e+00
      - -1.3173344094820536e+00
      - 2.5483459834639919e+00
      - -1.3185413910799908e+00
      - 2.5393986246838542e+00
      - -1.3165229716642903e+00
      - 2.5336142850721610e+00
      - -1.3171321831313478e+00
      - 2.5319718441001702e+00
      - -1.3228097947306818e+00
      - 2.5344062827987215e+00
      - -1.3272766399567093e+00
      - 2.5270862977248587e+00
      - -1.3275724056901721e+00
      - 2.5229825419251162e+00
      - -1.3235526204241290e+00
      - 2.5218289301577985e+00
      - -1.3228760453863586e+00
      - 2.5235461009201576e+00
      - -1.3235779072583016e+00
      - 2.5218646142473911e+00
      - -1.3196669138396417e+00
      - 2.5220140797297339e+00
      - -1.3185768426637934e+00
      - 2.5262593797524646e+00
      - -1.3207807676856858e+00
      - 2.5304707369035113e+00
      - -1.3186915999581503e+00
      - 2.5342009332025541e+00
      - -1.3180798225804853e+00
      - 2.5346674797429594e+00
      - -1.3160982106473804e+00
      - 2.5410240836567906e+00
      - -1.3176808244979616e+00
      - 2.5432299995465963e+00
      - -1.3172344865524119e+00
      - 2.5492469402510189e+00
      - -1.3154810008872302e+00
      - 2.5564125799497646e+00
      - -1.3161350621420176e+00
      - 2.5654962411808171e+00
      - -1.3175210309158398e+00
      - 2.5722748615066302e+00
      - -1.3154652294949636e+00
      - 2.5829411816548018e+00
      - -1.3139445458217462e+00
      - 2.5870370424617581e+00
      - -1.3105646847398864e+00
      - 2.5954048863720995e+00
      - -1.3070273070552032e+00
      - 2.6037095208625871e+00
      - -1.3037652658580290e+00
      - 2.6159753322329156e+00
      - -1.3028157070084987e+00
      - 2.5806662227690436e+00
      - -1.2972350363701288e+00
      - 2.5841095974660480e+00
      - -1.3025978404657783e+00
      - 2.5745430030499823e+00
      - -1.3040601458480396e+00
      - 2.5695347641677118e+00
      - -1.3068265297369908e+00
      - 2.5643027137967187e+00
      - -1.3081674873467906e+00
      - 2.5580198864903712e+00
      - -1.3150280077088268e+00
      - 2.5540527849447066e+00
      - -1.3178741616578413e+00
      - 2.5479133758585335e+00
      - -1.3159100049717594e+00
      - 2.5420935406037271e+00
      - -1.3157728061001865e+00
      - 2.5369914604246686e+00
      - -1.3194722135099863e+00
      - 2.5379341685413599e+00
      - -1.3230793996256895e+00
      - 2.5309321903366553e+00
      - -1.3232839812700645e+00
      - 2.5325580398276433e+00
      - -1.3250162889366999e+00
      - 2.5303167747711917e+00
      - -1.3246037824514263e+00
      - 2.5298320786667587e+00
      - -1.3238481857569360e+00
      - 2.5300077868817779e+00
      - -1.3186129623650602e+00
      - 2.5278393036494888e+00
      - -1.3149501229433624e+00
      - 2.5287574823173582e+00
      - -1.3160774972637956e+00
      - 2.5333577368659737e+00
      - -1.3163253847090575e+00
      - 2.5362165672775010e+00
      - -1.3161392350283676e+00
      - 2.5414114751289052e+00
      - -1.3160950062956136e+00
      - 2.5483786418294385e+00
      - -1.3184505592321194e+00
      - 2.5509655320925733e+00
      - -1.3164766142537372e+00
      - 2.5573939663081142e+00
      - -1.3155899700972236e+00
      - 2.5611336440201531e+00
      - -1.3158004676611172e+00
      - 2.5671397408997119e+00
      - -1.3134578344461634e+00
      - 2.5751087612251196e+00
      - -1.3092897422078678e+00
      - 2.5842198885108139e+00
      - -1.3097274153311240e+00
      - 2.5917335785877964e+00
      - -1.3074596955699203e+00
      - 2.5996796624872411e+00
      - -1.3063269235540935e+00
      - 2.6084395960104207e+00
      - -1.3036083124546545e+00
      - 2.6184910214496941e+00
      - -1.3030427020988031e+00
      - 2.5841969386912589e+00
      - -1.2952938686484743e+00
      - 2.5825974541098140e+00
      - -1.3003374232347769e+00
      - 2.5774047935107687e+00
      - -1.3043072820199493e+00
      - 2.5775311203512463e+00
      - -1.3074482676279280e+00
      - 2.5712248078153364e+00
      - -1.3076554542200556e+00
      - 2.5579327825034897e+00
      - -1.3109349896660265e+00
      - 2.5598867580782447e+00
      - -1.3160924750123357e+00
      - 2.5532435249321437e+00
      - -1.3154330821032145e+00
      - 2.5483651019992628e+00
      - -1.3160069707690742e+00
      - 2.5457290944655826e+00
      - -1.3171348304892307e+00
      - 2.5390692895154205e+00
      - -1.3163408197568669e+00
      - 2.5355194442577580e+00
      - -1.3203249929125807e+00
      - 2.5359336813831006e+00
      - -1.3234235327447070e+00
      - 2.5328683319948908e+00
      - -1.3216691287881677e+00
      - 2.5362382995048214e+00
      - -1.3209354025949473e+00
      - 2.5341350088989540e+00
      - -1.3140649187302595e+00
      - 2.5354629777468625e+00
      - -1.3108981598490899e+00
      - 2.5389311624098947e+00
      - -1.3126866348877682e+00
      - 2.5369371580852373e+00
      - -1.3121772669698797e+00
      - 2.5398283910544963e+00
      - -1.3130661652196927e+00
      - 2.5475806942552301e+00
      - -1.3160557874203516e+00
      - 2.5551623757375306e+00
      - -1.3178050921567259e+00
      - 2.5607567385910248e+00
      - -1.3156013249856187e+00
      - 2.5677620542341040e+00
      - -1.3168178969512034e+00
      - 2.5685262412339918e+00
      - -1.3146774865575201e+00
      - 2.5736052123097672e+00
      - -1.3122191987492897e+00
      - 2.5811256358282302e+00
      - -1.3096878997534425e+00
      - 2.5840203492379690e+00
      - -1.3074884378610210e+00
      - 2.5937115349266375e+00
      - -1.3051870911612826e+00
      - 2.6031781896985011e+00
      - -1.3022284376693023e+00
      - 2.6122058661894059e+00
      - -1.3012873721143798e+00
      - 2.6192570266767139e+00
      - -1.3025652050479364e+00
      - 2.5876508692489524e+00
      - -1.2952552079946325e+00
      - 2.5816781312663304e+00
      - -1.2985260578838169e+00
      - 2.5791332197997616e+00
      - -1.3031365230376264e+00
      - 2.5811287911068144e+00
      - -1.3056853685201368e+00
      - 2.5753675123514026e+00
      - -1.3086279423990468e+00
      - 2.5625606871804307e+00
      - -1.3128464386780407e+00
      - 2.5587910240790488e+00
      - -1.3137070711276633e+00
      - 2.5540396036885014e+00
      - -1.3147056558269719e+00
      - 2.5526540240044606e+00
      - -1.3162926802641759e+00
      - 2.5533124664904761e+00
      - -1.3144677217512168e+00
      - 2.5456646479652218e+00
      - -1.3136549424931763e+00
      - 2.5396127528438783e+00
      - -1.3178084874055938e+00
      - 2.5380058666757490e+00
      - -1.3201229290861467e+00
      - 2.5393772222084432e+00
      - -1.3192106233186509e+00
      - 2.5384958441420329e+00
      - -1.3151927434031627e+00
      - 2.5380873147611802e+00
      - -1.3113300012531779e+00
      - 2.5443207757178778e+00
      - -1.3108490398213017e+00
      - 2.5422747463576734e+00
      - -1.3096465798829968e+00
      - 2.5424159600797740e+00
      - -1.3107398735651365e+00
      - 2.5456553926985981e+00
      - -1.3116571194827473e+00
      - 2.5512337141658872e+00
      - -1.3152542863366516e+00
      - 2.5583624434553336e+00
      - -1.3167109887964126e+00
      - 2.5669818315169883e+00
      - -1.3159158849531991e+00
      - 2.5720058845975706e+00
      - -1.3137426254875835e+00
      - 2.5720733352915137e+00
      - -1.3090003176618703e+00
      - 2.5775333427963343e+00
      - -1.3102294887549686e+00
      - 2.5832613418699584e+00
      - -1.3068510740564079e+00
      - 2.5889318898237432e+00
      - -1.3034413478808031e+00
      - 2.5924431216283161e+00
      - -1.2982603485775230e+00
      - 2.6069709190742532e+00
      - -1.2962054631682287e+00
      - 2.6176452105182424e+00
      - -1.2954544824162753e+00
      - 2.6227375716469927e+00
      - -1.2976601956510885e+00
      - 2.5907910834588654e+00
      - -1.2952357905549328e+00
      - 2.5842434112087806e+00
      - -1.2976423329462858e+00
      - 2.5798291110435119e+00
      - -1.3019174468341994e+00
      - 2.5807838069144000e+00
      - -1.3031438032627576e+00
      - 2.5749831020059695e+00
      - -1.3059343816165230e+00
      - 2.5635092935512751e+00
      - -1.3110811205932316e+00
      - 2.5596808648692755e+00
      - -1.3129708576306740e+00
      - 2.5568086608325826e+00
      - -1.3135359982258616e+00
      - 2.5578948125289136e+00
      - -1.3165527923459173e+00
      - 2.5592220148316378e+00
      - -1.3139957568293468e+00
      - 2.5524070203885434e+00
      - -1.3144836616360647e+00
      - 2.5444792231057738e+00
      - -1.3145467837898155e+00
      - 2.5455898526068448e+00
      - -1.3161517271953826e+00
      - 2.5486575109780287e+00
      - -1.3171571207940678e+00
      - 2.5438233579799663e+00
      - -1.3119789528558639e+00
      - 2.5439369765874003e+00
      - -1.3093054511071669e+00
      - 2.5499367973087805e+00
      - -1.3113651450612003e+00
      - 2.5482030880153212e+00
      - -1.3099579691708567e+00
      - 2.5512259756013309e+00
      - -1.3100781198456373e+00
      - 2.5572354702284223e+00
      - -1.3128945595276411e+00
      - 2.5574978201873853e+00
      - -1.3139442781668127e+00
      - 2.5608756368134822e+00
      - -1.3130134320179132e+00
      - 2.5691194205743595e+00
      - -1.3129098447875898e+00
      - 2.5762683691193189e+00
      - -1.3099331545938884e+00
      - 2.5794290447234385e+00
      - -1.3055635903668255e+00
      - 2.5833121062013467e+00
      - -1.3072811210410256e+00
      - 2.5872688133659327e+00
      - -1.3044047085553485e+00
      - 2.5939634345771787e+00
      - -1.2995041552204598e+00
      - 2.5971427844828865e+00
      - -1.2920291066464715e+00
      - 2.6107256185268732e+00
      - -1.2906289056707987e+00
      - 2.6208726326818512e+00
      - -1.2892824321880165e+00
      - 2.6269044221631925e+00
      - -1.2911780950577139e+00
   output_scale:
      - 5.2631578947368418e-01
      - 4.9999999999999994e-01
      - 5.2631578947368418e-01
      - 4.9999999999999994e-01
   inv_output_scale:
      - 1.8999999999999999e+00
      - -9.4999999999999996e-01
      - 1.8999999999999999e+00
      - -9.4999999999999996e-01
   weights:
      -
         - 2.0517674605230785e-02
         - -9.5655948120568143e-03
         - 2.0303494327832488e-03
         - -1.8225244669001574e-02
         - -1.8494295585489502e-02
         - 1.4657880489420561e-02
         - -8.8752597823819196e-03
         - -1.7389542983078540e-02
         - -1.0447942696276696e-02
         - -3.6673687079492746e-03
         - 2.0840598091486029e-02
         - -2.3443413905974896e-02
         - -4.6633502447849841e-03
         - -1.3139342702927406e-03
         - 3.5993736395529641e-04
         - 1.3877350302298686e-02
         - -1.1833729389881407e-03
         - 9.5632893786429252e-03
         - -1.2593694282108124e-02
         - 1.8840926639291537e-02
         - -1.4065909748801005e-02
         - -3.8519873463750409e-03
         - 7.6209541444739442e-03
         - 7.4521337264960470e-03
         - -1.6906591294411081e-02
         - 1.4488736271231780e-02
         - -2.5411676298358585e-02
         - 2.4415524215917871e-02
         - -1.5217391454613977e-02
         - 4.3460613691088390e-03
         - -1.7021449054802299e-02
         - -1.4285876159243207e-02
         - -1.4209385730053568e-02
         - -2.4309003894942068e-02
         - -1.9998801369398134e-02
         - -1.7764815182865972e-02
         - -2.7883574654338637e-03
         - 1.0463398149028023e-02
         - -1.6824036273955963e-02
         - -1.4093321724897184e-03
         - -2.0818879966900593e-02
         - 1.5279877046224655e-02
         - 2.0606142588320119e-03
         - -1.0335396119239863e-03
         - -4.2037662169934495e-03
         - -2.3510254116735758e-02
         - 1.3161231683748163e-02
         - 1.8508387404048757e-02
         - 1.6408175809716839e-02
         - 3.2260455426043303e-03
         - 1.2234505077393263e-02
         - -2.1393860297420140e-03
         - -9.9329688332739328e-04
         - -9.9294798938975581e-03
         - -9.2431148320968933e-03
         - 7.4590741744638492e-03
         - -1.2515587442226193e-02
         - -1.9804969367941978e-02
         - -1.6289028794311928e-03
         - 3.4163696607426301e-03
         - 1.0328731557753957e-02
         - -1.0596421894547061e-02
         - 5.6235660675651728e-04
         - -2.7130561583413692e-03
         - 2.4266773013678412e-03
         - 5.3415611448769384e-03
         - 4.5557955406006265e-04
         - 4.1393477712152495e-03
         - -1.6212291417506276e-02
         - 1.0616670644016210e-02
         - -7.7355846005662775e-03
         - -8.6644646026888244e-03
         - 6.3575128045931066e-03
         - 5.3199024465726023e-03
         - -1.0302564957234231e-02
         - 5.9558890958593550e-03
         - -1.4064609994986670e-02
         - 1.2937083122974685e-02
         - -1.0226350672566185e-02
         - -4.8419637794774614e-05
         - -1.1820559869520896e-02
         - -6.3006056924411018e-03
         - -1.8325468344227370e-02
         - -1.4513186535857665e-02
         - -1.2376222512008431e-02
         - -1.7818769966439760e-02
         - 5.4411207870690148e-03
         - 1.5119831214920368e-02
         - -1.7172458157651057e-02
         - -1.6345637042061852e-03
         - -2.0686779662767413e-02
         - 1.0408256988601918e-02
         - 2.3996642116291276e-03
         - 1.1905783129800339e-03
         - 2.1388741789827199e-03
         - -1.0364720534107297e-02
         - 5.0308523033588464e-03
         - 1.9710868404529219e-02
         - 1.2862147539765721e-02
         - 5.1663904317867061e-03
         - 1.1150916685747218e-02
         - -1.8427672889735945e-03
         - 7.4285034329006595e-04
         - -1.0304648080461231e-02
         - -8.7534178090901953e-03
         - 1.0203653692513149e-02
         - -1.0506567540373470e-02
         - -1.8962719992433371e-02
         - -6.1624779403221105e-03
         - 4.4571188978661750e-03
         - 1.1471908192541779e-02
         - -1.3722405102704057e-02
         - 2.5419820122962985e-03
         - -3.5892573230763951e-04
         - 1.5694467700426264e-03
         - 8.0741914573522599e-03
         - 8.3316983177978625e-04
         - 4.2431661460701512e-03
         - -1.5657868364635841e-02
         - 1.1440551243264919e-02
         - -7.8911058190255824e-03
         - -6.4576129581516324e-03
         - 5.7127530530395546e-03
         - 5.6711970588761264e-03
         - -9.4866470919502694e-03
         - 8.9390488556159806e-03
         - -1.1935550871721452e-02
         - 1.2055764528974321e-02
         - -8.8762109307026563e-03
         - 8.2137377147585501e-04
         - -1.2157358945611827e-02
         - -6.8515893733421800e-03
         - -1.6948925096559049e-02
         - -1.2462534006091564e-02
         - -1.2901594821621686e-02
         - -1.8242438464279490e-02
         - 4.5029835082010033e-03
         - 1.2102708381892613e-02
         - -1.6686452493042216e-02
         - 1.0871601643156271e-03
         - -1.8944501323345790e-02
         - 9.5140007240632520e-03
         - 1.5175424565738818e-03
         - -2.2185873117451910e-03
         - 2.6316195354127003e-03
         - -1.0601190306846133e-02
         - 8.7467207102970047e-03
         - 1.7538891916701205e-02
         - 9.9171197469648791e-03
         - 7.2277336431910673e-03
         - 6.1947434924459269e-03
         - 5.6867733675061245e-05
         - -6.9071546567898751e-04
         - -8.6961600437584080e-03
         - -8.0965147506190261e-03
         - 6.4846053267274802e-03
         - -1.0953460018337439e-02
         - -1.9813442846049186e-02
         - -2.6712167686084617e-03
         - 4.2162393179644118e-03
         - 7.7256818546190282e-03
         - -7.8011017566920957e-03
         - 3.6228186184045336e-03
         - -1.9800243076353685e-03
         - 6.4596785241253423e-04
         - 5.1443621617571263e-03
         - -2.1901407589770840e-03
         - 2.9120194549769832e-03
         - -1.3584941235756808e-02
         - 8.3984799116726058e-03
         - -4.0897283882612460e-03
         - -7.2559242527252743e-03
         - 4.3613678631202954e-03
         - 3.1805641965849730e-03
         - -7.8744992867064174e-03
         - 6.4911242644353686e-03
         - -8.6592382794139083e-03
         - 1.0084228792694435e-02
         - -4.1532617063187024e-03
         - 4.3030646298531055e-04
         - -1.0239021505826007e-02
         - -6.3578896453974874e-03
         - -1.2831352534480079e-02
         - -6.8537712368417665e-03
         - -7.1668607223096051e-03
         - -1.5932339273073907e-02
         - 6.3905517398858787e-03
         - 1.2018496626095977e-02
         - -1.8573218464593397e-02
         - -1.5372282433203776e-04
         - -1.7565153876376381e-02
         - 9.0131229385292076e-03
         - 1.2730587935101834e-03
         - 3.8520547863005346e-04
         - 5.4058967901971910e-03
         - -7.2874611103195376e-03
         - 2.8747344466261275e-03
         - 1.8321117515401976e-02
         - 1.1164963622892789e-02
         - 6.1292365748958268e-03
         - 7.5777281779562779e-03
         - -6.8138661118413463e-04
         - -9.0647407071788998e-04
         - -8.9451268961561661e-03
         - -8.7338280196070355e-03
         - 5.4464634066741686e-03
         - -9.4851870620631922e-03
         - -1.1469139303361953e-02
         - 1.0688712751881201e-04
         - 6.1182472030115445e-03
         - 9.6125797443839932e-03
         - -8.1318517989481705e-03
         - 5.2984413755818712e-03
         - -1.0899931216748211e-03
         - 6.8947365572144569e-04
         - 2.7087511137564570e-04
         - 1.3759185788053332e-03
         - 1.6903596997029280e-03
         - -7.8348343599788650e-03
         - 9.2490893440524639e-03
         - -6.7521761615322090e-03
         - -6.7599273771827553e-03
         - 4.3419857351643387e-03
         - 6.8008906044570220e-04
         - -8.4559471328046892e-03
         - 4.1261140924518970e-03
         - -1.0353890023654704e-02
         - 9.7252562662858144e-03
         - -6.1375594460033643e-03
         - 4.9666621561406392e-04
         - -6.7744495299755566e-03
         - -3.7634677347540518e-03
         - -8.4318715715282749e-03
         - -8.8631276171472571e-03
         - -7.0723981048785170e-03
         - -9.8541704327492433e-03
         - 3.9388520983469691e-03
         - 7.9750289856656588e-03
         - -1.2250765143235715e-02
         - 6.7069966611037559e-04
         - -1.1022075127853444e-02
         - 3.9321200344157575e-03
         - 7.1235284842445870e-04
         - -1.4937901175927665e-03
         - 1.9369927293417235e-03
         - -1.1040506033611355e-02
         - 3.1651555644601689e-03
         - 1.0787031360709671e-02
         - 9.9496692809533938e-03
         - 4.5678334169845817e-03
         - 3.7238296397148728e-03
         - 1.2796270457722833e-03
         - -2.2260706049586983e-03
         - -6.2887940576556315e-03
         - -2.7925061173404296e-03
         - 3.1935648924269742e-03
         - -9.7149621082312926e-03
         - -1.1417720249499464e-02
         - 2.8990771868417356e-03
         - 8.2156307093026425e-03
         - 6.8964218930309728e-03
         - -3.6361125824933330e-03
         - 5.2851875214963021e-03
         - -1.7678317177157216e-03
         - 4.1219024759139313e-04
         - -2.6120696956682655e-03
         - -8.7792689434458592e-04
         - -1.1647702805804769e-03
         - -9.1176897433557363e-03
         - 3.9007060871212337e-03
         - -2.9322453093383132e-03
         - -7.3907650515599105e-03
         - 3.5988494413633242e-03
         - 3.3862792125106196e-03
         - -5.5950960708167465e-03
         - 4.1515412169873308e-03
         - -5.9753353067970461e-03
         - 3.3252013527625733e-03
         - -2.0366566888023437e-03
         - 2.6711832350818157e-03
         - -5.7842812389788745e-03
         - -4.7429565177208215e-03
         - -1.1220822370349581e-02
         - -4.6466079307644530e-03
         - -6.1117679419737643e-03
         - -8.2117005806157783e-03
         - 6.3699009553206216e-03
         - 1.0001628226009831e-02
         - -1.1344842096835533e-02
         - 1.6442510949253154e-03
         - -9.8355767680369209e-03
         - 3.9771553504929840e-03
         - 3.9567251211791873e-04
         - -7.6664468798641586e-05
         - 5.0301095062981263e-03
         - -6.3329237318974271e-03
         - -3.8993923257159182e-04
         - 9.2085357514996632e-03
         - 6.2974935053009507e-03
         - 9.0778487645627650e-03
         - 9.6975555148274360e-03
         - 2.6484347486934448e-03
         - -1.2868248063560874e-03
         - -5.9417447685456148e-03
         - -5.9720390205575185e-03
         - 6.9348801909985660e-03
         - -6.9010487400154056e-03
         - -8.4343124465163580e-03
         - 2.8855392443717597e-03
         - 3.7426119994074165e-03
         - 8.6629524166516557e-03
         - -7.2534674800914132e-03
         - 3.3276454989655127e-03
         - -4.8519729820744312e-05
         - 2.7965030014417302e-04
         - 1.3813681674654571e-03
         - -1.6868910471336818e-03
         - -6.9203115842474247e-04
         - -6.1884125144001387e-03
         - 8.6228476301969635e-03
         - -6.4557272953223773e-03
         - -5.6308262071272106e-03
         - 3.0873718243778110e-03
         - 9.0022487510264967e-04
         - -6.1645810898429782e-03
         - 3.7291905634715991e-03
         - -1.0122638769419467e-02
         - 8.8203800096533051e-03
         - -6.7620862740791331e-03
         - 1.1059083556561658e-03
         - -5.8455146216773559e-03
         - -3.1847742467246728e-03
         - -9.4203879096434184e-03
         - -7.1039408240540936e-03
         - -7.7366729648616879e-03
         - -5.5126542391780381e-03
         - 6.6013715633524272e-03
         - 8.8392167307211542e-03
         - -7.4312105552498935e-03
         - -5.9941703314097953e-04
         - -8.4562145144463381e-03
         - 1.8727327577446403e-03
         - -1.0856825324332084e-04
         - -1.3872826694036175e-03
         - 5.4435028005909696e-03
         - -8.2042982096962713e-03
         - -5.2161588660300966e-04
         - 8.9546577169078451e-03
         - 6.3385952010842879e-03
         - 5.3601885164999714e-03
         - 6.4817682412922160e-03
         - 1.3593005168950425e-03
         - -3.8848825735582571e-04
         - -7.0209446415593771e-03
         - -5.3873420491262307e-03
         - 4.9658522685255913e-03
         - -9.0687591647088117e-03
         - -6.3626087501189293e-03
         - 1.4030308166430863e-03
         - 4.3810847499238942e-03
         - 6.4212920628558719e-03
         - -5.8728261123339957e-03
         - 3.0045692741118256e-03
         - -8.0844806397801930e-04
         - -2.3574134515219826e-03
         - -1.2989203602697778e-03
         - -3.2895952952653512e-04
         - -7.4630739563578540e-04
         - -9.2928149664823281e-03
         - 5.0421436556807179e-03
         - -5.3553942413694508e-03
         - -8.6635450164015328e-03
         - 3.4424120287804573e-03
         - 1.9301567648201286e-03
         - -6.8958831184708237e-03
         - 2.6147885023497172e-03
         - -9.1744701865081428e-03
         - 5.5753277357649235e-03
         - -5.4020348586929284e-03
         - -1.5190381051813281e-04
         - -8.1037938433261535e-03
         - -2.7086877768884368e-03
         - -1.2541092354437634e-02
         - -8.1071114920138465e-03
         - -5.8547662474713966e-03
         - -8.4007452803491322e-03
         - 7.1747078098427621e-03
         - 8.7794159491737470e-03
         - -7.5164982113779776e-03
         - 3.7849144414296606e-04
         - -9.1803079600768240e-03
         - 9.7347823953729403e-04
         - 3.1516368955842125e-03
         - -2.9288086525252094e-03
         - 3.0716669801750243e-03
         - -6.6672632458310782e-03
         - -4.7368025078686483e-04
         - 7.2916431620695388e-03
         - 6.4245191370086874e-03
         - 8.8669938150692344e-03
         - 1.2981323110735981e-02
         - -2.8346661787359861e-03
         - 1.1515981504551965e-03
         - -1.3609570041962601e-02
         - -1.1332527723593118e-02
         - 8.1734640983356730e-03
         - -2.9433921507961329e-03
         - -3.7228886188092293e-03
         - -2.4233405924096152e-03
         - -5.0304781426564455e-06
         - 1.1831798170256093e-02
         - -1.4417347771905639e-02
         - -9.9217636329703091e-04
         - -1.4350590675638662e-05
         - -1.8464711779469392e-03
         - 2.1655277438341687e-03
         - -3.0666916444609988e-03
         - 5.3470143757742422e-03
         - -5.9000331415311243e-03
         - 1.1746049134255939e-02
         - -8.1517862570009304e-03
         - -1.2044118206668288e-03
         - 5.6963592254150189e-03
         - 2.9014651231409703e-03
         - -7.7198564775680717e-03
         - 5.0874482026892981e-03
         - -1.4572450722289815e-02
         - 1.6247132412101437e-02
         - -1.1480630136280805e-02
         - 1.3505325301346601e-03
         - -1.0059973183703769e-02
         - -3.7377908053546809e-03
         - -7.3696741489870099e-03
         - -1.6074105039950867e-02
         - -1.2898721004030968e-02
         - -7.6400564868037545e-03
         - 1.3006959702489354e-03
         - 5.5619354372207514e-03
         - -4.8938594235901885e-03
         - -8.0014296749823203e-04
         - -5.4701060916159880e-03
         - 6.8247003368344314e-03
         - 2.3539444151781217e-03
         - 3.0990040604847463e-04
         - -2.5894253245577664e-04
         - -1.5135116137464703e-02
         - 6.1610234296917039e-03
         - 7.2369692933133053e-03
         - 1.2351107605764586e-02
         - 3.8981830746162298e-03
         - 6.7413835043172591e-03
         - 3.2851862311846025e-03
         - 4.7576135654812436e-04
         - -5.7312837430771434e-03
         - -4.2424134236941488e-03
         - 4.7767680603302129e-03
         - -5.7336802259740204e-03
         - -9.3853628658841660e-03
         - 1.2263610294713167e-03
         - 7.0954955772600603e-03
         - 6.8447700933727080e-03
         - -4.9854652893545183e-03
         - 5.1951451261258788e-03
         - 1.0270459444018526e-03
         - -9.1392470803682002e-04
         - -1.9532180591920732e-03
         - -1.9348977131475114e-03
         - 1.1610755932433428e-03
         - -1.0352921427392837e-02
         - 4.4819636547787948e-03
         - -2.0915235496315513e-03
         - -6.5076320813937018e-03
         - 4.7419669312363853e-04
         - -1.7277447277214771e-03
         - -3.8781765811478405e-03
         - 1.4599656950837750e-03
         - -5.5195424810179127e-03
         - 3.5457882704613753e-03
         - -6.0077898720422695e-03
         - -1.2981316994324975e-03
         - -4.4476806094136236e-03
         - -1.1349007509314564e-03
         - -9.0329542069940236e-03
         - -5.9816161674242216e-03
         - -5.9693017360727052e-03
         - -1.1373613301690262e-02
         - 4.4979740630348309e-03
         - 7.3781877140059876e-03
         - -1.2745860475299813e-02
         - -5.9593491697933936e-04
         - -1.0921339454153160e-02
         - 1.4437239487683387e-03
         - 6.5842560545982260e-04
         - 4.0007523160530948e-04
         - 4.9100276578040334e-03
         - -7.3301440663968319e-03
         - 2.2345905170707819e-03
         - 1.0080993894382002e-02
         - 4.5065184041433500e-03
         - 8.8104279271658346e-03
         - 4.1487201174751403e-04
         - 4.3879979689587217e-03
         - 2.2154553622629808e-03
         - 2.5962842244487154e-04
         - -4.6011429437623695e-04
         - 1.4653044832997381e-03
         - -1.0956279360379127e-02
         - -1.4414985603082875e-02
         - 5.5128987110756042e-03
         - 7.6572175966554516e-03
         - 3.3192790529089242e-04
         - 6.1185004259561979e-04
         - 7.9842442967684620e-03
         - -3.9301675979708424e-04
         - -4.6484712952634836e-04
         - -4.0623672189671707e-03
         - 1.3066851893024796e-03
         - -4.0006703855334329e-03
         - -1.4590190877209709e-02
         - -3.0822367308154255e-03
         - 7.0033218173889164e-04
         - -9.1562364789265077e-03
         - 2.6962309345828924e-03
         - -2.0493858143022280e-03
         - -2.1360626932099957e-03
         - -2.1885439908506292e-03
         - 2.4497357577306306e-03
         - -4.9480681633042537e-03
         - -2.3643493692699594e-04
         - 1.5656224008783397e-03
         - -1.6667844265189804e-03
         - 4.1478880999831964e-05
         - -1.2673917263848908e-02
         - 2.8611813748932588e-03
         - 1.3968121048522383e-03
         - -1.4095002164685649e-02
         - 8.4074276124990587e-03
         - 1.2463329682178875e-02
         - -1.9237419067449007e-02
         - -1.3543515244036804e-03
         - -1.8236446685314656e-02
         - 1.0379167810755762e-03
         - 2.0564313180245408e-03
         - -8.6621474348895001e-04
         - 7.8196612857272599e-03
         - -5.2056096710275269e-04
         - -2.4466996022333171e-04
         - 1.7850277499342461e-02
         - 4.8511591499614390e-03
         - 1.0739349033342685e-02
         - 7.7996922211236233e-03
         - -7.1267935948506143e-04
         - -7.4090226458284163e-04
         - -9.0215030942070954e-03
         - -6.6106180117544728e-03
         - 8.9782109597872049e-03
         - -8.5901976693788466e-03
         - -1.1260870979526638e-02
         - -8.5897897212655096e-04
         - 3.8765446040080593e-03
         - 7.2050226906927931e-03
         - -7.8485595390846239e-03
         - 4.3699192333175292e-03
         - 3.6258358853701484e-04
         - -9.7353068919849679e-04
         - 2.3815087668309972e-03
         - 3.1042180322827715e-04
         - 3.2061405481048702e-03
         - -1.0067906921440923e-02
         - 6.4521487551300327e-03
         - -4.2127137712668697e-03
         - -6.2218543888253250e-03
         - 4.0071872808526750e-03
         - 2.4901353730275039e-03
         - -6.1766690781651116e-03
         - 7.1447868082108465e-03
         - -7.9998610697785723e-03
         - 5.2789551279114775e-03
         - -4.8441149054163999e-03
         - 4.8413284677296340e-04
         - -8.9830510392586299e-03
         - -4.6047194149884552e-03
         - -1.3179956645535269e-02
         - -6.9676755551312617e-03
         - -6.4377531646556789e-03
         - -1.1397902743381667e-02
         - 4.9872792667355788e-03
         - 1.0395280324757734e-02
         - -1.3907986720332157e-02
         - 6.8422906951912473e-05
         - -1.4933404674744048e-02
         - 6.9035743573940831e-03
         - 1.0530362477560325e-03
         - -4.2277676742185998e-04
         - 2.1203036350235568e-03
         - -6.8928735486329003e-03
         - 1.7571506252622997e-03
         - 1.5630447726335019e-02
         - 8.4948874074392295e-03
         - 3.8526011695303934e-03
         - 1.2286625757174834e-02
         - -3.2699338365707329e-03
         - 3.9107465910509525e-04
         - -1.4064090278936877e-02
         - -1.2680203603836666e-02
         - 1.2750084833183854e-02
         - -7.8508117983284598e-03
         - -3.1349775250139006e-03
         - -6.7762907041515712e-03
         - 1.5845091998396284e-03
         - 1.1013518820575829e-02
         - -1.3319609282047739e-02
         - -1.9645707056897633e-03
         - -2.0976425404860208e-03
         - -7.0087875208252218e-04
         - 5.3469688231714699e-03
         - -6.9484298077333005e-04
         - 8.3535608417918735e-03
         - -6.6009424427472159e-03
         - 1.1642359544218016e-02
         - -9.4772206060385715e-03
         - -7.2354330411885477e-03
         - 7.6737746804145402e-03
         - 2.5180168135012742e-03
         - -1.1300536477580789e-02
         - 8.5901661587411797e-03
         - -1.4365763671928440e-02
         - 1.4281958411770431e-02
         - -1.0692367016776862e-02
         - 7.2911170142677772e-04
         - -1.1482951858352054e-02
         - -8.8191845399028940e-03
         - -1.3974005192837155e-02
         - -1.5940298423499873e-02
         - -1.3404635474067358e-02
         - -7.6531853055161712e-03
         - 4.9108422984545461e-03
         - 8.3363673290639349e-03
         - -1.0904103194079749e-02
         - 1.1088505876980820e-03
         - -8.4083549562322391e-03
         - 8.9653187535639091e-03
         - 2.0692309587270240e-03
         - -1.1562291919925255e-03
         - 2.0217524833625609e-04
         - -1.5476042580366094e-02
         - 6.8935670899251825e-03
         - 8.7007680271440086e-03
         - 1.4527510101249247e-02
         - 2.1118476861437859e-03
         - 8.0692322621504151e-03
         - -3.3871686712701285e-05
         - -1.1734350619000550e-03
         - -1.0566802241232182e-02
         - -1.0649496029097240e-02
         - 1.0188625322806991e-02
         - -1.0353495323195374e-02
         - -6.1584625459155332e-03
         - -3.4769747481820613e-03
         - 6.7177423492501068e-03
         - 1.1154656352932994e-02
         - -9.3852001850798922e-03
         - 2.5134802962613612e-03
         - -1.8798198065933217e-03
         - 1.9888819985265024e-03
         - 3.1273582876621070e-03
         - -2.8762172727938243e-03
         - 6.3793230185853079e-03
         - -1.3096253917841597e-02
         - 7.3134011665245448e-03
         - -7.4475884223543735e-03
         - -1.1961323833485145e-02
         - 4.2316667016572499e-03
         - 2.1462407780571627e-03
         - -8.9681472593609885e-03
         - 5.1034966468241679e-03
         - -1.1277025245214085e-02
         - 7.5508666438459529e-03
         - -6.5625019957284503e-03
         - 1.0956299926918683e-03
         - -8.3008279325806362e-03
         - -6.2279243451954852e-03
         - -1.7070105583783406e-02
         - -1.0548524428395059e-02
         - -8.6500423045726312e-03
         - -1.2177021365870381e-02
         - 5.3489132516216604e-03
         - 1.1072094928212805e-02
         - -1.3926454975817144e-02
         - 4.6360069665605673e-04
         - -1.2206549970233974e-02
         - 7.4208501977304463e-03
         - 6.1841880615913557e-04
         - -3.8776310344002684e-04
         - 1.6539765874397185e-03
         - -8.2189464701926448e-03
         - 6.6947552804157654e-03
         - 8.4621274337710155e-03
         - 1.0499392848341635e-02
         - 5.2994553385636613e-03
         - 9.8401439963928718e-03
         - -3.9619215564666854e-03
         - 9.6640659932585062e-04
         - -1.1015645501878042e-02
         - -1.0685749999990887e-02
         - 1.1024060712121890e-02
         - -1.3267146311015741e-02
         - -5.2172514402216586e-03
         - -7.0021578319538758e-03
         - 1.0279559830355894e-02
         - 9.3151075386119914e-03
         - -1.1678097223388551e-02
         - -3.1534013713897796e-04
         - -2.2852872613072909e-03
         - 1.9336578987961424e-03
         - 7.3615192177388846e-03
         - -1.0136270075330942e-03
         - 4.9360844774306682e-03
         - -1.2011638939902555e-02
         - 1.0182394490189659e-02
         - -1.0304739427510735e-02
         - -1.2312306587716773e-02
         - 5.4776525401936714e-03
         - 3.6927017735889000e-03
         - -9.5331155592932211e-03
         - 7.8344230600671475e-03
         - -1.4225597396470068e-02
         - 1.1825065263446913e-02
         - -1.1164832215333499e-02
         - 2.0913362426567108e-03
         - -1.2794244211405841e-02
         - -1.0331675918027442e-02
         - -2.1958153413658442e-02
         - -1.0906657433544777e-02
         - -1.0582033931858579e-02
         - -1.0400031285928242e-02
         - 7.1880237654193728e-03
         - 1.4018134948508671e-02
         - -1.2825974493941392e-02
         - -2.1622074910480006e-03
         - -1.0097763883514148e-02
         - 1.1076892740782456e-02
         - 2.7450468302857886e-03
         - 1.1310821567702991e-03
         - 1.2850260688489128e-03
         - -1.1298138832960799e-02
         - 7.0680901779132952e-03
         - 1.1416869850044007e-02
         - 1.3599050876778309e-02
         - 6.6070634477130375e-03
         - 6.1493836102258217e-03
         - -6.0449938964769279e-04
         - 6.2536163191255305e-04
         - -7.3681610013168414e-03
         - -7.2454933853135341e-03
         - 6.5378086340255152e-03
         - -1.2636181240895446e-02
         - -1.3223797009715935e-03
         - -5.6222862763029473e-03
         - 1.0089757701389215e-02
         - 7.0061680928752909e-03
         - -6.9430633688741319e-03
         - 5.7748903773546150e-04
         - -2.2982876297551590e-03
         - 2.3230150407057087e-03
         - 3.5170655499788465e-03
         - -2.1574164930902836e-03
         - 4.2070176316918425e-03
         - -1.4925173225132831e-02
         - 6.5835537237967931e-03
         - -5.3685288425239812e-03
         - -1.4543177703414480e-02
         - 3.2390001185955632e-03
         - 4.4927445999871926e-03
         - -8.8279939387707340e-03
         - 5.2016469726367982e-03
         - -9.7236787253825851e-03
         - 7.0971698243993591e-03
         - -5.3628203622820749e-03
         - 1.9497579602137417e-03
         - -8.6832696071097101e-03
         - -7.2817487730106080e-03
         - -2.3974299926618640e-02
         - -6.4297887158165923e-03
         - -6.3425075668839667e-03
         - -1.1906359122588426e-02
         - 9.1242189875768449e-03
         - 1.7907581024369384e-02
         - -1.2579176378275405e-02
         - -1.9126161463359672e-03
         - -1.2536509386274867e-02
         - 8.7108133813190557e-03
         - 3.0662754956476191e-03
         - -4.5224134902889648e-04
         - 5.6463060692676231e-03
         - -8.4930948230966165e-03
         - 3.5436276027416749e-03
         - 9.4835547960808730e-03
         - 7.9180219096612256e-03
         - 6.7993787504180012e-03
         - 5.7291534615481927e-03
         - 3.3327372176215593e-03
         - -1.0637535458959740e-03
         - -6.9186759110378753e-03
         - -5.5356621477703344e-03
         - 7.5023551360367882e-03
         - -1.2341847771037173e-02
         - -3.3477798251786259e-03
         - -3.7345012448188099e-05
         - 8.2957215230801597e-03
         - 7.3607499734358890e-03
         - -5.8731372381975802e-03
         - 3.2286525997706371e-03
         - -2.1490429774084726e-03
         - 1.1474780358451235e-03
         - 3.0865531423734787e-05
         - 1.9245196930039216e-03
         - -9.8378777486028303e-05
         - -1.0252447840560844e-02
         - 8.2623560836788731e-03
         - -4.2085708868258020e-03
         - -1.2330368319212612e-02
         - 2.4621958143042581e-03
         - 2.4989227106528033e-03
         - -4.7977489782530290e-03
         - 2.9053663436539013e-03
         - -8.3381244028260266e-03
         - 5.3158838922207474e-03
         - -6.3906135343954002e-03
         - -4.6758297858837973e-04
         - -7.4958616757780355e-03
         - -2.8928749895183671e-03
         - -1.7742419228438534e-02
         - -7.7514911806912711e-03
         - -6.3776702269594558e-03
         - -1.0805139559322045e-02
         - 6.6567144841606788e-03
         - 1.1742014642708635e-02
         - -9.7076143547029058e-03
         - -1.5320260077836324e-03
         - -1.0108749761190253e-02
         - 5.6321079245253061e-03
         - -6.7879929027192185e-04
         - -1.7059661762812552e-03
         - 3.8166489644309498e-03
         - -6.9205845532467059e-03
         - 1.1111654155848670e-03
         - 8.0490187168419120e-03
         - 7.2465210117171304e-03
         - 6.9376148590355249e-03
         - 7.1557174729585220e-03
         - 1.5172186660473372e-03
         - 2.3210073661511471e-03
         - -8.6722765018333019e-03
         - -6.0889551157795449e-03
         - 6.9999455122611706e-03
         - -1.1758810759549097e-02
         - -2.4231515898436948e-03
         - -2.8842085787205507e-03
         - 6.5264202191307784e-03
         - 5.2266373015583687e-03
         - -5.3594585927096705e-03
         - 2.8834984749091740e-03
         - 1.0373672617878769e-03
         - 3.2016636039031360e-04
         - -3.8206117198545236e-04
         - -2.6362302691794229e-03
         - 2.3035494968757799e-03
         - -9.8528764663002415e-03
         - 8.0230860706195783e-03
         - -6.1509988039508369e-03
         - -1.0067486090125222e-02
         - 3.2441978213470775e-03
         - -8.1762301003853577e-05
         - -4.4871254594511852e-03
         - 3.2907055537980301e-03
         - -9.5153923179431606e-03
         - 6.6522483217673969e-03
         - -4.7181831358958136e-03
         - 2.3467489232202559e-03
         - -6.9894213029789778e-03
         - -1.3676661751157472e-03
         - -1.4202865093807642e-02
         - -6.9919508654862255e-03
         - -6.6521249845893212e-03
         - -1.1332883341596611e-02
         - 7.2490724981448687e-03
         - 1.1023934633764419e-02
         - -1.0709001757579292e-02
         - -8.6545457455803351e-04
         - -9.1233688608891410e-03
         - 3.8275060266364618e-03
         - 1.0310594335300939e-04
         - 4.1932795205298126e-04
         - 4.7743445040379735e-03
         - -5.5366948943728761e-03
         - 2.9424651102120843e-03
         - 9.4910410099014759e-03
         - 7.1429873345726022e-03
         - 6.4022466670590143e-03
         - 2.5792521147281660e-03
         - 3.3641224617070413e-03
         - 2.5319248484114197e-03
         - -4.2644866763303394e-03
         - -4.0722992993673596e-03
         - 2.3379174806562033e-03
         - -1.2084245228963661e-02
         - -4.1229354203766036e-03
         - -2.6633565696148785e-04
         - 1.2299603984389972e-02
         - 3.3351781139990774e-03
         - -1.7903401470875165e-03
         - 5.0269681950931427e-03
         - -1.5020706816522292e-04
         - 1.4300248275373004e-04
         - -1.2603912255801041e-03
         - -3.8171067872788232e-05
         - 6.9642064126271025e-04
         - -1.2020194399300238e-02
         - 4.4421679897261477e-03
         - -2.4785847108230999e-03
         - -1.3921974915306451e-02
         - 2.4631780654496300e-03
         - -2.1618734585588054e-03
         - -4.8178645285090593e-03
         - -1.2816509613261166e-03
         - -5.5081993784645168e-03
         - 4.0838078331531394e-03
         - -3.5605337877204039e-03
         - -8.5394501236010409e-04
         - -4.5877766041743972e-03
         - 4.8173238092566993e-04
         - -1.9276164178699887e-02
         - -5.6968655458849906e-03
         - -3.9505169484049182e-03
         - -9.5731992244040727e-03
         - 9.3857358838516092e-03
         - 1.3342190457707322e-02
         - -1.4382943150404079e-02
         - -1.1271723015801663e-03
         - -1.2330466031063905e-02
         - 5.9796451085686461e-04
         - 1.8866267106435982e-03
         - -2.1102183428873943e-03
         - 7.9184109275149701e-03
         - -2.2386272965719900e-03
         - -8.9012297506171824e-04
         - 1.0656882058214318e-02
         - 5.2384422676730463e-03
         - 7.3206534973146598e-03
         - 9.7562800357425088e-03
         - -1.0064964964749093e-03
         - 1.4850606519975027e-04
         - -9.7745866410961346e-03
         - -8.7259640357494998e-03
         - 8.3290429572497864e-03
         - -9.0933008003977363e-03
         - -9.2755611628768300e-04
         - -9.4815522209887163e-04
         - 7.4993811584269255e-03
         - 9.6569519158849100e-03
         - -9.4964359780073792e-03
         - 3.2106437707585230e-03
         - -1.2063239862863614e-03
         - 5.7044508654964976e-04
         - 3.0243208859068184e-03
         - -2.3572059874331732e-03
         - 3.1933590121558646e-03
         - -1.0096132898932035e-02
         - 8.5323274703370967e-03
         - -9.9896174602756918e-03
         - -9.6607765154042985e-03
         - 1.9995060222789043e-03
         - 3.3423911078082108e-03
         - -5.1063224644482541e-03
         - 1.6052621684297284e-03
         - -1.0606625038534455e-02
         - 1.0434739385125577e-02
         - -6.3767657817491805e-03
         - 2.2862919865510134e-03
         - -7.9991824909920895e-03
         - -4.0990927988860792e-03
         - -1.2284802815422729e-02
         - -1.1854795547955328e-02
         - -8.6934286574735682e-03
         - -8.7036638678189178e-03
         - 7.6199212543226593e-03
         - 1.0556462351582696e-02
         - -8.5441169581858770e-03
         - -7.6026158039350781e-04
         - -6.8571032833337339e-03
         - 4.2408348160460959e-03
         - 5.9388019329343028e-04
         - 1.0169417137544212e-03
         - 2.3071251463671070e-03
         - -9.4715764370593390e-03
         - 4.1552389074450760e-03
         - 4.5809574847323793e-03
         - 9.0499859904025794e-03
         - 2.7965640881407869e-03
         - 1.1829672365787141e-02
         - 8.2456248381244305e-04
         - -4.0468756103508220e-04
