%YAML:1.0
---
opencv_ml_ann_mlp:
   format: 3
   layer_sizes: [ 324, 50, 2 ]
   activation_function: SIGMOID_SYM
   f_param1: 6.6666666666666663e-01
   f_param2: 1.7159000000000000e+00
   min_val: -9.4999999999999996e-01
   max_val: 9.4999999999999996e-01
   min_val1: -9.7999999999999998e-01
   max_val1: 9.7999999999999998e-01
   training_params:
      train_method: BACKPROP
      dw_scale: 1.0000000000000000e-03
      moment_scale: 0.
      term_criteria:
         epsilon: 1.0000000000000001e-01
         iterations: 100
   input_scale:
      - 1.1818912360762891e+01
      - -1.8183350105423146e+00
      - 1.1569191065285313e+01
      - -1.5878137049452308e+00
      - 1.1907451497351239e+01
      - -1.4670919710308341e+00
      - 1.3083130631899600e+01
      - -1.3500903387940311e+00
      - 1.3231994128388708e+01
      - -1.6004278119902968e+00
      - 1.3230190567653565e+01
      - -1.3725161625197646e+00
      - 1.1793780723784332e+01
      - -1.4630706040161749e+00
      - 1.1369362525716332e+01
      - -1.5835096332965206e+00
      - 1.1671712677447358e+01
      - -1.8083742959047093e+00
      - 1.1590389184583577e+01
      - -1.8689295724136230e+00
      - 1.1280765227106919e+01
      - -1.7206641886962957e+00
      - 1.1378846311919821e+01
      - -1.5650874117132958e+00
      - 1.2352255239740495e+01
      - -1.4492828581137627e+00
      - 1.2463530897480210e+01
      - -1.6973489535899691e+00
      - 1.2426965579934606e+01
      - -1.4476954329157330e+00
      - 1.1441314994978727e+01
      - -1.5677097462466780e+00
      - 1.1224001438824896e+01
      - -1.7180110572784755e+00
      - 1.1459166352218165e+01
      - -1.8492148346229187e+00
      - 1.1690081694117625e+01
      - -1.9592938292454565e+00
      - 1.1162626640754059e+01
      - -1.7129737064011130e+00
      - 1.1467311751656965e+01
      - -1.5917322848149060e+00
      - 1.2545044269083174e+01
      - -1.4695114468868260e+00
      - 1.2537244388637928e+01
      - -1.5485314772179490e+00
      - 1.2436706660046896e+01
      - -1.4819181986981294e+00
      - 1.1495243711138174e+01
      - -1.5889362972616377e+00
      - 1.1267823896556921e+01
      - -1.7211927493759902e+00
      - 1.1718082211363344e+01
      - -1.9619389451312812e+00
      - 1.1529371592378226e+01
      - -1.9962833718389390e+00
      - 1.1181683419713377e+01
      - -1.8445135399142614e+00
      - 1.1262416536258486e+01
      - -1.7146369922594142e+00
      - 1.1880280242708839e+01
      - -1.5731530106554441e+00
      - 1.1976978707984012e+01
      - -1.6491619753178386e+00
      - 1.1960375329258401e+01
      - -1.5936718400895902e+00
      - 1.1147163392606837e+01
      - -1.7214033398479829e+00
      - 1.1140463259640432e+01
      - -1.8842816265777955e+00
      - 1.1425533567392341e+01
      - -2.0066066309742943e+00
      - 1.1725263288251961e+01
      - -1.7117493057018909e+00
      - 1.1588212065800084e+01
      - -1.5836062639310058e+00
      - 1.1906373418733773e+01
      - -1.4743916588471111e+00
      - 1.3041041273075207e+01
      - -1.3769154848315444e+00
      - 1.2971186906267755e+01
      - -1.6151217447723796e+00
      - 1.3019886963190379e+01
      - -1.3950622795734795e+00
      - 1.1745727663832970e+01
      - -1.4974960172136749e+00
      - 1.1274733141141466e+01
      - -1.6081328346003247e+00
      - 1.1462560286547127e+01
      - -1.6986133008600801e+00
      - 1.1651478117171223e+01
      - -1.8415921766777392e+00
      - 1.1275187505375264e+01
      - -1.6800689379342908e+00
      - 1.1387647399022622e+01
      - -1.5566782994545443e+00
      - 1.2426279117265924e+01
      - -1.4590446537096271e+00
      - 1.2417776909556192e+01
      - -1.7158704314489774e+00
      - 1.2423561515336209e+01
      - -1.4851719497443068e+00
      - 1.1500097194408692e+01
      - -1.6030096164402237e+00
      - 1.1176357948314903e+01
      - -1.7236446343909841e+00
      - 1.1378906382104423e+01
      - -1.8268902634626254e+00
      - 1.1574574576667567e+01
      - -1.8505175594217693e+00
      - 1.1156011087439499e+01
      - -1.7051658433560244e+00
      - 1.1428133835668058e+01
      - -1.6034442666238542e+00
      - 1.2414227601503542e+01
      - -1.5044691624581799e+00
      - 1.2443145064017271e+01
      - -1.5708380295412172e+00
      - 1.2384083738138136e+01
      - -1.5020170603021228e+00
      - 1.1424266202899279e+01
      - -1.6126126143552295e+00
      - 1.1248278634642981e+01
      - -1.7365674437750402e+00
      - 1.1458446005411295e+01
      - -1.8438635336323572e+00
      - 1.1617803110786330e+01
      - -1.9938251215291163e+00
      - 1.1072035559210478e+01
      - -1.8034938348384082e+00
      - 1.1168435531148909e+01
      - -1.6911277517613248e+00
      - 1.1778130875138773e+01
      - -1.5734525376498631e+00
      - 1.1977674651309165e+01
      - -1.6694675717139436e+00
      - 1.1944705160849262e+01
      - -1.6146840154343032e+00
      - 1.1185980134287671e+01
      - -1.7372220294049421e+00
      - 1.1098703280643502e+01
      - -1.8702080874557392e+00
      - 1.1338879507325919e+01
      - -1.9736781426049528e+00
      - 1.1875955885905773e+01
      - -1.7170964236373054e+00
      - 1.1712179983337220e+01
      - -1.5663410590635587e+00
      - 1.1920013788678661e+01
      - -1.4642794005195738e+00
      - 1.2846258434401571e+01
      - -1.3739429156107277e+00
      - 1.2899552805217786e+01
      - -1.6390110996231702e+00
      - 1.3007559249012136e+01
      - -1.4245720368107833e+00
      - 1.1730126346958047e+01
      - -1.5240761506489939e+00
      - 1.1169043202879218e+01
      - -1.6163725960317321e+00
      - 1.1374789170672669e+01
      - -1.7075400454898839e+00
      - 1.2018114434969613e+01
      - -1.9577312593281941e+00
      - 1.1368946922863023e+01
      - -1.6193886847289680e+00
      - 1.1494466447273062e+01
      - -1.5225319999266307e+00
      - 1.2299750463529696e+01
      - -1.4311564340797640e+00
      - 1.2396622830594753e+01
      - -1.7145574170066238e+00
      - 1.2526587708293350e+01
      - -1.4756733532992701e+00
      - 1.1586373682102073e+01
      - -1.6039820348111720e+00
      - 1.1030974625796715e+01
      - -1.6887738232530740e+00
      - 1.1551938514439357e+01
      - -1.9371088664685994e+00
      - 1.1685488884213832e+01
      - -1.8571625769765840e+00
      - 1.1283967080491237e+01
      - -1.7055192929667504e+00
      - 1.1479940191367573e+01
      - -1.6073108207229216e+00
      - 1.2317127487201374e+01
      - -1.5046735518111136e+00
      - 1.2346683319078071e+01
      - -1.5949542303121962e+00
      - 1.2386433333627236e+01
      - -1.5316425189930505e+00
      - 1.1483344901013824e+01
      - -1.6393144798423389e+00
      - 1.1286295413591192e+01
      - -1.7546151117555115e+00
      - 1.1354014643187657e+01
      - -1.8297767065183110e+00
      - 1.2014456019973888e+01
      - -2.1217352786103101e+00
      - 1.1244537421608257e+01
      - -1.7655073924744846e+00
      - 1.1337642468225331e+01
      - -1.6790188704554712e+00
      - 1.1844972558816661e+01
      - -1.5610036812370212e+00
      - 1.1916576317598743e+01
      - -1.6673615767738139e+00
      - 1.2066568920146929e+01
      - -1.6140341188169234e+00
      - 1.1330784429114708e+01
      - -1.7311253458081559e+00
      - 1.1020598625057549e+01
      - -1.8404797805590785e+00
      - 1.1612252428300955e+01
      - -2.1046836279089773e+00
      - 1.2173742691098646e+01
      - -1.8298624167935547e+00
      - 1.1687035765228472e+01
      - -1.6106245765298766e+00
      - 1.1979518293113394e+01
      - -1.5109843216583596e+00
      - 1.3207040133447837e+01
      - -1.4276653109791910e+00
      - 1.3310425968126149e+01
      - -1.5142430919296521e+00
      - 1.3074839178657633e+01
      - -1.4451711573752737e+00
      - 1.1756275606148973e+01
      - -1.5337731298449329e+00
      - 1.1297801848961798e+01
      - -1.6197943373441410e+00
      - 1.1899732333983438e+01
      - -1.8112993059112943e+00
      - 1.1903008824601642e+01
      - -1.8899209105894919e+00
      - 1.1361103950643361e+01
      - -1.7394342435152106e+00
      - 1.1578490315326841e+01
      - -1.6365634178414041e+00
      - 1.2409038938679533e+01
      - -1.5255972880376354e+00
      - 1.2376126322054683e+01
      - -1.5908011796854866e+00
      - 1.2417848873541464e+01
      - -1.5411794413437938e+00
      - 1.1378640051348807e+01
      - -1.6346445530053955e+00
      - 1.1268281234577490e+01
      - -1.7520599627941591e+00
      - 1.1627949746816437e+01
      - -1.8576476853362192e+00
      - 1.2125173351345381e+01
      - -1.9551099288848606e+00
      - 1.1405283052061373e+01
      - -1.6963140282945390e+00
      - 1.1626568753407035e+01
      - -1.6048031158747564e+00
      - 1.2524477243052470e+01
      - -1.5125989447273203e+00
      - 1.2688440936504927e+01
      - -1.5917768934622243e+00
      - 1.2582910733558224e+01
      - -1.5370261778131409e+00
      - 1.1537460944714793e+01
      - -1.6393799768273023e+00
      - 1.1385137247846728e+01
      - -1.7485790298834358e+00
      - 1.1937959074067304e+01
      - -1.9468284170912442e+00
      - 1.1891793953462857e+01
      - -2.0199427819139690e+00
      - 1.1378371786814981e+01
      - -1.8488037061924305e+00
      - 1.1413128680213743e+01
      - -1.7422054505601301e+00
      - 1.1907399386536390e+01
      - -1.6211822050140257e+00
      - 1.2141117290285504e+01
      - -1.7119822273868368e+00
      - 1.2061141672275847e+01
      - -1.6586210338065137e+00
      - 1.1192952878228869e+01
      - -1.7596158225496628e+00
      - 1.1240546293249166e+01
      - -1.9004104446039445e+00
      - 1.1648034753568982e+01
      - -2.0033360182791866e+00
      - 1.2004684010169047e+01
      - -1.7283919974980424e+00
      - 1.1665144787943026e+01
      - -1.6046179311100981e+00
      - 1.1989677374751290e+01
      - -1.5239584917059632e+00
      - 1.2866834609224778e+01
      - -1.4260678879688160e+00
      - 1.3147387145825627e+01
      - -1.5224020305253914e+00
      - 1.3049613039120674e+01
      - -1.4483527092531094e+00
      - 1.1679853257834550e+01
      - -1.5348862909752929e+00
      - 1.1348993044622897e+01
      - -1.6253068539300766e+00
      - 1.1828875821145219e+01
      - -1.7218474443458780e+00
      - 1.1821149248809681e+01
      - -1.8537100895107441e+00
      - 1.1328427882406505e+01
      - -1.7092425762707091e+00
      - 1.1534174571628597e+01
      - -1.6232786686751137e+00
      - 1.2198872115286227e+01
      - -1.5022467788654696e+00
      - 1.2353123993729898e+01
      - -1.5947774566146704e+00
      - 1.2455582801107624e+01
      - -1.5302954820483305e+00
      - 1.1440118323997844e+01
      - -1.6321983737368166e+00
      - 1.1188315618218164e+01
      - -1.7263507673509280e+00
      - 1.1577259954427898e+01
      - -1.8189828046317931e+00
      - 1.1898324118581952e+01
      - -1.8622122328428647e+00
      - 1.1265033324953635e+01
      - -1.7149791127411851e+00
      - 1.1548511348711115e+01
      - -1.6444965257104540e+00
      - 1.2385849880569969e+01
      - -1.5372668864606656e+00
      - 1.2547397227864710e+01
      - -1.6244460356348873e+00
      - 1.2474886086431043e+01
      - -1.5436195879502606e+00
      - 1.1400976436120622e+01
      - -1.6232085732458172e+00
      - 1.1235472987788977e+01
      - -1.7237632260218860e+00
      - 1.1645521082823619e+01
      - -1.8296210422522707e+00
      - 1.1748673826160358e+01
      - -1.9855955504159253e+00
      - 1.1177656447502264e+01
      - -1.8144970599388930e+00
      - 1.1190524019839680e+01
      - -1.7184705883207363e+00
      - 1.1765426623708160e+01
      - -1.6159514910551029e+00
      - 1.2029015643149275e+01
      - -1.7161575697024916e+00
      - 1.2083262043055644e+01
      - -1.6472513857791224e+00
      - 1.1110507714127831e+01
      - -1.7451304666556164e+00
      - 1.1033513090534534e+01
      - -1.8532353524593346e+00
      - 1.1465760086279651e+01
      - -1.9571904529932103e+00
      - 1.2167072232672719e+01
      - -1.7383850937100374e+00
      - 1.1731660756913824e+01
      - -1.6099299653917822e+00
      - 1.1894248755725616e+01
      - -1.5235916387332444e+00
      - 1.2772093990660075e+01
      - -1.4351129331783057e+00
      - 1.2881728370084362e+01
      - -1.5265084415967352e+00
      - 1.3010905788756675e+01
      - -1.4719153789258759e+00
      - 1.1686115028161323e+01
      - -1.5506485245855077e+00
      - 1.1385769488381190e+01
      - -1.6383728046800399e+00
      - 1.1761757264957732e+01
      - -1.7097982114847154e+00
      - 1.2263659686802276e+01
      - -1.9956519631969540e+00
      - 1.1371769750220983e+01
      - -1.6829376382896080e+00
      - 1.1444683509282925e+01
      - -1.5927597516780538e+00
      - 1.2282882975183039e+01
      - -1.5014327879693341e+00
      - 1.2420548103421606e+01
      - -1.5972958585167636e+00
      - 1.2605122045521464e+01
      - -1.5388513296302428e+00
      - 1.1581255647657008e+01
      - -1.6278113711372844e+00
      - 1.1246430208754516e+01
      - -1.7089153741409444e+00
      - 1.1953753527252479e+01
      - -1.9557031789998154e+00
      - 1.1900430275521677e+01
      - -1.8603767816312704e+00
      - 1.1230821000650090e+01
      - -1.7131344394824262e+00
      - 1.1448165460167750e+01
      - -1.6366146373542760e+00
      - 1.2239630840561457e+01
      - -1.5349206240224615e+00
      - 1.2258317730378185e+01
      - -1.6217218660066319e+00
      - 1.2520535679737945e+01
      - -1.5666042017429687e+00
      - 1.1389447772084374e+01
      - -1.6407185004007803e+00
      - 1.1316904807877041e+01
      - -1.7478006422510994e+00
      - 1.1703175254307546e+01
      - -1.8324029414036809e+00
      - 1.2231380524473508e+01
      - -2.1308385317488487e+00
      - 1.1222539242279002e+01
      - -1.7940286365147724e+00
      - 1.1289410906807339e+01
      - -1.7047340129283841e+00
      - 1.1889241288559051e+01
      - -1.5944058921979967e+00
      - 1.2041325990613414e+01
      - -1.6950107080579160e+00
      - 1.2073330318723727e+01
      - -1.6260290920959362e+00
      - 1.1248474537031377e+01
      - -1.7264855349015054e+00
      - 1.1122722619217596e+01
      - -1.8259132783084395e+00
      - 1.1979004118816139e+01
      - -2.1116283334657320e+00
      - 1.2419164991570188e+01
      - -1.8214365254152527e+00
      - 1.1852090057592644e+01
      - -1.5922057948422330e+00
      - 1.2073705203834432e+01
      - -1.5260595512931194e+00
      - 1.3149756952342344e+01
      - -1.4471022215005032e+00
      - 1.3465222953002817e+01
      - -1.5425861830534369e+00
      - 1.3469123419715611e+01
      - -1.5028614246391756e+00
      - 1.1739472654810962e+01
      - -1.5738430472819587e+00
      - 1.1282203121350651e+01
      - -1.6523770233166866e+00
      - 1.2172319063692226e+01
      - -1.8504452779920197e+00
      - 1.2056566737851062e+01
      - -1.8980668535235372e+00
      - 1.1514752849447182e+01
      - -1.7575903901892851e+00
      - 1.1597779731133818e+01
      - -1.6831240774900484e+00
      - 1.2377353764111520e+01
      - -1.5651392204849917e+00
      - 1.2452216268629471e+01
      - -1.6424277373939491e+00
      - 1.2621861789514899e+01
      - -1.5919370750639561e+00
      - 1.1502677023886168e+01
      - -1.6772679562714676e+00
      - 1.1378758898904261e+01
      - -1.7915218121324237e+00
      - 1.1842286290695954e+01
      - -1.8858489147510886e+00
      - 1.2531202821399615e+01
      - -1.9568323712702114e+00
      - 1.1500094773076734e+01
      - -1.6542507890387075e+00
      - 1.1650047244217260e+01
      - -1.5661070665023067e+00
      - 1.2687412673803987e+01
      - -1.4937109525236663e+00
      - 1.3158977813166860e+01
      - -1.8784477402969553e+00
      - 1.2996461079675845e+01
      - -1.5537806611298404e+00
      - 1.1615458503437772e+01
      - -1.6679993753692517e+00
      - 1.1337437472003343e+01
      - -1.7608694701167158e+00
      - 1.2234443413685204e+01
      - -1.9872093449773487e+00
      - 1.2213782730170042e+01
      - -2.0158061606903050e+00
      - 1.1456513253364552e+01
      - -1.8285637720035277e+00
      - 1.1349187571907438e+01
      - -1.7124582742810242e+00
      - 1.1874049426436120e+01
      - -1.5976772109463966e+00
      - 1.2721170272019407e+01
      - -2.0406621076753368e+00
      - 1.2245445960814990e+01
      - -1.6590078366165075e+00
      - 1.1380952641326633e+01
      - -1.7959677202933106e+00
      - 1.1179218515636428e+01
      - -1.8950498743537403e+00
      - 1.1900974461882621e+01
      - -2.0282270554479704e+00
      - 1.2262747260562518e+01
      - -1.7530635454507824e+00
      - 1.1814334742395053e+01
      - -1.6380314761273025e+00
      - 1.1909489863796528e+01
      - -1.5735563222722959e+00
      - 1.2856853700716394e+01
      - -1.4755841085600716e+00
      - 1.3082731488912907e+01
      - -1.5701761931144242e+00
      - 1.3284077741591640e+01
      - -1.5048296510926031e+00
      - 1.1820138796414797e+01
      - -1.5724721730001181e+00
      - 1.1294086318129779e+01
      - -1.6291195266151564e+00
      - 1.1902892599162824e+01
      - -1.7294166002300688e+00
      - 1.2003695125240458e+01
      - -1.8648994137519377e+00
      - 1.1443944602873831e+01
      - -1.7422286836440426e+00
      - 1.1352116997786153e+01
      - -1.6441187053866417e+00
      - 1.2158461251093593e+01
      - -1.5552128739690168e+00
      - 1.2490999327671258e+01
      - -1.6616540544579033e+00
      - 1.2638309378895350e+01
      - -1.5913096886769398e+00
      - 1.1429294018094172e+01
      - -1.6540219553560482e+00
      - 1.1221082969188249e+01
      - -1.7366351539822746e+00
      - 1.1664999163776312e+01
      - -1.8312963148833483e+00
      - 1.2291458927960123e+01
      - -1.8554136450668848e+00
      - 1.1468537931049156e+01
      - -1.7092872084064308e+00
      - 1.1507222568384771e+01
      - -1.6189243195296557e+00
      - 1.2364992922229897e+01
      - -1.5244899114575061e+00
      - 1.2943628330215093e+01
      - -1.9036940412945327e+00
      - 1.2831483804560451e+01
      - -1.5566471802722655e+00
      - 1.1673079580365089e+01
      - -1.6545777877142323e+00
      - 1.1325996723651189e+01
      - -1.7226159938916039e+00
      - 1.1918779952293644e+01
      - -1.8396923524870161e+00
      - 1.2168173868081508e+01
      - -1.9833235638127347e+00
      - 1.1548210883424948e+01
      - -1.8368217862476546e+00
      - 1.1380020553865647e+01
      - -1.7241561901533506e+00
      - 1.1915752964771791e+01
      - -1.6186797244555235e+00
      - 1.2820592756731669e+01
      - -2.0656500865636076e+00
      - 1.2379321700785582e+01
      - -1.6595598031859444e+00
      - 1.1316407947443505e+01
      - -1.7556552418366440e+00
      - 1.1160415734072247e+01
      - -1.8495024707423053e+00
      - 1.1746066182876390e+01
      - -1.9603406438842643e+00
      - 1.2258454644503004e+01
      - -1.7367062937070814e+00
      - 1.1668686220017930e+01
      - -1.6259761181490608e+00
      - 1.1781604530584657e+01
      - -1.5493338050365277e+00
      - 1.2768641798618702e+01
      - -1.4739749844602228e+00
      - 1.2944076912091777e+01
      - -1.5711366413326742e+00
      - 1.3128754521653505e+01
      - -1.5180471480539544e+00
      - 1.1733363194271424e+01
      - -1.5858730705456854e+00
      - 1.1348763015261092e+01
      - -1.6432041682409118e+00
      - 1.1804409424894640e+01
      - -1.7108186528361251e+00
      - 1.2304746031189389e+01
      - -1.9880947720976847e+00
      - 1.1382618824352283e+01
      - -1.7063441952201488e+00
      - 1.1426642774920159e+01
      - -1.6221531129764835e+00
      - 1.2452695338552745e+01
      - -1.5469635082447597e+00
      - 1.2526026094235656e+01
      - -1.6362976723587364e+00
      - 1.2678273018057430e+01
      - -1.5608566089045437e+00
      - 1.1630002972278810e+01
      - -1.6446837049614200e+00
      - 1.1372708234812713e+01
      - -1.7154691008900946e+00
      - 1.2000501716145548e+01
      - -1.9523060335953675e+00
      - 1.2180310210277019e+01
      - -1.8372165226924400e+00
      - 1.1533341587630380e+01
      - -1.7215652175373946e+00
      - 1.1386256880434090e+01
      - -1.6227968383087237e+00
      - 1.2245166715014436e+01
      - -1.5384337942243758e+00
      - 1.2926463706724933e+01
      - -1.9408386583504695e+00
      - 1.2692088137073380e+01
      - -1.5602196265640984e+00
      - 1.1646184312932869e+01
      - -1.6523219472336752e+00
      - 1.1353251676125508e+01
      - -1.7207601200294362e+00
      - 1.1847518680342109e+01
      - -1.8067392476473250e+00
      - 1.2286075118889750e+01
      - -2.0867677271152547e+00
      - 1.1417496512831431e+01
      - -1.7901996322167044e+00
      - 1.1358956390915276e+01
      - -1.7102820755885344e+00
      - 1.1873172358339263e+01
      - -1.5956317140378393e+00
      - 1.2664712938715127e+01
      - -2.0377810536579615e+00
      - 1.2175699782462202e+01
      - -1.6140791996756469e+00
      - 1.1364291715558121e+01
      - -1.7130698208109936e+00
      - 1.1207193557494955e+01
      - -1.8001156155504461e+00
      - 1.1999688215583619e+01
      - -2.0677394897582824e+00
   output_scale:
      - 5.2631578947368418e-01
      - 4.9999999999999994e-01
      - 5.2631578947368418e-01
      - 4.9999999999999994e-01
   inv_output_scale:
      - 1.8999999999999999e+00
      - -9.4999999999999996e-01
      - 1.8999999999999999e+00
      - -9.4999999999999996e-01
   weights:
      -
         - -4.3436524724069565e-02
         - 1.4305094634212357e-02
         - 1.8435781775797380e-02
         - -7.3938464027880927e-03
         - 5.4141105220106324e-03
         - 1.7446038937731390e-02
         - -2.3211901047944853e-02
         - 1.2980013591872973e-02
         - 2.5133408657388952e-02
         - 3.2602747433840319e-02
         - -1.4613454673297764e-02
         - 6.8511839400184349e-02
         - -1.5825411865587998e-02
         - -1.9365842011875911e-02
         - -2.6146817959561450e-02
         - -1.1474745616575893e-02
         - -3.0352022132408188e-02
         - 1.8570758346052912e-02
         - 2.1066988157983295e-02
         - -2.4551426494362091e-02
         - 1.5958826300049932e-02
         - 2.8038873882288918e-02
         - 2.7355827681590922e-02
         - 2.3931543984799245e-02
         - -3.6927322046904312e-02
         - 4.1295681134672121e-02
         - -4.2057918571741688e-03
         - 3.7901577921405083e-02
         - -1.7521816102931739e-03
         - 3.0392440716508380e-02
         - -4.8044842826125179e-03
         - 4.8468703936825251e-02
         - -3.2039394468182492e-02
         - 1.6305955667447573e-02
         - 1.8804913076647348e-02
         - -7.9627460444278587e-03
         - -2.0307153757353483e-02
         - -5.5457889616693787e-04
         - -2.7899061020248989e-02
         - 1.0993741506558989e-02
         - 5.7737803748413429e-03
         - 1.5740142707630571e-02
         - -5.9823715900830096e-03
         - -3.5221502078284450e-02
         - -5.0587867056447631e-03
         - 1.0031525570123104e-02
         - -4.2642004048775696e-02
         - 5.9378335496121006e-03
         - -3.1805612395830940e-03
         - 2.7045789973316994e-02
         - 1.9117628870741640e-02
         - -7.0753268441529271e-03
         - -2.6019619218882574e-03
         - 1.3841752027249990e-03
         - -8.4623021724035408e-03
         - -4.7666467669889179e-03
         - 1.2690465698253812e-02
         - -6.3612020342804941e-03
         - -9.0210904573430287e-03
         - -3.3502849980999616e-02
         - 8.0194195383524007e-03
         - -8.2896361480650320e-03
         - 1.3058463744241463e-02
         - 1.3114205307113698e-02
         - 1.1970469023344114e-02
         - 1.7641838690866166e-03
         - 2.0439658742645143e-02
         - -7.7251504053441776e-03
         - -7.0648650879107672e-03
         - 5.5676125946885584e-03
         - -6.4012558340156662e-03
         - -1.0237123061114486e-02
         - -1.2732576285002333e-02
         - -6.7849157079135844e-03
         - 1.2639706058405113e-02
         - -2.2391410582367731e-02
         - 4.9676871775715236e-03
         - -1.7040834525445393e-02
         - 1.5999557486607390e-03
         - -1.8977327692870940e-02
         - -3.3097288939135834e-03
         - -4.4591640856252194e-03
         - 2.5322433189190401e-02
         - -5.0062333124619111e-03
         - -7.1182789194537306e-03
         - 2.8901473721446073e-03
         - 2.2853740293595048e-02
         - 2.0987279198921623e-03
         - 1.7247279575864635e-02
         - -1.7194996689249499e-03
         - 3.6990482684419409e-03
         - -1.1184915894698048e-02
         - 1.1762994460216525e-02
         - 1.1416563467221334e-02
         - 4.4931399469694232e-03
         - -1.0359870630628310e-02
         - 1.8232048070638520e-02
         - -2.0296116306711375e-04
         - 3.3486766232422474e-03
         - -1.0233452191319660e-02
         - -1.8876487692986177e-03
         - 8.8272757242441376e-03
         - -2.1874752997482136e-03
         - 4.0147151414476568e-03
         - -4.7787894013419157e-03
         - 5.0889027146283679e-03
         - 2.9452982041330835e-03
         - 3.1303203409881767e-03
         - -1.5210444017356857e-05
         - -6.3596035686983663e-03
         - -5.8689043722932851e-03
         - -2.4892323094921537e-02
         - -6.6180362701203522e-03
         - 3.3205250612435662e-03
         - -3.9043857396300428e-03
         - 2.8307852330961307e-03
         - 4.6749427035616218e-03
         - -4.4012862113111829e-03
         - 2.2047920283496851e-03
         - -6.9232874742050079e-03
         - -3.9451916623504113e-03
         - -2.0401683446700665e-03
         - 2.2896787387548254e-03
         - 1.6685451610198891e-03
         - 9.7449228008836871e-04
         - 3.8780883632500542e-03
         - 8.4237076656142702e-04
         - -1.6118505475288074e-03
         - -4.7420049826121646e-03
         - 8.1089145647914463e-04
         - 5.6276274000547572e-03
         - 5.5698086614624324e-03
         - 1.1414767826185231e-02
         - 4.3293530432908303e-03
         - -6.5503771481750170e-03
         - -4.5439561987699415e-03
         - 6.5137168208780484e-04
         - -5.2529308964816088e-03
         - -3.3945001447804001e-04
         - 3.7670678173271797e-03
         - 2.9607782329276644e-03
         - 3.9356609536245332e-03
         - 9.7535513701793250e-04
         - -4.6178244715364592e-04
         - -1.9851563884376658e-03
         - 3.0461717979286341e-03
         - 1.6769905360726593e-02
         - 9.2141990682681680e-04
         - 2.7360164979201014e-03
         - -3.0442970027121869e-03
         - -2.0350428710839953e-02
         - 9.0169252842449941e-03
         - -5.0767457702688000e-04
         - -1.0347793798051689e-03
         - 4.7947186594480950e-03
         - 5.4553308894616801e-03
         - -6.5639051023377868e-03
         - 9.5338807429687401e-03
         - 8.0270621892464325e-03
         - 2.7044169043424032e-02
         - -1.0819334112498614e-02
         - -1.2328498770148237e-02
         - -3.1115771242292242e-04
         - -1.4954934766393915e-02
         - -8.4957872964348796e-03
         - -9.1429022401486055e-03
         - -1.1896307102190865e-02
         - -1.2760979334990356e-03
         - 7.8350995951878208e-03
         - -2.9856718808036545e-03
         - 1.1327068821056247e-03
         - 1.1479591955720956e-02
         - 3.3530731027082016e-03
         - 7.9587252961782155e-03
         - -9.0431726900891476e-03
         - 1.7115597047681497e-02
         - -7.1894687659689246e-03
         - 4.7042812925191463e-03
         - 2.9178061716488759e-03
         - 9.4463113243898385e-03
         - -3.2726230485844877e-03
         - 2.4987060109945697e-03
         - -1.6358846183111973e-02
         - 6.7233762429263376e-03
         - 1.7599731355511503e-03
         - -6.2173564285075266e-03
         - -4.2185470407100538e-03
         - -3.8732660406811973e-03
         - -1.0815318363305194e-02
         - -1.3402726371348473e-03
         - -3.8479884537174097e-03
         - 1.5891697295107134e-03
         - -7.3519318396768722e-03
         - -1.3644182726135485e-02
         - -4.3973175879222521e-03
         - 9.4512511534444836e-03
         - 4.2594263707719055e-03
         - -1.4332689407430448e-03
         - -3.5630890572026543e-03
         - 5.7618695363154115e-03
         - 4.3091698634875383e-03
         - -9.4712167278347050e-03
         - 7.8632461339766960e-04
         - -1.8384536945988578e-04
         - -7.0053206614304666e-03
         - -1.0991659616691444e-02
         - 1.7351197432085767e-03
         - 9.1651300241541800e-04
         - -7.8929589677166935e-03
         - -1.3362367714080347e-02
         - 1.2945185485673484e-02
         - -6.0894361548823772e-02
         - 9.0780587124133930e-04
         - 6.4660723685037724e-03
         - 1.8267113981116218e-03
         - 8.9317263227596498e-03
         - 1.5076353115159946e-02
         - 2.2588975653161352e-03
         - -8.5289907828977416e-03
         - 8.9568365457741560e-03
         - -1.1286084316313311e-03
         - -7.0099125694187995e-03
         - -1.2077275507260199e-02
         - -7.1602214050920741e-03
         - 1.3503709126816182e-02
         - -1.2411347229921713e-02
         - -3.9315217097820772e-03
         - -1.0783480919307078e-02
         - 1.3741606167191358e-03
         - -8.8117049128412835e-03
         - -6.5351908530444133e-04
         - -3.5150294450712508e-02
         - 1.1466288927163493e-02
         - 6.1655589417919019e-04
         - -2.2526147653475154e-03
         - -5.0354864281066886e-03
         - 1.4065170956187849e-02
         - 5.3490631945319793e-03
         - 1.7321382464693406e-03
         - -7.4038718868195443e-03
         - -4.9586890368468594e-03
         - -4.3622952768517416e-03
         - 4.4662086555625775e-03
         - 7.3144147948396125e-03
         - -4.0192904963170691e-03
         - -9.2805509756799989e-03
         - 4.8493581527251556e-02
         - 1.4652207806939491e-03
         - -8.9356700951929741e-04
         - -1.1761065088684892e-02
         - -4.1424814690989409e-02
         - 1.4686207647318109e-02
         - 1.6125626486364557e-02
         - -1.0710715978050834e-02
         - 4.6312738001673829e-03
         - 1.2907559665314544e-02
         - -1.5831137461573819e-02
         - 1.1930121384913013e-02
         - 2.4222587788780531e-02
         - 4.4053019726326560e-02
         - -1.7299859435697385e-02
         - 2.3829750958246923e-02
         - -1.8833280384619268e-02
         - -3.2627458214488321e-02
         - -1.5406546355096938e-02
         - -8.0913556510605732e-03
         - -3.0653889647369943e-02
         - 1.1208938924443730e-02
         - 1.5347313284800511e-02
         - -1.9406321126487297e-02
         - 6.4293180945893535e-03
         - 3.0641647225299971e-02
         - 2.1578261569369303e-02
         - 1.3454356596117044e-02
         - -3.0352378154286586e-02
         - 3.2993010045709766e-02
         - -1.8824121927567695e-03
         - 3.6016195592051929e-02
         - -9.5605472676501754e-04
         - 3.9264884351975289e-02
         - 1.3502349502196951e-03
         - 1.7237943230565943e-02
         - -3.9574426055273858e-02
         - 5.4423991139191195e-03
         - 1.3236597177175203e-02
         - -1.1945519224656673e-02
         - -2.1596325587790600e-02
         - 5.4903072052469540e-04
         - -2.5657957835930990e-02
         - 5.5429384848922321e-03
         - 3.0544957178879071e-03
         - 9.9451405056650375e-03
         - -9.4168672704904293e-03
         - -3.1604389375987335e-02
         - -5.0972831496744414e-03
         - 8.2538756145654323e-03
         - -3.1779534061240969e-02
         - 7.6170853873125857e-03
         - -5.5785287924948390e-03
         - 1.9709959825241895e-02
         - 3.4556815317890741e-03
         - -1.0468350101466149e-02
         - -4.8232092810388356e-03
         - 3.9562764802136665e-03
         - 2.5282923486562485e-03
         - 1.5677189792161223e-03
         - -2.9666470917586543e-03
         - -5.6026728668856027e-03
         - -4.9202890498977326e-04
         - -3.9559272174402253e-03
         - 5.3234084055214402e-04
         - -3.2321336441618102e-02
         - -3.9780273631111640e-04
         - -5.9347461799098885e-03
         - -1.0109485034711615e-03
         - -1.8993459730763784e-03
         - -5.1492350359216470e-03
         - 5.2963556339777687e-03
         - 2.9300444152416502e-03
         - 5.3065131226526655e-03
         - 5.5788399242836760e-03
         - -6.2414541429294257e-03
         - 5.0807773750507360e-03
         - -1.8628389037217571e-03
         - -8.1877541299506913e-04
         - -1.4914079440764675e-02
         - 4.9885453374557426e-03
         - 1.0825410271705380e-03
         - 5.5111409691200406e-03
         - 2.7437727273686972e-03
         - 1.2876429517757807e-03
         - -7.8829345092666665e-03
         - -1.5776768939426535e-03
         - 5.0861144035051625e-03
         - -1.8006826082421785e-03
         - -3.0905296952542481e-03
         - 3.5928652855200423e-03
         - -8.4671870973322878e-04
         - 5.8715172984880049e-03
         - -5.2475266865860048e-03
         - -7.5812119498525467e-05
         - 1.0246206724467139e-03
         - 1.0177507930888199e-03
         - 5.6554283863057067e-03
         - -2.7454578019863586e-03
         - -1.3515329259354131e-03
         - -9.3244077851218372e-03
         - 5.4872823583180406e-03
         - 4.4294171121664208e-03
         - -4.4118293130191739e-03
         - -1.3109562529822018e-02
         - -1.5315478484777562e-03
         - 3.3657639098084967e-03
         - -5.2301334014995932e-04
         - -2.7396182069928466e-03
         - 1.7102833601416053e-03
         - -3.5006956678389477e-04
         - 3.4146674694654714e-03
         - 1.8687748460943942e-04
         - 1.2016677115778642e-02
         - -6.6647627199206668e-03
         - -6.1788640030169054e-02
         - -7.9983727996488993e-03
         - -4.3722903367365892e-03
         - -6.5556327174717786e-03
         - -5.3343328084731667e-03
         - -1.5482106211206537e-02
         - 1.6052278888289840e-03
         - -2.2559697718564737e-03
         - -6.2279873681282258e-03
         - -2.5963203948513040e-03
         - 7.1829972372691288e-03
         - 8.0840967672384592e-03
         - -1.6679572588316699e-03
         - -1.2743899548782774e-02
         - -1.0085175138481342e-04
         - 8.0463401696144574e-04
         - 1.0849346710047409e-02
         - -5.3795019055047433e-03
         - 4.6654671396529311e-03
         - -2.3245831889483867e-03
         - -2.5936500120882812e-03
         - -8.0075877027456395e-03
         - -1.7124754110706757e-03
         - -2.8360166648310342e-03
         - -4.4403654819001508e-03
         - -1.0039799652275251e-02
         - 2.5540136563790937e-04
         - 2.6274114790744967e-03
         - 6.3289558661866491e-03
         - -2.1973709110100661e-03
         - -1.2836618122229512e-03
         - -6.4741623601563634e-03
         - -8.6317265252108619e-03
         - 3.6350976470758611e-03
         - 5.1457654257972283e-03
         - 2.2148519260151288e-02
         - 1.1200697868311666e-03
         - 2.7819738437785775e-03
         - 6.1645555852362548e-03
         - -2.8314858037094250e-02
         - 1.0860376435658242e-02
         - 9.6303828511190969e-03
         - -2.4050644126462138e-03
         - 2.0813504692850640e-03
         - 1.0595859799844787e-02
         - -1.3128724698952949e-02
         - 2.7133655753662752e-03
         - 1.5918702382881560e-02
         - 2.7654369148559736e-02
         - -1.2405283970497248e-02
         - -1.3719569396854312e-03
         - -1.1896418059277557e-02
         - -1.2964830831045366e-02
         - -1.7461624223151492e-02
         - -4.4969381092744886e-03
         - -2.6486336239400166e-02
         - 7.1452887829250604e-03
         - 1.0346498647738690e-02
         - -7.1222131353125672e-03
         - 1.0430417073296281e-02
         - 1.4537724151330894e-02
         - 8.0943399872454129e-03
         - 7.9970329695710496e-03
         - -1.9795237178774853e-02
         - 3.0823602218682050e-02
         - -2.4200055608299595e-03
         - 1.7178824465896914e-02
         - -5.5711612924821650e-03
         - 2.7777373974699766e-02
         - -3.5304308528654464e-03
         - 3.0734731432863135e-02
         - -1.8134823198608232e-02
         - 1.0782423958109652e-02
         - 3.1738313117271547e-03
         - -8.8890010057790319e-04
         - -2.5064910448639163e-02
         - -9.4988941578739332e-04
         - -1.6799892109871456e-02
         - 6.4794248923236604e-03
         - 4.4772533569722951e-03
         - 8.5146512639209596e-03
         - -3.3538983234385447e-03
         - -1.9651519573150589e-02
         - -2.6510709941695971e-03
         - 8.6757353746099910e-03
         - 4.6160896432188197e-03
         - 2.5637644495903875e-03
         - -9.5697356838682721e-03
         - 1.4107151806013242e-02
         - 5.9021398937467195e-04
         - 3.7920527045740646e-03
         - -3.3358219849445700e-03
         - 1.9360085471384761e-03
         - -2.2661369883402410e-03
         - 4.9826340638668134e-03
         - -3.1436061223391494e-03
         - 1.3086175489905156e-03
         - 6.3551423615734754e-03
         - -1.2930429167732989e-02
         - 4.1126928626904121e-04
         - 5.8734492149746610e-02
         - -7.2308455586282761e-03
         - -2.7047074880667534e-03
         - 2.9179990360022035e-03
         - 2.8720079546744625e-03
         - -9.1010756717954840e-04
         - 4.4505815048781127e-03
         - 7.9061438349607126e-03
         - -8.7252229951798532e-04
         - 5.9193108747225926e-03
         - 2.2035227578947403e-03
         - 5.6441022918498149e-03
         - 6.7433370163859294e-03
         - -5.8785101992565921e-03
         - 8.8424927976893386e-03
         - -3.1286734280355920e-03
         - 5.9712384316794927e-03
         - 5.4230611390320383e-03
         - 5.1969724761217282e-03
         - -1.4225113419920329e-04
         - 1.5908291862486199e-02
         - 5.8488022530746491e-03
         - 5.2308623615646976e-03
         - -7.4132153782833241e-04
         - -5.9046770640013065e-03
         - 7.2914692528255956e-03
         - -6.1182274912298697e-03
         - -4.6392732240978099e-03
         - -1.2218412374714644e-03
         - 1.0538494968395933e-03
         - 2.2485317163898452e-03
         - 3.7608525873939428e-03
         - -7.5598112599452750e-03
         - 5.4931648133152372e-03
         - 4.4471717708516616e-04
         - -4.2901887861185048e-03
         - 2.7405661005264837e-03
         - 4.8693440027826008e-03
         - 7.4158958458178824e-03
         - 1.7239483736331825e-02
         - -1.3345315863293333e-03
         - -1.6083613511302902e-03
         - -1.1028140438780233e-03
         - 1.7113421009189640e-03
         - -1.7034904060750204e-03
         - 1.0120350683936373e-02
         - 1.4951114104903753e-03
         - -7.7839889135969328e-03
         - -2.4569326388564287e-02
         - -2.3288145597382612e-03
         - 2.9600003573821865e-02
         - 2.1165614461809449e-03
         - 1.2348309408053881e-02
         - 2.7224998335551478e-03
         - -2.1416177930161612e-03
         - 6.2887713658433333e-03
         - 2.8553898810449356e-03
         - -9.7992142087071476e-03
         - 1.0212484454450005e-03
         - 1.1139936745476454e-04
         - -9.6726591604533705e-04
         - -2.7755646926162984e-03
         - -5.0009765653224016e-03
         - 1.1955074085741740e-02
         - -1.5098534856594617e-02
         - 3.7041716725927068e-03
         - -1.2357753918491088e-02
         - -1.0201173114920256e-03
         - -6.5278442341402251e-03
         - -1.9914821588551648e-03
         - 3.2770292410113379e-03
         - 1.8687603288104541e-02
         - -5.5713433565691070e-03
         - -1.0122375374057085e-02
         - 6.8454419631266434e-03
         - 1.4135907378620968e-02
         - -5.5654457436049628e-03
         - 1.0027026997181325e-02
         - 5.0320793632433836e-04
         - -2.0009281674402209e-03
         - -6.6970272339647282e-03
         - 7.0955001197957343e-03
         - 1.2349837143423102e-03
         - 4.6482404393988217e-03
         - -8.0358869509714673e-03
         - 9.3286760514509903e-03
         - -1.8970958366283997e-03
         - 6.1330312623598011e-03
         - -1.1766917865922790e-02
         - 1.7906407101810605e-04
         - 1.5079291477917528e-02
         - 4.5376037080692381e-03
         - 1.0596386573137682e-03
         - 1.2220266242909780e-03
         - 7.7503545247348633e-03
         - -8.9606620937608550e-05
         - 5.1493686045559614e-03
         - 4.1196125679441205e-03
         - 1.0720071745408915e-03
         - 1.5159623089486911e-03
         - -3.1805910035196193e-02
         - -4.3027570419049976e-03
         - -9.5963053774373308e-03
         - -5.8520014544050083e-03
         - -6.5431441115265674e-03
         - 4.6480304133974526e-03
         - 7.0662123741232737e-04
         - 6.0651641458800117e-03
         - -8.2546073857877236e-03
         - 5.2672052321373420e-03
         - -5.7656643039822003e-04
         - -1.6320272725232419e-03
         - -1.9787831397571104e-03
         - 3.9911351350376736e-03
         - 9.2838010096896253e-03
         - -7.7965757785445223e-04
         - -2.4399966818973088e-03
         - -8.8181797915983342e-04
         - 1.0700914064878915e-03
         - -4.4366881507165194e-03
         - -4.9553518157627943e-03
         - 1.6344031567770013e-02
         - 3.0002782261709790e-03
         - 7.7791033860934535e-04
         - -2.1273271345181666e-03
         - 1.6636427586779077e-03
         - 2.8227448705014191e-03
         - -9.7725664579171902e-03
         - 1.4351528355541290e-03
         - 3.2456636182918823e-03
         - 5.5765855748070659e-03
         - 2.3420786525712115e-03
         - -4.4370886260855710e-03
         - 7.3784245109110265e-05
         - 3.0014278696478738e-03
         - 1.6738816030805331e-02
         - -3.9709513313131240e-03
         - 3.8851952517118425e-03
         - 6.0761845024732315e-03
         - -2.7206196144666510e-02
         - 2.4068177686563035e-02
         - 1.1923273954038159e-02
         - -2.7375916893011502e-03
         - 8.7802812405704134e-03
         - 4.4921856166069045e-03
         - -1.3405525860729612e-02
         - 5.7047792571458915e-03
         - 2.2428104277131791e-02
         - 4.0126319272259396e-02
         - -1.5047085074673942e-02
         - 1.3224584685498281e-02
         - -1.4114825390143363e-02
         - -2.7426247335300552e-02
         - -7.9969455421591319e-03
         - -1.1458614340311223e-02
         - -2.1227445145915933e-02
         - 7.1096539661059822e-03
         - 6.0933464096323900e-03
         - -1.7306359566889060e-02
         - 4.6415321607187424e-03
         - 1.8572331988372274e-02
         - 7.5271435390796438e-03
         - 9.4004420391751355e-03
         - -1.3202518697856876e-02
         - 2.8436918148919021e-02
         - 3.4597531083236351e-03
         - 1.3586223266895315e-02
         - -3.1306200231943455e-03
         - 2.1170058153598830e-02
         - 2.2156684848210571e-03
         - 7.5636283440394568e-03
         - -2.1958357380303387e-02
         - 1.1262660874039094e-02
         - 1.0417684400406357e-02
         - -7.6062532535268118e-03
         - -1.9819897292405419e-02
         - -3.1570598771516953e-03
         - -2.2832496799517328e-02
         - 1.2151970961140962e-03
         - -2.9452809521520341e-03
         - 3.8521816583310386e-03
         - -1.0654259592741893e-02
         - -2.2042433241204591e-02
         - -4.8009183478773133e-03
         - 1.0273152246969936e-02
         - -1.8673270843760859e-02
         - 6.0799396055072688e-04
         - -7.0981448207271397e-03
         - 1.9570975986214059e-02
         - -1.4890875087514716e-03
         - -3.8224311224270200e-04
         - 4.2091131936791044e-03
         - 2.1376785310664652e-03
         - -3.4280411948223234e-03
         - -7.2008429644430799e-03
         - 1.5454130488108627e-03
         - 2.9689975978438605e-03
         - -7.8724848601137605e-03
         - -2.3877112151958799e-04
         - 2.4577474957454908e-03
         - -6.8461719462381443e-02
         - -4.6422924562177555e-03
         - -2.1924879821856409e-03
         - -2.0726268963127309e-04
         - -4.5817280065983514e-03
         - 1.7198731224837131e-03
         - -6.0203378630760123e-03
         - -2.2559497229424626e-03
         - 5.0637673371816813e-03
         - 1.4341269781083076e-03
         - 7.0501267687732001e-05
         - -6.7292812166460329e-03
         - -6.2942607289758173e-04
         - 5.1105322734090663e-03
         - -3.1872264323231873e-03
         - 1.4934306253575407e-03
         - 1.0021326274693910e-04
         - -1.9519858314285735e-05
         - -1.0017612306986511e-02
         - 3.4582918142547284e-03
         - -2.0174165514567997e-02
         - 1.1525467787442735e-02
         - 1.6431631750482231e-03
         - 8.0474408440907102e-05
         - -4.3881062226375391e-04
         - 1.2588185435184137e-02
         - 2.5053241266120730e-03
         - 3.6727926013030898e-04
         - -1.8077266520362739e-03
         - -3.3251459704324395e-03
         - -3.9499652376646039e-03
         - 4.1555873427763347e-03
         - 7.9040638222849322e-03
         - -3.5761922083201781e-03
         - -5.8625380697348009e-03
         - 3.2329055009230251e-02
         - -6.3276025007890906e-03
         - 1.3450901089915258e-03
         - -2.6906749857995406e-03
         - 5.5432347636184300e-04
         - -1.5190901209089175e-02
         - -6.5215046495735070e-03
         - -3.4132650954111763e-03
         - -5.4466800921844543e-03
         - 1.3621816220291487e-03
         - 1.6612630403625825e-03
         - -7.3083944610972205e-03
         - -9.9462832114179719e-03
         - -2.4291645858841053e-03
         - 1.1217661460297750e-03
         - -1.6800532433235607e-02
         - 7.0233960845470286e-03
         - 1.5817770658127566e-03
         - -1.0478833556511282e-03
         - 2.1627973563647929e-03
         - 5.0452446519488447e-03
         - -3.6035968533513364e-03
         - -1.9694878767600008e-03
         - 6.5872439205809210e-03
         - -2.5258900713866555e-03
         - -4.2501745535523036e-03
         - 2.7665567285005623e-03
         - -5.3718265249886252e-03
         - 3.4289472363554143e-03
         - -1.2479453229387901e-02
         - 5.5089732446663474e-03
         - -3.8351582738059297e-03
         - 5.8017994617076026e-03
         - -9.3210160159884880e-03
         - 4.8392097668680696e-03
         - -2.3344064123061573e-02
         - -4.5433057287665741e-03
         - 9.9691188573790539e-04
         - -2.0561602310299439e-03
         - 4.7293296427908284e-03
         - 1.6249923549679097e-02
         - 3.0631098133283570e-03
         - 9.9293581060097141e-03
         - -3.1789403061736783e-03
         - -6.3783467916340621e-03
         - -3.0983709617289734e-03
         - 1.4457146606728186e-03
         - 3.7180291914571157e-03
         - 3.9370762916033772e-03
         - 3.4655235436333205e-03
         - -1.7199920502977892e-03
         - 3.9037655411552179e-03
         - -1.4572051455169614e-03
         - -4.7653352984918631e-03
         - 9.3438453645362416e-04
         - -1.0689328437204397e-02
         - -5.1146642008836913e-03
         - 1.1512485322607968e-03
         - -6.1704368956007729e-03
         - -4.0314777888390187e-03
         - 8.9811718198622142e-03
         - 3.0167244474912339e-03
         - -1.0280554635515743e-02
         - -1.4061819494989265e-02
         - 5.0484538828011608e-03
         - -6.5630811879461251e-02
         - 7.6401230689987810e-03
         - 3.8418684588893345e-03
         - 7.0742664410377979e-04
         - 1.9212887614644216e-03
         - 2.8364992533313513e-03
         - -4.2207048543457075e-03
         - -9.6248531423482860e-05
         - 4.1806353113192614e-03
         - -7.8634242797698088e-03
         - -7.4079763745751809e-03
         - -4.1727908359066503e-03
         - -6.3701267980479830e-03
         - 5.6865552799391910e-03
         - -2.3567001797701617e-02
         - -3.9547420031668876e-03
         - -6.3705929577853853e-03
         - 5.9774070368973711e-03
         - -2.4215020189451157e-03
         - 1.9584628924013254e-03
         - -1.7791556590252743e-02
         - 1.5568397879357775e-02
         - 1.0125231820454987e-03
         - -5.0697498446205672e-03
         - 6.9058039604699330e-03
         - 2.2169386058444010e-03
         - 4.3953658793853068e-03
         - 4.4913026740741307e-03
         - -3.1409807502329598e-03
         - 3.3063258207463556e-03
         - -6.0581153456101683e-03
         - 2.7113197701822802e-03
         - 1.2791887827257254e-02
         - 6.7076819004211171e-03
         - 2.0140393573316886e-03
         - 8.3013991507638434e-03
         - -4.0025408979803044e-03
         - -2.6330763916553629e-03
         - -9.8650956631332436e-03
         - -1.6624703830146640e-02
         - 5.0256331500203944e-03
         - 1.8470699355265349e-03
         - -6.1895936338109830e-03
         - 3.8951396535374890e-03
         - 6.7894479287331361e-03
         - -7.6604220652345973e-03
         - -1.3024628132803551e-03
         - 9.1758842620307656e-03
         - 1.4428992229549050e-02
         - -2.8448308724976471e-03
         - -5.0791333562546420e-02
         - -5.6643017862795736e-03
         - -6.6667700959056591e-03
         - -5.7352546683906913e-03
         - -2.2525915520842038e-03
         - -1.0169689260753616e-02
         - 3.6680528258044385e-03
         - 7.7574937451912714e-03
         - -8.2235676286668696e-03
         - -2.4844475142426538e-05
         - 5.2077467512433437e-03
         - 1.0309346887228983e-02
         - 6.3274966769489198e-03
         - -5.3942669041694919e-03
         - 2.4729970997666207e-04
         - 1.5307752390380735e-03
         - 1.2598701815989074e-02
         - 1.8270648901243425e-03
         - 1.0467177979338793e-02
         - 3.9309780797265005e-03
         - 1.8994048459937716e-02
         - -3.6949674428873140e-03
         - 6.6578978407391416e-04
         - 2.5110319667167747e-03
         - -3.5308249154583199e-03
         - -1.2540643069624886e-02
         - -3.0853470775147594e-03
         - -5.6692417601023563e-03
         - 4.0373621871329576e-03
         - 1.9259846281761222e-03
         - -6.7373590378124056e-04
         - 4.0891970806702441e-03
         - -1.2280159851676574e-02
         - -7.4162496146799985e-03
         - 1.2183118173151096e-03
         - 8.2435891098848468e-03
         - 3.7772663073506263e-03
         - -7.5553860484479053e-03
         - 1.9679224480224438e-03
         - -5.3782431100921190e-03
         - 1.6805935202091320e-03
         - 4.8143881021480055e-03
         - -4.2610860877727516e-03
         - 4.7790903494903669e-03
         - 7.3369353087553010e-03
         - -7.0341575638216726e-03
         - 4.0488810983804720e-03
         - -4.2184030676968333e-03
         - -7.4293045828917326e-04
         - -3.4989285542587384e-03
         - -2.7344046646444922e-02
         - -7.3422262616865729e-03
         - -2.2482430919887639e-03
         - -7.8940704766373244e-04
         - 1.0097765027362708e-03
         - -9.6573316505168694e-03
         - 2.4983695601008102e-03
         - 5.9901824134072105e-03
         - -3.2400772876038379e-03
         - 1.1340465705426143e-03
         - 1.5529494798268120e-03
         - 6.3557030765415867e-04
         - 5.7379919261675389e-03
         - -2.7680764496194003e-03
         - 6.2270044890815768e-03
         - 1.6372528877287957e-03
         - 5.3642580046802382e-03
         - 3.1366830776067291e-03
         - 1.6856063875401528e-03
         - 4.9993217786074001e-03
         - 1.0888851934564925e-02
         - 1.3129270861117313e-02
         - -1.7227396531722381e-03
         - 2.8379639961094341e-04
         - 4.3157070439063822e-03
         - -1.1901556836409571e-02
         - 3.4954031180050994e-03
         - -5.7036911458746755e-03
         - 9.6385764518510438e-04
         - 4.2492132814652339e-03
         - 5.1672137090139998e-03
         - -2.4615659523784688e-03
         - -2.1701252936249891e-03
         - 3.1028661077181145e-03
         - -3.2968071806691850e-03
         - 2.6567477032741375e-02
         - 1.6743032011116859e-03
         - -4.7581180591099274e-03
         - 3.7363485700518586e-03
         - 5.5879332594755372e-03
         - -7.8174192563755449e-03
         - -5.2504114873283443e-03
         - 8.0193140288919507e-04
         - 2.0665423166570033e-03
         - -5.8229605785049231e-03
         - 8.5434835561587329e-03
         - 1.9341771814018248e-03
         - -9.0638053976302979e-03
         - -2.3706736141620364e-02
         - 1.9322709182871315e-03
         - 3.4744750165172728e-02
         - 3.1307660971555745e-03
         - 1.3812852952264082e-02
         - 2.6362086868494884e-03
         - -6.7655131725369321e-04
         - 4.1015890153512048e-03
         - 1.5521122080975182e-03
         - -3.1369276790474032e-03
         - 7.9760921553636535e-04
         - -3.6762284045702919e-03
         - -9.8526244703356219e-03
         - -1.1342010921761148e-02
         - -7.0714092507703106e-03
         - 1.2609187673234983e-02
         - -1.0962553040336030e-02
         - 6.0174479814581114e-03
         - -1.0545651278807014e-02
         - 3.6443098591309214e-03
         - -8.3607103536110245e-03
         - 6.5601833006042158e-03
         - 4.3977707840478454e-03
         - 1.6297029878864024e-02
         - -5.1784825478571796e-03
         - -1.2533548072717004e-03
         - -2.4921063087991603e-03
         - 1.5070073754661052e-02
         - -3.8122827576580220e-03
         - 7.9474012855257400e-03
         - 4.1659739551021249e-03
         - 2.2331364998832252e-03
         - -6.5099515170066050e-03
         - 6.8407933594931752e-03
         - 7.6036778664797166e-03
         - -9.0923492595584192e-04
         - 3.4269162677545711e-04
         - 3.6384883962240367e-03
         - -5.7680614688558392e-03
         - -2.8263852165300507e-03
         - -6.9858062345760797e-03
         - -1.2396204345539443e-02
         - 1.3177578461364281e-02
         - -3.0179484521747265e-04
         - 4.1520359030215319e-04
         - -4.2451536959857775e-04
         - 7.7266964866470177e-03
         - -1.7206977456043437e-03
         - 2.5443089414479386e-03
         - 1.7306051192379077e-02
         - -1.2569388553257193e-02
         - -1.4548153922574619e-03
         - 2.3021461331973966e-02
         - -5.1908102675631024e-03
         - -2.1871670062847976e-03
         - -1.2521579917267090e-02
         - -7.9090199856456447e-03
         - -9.1762280915913836e-03
         - 1.7952350013207066e-03
         - 5.2481427331510606e-03
         - -2.9981521958522940e-03
         - 7.3633279766903694e-03
         - 1.0470352439565194e-02
         - 1.0693517823300250e-02
         - 1.0028215834838431e-02
         - -9.9018423527617479e-03
         - 7.5622277287925128e-03
         - -1.3204792268093478e-03
         - 1.1783013262556468e-02
         - -5.8276137221220763e-03
         - 1.4674648855370708e-02
         - -4.7157026741855602e-03
         - 3.3383966083204757e-02
         - 3.3421187398323766e-03
         - 5.8866234024308999e-03
         - -1.8759014027091966e-03
         - -1.4400969780841769e-03
         - -1.6929617358324470e-03
         - -2.1445964955167009e-03
         - -1.1557437552407851e-02
         - 8.9862944223485820e-03
         - -2.4356657275945867e-04
         - 8.0637093952687638e-04
         - -3.8207197871970035e-03
         - -1.1316670627959104e-02
         - -4.6097429836227579e-03
         - 9.1421762888252191e-03
         - -2.8266692517188688e-03
         - -6.4865732144959326e-04
         - 2.8026194986369942e-03
         - 8.1987102774488761e-03
         - 6.7897981783441533e-03
         - 1.1332552367984456e-02
         - -5.8686395386482650e-04
         - -5.8399649465619959e-03
         - 4.4226795112991980e-03
         - -2.8287096987213075e-04
         - -4.1325716835520273e-03
         - 3.2847577295282327e-03
         - 9.0830602509228160e-03
         - -1.1999876252441396e-02
         - -3.6762390135606929e-04
         - -3.1768272756804175e-02
         - -1.7427944726399638e-03
         - 5.2307855208607722e-04
         - -6.1806765778800862e-03
         - 3.8053597074095294e-04
         - -1.7588535845759251e-03
         - 2.2939463488883102e-04
         - -5.2003298974737603e-03
         - -7.4983499790915063e-03
         - 3.2289167340874953e-03
         - -1.7220673669225237e-03
         - 6.1006852835407783e-03
         - 5.1314206312397647e-03
         - 3.7442614110241002e-03
         - -1.6372208394725273e-03
         - 2.1112129339782349e-03
         - -6.2946879605775344e-03
         - -6.0922783309061077e-03
         - -3.6908508458826711e-03
         - 1.5762363535916913e-03
         - 5.3280507008499787e-03
         - 2.0398112453997481e-02
         - -5.1123604913090931e-03
         - -5.8670928560721263e-03
         - -3.2603737265242405e-03
         - 4.4936454687562501e-03
         - -1.1167895032355337e-03
         - -2.1757022956131592e-03
         - 8.4481367120473269e-05
         - -3.1412804251569081e-03
         - -1.9908440605969279e-03
         - 3.6643211915234702e-03
         - 1.7550323035537144e-03
         - -5.2389023608374660e-03
         - 5.9831161475328446e-03
         - 1.2683950878529679e-02
         - 4.8587846364159856e-03
         - 1.0856677796208937e-03
         - -2.4861032231016637e-04
         - -2.8454534669013739e-03
         - 1.3185486220320772e-02
         - -2.3035075562601107e-03
         - -3.9217319621257969e-03
         - 6.1242002526066619e-03
         - 3.2222701474856285e-03
         - -3.1014033847573024e-03
         - -1.7976551937056912e-03
         - -1.8379756743391856e-03
         - 2.0452810604895135e-03
         - -2.0703347801168930e-03
         - -1.5762812045797707e-02
         - 4.0828307110661521e-03
         - -6.0139152764853180e-03
         - -7.0219501433494372e-03
         - -2.5914240096894976e-03
         - -2.4275155946452136e-03
         - -3.8763054451624538e-03
         - -3.8591293085949371e-03
         - -5.7422624372286818e-03
         - 5.0685120579322118e-03
         - 1.2458887291941410e-03
         - 2.6454054404822635e-03
         - 7.1835883041893641e-03
         - 2.3655989825953046e-03
         - 2.5907112926287605e-03
         - 5.7851084585824894e-03
         - -1.6106159409750795e-03
         - -6.2055488522063489e-03
         - -2.1982681589765574e-03
         - -1.9066528692386602e-03
         - -9.2150841645884281e-03
         - 5.7959226073430355e-03
         - 3.4915880663220380e-03
         - -4.6146477589933000e-03
         - -1.7170501500678767e-03
         - 5.2350550305246511e-03
         - -4.7400677123549872e-03
         - -2.0323250411638585e-03
         - 9.2606872857832983e-05
         - 4.2048017234394346e-04
         - -5.2890385251837344e-03
         - 2.3473943240258769e-03
         - -6.3407536942345034e-03
         - -2.1257965201365117e-03
         - 7.2945093201705086e-04
         - 2.1220927831179640e-03
         - -6.3792186081994902e-04
         - 3.1854678130641511e-03
         - 1.6938741363736736e-03
         - 1.0401438511512146e-02
         - -1.4271509268586169e-02
         - -5.3912442464326294e-03
         - -2.8214952052768409e-03
         - -4.8607398623669446e-03
         - -1.7840735601499635e-03
         - 1.5036003508437778e-03
         - 2.1346198892626309e-03
         - -7.1635919103738843e-03
         - -9.0001687264057509e-03
         - 1.1045098995797515e-02
         - -4.2136033967497682e-02
         - 8.7105051435950676e-04
         - 1.4729505556443890e-02
         - 7.5264855065122491e-03
         - 6.3477617596061787e-03
         - 9.3868782360815861e-03
         - -5.2752876835633978e-03
         - -1.7930229574075651e-03
         - 8.0876227402390168e-03
         - -2.2786838857988137e-03
         - -7.4595877913508270e-03
         - -9.1469934501164692e-03
         - -5.9657931718547687e-03
         - 1.3940535368279886e-02
         - -9.7517435555126118e-03
         - 3.5550922477995597e-03
         - -7.2103952962567271e-03
         - -5.7051293084927797e-03
         - -1.3642371302664651e-02
         - -3.5381690352589636e-03
         - -3.2712105344185144e-02
         - 1.6175360640603369e-02
         - -6.6781411596080371e-03
         - -8.4446894469961988e-03
         - 5.4965159285182521e-04
         - 1.9553745515995362e-02
         - -3.9900915268444260e-03
         - 9.7534470894031482e-03
         - -4.6444917478188273e-04
         - -3.8782858378751564e-03
         - 2.0259827337378135e-03
         - 2.8316523555071815e-03
         - 3.9836547847944097e-03
         - 8.0022816588815535e-03
         - -4.9353538352573485e-03
         - 3.3526032297823118e-02
         - 2.3772630718947753e-04
         - -2.4612554202561648e-03
         - -1.2152681098448907e-02
         - -1.5289187413084908e-02
         - 3.0895057949512908e-03
         - 4.4716831813277702e-03
         - -7.1802889884728521e-03
         - -1.0134608712059688e-03
         - -3.1344436957239426e-03
         - -4.1419326007723616e-03
         - 8.1692076189863894e-03
         - 4.3552512438912363e-03
         - 2.1964624470038413e-02
         - -2.1448464116082516e-03
         - -1.0673908154549001e-02
         - -6.4092889635429303e-03
         - -8.4560977632517492e-03
         - -8.2179652817404008e-03
         - -6.8441998729704290e-03
         - -6.1340854317282522e-03
         - 4.2474492140662000e-03
         - 8.5661715142904410e-03
         - -5.5138060316098029e-03
         - 5.7808028330200295e-03
         - 1.2940354170522247e-02
         - 8.9370506458216672e-04
         - 8.6481655179947558e-03
         - -1.0954281935731809e-02
         - 6.2863662463818470e-03
         - -3.2787482138193569e-03
         - 1.8254675698909237e-02
         - 1.7112206761426059e-03
         - 6.8886672534937488e-03
         - -4.8744699639786040e-05
         - -8.7210673224285707e-03
         - -2.4851282722575113e-02
         - -1.1254804726974974e-04
         - 6.2809962273017352e-03
         - -1.7944070062174162e-03
         - 5.2582764693947662e-03
         - 2.6325929444160575e-03
         - -1.1253984273377871e-02
         - -3.0424752818836395e-03
         - 5.1154051617088520e-03
         - 3.1606754150047618e-03
         - -4.1173570270350325e-03
         - -4.3068299180579256e-03
         - 1.7329545556878146e-03
         - 8.0300709094825728e-03
         - -2.5133951962614701e-02
         - -1.7177611714258541e-03
         - -1.7589970178695737e-03
         - 2.9880980921497739e-04
         - 4.1190355508197010e-02
         - -3.6848337216418531e-02
         - -1.8918174056541219e-02
         - 1.1935324308362453e-02
         - -1.1939599098178814e-02
         - -2.2983361070210061e-02
         - 1.5245491936548129e-02
         - -5.3652889652756946e-03
         - -2.6481334469423967e-02
         - -3.7544567723447914e-02
         - 2.4617513882195824e-02
         - -5.8554265278541962e-02
         - 9.4145677467736451e-03
         - 3.1248546921263692e-02
         - 2.7152555836855750e-02
         - 3.9733447049113187e-03
         - 3.2629575767703541e-02
         - -1.1168364140466449e-02
         - -2.2196501776533390e-02
         - 2.2842518291426233e-02
         - -8.8410853543949338e-03
         - -3.3892445453024070e-02
         - -2.6230429363791913e-02
         - -2.0314703478605256e-02
         - 2.6222394139884156e-02
         - -5.5494054421084404e-02
         - 5.3305424116504791e-03
         - -3.4611583177815222e-02
         - 8.0338086736340530e-04
         - -3.5034625102146374e-02
         - 5.1052726579812486e-03
         - -4.5552825035372488e-02
         - 3.7502495034601277e-02
         - -1.3119424119194303e-02
         - -1.5861960845340192e-02
         - 4.6637725397513955e-04
         - 3.4148299102041223e-02
         - 4.1890986288123577e-03
         - 2.5065701482251009e-02
         - -9.6349646030354456e-03
         - 4.4971806913852086e-03
         - -8.2488488355589827e-03
         - 6.8571314297744797e-03
         - 2.9065082115471218e-02
         - 5.0085669832276971e-03
         - -7.7948284386838845e-03
         - 2.5756401070207161e-02
         - -8.3269779119456296e-04
         - 5.8236448523835563e-03
         - -3.2815714291285117e-02
         - -2.5510213669683098e-02
         - 4.0893326294919909e-04
         - 9.3908050592470156e-03
         - 6.5408186157584381e-04
         - 1.8980564251001042e-03
         - 1.3082535760384418e-02
         - -5.1885710632798938e-03
         - 5.6971024136053166e-03
         - 1.4738604948533114e-02
         - 2.9839176655631072e-02
         - -9.5625832381268892e-03
         - -1.5950542946351703e-02
         - -1.0364274410211668e-02
         - -7.1125714198858082e-03
         - -9.2737109464690430e-03
         - -2.0054451469726244e-03
         - -1.2280240562440274e-02
         - 1.1838481230649055e-02
         - 1.3076444789253190e-02
         - -9.1261752394088905e-03
         - 4.1840591134318008e-03
         - 1.3567270616798389e-02
         - 1.3245563122862946e-02
         - 1.2413177178869051e-02
         - -1.1721647555900674e-02
         - 1.9193368659581524e-02
         - -1.4009586648828672e-03
         - 1.9658083957652759e-02
         - 3.5309047152905426e-03
         - 2.0798461652703958e-02
         - -1.3402690619790649e-03
         - 1.7018843523253037e-02
         - -2.3869328519385127e-02
         - 1.0774992282221124e-02
         - 9.9688147004731806e-03
         - -8.6218142228086051e-04
         - -2.7721140231072479e-02
         - 9.2042727999682979e-04
         - -4.2461621471417800e-03
         - 4.1638033971662207e-03
         - -4.0277600351516056e-03
         - 9.0354972337908356e-03
         - -7.6793392894136218e-03
         - -1.6331421597331395e-02
         - -6.0662301101860839e-03
         - 1.0632300868464607e-02
         - -4.1719195236512800e-03
         - 5.7173492941554552e-03
         - -2.4049199491431522e-04
         - 8.1982220089767618e-03
         - -1.6548444007508795e-02
         - -2.0759665493336473e-04
         - 6.5263559414492156e-03
         - -2.4939334203976063e-03
         - 5.3582581923211046e-03
         - 6.7206744253209948e-03
         - -8.8592378165792129e-03
         - 6.8310202610563416e-03
         - -5.0762596273183993e-04
         - 2.4922205416130971e-03
         - -6.3712076268032734e-04
         - 7.9624961709419875e-03
         - -9.3886548482932253e-03
         - 7.4418882866520829e-04
         - -8.5598132619294168e-03
         - -7.5676410045345211e-03
         - -8.5724651946467965e-03
         - -2.3364403272680754e-03
         - 1.0046645203504427e-02
         - -3.6958523378269603e-03
         - 3.9247580194833459e-03
         - 8.0217240071241373e-03
         - 2.3248601163809138e-03
         - 1.6581034562400399e-03
         - -4.2974162656879804e-03
         - 8.9073075287210684e-03
         - 5.4396263352998967e-03
         - 3.7181234697308274e-03
         - 3.9056287167307146e-04
         - 7.0997695234310742e-03
         - -2.5143183320048596e-03
         - 1.6313638394823048e-02
         - 3.9749742342209734e-03
         - 1.0706146784529263e-03
         - 9.6845220516812731e-03
         - 2.2053527271844340e-03
         - -1.5750605475283518e-02
         - -2.9680823437033036e-03
         - -6.2751460066717297e-03
         - 4.0585652061126496e-03
         - 3.4227452169396134e-03
         - 1.5126231149643211e-03
         - -4.8382331791446843e-03
         - -8.4386202320715204e-04
         - -2.9359586184692019e-03
         - 1.1140734320429465e-03
         - 5.3980494661195972e-03
         - -2.3616137557224692e-03
         - -1.4716105234471877e-03
         - 4.0446656084191721e-03
         - -9.8166433107896960e-03
         - 5.3814528541992679e-03
         - 6.0489169122849209e-03
         - -2.1482827202915031e-03
         - -4.0892191598745293e-03
         - 2.5644414347943492e-03
         - 8.0293060307838854e-04
         - -4.1172201733132617e-03
         - -7.2385622258209673e-05
         - -1.8898168080009124e-02
         - 1.8842581607761901e-03
         - 7.2282468414184078e-02
         - -4.6109222712341713e-03
         - 4.1358921787939505e-03
         - 3.3946420803067086e-03
         - -5.7957218641806153e-03
         - -2.7655466753310665e-03
         - -2.3851551384496440e-03
         - 6.1737446109033584e-03
         - -6.7329681065175385e-03
         - -4.0208762326109735e-03
         - 8.7270203548277005e-03
         - -3.2879654602208951e-03
         - 2.7803385143823291e-03
         - -1.5236653542937393e-05
         - 3.6047292259806353e-03
         - 2.0247747414673290e-03
         - 5.8789179874366238e-03
         - 1.7769597204601703e-03
         - 4.8269265461158345e-03
         - -1.0593757831720836e-03
         - 2.3614626943055109e-02
         - 5.6475253217523943e-03
         - 5.0606552462250851e-04
         - 6.9342423418064011e-03
         - 6.1652337564072979e-03
         - 5.0163803705271272e-03
         - 4.5033151334603790e-03
         - 4.2964558526602864e-03
         - 1.0008772558958857e-03
         - 2.6067267128504811e-03
         - -1.9086578441175606e-03
         - -3.8884746525432150e-03
         - 1.8631095866829673e-03
         - -6.0492751003393633e-03
         - 7.8023958273384401e-03
         - 1.2896318258921989e-03
         - 7.0005368914346239e-03
         - -1.4439673701436338e-03
         - -2.6754743641309968e-03
         - -8.0134703456170003e-03
         - 2.1171707513803588e-02
         - 1.0584379476622803e-02
         - 2.4985287308939156e-03
         - 3.3425885210971035e-03
         - 7.9118237274408455e-03
         - -9.6187921156394643e-03
         - 4.1121623804725484e-03
         - 1.5401373357659676e-02
         - -1.1977473351553759e-02
         - -7.6173384069723304e-03
         - 4.3259765732594942e-02
         - -8.6479787103317732e-03
         - -7.6965683923407744e-03
         - -3.3953589652344946e-03
         - -1.5017675957925748e-03
         - -1.8084167647418908e-02
         - -4.4602762317181828e-04
         - 3.1605378176084941e-03
         - -9.6911269781285152e-03
         - 2.6957838601471308e-03
         - 1.2061256100394069e-02
         - 3.4984438468234282e-03
         - 8.5349127454156046e-03
         - -1.7800518856937945e-02
         - 1.7858811364802774e-02
         - 1.7689455556110908e-03
         - 1.0867577486657445e-02
         - 5.2154663631623485e-04
         - 1.1571877243165820e-02
         - -3.3537524902798196e-03
         - 3.2934725138319701e-02
         - 8.6126113707310145e-03
         - -6.8988404464959737e-04
         - 7.0628271213699053e-03
         - -1.6775152649094822e-03
         - -8.0449945180612243e-04
         - -1.2131058226417196e-03
         - -1.1521963267485438e-02
         - 1.1549075999995986e-02
         - 1.7949281684092073e-03
         - 9.0388567877002402e-04
         - 7.2133398299885874e-04
         - -1.2249405014939327e-02
         - 2.2643737652266222e-03
         - 8.4430076321068831e-03
         - 5.0402865639710063e-04
         - 2.5137333904021279e-03
         - 8.0356054519948618e-04
         - 6.6827904185109213e-03
         - -2.1381245800935625e-03
         - 1.5504179759815181e-02
         - 1.0507927995700057e-03
         - -3.8795074236701367e-03
         - -2.7546656305680564e-03
         - 2.7319682036642985e-03
         - -4.5856589588117056e-03
         - -2.3169521717200355e-03
         - 7.8624675883254645e-03
         - -2.5782204188981753e-03
         - -5.4832029023792119e-04
         - -2.2882510939763932e-02
         - -2.9971429007752696e-04
         - -4.6582408436827687e-03
         - -4.3078409928276025e-03
         - 4.0374511408458949e-03
         - 2.4668600971681476e-03
         - 1.6014245727287116e-03
         - -8.7462462383433495e-04
         - 2.7119153548140714e-03
         - 5.7953353398915497e-05
         - 3.2941229967501161e-03
         - 4.1095166093843526e-03
         - 8.4513957870064357e-04
         - -3.1210279870302854e-03
         - 8.8460726689652165e-03
         - -6.3052864356582389e-04
         - -1.9309243361510812e-03
         - 4.6371283202974022e-03
         - -3.0278283800376474e-03
         - -4.0136497312197282e-03
         - 4.1920184808464421e-03
         - 1.8282350816060798e-02
         - 2.6174086727367815e-03
         - 2.2124004833806513e-03
         - -4.3568437182162209e-03
         - 2.4141814510137459e-03
         - -2.1387763718990066e-03
         - 1.0655041784764468e-03
         - 1.3097309918525311e-03
         - 5.5874582302527136e-03
         - -3.6803151399164239e-03
         - 1.3314879357412173e-03
         - -3.4026968636016461e-03
         - -6.9051793967777079e-04
         - 6.9306767995918036e-03
         - 1.8526068029177403e-02
         - -2.3789503794718974e-03
         - -2.2124498392572028e-03
         - 2.1782063208886553e-03
         - -1.6011811472776063e-03
         - 1.0834771298629036e-02
         - -2.5150579241736957e-03
         - 5.0205155926185815e-03
         - -2.2361936773611698e-03
         - -7.3481457662591251e-03
         - -5.3332037286733750e-03
         - 3.9750848251211461e-03
         - 3.8138644914746853e-03
         - 1.5898087950072502e-02
         - 1.0859585950108472e-03
         - -2.8477405450345167e-03
         - -1.1805429244609216e-03
         - -2.9069785956972595e-03
         - -5.1839536806499182e-03
         - -2.2482572002897848e-03
         - 9.1866229711996695e-03
         - -1.6364867150442293e-03
         - -3.0269731482087045e-03
         - -5.4712703309324285e-03
         - 3.5775088220097130e-03
         - -1.5011297478176020e-03
         - 1.2663089134923812e-03
         - -9.0727297377928354e-04
         - 4.2676777036424014e-03
         - -2.7327543947435187e-03
         - -3.4810922258719933e-03
         - -9.4591523655543092e-03
         - 1.2393850319954809e-04
         - -8.3382820314465804e-03
         - -1.1324730502643013e-03
         - -5.8849447557164196e-03
         - -6.5741481378327332e-03
         - 1.3901219072625401e-03
         - -5.1100672458387255e-03
         - 2.1352165932729834e-03
         - 3.4112091884354713e-03
         - 1.5482215484931728e-03
         - -5.0469091103983784e-03
         - -6.9596115407640161e-03
         - 2.8142102635127534e-03
         - -3.1908462145110696e-04
         - -5.3781861108587637e-04
         - 5.6428975940971777e-04
         - 1.6929505953186448e-03
         - -8.5263579110520893e-04
         - 1.6806724631549912e-02
         - 2.0227951634155619e-03
         - 3.1438908188826408e-03
         - -1.7953756737882154e-03
         - -1.5557746219290809e-02
         - 7.6218583431581360e-03
         - 1.1702040124831968e-02
         - -5.9813472378164164e-03
         - -2.1361633309126262e-03
         - 7.3591773386820882e-03
         - -1.2699533522957331e-02
         - 8.6089539329691715e-03
         - 1.1416387029536474e-02
         - 4.0118767074691371e-02
         - -1.6863737562528907e-03
         - -3.0763430869382061e-02
         - -3.0127693302568173e-03
         - -1.2723392142404810e-02
         - -1.1689725649449256e-02
         - -7.8690734083761080e-03
         - -1.1256536218904772e-02
         - 6.7094829693366814e-03
         - 1.4263948766598641e-02
         - -1.2938140728449628e-02
         - 1.9400010921820292e-03
         - 8.3078862758544664e-03
         - 1.3740423312342176e-02
         - 1.5435846625793033e-02
         - -1.1480226558717978e-02
         - 1.2290250161524930e-02
         - -2.7381893293000792e-03
         - 2.0497549154860586e-02
         - -6.6053800097210930e-03
         - 1.9425139746922625e-02
         - -3.9062709975780461e-03
         - -7.2052119125386440e-03
         - -2.0803515163442102e-02
         - 3.3693660614666234e-03
         - 1.1261157430829921e-02
         - -5.1577116808083998e-04
         - -4.9198147372577251e-03
         - -4.9712967829198375e-03
         - -1.7498263681320927e-02
         - 3.1976924239408224e-03
         - 1.6524179859886905e-04
         - 1.0745845006895523e-02
         - -6.2761542753799783e-03
         - -1.4624751434212125e-02
         - -6.3943618337678493e-03
         - 6.6832648967137791e-03
         - -1.2032513678504032e-02
         - -3.3425420887940307e-03
         - 4.0782583778346034e-03
         - 1.6756357421405334e-02
         - -3.1571789101110928e-02
         - 8.8913341849503284e-03
         - 1.3451672251070440e-02
         - -9.2599468059262804e-03
         - 1.0151378043647989e-02
         - 1.0385321444364146e-02
         - -1.8841151958421794e-02
         - 1.2853733216423566e-02
         - 1.7831933983320537e-02
         - 5.4891037593307872e-02
         - -1.4265178283683616e-02
         - 4.4859597766578069e-03
         - -1.4403503805994578e-02
         - -1.7916838480945184e-02
         - -1.9377549188518080e-02
         - -7.0655614741126456e-03
         - -2.1715993539752509e-02
         - 4.6931734725828038e-03
         - 8.1386141668837175e-03
         - -1.7457082645003123e-02
         - 6.3022585132183132e-03
         - 1.8278842324030476e-02
         - 1.9924332657200998e-02
         - 1.1119947723453000e-02
         - -1.8222719060707944e-02
         - 2.9027502573393142e-02
         - -2.7339745793269885e-04
         - 3.2492427102210543e-02
         - -4.2347572627617139e-03
         - 3.3919748536880401e-02
         - -5.2274170643033992e-03
         - 4.9972494882714194e-03
         - -4.9175082419342091e-02
         - 9.7430311007127395e-03
         - 1.6608503369299168e-02
         - -5.1106911037771974e-03
         - -1.5467232026119122e-02
         - 4.0054071513743912e-03
         - -2.0777475113176600e-02
         - 5.5303892060014036e-03
         - -9.9791372558865363e-04
         - 6.7364239146113112e-03
         - -1.2433866728013875e-02
         - -2.8254361747011979e-02
         - -2.3664332398512502e-03
         - 9.8375983184758702e-03
         - -4.2479799967078992e-02
         - 3.5469703355318180e-03
         - -2.5621336247896869e-03
         - 2.2081256087805215e-02
         - -2.4544332108040887e-02
         - 1.1121787346582210e-02
         - 1.0996102834488070e-02
         - -1.1770720155196029e-03
         - 9.2399952223391254e-03
         - 9.2207053137207187e-03
         - -5.2395233457886090e-03
         - -6.8578494893084074e-04
         - 1.2842720803107043e-02
         - 3.6576188680091014e-02
         - -1.3902020682044698e-02
         - -2.4167762052056365e-02
         - -1.1482878103044871e-02
         - -2.5102836936765155e-02
         - -1.5453062235534510e-02
         - -3.1626820069947962e-03
         - -2.3341004275370388e-02
         - 1.4245564210059201e-02
         - 1.0047150089101755e-02
         - -1.1037607540842723e-02
         - 8.5322799858563898e-03
         - 1.7354059710161986e-02
         - 1.6355802934270344e-02
         - 1.2127436270204451e-02
         - -1.6886933298073333e-02
         - 1.3190805819841946e-02
         - -2.7590785604163647e-03
         - 3.0510571184643245e-02
         - -4.4049842684440801e-03
         - 2.2041003279950386e-02
         - -5.8302310139254944e-03
         - 1.8005398020917579e-02
         - -3.0227280785378573e-02
         - 7.0428054093827517e-03
         - 6.4682061371111651e-03
         - -1.6089962194608233e-03
         - -2.4973785347939457e-02
         - -6.8441489237531673e-03
         - -1.8003897428043803e-02
         - 5.2825804182440672e-03
         - 1.6288381247786993e-04
         - 1.2374855539962508e-02
         - -8.2669881803432797e-03
         - -1.6350605721522842e-02
         - -5.3031662316065783e-03
         - 2.2725452319207109e-03
         - -3.8398486923551141e-02
         - 4.8791583221936665e-03
         - -2.8121396943789805e-03
         - 1.6434036556861480e-02
         - 1.3372747018082986e-04
         - -9.7343790572262390e-03
         - 7.6144370014433779e-04
         - -1.1158060572895403e-03
         - -4.3762937114916727e-03
         - 1.3394384325348652e-03
         - 6.6804122886170861e-03
         - -2.7834114158891629e-03
         - -3.0323265390753552e-03
         - -3.8280792994137306e-03
         - -2.2304351517622644e-03
         - -2.9019040310444416e-02
         - 3.9457145617694169e-03
         - -4.7018955637320888e-04
         - 4.4596041341543342e-03
         - 4.0980414585339321e-04
         - 2.4992863286072641e-03
         - -4.7500908274020872e-03
         - 1.2045597199555184e-03
         - 3.0850702775366812e-03
         - -6.4294786400528030e-03
         - 1.3185792426262956e-03
         - -1.1731163379629084e-03
         - -3.7295238772512701e-03
         - -1.1611123053961875e-03
         - -9.3644043229983032e-03
         - 1.0697595933928808e-03
         - 4.2271040521228501e-03
         - -3.3197694571133344e-03
         - 6.1738568443238480e-03
         - 4.6951238291046690e-04
         - -6.4135888687059080e-03
         - -3.9998689454882139e-03
         - -2.3720651124194982e-03
         - 4.7992980422980466e-03
         - -4.1832095856217475e-03
         - -1.1790996498714497e-02
         - 7.4390397218897036e-04
         - 2.0367335161499229e-03
         - 4.8571178438188414e-03
         - -4.3337805386397020e-03
         - -2.6961524108737585e-03
         - 4.1101439919849284e-03
         - 9.2173309855560163e-03
         - 2.6628705689101168e-03
         - -8.0837524613051718e-04
         - 1.2152194008344394e-02
         - 4.2349300156777044e-03
         - 1.1014946267554249e-03
         - 9.4060953259090293e-06
         - -4.5849886580202719e-03
         - -4.5864388113440310e-03
         - 5.0032973936552207e-03
         - 6.2587238751443111e-03
         - -1.4829212857848891e-03
         - -3.8758037265748347e-03
         - 7.6790254395785983e-03
         - -6.9754587777967831e-04
         - -5.9642226486889905e-03
         - -1.6428904918938687e-02
         - 7.8810842507795679e-05
         - 4.9634547709219738e-03
         - -3.3544785887842828e-03
         - -2.8256829003498466e-04
         - 1.7998150547831400e-03
         - -4.2835900151177016e-04
         - -6.8663403480189534e-03
         - 4.8311941068136701e-04
         - -7.9482419181971459e-04
         - 9.3722821094999659e-05
         - 1.9732278230313320e-03
         - -5.4664188375719812e-03
         - -2.8609201634119006e-03
         - 1.0219394772603453e-03
         - 2.5861062029413793e-03
         - -1.9884443396099632e-03
         - 2.3588735561667737e-03
         - -9.0140333022014976e-03
         - 7.2844541555324134e-03
         - 2.8696795098884075e-03
         - 5.3943286347076947e-03
         - 1.1370482810406656e-02
         - 6.1157295973139382e-03
         - -4.4879998445924120e-03
         - -7.6575384513764650e-03
         - 3.7110696714673084e-03
         - -3.7259040411647640e-04
         - 5.6131466828246513e-03
         - 6.6642400590098396e-03
         - -2.5195160465497869e-03
         - -2.5625722882185388e-03
         - 4.4016769089745911e-03
         - 2.6146416967087124e-03
         - -1.9072774453641188e-03
         - -5.4554687815731363e-04
         - -4.2589010992210253e-03
         - 1.8512191040398300e-02
         - -5.3317662216348870e-04
         - -1.1011012965035662e-03
         - -6.1273068337635008e-03
         - -4.0288070289628899e-03
         - -6.6895021177494954e-04
         - 5.8780405158753409e-03
         - 4.1612966144662826e-03
         - -2.3479424363551105e-03
         - 3.5408985754942159e-03
         - 2.3724944344161793e-05
         - 6.4856084194650334e-03
         - -1.1370271590569305e-03
         - -2.0732545900471015e-02
         - -1.3573562726932205e-03
         - 5.2549627662210802e-02
         - -5.3311973851858903e-03
         - 4.9631208260154120e-03
         - 8.8725986227752764e-04
         - 4.2641964783123364e-03
         - -9.4915828818769460e-04
         - 1.8729425044048558e-03
         - 4.5140586030681454e-03
         - 3.6942359976570344e-03
         - 3.5472771502670190e-03
         - 4.2073168068341741e-03
         - -2.1658464768518596e-03
         - -1.5208983948757759e-03
         - -9.8438202240263457e-03
         - 7.0205688276669485e-03
         - -4.2707261175904719e-03
         - 1.3962256063316837e-03
         - 6.2179983323863326e-03
         - 5.3125128800926471e-04
         - 3.4977981243895198e-04
         - 1.6875507039163993e-02
         - 1.7024153235686318e-03
         - -4.1118153584332236e-03
         - 2.9905381603750484e-03
         - 5.0777765070748725e-03
         - 4.4599470836428803e-04
         - -5.7384094444763104e-04
         - -1.7312379668089236e-03
         - -2.9184519114931621e-03
         - -1.2134618481327577e-03
         - -2.9244862379906185e-03
         - 1.2613219226687660e-03
         - -9.4546331718898258e-03
         - -5.8887864819373728e-03
         - 4.7577462726961289e-03
         - 2.5217387356233859e-03
         - 6.0297240699347266e-03
         - -7.9733131909707458e-04
         - 5.6832110427722444e-04
         - 6.1707021912664915e-03
         - 1.8010021085626282e-03
         - -4.6019428822114232e-03
         - -2.9280952011157841e-03
         - -4.3574310473731999e-04
         - 1.6598129316025406e-03
         - -2.1908073004344181e-03
         - 1.2931331434539982e-03
         - 7.8508182558347933e-03
         - -1.1505210576196840e-02
         - -2.3143886307444698e-03
         - 5.0863534307348024e-02
         - 1.6948084763597604e-03
         - -6.0108621797030377e-03
         - -6.2248144925136778e-03
         - -5.9022409801988366e-03
         - 5.9156959679861386e-03
         - -1.3459456602150325e-03
         - -3.4840195123738641e-04
         - -3.2934698383283605e-03
         - 4.9295000922079616e-03
         - -5.2318797243327319e-03
         - 1.4458894317372554e-03
         - -4.2705038575118989e-04
         - -6.3624248678660249e-03
         - -4.5278155459315475e-03
         - -3.3522806531629205e-03
         - -5.0567608221328180e-03
         - -1.4099196318414376e-03
         - -2.7776665490371407e-03
         - -2.0354737941146901e-03
         - 2.1677178901591322e-03
         - 7.9242047073698543e-03
         - -2.9210373753161861e-03
         - -4.4527805339016421e-04
         - -4.5277293722391183e-03
         - 1.2870996029070202e-02
         - -5.7719277397405662e-03
         - -3.3952705882550624e-03
         - 4.9279701962270809e-03
         - -5.2204277897629370e-03
         - 5.2077767343024651e-03
         - -6.4982548193788670e-03
         - -3.5380625768261778e-03
         - 7.2583747674166124e-04
         - -1.2251739256380128e-03
         - 1.0316500531972394e-02
         - 4.1006894110294078e-03
         - -2.2203396288746776e-03
         - -1.5970342094597343e-03
         - 1.3319381687986973e-02
         - 9.4324185364411681e-04
         - -6.1538617032220371e-03
         - -1.4031066812390228e-03
         - 4.2687689383390853e-03
         - 7.4502780732239762e-05
         - 3.3189421100130630e-03
         - -2.7161262191818690e-03
         - -3.5094528329703906e-05
         - -1.0180676719988466e-02
         - 9.8256414082709756e-03
         - -3.6616045446740270e-02
         - -7.1874175491537864e-04
         - -3.5462739390435135e-04
         - -8.7705140180197256e-04
         - 3.8175786949469670e-03
         - 1.1840306739213128e-02
         - 7.5522020328590940e-04
         - -7.9538954158721775e-04
         - 3.4791192673503395e-03
         - -2.5629497105455127e-03
         - -5.6903348703675168e-03
         - -8.3719310074579362e-03
         - -7.6240542650003922e-03
         - 1.1933051040427517e-02
         - 2.2813521014339250e-03
         - 5.0485867794273862e-03
         - -1.6142852544759324e-02
         - -2.5057662832018812e-03
         - -1.6921185562991277e-02
         - -3.8022929355076189e-03
         - -9.0054793040808042e-03
         - 2.8630791937053725e-02
         - 2.7599632747486343e-03
         - -2.6162170362685746e-03
         - 7.8596456066911931e-04
         - 8.8479719601958478e-03
         - 1.4736929127601806e-03
         - -4.2606056129996447e-03
         - -8.1588784518451445e-04
         - 2.4263101177128561e-03
         - -3.6134929547724940e-03
         - -2.2810425047019695e-03
         - 4.2483001753068584e-03
         - 6.3764657874009861e-05
         - 2.3807756194679291e-03
         - 4.0727418969461179e-02
         - 2.4518414409287230e-03
         - -2.4998368520238526e-03
         - -3.2375084985982023e-03
         - -1.0438945588724553e-03
         - 1.2608191519978156e-02
         - 1.3702918401025934e-03
         - 4.2780885558271475e-03
         - 5.4266913911141862e-03
         - 7.7758140075060572e-04
         - -6.6738384735656178e-03
         - 2.2357872449347391e-03
         - 4.3891032049818640e-03
         - 1.8249961308512433e-02
         - -8.7004865611800975e-03
         - -2.4088679248581532e-02
         - -4.6316964085312412e-03
         - -1.0050552041946569e-02
         - -2.0676024500658927e-04
         - 1.7682532722644055e-03
         - -4.8286026135417144e-03
         - 1.2782347903249371e-03
         - -2.7576089884312092e-03
         - -8.9960872619137770e-03
         - -2.1370150193388239e-03
         - 4.3728152395341394e-03
         - -1.6116175361058059e-03
         - 7.7775862155449946e-03
         - -2.0750009950062888e-03
         - 1.5721463803434737e-02
         - 5.1866685177902805e-03
         - 2.1384851520133362e-03
         - -4.2259923619688824e-03
         - -1.7462786191571453e-04
         - -1.3747367307752254e-03
         - -1.2073447765810602e-02
         - -9.1293498460042338e-03
         - 3.3879782346852307e-03
         - 3.5315649226385533e-03
         - -4.7619984698205270e-03
         - -6.5119600868986036e-03
         - -2.9963840777695095e-03
         - -7.6646168971165451e-03
         - 5.0897202140488722e-03
         - -1.7027497557819563e-03
         - -5.4179485890118787e-04
         - -3.0161394337656984e-04
         - -2.8385481700365532e-03
         - -1.1952293001373966e-03
         - 1.4007232228598250e-03
         - 1.1535327664428682e-02
         - 2.6814284898821947e-03
         - 5.2971729299774286e-03
         - -5.9692719491180211e-04
         - 4.1110575030620265e-03
         - -1.5617956027729986e-02
         - -1.4059050928745466e-03
         - -2.9041909359687861e-04
         - -1.5243874358888178e-03
         - -4.5790159202776601e-03
         - 6.3839972310425763e-03
         - -3.4280164610724882e-03
         - -9.9460587941096017e-03
         - 7.8051120116685001e-04
         - 4.6355238232240695e-03
         - -7.9465246673214349e-02
         - 3.8830740180351058e-03
         - 6.8940919415943639e-03
         - 7.0358658977016774e-03
         - 1.9496498397500416e-03
         - 1.1836235058475052e-02
         - -9.6900068218396017e-04
         - -8.5124362213216502e-03
         - 5.6589888357230006e-03
         - -5.6095197054127841e-03
         - -1.1695305062623090e-02
         - -6.2141672812493400e-04
         - 3.6255787579334239e-05
         - 8.4068776611696365e-03
         - -8.6687528667036013e-03
         - 1.0878522053713270e-03
         - -1.3944539287414919e-02
         - -3.2334014265983130e-03
         - -9.5041893134795528e-03
         - -4.1343336534837294e-03
         - -3.8884330354264446e-02
         - 1.4087433930503242e-02
         - -4.0516135156003887e-03
         - -9.7047444143095289e-03
         - -1.2141756598548527e-03
         - 1.2188682211846789e-02
         - -2.2832362490447077e-03
         - 1.2057934671882088e-03
         - -4.2029064875647023e-05
         - -7.7084242858400638e-04
         - -2.6138551930793299e-03
         - -3.5718606282278257e-03
         - 8.0371158282451678e-03
         - 7.2205213522195163e-03
         - -6.0179675091884145e-03
         - 4.9428904220146758e-02
         - -1.4432675333065777e-03
         - 8.3655285073125137e-03
         - -9.2271713723342703e-03
         - -5.1134717166394499e-02
         - 2.3852058262096763e-02
         - 1.2675220408362909e-02
         - -6.7805949701106021e-03
         - 5.1929382026067762e-03
         - 1.6192831554774124e-02
         - -2.5745008714270549e-02
         - 1.5819074340701775e-02
         - 2.6117441790194193e-02
         - 6.0920582922727382e-02
         - -1.3137424310243779e-02
         - 1.5889276827357003e-02
         - -1.2675233868021355e-02
         - -3.6120638211210178e-02
         - -2.7953534794419522e-02
         - -1.0960579496767214e-02
         - -4.4861250834838093e-02
         - 1.2507504080854355e-02
         - 2.2963309484102273e-02
         - -2.7412192596391841e-02
         - 1.5404110781271943e-02
         - 3.7697289374531803e-02
         - 2.7381506956126726e-02
         - 2.2791470216118350e-02
         - -3.4112781660786129e-02
         - 4.3961747193848391e-02
         - -7.9144939029433346e-03
         - 4.5781014262841251e-02
         - -3.4451467032740493e-03
         - 4.0642931886096786e-02
         - -6.9909791863094258e-03
         - 2.3829003502363444e-02
         - -5.3633041961552275e-02
         - 1.6220287373797354e-02
         - 2.0914751193256944e-02
         - -1.0865767073030472e-02
         - -3.3456715987499108e-02
         - -6.4166968281644567e-03
         - -3.2032637994873790e-02
         - 5.9312937825730903e-03
         - 2.2372462204703703e-03
         - 1.1819956814544130e-02
         - -1.2190051798615358e-02
         - -3.3313302600769777e-02
         - -1.2782424874670878e-02
         - 1.5252826658926268e-02
         - -6.8526872506860931e-02
         - 5.1289485121511543e-03
         - -4.1397481073015023e-03
         - 3.6658466982794326e-02
         - 9.4643684363411463e-03
         - -1.0243886803241946e-02
         - -5.8526782736551619e-03
         - 3.3950944806140628e-03
         - -3.2284248845068039e-03
         - -6.4353279458337423e-03
         - 5.4536185691772820e-03
         - -2.1333047373746487e-03
         - -2.7911018802096134e-03
         - -2.2149246596043025e-02
         - -4.3175374608359817e-04
         - -6.9424519736957804e-02
         - -4.9626002139884699e-04
         - 1.0050572950339381e-02
         - 1.0078056597673279e-02
         - -2.8421122472838145e-04
         - 4.1920581035871235e-03
         - 2.3333517028830261e-03
         - -8.5538078362358740e-03
         - 3.8702540459977343e-03
         - -9.1180276136615789e-03
         - 5.6609770751297355e-04
         - 4.9527267697502112e-04
         - -1.4040022831440331e-03
         - 9.1685247786844684e-03
         - -2.5579747882495046e-02
         - 1.3886330662900696e-03
         - 1.2767787210811146e-03
         - -4.1971031398002059e-03
         - -1.0724895895571934e-02
         - 2.0549296883474789e-03
         - -1.6233042339755491e-02
         - 1.6150094241335719e-02
         - -3.9197076695752396e-03
         - 3.0880174289490353e-03
         - -2.0296665870414054e-03
         - 5.2964370036880206e-03
         - 9.3844427211405533e-04
         - 1.3694036504610719e-02
         - 4.9216748074702851e-03
         - -3.6145314617180288e-04
         - -4.1195958872042304e-03
         - 8.7482558400264526e-04
         - 8.9270090991859213e-03
         - 2.2442964950867975e-04
         - -7.4853410793522925e-03
         - -3.3089476635201260e-03
         - 3.6061929164266553e-03
         - 3.6401323922083651e-03
         - -1.9289836124171320e-03
         - 1.1502213821565160e-02
         - -1.1545560971419020e-02
         - -2.4170032759006146e-04
         - 3.5073475359994602e-03
         - 1.9195138573129132e-03
         - 1.8188179551314530e-03
         - 6.1248632627316525e-04
         - 2.2132312585679967e-04
         - -1.2926713241170644e-02
         - -1.7022633740767977e-02
         - 7.4675836400701174e-03
         - -7.9774828329891162e-02
         - 1.0302236718472838e-02
         - 3.8687272398151081e-03
         - 3.2806715534871153e-03
         - -2.6555269870172705e-03
         - 4.0066371245742706e-03
         - 1.8247045439292496e-03
         - -2.0968991104263080e-03
         - 1.2975582191785091e-02
         - 1.2737670526779936e-03
         - -1.8980137318538718e-04
         - -3.1156519730553009e-03
         - -3.1455059147525626e-03
         - 3.2265899400448122e-03
         - -2.1238874660185411e-02
         - 3.1523649639588957e-03
         - -3.6601369650237497e-03
         - -1.3868826425360269e-03
         - -9.5929862782612660e-03
         - 2.0464669526749474e-03
         - -9.5820462441035675e-03
         - 2.4664492434697753e-02
         - -5.2019236891772342e-03
         - -6.4013009550491252e-03
         - -2.8646231316405190e-03
         - -4.5539279839537979e-03
         - 2.7778604197761401e-03
         - 5.2067855274792662e-03
         - -5.3297497129392970e-03
         - 8.2259522601150648e-03
         - -3.9689106423132893e-03
         - 9.2942604249923004e-03
         - 4.4965300070661587e-03
         - -2.1059976991084466e-03
         - -2.0010899669277477e-03
         - 3.0058486492749458e-02
         - -4.3113348523133527e-03
         - -4.4071779030587319e-03
         - -1.3622370745121321e-02
         - -3.0501223634413373e-02
         - 4.5451474728229625e-03
         - 4.8654544961127949e-03
         - -7.2464166051991689e-03
         - 4.7143385048877681e-03
         - 9.3249705171467613e-03
         - -7.6861296700869407e-03
         - 4.7663305304518630e-03
         - 1.6356371195963951e-02
         - 1.0727675727845458e-02
         - -8.0712222972956129e-03
         - -1.1932387665517801e-02
         - -4.5553799547769190e-03
         - -2.2250709916619805e-02
         - -9.5633468583230519e-03
         - -1.0641891107954604e-02
         - -2.8929505408322165e-02
         - 7.3032680041052577e-03
         - 1.7371319225973750e-02
         - -1.8420418844254920e-02
         - 7.9521202199178929e-03
         - 1.4232903203453206e-02
         - 9.6927399158599648e-03
         - 7.5686681870181212e-03
         - -2.3356581277582510e-02
         - 3.1193697662886981e-02
         - 1.0302846166728961e-03
         - 1.2800195566548269e-02
         - -1.3179470369621893e-03
         - 1.9828341341820009e-02
         - -6.0549940659147784e-04
         - 2.0843970151020744e-02
         - -1.8790606568201328e-02
         - 5.4894808899262331e-03
         - 9.2388701398617486e-03
         - 8.8134760139018384e-04
         - -3.4840584513947156e-02
         - 3.1135492673454875e-03
         - -1.8443394776543380e-02
         - 4.3835465490439937e-03
         - 3.5580393006778960e-03
         - 1.1846670410894536e-02
         - -8.1878958253778257e-03
         - -1.9937957514175916e-02
         - 1.5853680373479149e-03
         - 1.2638865921780597e-02
         - 4.6319904146598862e-03
         - 8.5038676216218703e-03
         - -2.2078534161309956e-03
         - 1.3083279706927936e-02
         - 6.6423325444617482e-03
         - -3.1312448942930897e-03
         - 2.2508552921121409e-03
         - -1.9096493440816855e-03
         - -2.7670274590332659e-03
         - -1.3429236430320796e-03
         - -1.8057386947013588e-03
         - 2.9066888726454465e-03
         - 5.0692631417454878e-03
         - -1.0111185757390173e-02
         - -6.6131740340159171e-03
         - 5.2517957390285239e-02
         - -5.4362011564761401e-03
         - -3.9667750880011533e-04
         - 4.1761487937050819e-03
         - -3.6811485467939825e-03
         - -7.7321297910720992e-03
         - -3.7776353804291163e-03
         - -1.5593761581671486e-03
         - -3.5841811699461063e-03
         - -4.2827475071069050e-03
         - 7.7958879288562571e-03
         - -2.4803811814781552e-03
         - -3.5972195403206784e-03
         - -8.1687792598798652e-03
         - 1.2676768416393415e-03
         - 3.8164520268324240e-03
         - -5.7648837375728658e-03
         - 3.1742397269492514e-03
         - -4.8018405434611545e-03
         - -3.2385114264583774e-04
         - 9.6983109772193054e-03
