%YAML:1.0
---
opencv_ml_ann_mlp:
   format: 3
   layer_sizes: [ 1024, 50, 2 ]
   activation_function: SIGMOID_SYM
   f_param1: 6.6666666666666663e-01
   f_param2: 1.7159000000000000e+00
   min_val: -9.4999999999999996e-01
   max_val: 9.4999999999999996e-01
   min_val1: -9.7999999999999998e-01
   max_val1: 9.7999999999999998e-01
   training_params:
      train_method: BACKPROP
      dw_scale: 1.0000000000000000e-03
      moment_scale: 0.
      term_criteria:
         epsilon: 1.0000000000000001e-01
         iterations: 100
   input_scale:
      - 2.6168159020738924e+00
      - -1.3229102443943579e+00
      - 2.6078903598213157e+00
      - -1.3241573583771424e+00
      - 2.6014759154409379e+00
      - -1.3213131702348362e+00
      - 2.5957769143306986e+00
      - -1.3200776063523598e+00
      - 2.5877712248344018e+00
      - -1.3202399067331880e+00
      - 2.5812461577003196e+00
      - -1.3190800198532771e+00
      - 2.5765947419519284e+00
      - -1.3211800374750948e+00
      - 2.5711930175130031e+00
      - -1.3249017964884842e+00
      - 2.5680166359497689e+00
      - -1.3240391060474750e+00
      - 2.5745517441777168e+00
      - -1.3307277466156713e+00
      - 2.5755263320869117e+00
      - -1.3304178134292906e+00
      - 2.5782111515201169e+00
      - -1.3286950144297385e+00
      - 2.5739631886029337e+00
      - -1.3256802360252020e+00
      - 2.5730013446455424e+00
      - -1.3238522986621448e+00
      - 2.5747145889836918e+00
      - -1.3240554102049600e+00
      - 2.5768692001134839e+00
      - -1.3226567596098004e+00
      - 2.5739090273514580e+00
      - -1.3191785961366249e+00
      - 2.5690658557689825e+00
      - -1.3165417620335162e+00
      - 2.5725803301739929e+00
      - -1.3186427909070726e+00
      - 2.5794691203442608e+00
      - -1.3133670463761504e+00
      - 2.5811755278288717e+00
      - -1.3060263130224936e+00
      - 2.5840069030536483e+00
      - -1.3051338334717504e+00
      - 2.5929230559125735e+00
      - -1.3027638324905242e+00
      - 2.5991921132736064e+00
      - -1.3023479913965501e+00
      - 2.6056742028456830e+00
      - -1.2998906720537737e+00
      - 2.6181926876790156e+00
      - -1.3010408964883324e+00
      - 2.6254117588003325e+00
      - -1.2997665139208530e+00
      - 2.6302621814627054e+00
      - -1.2972150296019258e+00
      - 2.6365412089202502e+00
      - -1.2916319120689852e+00
      - 2.6503225505635548e+00
      - -1.2903479842543553e+00
      - 2.6621597598073610e+00
      - -1.2907515465950783e+00
      - 2.6693063335287368e+00
      - -1.2856511824791088e+00
      - 2.6185990598006974e+00
      - -1.3262778553284331e+00
      - 2.6090266847012695e+00
      - -1.3273167434257991e+00
      - 2.5992259941984046e+00
      - -1.3262721506017066e+00
      - 2.5896872987683546e+00
      - -1.3229044184166372e+00
      - 2.5796585240904784e+00
      - -1.3224683664606516e+00
      - 2.5752388689900658e+00
      - -1.3227275247029759e+00
      - 2.5706907709096880e+00
      - -1.3253454002089522e+00
      - 2.5696780110562560e+00
      - -1.3272021655604465e+00
      - 2.5680004194590134e+00
      - -1.3240980076000659e+00
      - 2.5667364252184290e+00
      - -1.3288013163988646e+00
      - 2.5700917909698391e+00
      - -1.3344705358512055e+00
      - 2.5735784693821642e+00
      - -1.3355654115199616e+00
      - 2.5685041084281979e+00
      - -1.3307440191916036e+00
      - 2.5644949514167470e+00
      - -1.3249655678993044e+00
      - 2.5671034915401370e+00
      - -1.3249547455206812e+00
      - 2.5684441067086032e+00
      - -1.3238750076056069e+00
      - 2.5725655654046280e+00
      - -1.3240520394660122e+00
      - 2.5698186320338552e+00
      - -1.3208707574396996e+00
      - 2.5732746524729722e+00
      - -1.3206084575866388e+00
      - 2.5814600090104407e+00
      - -1.3171675874807951e+00
      - 2.5831144001886082e+00
      - -1.3109804511681948e+00
      - 2.5864836174995922e+00
      - -1.3105282677619945e+00
      - 2.5926773844225472e+00
      - -1.3071184259053348e+00
      - 2.5957746101111874e+00
      - -1.3031695252141906e+00
      - 2.6057375398593954e+00
      - -1.3032965567791077e+00
      - 2.6101173054488718e+00
      - -1.2999046347902055e+00
      - 2.6168245893004318e+00
      - -1.2994413832628045e+00
      - 2.6222415852056740e+00
      - -1.2983811376643957e+00
      - 2.6372977871049348e+00
      - -1.2977469562755652e+00
      - 2.6503387049202876e+00
      - -1.2935606164018987e+00
      - 2.6607316739362425e+00
      - -1.2934804623338259e+00
      - 2.6657540170105234e+00
      - -1.2875241031934552e+00
      - 2.6155485037837756e+00
      - -1.3241125924622275e+00
      - 2.6056073389453216e+00
      - -1.3293216039654598e+00
      - 2.5925273501021788e+00
      - -1.3288855827623700e+00
      - 2.5854645764223361e+00
      - -1.3275983909187559e+00
      - 2.5782436868422356e+00
      - -1.3284407473815947e+00
      - 2.5748646987514308e+00
      - -1.3307827127602221e+00
      - 2.5708301304080754e+00
      - -1.3333820409999908e+00
      - 2.5665546785091147e+00
      - -1.3308302533222873e+00
      - 2.5628820641499588e+00
      - -1.3273179889895750e+00
      - 2.5621638918529555e+00
      - -1.3320992571998587e+00
      - 2.5667922452047489e+00
      - -1.3392686875738324e+00
      - 2.5683021888027042e+00
      - -1.3387873370372045e+00
      - 2.5618916239037723e+00
      - -1.3332614857404510e+00
      - 2.5622549483891319e+00
      - -1.3293065723354311e+00
      - 2.5584628970620136e+00
      - -1.3271110904352974e+00
      - 2.5616837500163152e+00
      - -1.3299248847306688e+00
      - 2.5668442937761244e+00
      - -1.3285324558869207e+00
      - 2.5699248158435166e+00
      - -1.3267251930039112e+00
      - 2.5712743317953564e+00
      - -1.3224409296886153e+00
      - 2.5768804811346371e+00
      - -1.3190314091666548e+00
      - 2.5838797626294583e+00
      - -1.3175583378109490e+00
      - 2.5861841761593438e+00
      - -1.3137416463623959e+00
      - 2.5866526838704917e+00
      - -1.3103802718461828e+00
      - 2.5895895151113297e+00
      - -1.3078732553999404e+00
      - 2.6016103609527619e+00
      - -1.3067688784776432e+00
      - 2.6041507769296945e+00
      - -1.3038347927001157e+00
      - 2.6082431097092984e+00
      - -1.3023436144540514e+00
      - 2.6220940275710229e+00
      - -1.3016614384093830e+00
      - 2.6333215720777758e+00
      - -1.3002917876554012e+00
      - 2.6488937911652841e+00
      - -1.2973378206342105e+00
      - 2.6569012039282445e+00
      - -1.2956392767314051e+00
      - 2.6638879285364712e+00
      - -1.2887636937693456e+00
      - 2.6140858914660581e+00
      - -1.3267040540344244e+00
      - 2.5990965458884236e+00
      - -1.3290537058920950e+00
      - 2.5918621149809020e+00
      - -1.3311743175484216e+00
      - 2.5856831888997096e+00
      - -1.3327705082161154e+00
      - 2.5785341798608665e+00
      - -1.3327291378446924e+00
      - 2.5736347290688477e+00
      - -1.3358758834117053e+00
      - 2.5682360189040301e+00
      - -1.3387682937299643e+00
      - 2.5626391853080071e+00
      - -1.3359585303638311e+00
      - 2.5602827208670846e+00
      - -1.3337915226694377e+00
      - 2.5579885256434931e+00
      - -1.3381844621243428e+00
      - 2.5573188958262900e+00
      - -1.3387643441239983e+00
      - 2.5598131098300354e+00
      - -1.3380370713811076e+00
      - 2.5592157762354555e+00
      - -1.3357547474870000e+00
      - 2.5563963058111758e+00
      - -1.3327777108691616e+00
      - 2.5530753091166720e+00
      - -1.3315047377485496e+00
      - 2.5543177815956057e+00
      - -1.3334861511313949e+00
      - 2.5602992866136511e+00
      - -1.3326187710741397e+00
      - 2.5625319602346637e+00
      - -1.3280787142064616e+00
      - 2.5672574886324346e+00
      - -1.3263721319220483e+00
      - 2.5746385360983655e+00
      - -1.3246271276498232e+00
      - 2.5810918348972276e+00
      - -1.3222995980707943e+00
      - 2.5840389434898579e+00
      - -1.3165992431075400e+00
      - 2.5792126173647323e+00
      - -1.3116802879498961e+00
      - 2.5855401567810188e+00
      - -1.3131797372529928e+00
      - 2.5903618416896994e+00
      - -1.3086279530974323e+00
      - 2.5935552163532996e+00
      - -1.3073219202741144e+00
      - 2.6010806108026907e+00
      - -1.3073760036661357e+00
      - 2.6134501017190144e+00
      - -1.3020639638476499e+00
      - 2.6253957801995265e+00
      - -1.2999415408586705e+00
      - 2.6386607261610489e+00
      - -1.2998325568146960e+00
      - 2.6439568637002857e+00
      - -1.2965106096547254e+00
      - 2.6549730442268586e+00
      - -1.2901305717006215e+00
      - 2.6094973643249366e+00
      - -1.3279933186255630e+00
      - 2.6004195108069852e+00
      - -1.3322220973209495e+00
      - 2.5911432628250233e+00
      - -1.3320685163829211e+00
      - 2.5886774469767495e+00
      - -1.3340885468561079e+00
      - 2.5816088418339556e+00
      - -1.3345066477334542e+00
      - 2.5723357912961871e+00
      - -1.3373501624922168e+00
      - 2.5659005710769711e+00
      - -1.3395573716585756e+00
      - 2.5612013709185044e+00
      - -1.3379953806582445e+00
      - 2.5561195059742321e+00
      - -1.3353379464190869e+00
      - 2.5539756741146209e+00
      - -1.3389192329730590e+00
      - 2.5538353689797959e+00
      - -1.3403876329479920e+00
      - 2.5540942208988522e+00
      - -1.3387315999159808e+00
      - 2.5532178695433636e+00
      - -1.3354524662967626e+00
      - 2.5517592312023760e+00
      - -1.3345657994081648e+00
      - 2.5508953901695959e+00
      - -1.3357943341266569e+00
      - 2.5529255108980977e+00
      - -1.3369300084395246e+00
      - 2.5543974802905658e+00
      - -1.3329106436414950e+00
      - 2.5568148375442297e+00
      - -1.3297023011420053e+00
      - 2.5652994497710835e+00
      - -1.3299824691040136e+00
      - 2.5706727878159650e+00
      - -1.3283360511399800e+00
      - 2.5779559356283022e+00
      - -1.3251675650063819e+00
      - 2.5822296761217354e+00
      - -1.3213746254426051e+00
      - 2.5812418823539374e+00
      - -1.3181988719208391e+00
      - 2.5854557993130420e+00
      - -1.3170654801067914e+00
      - 2.5844132338606634e+00
      - -1.3093876483312077e+00
      - 2.5890672629899401e+00
      - -1.3084130537236669e+00
      - 2.5957665076924488e+00
      - -1.3073732166493135e+00
      - 2.6088669211531421e+00
      - -1.3041034400628191e+00
      - 2.6187212354409390e+00
      - -1.2999493870823766e+00
      - 2.6297691612226015e+00
      - -1.2981617321249677e+00
      - 2.6367675379859330e+00
      - -1.2951432463213139e+00
      - 2.6474069033652574e+00
      - -1.2904991891035451e+00
      - 2.6059923590867542e+00
      - -1.3286695455666546e+00
      - 2.6022052846808617e+00
      - -1.3358940448449721e+00
      - 2.5917096900273404e+00
      - -1.3347306906512790e+00
      - 2.5890167850045560e+00
      - -1.3356102312400366e+00
      - 2.5763269869356229e+00
      - -1.3337861931435442e+00
      - 2.5677095537148906e+00
      - -1.3372339010344239e+00
      - 2.5655889052848657e+00
      - -1.3418875299533120e+00
      - 2.5628001084688012e+00
      - -1.3424689859129035e+00
      - 2.5562468676059411e+00
      - -1.3412969526524070e+00
      - 2.5514717592578555e+00
      - -1.3417392344392356e+00
      - 2.5489065666276942e+00
      - -1.3430729996545936e+00
      - 2.5527128460195843e+00
      - -1.3440004080332113e+00
      - 2.5499256719947372e+00
      - -1.3416654457272728e+00
      - 2.5490558374536003e+00
      - -1.3393251466435911e+00
      - 2.5449619812740094e+00
      - -1.3375703709026761e+00
      - 2.5470839729286907e+00
      - -1.3376638422533937e+00
      - 2.5460348262882939e+00
      - -1.3329488964836544e+00
      - 2.5531545096934734e+00
      - -1.3329749211924935e+00
      - 2.5642011133537053e+00
      - -1.3357808999801606e+00
      - 2.5682193330687642e+00
      - -1.3321917544698190e+00
      - 2.5700402984851536e+00
      - -1.3262409830621582e+00
      - 2.5773206404070597e+00
      - -1.3250431596627346e+00
      - 2.5792785555507907e+00
      - -1.3214909661407017e+00
      - 2.5863661236346904e+00
      - -1.3190789984562843e+00
      - 2.5872826298945664e+00
      - -1.3153906371028348e+00
      - 2.5921735259902046e+00
      - -1.3136827222247587e+00
      - 2.5932805440462769e+00
      - -1.3082492356180195e+00
      - 2.6028874426286626e+00
      - -1.3035214176900898e+00
      - 2.6148454064357574e+00
      - -1.3015903075909006e+00
      - 2.6240628852462473e+00
      - -1.2958246208868989e+00
      - 2.6348408585162804e+00
      - -1.2964368952062635e+00
      - 2.6436145001229905e+00
      - -1.2938953720842892e+00
      - 2.6059304943363530e+00
      - -1.3314627727573516e+00
      - 2.6009250098932082e+00
      - -1.3368814039749428e+00
      - 2.5927067156808117e+00
      - -1.3385798332120022e+00
      - 2.5845247765419557e+00
      - -1.3370819154077784e+00
      - 2.5721241179382801e+00
      - -1.3353947700479485e+00
      - 2.5661741485776228e+00
      - -1.3396005432674603e+00
      - 2.5620830099173904e+00
      - -1.3416599203392297e+00
      - 2.5603253108362272e+00
      - -1.3452786973640178e+00
      - 2.5572172370349553e+00
      - -1.3456440522327922e+00
      - 2.5524027444058435e+00
      - -1.3460498926984932e+00
      - 2.5478720799329220e+00
      - -1.3461398155036421e+00
      - 2.5502416652320865e+00
      - -1.3479696128579304e+00
      - 2.5451969891086512e+00
      - -1.3469598997112300e+00
      - 2.5448535807570702e+00
      - -1.3433152341928687e+00
      - 2.5377811764593816e+00
      - -1.3375432979428350e+00
      - 2.5425650450641903e+00
      - -1.3363700459145009e+00
      - 2.5448071976503814e+00
      - -1.3348972536237098e+00
      - 2.5522326936942719e+00
      - -1.3345812979203040e+00
      - 2.5591165909995626e+00
      - -1.3371150132470304e+00
      - 2.5623445586170939e+00
      - -1.3364326496276207e+00
      - 2.5650255197760208e+00
      - -1.3320280391188737e+00
      - 2.5716256408029055e+00
      - -1.3282454077127075e+00
      - 2.5784802202412975e+00
      - -1.3247652505973395e+00
      - 2.5877482081120982e+00
      - -1.3243624089792108e+00
      - 2.5870390447103642e+00
      - -1.3196870850769473e+00
      - 2.5921110904621525e+00
      - -1.3168783684279823e+00
      - 2.5949912663077708e+00
      - -1.3118459826133144e+00
      - 2.6010314991498147e+00
      - -1.3060724718876235e+00
      - 2.6085174912699571e+00
      - -1.3022954999506020e+00
      - 2.6195745165990862e+00
      - -1.2991205980118419e+00
      - 2.6312302885630148e+00
      - -1.2976586188108155e+00
      - 2.6408910203660572e+00
      - -1.2965362636157147e+00
      - 2.5988364814870191e+00
      - -1.3322856436690820e+00
      - 2.5954941685379800e+00
      - -1.3372278863990745e+00
      - 2.5890378724727552e+00
      - -1.3384404679768471e+00
      - 2.5783093727279316e+00
      - -1.3347770753774080e+00
      - 2.5673534873829240e+00
      - -1.3355632773415556e+00
      - 2.5703967871385562e+00
      - -1.3439559585566769e+00
      - 2.5630265752659813e+00
      - -1.3420863702601724e+00
      - 2.5598565135863032e+00
      - -1.3459117941252023e+00
      - 2.5578410460357000e+00
      - -1.3489275715747491e+00
      - 2.5524483970194742e+00
      - -1.3502864292363095e+00
      - 2.5463743897190532e+00
      - -1.3481835781494227e+00
      - 2.5468323225891889e+00
      - -1.3504328768130751e+00
      - 2.5411734142176052e+00
      - -1.3504636832120909e+00
      - 2.5409635046395076e+00
      - -1.3488409317140873e+00
      - 2.5362907206478118e+00
      - -1.3429191117977237e+00
      - 2.5394463476480116e+00
      - -1.3402677025254965e+00
      - 2.5451362648526987e+00
      - -1.3391538893067436e+00
      - 2.5459240732697381e+00
      - -1.3362050096475675e+00
      - 2.5513954235340162e+00
      - -1.3377722039636402e+00
      - 2.5576667960318624e+00
      - -1.3392667201989890e+00
      - 2.5563149702747325e+00
      - -1.3347094192254463e+00
      - 2.5643374449833964e+00
      - -1.3313840931757994e+00
      - 2.5758459095911088e+00
      - -1.3303186405241503e+00
      - 2.5839781100816652e+00
      - -1.3299365591207155e+00
      - 2.5852036524123787e+00
      - -1.3218186987469420e+00
      - 2.5891509317814920e+00
      - -1.3165770439090607e+00
      - 2.5901572246379700e+00
      - -1.3141516383252785e+00
      - 2.5953731051780635e+00
      - -1.3085339661244821e+00
      - 2.6049022635846750e+00
      - -1.3041201722786349e+00
      - 2.6138390573746668e+00
      - -1.2995637508785682e+00
      - 2.6265799231335283e+00
      - -1.2983533253290056e+00
      - 2.6396197039886986e+00
      - -1.2975841955891254e+00
      - 2.5968005312732774e+00
      - -1.3330808682183568e+00
      - 2.5942690286635202e+00
      - -1.3370454693084772e+00
      - 2.5881714026415650e+00
      - -1.3393058214670577e+00
      - 2.5748303983788410e+00
      - -1.3349716670562590e+00
      - 2.5659557214478879e+00
      - -1.3364008624132966e+00
      - 2.5645171361331016e+00
      - -1.3422336811922888e+00
      - 2.5627927031619695e+00
      - -1.3435381186216104e+00
      - 2.5524777245860610e+00
      - -1.3434372935857277e+00
      - 2.5531179288567141e+00
      - -1.3502644515768436e+00
      - 2.5530054420292121e+00
      - -1.3533188550666315e+00
      - 2.5443600647434770e+00
      - -1.3493361636163601e+00
      - 2.5421739035339055e+00
      - -1.3508655111047849e+00
      - 2.5316137572489916e+00
      - -1.3493043410172074e+00
      - 2.5319697419257223e+00
      - -1.3499170104183111e+00
      - 2.5356434602342919e+00
      - -1.3466070522860121e+00
      - 2.5375571090159013e+00
      - -1.3420832981537081e+00
      - 2.5428031116722987e+00
      - -1.3414744861367711e+00
      - 2.5429341776244723e+00
      - -1.3392500935780991e+00
      - 2.5451310848277120e+00
      - -1.3365369502516966e+00
      - 2.5497337265641451e+00
      - -1.3382586666298084e+00
      - 2.5478294283126997e+00
      - -1.3363466889635700e+00
      - 2.5591862035446371e+00
      - -1.3358855136793930e+00
      - 2.5697201924209003e+00
      - -1.3346811558457858e+00
      - 2.5769320573660535e+00
      - -1.3306774294069073e+00
      - 2.5793725253409803e+00
      - -1.3213086510908834e+00
      - 2.5863104262638390e+00
      - -1.3170603091976893e+00
      - 2.5890342122933276e+00
      - -1.3143525787501518e+00
      - 2.5935912648655171e+00
      - -1.3074355243572215e+00
      - 2.6023980622482785e+00
      - -1.3033571801528203e+00
      - 2.6116520100710088e+00
      - -1.2989715212002428e+00
      - 2.6233499580864099e+00
      - -1.2992307790750655e+00
      - 2.6357019476427608e+00
      - -1.3016860903340624e+00
      - 2.5976321474035853e+00
      - -1.3342425626660115e+00
      - 2.5933862635513867e+00
      - -1.3365703333124532e+00
      - 2.5865922356378150e+00
      - -1.3388370792470445e+00
      - 2.5751830869007777e+00
      - -1.3388906430145227e+00
      - 2.5670778704718233e+00
      - -1.3383071112371332e+00
      - 2.5639158006844442e+00
      - -1.3409421553296534e+00
      - 2.5598366091632760e+00
      - -1.3439156398414160e+00
      - 2.5470675510141274e+00
      - -1.3434909700078419e+00
      - 2.5466064268045656e+00
      - -1.3473862711405504e+00
      - 2.5482186675700733e+00
      - -1.3525099018437248e+00
      - 2.5457664127709583e+00
      - -1.3531405547148903e+00
      - 2.5367530721788736e+00
      - -1.3507255011656403e+00
      - 2.5275046810891930e+00
      - -1.3488020815693191e+00
      - 2.5279214995858323e+00
      - -1.3500557614482838e+00
      - 2.5289774789700687e+00
      - -1.3476391445025919e+00
      - 2.5314437539139538e+00
      - -1.3438188052675299e+00
      - 2.5353229278969240e+00
      - -1.3438161693968527e+00
      - 2.5346983428206999e+00
      - -1.3406260796796110e+00
      - 2.5390339634872059e+00
      - -1.3376667278339209e+00
      - 2.5447590932497439e+00
      - -1.3396445939733519e+00
      - 2.5443035776969181e+00
      - -1.3383198256069271e+00
      - 2.5540892077144224e+00
      - -1.3365762243300432e+00
      - 2.5624663522090900e+00
      - -1.3338218986411072e+00
      - 2.5709682551906914e+00
      - -1.3299128799392941e+00
      - 2.5770046595106089e+00
      - -1.3248574603276067e+00
      - 2.5863985031893257e+00
      - -1.3195081696895221e+00
      - 2.5897915002404353e+00
      - -1.3144887028847723e+00
      - 2.5958539911079921e+00
      - -1.3061792999684030e+00
      - 2.6005750671178736e+00
      - -1.3013871729859496e+00
      - 2.6096179419452512e+00
      - -1.2984726540899532e+00
      - 2.6215552689083776e+00
      - -1.3002571927284510e+00
      - 2.6341125903977654e+00
      - -1.3015886569373265e+00
      - 2.5967862790907907e+00
      - -1.3361254782208887e+00
      - 2.5919613343724484e+00
      - -1.3378678082546784e+00
      - 2.5838161462473521e+00
      - -1.3395352786038321e+00
      - 2.5765084302244770e+00
      - -1.3415558045817917e+00
      - 2.5690447300262949e+00
      - -1.3416028639903466e+00
      - 2.5627148815654968e+00
      - -1.3425018020041890e+00
      - 2.5570157241198834e+00
      - -1.3448835210038896e+00
      - 2.5459586985274445e+00
      - -1.3429370562748302e+00
      - 2.5446696986353565e+00
      - -1.3442530612438446e+00
      - 2.5422984803148627e+00
      - -1.3484585506534617e+00
      - 2.5423226310963223e+00
      - -1.3509097308700830e+00
      - 2.5317659834190991e+00
      - -1.3486615123852259e+00
      - 2.5252805765588322e+00
      - -1.3483613018662930e+00
      - 2.5235329505877169e+00
      - -1.3490756007142017e+00
      - 2.5219087163501772e+00
      - -1.3490008367085726e+00
      - 2.5245293098920412e+00
      - -1.3477320086590272e+00
      - 2.5255735306671321e+00
      - -1.3469087907922999e+00
      - 2.5294153768716763e+00
      - -1.3450236627735672e+00
      - 2.5351588494794677e+00
      - -1.3413328208284145e+00
      - 2.5396268349131335e+00
      - -1.3402387970084706e+00
      - 2.5411021494837001e+00
      - -1.3379212198122072e+00
      - 2.5514847090491282e+00
      - -1.3380627348411283e+00
      - 2.5614583222003211e+00
      - -1.3366128967122639e+00
      - 2.5661427580325404e+00
      - -1.3326317607882743e+00
      - 2.5707133178236288e+00
      - -1.3273707533693062e+00
      - 2.5801403764538868e+00
      - -1.3196031102419679e+00
      - 2.5835103425188124e+00
      - -1.3126144389165135e+00
      - 2.5906981507539824e+00
      - -1.3070772508672539e+00
      - 2.5960827585516868e+00
      - -1.3028882536754365e+00
      - 2.6060732592170486e+00
      - -1.3002820630490581e+00
      - 2.6174029784351842e+00
      - -1.2991067704163102e+00
      - 2.6269825073652737e+00
      - -1.2964143304603533e+00
      - 2.5981402417199115e+00
      - -1.3399992552544411e+00
      - 2.5954961446773681e+00
      - -1.3427743847848079e+00
      - 2.5860434129076002e+00
      - -1.3433764616650330e+00
      - 2.5772018145323679e+00
      - -1.3419514143027855e+00
      - 2.5685726973059251e+00
      - -1.3433371071941813e+00
      - 2.5625237033589512e+00
      - -1.3453456853617507e+00
      - 2.5511921207837109e+00
      - -1.3436568607251449e+00
      - 2.5464476333340262e+00
      - -1.3441381142628672e+00
      - 2.5481289017575448e+00
      - -1.3459289940645591e+00
      - 2.5403778445798828e+00
      - -1.3459067028644462e+00
      - 2.5339562065434471e+00
      - -1.3456193636322431e+00
      - 2.5250465905036146e+00
      - -1.3444207019562198e+00
      - 2.5229642756874733e+00
      - -1.3471377532393798e+00
      - 2.5258412677524751e+00
      - -1.3512442305399710e+00
      - 2.5196216283571835e+00
      - -1.3497495095665657e+00
      - 2.5177684815130275e+00
      - -1.3484607512903641e+00
      - 2.5220275367063429e+00
      - -1.3496447413078512e+00
      - 2.5271562229993449e+00
      - -1.3472391518219038e+00
      - 2.5305682067810062e+00
      - -1.3439138516173603e+00
      - 2.5338033088705783e+00
      - -1.3416945584360338e+00
      - 2.5389641578512698e+00
      - -1.3401913503283140e+00
      - 2.5456557618930429e+00
      - -1.3401004475096554e+00
      - 2.5534606441694625e+00
      - -1.3351569921627422e+00
      - 2.5605266949526158e+00
      - -1.3310464241701203e+00
      - 2.5676394910235572e+00
      - -1.3289772884619238e+00
      - 2.5727950793097079e+00
      - -1.3221191080298476e+00
      - 2.5789544919876333e+00
      - -1.3134216981682805e+00
      - 2.5862072419875424e+00
      - -1.3081603484049549e+00
      - 2.5919613278393006e+00
      - -1.3047778115038049e+00
      - 2.6040442656084606e+00
      - -1.3035126340892587e+00
      - 2.6145778586421677e+00
      - -1.3006324619945051e+00
      - 2.6244422213135477e+00
      - -1.2978782339540567e+00
      - 2.5969948296304888e+00
      - -1.3401369215721899e+00
      - 2.5951436198329878e+00
      - -1.3426520307603196e+00
      - 2.5865436024297912e+00
      - -1.3452196083751717e+00
      - 2.5787545409198227e+00
      - -1.3465200942199196e+00
      - 2.5677440917914800e+00
      - -1.3440054261361771e+00
      - 2.5599218016159391e+00
      - -1.3431751850603930e+00
      - 2.5507620568328924e+00
      - -1.3417597009422702e+00
      - 2.5426272876977909e+00
      - -1.3437720170007978e+00
      - 2.5455372515535086e+00
      - -1.3460173615655229e+00
      - 2.5396960264181505e+00
      - -1.3464753915163961e+00
      - 2.5280815342141612e+00
      - -1.3440284730296637e+00
      - 2.5232661673028427e+00
      - -1.3451306311128717e+00
      - 2.5213211934607784e+00
      - -1.3480118451825156e+00
      - 2.5218910118151370e+00
      - -1.3516801893575785e+00
      - 2.5143479604275356e+00
      - -1.3489299089858056e+00
      - 2.5099688671918003e+00
      - -1.3448411281077384e+00
      - 2.5179881686951684e+00
      - -1.3474380646090116e+00
      - 2.5203609369143098e+00
      - -1.3454089640996960e+00
      - 2.5282549303335893e+00
      - -1.3465508258773302e+00
      - 2.5273144537001371e+00
      - -1.3407561924266407e+00
      - 2.5317386952889396e+00
      - -1.3391558681383737e+00
      - 2.5411873638238318e+00
      - -1.3385323346685072e+00
      - 2.5531463364653053e+00
      - -1.3365234326790347e+00
      - 2.5586482686898440e+00
      - -1.3304375453116153e+00
      - 2.5630787568299258e+00
      - -1.3260702867677854e+00
      - 2.5697503275479434e+00
      - -1.3214278683516973e+00
      - 2.5767341822677099e+00
      - -1.3142155770838466e+00
      - 2.5807055764844442e+00
      - -1.3072377704529368e+00
      - 2.5897895470051444e+00
      - -1.3046375273883271e+00
      - 2.6047935814684031e+00
      - -1.3057458160663729e+00
      - 2.6138124385310051e+00
      - -1.3021576162734680e+00
      - 2.6251639381944054e+00
      - -1.3010930940901420e+00
      - 2.5971032628144131e+00
      - -1.3400352243084221e+00
      - 2.5926804979839959e+00
      - -1.3425340184063514e+00
      - 2.5880607200334165e+00
      - -1.3465497432179456e+00
      - 2.5789079690037853e+00
      - -1.3477608749675638e+00
      - 2.5676644997465687e+00
      - -1.3450527033504409e+00
      - 2.5600775595650811e+00
      - -1.3439267458064592e+00
      - 2.5569246326618615e+00
      - -1.3441832383301895e+00
      - 2.5441864528079661e+00
      - -1.3424049460517826e+00
      - 2.5416979808333187e+00
      - -1.3429332237248215e+00
      - 2.5374906478389603e+00
      - -1.3443219147329437e+00
      - 2.5253239149717777e+00
      - -1.3428631762925789e+00
      - 2.5240528910707938e+00
      - -1.3470094545635953e+00
      - 2.5189748388773441e+00
      - -1.3495013178243591e+00
      - 2.5164701905489100e+00
      - -1.3519009005261289e+00
      - 2.5119857862459334e+00
      - -1.3513778335681774e+00
      - 2.5095137998211037e+00
      - -1.3480445227989371e+00
      - 2.5132482017598989e+00
      - -1.3468270872531498e+00
      - 2.5165178911322501e+00
      - -1.3465427759735666e+00
      - 2.5232900345121623e+00
      - -1.3458882521167812e+00
      - 2.5221900155970820e+00
      - -1.3409865503840994e+00
      - 2.5254567601673670e+00
      - -1.3367230258340372e+00
      - 2.5382951428410077e+00
      - -1.3392893028198940e+00
      - 2.5444359860622074e+00
      - -1.3349329253487303e+00
      - 2.5513112088544196e+00
      - -1.3291288227464697e+00
      - 2.5617072913041454e+00
      - -1.3258247682090680e+00
      - 2.5652991083351160e+00
      - -1.3194440256664799e+00
      - 2.5719147174537982e+00
      - -1.3122982856821335e+00
      - 2.5791345668428218e+00
      - -1.3066948171431172e+00
      - 2.5880026516407262e+00
      - -1.3045787222406839e+00
      - 2.6000414403412515e+00
      - -1.3048628001913063e+00
      - 2.6130153777575647e+00
      - -1.3043192935911772e+00
      - 2.6234139866814337e+00
      - -1.3034430638909495e+00
      - 2.5936119821023120e+00
      - -1.3366814734234671e+00
      - 2.5902371086329143e+00
      - -1.3422282159855665e+00
      - 2.5866476681838226e+00
      - -1.3458646603730198e+00
      - 2.5767415547092885e+00
      - -1.3448240680243555e+00
      - 2.5704063762811034e+00
      - -1.3437008034029079e+00
      - 2.5607957818055547e+00
      - -1.3440492059233489e+00
      - 2.5565740123124439e+00
      - -1.3454302747074827e+00
      - 2.5488055655822697e+00
      - -1.3442585800870295e+00
      - 2.5430447380897303e+00
      - -1.3425368505888517e+00
      - 2.5349354867042275e+00
      - -1.3421326089997574e+00
      - 2.5269028715820334e+00
      - -1.3437978346701065e+00
      - 2.5203306496805222e+00
      - -1.3459016057969986e+00
      - 2.5187893944939823e+00
      - -1.3484848342919407e+00
      - 2.5133147365125219e+00
      - -1.3481321450321995e+00
      - 2.5120976108934476e+00
      - -1.3505240630575910e+00
      - 2.5139337888098048e+00
      - -1.3510174918025217e+00
      - 2.5124849635033009e+00
      - -1.3474436083772843e+00
      - 2.5136423141394126e+00
      - -1.3451971686755413e+00
      - 2.5187437442512812e+00
      - -1.3443293102492431e+00
      - 2.5197527064011247e+00
      - -1.3406813660240775e+00
      - 2.5261482131816506e+00
      - -1.3362442469141969e+00
      - 2.5343291047928744e+00
      - -1.3378839419845072e+00
      - 2.5391524287103460e+00
      - -1.3339281040001734e+00
      - 2.5450274840459119e+00
      - -1.3267228818973473e+00
      - 2.5533618468507826e+00
      - -1.3224043441634477e+00
      - 2.5607702906690251e+00
      - -1.3180136036250234e+00
      - 2.5697801449892896e+00
      - -1.3117999596958902e+00
      - 2.5764479395991633e+00
      - -1.3072219304445332e+00
      - 2.5849535422690355e+00
      - -1.3042778989054662e+00
      - 2.5975157157808413e+00
      - -1.3051386558340774e+00
      - 2.6060031197145190e+00
      - -1.3047291527082507e+00
      - 2.6230160872799004e+00
      - -1.3046569225097997e+00
      - 2.5975422356401636e+00
      - -1.3391212950117941e+00
      - 2.5887143107453192e+00
      - -1.3407287362786189e+00
      - 2.5824246563214119e+00
      - -1.3439950891673722e+00
      - 2.5738786996686862e+00
      - -1.3452472176282795e+00
      - 2.5717023104919638e+00
      - -1.3460713787659842e+00
      - 2.5617742996323880e+00
      - -1.3434418266377564e+00
      - 2.5531112691399369e+00
      - -1.3452105711705726e+00
      - 2.5475841426336192e+00
      - -1.3460632521694134e+00
      - 2.5409164373957207e+00
      - -1.3424213260326441e+00
      - 2.5315363044733239e+00
      - -1.3411711794651668e+00
      - 2.5247579169926886e+00
      - -1.3414661255531011e+00
      - 2.5178205886148848e+00
      - -1.3416368705215260e+00
      - 2.5143690774769802e+00
      - -1.3429127168275203e+00
      - 2.5136359642442088e+00
      - -1.3459528235108551e+00
      - 2.5123778197414492e+00
      - -1.3486808652404745e+00
      - 2.5130566093732960e+00
      - -1.3495412733582617e+00
      - 2.5104332677239034e+00
      - -1.3485225768945626e+00
      - 2.5086071531529410e+00
      - -1.3429475724010729e+00
      - 2.5163936495709076e+00
      - -1.3433650036255955e+00
      - 2.5184294267862763e+00
      - -1.3413722090875126e+00
      - 2.5221908260368835e+00
      - -1.3362541457182184e+00
      - 2.5290579315050508e+00
      - -1.3355996003753829e+00
      - 2.5392977107816721e+00
      - -1.3337428291532052e+00
      - 2.5467915380406887e+00
      - -1.3270189951539606e+00
      - 2.5493957443295940e+00
      - -1.3212718084519561e+00
      - 2.5613105741877713e+00
      - -1.3194630875630631e+00
      - 2.5735239791517954e+00
      - -1.3144754791786790e+00
      - 2.5795210008463636e+00
      - -1.3100587387411287e+00
      - 2.5882646924351027e+00
      - -1.3051280776528402e+00
      - 2.5987419229902908e+00
      - -1.3055404556042345e+00
      - 2.6055746488064218e+00
      - -1.3070397873558877e+00
      - 2.6168399788666288e+00
      - -1.3052394225004185e+00
      - 2.5941603961877138e+00
      - -1.3398194823288203e+00
      - 2.5895472173831289e+00
      - -1.3419915898080312e+00
      - 2.5814828710636135e+00
      - -1.3415302673416507e+00
      - 2.5774267095048327e+00
      - -1.3458470132680833e+00
      - 2.5687436459204580e+00
      - -1.3465017226677045e+00
      - 2.5597052517075367e+00
      - -1.3450281392639545e+00
      - 2.5482886132902123e+00
      - -1.3442617987885239e+00
      - 2.5429769521979066e+00
      - -1.3458041414067670e+00
      - 2.5392430825597883e+00
      - -1.3424727471104316e+00
      - 2.5309941350777656e+00
      - -1.3419828487307284e+00
      - 2.5254890893390418e+00
      - -1.3412469910207752e+00
      - 2.5185609398407598e+00
      - -1.3399072053413794e+00
      - 2.5183569368388135e+00
      - -1.3437683530801581e+00
      - 2.5144227919469828e+00
      - -1.3444367055053132e+00
      - 2.5110243072624185e+00
      - -1.3450803809724148e+00
      - 2.5091417916466163e+00
      - -1.3459838742746659e+00
      - 2.5064243911852504e+00
      - -1.3467833961830622e+00
      - 2.5079452461688554e+00
      - -1.3450856436956939e+00
      - 2.5106729139558954e+00
      - -1.3436083981989324e+00
      - 2.5135624801711542e+00
      - -1.3405422263018241e+00
      - 2.5195447212223576e+00
      - -1.3360400797946934e+00
      - 2.5251689936898858e+00
      - -1.3325744950363165e+00
      - 2.5328084565108000e+00
      - -1.3293677410919356e+00
      - 2.5426081042158830e+00
      - -1.3229771539517046e+00
      - 2.5514447024843472e+00
      - -1.3203182862151441e+00
      - 2.5633408143827379e+00
      - -1.3190857527641175e+00
      - 2.5734474455878478e+00
      - -1.3168263542676475e+00
      - 2.5788123143048653e+00
      - -1.3109162718514640e+00
      - 2.5885338102897757e+00
      - -1.3053224483634986e+00
      - 2.6004859322096796e+00
      - -1.3070290455374027e+00
      - 2.6086031187832037e+00
      - -1.3090288911054200e+00
      - 2.6183878132196354e+00
      - -1.3071067345761782e+00
      - 2.5921278662818823e+00
      - -1.3381171058376462e+00
      - 2.5898577668650939e+00
      - -1.3440526179024661e+00
      - 2.5849949535605887e+00
      - -1.3441995307264405e+00
      - 2.5776708361775027e+00
      - -1.3458198546235260e+00
      - 2.5681701798781646e+00
      - -1.3482354693665088e+00
      - 2.5618663192415436e+00
      - -1.3474374569890923e+00
      - 2.5538002761579781e+00
      - -1.3455102119663644e+00
      - 2.5437835936818027e+00
      - -1.3449122708044730e+00
      - 2.5374265403573752e+00
      - -1.3427440978259626e+00
      - 2.5328393499836688e+00
      - -1.3430101581611247e+00
      - 2.5263305963850669e+00
      - -1.3411666529566200e+00
      - 2.5215565134126154e+00
      - -1.3399807731979563e+00
      - 2.5201049768647286e+00
      - -1.3428842902027509e+00
      - 2.5168779309872185e+00
      - -1.3439126739252540e+00
      - 2.5122921437977865e+00
      - -1.3429750851876052e+00
      - 2.5079538148561769e+00
      - -1.3448546471489835e+00
      - 2.5080558984678625e+00
      - -1.3459523208209887e+00
      - 2.5084768124799943e+00
      - -1.3445956932086121e+00
      - 2.5065270372417232e+00
      - -1.3405996137786189e+00
      - 2.5105468406387836e+00
      - -1.3375501022166485e+00
      - 2.5224927502290990e+00
      - -1.3373563740500189e+00
      - 2.5279036263956294e+00
      - -1.3325450248942254e+00
      - 2.5394364037533035e+00
      - -1.3309933622878121e+00
      - 2.5452667017128698e+00
      - -1.3240160754106349e+00
      - 2.5530315351184938e+00
      - -1.3202480424010792e+00
      - 2.5611141071497152e+00
      - -1.3174924979039699e+00
      - 2.5727535201240483e+00
      - -1.3152499856366502e+00
      - 2.5753365036443467e+00
      - -1.3101300033022290e+00
      - 2.5876721523402666e+00
      - -1.3061141048479032e+00
      - 2.6016598410958047e+00
      - -1.3075209878059777e+00
      - 2.6099689492973845e+00
      - -1.3083349069591883e+00
      - 2.6176625386143861e+00
      - -1.3047025142204323e+00
      - 2.5908009660573414e+00
      - -1.3352142937025462e+00
      - 2.5876199082750411e+00
      - -1.3400799019537206e+00
      - 2.5827800240624414e+00
      - -1.3426323163700700e+00
      - 2.5774359637325199e+00
      - -1.3445082355651619e+00
      - 2.5643425515251321e+00
      - -1.3466458243703436e+00
      - 2.5617945103038786e+00
      - -1.3465033432230393e+00
      - 2.5527516577387228e+00
      - -1.3406302907922480e+00
      - 2.5407443614430121e+00
      - -1.3407799588138307e+00
      - 2.5352054570110725e+00
      - -1.3415221596776097e+00
      - 2.5330285465051801e+00
      - -1.3420252434907471e+00
      - 2.5289440156791918e+00
      - -1.3419496182386248e+00
      - 2.5216290221670934e+00
      - -1.3398922633574455e+00
      - 2.5181166267539190e+00
      - -1.3412086527971305e+00
      - 2.5140484410444572e+00
      - -1.3400040512621454e+00
      - 2.5099116606370115e+00
      - -1.3376154131618838e+00
      - 2.5113147090397794e+00
      - -1.3407314635820300e+00
      - 2.5112577387407073e+00
      - -1.3451836587030392e+00
      - 2.5099790419099177e+00
      - -1.3473572784503773e+00
      - 2.5105081497341715e+00
      - -1.3443762439862359e+00
      - 2.5158411226050039e+00
      - -1.3402184038518363e+00
      - 2.5268769108777325e+00
      - -1.3386329309137257e+00
      - 2.5319022696037661e+00
      - -1.3325788571138499e+00
      - 2.5405664945175443e+00
      - -1.3316752575645505e+00
      - 2.5476656269977824e+00
      - -1.3275806447535705e+00
      - 2.5516450648155335e+00
      - -1.3219432192644127e+00
      - 2.5585581688533710e+00
      - -1.3176758203620680e+00
      - 2.5681169980283505e+00
      - -1.3136186741894309e+00
      - 2.5751301950198546e+00
      - -1.3091232719734187e+00
      - 2.5849227815809885e+00
      - -1.3074551054741714e+00
      - 2.6003317030025204e+00
      - -1.3098862906847661e+00
      - 2.6087393625242274e+00
      - -1.3076243165497332e+00
      - 2.6207160506633995e+00
      - -1.3048565401753693e+00
      - 2.5954646799442016e+00
      - -1.3344797293405875e+00
      - 2.5903539286161226e+00
      - -1.3371994666747802e+00
      - 2.5814249731686028e+00
      - -1.3397323700869075e+00
      - 2.5772222986592630e+00
      - -1.3441959070013829e+00
      - 2.5698216845654271e+00
      - -1.3465733294413167e+00
      - 2.5614670033323237e+00
      - -1.3448678132548408e+00
      - 2.5544805002605577e+00
      - -1.3420667265321196e+00
      - 2.5440216206302027e+00
      - -1.3420855652147021e+00
      - 2.5326577636903300e+00
      - -1.3381884386636471e+00
      - 2.5325248411292196e+00
      - -1.3414410569989521e+00
      - 2.5277373506210181e+00
      - -1.3414537458175715e+00
      - 2.5216427792580234e+00
      - -1.3381642952030504e+00
      - 2.5195913571593112e+00
      - -1.3379728058785818e+00
      - 2.5144976509493859e+00
      - -1.3384220515553613e+00
      - 2.5110204761160566e+00
      - -1.3357509105762047e+00
      - 2.5164977786645140e+00
      - -1.3382971690775707e+00
      - 2.5137150081199091e+00
      - -1.3418764791156224e+00
      - 2.5135190946598165e+00
      - -1.3454179917078710e+00
      - 2.5136690956313665e+00
      - -1.3447344480366086e+00
      - 2.5178259442595885e+00
      - -1.3429905704462353e+00
      - 2.5278346664376130e+00
      - -1.3409243670634297e+00
      - 2.5355853376202186e+00
      - -1.3340846353479212e+00
      - 2.5410366345402111e+00
      - -1.3300443413143848e+00
      - 2.5494552953980270e+00
      - -1.3281906528798810e+00
      - 2.5526996551594037e+00
      - -1.3222263890637669e+00
      - 2.5604687113770002e+00
      - -1.3165783175292520e+00
      - 2.5691808341103783e+00
      - -1.3131262683600853e+00
      - 2.5757793838281553e+00
      - -1.3090079646402737e+00
      - 2.5856906606622081e+00
      - -1.3075393200810583e+00
      - 2.5968015854356405e+00
      - -1.3081119944573749e+00
      - 2.6074342790953589e+00
      - -1.3055941762959578e+00
      - 2.6195184561894904e+00
      - -1.3060732566152933e+00
      - 2.5930691120454679e+00
      - -1.3318238667781099e+00
      - 2.5897247149251137e+00
      - -1.3350313592606105e+00
      - 2.5821999457856841e+00
      - -1.3367717162945618e+00
      - 2.5783960839065010e+00
      - -1.3438689055419015e+00
      - 2.5692684247610380e+00
      - -1.3444821212317180e+00
      - 2.5610935612340455e+00
      - -1.3420748043249806e+00
      - 2.5540989608965994e+00
      - -1.3419620671391672e+00
      - 2.5433639001962298e+00
      - -1.3390204768889702e+00
      - 2.5331452193053936e+00
      - -1.3357133161856622e+00
      - 2.5313674259052785e+00
      - -1.3387310447291876e+00
      - 2.5313311156174101e+00
      - -1.3431272464118227e+00
      - 2.5284812099285903e+00
      - -1.3384117469618746e+00
      - 2.5240886389923189e+00
      - -1.3359977802303189e+00
      - 2.5222015930878126e+00
      - -1.3402724271646509e+00
      - 2.5163498290823347e+00
      - -1.3361056723509526e+00
      - 2.5161838836494614e+00
      - -1.3347256405043519e+00
      - 2.5171855475473377e+00
      - -1.3393317771500974e+00
      - 2.5164581524836027e+00
      - -1.3415044719164051e+00
      - 2.5168080921389957e+00
      - -1.3428680403404496e+00
      - 2.5210326605930797e+00
      - -1.3411083471821101e+00
      - 2.5260028006058035e+00
      - -1.3370495037761017e+00
      - 2.5348625756131753e+00
      - -1.3348977595685474e+00
      - 2.5420920900715629e+00
      - -1.3301085596868196e+00
      - 2.5454852400765287e+00
      - -1.3252960364088253e+00
      - 2.5567806641995259e+00
      - -1.3233409140383325e+00
      - 2.5647420012213615e+00
      - -1.3158524872665331e+00
      - 2.5730563495129606e+00
      - -1.3123921436694508e+00
      - 2.5856327968426061e+00
      - -1.3128635587185282e+00
      - 2.5914156885750397e+00
      - -1.3084018084888847e+00
      - 2.5993909727192466e+00
      - -1.3064736650522939e+00
      - 2.6074753470443368e+00
      - -1.3057510701302926e+00
      - 2.6159753134047863e+00
      - -1.3059796554948488e+00
      - 2.5901287528771881e+00
      - -1.3305348097608294e+00
      - 2.5866549322417423e+00
      - -1.3334825116117321e+00
      - 2.5801837373946324e+00
      - -1.3340584047183182e+00
      - 2.5798683212961016e+00
      - -1.3415394216743504e+00
      - 2.5690558902488871e+00
      - -1.3433395565253339e+00
      - 2.5642099697757383e+00
      - -1.3424924278893824e+00
      - 2.5557331334488644e+00
      - -1.3408954469982219e+00
      - 2.5414634294666643e+00
      - -1.3370692504041815e+00
      - 2.5359477167684505e+00
      - -1.3348713100196028e+00
      - 2.5337896390183756e+00
      - -1.3385529781228138e+00
      - 2.5380782376603963e+00
      - -1.3448449976281254e+00
      - 2.5319106357500756e+00
      - -1.3363702856970747e+00
      - 2.5297015894975612e+00
      - -1.3363253080349924e+00
      - 2.5252190554756546e+00
      - -1.3387293790292840e+00
      - 2.5222283711849847e+00
      - -1.3338015325152714e+00
      - 2.5204003133605273e+00
      - -1.3344373201050970e+00
      - 2.5230977630576530e+00
      - -1.3396185696503224e+00
      - 2.5209803491968619e+00
      - -1.3390842550835749e+00
      - 2.5218142988115519e+00
      - -1.3389666824587001e+00
      - 2.5243192559049072e+00
      - -1.3381391617080165e+00
      - 2.5257189530017485e+00
      - -1.3341488938166046e+00
      - 2.5348741660237541e+00
      - -1.3346001034120527e+00
      - 2.5442669459476193e+00
      - -1.3292537098556090e+00
      - 2.5507303181241787e+00
      - -1.3240900239409787e+00
      - 2.5617542926380512e+00
      - -1.3221613660162963e+00
      - 2.5734748542627570e+00
      - -1.3175887919008997e+00
      - 2.5771448079139572e+00
      - -1.3137189416943111e+00
      - 2.5874320859509621e+00
      - -1.3120761447435221e+00
      - 2.5920205862210635e+00
      - -1.3062032917569359e+00
      - 2.6021467845518127e+00
      - -1.3055000644774171e+00
      - 2.6131458331167305e+00
      - -1.3083046134324001e+00
      - 2.6227528220599261e+00
      - -1.3067868626288841e+00
      - 2.5901420205844845e+00
      - -1.3298800330242395e+00
      - 2.5843516118200140e+00
      - -1.3320509443773092e+00
      - 2.5821959973132511e+00
      - -1.3372203952576469e+00
      - 2.5826929335365163e+00
      - -1.3423264695911081e+00
      - 2.5721401370755697e+00
      - -1.3420791859897840e+00
      - 2.5669615223482105e+00
      - -1.3408660679400448e+00
      - 2.5597095667256871e+00
      - -1.3402224832092164e+00
      - 2.5439426792671918e+00
      - -1.3366761767051925e+00
      - 2.5373099242496298e+00
      - -1.3337034471640381e+00
      - 2.5394559965201151e+00
      - -1.3384811857285379e+00
      - 2.5370102122115874e+00
      - -1.3414796796292403e+00
      - 2.5379534295935007e+00
      - -1.3389554323660704e+00
      - 2.5372226107223850e+00
      - -1.3378489621941554e+00
      - 2.5292751153306985e+00
      - -1.3365136908654789e+00
      - 2.5220677434336429e+00
      - -1.3310111424847864e+00
      - 2.5214772994079815e+00
      - -1.3329462915060855e+00
      - 2.5239661125525319e+00
      - -1.3369470354556052e+00
      - 2.5279238704921232e+00
      - -1.3368117820140784e+00
      - 2.5274863161200027e+00
      - -1.3346208877039396e+00
      - 2.5283120052377694e+00
      - -1.3336085457161440e+00
      - 2.5303831355751867e+00
      - -1.3320292819991990e+00
      - 2.5384895361137882e+00
      - -1.3317580751139537e+00
      - 2.5466460442815002e+00
      - -1.3272876435801622e+00
      - 2.5553019258114578e+00
      - -1.3239713281859153e+00
      - 2.5643580352288144e+00
      - -1.3208566928487118e+00
      - 2.5748861169567587e+00
      - -1.3171966476716057e+00
      - 2.5802704875564144e+00
      - -1.3171391109001160e+00
      - 2.5899485421029680e+00
      - -1.3140835585048578e+00
      - 2.5966957717837302e+00
      - -1.3080640410018514e+00
      - 2.6079642053292478e+00
      - -1.3075700413255289e+00
      - 2.6202297655144680e+00
      - -1.3076115015192982e+00
      - 2.6294819083026795e+00
      - -1.3063774438524196e+00
      - 2.5922977074009563e+00
      - -1.3293963344387174e+00
      - 2.5854682643961313e+00
      - -1.3324204334812089e+00
      - 2.5831389417558217e+00
      - -1.3374496064310499e+00
      - 2.5783081339672247e+00
      - -1.3390264083808341e+00
      - 2.5747572107111720e+00
      - -1.3406724094409830e+00
      - 2.5665225210639377e+00
      - -1.3360488478330863e+00
      - 2.5614360685583120e+00
      - -1.3371432091880153e+00
      - 2.5494734113967317e+00
      - -1.3376977110739492e+00
      - 2.5458365506181599e+00
      - -1.3360054042683041e+00
      - 2.5407382698383256e+00
      - -1.3344992355063434e+00
      - 2.5398876380721847e+00
      - -1.3373847457777777e+00
      - 2.5413210214946829e+00
      - -1.3377547438568880e+00
      - 2.5397888692267614e+00
      - -1.3367879616313108e+00
      - 2.5347967644532159e+00
      - -1.3356918110147327e+00
      - 2.5309204052358387e+00
      - -1.3350050756081318e+00
      - 2.5284272167443236e+00
      - -1.3353942988303418e+00
      - 2.5286609693318409e+00
      - -1.3354819200699926e+00
      - 2.5316519479142512e+00
      - -1.3344540496022186e+00
      - 2.5346505986770551e+00
      - -1.3327437210970607e+00
      - 2.5355930849144350e+00
      - -1.3319887739770286e+00
      - 2.5379123281720730e+00
      - -1.3300232432007593e+00
      - 2.5415394205589115e+00
      - -1.3281148298135828e+00
      - 2.5500564371564236e+00
      - -1.3251601538790314e+00
      - 2.5574656638055528e+00
      - -1.3229804729671120e+00
      - 2.5653578125194771e+00
      - -1.3210964811709500e+00
      - 2.5727238425688359e+00
      - -1.3157010444942230e+00
      - 2.5814467442564348e+00
      - -1.3159843530447684e+00
      - 2.5929139858723884e+00
      - -1.3151187193509093e+00
      - 2.6000298772222012e+00
      - -1.3088883013297004e+00
      - 2.6126047958106358e+00
      - -1.3082487851683078e+00
      - 2.6203363323946909e+00
      - -1.3042325011095059e+00
      - 2.6272819674234946e+00
      - -1.3009396653678187e+00
      - 2.5931222678671078e+00
      - -1.3302679095577572e+00
      - 2.5852029774385681e+00
      - -1.3329781081541539e+00
      - 2.5844566209335245e+00
      - -1.3368642303295264e+00
      - 2.5798945202843679e+00
      - -1.3376739524529500e+00
      - 2.5778328396054415e+00
      - -1.3392187166687084e+00
      - 2.5682942760891856e+00
      - -1.3343635281782456e+00
      - 2.5627195471929571e+00
      - -1.3353023750134285e+00
      - 2.5562584877053141e+00
      - -1.3384285019103619e+00
      - 2.5480540561097986e+00
      - -1.3355603665811790e+00
      - 2.5464037757323874e+00
      - -1.3338319213947054e+00
      - 2.5465402668380244e+00
      - -1.3365030211640949e+00
      - 2.5449567685708301e+00
      - -1.3372828477239520e+00
      - 2.5435341338936919e+00
      - -1.3370092642724540e+00
      - 2.5385262514657452e+00
      - -1.3355302883054405e+00
      - 2.5360892472409797e+00
      - -1.3361331186593297e+00
      - 2.5353112734104624e+00
      - -1.3349638838961322e+00
      - 2.5321125137026876e+00
      - -1.3300776100076732e+00
      - 2.5359020578631482e+00
      - -1.3304393175174187e+00
      - 2.5379974970358616e+00
      - -1.3276176326277940e+00
      - 2.5412035053656643e+00
      - -1.3295742244625757e+00
      - 2.5444942494043623e+00
      - -1.3297910555881198e+00
      - 2.5450624124985759e+00
      - -1.3260492333038829e+00
      - 2.5538450042958067e+00
      - -1.3241755414513745e+00
      - 2.5638584686197476e+00
      - -1.3213692297659774e+00
      - 2.5682716269365082e+00
      - -1.3178789001827886e+00
      - 2.5736968676017855e+00
      - -1.3152852832015036e+00
      - 2.5813125673401505e+00
      - -1.3134318899004787e+00
      - 2.5939336474130936e+00
      - -1.3118643261440162e+00
      - 2.6064194449194495e+00
      - -1.3084098395666750e+00
      - 2.6156334616138377e+00
      - -1.3070668474642366e+00
      - 2.6205861305210392e+00
      - -1.3005858706928677e+00
      - 2.6247704485026806e+00
      - -1.2962939461396876e+00
      - 2.5966526562200198e+00
      - -1.3308405193991977e+00
      - 2.5905910287624043e+00
      - -1.3323319606904447e+00
      - 2.5873440752114059e+00
      - -1.3355520677747932e+00
      - 2.5793992886366768e+00
      - -1.3329787193094960e+00
      - 2.5709942654696958e+00
      - -1.3324611229349992e+00
      - 2.5711423957949227e+00
      - -1.3351469886340743e+00
      - 2.5670531651115684e+00
      - -1.3339973122201094e+00
      - 2.5591969452131105e+00
      - -1.3352169837833803e+00
      - 2.5522513325227529e+00
      - -1.3339673984318006e+00
      - 2.5523585900301131e+00
      - -1.3354908958896574e+00
      - 2.5515078626690939e+00
      - -1.3364894655159134e+00
      - 2.5473637693126649e+00
      - -1.3347788762048083e+00
      - 2.5466130785646754e+00
      - -1.3340963740080758e+00
      - 2.5430483586705011e+00
      - -1.3344464089241848e+00
      - 2.5433230505961566e+00
      - -1.3361193448146724e+00
      - 2.5394976284548267e+00
      - -1.3306202761407133e+00
      - 2.5407149331960781e+00
      - -1.3266956321111454e+00
      - 2.5429975809125493e+00
      - -1.3274631166534590e+00
      - 2.5467332778542948e+00
      - -1.3258319653931776e+00
      - 2.5497118812208743e+00
      - -1.3265812451428229e+00
      - 2.5473415600501021e+00
      - -1.3230361295547888e+00
      - 2.5508044127858720e+00
      - -1.3229828643346977e+00
      - 2.5527959656454513e+00
      - -1.3198619727126686e+00
      - 2.5641291080767568e+00
      - -1.3175082235988818e+00
      - 2.5742663234424010e+00
      - -1.3156866787775536e+00
      - 2.5771265643191614e+00
      - -1.3144321737238689e+00
      - 2.5884468870867505e+00
      - -1.3148666442053525e+00
      - 2.6018612412252380e+00
      - -1.3132118275465978e+00
      - 2.6100157137173290e+00
      - -1.3106426900770487e+00
      - 2.6139570403355656e+00
      - -1.3046158010111450e+00
      - 2.6202235030325882e+00
      - -1.2978461895921667e+00
      - 2.6274712466012438e+00
      - -1.2967387876080192e+00
      - 2.6002326112590386e+00
      - -1.3278477388843357e+00
      - 2.5932359888959682e+00
      - -1.3289027917154319e+00
      - 2.5892981616571595e+00
      - -1.3318735012204472e+00
      - 2.5840025857638587e+00
      - -1.3302757277585677e+00
      - 2.5712620577589926e+00
      - -1.3269292867557234e+00
      - 2.5690792497430959e+00
      - -1.3294223440040835e+00
      - 2.5723523192802813e+00
      - -1.3337598674479219e+00
      - 2.5622450276949316e+00
      - -1.3343968310849488e+00
      - 2.5561800792895708e+00
      - -1.3334414079581589e+00
      - 2.5565727101337563e+00
      - -1.3360315159621285e+00
      - 2.5564857193813340e+00
      - -1.3356077524032866e+00
      - 2.5506316366563362e+00
      - -1.3316738521861382e+00
      - 2.5483657249100800e+00
      - -1.3311162842826805e+00
      - 2.5475301536103938e+00
      - -1.3326909663509707e+00
      - 2.5476443325027538e+00
      - -1.3322535867179286e+00
      - 2.5434539608370201e+00
      - -1.3268518670831650e+00
      - 2.5428776300666271e+00
      - -1.3237384439513940e+00
      - 2.5496728157662916e+00
      - -1.3256318716444146e+00
      - 2.5528988784092128e+00
      - -1.3229546918440431e+00
      - 2.5539650158201828e+00
      - -1.3228266565472893e+00
      - 2.5532994352795924e+00
      - -1.3196937571567573e+00
      - 2.5589717017488978e+00
      - -1.3199827572650318e+00
      - 2.5594526277836511e+00
      - -1.3173950930046912e+00
      - 2.5660471800589688e+00
      - -1.3155877291994611e+00
      - 2.5785243910698243e+00
      - -1.3149293118541836e+00
      - 2.5848962223772052e+00
      - -1.3141024944483317e+00
      - 2.5938259474133045e+00
      - -1.3154149441274250e+00
      - 2.6042124016352939e+00
      - -1.3131751120998698e+00
      - 2.6054011538427790e+00
      - -1.3106136708846474e+00
      - 2.6121399051172176e+00
      - -1.3027510805808282e+00
      - 2.6220329689689099e+00
      - -1.2984810811873517e+00
      - 2.6292814036399355e+00
      - -1.2958341664142421e+00
      - 2.6043049827181921e+00
      - -1.3239815066734988e+00
      - 2.5953590686431887e+00
      - -1.3250111613163829e+00
      - 2.5924092271938410e+00
      - -1.3281330105002465e+00
      - 2.5859759634964825e+00
      - -1.3259856277528586e+00
      - 2.5807178187679027e+00
      - -1.3260939163629766e+00
      - 2.5748707486785380e+00
      - -1.3284607577347842e+00
      - 2.5752335745549235e+00
      - -1.3328136473155281e+00
      - 2.5673959316815735e+00
      - -1.3331504609325415e+00
      - 2.5611440146779456e+00
      - -1.3315089588681330e+00
      - 2.5616039425795059e+00
      - -1.3342844149917656e+00
      - 2.5609947391869463e+00
      - -1.3344063344080377e+00
      - 2.5538114395241656e+00
      - -1.3312422546563707e+00
      - 2.5515885834162417e+00
      - -1.3290810021668622e+00
      - 2.5519271377122723e+00
      - -1.3302671145971354e+00
      - 2.5519495159560557e+00
      - -1.3289301823966011e+00
      - 2.5519557014817353e+00
      - -1.3253358940177515e+00
      - 2.5514037074718172e+00
      - -1.3229231550838418e+00
      - 2.5530116723585152e+00
      - -1.3229803668823044e+00
      - 2.5579123933088725e+00
      - -1.3217348890970309e+00
      - 2.5583232772397699e+00
      - -1.3210835404064754e+00
      - 2.5603892796933403e+00
      - -1.3188354725239613e+00
      - 2.5672720800356661e+00
      - -1.3180939738469355e+00
      - 2.5685074041402798e+00
      - -1.3160479986771543e+00
      - 2.5711917619829423e+00
      - -1.3129083507132593e+00
      - 2.5806607458250128e+00
      - -1.3138709513386020e+00
      - 2.5874685296862325e+00
      - -1.3145107746623226e+00
      - 2.5892405736563062e+00
      - -1.3126244569549455e+00
      - 2.5993516858717962e+00
      - -1.3115305286739523e+00
      - 2.6051623605889320e+00
      - -1.3085486974590612e+00
      - 2.6098136146915842e+00
      - -1.3005832261012165e+00
      - 2.6211256927834348e+00
      - -1.2968271136891834e+00
      - 2.6317020128164779e+00
      - -1.2935318531098734e+00
      - 2.6081266755400967e+00
      - -1.3221277096860165e+00
      - 2.6048869393342668e+00
      - -1.3246794711155601e+00
      - 2.5944106538636116e+00
      - -1.3250662051995665e+00
      - 2.5876190812286737e+00
      - -1.3258963877326788e+00
      - 2.5838630547811730e+00
      - -1.3251250054970733e+00
      - 2.5805038185676623e+00
      - -1.3292717391541200e+00
      - 2.5787021380935342e+00
      - -1.3312837343772976e+00
      - 2.5720603545378946e+00
      - -1.3298651957385295e+00
      - 2.5671882484815720e+00
      - -1.3303089380478710e+00
      - 2.5643063031693667e+00
      - -1.3313482656161577e+00
      - 2.5634992573940920e+00
      - -1.3306906520518560e+00
      - 2.5585460613647024e+00
      - -1.3298055776843580e+00
      - 2.5598545243467301e+00
      - -1.3303456200051538e+00
      - 2.5601740276725069e+00
      - -1.3319974507911678e+00
      - 2.5603145314945932e+00
      - -1.3305254063337779e+00
      - 2.5621227850842625e+00
      - -1.3258987995423834e+00
      - 2.5592178085856454e+00
      - -1.3210219022652334e+00
      - 2.5586670576664741e+00
      - -1.3188059510923873e+00
      - 2.5616283166156921e+00
      - -1.3204219144767873e+00
      - 2.5625732450620391e+00
      - -1.3201327844287432e+00
      - 2.5679807023665377e+00
      - -1.3186312758596281e+00
      - 2.5740686018282570e+00
      - -1.3179426448401483e+00
      - 2.5777370972437583e+00
      - -1.3147288158830006e+00
      - 2.5835510025384103e+00
      - -1.3142062962488588e+00
      - 2.5878863263105005e+00
      - -1.3154325713915211e+00
      - 2.5865819922032833e+00
      - -1.3135182882110592e+00
      - 2.5946338762946857e+00
      - -1.3112653302578434e+00
      - 2.6017613714018570e+00
      - -1.3095890265745160e+00
      - 2.6078458543253422e+00
      - -1.3058192765036569e+00
      - 2.6120537079973647e+00
      - -1.3002584611945356e+00
      - 2.6240260230022816e+00
      - -1.2970214370834723e+00
      - 2.6322602422173556e+00
      - -1.2939622137108695e+00
      - 2.6123155199474044e+00
      - -1.3211877057504131e+00
      - 2.6063851924893893e+00
      - -1.3232026437741315e+00
      - 2.5999218653534388e+00
      - -1.3271137102892203e+00
      - 2.5982059687665817e+00
      - -1.3281806394090927e+00
      - 2.5894727655988676e+00
      - -1.3243636830188033e+00
      - 2.5825332673974768e+00
      - -1.3254046110679765e+00
      - 2.5854324379054026e+00
      - -1.3304804148786835e+00
      - 2.5762137073612315e+00
      - -1.3291913577547430e+00
      - 2.5735071281620279e+00
      - -1.3303241138741044e+00
      - 2.5701987378648870e+00
      - -1.3293866687206171e+00
      - 2.5656580508957534e+00
      - -1.3269592641318972e+00
      - 2.5657925943019357e+00
      - -1.3311066880269797e+00
      - 2.5646774626562614e+00
      - -1.3308409441998976e+00
      - 2.5627212208146002e+00
      - -1.3292693325953735e+00
      - 2.5660249671181381e+00
      - -1.3283248669738852e+00
      - 2.5647411575280947e+00
      - -1.3222091459308425e+00
      - 2.5674701775792594e+00
      - -1.3188386382410606e+00
      - 2.5693914669934159e+00
      - -1.3164290619613022e+00
      - 2.5670943142997231e+00
      - -1.3168734469954615e+00
      - 2.5639510625182460e+00
      - -1.3167160789268464e+00
      - 2.5713046906117656e+00
      - -1.3174833508731048e+00
      - 2.5771272610753275e+00
      - -1.3168338508142123e+00
      - 2.5858083391458537e+00
      - -1.3154638470874378e+00
      - 2.5904396569433965e+00
      - -1.3149034414898044e+00
      - 2.5923965433135403e+00
      - -1.3145752119555392e+00
      - 2.5928947605904384e+00
      - -1.3126683766408733e+00
      - 2.6009864834770364e+00
      - -1.3112270837861777e+00
      - 2.6029705822254532e+00
      - -1.3076388515381310e+00
      - 2.6085163789937882e+00
      - -1.3026032609915303e+00
      - 2.6144405208916517e+00
      - -1.2958981370237039e+00
      - 2.6260742621369615e+00
      - -1.2939860258236020e+00
      - 2.6330017168154236e+00
      - -1.2930832905031249e+00
      - 2.6155081732388514e+00
      - -1.3214209944419828e+00
      - 2.6088737968921083e+00
      - -1.3230451572921824e+00
      - 2.6016347156315640e+00
      - -1.3255505565453087e+00
      - 2.6041146204652414e+00
      - -1.3273529414675755e+00
      - 2.5951518300365470e+00
      - -1.3252776491766032e+00
      - 2.5870254754715014e+00
      - -1.3263973462131184e+00
      - 2.5853211723267382e+00
      - -1.3283530098135508e+00
      - 2.5808039384503898e+00
      - -1.3306255638953688e+00
      - 2.5788146107648893e+00
      - -1.3314316135311042e+00
      - 2.5790112578302455e+00
      - -1.3289221909588345e+00
      - 2.5754420961400033e+00
      - -1.3271994521502690e+00
      - 2.5712343780438025e+00
      - -1.3297563428801493e+00
      - 2.5696448315354052e+00
      - -1.3284982837980039e+00
      - 2.5700006857280608e+00
      - -1.3260052674783493e+00
      - 2.5682872579392102e+00
      - -1.3228879394830457e+00
      - 2.5665137536659501e+00
      - -1.3185443736096332e+00
      - 2.5719407848764591e+00
      - -1.3182929060120760e+00
      - 2.5721712542575292e+00
      - -1.3162301725524386e+00
      - 2.5709908840206386e+00
      - -1.3153556637726775e+00
      - 2.5702847457281823e+00
      - -1.3150461050066360e+00
      - 2.5751130303128247e+00
      - -1.3176516486801677e+00
      - 2.5808492856885930e+00
      - -1.3183333088530678e+00
      - 2.5861674043547440e+00
      - -1.3168077059979557e+00
      - 2.5913163270103516e+00
      - -1.3150194092441287e+00
      - 2.5945121404860418e+00
      - -1.3123829945763092e+00
      - 2.5993814019647470e+00
      - -1.3121601173265813e+00
      - 2.6046811107717027e+00
      - -1.3092807124868400e+00
      - 2.6070763776928687e+00
      - -1.3055677966968136e+00
      - 2.6076942166357457e+00
      - -1.2969068972630582e+00
      - 2.6190201456140416e+00
      - -1.2906871495752739e+00
      - 2.6315689504372850e+00
      - -1.2885688910773918e+00
      - 2.6401278352725273e+00
      - -1.2903305696455700e+00
      - 2.6147909641563998e+00
      - -1.3205195969728012e+00
      - 2.6103865478217685e+00
      - -1.3229083876853223e+00
      - 2.6035778317721832e+00
      - -1.3236576697413436e+00
      - 2.6041810874743874e+00
      - -1.3250916101924608e+00
      - 2.5968134623503909e+00
      - -1.3249581420495993e+00
      - 2.5906298914213406e+00
      - -1.3270853590284653e+00
      - 2.5871144076262076e+00
      - -1.3270371596561255e+00
      - 2.5837159628054294e+00
      - -1.3282496986210104e+00
      - 2.5838326759955383e+00
      - -1.3299683483110796e+00
      - 2.5841043451367094e+00
      - -1.3271084601037779e+00
      - 2.5786941597441855e+00
      - -1.3260400870695133e+00
      - 2.5737164743272087e+00
      - -1.3257520626285388e+00
      - 2.5764030585239439e+00
      - -1.3263862001487190e+00
      - 2.5786009016675409e+00
      - -1.3249889945564421e+00
      - 2.5741767485994762e+00
      - -1.3212131644586640e+00
      - 2.5709009188412364e+00
      - -1.3166166415903320e+00
      - 2.5770485352465560e+00
      - -1.3197330414050712e+00
      - 2.5787260934909670e+00
      - -1.3201164489418458e+00
      - 2.5761286002616282e+00
      - -1.3152039934330022e+00
      - 2.5797536583745520e+00
      - -1.3147826917104160e+00
      - 2.5807966816231369e+00
      - -1.3170441798774564e+00
      - 2.5837104020205173e+00
      - -1.3179489994953355e+00
      - 2.5896162704611045e+00
      - -1.3166466894591864e+00
      - 2.5936170198255066e+00
      - -1.3130718420941865e+00
      - 2.6009633961004344e+00
      - -1.3109552930831296e+00
      - 2.6047204744198584e+00
      - -1.3098884354689182e+00
      - 2.6064324200514211e+00
      - -1.3075289305659410e+00
      - 2.6123978787952793e+00
      - -1.3029231307142912e+00
      - 2.6137189833777432e+00
      - -1.2920094916017877e+00
      - 2.6248069440875206e+00
      - -1.2871707840089193e+00
      - 2.6306625644165598e+00
      - -1.2821374928899834e+00
      - 2.6388938724334432e+00
      - -1.2841165363587981e+00
   output_scale:
      - 5.2631578947368418e-01
      - 4.9999999999999994e-01
      - 5.2631578947368418e-01
      - 4.9999999999999994e-01
   inv_output_scale:
      - 1.8999999999999999e+00
      - -9.4999999999999996e-01
      - 1.8999999999999999e+00
      - -9.4999999999999996e-01
   weights:
      -
         - 1.4439623418308910e-02
         - -7.1737761932731993e-03
         - 2.4179266320557857e-03
         - -1.4086478113152407e-02
         - -1.6325094379555909e-02
         - 1.2831700406278094e-02
         - -1.2612422984053968e-02
         - -2.3084933885060936e-02
         - -2.0096463370565293e-03
         - 1.6862829323291977e-03
         - 1.6680652346959812e-02
         - -1.8217360704358823e-02
         - -2.8663119152364499e-03
         - -7.7429908374138112e-04
         - -1.5289507534256165e-04
         - 9.6309490011017868e-03
         - -2.0159543879046831e-03
         - 8.9640555393459866e-03
         - -1.6649437639220444e-02
         - 1.5242515848932485e-02
         - -1.2251313751651728e-02
         - -1.5538155879070916e-02
         - 7.2863672664928800e-03
         - 6.0783377119181352e-03
         - -1.7101715381590877e-02
         - 1.3052448405658425e-02
         - -1.7044468721058196e-02
         - 1.5717009375142508e-02
         - -1.3814031212928679e-02
         - 3.7439034867772238e-03
         - -1.5640197374311583e-02
         - -1.2580822946952010e-02
         - -2.1227057906522594e-02
         - -1.7453046002603823e-02
         - -1.5630766812498094e-02
         - -2.3925942530489030e-02
         - 1.6166659659417099e-03
         - 1.7441628821051703e-02
         - -2.1110009214380054e-02
         - -1.4962313306873612e-03
         - -2.7200440823444187e-02
         - 1.2827402090550532e-02
         - 2.5604568186965090e-03
         - -1.5661617956341525e-03
         - -7.6343412485685765e-03
         - -1.7352957476660481e-02
         - 1.1129144839575257e-02
         - 2.3603492545409378e-02
         - 1.3508690940441086e-02
         - 4.3073962785770354e-03
         - 1.2011260864281245e-02
         - -2.8201867194182018e-03
         - -5.6138645805418603e-04
         - -1.0140911966220998e-02
         - -1.1410177051612330e-02
         - 9.3382022573735464e-03
         - -1.3266386426286032e-02
         - -2.4785482928526698e-02
         - 1.8071960807099297e-03
         - 5.2197149474209623e-03
         - 1.0907399425163396e-02
         - -1.0624416763457076e-02
         - -2.6080920119272050e-04
         - -2.6344252177435416e-03
         - 2.1439536009639944e-03
         - 4.7336240485437425e-03
         - -6.4305936265288610e-04
         - 6.7354776821879694e-03
         - -1.8709252416405416e-02
         - 1.1698589970571703e-02
         - -9.8096660346156418e-03
         - -1.6055228801575259e-02
         - 7.5113778479614776e-03
         - 5.2385625502457218e-03
         - -1.3491786431009678e-02
         - 7.0339141281367491e-03
         - -1.2832846893498985e-02
         - 1.1385431050106741e-02
         - -1.2712717832537433e-02
         - -1.1015503761227788e-04
         - -1.3532935592626881e-02
         - -6.7628461572321226e-03
         - -2.1181889802700960e-02
         - -1.4203007420930270e-02
         - -1.2937246907697356e-02
         - -2.4129640408433396e-02
         - 7.3610357209999873e-03
         - 1.8620289548570368e-02
         - -2.1126492137881453e-02
         - -1.7787857167666961e-03
         - -2.7197905195209249e-02
         - 1.0707381189213296e-02
         - 3.4816857344570034e-03
         - 5.0632176404289829e-04
         - -3.4105454488330702e-03
         - -9.9261323360783152e-03
         - 6.2256405057435600e-03
         - 2.5007933279139617e-02
         - 1.3323718951168470e-02
         - 3.8576587913686329e-03
         - 1.4079384834081611e-02
         - -1.8745449137210794e-03
         - 7.8816659818775300e-04
         - -1.2635318180794972e-02
         - -1.2660853431351966e-02
         - 1.3401017148875016e-02
         - -8.5452647178238389e-03
         - -2.1309201895054621e-02
         - -2.1333644762950915e-03
         - 3.7826477396614329e-03
         - 1.4283076437332573e-02
         - -1.6291471017329688e-02
         - 1.0900990037067909e-03
         - -2.4257308405599258e-04
         - 1.4702007749436057e-03
         - 6.6762729377399547e-03
         - 7.3728144489745850e-04
         - 5.1636318996732501e-03
         - -1.5158590468054864e-02
         - 1.4581418051723524e-02
         - -1.1449737377631003e-02
         - -1.0815850368210807e-02
         - 5.8584916538431744e-03
         - 5.2246546254491166e-03
         - -1.1622205112293046e-02
         - 8.4975689131347142e-03
         - -1.5068047605066063e-02
         - 1.4792541574534272e-02
         - -1.2730870171665649e-02
         - 6.6796553478911747e-04
         - -1.3391039613695329e-02
         - -6.2821812964596636e-03
         - -1.7628178630514076e-02
         - -1.5866629951063575e-02
         - -1.5807294100135049e-02
         - -2.1751947179274131e-02
         - 4.6738895380895292e-03
         - 1.2857730066955765e-02
         - -1.7688178082475817e-02
         - 1.0877668608814516e-03
         - -2.2291870130766556e-02
         - 8.3999248158454914e-03
         - 1.5154927475945492e-03
         - -2.2851292268258930e-03
         - -3.5870153434982908e-03
         - -1.3259996196885164e-02
         - 8.2612390192038677e-03
         - 1.9743921812736077e-02
         - 1.0105576841285820e-02
         - 4.3112774656136540e-03
         - 1.0066539314648227e-02
         - -1.3597642208793949e-03
         - -6.5851359156448479e-04
         - -1.1813820484092089e-02
         - -1.3050133070187184e-02
         - 1.0700945532421246e-02
         - -9.5917720167562649e-03
         - -2.1207833912691636e-02
         - -9.5752230156623177e-04
         - 3.1827913232004464e-03
         - 1.1394991531255306e-02
         - -1.1195464700202121e-02
         - 1.1857549955491672e-03
         - -2.1140282034050289e-03
         - 6.9208565640667386e-04
         - 5.5383062843653999e-03
         - -2.3276697571062823e-03
         - 5.5906464407574933e-03
         - -1.4191537844766483e-02
         - 1.2362169651011886e-02
         - -8.7328084956567274e-03
         - -1.2082443481549254e-02
         - 5.1844096967166783e-03
         - 3.4161876324705328e-03
         - -1.1289172162057709e-02
         - 7.3170811488166270e-03
         - -1.2977560337131794e-02
         - 1.4028183557352459e-02
         - -9.1575180729588177e-03
         - 5.6701548688744728e-04
         - -1.2680189843601371e-02
         - -6.8733191934817802e-03
         - -1.5150475973472218e-02
         - -1.1337229134754948e-02
         - -1.0856895818559241e-02
         - -2.0132953637798601e-02
         - 6.4770396695459989e-03
         - 1.3621986315958404e-02
         - -1.9634078440599358e-02
         - -1.7122757822718988e-04
         - -2.0915840676412039e-02
         - 9.3114417151604761e-03
         - 1.4841243486502726e-03
         - 2.9491527460357911e-04
         - -1.2572717106954542e-03
         - -1.0993527992766382e-02
         - 3.9847518625900800e-03
         - 2.0084104212170991e-02
         - 1.2476620594654013e-02
         - 2.9095209936133909e-03
         - 8.5696607721682753e-03
         - -2.3213045298434883e-03
         - -1.2131183492178135e-03
         - -1.0033936357977738e-02
         - -1.1577575924231968e-02
         - 8.3282967750292862e-03
         - -1.0975077253580649e-02
         - -1.6311732985621198e-02
         - 7.9153124018626546e-04
         - 6.2121109866201734e-03
         - 1.0996589425825324e-02
         - -9.0193149048789500e-03
         - 3.6197654280317143e-03
         - -1.7032791000983398e-03
         - 1.1834442662813107e-03
         - 1.4905109372185708e-03
         - 1.9270663209166765e-03
         - 4.6911791396282692e-03
         - -1.2382834950600252e-02
         - 1.0899517575392511e-02
         - -9.5575330871507779e-03
         - -1.2476523382821469e-02
         - 5.7958290681782224e-03
         - 1.9944081374117743e-03
         - -1.1637845317628785e-02
         - 6.2625877001119285e-03
         - -1.1421548228202244e-02
         - 1.0289364789612740e-02
         - -9.3689727157931415e-03
         - 1.1526103144642993e-03
         - -8.9551843793844212e-03
         - -5.6673636746317696e-03
         - -1.2621324252787223e-02
         - -1.0218080052177550e-02
         - -8.1889408370685018e-03
         - -1.8749942832983077e-02
         - 5.0704146184299389e-03
         - 1.1698781435622795e-02
         - -1.7708681816669219e-02
         - 7.3378061169152042e-04
         - -1.9165346622884036e-02
         - 5.7704532208458772e-03
         - 4.9845032477514406e-04
         - -1.1396973381005604e-03
         - -3.3824094685335885e-03
         - -1.2005150732066273e-02
         - 4.8147792721570798e-03
         - 1.7616019571172991e-02
         - 1.1047132090053844e-02
         - 3.1450049042592546e-03
         - 1.1005302136774347e-02
         - -3.0928796797394065e-03
         - -1.9385730516606938e-03
         - -1.2540500736755531e-02
         - -1.0748739705950304e-02
         - 1.0131679240074921e-02
         - -5.4263904455204674e-03
         - -1.1518688584173096e-02
         - 6.1264363539638618e-04
         - 2.9692119087382260e-03
         - 1.3767883911251590e-02
         - -1.0468883982599847e-02
         - 8.9213414826030577e-04
         - -2.0220426033057113e-03
         - 3.8954767709322704e-04
         - 4.7230946247862166e-04
         - -1.7271670000938491e-03
         - 3.9941555829265726e-03
         - -8.4999069970013458e-03
         - 1.1071059481152818e-02
         - -1.0227563986817841e-02
         - -5.9903157596719941e-03
         - 5.3358335194643881e-03
         - 4.1135429987512869e-03
         - -1.1475064394984021e-02
         - 6.5105411576774257e-03
         - -1.3566825894652867e-02
         - 1.0716051900006131e-02
         - -9.5752768230069115e-03
         - 2.9823384087847580e-03
         - -1.0640055374016249e-02
         - -6.3601549247056313e-03
         - -7.5354923185918399e-03
         - -1.2419407086549155e-02
         - -1.3122462485656310e-02
         - -1.2620919344846928e-02
         - 3.3548327498366987e-03
         - 7.3420922506480003e-03
         - -1.1477723959648153e-02
         - 1.5252572744168184e-03
         - -1.2585604996579064e-02
         - 6.0084423582016907e-03
         - 1.4337101329003009e-03
         - -5.9923650523760854e-04
         - -3.1352610750694414e-03
         - -1.3313307342529588e-02
         - 3.4713594891555483e-03
         - 1.0445267069349708e-02
         - 9.9856535421448990e-03
         - 4.2188643836093571e-03
         - 6.3793945096642770e-03
         - 3.0281772879568267e-03
         - -8.1882237787256654e-04
         - -3.1609374392262326e-03
         - -5.3769443631274940e-03
         - 5.8950527289666097e-03
         - -7.8464558331648657e-03
         - -1.3008733807689894e-02
         - 6.4052525857814313e-03
         - 4.6174355411960268e-03
         - 6.3889300739976224e-03
         - -4.0371149517743031e-03
         - 4.1257294942254677e-03
         - 7.6282475312981020e-04
         - -4.2797796924934670e-04
         - -1.1301737225166495e-03
         - -2.6387831819021444e-03
         - -1.0293744724305784e-03
         - -1.0748355157927674e-02
         - 6.6094427547897959e-03
         - -6.3192133911911452e-03
         - -9.4893102822844102e-03
         - 1.9817576651464937e-03
         - -1.1636889595230753e-03
         - -6.9035709382074062e-03
         - 1.1894275635140625e-03
         - -5.6128764762598338e-03
         - 3.5612447994436080e-03
         - -7.4323924059921127e-03
         - 2.0844991014288994e-04
         - -5.5286839434770694e-03
         - -3.1059764268035042e-04
         - -1.1322521307693140e-02
         - -3.4901499176793931e-03
         - -5.4821604198371622e-03
         - -1.3629001227564098e-02
         - 9.1589258668588348e-03
         - 1.1596932953781475e-02
         - -1.2885568475169678e-02
         - -6.8541186086164274e-04
         - -1.5623546684590012e-02
         - -1.2610252569120412e-03
         - 3.3976270959760704e-04
         - -1.9969135592443153e-03
         - 3.7517190899460408e-03
         - -4.2970119086486744e-03
         - -1.7321117773152323e-03
         - 1.4915488750419426e-02
         - 4.5825244070495322e-03
         - 6.4055606931438342e-03
         - 3.1041371258976203e-03
         - 2.4241905189005134e-03
         - -7.1564575502769227e-04
         - -5.4702580578401220e-03
         - -5.1376462557644175e-03
         - 5.7624351376203593e-03
         - -8.7620165105710846e-03
         - -1.3388479886937555e-02
         - 5.0617816945627697e-03
         - 6.4303816575903431e-03
         - 4.5616519512087922e-03
         - -3.2644959078399829e-03
         - 4.0828581969312707e-03
         - -1.0037239117609983e-03
         - -2.0827870594930511e-03
         - -2.8074147067544985e-03
         - 3.9194014978232615e-04
         - -7.4124588913230822e-04
         - -1.3728673091258255e-02
         - 3.6150110138153278e-03
         - -5.1573931522760378e-03
         - -1.1547557410562013e-02
         - 3.5385886872477375e-03
         - 2.0874344244937049e-03
         - -6.6703875108076981e-03
         - 2.5269460567669952e-03
         - -4.9782826047313142e-03
         - 5.6761407219973982e-04
         - -5.2713359900593880e-03
         - 2.4872992782808966e-05
         - -7.3200180475757812e-03
         - -2.6337006178279755e-03
         - -1.1064333282350491e-02
         - -4.0427510480184684e-03
         - -3.2286084780890085e-03
         - -1.3443562708432315e-02
         - 8.9914166762169422e-03
         - 9.7650214110226227e-03
         - -1.2853686350862332e-02
         - 4.9221962165295720e-04
         - -1.4648466860930494e-02
         - 5.4271763465927616e-04
         - 2.4691879676418962e-03
         - -2.4733372061904253e-03
         - 2.2898174389096642e-03
         - -3.5643584281740909e-03
         - -1.3990596456663633e-03
         - 1.1931175743219304e-02
         - 4.9253634244790382e-03
         - 1.0208017197353803e-02
         - 1.6089793587911967e-02
         - -4.0011894586812506e-03
         - 3.3362373661916526e-04
         - -1.7390349725934541e-02
         - -1.5827535688864681e-02
         - 1.3294000614278188e-02
         - -1.5218188695875889e-04
         - -8.1078621485609539e-03
         - -1.4815770085032812e-03
         - -7.2941387378259060e-05
         - 1.5302826498087767e-02
         - -1.7932261421100004e-02
         - -2.3968548082380294e-03
         - -1.1993665599147332e-03
         - -7.6197482845301897e-04
         - 3.9129004902662889e-03
         - -1.4276778294766721e-03
         - 8.0815967384689144e-03
         - -7.3611787907461651e-03
         - 1.5698027598062325e-02
         - -1.1905727911727990e-02
         - -1.9564954965822119e-03
         - 7.6491573530597197e-03
         - 5.4308553341460919e-03
         - -9.6112314939868510e-03
         - 8.4298115751151592e-03
         - -1.7677551243629470e-02
         - 1.9129412861233045e-02
         - -1.4861569837604947e-02
         - 2.6137710645208006e-03
         - -1.1753307463522480e-02
         - -7.0541281224333428e-03
         - -2.9958828191350467e-03
         - -1.9076659375200023e-02
         - -1.5767309967214239e-02
         - -9.4476385377968552e-03
         - 6.0667761787705466e-04
         - 4.1218807686570560e-03
         - -6.0545443635067328e-03
         - -5.9975117141525432e-04
         - -7.1205641868285685e-03
         - 1.0121633186458055e-02
         - 1.3484000122581834e-03
         - 1.3534206155878330e-03
         - -3.6667274349164603e-03
         - -1.8591399143343599e-02
         - 7.7226638708573648e-03
         - 7.9208701142682476e-03
         - 1.3726800928782135e-02
         - 2.4784026200652134e-03
         - 1.0721549143113565e-02
         - 2.1954804122908404e-03
         - -7.3518088437962042e-05
         - -8.9483182639076269e-03
         - -8.6861324972624231e-03
         - 8.2568423218475212e-03
         - -2.9046965799900486e-03
         - -1.0616860078454724e-02
         - 1.9458092299288806e-03
         - 6.8666017553577659e-03
         - 1.0474155273218710e-02
         - -8.6934811858260554e-03
         - 4.0004799212452315e-03
         - 4.3620638945103275e-04
         - -3.0638186016803911e-04
         - -1.1570662483315957e-03
         - -7.7069398381964297e-04
         - 2.8975881466298502e-03
         - -1.0036848634339726e-02
         - 8.4356246786462009e-03
         - -5.8400595170644875e-03
         - -6.6956801868615981e-03
         - 1.2141687735570427e-03
         - -6.4099560761949747e-04
         - -5.0205311119293008e-03
         - 2.6506437404131039e-03
         - -9.2433982567618495e-03
         - 7.4368740913265032e-03
         - -9.9089551956558792e-03
         - -6.8944605847806660e-04
         - -5.6356135641019607e-03
         - -2.3343589769056253e-03
         - -5.3043749876681241e-03
         - -1.0386321428458582e-02
         - -9.8005977710792624e-03
         - -1.2326179376803997e-02
         - 4.9402266124757991e-03
         - 6.4630855013580353e-03
         - -1.0473702873865419e-02
         - -4.3814295667118756e-04
         - -1.0165675657247205e-02
         - 2.5387613616986398e-03
         - -2.2296235206986227e-04
         - 1.1322243274543363e-03
         - 2.8179957549335278e-03
         - -1.0921276141197953e-02
         - 2.7572342646065757e-03
         - 8.3111296239024041e-03
         - 5.3271387081412526e-03
         - 7.6337649027154357e-03
         - 1.5811402758069790e-02
         - -1.3869029060946327e-03
         - 1.9345744259096627e-03
         - -1.2405333951357721e-02
         - -1.4067252253069564e-02
         - 1.2678699385558188e-02
         - -8.2427257141057817e-04
         - -6.9942601736357321e-03
         - 2.7993126392206126e-04
         - 8.9255476089992937e-04
         - 1.3809308339969961e-02
         - -1.3825214027078672e-02
         - 1.5432363508570363e-03
         - -1.3934118096737850e-03
         - 2.2273440921054822e-04
         - 1.4240664821067825e-03
         - 1.6453571738468979e-03
         - 2.5185771546510118e-03
         - -6.1234727941608565e-03
         - 1.0960309175446457e-02
         - -1.1117613557329264e-02
         - -2.0313830537843180e-03
         - 5.3133164149919256e-03
         - 3.4532536528195849e-04
         - -8.3247386230677657e-03
         - 2.0332046571555412e-03
         - -1.3901492152056537e-02
         - 1.2173277445999038e-02
         - -1.1924336787196460e-02
         - 2.6810283758261369e-03
         - -7.9488463128555547e-03
         - -3.6685841182185833e-03
         - -1.2906906395701552e-03
         - -1.3722882116206547e-02
         - -1.2888542044499431e-02
         - -7.7210635877752679e-03
         - 3.3809315022999588e-03
         - 4.2393416922884329e-03
         - -7.1819256378484533e-03
         - -1.3319859102765481e-03
         - -8.2813946320481509e-03
         - 5.2191264808381949e-03
         - 2.3283278592780518e-03
         - -6.4209045867056659e-04
         - 4.5371204075129686e-04
         - -1.5469698129569609e-02
         - 4.6982470150105865e-03
         - 6.2886152289030224e-03
         - 1.0982122617435261e-02
         - 3.4246188738228213e-03
         - 1.1957875865779843e-02
         - -1.0468851345174866e-03
         - -1.2206820139216085e-03
         - -1.2281826026415761e-02
         - -1.0697031750693956e-02
         - 1.1968989428693740e-02
         - -2.7747836442490871e-03
         - -9.6396739551348302e-03
         - 2.2599138058288612e-03
         - 1.6921907976395836e-03
         - 1.0784839479544126e-02
         - -1.1636986165947783e-02
         - 3.6996871767155516e-03
         - 2.4964537307417355e-04
         - -6.7083177037589327e-04
         - 1.1565751131410798e-03
         - 1.4407367825963139e-03
         - 3.3209914431935037e-03
         - -5.5288990852191489e-03
         - 1.0612855358087914e-02
         - -7.7286412056453216e-03
         - -3.0529598786705288e-03
         - 3.4670641061042141e-03
         - 2.3260785377095927e-03
         - -5.8867708911733308e-03
         - 6.1052641376781866e-03
         - -1.1618054964545967e-02
         - 9.4834991198276646e-03
         - -8.5103264823865980e-03
         - 5.5091562732279920e-04
         - -8.9428733813382948e-03
         - -3.8223745806045982e-03
         - -5.9232991680279092e-03
         - -1.1537652369501189e-02
         - -1.0618909107147035e-02
         - -8.8590051971844924e-03
         - 4.2977125796177058e-03
         - 6.3348072894298816e-03
         - -6.8180628312010157e-03
         - 2.4401284537523858e-04
         - -9.9696770290046890e-03
         - 5.5759737828787893e-03
         - -1.0623641995163211e-04
         - 2.7876965406678771e-04
         - 1.9438322201789537e-04
         - -1.0453098350808269e-02
         - 6.2325078858164280e-04
         - 9.4168797832539248e-03
         - 8.0672976101678687e-03
         - 2.0897685465227165e-03
         - 6.6904346838147846e-03
         - 1.0203750316191398e-03
         - -3.3742811705434795e-04
         - -8.9595220920610837e-03
         - -8.1831152043142698e-03
         - 8.1143201578147209e-03
         - -6.3051625715900284e-03
         - -1.0698001992808986e-02
         - 3.1837519109356241e-03
         - 3.1923368649125080e-03
         - 5.8318131264769885e-03
         - -7.7846869620982664e-03
         - 2.4489374044507697e-03
         - -1.5575321821930824e-03
         - -6.2795805763867407e-04
         - -1.2780813702040089e-03
         - 1.2946574539361580e-03
         - 3.0017842194034472e-03
         - -6.5783716803292144e-03
         - 6.8425788627017470e-03
         - -5.4520242747017680e-03
         - -6.9078979434138545e-03
         - 4.5523366572856501e-03
         - 3.9034072144455945e-04
         - -5.3918147816853605e-03
         - 3.2814438527744138e-03
         - -7.3640202434902312e-03
         - 7.4677596808898229e-03
         - -7.0599378811711192e-03
         - 4.6180716204440171e-06
         - -6.1633770635239745e-03
         - -4.4706531764978864e-03
         - -1.0618839396026871e-02
         - -1.0191106867628641e-02
         - -8.5706105626015983e-03
         - -1.0749256393255267e-02
         - 8.0237216866430421e-03
         - 8.1558472402290909e-03
         - -1.1631106161786956e-02
         - 1.4350623013903248e-03
         - -1.1530264623966342e-02
         - 3.2709597982038129e-03
         - -4.3208508966870521e-04
         - 6.7398704193490013e-05
         - 3.2898205454593528e-03
         - -9.1558716837401820e-03
         - 6.3101910623705390e-04
         - 1.1513864656361960e-02
         - 8.8078703684175245e-03
         - 5.6913520265197866e-03
         - 1.0474945602655475e-02
         - -7.4323419170181681e-04
         - -1.1134380096993433e-03
         - -1.2035405602709076e-02
         - -1.2686648913020500e-02
         - 1.0955048136096409e-02
         - -3.3083572915328305e-03
         - -1.0779479862297874e-02
         - 1.0484828957359759e-03
         - 2.4224915931698445e-03
         - 1.2928133574037154e-02
         - -1.1361010297822846e-02
         - 2.8694053574697398e-03
         - -1.3442473982793993e-03
         - 1.6460515813422655e-03
         - 8.1970344685159823e-04
         - -2.8921307470208858e-03
         - 6.2058853202503596e-03
         - -7.4831095167056791e-03
         - 9.4347489691584997e-03
         - -9.3783423495128124e-03
         - -5.3152690245027862e-03
         - 2.9513543471576509e-03
         - 5.6518988615467634e-04
         - -8.5077686426595512e-03
         - 2.4907383156561719e-03
         - -1.3044405221056155e-02
         - 9.7461108036481121e-03
         - -8.9130612986381801e-03
         - 4.6549331218263552e-04
         - -8.1944275924267177e-03
         - -3.6868017521928375e-03
         - -7.2790145347880475e-03
         - -1.3315433293490494e-02
         - -1.1240393455175975e-02
         - -1.2349048986521607e-02
         - 4.3497408912657491e-03
         - 5.3351280102113992e-03
         - -9.8206809013920704e-03
         - 5.0213526563314072e-04
         - -1.1926593054981829e-02
         - 4.3284302463861028e-03
         - 2.4888543009873155e-04
         - -4.0845587632138710e-04
         - 6.2385171057756134e-04
         - -9.7424487283501240e-03
         - 5.5437722086444522e-03
         - 7.5887033754221218e-03
         - 1.0073978828998742e-02
         - 4.7050678112662290e-03
         - 7.9575319393103538e-03
         - -2.5473924373213305e-03
         - 1.2031412653662082e-03
         - -9.3127538305252233e-03
         - -9.2618418340661215e-03
         - 9.4299574386904651e-03
         - -5.9013652021527611e-03
         - -1.3490063009758076e-02
         - 9.6777714700139517e-04
         - 6.1694015490161092e-03
         - 7.4550038457754089e-03
         - -9.7479094192163569e-03
         - 2.0326122466828799e-03
         - -1.1314743614229100e-03
         - 1.1543111924469840e-03
         - 2.4273381878896034e-03
         - -1.2848536781935424e-03
         - 2.3957674214075781e-03
         - -7.0080350909348058e-03
         - 8.6476564682356431e-03
         - -9.1234302709721597e-03
         - -4.7743244279855081e-03
         - 2.7354085625857266e-03
         - 5.4998923112650885e-04
         - -6.3376666801430144e-03
         - 2.6494502544639532e-03
         - -1.1282637332224262e-02
         - 8.8971869469135368e-03
         - -1.0127558088532605e-02
         - 7.6773041378591460e-04
         - -1.0138860679905402e-02
         - -5.3955023989317313e-03
         - -1.0076968747188803e-02
         - -8.8202962408795108e-03
         - -9.1560499348531978e-03
         - -1.0726927085115861e-02
         - 5.8156411471211710e-03
         - 7.1252663071094628e-03
         - -1.1061482706007078e-02
         - -2.1329839368388719e-03
         - -1.1457772664656578e-02
         - 5.3495400845618392e-03
         - 2.2344111690782696e-03
         - 9.4159923738398150e-04
         - 1.5123770537145240e-03
         - -8.7154940908205341e-03
         - 3.7188442566607216e-03
         - 1.2622199117152200e-02
         - 1.0661874873732101e-02
         - 7.2461424052982547e-03
         - 6.1622642219113849e-03
         - 6.0282243133490858e-04
         - 4.9608235106942582e-04
         - -7.6739342674876955e-03
         - -7.1561760706389359e-03
         - 6.6599434718540582e-03
         - -4.0869346215247279e-03
         - -1.0160246717646005e-02
         - 9.4146002302440874e-04
         - 4.3355084684987251e-03
         - 6.8485536176294002e-03
         - -6.9874287501869832e-03
         - 1.6825150045719226e-03
         - -1.5897736467210535e-03
         - 1.9823515300700810e-03
         - -1.3476481204395034e-04
         - -1.6682904534131050e-03
         - 1.9119832381381072e-03
         - -9.4840313887837972e-03
         - 6.7266423649945395e-03
         - -5.3155620361873598e-03
         - -5.2236369420230180e-03
         - 9.9856634416896524e-04
         - 2.3269093741613996e-03
         - -5.5618199331822450e-03
         - 1.0599920383485900e-03
         - -9.2761574873939760e-03
         - 6.5412323364240545e-03
         - -4.9117989566422300e-03
         - 1.1021520178864082e-03
         - -6.3146501361325460e-03
         - -3.5398939528470557e-03
         - -1.0829445730249026e-02
         - -6.2172076555913102e-03
         - -6.3863690106001278e-03
         - -1.1151324471106214e-02
         - 5.3037675442940907e-03
         - 9.1046793213380023e-03
         - -1.1418780904024982e-02
         - -1.7884839571160132e-03
         - -1.3580279627663141e-02
         - 4.3127551568140268e-03
         - 2.0306556819472228e-03
         - -1.4752361113293898e-04
         - 4.4088726540733080e-03
         - -7.9349646133915902e-03
         - 4.0089057062846185e-04
         - 1.1059939435058680e-02
         - 5.6158715164142826e-03
         - 5.6620794994478333e-03
         - 4.4507140331176871e-03
         - 3.9171520470589888e-03
         - -6.2821766339304366e-04
         - -5.8808038756676569e-03
         - -4.7737642285671181e-03
         - 6.1102739872486555e-03
         - -6.7888021466594693e-03
         - -1.0411879230034660e-02
         - 5.0611746870747806e-03
         - 5.2637605272145499e-03
         - 6.2747743266628126e-03
         - -4.5943365625933348e-03
         - 5.2927453151992345e-03
         - -9.7587285311575244e-04
         - 2.4929853206433217e-04
         - -3.3598011661588540e-03
         - 1.1192743554963712e-03
         - -1.5305033687029687e-03
         - -7.1015848159794058e-03
         - 7.4466016589711751e-03
         - -3.7249359777803883e-03
         - -6.2154460516271560e-03
         - 9.1949996434489251e-05
         - -5.5690484641458349e-04
         - -2.3891077114884265e-03
         - -1.7133572346976682e-03
         - -6.0386899574049581e-03
         - 2.9403919640256957e-03
         - -6.0308222348484479e-03
         - -1.7849838366495109e-03
         - -5.4357614792810982e-03
         - 1.7297219345448716e-03
         - -8.0149672248782649e-03
         - -6.2808304880293264e-03
         - -5.9755798349754082e-03
         - -1.1729843637466009e-02
         - 5.9280200522491833e-03
         - 6.6023168927312947e-03
         - -7.7051349374953329e-03
         - -1.5684796308491694e-03
         - -1.0657420842167149e-02
         - 6.6522818220744750e-04
         - -6.5281806477959119e-04
         - -2.2059028510708701e-03
         - 5.0409933712412250e-03
         - -4.7338172336231351e-03
         - -1.1004229840534325e-03
         - 8.6988129011376803e-03
         - 4.8602712573095931e-03
         - 7.8916653682401441e-03
         - 2.4652980560662804e-03
         - 4.2427196473206414e-03
         - 1.9260970233590199e-03
         - -5.4174734739622860e-03
         - -2.4175982330401045e-03
         - 3.9353445556228007e-03
         - -9.0912988790261794e-03
         - -8.1262516006063139e-03
         - 3.9692857120309562e-03
         - 8.2560381008719604e-03
         - 1.2505146592310648e-03
         - -1.2428065063820144e-03
         - 7.1522477905437603e-03
         - 1.4504825555680082e-03
         - 2.8213671799876482e-04
         - -4.6139880525305809e-03
         - -1.5926306281766117e-03
         - -2.8223183188450191e-04
         - -9.2237964301934584e-03
         - 4.3182918476828737e-03
         - -2.8120695678446185e-03
         - -8.0692438782934087e-03
         - 1.2611977603683335e-03
         - -1.6233042222455025e-03
         - 4.9351729147682983e-05
         - -2.1355488855991558e-04
         - -3.8175793930666914e-03
         - 5.1090799202092114e-04
         - -1.2288179078395354e-03
         - 1.8101670262079231e-03
         - -3.0170982087189134e-03
         - 1.6346544007144062e-03
         - -6.3346758598942943e-03
         - -1.7068997417072288e-03
         - -2.9586605487831870e-03
         - -1.1264203908554002e-02
         - 9.1213511602267310e-03
         - 9.1114264255206454e-03
         - -7.6713215826789971e-03
         - -6.6781333618166395e-04
         - -7.5338584986735938e-03
         - 1.9504550353473290e-04
         - -1.3368157304372449e-03
         - 1.0844252983585100e-03
         - 8.6488615210351810e-03
         - -4.1465590188910170e-04
         - -4.8856713828575142e-04
         - 7.4062596970630680e-03
         - 3.2994412301738090e-03
         - 1.0056136218131636e-02
         - 5.5356040757939253e-03
         - 2.5354620441315717e-03
         - 2.2870402799245629e-03
         - -7.6031255379554238e-03
         - -6.3549407417807088e-03
         - 4.8035936953755827e-03
         - -4.5048538636178123e-03
         - -6.6819187700446793e-03
         - 1.8433369661708370e-03
         - 9.7610518441474479e-03
         - 5.8118665452437414e-03
         - -4.9227092100902611e-03
         - 5.5516900805299401e-03
         - -3.0206730197318847e-04
         - 3.3550625150164992e-04
         - -1.0273095141610468e-03
         - 4.2591804265770778e-04
         - 2.5052674207508745e-03
         - -7.6962228957206417e-03
         - 7.2756561482833918e-03
         - -4.4601659774967150e-03
         - -7.1503898428883477e-03
         - 2.5253463575275604e-03
         - -2.0571829227316804e-03
         - -4.1846094758633840e-03
         - -1.3147560723955048e-03
         - -8.7995414458668444e-03
         - 7.0283526397222455e-03
         - -4.9060454499337972e-03
         - -7.1903680746310673e-04
         - -4.4383851024015694e-03
         - 5.4509882413648024e-04
         - -5.7885383486483873e-03
         - -8.5202240038849374e-03
         - -6.8547346977984097e-03
         - -5.8574228841131327e-03
         - 7.0536910054297035e-03
         - 6.3821238706374336e-03
         - -7.9892159575953702e-03
         - -1.0343041313858976e-03
         - -7.2560102820611230e-03
         - 6.9094005187898995e-04
         - 1.4394118333604117e-03
         - -1.7936624776869040e-03
         - 7.9440232489995117e-03
         - -4.8601418764961119e-03
         - -1.4272843915181233e-04
         - 4.6259434103009221e-03
         - 5.4548786970434679e-03
         - 6.9372825923356756e-03
         - 5.7766142285864963e-03
         - 5.7294885586932262e-05
         - 2.3328966188685779e-04
         - -7.0355345360126661e-03
         - -5.1702898628161048e-03
         - 5.3827148779091441e-03
         - -4.9578412329642808e-03
         - -8.1682804837548938e-03
         - 4.1977874721919736e-03
         - 8.9399896288422966e-03
         - 5.9739395137487251e-03
         - -5.8480354321087148e-03
         - 7.4808664379380444e-03
         - -6.3712773703534782e-04
         - 1.9216983980707331e-04
         - 4.9600348607636564e-04
         - -2.4804609247877580e-03
         - 3.1360006952440246e-03
         - -9.6257637059091947e-03
         - 5.0899998562351301e-03
         - -7.0476362027057258e-03
         - -6.4705572813953472e-03
         - 5.9562700137458756e-04
         - 1.7152070132240270e-03
         - -2.1656270191668311e-03
         - -9.8076623950109983e-04
         - -6.1047425549059084e-03
         - 5.3030714483735851e-03
         - -3.3217500631250942e-03
         - 1.6264199763467004e-03
         - -5.1936119042432869e-03
         - -1.4929498904259052e-03
         - -2.0812645127860573e-03
         - -7.3535405640551407e-03
         - -5.2980271989414331e-03
         - -9.1016708898152415e-03
         - 9.7590356419713260e-03
         - 7.7127119941623606e-03
         - -6.5444442562001817e-03
         - -7.2269908919415232e-04
         - -6.6625219245859402e-03
         - 1.5578223732264098e-03
         - 3.1172143624563911e-04
         - 9.4864009363975095e-04
         - 6.6507596406559979e-03
         - -5.1603394160764510e-03
         - 3.1986180295185372e-03
         - 3.1726572982458301e-03
         - 6.1752186775832557e-03
         - 7.2449924092365201e-03
         - 4.5486186993431372e-03
         - 3.0013445862738177e-03
         - -3.4293918504205438e-04
