%YAML:1.0
---
opencv_ml_ann_mlp:
   format: 3
   layer_sizes: [ 324, 50, 2 ]
   activation_function: SIGMOID_SYM
   f_param1: 6.6666666666666663e-01
   f_param2: 1.7159000000000000e+00
   min_val: -9.4999999999999996e-01
   max_val: 9.4999999999999996e-01
   min_val1: -9.7999999999999998e-01
   max_val1: 9.7999999999999998e-01
   training_params:
      train_method: BACKPROP
      dw_scale: 1.0000000000000000e-03
      moment_scale: 0.
      term_criteria:
         epsilon: 1.0000000000000001e-01
         iterations: 100
   input_scale:
      - 1.2018114701294380e+01
      - -1.8373550168412782e+00
      - 1.1707446396617005e+01
      - -1.6078176063705734e+00
      - 1.1929415900571513e+01
      - -1.4728646950929600e+00
      - 1.3059180292198656e+01
      - -1.3665562739100678e+00
      - 1.3463562869015899e+01
      - -1.6078238164845593e+00
      - 1.3481840860278032e+01
      - -1.3875325623092825e+00
      - 1.1866538035134775e+01
      - -1.4692529965227621e+00
      - 1.1302799054581030e+01
      - -1.5891823509161462e+00
      - 1.1914782942570909e+01
      - -1.8296414281427675e+00
      - 1.1753965470179425e+01
      - -1.8808256775094840e+00
      - 1.1353802554855054e+01
      - -1.7376665538695375e+00
      - 1.1372870802163504e+01
      - -1.5704329987824073e+00
      - 1.2381750587096343e+01
      - -1.4666248031646676e+00
      - 1.2692304140085263e+01
      - -1.7137313359925481e+00
      - 1.2646697645113557e+01
      - -1.4724742425528665e+00
      - 1.1540787935400628e+01
      - -1.5844095935412064e+00
      - 1.1252616693890303e+01
      - -1.7267157631170280e+00
      - 1.1713606738354418e+01
      - -1.8724874727435861e+00
      - 1.1834842634975530e+01
      - -1.9855715177729454e+00
      - 1.1214900869759234e+01
      - -1.7246295838558561e+00
      - 1.1448445818909494e+01
      - -1.5955352861877616e+00
      - 1.2498687190700993e+01
      - -1.4890692169009621e+00
      - 1.2683960514471142e+01
      - -1.5632086876675195e+00
      - 1.2580067716671067e+01
      - -1.5034071283226189e+00
      - 1.1432098417559269e+01
      - -1.5956468518683058e+00
      - 1.1196672712012250e+01
      - -1.7336563867980821e+00
      - 1.1827678430245514e+01
      - -1.9872311621501657e+00
      - 1.1635058915724480e+01
      - -2.0158053702665208e+00
      - 1.1219407479038725e+01
      - -1.8602218558321235e+00
      - 1.1222691831080114e+01
      - -1.7187427238492479e+00
      - 1.1911952424894041e+01
      - -1.6043423771421959e+00
      - 1.2086284875280016e+01
      - -1.6656302967445391e+00
      - 1.2045758728794329e+01
      - -1.6186825238621736e+00
      - 1.1179508756766543e+01
      - -1.7393225334050024e+00
      - 1.1124199211054563e+01
      - -1.8954700130479476e+00
      - 1.1571108862544710e+01
      - -2.0361893463982952e+00
      - 1.1824673597771843e+01
      - -1.7179393374718810e+00
      - 1.1649645286011806e+01
      - -1.5967140694396127e+00
      - 1.1895640924337380e+01
      - -1.4816587783199426e+00
      - 1.3169026659783775e+01
      - -1.4006441397168861e+00
      - 1.3186021729933278e+01
      - -1.6322914329437475e+00
      - 1.3157801878604726e+01
      - -1.4135432766303475e+00
      - 1.1778753562618988e+01
      - -1.5052908187856044e+00
      - 1.1282691887652817e+01
      - -1.6050632115490469e+00
      - 1.1750948053433769e+01
      - -1.7218781972175228e+00
      - 1.1677944033553128e+01
      - -1.8367846810953441e+00
      - 1.1292602604535707e+01
      - -1.6874683407930828e+00
      - 1.1409396802839549e+01
      - -1.5599630321221458e+00
      - 1.2476350889571689e+01
      - -1.4767369754295816e+00
      - 1.2574792191726829e+01
      - -1.7262212819042180e+00
      - 1.2464433137668477e+01
      - -1.5077231915564047e+00
      - 1.1503697175153327e+01
      - -1.6134838999729713e+00
      - 1.1261523654364741e+01
      - -1.7350931726129797e+00
      - 1.1626084961526148e+01
      - -1.8458793136940941e+00
      - 1.1607320064418362e+01
      - -1.8509455571358495e+00
      - 1.1164259956914215e+01
      - -1.7104015722583954e+00
      - 1.1426507434796005e+01
      - -1.6101191936456667e+00
      - 1.2397175530061475e+01
      - -1.5303280302950371e+00
      - 1.2523297011859578e+01
      - -1.5892665235679930e+00
      - 1.2502179504842971e+01
      - -1.5342659987495348e+00
      - 1.1421085879142488e+01
      - -1.6254252578108004e+00
      - 1.1250471122178128e+01
      - -1.7371437247122881e+00
      - 1.1579288308929232e+01
      - -1.8615198089376845e+00
      - 1.1633255772857941e+01
      - -1.9893609697325472e+00
      - 1.1113106220865729e+01
      - -1.8080605718944283e+00
      - 1.1166102722948173e+01
      - -1.6933516295024105e+00
      - 1.1818467133992343e+01
      - -1.6065470460099645e+00
      - 1.2044044631300752e+01
      - -1.6793845224967290e+00
      - 1.1999330752064315e+01
      - -1.6460601887857442e+00
      - 1.1153547892423903e+01
      - -1.7495169383675309e+00
      - 1.1059968207973343e+01
      - -1.8689492065028070e+00
      - 1.1490942496436334e+01
      - -2.0007876858387403e+00
      - 1.1878007564924888e+01
      - -1.7152490133760803e+00
      - 1.1826932024230965e+01
      - -1.5830334216591107e+00
      - 1.1988451223119196e+01
      - -1.4732600919098375e+00
      - 1.2844871793688561e+01
      - -1.3868768056493941e+00
      - 1.3044735600857928e+01
      - -1.6427858572655927e+00
      - 1.3073775120527291e+01
      - -1.4461703859263959e+00
      - 1.1770443910371300e+01
      - -1.5325981204580081e+00
      - 1.1244481292711948e+01
      - -1.6251129168125353e+00
      - 1.1667400065105809e+01
      - -1.7299512955824319e+00
      - 1.1960828084213048e+01
      - -1.9528697941252640e+00
      - 1.1433751436037570e+01
      - -1.6359707705426585e+00
      - 1.1577969988446583e+01
      - -1.5255164886560799e+00
      - 1.2300594928028698e+01
      - -1.4369506622788315e+00
      - 1.2550834347107095e+01
      - -1.7173649866589551e+00
      - 1.2594352044048385e+01
      - -1.5012896998527925e+00
      - 1.1613418609537163e+01
      - -1.6089725821888761e+00
      - 1.1177686718989694e+01
      - -1.7081359750435758e+00
      - 1.1765045868542215e+01
      - -1.9602376458632187e+00
      - 1.1637203038840099e+01
      - -1.8495701781310143e+00
      - 1.1335693035191463e+01
      - -1.7108329596185028e+00
      - 1.1521104041534779e+01
      - -1.6095204233181648e+00
      - 1.2281834191039300e+01
      - -1.5280452486339005e+00
      - 1.2499397232937310e+01
      - -1.6091840300464855e+00
      - 1.2367090735964535e+01
      - -1.5534073195622231e+00
      - 1.1437573824249043e+01
      - -1.6430828849788204e+00
      - 1.1296216197609626e+01
      - -1.7664188400231757e+00
      - 1.1507369939959222e+01
      - -1.8503425248100800e+00
      - 1.1959926817067245e+01
      - -2.1223030616635148e+00
      - 1.1265575337094283e+01
      - -1.7784413706546269e+00
      - 1.1357726137919601e+01
      - -1.6783747350872766e+00
      - 1.1842762847596733e+01
      - -1.5850170364628642e+00
      - 1.2029380626667555e+01
      - -1.6809356219448672e+00
      - 1.2057156408553876e+01
      - -1.6368503039079545e+00
      - 1.1298399454361828e+01
      - -1.7339109330786568e+00
      - 1.1085371453019569e+01
      - -1.8635530915175618e+00
      - 1.1789106278142430e+01
      - -2.1329281636562478e+00
      - 1.2249766202378146e+01
      - -1.8147086959131205e+00
      - 1.1743911763654269e+01
      - -1.6027733208458304e+00
      - 1.1938689348791932e+01
      - -1.4963506506862281e+00
      - 1.3124380258665598e+01
      - -1.4298321194746173e+00
      - 1.3420239256009598e+01
      - -1.5125842019692926e+00
      - 1.3174745810926083e+01
      - -1.4519668349295611e+00
      - 1.1681806054535995e+01
      - -1.5266014563737160e+00
      - 1.1115836412926305e+01
      - -1.6045997037448778e+00
      - 1.1973938338284016e+01
      - -1.8042309895258433e+00
      - 1.1947971901825058e+01
      - -1.8656105214320655e+00
      - 1.1281219526615104e+01
      - -1.7148009399514177e+00
      - 1.1464911682291868e+01
      - -1.6142486297182981e+00
      - 1.2420600206260984e+01
      - -1.5387378999968302e+00
      - 1.2505211520452201e+01
      - -1.5945119390018143e+00
      - 1.2513364376839236e+01
      - -1.5550148523664604e+00
      - 1.1323501674355281e+01
      - -1.6336820860992685e+00
      - 1.1171364934222947e+01
      - -1.7440150976905275e+00
      - 1.1787124770410831e+01
      - -1.8581526845696823e+00
      - 1.2177951293399543e+01
      - -1.9399592272497728e+00
      - 1.1351111184416752e+01
      - -1.6768918632856558e+00
      - 1.1518448839249434e+01
      - -1.5811210578249519e+00
      - 1.2381333030646234e+01
      - -1.5195070272673876e+00
      - 1.2712435493286321e+01
      - -1.6027235493858276e+00
      - 1.2549770035995991e+01
      - -1.5481831525660081e+00
      - 1.1316780056831163e+01
      - -1.6257201582460252e+00
      - 1.1128497017635732e+01
      - -1.7282023089941490e+00
      - 1.1860299821685292e+01
      - -1.9301569660979674e+00
      - 1.1950403462819565e+01
      - -1.9997741832236549e+00
      - 1.1307904066988405e+01
      - -1.8196081813316909e+00
      - 1.1307207447243703e+01
      - -1.7138547946870228e+00
      - 1.1835019516910100e+01
      - -1.6357864429287454e+00
      - 1.2167953294186765e+01
      - -1.7217673731964036e+00
      - 1.2088062793318079e+01
      - -1.6842473786021830e+00
      - 1.1079278390388117e+01
      - -1.7656334779609626e+00
      - 1.1024976503890349e+01
      - -1.8851298323471160e+00
      - 1.1636484568304907e+01
      - -1.9937671894248210e+00
      - 1.2122799073217807e+01
      - -1.7167178490084789e+00
      - 1.1679792680391044e+01
      - -1.5913489845400939e+00
      - 1.1957232233974665e+01
      - -1.5138362390479798e+00
      - 1.2918765830193029e+01
      - -1.4486384214984143e+00
      - 1.3221809332435159e+01
      - -1.5299384169809578e+00
      - 1.3121303590436764e+01
      - -1.4699081143706945e+00
      - 1.1647844302632882e+01
      - -1.5430760950306621e+00
      - 1.1244721528383446e+01
      - -1.6157723601331475e+00
      - 1.1974444761118743e+01
      - -1.7260218964143288e+00
      - 1.1830134741250976e+01
      - -1.8246876251354669e+00
      - 1.1375127852752007e+01
      - -1.6933065592170586e+00
      - 1.1468684829234784e+01
      - -1.6053689644925990e+00
      - 1.2175579206143691e+01
      - -1.5214329357876137e+00
      - 1.2475516657098067e+01
      - -1.5987155028962858e+00
      - 1.2527507647992490e+01
      - -1.5567287425802951e+00
      - 1.1458754960297611e+01
      - -1.6400156262399892e+00
      - 1.1190365116006488e+01
      - -1.7289574373482559e+00
      - 1.1717903150442321e+01
      - -1.8267982773260529e+00
      - 1.1941143359663307e+01
      - -1.8389501312795387e+00
      - 1.1316462660152672e+01
      - -1.6903531507617635e+00
      - 1.1557669701060496e+01
      - -1.6261365398350387e+00
      - 1.2317404943139490e+01
      - -1.5543639052978850e+00
      - 1.2577060020858095e+01
      - -1.6374983995048600e+00
      - 1.2468342386999572e+01
      - -1.5751610911111884e+00
      - 1.1276807692632842e+01
      - -1.6412853741757991e+00
      - 1.1074344297754640e+01
      - -1.7241123264533900e+00
      - 1.1587494732942911e+01
      - -1.8179582299031587e+00
      - 1.1792930297473150e+01
      - -1.9692586860793457e+00
      - 1.1181296770996919e+01
      - -1.7947540378318771e+00
      - 1.1172245227731272e+01
      - -1.6989036344734072e+00
      - 1.1744196255620066e+01
      - -1.6359051138593244e+00
      - 1.2100505070352403e+01
      - -1.7343392226368017e+00
      - 1.2104069558622252e+01
      - -1.6874411291801741e+00
      - 1.1120872294828079e+01
      - -1.7748471103373546e+00
      - 1.0927384953890032e+01
      - -1.8627303660591408e+00
      - 1.1439871550277314e+01
      - -1.9471271620565027e+00
      - 1.2157322224998611e+01
      - -1.7143500298044447e+00
      - 1.1871550535961653e+01
      - -1.6044360539106053e+00
      - 1.1974285132748463e+01
      - -1.5194833237457135e+00
      - 1.2701919552179987e+01
      - -1.4518599398600227e+00
      - 1.2972487402409374e+01
      - -1.5337925152521339e+00
      - 1.3097827761596557e+01
      - -1.4963500578782409e+00
      - 1.1691976601973080e+01
      - -1.5555686471962471e+00
      - 1.1341169546999113e+01
      - -1.6429213564623899e+00
      - 1.1943223772264931e+01
      - -1.7228503794716188e+00
      - 1.2237288253573892e+01
      - -1.9694695148375871e+00
      - 1.1464529542782145e+01
      - -1.6789544257687106e+00
      - 1.1483061777796578e+01
      - -1.5826794713383006e+00
      - 1.2196117296623889e+01
      - -1.5164383230961456e+00
      - 1.2460170913677969e+01
      - -1.6009413068921667e+00
      - 1.2566148814459318e+01
      - -1.5482444320591320e+00
      - 1.1615005017986840e+01
      - -1.6354189855693737e+00
      - 1.1306926812275863e+01
      - -1.7224798743622107e+00
      - 1.2099691811266773e+01
      - -1.9634268485107220e+00
      - 1.1904091561725918e+01
      - -1.8385080789459918e+00
      - 1.1291616261941746e+01
      - -1.7016813620171809e+00
      - 1.1509440843747816e+01
      - -1.6299473646787990e+00
      - 1.2132590260863752e+01
      - -1.5511677044273700e+00
      - 1.2331772026721302e+01
      - -1.6394467798037431e+00
      - 1.2465881893521056e+01
      - -1.6025015407602592e+00
      - 1.1340189934418973e+01
      - -1.6573492117901489e+00
      - 1.1237647517720855e+01
      - -1.7572181707329364e+00
      - 1.1735478714304282e+01
      - -1.8308529006805971e+00
      - 1.2226953535090628e+01
      - -2.1142872448351517e+00
      - 1.1296910810903672e+01
      - -1.7883713937788315e+00
      - 1.1342219116335398e+01
      - -1.6965263955364325e+00
      - 1.1782612191060316e+01
      - -1.6102624002550578e+00
      - 1.2106624857315708e+01
      - -1.7108826517464748e+00
      - 1.2017746451224269e+01
      - -1.6634335644794722e+00
      - 1.1220855800626714e+01
      - -1.7428416150513095e+00
      - 1.1093777364785845e+01
      - -1.8382758145794145e+00
      - 1.2077254691855453e+01
      - -2.1209952082169203e+00
      - 1.2421141517616981e+01
      - -1.7854586696100778e+00
      - 1.1814077819498404e+01
      - -1.5562241533625916e+00
      - 1.1963479016406650e+01
      - -1.4854592424978141e+00
      - 1.3005802562628684e+01
      - -1.4389533165044934e+00
      - 1.3478078866148522e+01
      - -1.5381516961012058e+00
      - 1.3525413681801830e+01
      - -1.5108449934869543e+00
      - 1.1588073006940409e+01
      - -1.5680918008926472e+00
      - 1.0963231895956985e+01
      - -1.6339970544688853e+00
      - 1.2064332156827744e+01
      - -1.8240774222028306e+00
      - 1.2050326011297370e+01
      - -1.8471416301060390e+00
      - 1.1461165484413781e+01
      - -1.7029919076365478e+00
      - 1.1472012224027113e+01
      - -1.6241152857736725e+00
      - 1.2260269545031827e+01
      - -1.5524687051343329e+00
      - 1.2464848238597037e+01
      - -1.6306433395668778e+00
      - 1.2704283493200251e+01
      - -1.6064258211051712e+00
      - 1.1396743120149559e+01
      - -1.6745596491901296e+00
      - 1.1054868491638356e+01
      - -1.7689979743121147e+00
      - 1.1722748137388749e+01
      - -1.8563893617681422e+00
      - 1.2503811929962509e+01
      - -1.9245080788236928e+00
      - 1.1469426888183001e+01
      - -1.6087390988770138e+00
      - 1.1507083746164367e+01
      - -1.5123823418086562e+00
      - 1.2510207424666362e+01
      - -1.4780408243244463e+00
      - 1.3096109530175667e+01
      - -1.8687938007382241e+00
      - 1.2941885716940174e+01
      - -1.5684285819323973e+00
      - 1.1483055806133436e+01
      - -1.6763544075168506e+00
      - 1.0972827952686400e+01
      - -1.7516943608474356e+00
      - 1.1985463213326446e+01
      - -1.9595441855373847e+00
      - 1.2137144452515457e+01
      - -1.9709877331245551e+00
      - 1.1403513517415135e+01
      - -1.7757955384844419e+00
      - 1.1232221300729158e+01
      - -1.6505162693015720e+00
      - 1.1786061191114502e+01
      - -1.5802469301109581e+00
      - 1.2669042095984665e+01
      - -2.0222457127009883e+00
      - 1.2326043151898650e+01
      - -1.6788230185272146e+00
      - 1.1324904369381471e+01
      - -1.8101337888085045e+00
      - 1.0947099174647992e+01
      - -1.8990251731280994e+00
      - 1.1663442002608775e+01
      - -2.0027776270413034e+00
      - 1.2310812146583684e+01
      - -1.7146752570218520e+00
      - 1.1851721512141248e+01
      - -1.5908050788310637e+00
      - 1.1899778243164247e+01
      - -1.5277594361901716e+00
      - 1.2785202083979275e+01
      - -1.4731286649920998e+00
      - 1.3114932973375399e+01
      - -1.5617302435710716e+00
      - 1.3328885526316173e+01
      - -1.5195275018584975e+00
      - 1.1727714593876271e+01
      - -1.5804405095935097e+00
      - 1.0977454548694336e+01
      - -1.6204228595281778e+00
      - 1.1744367859966992e+01
      - -1.7016538205066452e+00
      - 1.1991998942619304e+01
      - -1.8248018670178883e+00
      - 1.1451287729415023e+01
      - -1.7010051698179673e+00
      - 1.1323827656957310e+01
      - -1.6020127974358025e+00
      - 1.2155209294356808e+01
      - -1.5569900992387928e+00
      - 1.2520080017036069e+01
      - -1.6558496082027656e+00
      - 1.2681776805410010e+01
      - -1.6070519286482401e+00
      - 1.1406117057444515e+01
      - -1.6648627974252745e+00
      - 1.0981803431236330e+01
      - -1.7312080217163930e+00
      - 1.1530018569001362e+01
      - -1.7988109180207617e+00
      - 1.2317300413138966e+01
      - -1.8322746939421413e+00
      - 1.1439465991519466e+01
      - -1.6661463425879537e+00
      - 1.1396950118239744e+01
      - -1.5635085360109209e+00
      - 1.2251705241459419e+01
      - -1.5153927030544292e+00
      - 1.2940976530848239e+01
      - -1.9007567480482148e+00
      - 1.2885331908211278e+01
      - -1.5766891188949890e+00
      - 1.1562974311729784e+01
      - -1.6648517913544232e+00
      - 1.1078254062044795e+01
      - -1.7268089999102179e+00
      - 1.1654820098769024e+01
      - -1.8120205883621048e+00
      - 1.2146666170939344e+01
      - -1.9553625893886857e+00
      - 1.1479644189859274e+01
      - -1.7895888638510511e+00
      - 1.1230173342855574e+01
      - -1.6705001833114426e+00
      - 1.1715212131348371e+01
      - -1.6059474113090504e+00
      - 1.2762885477149636e+01
      - -2.0586868431309093e+00
      - 1.2418876122311440e+01
      - -1.6824122150364014e+00
      - 1.1241521965926161e+01
      - -1.7708430105409325e+00
      - 1.0892493602164409e+01
      - -1.8467287798266561e+00
      - 1.1577224771699056e+01
      - -1.9391899619586803e+00
      - 1.2292144319885756e+01
      - -1.6993860286626796e+00
      - 1.1728411629945027e+01
      - -1.6012134251960362e+00
      - 1.1775215855385746e+01
      - -1.5232405461763245e+00
      - 1.2652002486797423e+01
      - -1.4745430569132592e+00
      - 1.2972197997937498e+01
      - -1.5689380566364490e+00
      - 1.3149688441702398e+01
      - -1.5371785038725307e+00
      - 1.1654277392863712e+01
      - -1.5871481031678789e+00
      - 1.1127713931075453e+01
      - -1.6331636103332670e+00
      - 1.1771116971252416e+01
      - -1.6861993428109079e+00
      - 1.2181987562901567e+01
      - -1.9316759827390013e+00
      - 1.1455478496514713e+01
      - -1.6775617772721596e+00
      - 1.1439873294960277e+01
      - -1.5922465161663155e+00
      - 1.2303896470912893e+01
      - -1.5390331605680718e+00
      - 1.2535797943143825e+01
      - -1.6239807392211241e+00
      - 1.2662486768278468e+01
      - -1.5869798674291840e+00
      - 1.1627203985521060e+01
      - -1.6538496838003092e+00
      - 1.1252587464123248e+01
      - -1.7163730072142003e+00
      - 1.1979626083060179e+01
      - -1.9341695714355329e+00
      - 1.2163024799976696e+01
      - -1.8038273324172049e+00
      - 1.1518984195358282e+01
      - -1.6825217604324376e+00
      - 1.1302675642731675e+01
      - -1.5847758475997424e+00
      - 1.2066064869289857e+01
      - -1.5372975469793768e+00
      - 1.2908691100903772e+01
      - -1.9410156796461813e+00
      - 1.2713564433861759e+01
      - -1.5858949018506361e+00
      - 1.1563434083908289e+01
      - -1.6663692302606221e+00
      - 1.1100681433637380e+01
      - -1.7162051281699553e+00
      - 1.1655439717974380e+01
      - -1.7810354857296813e+00
      - 1.2285984876731980e+01
      - -2.0635717574149433e+00
      - 1.1449646796985128e+01
      - -1.7673808009027965e+00
      - 1.1262630116334918e+01
      - -1.6696190119201890e+00
      - 1.1746515629412011e+01
      - -1.5991563547912273e+00
      - 1.2622448568080298e+01
      - -2.0276729454770628e+00
      - 1.2153338978261599e+01
      - -1.6374496228380606e+00
      - 1.1296836101490017e+01
      - -1.7213264805637154e+00
      - 1.0991605588087511e+01
      - -1.7962108334323132e+00
      - 1.1831811331037398e+01
      - -2.0428353831252859e+00
   output_scale:
      - 5.2631578947368418e-01
      - 4.9999999999999994e-01
      - 5.2631578947368418e-01
      - 4.9999999999999994e-01
   inv_output_scale:
      - 1.8999999999999999e+00
      - -9.4999999999999996e-01
      - 1.8999999999999999e+00
      - -9.4999999999999996e-01
   weights:
      -
         - -4.8582871267624651e-02
         - 1.8117015809428275e-02
         - 1.9570748730947048e-02
         - -7.5208047334309894e-03
         - 5.9907623392723361e-03
         - 1.9128570117487486e-02
         - -2.4774838576390196e-02
         - 1.3949246587786047e-02
         - 2.7968192082246268e-02
         - 4.9642640769921927e-02
         - -1.6606974084841738e-02
         - 8.2742240181792923e-02
         - -1.6531906560730354e-02
         - -2.3243361371774175e-02
         - -2.7788598515423979e-02
         - -1.2269830861626628e-02
         - -3.4194607618086389e-02
         - 1.9628113587065149e-02
         - 2.2028831915490762e-02
         - -2.6209345338432017e-02
         - 1.6701201164928129e-02
         - 3.0990972282712460e-02
         - 2.8922950590900658e-02
         - 2.5578282833712791e-02
         - -3.9649067735909711e-02
         - 4.8889752106815086e-02
         - -4.9274827258778695e-03
         - 4.1764773118861308e-02
         - -1.7888739108933170e-03
         - 3.4255877134058088e-02
         - -4.5342163860208166e-03
         - 5.3527499762717895e-02
         - -4.7286402738558615e-02
         - 1.6970264526522418e-02
         - 1.9673977975682475e-02
         - -7.6127144544595382e-03
         - -1.4748000709182002e-02
         - -1.0234605203779375e-03
         - -2.9802097824354022e-02
         - 1.2339642749434540e-02
         - 6.7441825074606356e-03
         - 1.6373158692857534e-02
         - -6.2695592100166127e-03
         - -3.8302755817600016e-02
         - -5.7598277044025401e-03
         - 1.1104529885330361e-02
         - -5.6989314116024307e-02
         - 6.7382788228172339e-03
         - -4.0141311447170081e-03
         - 3.0203488231231597e-02
         - 2.1223341382812566e-02
         - -7.5265412027966582e-03
         - -3.6519422663660981e-03
         - 2.2356599840641237e-03
         - -8.9868212781237349e-03
         - -5.9896277823772246e-03
         - 1.4199079830967682e-02
         - -7.0296634195799517e-03
         - -1.0003793574422550e-02
         - -4.4264201972077123e-02
         - 9.1291297477812255e-03
         - 4.4545677192169477e-03
         - 1.4329041124168504e-02
         - 1.4750227366006679e-02
         - 1.3561584279426882e-02
         - 2.3975311994781385e-03
         - 2.1668662815342216e-02
         - -8.7627598725271653e-03
         - -8.3180731473450689e-03
         - 6.8924604896599831e-03
         - -7.4830733618863618e-03
         - -1.2022419595612207e-02
         - -1.4509305588200322e-02
         - -8.3452583793027085e-03
         - 1.4952652396796872e-02
         - -2.1202176451202634e-02
         - 5.1264256637724211e-03
         - -2.0380988432325279e-02
         - 2.1329745887189127e-03
         - -2.2447920112412124e-02
         - -3.2126253457566362e-03
         - 1.0260477207401341e-02
         - 3.3023562015607896e-02
         - -5.9730251990694405e-03
         - -8.3048928806762155e-03
         - 3.3151989937799759e-03
         - 3.4142430481740212e-02
         - 2.2696306566494292e-03
         - 1.8796097139214180e-02
         - -2.0669310179812451e-03
         - 3.8982451012979213e-03
         - -1.2398920087834832e-02
         - 1.2777732758741348e-02
         - 1.3030956404432251e-02
         - 4.9796100925524906e-03
         - -1.1488232567259248e-02
         - 2.0625235431596545e-02
         - -6.3740750636624114e-04
         - 3.7726188946998213e-03
         - -1.2123570184445999e-02
         - 5.8668582503409224e-03
         - 2.8923330791542543e-03
         - -4.8152187041342791e-03
         - 5.8196579421170968e-03
         - -6.0903492655807424e-03
         - 1.6803527057772532e-03
         - 6.5974441036898415e-03
         - 1.2747836842446538e-03
         - -5.0002728008705392e-03
         - -3.3961068608322535e-02
         - -2.5305328127850132e-03
         - -2.5587559119798025e-02
         - -3.7130246344070396e-03
         - 8.3205569646890420e-03
         - 2.2854659567288102e-04
         - 4.4881204384885276e-03
         - 1.0940243636073269e-02
         - -6.9246992976238495e-03
         - -1.1934306300361540e-03
         - -2.8016301871678978e-03
         - -6.3877120408915690e-03
         - -7.4863550650193528e-03
         - -1.7984950704348270e-03
         - -2.2179259721283339e-03
         - 6.7906386760101366e-03
         - 7.9692557796013687e-04
         - 1.5105026800036239e-03
         - -1.0080280138689458e-02
         - -3.5637604870070909e-03
         - -7.5202691390733661e-03
         - 5.7196736457525901e-03
         - 1.2358252015207967e-02
         - 2.9557853956200489e-02
         - 1.9761654783335136e-03
         - -9.5588915555998525e-03
         - -3.7370943684929842e-03
         - 9.6622759888346961e-03
         - -4.7355429763900683e-03
         - 4.1813659854486439e-03
         - 2.5574970178976857e-03
         - 2.9414612371887433e-03
         - 1.3221702539786772e-03
         - 3.2194292344843046e-03
         - 5.0147835415412512e-03
         - -6.3621092930341168e-04
         - 4.8291635247567409e-04
         - 3.0825855009337499e-02
         - -3.2781946349912322e-04
         - 3.8606202190139254e-03
         - -8.7015171428722442e-03
         - -3.1549688012662842e-02
         - 1.6134434792384487e-02
         - 3.8017253982606599e-03
         - -4.0840459781579302e-03
         - 6.7989411394236482e-03
         - 1.1097286608028162e-02
         - -1.2484992332183441e-02
         - 1.2434860565254160e-02
         - 1.6792110929940558e-02
         - 4.2582275438432161e-02
         - -1.6377602071504932e-02
         - 1.1873677849002603e-02
         - -5.4185121505265568e-03
         - -2.4243979159315369e-02
         - -1.5267717282508463e-02
         - -1.1786327007057014e-02
         - -2.2832827828365116e-02
         - 2.9742285065177745e-03
         - 1.4606415413944338e-02
         - -1.0919305781380641e-02
         - 5.3317912445321096e-03
         - 2.1044162545750433e-02
         - 1.1146904970893131e-02
         - 1.4958610462216238e-02
         - -1.9956479518122808e-02
         - 3.7943295388010077e-02
         - -8.1066887452645904e-03
         - 1.6566958024090025e-02
         - 8.6610457464255904e-04
         - 2.1300581078198089e-02
         - -3.5698260123837406e-03
         - 1.4408246295499126e-02
         - -3.4128354734496345e-02
         - 1.0477276696613679e-02
         - 6.6024843687302655e-03
         - -7.8010750916806815e-03
         - -1.5955109664809800e-02
         - -4.5968747663042006e-03
         - -1.9914404279155147e-02
         - 3.0068121518370421e-04
         - -4.2505883595059411e-03
         - 6.0497801723448583e-03
         - -1.1405064604765033e-02
         - -2.5022807210834750e-02
         - -6.6627414194273381e-03
         - 1.3555508696923580e-02
         - -2.0392433120725625e-02
         - 4.2279826992613608e-04
         - -5.1638978849424186e-03
         - 1.4840636427351839e-02
         - 1.3265768813766480e-03
         - -6.3547602889752015e-03
         - 2.3370702590196236e-03
         - -6.7727713902015747e-04
         - -6.2822115867148384e-03
         - -8.9909732433494424e-03
         - -4.0562039190015516e-04
         - 2.0813244477456958e-03
         - -4.7110520504322030e-03
         - -4.9579630464109525e-03
         - 1.0751987698304875e-02
         - -4.1638250006643895e-02
         - -5.0700149344619838e-04
         - 3.2009454454904854e-03
         - -3.3479379822358749e-04
         - 7.8651230365437454e-03
         - 1.2499477011821731e-02
         - 3.7118522669293231e-03
         - -6.8825049214451929e-03
         - 6.3654895371716555e-03
         - 6.8502449235764937e-05
         - -3.8763098412526393e-03
         - -9.4496417303960231e-03
         - -4.8417736652498142e-03
         - 1.0549563816798967e-02
         - -5.9718660626453752e-03
         - -4.5790869503546348e-03
         - -5.4082358195535161e-03
         - 1.0806807873368349e-03
         - -5.0010306506556076e-03
         - -4.9588223253374845e-04
         - -3.8401487688237271e-02
         - 1.8657980728322148e-04
         - 1.6479777643074065e-03
         - -1.0330035160800439e-03
         - -4.9991703033300233e-03
         - 1.7483986399474783e-02
         - 4.9107774475599959e-03
         - -1.0639953672045501e-03
         - -6.0567281927840959e-03
         - -4.2387096372498477e-03
         - -3.1803074412500324e-03
         - 3.7012606481187926e-03
         - 4.1206456629812706e-03
         - -4.8261333762746328e-03
         - -7.7099710227492915e-03
         - 2.5598851777315402e-02
         - 2.4164837722693401e-03
         - -1.7424334688820673e-03
         - -8.8070755374668654e-03
         - -3.9020293423843201e-02
         - 1.7243672748136523e-02
         - 1.5501922426959537e-02
         - -1.1657418156541807e-02
         - 4.3504371806371862e-03
         - 1.1923389512208461e-02
         - -1.5411132475271786e-02
         - 1.1223134704185378e-02
         - 2.3072473901082160e-02
         - 4.6592279122784790e-02
         - -1.5664649402845458e-02
         - 2.6731682062656754e-02
         - -1.9398658715412014e-02
         - -3.0469679955599953e-02
         - -1.4846873258956585e-02
         - -7.5380297781617060e-03
         - -2.8879273429930522e-02
         - 1.0796600291704456e-02
         - 1.6025821063487104e-02
         - -1.9864170955536886e-02
         - 6.5761856497842525e-03
         - 2.8748527916140000e-02
         - 2.0973269973388216e-02
         - 1.2718958862953315e-02
         - -2.9534384472829245e-02
         - 2.4474014435351441e-02
         - -8.9800813795578064e-04
         - 3.7053972415466159e-02
         - -1.7219822464475325e-03
         - 3.8085477086378779e-02
         - 6.0901545281459319e-04
         - 6.4385250474714023e-03
         - -3.8026985160785648e-02
         - 5.5131607850090261e-03
         - 1.3594888174285372e-02
         - -1.3236989845176404e-02
         - -5.4529204063213949e-03
         - 1.1751590780742333e-03
         - -2.5665793927205402e-02
         - 3.5658042962115732e-03
         - 8.8912832886605233e-04
         - 1.0272393883852112e-02
         - -1.0503491510587057e-02
         - -3.0037444259486429e-02
         - -4.6105830695719078e-03
         - 7.4936664033091139e-03
         - -4.3129818155776656e-02
         - 6.6636919152653906e-03
         - -4.7245627724636355e-03
         - 1.8317087308649942e-02
         - -1.2203283030226076e-02
         - 1.1418999493099766e-03
         - 9.5306626584746137e-04
         - 3.9136855961349076e-04
         - 5.2425842223418305e-03
         - 8.9275161533015155e-03
         - -1.0961214831894307e-02
         - -1.5668319549525045e-03
         - 1.1417561786065494e-02
         - 1.2557964989681297e-02
         - -6.8065118448078360e-03
         - -1.5063308896446480e-02
         - -6.7453831889917786e-03
         - -1.7788166911495970e-02
         - -9.7956267050733747e-03
         - -5.4543176393466730e-03
         - -1.9728555123695105e-02
         - 1.0805406713124979e-02
         - 1.0003978624533632e-02
         - -3.7219840422545790e-03
         - 1.0864525688180613e-02
         - 5.9537048268190375e-03
         - 1.4168201583027888e-02
         - 7.0201824123984780e-03
         - -1.4380679886359547e-02
         - -9.0908689961769606e-03
         - 3.4204159731598006e-03
         - 1.7268185500456976e-02
         - 3.1947922984449074e-03
         - 1.8551847172000608e-02
         - 1.1324944439594941e-03
         - -2.1783395034518114e-04
         - -1.3125049447191742e-02
         - 1.0004499068549194e-02
         - 4.2963526046927401e-03
         - -4.6757459279638076e-03
         - -1.1001589701711493e-03
         - -2.0196422434026343e-03
         - -4.9472948330727658e-03
         - -2.3569150014459031e-03
         - 1.7442417596206321e-04
         - 6.4611917454812659e-03
         - -3.7521724858255736e-03
         - -6.2077374778756432e-03
         - -5.7482661332456421e-03
         - 4.2109038823127535e-03
         - -2.4333129566767860e-02
         - 8.2706826177009005e-03
         - 1.9405791354041380e-03
         - 8.1554399739950031e-03
         - -2.0513644333332869e-02
         - 7.1781123996617210e-04
         - 6.0134275523802171e-03
         - -1.6886807004167068e-03
         - -1.4868218621721537e-03
         - 5.0414872627194459e-03
         - -3.8418375829378450e-03
         - 5.3327537559416036e-03
         - 4.5185517624996632e-03
         - 1.7579756050506011e-02
         - -1.0099909295693713e-02
         - -5.1542748656561048e-02
         - -1.0387055623192629e-02
         - -9.2241376804072118e-03
         - -1.0375730786663422e-02
         - -6.9861781572870887e-03
         - -2.1900130275108527e-02
         - 4.0955431245469345e-03
         - -8.9997460984172193e-06
         - -9.0831699188862226e-03
         - -4.7268678316709020e-04
         - 1.2298547852434349e-02
         - 1.1757212573946811e-02
         - 2.0972954202205271e-03
         - -1.8504040472036208e-02
         - -1.2087207110574860e-03
         - -2.1099253927871271e-04
         - 1.6389372216628204e-02
         - -6.0848391336044971e-03
         - 1.1976616925812322e-02
         - -2.1370843708662856e-03
         - -9.0330979287526723e-03
         - -1.5901670651387197e-02
         - 3.9890380702762489e-04
         - -4.3692184873124810e-04
         - -4.6008005192347060e-03
         - -1.7407431329897544e-02
         - -4.6956966571281710e-04
         - -1.2964221504606062e-03
         - 8.2282757034268933e-03
         - -1.3353792997512620e-03
         - 8.6383437441435234e-04
         - -7.9917554817174278e-03
         - -1.2920470091234676e-02
         - 2.1944051591640625e-03
         - 7.7828019040608130e-03
         - 1.7831096491300848e-02
         - 2.6293779924584991e-03
         - 1.4247987565434936e-03
         - 1.1957371630182978e-02
         - -1.8350357588467443e-02
         - 2.6195915708011547e-03
         - 5.6124321949645875e-03
         - -2.9090255739192125e-04
         - 2.0429031707913211e-04
         - 5.2256132484300236e-03
         - -7.6790976266913249e-03
         - -1.9375979852484084e-04
         - 6.3305289211344606e-03
         - 1.7037202711982617e-02
         - -6.8063601006101227e-03
         - -1.6367777067540557e-02
         - -7.7021823759333627e-03
         - -3.7979436160710538e-03
         - -1.1488367142173763e-02
         - -1.9325134821084602e-03
         - -1.6427388241793916e-02
         - 3.3864528619931993e-03
         - 5.3127324898612225e-03
         - -2.6730218348486724e-04
         - 6.8959126116467061e-03
         - 5.4387143138018802e-03
         - 1.4051408331316024e-03
         - 1.7265932735262581e-03
         - -1.0974288171018138e-02
         - 1.9292138284805551e-02
         - -1.1277459019770042e-03
         - 5.7750918991432369e-03
         - -4.1761594768795936e-03
         - 1.8164617823650666e-02
         - -3.6241023476229236e-03
         - 8.0534065951170016e-03
         - -1.3116262816304869e-02
         - 7.6203654948831957e-03
         - -8.0512906689957260e-04
         - -1.2671205964216297e-04
         - -2.0177115141369016e-02
         - 1.5210682955777091e-05
         - -9.0423447901647729e-03
         - 3.9966726809740833e-03
         - 3.7023646294094084e-03
         - 4.8653026440484727e-03
         - -3.1758483649934135e-04
         - -1.0318823927850419e-02
         - -5.1284937704345636e-04
         - 4.7439189266537838e-03
         - 1.1530468369163046e-02
         - 4.1415134354025123e-04
         - -7.6672025397223368e-03
         - 5.4546678716614174e-03
         - 1.5658259149747871e-02
         - -5.6582605277545467e-03
         - -9.0279444538678040e-03
         - 6.2481831690242261e-03
         - -4.9605345642863589e-03
         - -2.3765930562595259e-03
         - 4.7846365876037453e-03
         - -2.4770912216735023e-03
         - -4.8306637182116098e-03
         - -2.5547246203463696e-02
         - 7.4007530346848699e-03
         - 4.2380573566859023e-02
         - -2.4015561160323554e-04
         - 8.4547396515936395e-03
         - 1.1909429721467196e-02
         - 6.3441939762941919e-03
         - 1.4295793251667877e-02
         - -1.1613837944026281e-03
         - -3.8075334734332745e-04
         - 8.8561513880924606e-03
         - 2.2197516398229765e-04
         - -9.6531594298897901e-03
         - -4.5911615523588963e-03
         - -2.3727449830983800e-03
         - 8.2216516896375120e-03
         - -4.4891292553555315e-03
         - -2.0704400271020829e-03
         - -1.0489601446059564e-02
         - 8.3651920350190784e-03
         - -1.0502397642141057e-02
         - 3.7475947575659277e-04
         - -3.4916588868961988e-03
         - 1.7624524410555484e-02
         - -2.9286123363371958e-05
         - -7.3296895863772639e-03
         - -3.4897963158905037e-03
         - 3.4099027182376097e-02
         - -5.2523178111725443e-03
         - 6.6738484835863997e-03
         - -3.0802674840193895e-03
         - 1.9577789357136926e-03
         - -3.9113890346950380e-03
         - 9.3793529698814708e-03
         - 5.2736779380911413e-03
         - 8.5044112337538270e-03
         - -5.0244010135254971e-03
         - 5.5305735192255987e-03
         - 3.4600470450992372e-04
         - 6.9249576773327210e-03
         - -4.9717298046863733e-03
         - 4.2815095182312263e-03
         - 8.2271151929907242e-03
         - 2.4307190996147080e-03
         - -4.4937764256800716e-03
         - 3.6544616132885102e-03
         - 3.7809488684704515e-03
         - 4.5337186258256525e-03
         - 4.1886059781122958e-03
         - 1.9871925899836995e-03
         - -1.4350792439772653e-02
         - -7.5968973976530511e-03
         - 4.1286330750356426e-02
         - -3.0387222931231336e-03
         - 2.7086665360612616e-03
         - -3.8686293870772610e-03
         - -4.6475797959237997e-03
         - -6.5525340201849193e-03
         - 6.8487307335028677e-03
         - -2.6985077155513406e-03
         - -7.2040149520485198e-03
         - 4.2687270573470463e-03
         - 8.8854761442988695e-03
         - 4.5745499874441809e-03
         - 1.7577098506741408e-03
         - 1.0955694769785316e-03
         - 4.2131002200828721e-03
         - 3.0935324940269504e-03
         - -3.7631997843120147e-03
         - -3.3545990642192365e-03
         - 3.9258090652961770e-03
         - -2.5288940996173919e-03
         - 2.6131330250369320e-02
         - 1.1604195125434844e-02
         - -1.7989576256126165e-03
         - -4.9163080291093541e-03
         - 4.7504308724504478e-03
         - 9.9931326981103161e-03
         - -6.1023435193793942e-03
         - 6.9154917585762411e-04
         - 1.4389464547015954e-03
         - -3.0566865512943386e-03
         - -2.2759193215705488e-03
         - 2.6788159146286664e-03
         - -1.0295669659463418e-02
         - 2.4872321046747522e-03
         - -4.3443922546402879e-03
         - 4.0498877307583534e-03
         - -3.6656538114215989e-04
         - 4.8656194951195988e-03
         - -2.1560951849354123e-03
         - -3.7632918839018781e-03
         - 1.5684082856654142e-02
         - 5.9057785649380941e-03
         - 7.1950452501912533e-04
         - 1.8490573368198284e-03
         - 9.6576911020438694e-03
         - -1.8307561159943255e-03
         - 6.2236215803928834e-03
         - 7.5030965080027231e-03
         - -7.8432381465057717e-03
         - -8.2025545758020017e-04
         - -1.7201197005777762e-02
         - -5.4601094392034526e-03
         - -1.3478450922636054e-02
         - -7.8103118232895228e-03
         - -7.4447835421488744e-03
         - 3.1045183442655563e-04
         - 1.9592734167193943e-03
         - 7.6573308646594226e-03
         - -1.0482459732772583e-02
         - 6.3635211760373171e-03
         - 3.3452919176810026e-03
         - 1.1214106702753558e-03
         - 3.7117154295793111e-04
         - 5.1348382692396552e-04
         - 2.1865933180339418e-02
         - -1.4413064175083738e-03
         - -1.4129241193528467e-03
         - -1.0222860242614087e-03
         - 4.0835521636672046e-03
         - -4.2534902464127829e-03
         - 7.1018171454855705e-03
         - 1.8961723697765245e-02
         - 3.7810797428611763e-03
         - 1.8121333322633330e-03
         - -1.9785339896503580e-03
         - -5.4125363802078070e-03
         - 2.3808912180614630e-03
         - -1.2632478769560005e-02
         - 2.7327662050322331e-03
         - 4.1169588442465637e-03
         - 6.6646380918933840e-03
         - 1.6712088161044798e-03
         - -8.5871432703957008e-03
         - -6.8827733556882441e-04
         - 4.3539494784701855e-03
         - 2.3465945161094792e-02
         - -3.0398801448199104e-03
         - 3.1384262715417150e-03
         - 9.3011252877893951e-03
         - -2.5787623898230336e-02
         - 2.1896962543109716e-02
         - 1.1465605597110505e-02
         - -2.1316572404479124e-03
         - 8.5657396238684683e-03
         - 4.1200264538771665e-03
         - -1.2808884296279004e-02
         - 5.4939103448811899e-03
         - 2.1722087033012941e-02
         - 4.2438430670437732e-02
         - -1.4797077777694295e-02
         - 2.5070840928515286e-02
         - -1.3516774955098038e-02
         - -2.6662785302547051e-02
         - -7.2273019323459949e-03
         - -1.1205177437612112e-02
         - -2.0171210075400781e-02
         - 6.6990468915213786e-03
         - 5.4904266154219882e-03
         - -1.6869615398429429e-02
         - 4.1588139671173922e-03
         - 1.8000336736614234e-02
         - 7.2908059966310997e-03
         - 8.8897291452039468e-03
         - -1.1981961307691235e-02
         - 3.3598946422151603e-02
         - 3.3882297198766626e-03
         - 1.5352362151971917e-02
         - -2.6754190486194007e-03
         - 2.1185081597597580e-02
         - 2.3853310933039111e-03
         - 1.2434844322590694e-02
         - -2.7056316459812237e-02
         - 1.0577742801297543e-02
         - 9.5876791553207458e-03
         - -7.0694584048347810e-03
         - -2.0335971237280016e-02
         - -3.2142650091256130e-03
         - -2.2136885798603005e-02
         - 1.4218172745263929e-03
         - -2.4185380940408559e-03
         - 3.3880209651862120e-03
         - -9.9847389908731213e-03
         - -2.1675928467633884e-02
         - -4.5451346640542744e-03
         - 9.9766612768203960e-03
         - -3.0828323776845454e-02
         - 5.9659896870440483e-04
         - -7.0287285020931914e-03
         - 1.8519983726775682e-02
         - 2.1199468781215050e-02
         - -1.3390678520769429e-02
         - -3.4474889633319570e-03
         - 6.2838200797548146e-03
         - -6.9861206013199749e-03
         - -1.7145601000163699e-02
         - 1.1652462612286982e-02
         - -2.5049235255283717e-03
         - -2.3839424448588713e-02
         - -1.8128312371862181e-02
         - 1.2872788705722482e-02
         - -5.7988062248147294e-02
         - 3.0100504228541482e-03
         - 1.5041805195755263e-02
         - 1.1311093662870838e-02
         - 3.1294301803659255e-04
         - 2.2056909583629703e-02
         - -1.3250514509438748e-02
         - -1.1310575386062716e-02
         - 1.6560691196302497e-02
         - -5.1991269252691505e-03
         - -1.7123906892353956e-02
         - -1.8948270935645804e-02
         - -1.2395718578263737e-02
         - 2.3278877834923523e-02
         - -2.3298316086587872e-02
         - 3.9716158797235132e-03
         - -1.5438219389283329e-02
         - 2.6537094230204006e-03
         - -3.0391525412929405e-02
         - 3.2608523724952251e-03
         - -4.0571846571942363e-02
         - 2.3387646070765006e-02
         - -4.5421763425095782e-03
         - -7.7355488203356623e-03
         - 9.0102902000090406e-04
         - 3.6566139969889978e-02
         - 4.2746772593208323e-03
         - 1.4378354933999134e-02
         - -6.4382261843271126e-03
         - -4.7595579284928219e-03
         - -1.0755873288077448e-02
         - 9.7525850729100298e-03
         - 2.5253156425159476e-02
         - 5.7086595332958025e-04
         - -1.3227879829924384e-02
         - 2.8533120638094329e-02
         - -1.0290012678324346e-02
         - 4.8897247193395400e-03
         - -1.9769450649024769e-02
         - -1.4895033585920776e-02
         - -1.3738173118424245e-03
         - -6.0522579258189208e-04
         - -7.4211590710706937e-03
         - -2.6737744216254931e-03
         - 8.9624719162349972e-03
         - -6.4528926608967054e-03
         - -3.3102442770938777e-03
         - 2.5843456519589747e-03
         - 2.0249316825027213e-02
         - -6.3061739404244085e-03
         - 5.2586247951065803e-03
         - 2.1634220023400609e-04
         - -1.0353389094116101e-02
         - -1.0086420991190465e-02
         - -1.4561240862814558e-03
         - -9.9677488599520577e-03
         - 2.0782254026233370e-03
         - 6.1247568281627349e-03
         - -3.7058339936279798e-03
         - 3.0779894000707232e-03
         - 8.1871846788178024e-03
         - 1.2434455156718486e-02
         - 3.8024117456061579e-03
         - -1.0194599760757470e-02
         - -3.2197388658898860e-03
         - 4.1435632296482833e-03
         - 1.4346157456891145e-02
         - 3.1062407546606115e-03
         - 6.8524696601262253e-03
         - 4.5283201228238394e-03
         - -1.1862552667271637e-02
         - -2.3622842048036247e-02
         - 6.1621280463179376e-03
         - 4.4544394416623362e-03
         - 2.6841964645053372e-03
         - 1.4625892463754682e-02
         - 2.0264535552815565e-03
         - -1.6192169111404495e-03
         - -7.6065064760081139e-04
         - -6.7024569059171051e-03
         - 2.7503965267716831e-03
         - -3.8785329533530736e-03
         - -8.9673708242316678e-03
         - 8.6802266257808027e-04
         - 9.0394483120933549e-03
         - -3.2790669017516885e-02
         - 6.6153325107375233e-03
         - -3.7704269260604682e-03
         - 7.9829594774840293e-03
         - -2.7084473369945656e-03
         - -7.5749802091144387e-03
         - -3.9042638760156071e-03
         - -5.5217569177125380e-04
         - -5.5609204937136225e-03
         - -2.6978731884175953e-03
         - 7.0337916551130378e-03
         - 3.5902704481599441e-03
         - -8.3454604237348171e-03
         - -1.0478392924282615e-02
         - 4.2643860885246193e-03
         - -4.8891647690609746e-02
         - 5.4041409780044240e-03
         - 2.2941822601283243e-03
         - -1.4294053443371722e-03
         - 1.3867998867408127e-03
         - -8.2909452263386571e-04
         - -2.9089693575893153e-03
         - 2.1172689967109827e-03
         - 1.9019785620106703e-03
         - -6.2195221602292065e-03
         - -5.6068610238038663e-03
         - -2.3064205640996398e-03
         - -4.4494865158955232e-03
         - 1.6470774753371813e-03
         - -2.9980319216521129e-02
         - -3.6485390302257669e-03
         - 4.4036419572048718e-05
         - 4.7880020835612321e-03
         - 1.6238328187846431e-03
         - 1.4063628984183943e-03
         - -1.9184156624107249e-02
         - 1.2600176591577030e-02
         - 2.5964028146283568e-03
         - -3.1684174675858765e-03
         - 5.4147035115956520e-03
         - 9.5568373877735705e-03
         - 4.5233122062629310e-03
         - 1.7448341562448632e-03
         - -3.8596316122740414e-03
         - 1.7412412744026834e-03
         - -4.2632856561767270e-03
         - 5.8880786409589748e-04
         - 1.0911137217801374e-02
         - 6.1588256129383092e-03
         - 3.0494339479236769e-03
         - 7.7484340737307136e-04
         - -3.8560007167978342e-03
         - -2.6853191891155416e-03
         - -7.0576063471975824e-03
         - -4.0442936617438904e-02
         - 1.9550075029566575e-02
         - 1.0044390631765302e-02
         - -1.2073390180132038e-02
         - 7.7618589685517657e-03
         - 1.7225898929422504e-02
         - -1.8881993260229015e-02
         - 4.1876906143932455e-03
         - 2.4857244775828260e-02
         - 4.5595759311439887e-02
         - -1.2980424703832658e-02
         - -2.0155222958473343e-02
         - -1.5174135027863897e-02
         - -2.3673055617587615e-02
         - -1.8506466906435339e-02
         - -7.2291818604095686e-03
         - -3.1865735281944862e-02
         - 1.1673593949986006e-02
         - 1.9035125039096989e-02
         - -2.1399399254764528e-02
         - 7.8547782300879363e-03
         - 2.2356171266318142e-02
         - 2.3874013399428465e-02
         - 1.9100211393210709e-02
         - -2.5922194022421383e-02
         - 1.7537773107456290e-02
         - -2.0246435522553531e-04
         - 3.5062422128225752e-02
         - -2.1023690820171121e-03
         - 3.3320579166720814e-02
         - 3.3387599977008297e-03
         - 3.1278837228602370e-02
         - -3.4348485102359022e-02
         - 8.1029387218076003e-03
         - 1.1773161007834713e-02
         - -6.6385242277555243e-03
         - -3.5560081582667324e-02
         - -4.4626471125146245e-03
         - -2.1287730059208129e-02
         - 7.0958410510792765e-03
         - 1.0835349124134624e-03
         - 7.6976742076732413e-03
         - -3.4798902419339536e-03
         - -3.0448600048837222e-02
         - -1.1712274257658443e-02
         - 8.9506376664229975e-03
         - -1.8021978941810176e-02
         - 7.3341318469306157e-03
         - -1.0669858697802600e-02
         - 2.0163691484766228e-02
         - -1.6808494124288264e-02
         - 8.7084666784474525e-03
         - 8.5315395891896930e-03
         - -6.6780634453816028e-03
         - 6.5385877973472856e-03
         - 1.2138417585680903e-02
         - -1.1986714163452138e-02
         - 6.5847983095577147e-03
         - 2.8070698070789468e-03
         - 1.7855429816332528e-02
         - -8.3934485923875760e-03
         - 1.4128306842268897e-03
         - -1.1400956865647125e-02
         - -1.0183402303556953e-02
         - -6.5807132678416562e-03
         - -1.3021774094842721e-03
         - -1.9390406446339079e-02
         - 6.0830120183790705e-03
         - 1.1223083407453557e-02
         - -9.2694090511404609e-03
         - 4.5343282885205120e-03
         - 9.7880678989675264e-03
         - 6.8071388664845507e-03
         - 1.1559147258054124e-02
         - -1.1862991992551522e-02
         - 1.8937918374749903e-02
         - 6.8575511083930499e-04
         - 1.4999995137973666e-02
         - 1.5510331543430850e-03
         - 1.2082136586032098e-02
         - 4.8879061319358008e-03
         - 1.0708675680717121e-02
         - -8.6201302021994761e-03
         - 1.5289043933236033e-03
         - 4.4028737464933826e-03
         - 3.2470785953492938e-03
         - -2.2233408600318905e-02
         - 2.7911590143212491e-03
         - -1.2705429463452225e-02
         - 2.7220027871281698e-03
         - 4.2897512768473719e-03
         - 8.7551067656550102e-03
         - -5.5477503157948934e-03
         - -1.0976456037007826e-02
         - 1.1205717974959088e-03
         - 2.2183567844665154e-04
         - 3.5883188031110265e-04
         - 3.3865254959662156e-03
         - -6.2898432592080134e-03
         - 1.1924542987811067e-02
         - -3.0237401624170056e-03
         - -6.7393313696916066e-04
         - -2.8864846137920596e-03
         - -1.4886320783385684e-03
         - 3.2241903161357773e-03
         - -2.8681425726232693e-03
         - 5.1612506232505172e-03
         - 3.4392398202749406e-03
         - -3.9406742421345181e-03
         - -1.4097435695933953e-02
         - -8.1822076406600614e-04
         - 2.9961513522898921e-02
         - -9.4678769194526762e-05
         - 7.9624939394347272e-03
         - -1.2192097170849766e-03
         - -2.1115624692393366e-03
         - -3.6146599286758572e-03
         - 3.9274305095802590e-03
         - 1.4056325393059133e-03
         - -4.0293007489728208e-03
         - -1.0913155327077716e-03
         - -4.2602698411412527e-03
         - -7.1603314407678682e-03
         - -3.2493554103224694e-03
         - 5.5833437335766197e-03
         - -5.8436630813462221e-04
         - 5.8801743582900029e-03
         - -5.1665736431181991e-03
         - 2.0484496490877609e-03
         - -1.4125548074870871e-03
         - 6.1494680296554152e-03
         - 1.5437842797174256e-02
         - 6.3405099595185742e-03
         - -2.8130467000569512e-03
         - 2.0545321720570379e-03
         - -4.0857057380330195e-03
         - 1.4816938018253270e-02
         - -4.0229915869161477e-03
         - 2.5491056939263594e-03
         - 4.2982260730567252e-03
         - 1.1722609263963978e-03
         - -3.7444966617091106e-03
         - 3.8807619398780191e-03
         - 1.4996112201313898e-03
         - -2.1908050542219846e-03
         - 2.3824698192645055e-03
         - -4.1626963622009173e-03
         - -4.9956144113292205e-03
         - -3.4273718639711952e-03
         - -1.1090456109729310e-03
         - -2.3647922235243417e-02
         - 2.0711100397999036e-02
         - 3.1308248289301406e-03
         - -1.6764182785478326e-03
         - 1.1836457346968185e-03
         - 1.2278297618450730e-02
         - -6.3719227861286851e-03
         - 5.0064100006264592e-03
         - 2.5897940005974344e-02
         - -1.0815423457028591e-02
         - -6.1781404588726694e-03
         - 4.5712603464443134e-02
         - -8.8667725996153871e-03
         - -1.1605557763113660e-02
         - -1.7775027220201193e-02
         - -1.0121199135889538e-02
         - -1.9687592310096248e-02
         - 5.1549661449503898e-03
         - 1.0150887381798047e-02
         - -9.1982872467456858e-03
         - 1.0504370270613862e-02
         - 1.9078709863178566e-02
         - 1.6351664038331996e-02
         - 1.5575591137091989e-02
         - -1.8696953939653455e-02
         - 2.0033357284053668e-02
         - -2.2995969980261939e-03
         - 1.8566600938697182e-02
         - -7.1987013956247422e-03
         - 2.2701142459503765e-02
         - -4.7410208227398817e-03
         - 5.5838580166767508e-02
         - 1.3779960899183144e-04
         - 8.6520676188508849e-03
         - 1.8217029724459410e-03
         - -2.3242457490960278e-03
         - -8.6978611954774626e-04
         - -2.8751032264971756e-03
         - -1.8632700331086768e-02
         - 1.0836942279317526e-02
         - 1.2499317175756146e-04
         - 4.0224635603031576e-03
         - -6.6818974592078402e-03
         - -1.9397340112171910e-02
         - -6.5405269076503876e-03
         - 1.2351574729206385e-02
         - -4.7818006835948727e-05
         - 1.0498803596081247e-03
         - 1.2948598083902818e-03
         - 1.6741901866358374e-02
         - 6.9786160403277810e-03
         - 9.1967962371835837e-03
         - -1.2616542849487448e-03
         - -5.5028902599824183e-03
         - 4.0371607843736595e-03
         - -1.1168235080711644e-03
         - -3.2312038938594996e-03
         - 2.7858496360293845e-03
         - 8.7924718898245331e-03
         - -3.3034727966074734e-02
         - 5.7585834524613490e-04
         - -2.0933358097303865e-02
         - -1.1364566246958004e-03
         - 2.3570419493963777e-04
         - -5.1228608377932340e-03
         - 8.5389061967781356e-04
         - -1.7942306636392416e-03
         - -3.4995304240447388e-04
         - -5.6930008849177009e-03
         - -7.0323453210942820e-03
         - 2.6798137951234307e-03
         - -2.3387265677679977e-03
         - 5.1857179620441382e-03
         - 4.3460227778440753e-03
         - 4.2076490858660685e-03
         - -1.6528662430078994e-03
         - 2.4084299707159574e-03
         - -1.1147075690220706e-02
         - -5.8868026829584372e-03
         - -6.2887993478677713e-03
         - 1.5062619523996282e-03
         - 1.6777980202258163e-02
         - 3.4596408368570614e-02
         - -5.7037177610451302e-03
         - -6.5231784210801370e-03
         - -3.2517118711474732e-03
         - 1.0733213120860060e-02
         - -9.2603734972892561e-04
         - -1.4766019684681099e-03
         - -4.3193015685925662e-04
         - -3.3618384256276896e-03
         - -2.5612692621985638e-03
         - 4.0176608269901744e-03
         - 3.0840048724665864e-03
         - -4.8855113824026793e-03
         - 5.2597983594961260e-03
         - 3.6204396632593019e-02
         - 4.4404541125657934e-03
         - 1.4709504249949986e-03
         - -8.1289426497731763e-04
         - 7.3446951012445388e-03
         - 4.0348200706656658e-03
         - -6.2032449623626593e-03
         - -1.5175818154317653e-03
         - 4.2151528789006239e-03
         - -1.9615799618353238e-03
         - 2.1946639597182874e-03
         - -4.5888139034839671e-03
         - -1.0005193555527507e-02
         - -9.1498193907688895e-03
         - 3.3247537456183936e-03
         - -2.0904007147210132e-02
         - 8.2837432286267682e-03
         - 1.8580875960477030e-03
         - -9.1849312574357488e-04
         - -7.7817984657600265e-05
         - 7.1817418628472704e-03
         - -7.5501767404271749e-03
         - -8.8014264755871506e-03
         - 4.1350649375799012e-04
         - 1.4812792737135677e-03
         - -7.3681824784713346e-03
         - -3.7280948527626135e-03
         - 1.1064965651428806e-03
         - 1.1285754327905437e-02
         - -4.6931752339571730e-03
         - 6.9088277346234534e-03
         - -1.1107808753883426e-02
         - -4.6685439060908411e-03
         - -1.1226081769169316e-02
         - -1.8276940544225098e-03
         - -1.6461806854964820e-02
         - 1.3869167945722599e-02
         - 2.1082283193705247e-04
         - -8.8720327866308457e-03
         - -6.7817067112373988e-04
         - 1.7377309380649474e-02
         - -3.9046028673724166e-03
         - 5.4131877149929718e-03
         - -2.0004157133241616e-03
         - 3.3782293288608002e-05
         - -9.0422608843455619e-03
         - 5.4244216155802556e-03
         - 2.8464137563870709e-03
         - -3.8782457252239350e-05
         - -3.0925019300188489e-03
         - 1.1636411002322490e-02
         - -2.5892720376831852e-03
         - 4.9380349595921982e-03
         - -6.8124858488206709e-03
         - -1.0293202165925322e-02
         - -2.1359257452233777e-06
         - 1.8823543178942972e-03
         - -7.1069851405740061e-03
         - -1.4254274330589088e-03
         - 7.7565971595467496e-03
         - -8.4412047899759517e-03
         - 7.1982759193415452e-03
         - 8.4335551423046322e-03
         - 2.0740680733957656e-02
         - 1.3939516277112491e-03
         - -1.8988365274627998e-02
         - -6.9289175705419303e-03
         - -1.6907701059838940e-03
         - -3.4926773208422118e-03
         - 1.7566591049332986e-03
         - -9.8239564993380189e-03
         - 1.6789109017319873e-03
         - 7.7364217797801869e-03
         - -4.0749249978536631e-03
         - 4.2528939443688164e-03
         - 8.3973811748460393e-03
         - 3.0750984105719866e-03
         - 5.3555426242461908e-03
         - -2.7817415990781628e-03
         - 1.3993001570010282e-02
         - 1.4535967381902968e-03
         - 1.2693790884467437e-02
         - -8.5231787429396674e-03
         - 7.3609654938853845e-03
         - -3.5789089550488499e-03
         - -1.4261160126651455e-02
         - -1.1002394093707927e-02
         - -5.9770398934723044e-04
         - -8.8203086057553424e-04
         - -1.1459682989689432e-03
         - 5.1688790506985664e-03
         - -5.5422784205119615e-03
         - -4.0501104510877965e-03
         - 3.4719858958856659e-03
         - -3.1868429570987506e-03
         - 8.7860004052841556e-03
         - -2.9531500683423625e-03
         - -1.2472417376916813e-02
         - 4.1235892801439224e-03
         - 2.0653464664383862e-03
         - 3.8973385878258659e-03
         - 3.8418414935671411e-03
         - -5.6513009029692408e-03
         - 3.9051666047504978e-03
         - -2.5236611748169067e-02
         - 1.1322208967455651e-02
         - 8.7359329003054518e-03
         - -8.8649241180720467e-03
         - 1.0407417849401127e-03
         - 2.5252496306233103e-03
         - -9.9520380483199850e-03
         - 1.1367993949067240e-02
         - 1.3249509203538899e-02
         - 4.1541585746873673e-02
         - -8.1778541833347779e-03
         - -5.2484863804970437e-03
         - -1.0232315956366389e-02
         - -1.7582039064265906e-02
         - -1.4412600937606145e-02
         - -9.6581125804363760e-03
         - -1.5240250207619849e-02
         - 8.2156187478096884e-03
         - 1.2447450515369964e-02
         - -1.1382282948975555e-02
         - 9.1554547169304043e-03
         - 2.1813302397000082e-02
         - 7.3736049658650934e-03
         - 1.4964499636710444e-02
         - -1.9032846724295234e-02
         - 1.1682667000375539e-02
         - -5.1007651380687519e-03
         - 3.0593130916958044e-02
         - 6.3526356946253437e-04
         - 1.8095493887528638e-02
         - 3.6641213151359574e-04
         - -7.8061718219329390e-03
         - -3.6519961210918502e-02
         - 3.1273656680239101e-03
         - 9.9989028345858159e-03
         - -1.8047085057705794e-03
         - 4.6455035021233521e-03
         - 1.4031451095253809e-03
         - -1.8423102884742970e-02
         - 4.4570412229073212e-04
         - 6.8911427490415365e-03
         - 6.5206110403208022e-03
         - -6.5632831761190261e-03
         - -1.2471208696694392e-02
         - -5.6277344419937165e-04
         - 1.2321806181808172e-02
         - -4.0615722736137526e-02
         - 8.5475840863854223e-04
         - -4.0904962026139342e-03
         - 9.3359375617780571e-03
         - 1.8733484657564473e-02
         - -1.9631867193184604e-02
         - -1.0522437125635475e-02
         - 6.3437560559631845e-03
         - -7.9432563395486471e-03
         - -1.2178017362631237e-02
         - 3.7058284078306620e-03
         - 4.2636904838269326e-04
         - -9.3974654880035844e-03
         - -9.8176870332958941e-03
         - 1.3887666189942078e-02
         - -3.9415318740534604e-02
         - -8.9529690810271484e-05
         - 1.4107726220213078e-02
         - 1.4159447445938970e-02
         - -1.2274375943255183e-03
         - 1.1934873386174149e-02
         - -3.1050090576192632e-03
         - -1.1042924287566671e-02
         - 9.1435629623379325e-03
         - -9.4056627987794536e-04
         - -1.6012055359049114e-02
         - -1.2232830926217859e-02
         - -7.1267516668072758e-03
         - 6.6506373615629740e-03
         - -3.6415341339051076e-02
         - 3.2355312383862711e-03
         - -1.0148802128539150e-02
         - -2.9316439267290701e-03
         - -1.2160838341999186e-02
         - 4.7353967731496756e-03
         - -2.9306598933095212e-02
         - 1.5839170194021854e-02
         - -5.6230976143133091e-03
         - -6.7149070250980530e-03
         - -2.2391114278073232e-03
         - 1.6635814483703288e-02
         - 2.6046838144781225e-03
         - 8.8363538093663707e-03
         - -5.9445467162337817e-03
         - 4.3813348945454305e-03
         - 7.6870100031964416e-06
         - -4.5788326635985590e-04
         - 1.0164476831766618e-02
         - 6.2636707024640924e-04
         - 2.5471747644099365e-04
         - -4.8046555838947630e-03
         - 3.0434957534889494e-03
         - 2.4240977810279754e-03
         - -1.4798369056993256e-02
         - -1.8731175157617769e-02
         - -4.6770752191797344e-03
         - 7.2521669518510112e-03
         - 2.0157557705079649e-03
         - 9.0305482044140365e-04
         - 1.0088332539268274e-02
         - -2.3363205090267520e-03
         - 4.2024602913022660e-03
         - 9.0194979820011102e-03
         - 2.3997280729697191e-02
         - -6.5661078029648507e-03
         - -3.0735657070533585e-02
         - -8.0357904930063537e-03
         - -8.5297778305941157e-04
         - -6.1277299681496630e-03
         - -6.2944927505767859e-04
         - -5.3213861778299409e-03
         - 9.7335931372489123e-03
         - 9.8477184626663290e-03
         - -4.9399419082714188e-03
         - 2.2417808986000586e-03
         - 8.3390776960653584e-03
         - 9.5984303262388136e-03
         - 9.0449979423245872e-03
         - -6.4392405962547250e-03
         - 8.1145824735923636e-03
         - -8.3831492882444330e-04
         - 1.5541058443322613e-02
         - 4.4347425364192911e-03
         - 1.5090301387341522e-02
         - -1.2621509335600664e-03
         - -6.0284338246872644e-06
         - -2.0701332544654769e-02
         - 9.0483247751262687e-03
         - 7.5420941500758841e-03
         - -2.6328171683211019e-04
         - -2.2721151793286778e-02
         - 1.3553259061063962e-03
         - 8.4971541276970114e-05
         - 3.1220437083681386e-03
         - -4.1238225923809534e-03
         - 6.9961994485083692e-03
         - -5.7919147681213066e-03
         - -1.0896187524113130e-02
         - -4.9012013230331948e-03
         - 8.6808183760522552e-03
         - -9.7588811560449032e-03
         - 4.6742739195618655e-03
         - 6.3564656939817154e-04
         - 3.1684622383752960e-03
         - -1.7727367715071433e-02
         - -3.0344405532183787e-04
         - 6.8985191440792924e-03
         - -2.4637321936864954e-03
         - 5.5116752415693866e-03
         - 7.0750063302203641e-03
         - -9.3289210343978184e-03
         - 7.1979937747034929e-03
         - -6.9788275345224052e-04
         - -9.4198354485684733e-04
         - -1.2639552054465586e-03
         - -2.2500736685069148e-04
         - -9.5228081741865894e-03
         - 3.8162509751863799e-04
         - -9.1862385330749655e-03
         - -7.9046906531135622e-03
         - -8.6659196423638507e-03
         - -2.0125100753685104e-03
         - 1.0229198383032349e-02
         - -3.6263878863700707e-03
         - 4.1422185070797476e-03
         - 8.8709523045708578e-03
         - 2.9484690144845208e-03
         - 2.1596805465273995e-03
         - -4.8265115440186430e-03
         - 9.0799577917351250e-03
         - 5.1463887554204389e-03
         - 3.6114045915701899e-03
         - 4.4747091964160944e-04
         - 7.9246409492163307e-03
         - -2.3024151819004135e-03
         - 6.2360385463266482e-03
         - 5.9651278926349700e-04
         - 1.2776662703339419e-03
         - 9.8907399592255835e-03
         - 2.4317318975230857e-03
         - -1.8537722130679713e-02
         - -3.1252859942814048e-03
         - -6.7240448050508838e-03
         - 4.6151110357976277e-03
         - 4.0008455722401141e-03
         - 1.6795040404230894e-03
         - -4.7605007911664492e-03
         - -1.4256887264357280e-03
         - -3.2228845668811454e-03
         - 1.5500689110184780e-03
         - -3.1329016994146777e-03
         - -2.0260466575826195e-03
         - -1.7911660298034746e-03
         - 4.8833690990874121e-03
         - -5.0099566022416674e-03
         - 3.5288086408197042e-03
         - 3.7931392957422424e-03
         - -1.5171607644885088e-03
         - -5.0967415507432003e-03
         - -4.8801382778092869e-04
         - 3.7943264435722182e-03
         - -5.7748744279353123e-03
         - -4.2700460512190321e-03
         - -2.7005536688150363e-02
         - 5.0498369610058906e-03
         - 5.1320488224568639e-02
         - -2.7073628589382361e-03
         - 8.0684439272339318e-03
         - 6.4391915393655274e-03
         - -4.3235209069221459e-03
         - 2.1900564210927316e-03
         - -4.4664172535581505e-03
         - 4.6197534810773627e-03
         - -4.0219565881174889e-03
         - -5.7181139905325461e-03
         - 4.5809776837652857e-03
         - -6.8111270103723585e-03
         - -5.5385951849879129e-04
         - 4.0788609153407452e-03
         - 8.5124750787805739e-04
         - 3.1068659819510742e-03
         - -2.5931817341440172e-03
         - 2.1498070601787748e-03
         - -1.8011882199614848e-03
         - -1.3613830442927889e-03
         - 1.6083667760756148e-02
         - 1.2084003643254333e-02
         - -1.1302584195252529e-03
         - 5.2725676690942823e-03
         - 5.9216166936159453e-03
         - 1.6713675834424669e-02
         - 5.2086523592590967e-03
         - 7.4999351434618007e-03
         - -1.0138164209540067e-03
         - 1.4328782298404644e-03
         - -3.6228658853426385e-03
         - -2.9102157721569506e-03
         - 5.7312453519424728e-03
         - -4.8141645232887553e-03
         - 5.4793855771553997e-03
         - 8.7385278523741759e-03
         - 5.5762595905589135e-03
         - -1.6650322945102646e-04
         - -7.0907923497044003e-03
         - -1.1769930270552792e-02
         - 2.3347824035086388e-02
         - 1.1210170294247111e-02
         - 1.4819559968845871e-03
         - 3.6500806851166123e-03
         - 8.7441846303657027e-03
         - -1.0627869419387108e-02
         - 4.5288815212805511e-03
         - 1.8027143518999068e-02
         - -1.4327285799736246e-02
         - -8.3406655301710795e-03
         - 5.4886179702702514e-02
         - -9.8692550663807381e-03
         - -1.1325868066850823e-02
         - -4.6783442575949827e-03
         - -1.8299163495921686e-03
         - -2.1407688805912758e-02
         - 3.0246685714608516e-04
         - 5.3870165652245457e-03
         - -1.2027555801699365e-02
         - 3.6377710621771095e-03
         - 1.4682267332229619e-02
         - 4.7702610066801673e-03
         - 9.7996284562674521e-03
         - -2.0563959802069279e-02
         - 2.4008806582626323e-02
         - 1.9656560817476322e-03
         - 9.9090504960686922e-03
         - -2.1899285463125752e-04
         - 1.1776927447957528e-02
         - -3.6867123173476369e-03
         - 4.3455818700747675e-02
         - 1.0854293408458532e-02
         - 6.5566549110806225e-05
         - 8.3786769000444711e-03
         - -2.6122226434034793e-03
         - 6.1852821404425103e-03
         - -1.1284000761389351e-03
         - -1.4050103055250012e-02
         - 1.1066201706281807e-02
         - 9.2794843807363298e-04
         - 1.9320883847133759e-03
         - -6.3677268303977759e-04
         - -1.4865432586802112e-02
         - 1.9476678850275427e-03
         - 8.8915566632563718e-03
         - 1.3113806801360997e-02
         - 2.5199323520924640e-03
         - 8.2728094034988878e-04
         - 9.2377048510325615e-03
         - -1.6798139279555611e-02
         - 2.3689067353257400e-02
         - 5.5745907344288571e-03
         - -7.4819290428469343e-03
         - -6.5196835019714640e-04
         - 8.6065129278772579e-03
         - -1.0760367350567816e-02
         - 6.6420570634496729e-04
         - 1.8217417044805975e-02
         - -4.1846387412668721e-04
         - -6.1931140283796810e-03
         - -5.7017508051190723e-03
         - -5.9188409388034021e-03
         - -1.5925594189664979e-02
         - -1.1432797248250222e-02
         - 1.3183545576494721e-03
         - -1.1440461925158933e-02
         - 6.0448982738414902e-03
         - 6.4704036842212383e-03
         - -6.0347690106121480e-03
         - 4.6296948924703200e-03
         - 1.4201071819309113e-02
         - 1.2245664464156352e-02
         - 8.3016349829534396e-03
         - -1.5263357417455974e-02
         - 2.8211867135337122e-02
         - -1.3129493463719423e-03
         - 5.6810481865037484e-03
         - 2.2336132157552441e-03
         - 8.5701445971348086e-03
         - -4.5245142193190346e-03
         - 2.5086892687725074e-02
         - 1.5164053110646900e-02
         - 6.6851594173733611e-03
         - 7.6357434356439406e-03
         - -6.5110722494584015e-03
         - -9.1376412755090636e-03
         - -2.7677412691767540e-03
         - -8.7211811442942724e-03
         - 2.5299996515135170e-03
         - 4.6071631323704324e-03
         - 1.2527967898856023e-03
         - -3.3643225086254173e-03
         - -1.5047479770974171e-02
         - -3.0293231035449248e-03
         - 1.1090688642909231e-02
         - 2.8189286392250122e-02
         - -6.0134014534064958e-04
         - -3.6834465903880899e-03
         - 1.3090177685661470e-02
         - 9.8577848060512011e-03
         - 7.3643558321897108e-04
         - -6.8185832933512457e-03
         - 7.9413870850712637e-03
         - -4.3381806171430143e-03
         - -1.2982312786910208e-02
         - 5.4773683401688165e-04
         - 9.6350400469124014e-04
         - -5.0045009712708418e-03
         - 1.5741871114589119e-03
         - 6.8334693780747902e-03
         - -1.4234283891776233e-02
         - 3.6335338067210814e-03
         - 6.0918625635206598e-03
         - 1.6423942962254039e-03
         - 4.6340900471157138e-04
         - 1.9894346771852051e-02
         - -5.7957276184114519e-03
         - -9.0030590147705796e-03
         - 1.5093891163877160e-03
         - -5.0556862898391613e-04
         - -1.0918354086219153e-02
         - -5.7842575078720241e-03
         - -7.6541689602398384e-03
         - 1.4806851206969384e-02
         - -1.2723383517184864e-02
         - -2.3786156838385111e-03
         - -1.9913730515751196e-02
         - 2.0543026065531910e-03
         - -1.8276495058625941e-02
         - -9.2212015153410071e-04
         - -1.3085088858673724e-02
         - 5.1186357642125663e-03
         - -2.3972124088407674e-03
         - -1.0011083492106429e-02
         - 3.5378173394637297e-03
         - 1.7828283553950566e-02
         - 2.3757243334150907e-03
         - 3.4380431259773843e-03
         - -8.9388661117893922e-03
         - 2.8265322269107793e-03
         - -4.5549406862498108e-03
         - 3.1795917911288060e-03
         - 1.1007709142965175e-02
         - 4.0736225912777176e-03
         - -4.9968548294737286e-03
         - 2.8517942938857049e-02
         - 3.3618165429107237e-05
         - 4.9698284530628242e-03
         - -1.1103377401032436e-02
         - -2.3709160531174920e-02
         - 1.3761484366702348e-02
         - 1.4827344604289713e-02
         - -7.4557574868486876e-03
         - -6.3684000693802997e-04
         - 1.1515462092007328e-02
         - -1.7002697603716220e-02
         - 1.0903664219179026e-02
         - 1.8214157257900362e-02
         - 5.4751740453261623e-02
         - -5.9998513115992087e-03
         - -8.7033686992444639e-03
         - -6.0878863752667680e-03
         - -1.9935962857118142e-02
         - -1.6232489795819160e-02
         - -9.8914206262690346e-03
         - -1.8917520575775785e-02
         - 9.6936237557560100e-03
         - 1.7819380944244491e-02
         - -1.7934478684316933e-02
         - 4.5831217237531190e-03
         - 1.4824845681528457e-02
         - 1.8908709919343403e-02
         - 2.0167975977785104e-02
         - -1.7386394152783646e-02
         - 2.1319050088114747e-02
         - -3.9021818925938862e-03
         - 3.0545858886180985e-02
         - -7.5389585391154078e-03
         - 2.8967197968078288e-02
         - -3.7687332159168211e-03
         - 2.4377773029146015e-04
         - -3.4480034010814870e-02
         - 5.7763791487940672e-03
         - 1.4132463005277330e-02
         - -7.9263839383952265e-04
         - -6.7235783473600036e-03
         - -5.7772888825039261e-03
         - -2.2897649389527378e-02
         - 5.3960506705713436e-03
         - 1.0387397925595520e-03
         - 1.3416942101726392e-02
         - -8.4090099893075129e-03
         - -2.0844966043465443e-02
         - -8.0544109942977064e-03
         - 9.7703985399278485e-03
         - -3.0638428344180273e-02
         - -1.5793012080143774e-03
         - 2.4722270257985491e-03
         - 2.3439504482389427e-02
         - -2.9798138258069398e-02
         - 1.0760007559628712e-02
         - 1.3679653363042049e-02
         - -8.3411110138237824e-03
         - 1.0316248071942292e-02
         - 1.0810305284431507e-02
         - -1.9174816713625521e-02
         - 1.3279272938583268e-02
         - 1.8601877765831359e-02
         - 6.1311359879393942e-02
         - -1.5022192405980492e-02
         - 1.0720766179180484e-02
         - -1.3813391449887042e-02
         - -1.8239033222054998e-02
         - -1.9390247749421243e-02
         - -7.3494703675697918e-03
         - -2.0077114873191974e-02
         - 4.8280492682968657e-03
         - 6.6505560318512909e-03
         - -1.6853036036417229e-02
         - 6.0144496946900683e-03
         - 1.8212279009485497e-02
         - 1.9584440242031702e-02
         - 1.1102730108233058e-02
         - -1.6578707038858293e-02
         - 2.1680227083534644e-02
         - -1.0570333044890954e-03
         - 3.6890196482426127e-02
         - -3.5691978720954276e-03
         - 3.4473245466264499e-02
         - -4.6976417154612378e-03
         - -6.4924385743444558e-04
         - -5.2854362045610705e-02
         - 9.5134261068836757e-03
         - 1.5867943052451837e-02
         - -3.9410383748687116e-03
         - -5.2404890509728814e-03
         - 3.5649051057678326e-03
         - -2.0083084372488038e-02
         - 7.0930350110641150e-03
         - 6.8634439749703168e-04
         - 6.1866064837629809e-03
         - -1.1453753069696260e-02
         - -2.6881116421977994e-02
         - -2.5659954025324307e-03
         - 1.0375507453463446e-02
         - -6.0122840277942145e-02
         - 4.2388899275955690e-03
         - -3.2799566926341893e-03
         - 2.2157919214912190e-02
         - -3.7589557434308300e-02
         - 2.0031188807968031e-02
         - 1.6085890635606344e-02
         - -3.5447606390756939e-03
         - 1.1684890857687176e-02
         - 1.5914582409417694e-02
         - -1.2208862865823367e-02
         - 3.0526025601751664e-03
         - 2.2963384765519516e-02
         - 5.4385664203843033e-02
         - -2.0941456007495123e-02
         - -1.8283626905362537e-03
         - -1.6381860726712008e-02
         - -3.5248928647034806e-02
         - -2.3013916907494145e-02
         - -6.4088230093127703e-03
         - -3.5179421429834636e-02
         - 1.9079548788862120e-02
         - 1.5193490533402573e-02
         - -1.8064958899426168e-02
         - 1.2832304477021482e-02
         - 2.7866015102424448e-02
         - 2.4151955146153190e-02
         - 1.9774757330752006e-02
         - -2.7832756569365215e-02
         - 2.1425937695063162e-02
         - -4.6911283994242031e-03
         - 4.7517636760030665e-02
         - -5.8800796435920198e-03
         - 3.5887984340243248e-02
         - -5.5705883926703585e-03
         - 2.6225789614143329e-02
         - -4.6507269155210390e-02
         - 1.1050250251080218e-02
         - 1.1136406375662841e-02
         - -2.0662224466446908e-03
         - -3.2678270282101275e-02
         - -8.1277243312692631e-03
         - -2.6672441303354371e-02
         - 8.9062902450091127e-03
         - 1.7126259280204040e-03
         - 1.6691173581673130e-02
         - -1.1540902198384767e-02
         - -2.6718220631583415e-02
         - -8.0687622040927290e-03
         - 7.3854347001134088e-03
         - -6.2587406465169276e-02
         - 7.7618447487283792e-03
         - -5.4309489853919604e-03
         - 2.7256597138036215e-02
         - 1.5343599461406442e-02
         - -1.9971628619751575e-02
         - -4.1880507124446506e-03
         - 2.1278845786799620e-03
         - -6.7387401225503102e-03
         - -5.3122131022010546e-03
         - 1.3340102765114185e-02
         - -6.2356101383289645e-03
         - -1.4663168104549148e-02
         - -1.6893492357302881e-02
         - 4.3768840301064297e-03
         - -4.2981147700901834e-02
         - 9.5122970421677461e-03
         - 1.1854847458851197e-02
         - 1.2024393726981414e-02
         - 3.5244124534560975e-03
         - 1.7078126084775592e-02
         - -9.5420597133939918e-03
         - -5.8177051804857351e-03
         - 1.2085678608793933e-02
         - -1.1087788110009787e-02
         - -1.0039526625122574e-02
         - -9.7109445720343374e-03
         - -1.1508103540186639e-02
         - 1.0531474824402077e-02
         - -2.5292205292424930e-02
         - 2.3243752297440962e-03
         - -5.8938497330136511e-03
         - -1.1390529091051427e-03
         - -7.7632657287613612e-03
         - 6.7015931474582904e-04
         - -2.8511469553385117e-02
         - 4.3306606847532932e-03
         - -6.5865462892208456e-03
         - -7.9395645565482329e-04
         - -2.6102480932951280e-03
         - -2.4484294283012870e-03
         - 1.7271253319815002e-03
         - 1.1804756969658275e-02
         - 2.5748170747271213e-03
         - -4.3706464449233774e-03
         - -7.6150433951053106e-03
         - 8.5016827615133489e-03
         - 2.0733386376709795e-02
         - 5.2758044354623427e-03
         - -5.4694525701034719e-03
         - 7.9076299915037101e-03
         - 1.8760687784452892e-03
         - 3.1424295431793209e-03
         - -1.1288559560729168e-02
         - -2.9853416291402530e-04
         - -6.9478527734988726e-03
         - 3.5883846205190259e-03
         - 6.9719404837531767e-03
         - -2.1368152090775454e-03
         - -5.8780210157618898e-03
         - 9.5749413584691866e-03
         - -1.6709769649118932e-03
         - -9.6409174005187854e-03
         - -1.9252219632123067e-02
         - 1.8562607652312839e-03
         - 2.6908999422797955e-03
         - -1.8972722198767659e-03
         - 3.2474807134602992e-03
         - 3.6409583740872201e-03
         - 4.2288417398164354e-04
         - -2.3705465091800925e-03
         - -8.7753903814157626e-04
         - -2.1610614324749696e-03
         - 2.4712479467077502e-03
         - 7.4845882738879693e-04
         - -8.1732152504121053e-03
         - -4.9260187557634430e-03
         - -1.0585333768651981e-03
         - 5.6945980951825991e-03
         - -2.0027811389940046e-03
         - 2.8209437823456603e-03
         - -1.2806884330928267e-02
         - 7.7453318394106341e-03
         - -1.6583660023212566e-03
         - 5.4192190643354652e-03
         - -2.4782971589657008e-03
         - 3.3803949655331934e-03
         - -5.5939623460748329e-03
         - -9.0065046278619883e-03
         - 3.9370415923486680e-03
         - -3.4690701681725860e-03
         - 5.9331896382520460e-03
         - 8.9571972830036362e-03
         - -3.3580581274625892e-03
         - -2.7934007170544758e-03
         - 3.1337129030900653e-03
         - 3.7278542220452186e-03
         - 3.5800495412699723e-04
         - 1.5583480102324788e-04
         - -5.5757099000223014e-03
         - 7.8168210809688565e-03
         - -1.2794579438157271e-03
         - -4.8642170906646083e-04
         - -9.3573927923686229e-03
         - -1.1998001090437665e-02
         - 6.6735075900763450e-03
         - 8.0279956386384490e-03
         - 1.7783187441141512e-03
         - -1.3058485990672542e-03
         - 6.2734906645712588e-03
         - -3.0452787267337008e-03
         - 7.7988803181035507e-03
         - 3.8411260724162720e-03
         - -8.4976024427231480e-03
         - -3.7302304754037183e-03
         - 5.0890139945318554e-02
         - -8.4792752075924273e-03
         - -7.5083129877699878e-04
         - -2.7576573276845602e-03
         - 3.0169750022068691e-03
         - -7.3376900015232460e-03
         - 4.0431289610523826e-03
         - 9.1084449914437936e-03
         - -1.2080262490465586e-03
         - 6.0248222139004425e-03
         - 9.4905924248198988e-03
         - 2.0717884603211013e-03
         - 2.3288989927498010e-03
         - -1.6249477689731572e-02
         - 1.7916391034624335e-02
         - -4.2706261298597137e-03
         - 6.0086115843755892e-03
         - 4.6086006207697082e-03
         - 7.4783262531839664e-03
         - -2.2484596432352684e-04
         - 1.6982010490922354e-02
         - -7.0858067116203747e-03
         - -1.8305891219788371e-03
         - 6.2296636036581398e-03
         - 3.3243369544993556e-03
         - 4.3632705179186956e-03
         - -7.0187319534201242e-04
         - -7.1981737170620404e-03
         - -3.1437436220868717e-03
         - -2.6430927814813303e-03
         - -2.4098298485410494e-04
         - -1.6507934427746186e-03
         - -1.6018163942925500e-02
         - -6.9481207252215559e-03
         - 6.6131297507588845e-03
         - -9.9652334926406405e-03
         - 6.5643886353547905e-03
         - -1.2388995949571921e-03
         - 5.3545450261819963e-03
         - 8.3388598524639628e-03
         - 1.0374317686148967e-03
         - -5.2942270571735778e-03
         - -2.1137120161153619e-03
         - -7.7426599979889797e-04
         - 9.7119986249745048e-04
         - -1.0849819753257907e-03
         - 9.3037748133309645e-04
         - 7.3238879232672607e-03
         - -1.9235794568162649e-02
         - -1.8535220727181321e-03
         - 3.6733637237255472e-02
         - 2.7325901736198316e-03
         - -5.1395313595555513e-03
         - -5.1869494656347414e-03
         - -5.5628507359163065e-03
         - 7.2076253537759795e-03
         - -2.0222547647246077e-03
         - -1.3193471235835019e-03
         - -2.3768037782166710e-03
         - 4.1056150876505769e-03
         - -5.7874898982269276e-03
         - 4.5945865104670726e-04
         - -1.3825481563509196e-03
         - -5.0959928258758874e-03
         - 3.2329495497789048e-03
         - -3.4290141472354228e-03
         - -1.0928318361278812e-02
         - -8.2841675549264870e-04
         - -5.7730212383177663e-03
         - -1.8543987777713839e-03
         - 4.4164626249133029e-03
         - 1.6365834712752519e-02
         - -3.8422547116061254e-03
         - -1.3728762111490679e-03
         - -3.9132554791255448e-03
         - 1.6004821433887095e-02
         - -5.7656484477434482e-03
         - -2.5536898888534176e-03
         - 5.0870210652087695e-03
         - -4.6539861288530937e-03
         - 4.2092617374817256e-03
         - -5.5670926109854463e-03
         - -3.8468525780475547e-03
         - 1.0988751989485495e-03
         - -1.8928769981726126e-03
         - 1.7208137016044601e-02
         - 3.9400130223811005e-03
         - -2.0800011434139965e-03
         - -2.8443784358722717e-03
         - 1.0120800420629919e-02
         - 1.3605464974474546e-03
         - -4.9938021744944825e-03
         - -1.4658857981857860e-03
         - 4.7826697153808672e-03
         - 1.6824636176926758e-03
         - 1.8499479845744090e-03
         - -1.7509181702631729e-03
         - 2.8584204820889985e-03
         - -1.9118123347925380e-02
         - 7.7210241180227885e-03
         - -2.6890554202442678e-02
         - -1.5663719675803633e-03
         - -3.8143510563048762e-03
         - -2.5061450253888898e-03
         - 3.0022481059585270e-03
         - 8.4478721273400330e-03
         - 1.7877543965614435e-03
         - 2.8872602738073337e-04
         - 1.7080979408176673e-03
         - -1.7585954643216644e-03
         - -2.1737275921266262e-03
         - -5.9160879981456950e-03
         - -5.5542578294804912e-03
         - 9.1262770605922919e-03
         - 1.3978942881270802e-02
         - 4.3692847746179420e-03
         - -1.5997062207844803e-02
         - -2.4764824850907505e-03
         - -1.4470948044132773e-02
         - -3.5021022505325357e-03
         - 2.2306788877616852e-03
         - 3.2138168115577015e-02
         - 3.2973675686779344e-03
         - -1.8949623059362098e-03
         - 1.1794640946766503e-03
         - -3.1237242666260108e-04
         - 1.0173231671156354e-03
         - -6.6041778799543352e-03
         - 5.8115995345629692e-04
         - 3.5076360359752351e-03
         - -2.8129511669747276e-03
         - -2.5860713459204166e-03
         - 3.3194138688693551e-04
         - -5.8848982592178960e-04
         - 3.5812637130641532e-03
         - 4.4143343241778751e-02
         - 3.3326048698737194e-03
         - -3.2067183233369049e-03
         - -4.5413459085282866e-04
         - 6.2607543322479855e-03
         - 7.0891483599111434e-03
         - -1.3048532241009666e-03
         - 6.2348200532375709e-03
         - 4.1756713955354860e-03
         - -2.5492054655905541e-03
         - -3.1081817798853943e-03
         - 4.4028944252396611e-04
         - -8.7132644065042279e-04
         - 1.6872134831543716e-02
         - -5.5626729204775868e-03
         - -7.7497527579988078e-04
         - -1.6502713729246025e-03
         - -4.4931212058883221e-03
         - 4.0133540527551000e-03
         - 3.4145646027500531e-03
         - 2.0118455883208863e-03
         - -1.2918759891162289e-03
         - -6.2166186786583016e-03
         - -4.9212484528547906e-03
         - -4.6530944377629448e-03
         - -1.0287778916345965e-03
         - -5.3646228134008531e-03
         - 3.9160157705482113e-03
         - 4.4862698380305627e-03
         - 1.3402096088876365e-02
         - 5.7775443884620133e-03
         - 6.6040967487397976e-04
         - -2.8908221705960680e-03
         - -5.4501700755563718e-03
         - -1.1501718744451484e-03
         - -9.9065722214632893e-03
         - -1.4289060230048509e-02
         - 9.1650320851554743e-04
         - 3.9163724063058628e-04
         - -3.6977851086540904e-03
         - -1.4400747524123221e-03
         - -2.5684615254556072e-03
         - -2.6783764930702380e-03
         - 4.1122389741857952e-03
         - -1.3934328460844039e-03
         - -3.0830297342759640e-03
         - 2.1889875610629291e-03
         - 2.6685596517484877e-03
         - 2.1957310697505997e-04
         - -1.0079572335315551e-03
         - -9.5902395875109795e-03
         - 1.6027560551504819e-03
         - 6.3439420683808296e-03
         - -6.4407344698679658e-03
         - 2.1631601989319408e-02
         - -2.6010866621398933e-02
         - -7.5085574532435025e-03
         - 2.7951054190200287e-03
         - -4.3700736734280481e-03
         - -1.2570942455722085e-02
         - 1.4316767236215474e-02
         - -7.8386841474638695e-03
         - -2.2995991084109935e-02
         - -1.1913301596125424e-02
         - 1.3115014208477540e-02
         - -6.2902770053505155e-02
         - 9.7429940738263804e-03
         - 2.0864283330346012e-02
         - 1.6179669875651885e-02
         - 5.8937264416134413e-03
         - 2.7802883778921803e-02
         - -6.7060028478467979e-03
         - -1.5304734276808408e-02
         - 1.4727727264646011e-02
         - -1.0742538992470567e-02
         - -2.5365961093453029e-02
         - -9.9007011930596685e-03
         - -9.2049646518328667e-03
         - 2.2661572598688163e-02
         - -2.4763949360349091e-02
         - 3.2347331669207264e-03
         - -2.3498621645743848e-02
         - -1.2504124903249569e-03
         - -2.4205194964328165e-02
         - -4.3916616656404558e-03
         - -5.6674088658881794e-02
         - 1.8345416191527714e-02
         - -8.8314163251153061e-03
         - -1.5714708780212642e-02
         - -3.9875384393819283e-04
         - 3.2500162358491375e-02
         - -7.6948691277847129e-04
         - 1.2284035365085065e-02
         - -4.0894126459986944e-03
         - -2.2736897869988005e-03
         - -7.8208326370804021e-03
         - 6.6261094397839144e-04
         - 2.1974210693218251e-02
         - 1.0541805970784754e-02
         - -1.1886055241798180e-02
         - 3.3242380971802980e-02
         - -4.6969318938831772e-03
         - 1.1321418235219370e-02
         - -2.2879504247162147e-02
         - -3.8113972673689961e-02
         - 1.6533332294155597e-02
         - 8.4961060795989661e-03
         - -3.5921218407631455e-03
         - 3.1681038091436902e-03
         - 1.0665771047246305e-02
         - -2.0068230990893762e-02
         - 1.2944987251160743e-02
         - 1.7240181600032569e-02
         - 4.8437960468376721e-02
         - -7.6421726026557430e-03
         - 1.6191356772307569e-02
         - -7.7158359562074135e-03
         - -2.6012098023586814e-02
         - -2.1305986653645477e-02
         - -8.3255487367412256e-03
         - -3.2637516606785294e-02
         - 8.4773792431910976e-03
         - 1.6538940697150270e-02
         - -2.0070442653521321e-02
         - 1.1337047536290891e-02
         - 2.7879396027015241e-02
         - 1.9899174010900692e-02
         - 1.5897968791770987e-02
         - -2.3255997477681204e-02
         - 2.3361009272139865e-02
         - -7.0956498498853347e-03
         - 3.8928833923287498e-02
         - -1.3288157208069774e-03
         - 2.9811464936168274e-02
         - -6.6341577797030173e-03
         - 5.7494459326063122e-03
         - -4.3486496461664692e-02
         - 1.2433235355215613e-02
         - 1.5898097531396670e-02
         - -9.1102838441865664e-03
         - -8.7848589487430715e-03
         - -5.6967068158663382e-03
         - -2.3319193125723146e-02
         - 4.4523585918140223e-03
         - 2.7663470376740420e-03
         - 7.4090872520457427e-03
         - -8.1584420403060694e-03
         - -2.2037269733657272e-02
         - -1.0551705836369206e-02
         - 1.1351773313223023e-02
         - -7.2282327730329721e-02
         - 3.4115370235981205e-03
         - -2.6402226090082126e-03
         - 2.7152291401920024e-02
         - -1.5148523374103318e-04
         - -4.1982076604603060e-03
         - -2.7493396947540437e-03
         - 3.6653492012787229e-04
         - -1.7085850942392328e-03
         - -2.6826355407821665e-03
         - 9.0202382465514653e-04
         - -3.3169332143525595e-04
         - 2.6692954341735638e-03
         - -1.0662213942977049e-02
         - -3.5467097697232351e-03
         - -4.6689981026536126e-02
         - -4.8530659822212706e-03
         - 4.1274146054427179e-03
         - 5.0510882994573136e-03
         - -2.0043556486112170e-03
         - -4.4814249900411796e-03
         - 5.5520325344881067e-03
         - -3.5778768595000391e-03
         - -1.5277308423849794e-03
         - -5.6381029403200101e-03
         - 6.3280483682510496e-03
         - 5.7284934731521436e-03
         - 3.5178990623524224e-03
         - 1.8342172294688171e-04
         - -2.7936108566252130e-02
         - 1.2552621601131324e-03
         - 1.4046614425027247e-02
         - -6.3328069117394945e-03
         - -1.2758854629859296e-03
         - 1.3581474399889958e-03
         - -1.0020265305888979e-02
         - 5.2131520159447694e-03
         - -5.3154021903536054e-04
         - 7.1257536374662641e-03
         - -4.2099078024471536e-03
         - 9.0734261001098084e-03
         - 7.2544380616213692e-04
         - 7.4122195473792949e-03
         - 4.9233656720968641e-03
         - -2.0398323404381435e-03
         - -3.5933102743452585e-04
         - -3.0098033319450848e-03
         - 2.9467089417346305e-03
         - -1.3602713735269562e-03
         - -4.6271689137309044e-03
         - -1.3028751486144685e-02
         - 4.6025680038745166e-03
         - 2.8889150098998497e-03
         - 5.3243377562397793e-03
         - 9.0031680214337408e-03
         - -1.1604008245308719e-02
         - 3.4338127667235503e-04
         - 2.8302851365424046e-03
         - 2.1604395994204327e-03
         - 2.3331081314823835e-03
         - -2.6728085020592064e-04
         - 4.3731829595972728e-04
         - -1.3059270766072452e-02
         - -1.2095230224794137e-02
         - 7.2314580779875232e-03
         - -6.3082583858506375e-02
         - 9.4375989781442012e-03
         - 3.1639088454421330e-03
         - 2.3350774628224965e-03
         - -2.9362842611886154e-03
         - 2.6150721120408765e-03
         - 2.4690867284362806e-03
         - -1.6982983506689240e-03
         - 1.2845193237659440e-02
         - 1.9933507345721072e-03
         - 9.2079602430361547e-05
         - -2.2122544090117783e-03
         - -2.3714250351447056e-03
         - 5.7894684204664031e-04
         - -2.8214562615582348e-02
         - 3.2352114793536410e-03
         - 4.4227240351407031e-04
         - -1.8850637309714981e-03
         - -7.5251965163208433e-03
         - 1.8212341188885151e-03
         - -1.5735964228267358e-02
         - 1.6396607254968682e-02
         - -4.3454776192574625e-03
         - -5.6628309166183236e-03
         - -3.4376171077548736e-03
         - -4.3353426061590204e-03
         - 2.7999833312514276e-03
         - 4.5577635446882132e-03
         - -5.5456397236885490e-03
         - 7.6151847353346028e-03
         - -3.1600763129890574e-03
         - 8.4899613854744326e-03
         - 4.6820694103769994e-03
         - -2.3757665643165215e-03
         - -1.4443598298058303e-03
         - 2.3123837224450241e-02
         - -4.2250088459361021e-03
         - -4.4429692738146070e-03
         - -1.2070848014726389e-02
         - -1.9417162993704412e-02
         - -3.5779521595205297e-03
         - 7.4101022299762152e-04
         - -3.5794182455933005e-03
         - 2.7059286689074349e-03
         - 3.9473296802421051e-03
         - -1.9521720340571825e-03
         - 2.0938632942825715e-03
         - 7.5584160500810071e-03
         - 4.5393027026662562e-03
         - -3.1619532241069113e-03
         - 6.7719210403281618e-04
         - 9.3357168383510357e-04
         - -1.4002941367701815e-02
         - -2.8932292065820078e-03
         - -8.1602155026920045e-03
         - -1.6964402832617392e-02
         - 3.2270094238535758e-03
         - 1.0466666888281699e-02
         - -1.0468151507038420e-02
         - 3.5463326716250665e-03
         - 5.2546320607719903e-03
         - 2.3010470800850628e-03
         - 8.3340753906212890e-04
         - -1.2941122869399682e-02
         - 1.8560059820901344e-02
         - 1.4527204163921432e-03
         - 2.0201856049187716e-03
         - 1.2387130976100130e-03
         - 8.2376672588230192e-03
         - 3.6402467366029458e-05
         - -3.7090125548866690e-03
         - -1.7994625608491154e-02
         - 1.4925500151835450e-03
         - 3.9618073010976472e-03
         - 3.2873740309349165e-03
         - -2.2783619288178982e-02
         - 3.5778705627903078e-03
         - -9.5750296510013749e-03
         - 3.7876102283109941e-03
         - 5.0635721836014341e-03
         - 7.0910509465304840e-03
         - -3.4497837943894892e-03
         - -9.7274217878266997e-03
         - 3.7524443927494798e-03
         - 8.8487691169115319e-03
         - -3.8196629739470733e-03
         - 7.0285358918403323e-03
         - -1.0143706180880153e-03
         - 3.9357363918136540e-03
         - 6.3725192849502718e-03
         - -1.5256175888238251e-03
         - 2.0258347759929975e-03
         - -1.5791425659726897e-03
         - -2.9108137333152032e-03
         - -1.5579176366484495e-03
         - -1.4400616554941354e-03
         - 2.8077007668528484e-03
         - 5.3585147795825114e-03
         - -8.1926926574971293e-03
         - -6.4739373331118271e-03
         - 3.6022903935077843e-02
         - -4.9994517552967317e-03
         - -8.6270920253970497e-04
         - 4.4607257201390287e-03
         - -3.6107899961486402e-03
         - -7.2343311305254638e-03
         - -4.0525056099102504e-03
         - -1.7847143380759088e-03
         - -3.5909340137793566e-03
         - -4.6259145232928883e-03
         - 7.9937686788586863e-03
         - -2.6674763122625368e-03
         - -3.8093098822233992e-03
         - -8.2084427456359608e-03
         - 5.5959002661134048e-03
         - 3.7642692611656219e-03
         - -8.1800023912211410e-03
         - 3.4375688279822876e-03
         - -4.9633248315552030e-03
         - -1.9719672847645842e-04
         - 3.0487381977050668e-03
