%YAML:1.0
---
opencv_ml_ann_mlp:
   format: 3
   layer_sizes: [ 324, 100, 2 ]
   activation_function: SIGMOID_SYM
   f_param1: 6.6666666666666663e-01
   f_param2: 1.7159000000000000e+00
   min_val: -9.4999999999999996e-01
   max_val: 9.4999999999999996e-01
   min_val1: -9.7999999999999998e-01
   max_val1: 9.7999999999999998e-01
   training_params:
      train_method: BACKPROP
      dw_scale: 1.0000000000000000e-03
      moment_scale: 0.
      term_criteria:
         epsilon: 1.0000000000000000e-04
         iterations: 300
   input_scale:
      - 1.1845964973477985e+01
      - -1.8052367539126739e+00
      - 1.1687380316589527e+01
      - -1.5813543653507391e+00
      - 1.2099606036046126e+01
      - -1.4560114638531030e+00
      - 1.3091744511646029e+01
      - -1.3552147447592222e+00
      - 1.3247711545904471e+01
      - -1.6142454284008327e+00
      - 1.3225392213729032e+01
      - -1.3962427763611494e+00
      - 1.1797943428176573e+01
      - -1.4888079673232950e+00
      - 1.1415225901077068e+01
      - -1.6218109247963808e+00
      - 1.1780393447496380e+01
      - -1.8272040909917677e+00
      - 1.1583722836639520e+01
      - -1.8560450773710619e+00
      - 1.1386230930612346e+01
      - -1.7132654701166308e+00
      - 1.1613901789676628e+01
      - -1.5621230580983709e+00
      - 1.2415490341929388e+01
      - -1.4532064647993486e+00
      - 1.2584637878888127e+01
      - -1.7178410184184936e+00
      - 1.2489354836202230e+01
      - -1.4775335522667463e+00
      - 1.1487088214155074e+01
      - -1.5936326701299146e+00
      - 1.1354421066356700e+01
      - -1.7581263678422732e+00
      - 1.1629738654293185e+01
      - -1.8846749844112760e+00
      - 1.1736680911641187e+01
      - -1.9608239577182032e+00
      - 1.1302340166581246e+01
      - -1.7167407331606992e+00
      - 1.1686982239858807e+01
      - -1.5934175819458769e+00
      - 1.2496709401961821e+01
      - -1.4739734305390573e+00
      - 1.2669179191396211e+01
      - -1.5735129625946438e+00
      - 1.2514010689922273e+01
      - -1.5166346392578502e+00
      - 1.1412485817216465e+01
      - -1.6088212197827094e+00
      - 1.1330171321868958e+01
      - -1.7645287315366356e+00
      - 1.1895462863579052e+01
      - -2.0062871209299749e+00
      - 1.1511842953904132e+01
      - -2.0001538658275724e+00
      - 1.1327148282649249e+01
      - -1.8643344163318221e+00
      - 1.1431272093472895e+01
      - -1.7185642215734731e+00
      - 1.1960680160951407e+01
      - -1.5783245970158106e+00
      - 1.2109999584154091e+01
      - -1.6750789725212407e+00
      - 1.2001343504468414e+01
      - -1.6252527969813417e+00
      - 1.1140061818555107e+01
      - -1.7401025026159458e+00
      - 1.1267433128481400e+01
      - -1.9287863939708052e+00
      - 1.1622637782437179e+01
      - -2.0593494326651900e+00
      - 1.1750992364974261e+01
      - -1.7165433442459015e+00
      - 1.1639602432681631e+01
      - -1.5834371886064653e+00
      - 1.2112068327328201e+01
      - -1.4779825697518687e+00
      - 1.3148814876724446e+01
      - -1.3849302656831000e+00
      - 1.3129246798459832e+01
      - -1.6350111883409648e+00
      - 1.3155177876481821e+01
      - -1.4205233561763655e+00
      - 1.1772978611169982e+01
      - -1.5136035099484668e+00
      - 1.1391605873446538e+01
      - -1.6354128207390228e+00
      - 1.1673165353419318e+01
      - -1.7385249129613221e+00
      - 1.1711102836718700e+01
      - -1.8479493090866026e+00
      - 1.1375883677791046e+01
      - -1.6930854668747684e+00
      - 1.1574626609901394e+01
      - -1.5674597313355438e+00
      - 1.2425844948655616e+01
      - -1.4642988224771969e+00
      - 1.2582992690475040e+01
      - -1.7429395937608987e+00
      - 1.2602304127657657e+01
      - -1.5137515953096716e+00
      - 1.1566798282878668e+01
      - -1.6234066037119361e+00
      - 1.1289247374693321e+01
      - -1.7571523744376183e+00
      - 1.1563380646390714e+01
      - -1.8614083348258059e+00
      - 1.1594389617483731e+01
      - -1.8637112195205665e+00
      - 1.1268657268707040e+01
      - -1.7246294452102278e+00
      - 1.1652623161146968e+01
      - -1.6187558774685507e+00
      - 1.2498064195831644e+01
      - -1.5107364209378606e+00
      - 1.2592954727981416e+01
      - -1.5962486992455258e+00
      - 1.2505227276043225e+01
      - -1.5360420400806607e+00
      - 1.1401168430288546e+01
      - -1.6265352213711988e+00
      - 1.1298991274204381e+01
      - -1.7623608828479767e+00
      - 1.1667849532916859e+01
      - -1.8949022175815615e+00
      - 1.1685157248792692e+01
      - -2.0083937298652343e+00
      - 1.1192419939910613e+01
      - -1.8276374314181083e+00
      - 1.1297270167463299e+01
      - -1.7044124332434452e+00
      - 1.1834814837507237e+01
      - -1.5881970550254774e+00
      - 1.2116137020273134e+01
      - -1.6958678063091619e+00
      - 1.2085545847753616e+01
      - -1.6443231611271047e+00
      - 1.1229483035355818e+01
      - -1.7558697621200221e+00
      - 1.1182685575872650e+01
      - -1.9045793520249437e+00
      - 1.1569963150446599e+01
      - -2.0340436296086057e+00
      - 1.1874019956060016e+01
      - -1.7097775425440569e+00
      - 1.1830611359749531e+01
      - -1.5816811859917157e+00
      - 1.2072965250273038e+01
      - -1.4797042577731145e+00
      - 1.2800128511860546e+01
      - -1.3815833882170039e+00
      - 1.3039847347042404e+01
      - -1.6651858652802443e+00
      - 1.3168074275915615e+01
      - -1.4443292085121493e+00
      - 1.1772977633417931e+01
      - -1.5349227118263418e+00
      - 1.1273116822678901e+01
      - -1.6367802658643726e+00
      - 1.1549333277373043e+01
      - -1.7251445661446632e+00
      - 1.1999240669836754e+01
      - -1.9539068990866602e+00
      - 1.1486134655700731e+01
      - -1.6451726187909577e+00
      - 1.1584194046513234e+01
      - -1.5356313553189260e+00
      - 1.2301616386446881e+01
      - -1.4376713610296052e+00
      - 1.2513291659162048e+01
      - -1.7351330098381688e+00
      - 1.2660830795620248e+01
      - -1.4952709924786531e+00
      - 1.1641292362028812e+01
      - -1.6131676338701602e+00
      - 1.1175455344016317e+01
      - -1.7145250717991405e+00
      - 1.1728167035544173e+01
      - -1.9624346663555670e+00
      - 1.1686071793296849e+01
      - -1.8601369999285953e+00
      - 1.1354214663015885e+01
      - -1.7204542167870036e+00
      - 1.1569182482204658e+01
      - -1.6237777461603049e+00
      - 1.2258465467183623e+01
      - -1.5168498777882804e+00
      - 1.2493772141212647e+01
      - -1.6231434181142130e+00
      - 1.2534198227064964e+01
      - -1.5549449151097456e+00
      - 1.1524891418307977e+01
      - -1.6487800598548379e+00
      - 1.1343224198723577e+01
      - -1.7739069829248377e+00
      - 1.1514754686145368e+01
      - -1.8625697550089402e+00
      - 1.2060950994229975e+01
      - -2.1326266709053083e+00
      - 1.1342177508198741e+01
      - -1.7877447551266563e+00
      - 1.1495297621426047e+01
      - -1.7051950194544503e+00
      - 1.1852787518145258e+01
      - -1.5783450541397603e+00
      - 1.2035242780433453e+01
      - -1.6902796397475757e+00
      - 1.2196213643244198e+01
      - -1.6367845875609222e+00
      - 1.1321260900571769e+01
      - -1.7361690339490163e+00
      - 1.1124207377736738e+01
      - -1.8664261253728451e+00
      - 1.1778493248029486e+01
      - -2.1406505161028964e+00
      - 1.2219391120692826e+01
      - -1.8242752400685602e+00
      - 1.1806054390136072e+01
      - -1.6099200327912493e+00
      - 1.2163668776582774e+01
      - -1.5094668436682253e+00
      - 1.3273269401201986e+01
      - -1.4266025936033813e+00
      - 1.3501017000105451e+01
      - -1.5282869083304125e+00
      - 1.3208444831066553e+01
      - -1.4704139715907838e+00
      - 1.1725669038453940e+01
      - -1.5524409726988027e+00
      - 1.1291520036067258e+01
      - -1.6448750402754948e+00
      - 1.2113677113750612e+01
      - -1.8460670852258234e+00
      - 1.1925646340208406e+01
      - -1.8847048888881541e+00
      - 1.1423055729536228e+01
      - -1.7381607155487400e+00
      - 1.1701128253432779e+01
      - -1.6276550614974512e+00
      - 1.2529188061136674e+01
      - -1.5214998121251893e+00
      - 1.2553917796093906e+01
      - -1.6080287011033583e+00
      - 1.2548261720017573e+01
      - -1.5705633953298186e+00
      - 1.1339985719307865e+01
      - -1.6503372589535952e+00
      - 1.1329822358795175e+01
      - -1.7841996939073008e+00
      - 1.1868288120431080e+01
      - -1.8970332469484337e+00
      - 1.2168218300321907e+01
      - -1.9596289846429211e+00
      - 1.1430822746976910e+01
      - -1.6841133279291625e+00
      - 1.1714054706574373e+01
      - -1.5862411337466604e+00
      - 1.2615578495455297e+01
      - -1.5073511831938713e+00
      - 1.2860339280662851e+01
      - -1.6055839406198662e+00
      - 1.2615634706787111e+01
      - -1.5572850567908687e+00
      - 1.1413344891612489e+01
      - -1.6593219376937438e+00
      - 1.1310141489495539e+01
      - -1.7779000334641133e+00
      - 1.1993909051057607e+01
      - -1.9774408544877076e+00
      - 1.1961497327643331e+01
      - -2.0296659290227765e+00
      - 1.1439017747010327e+01
      - -1.8443984799280295e+00
      - 1.1452115006662112e+01
      - -1.7249380213985401e+00
      - 1.2007618905303639e+01
      - -1.6186830668512633e+00
      - 1.2274762779709778e+01
      - -1.7262736487021051e+00
      - 1.2117568546633155e+01
      - -1.6856804394454104e+00
      - 1.1196850858664886e+01
      - -1.7951333709440076e+00
      - 1.1234697381486688e+01
      - -1.9450889584415914e+00
      - 1.1785704714677662e+01
      - -2.0487336948058106e+00
      - 1.2054355218662089e+01
      - -1.7351178294003458e+00
      - 1.1755303819424068e+01
      - -1.6129997892491155e+00
      - 1.2138788966982238e+01
      - -1.5230852241867605e+00
      - 1.3073205824191250e+01
      - -1.4335234405228552e+00
      - 1.3302029617391881e+01
      - -1.5382047663728338e+00
      - 1.3217336451183266e+01
      - -1.4820694183998393e+00
      - 1.1694194250070961e+01
      - -1.5557466335134496e+00
      - 1.1357267188124062e+01
      - -1.6544708602898315e+00
      - 1.2135766479975832e+01
      - -1.7721443612756924e+00
      - 1.1900024890871775e+01
      - -1.8635339214673139e+00
      - 1.1406962424962986e+01
      - -1.7251830279731273e+00
      - 1.1588423806777003e+01
      - -1.6210858229754168e+00
      - 1.2316934937754191e+01
      - -1.5143883090537080e+00
      - 1.2538650428158482e+01
      - -1.6107588108996234e+00
      - 1.2686320824318924e+01
      - -1.5614127006947687e+00
      - 1.1547280573739178e+01
      - -1.6540292304960829e+00
      - 1.1323913501418604e+01
      - -1.7633280114038143e+00
      - 1.1824623943020494e+01
      - -1.8660785600152379e+00
      - 1.1966741492174538e+01
      - -1.8752632659825712e+00
      - 1.1365563720372020e+01
      - -1.7174638639255906e+00
      - 1.1662850501280843e+01
      - -1.6372825853238056e+00
      - 1.2485104289537412e+01
      - -1.5381323001920806e+00
      - 1.2701730309804525e+01
      - -1.6432388641340194e+00
      - 1.2575730352585111e+01
      - -1.5777366928045793e+00
      - 1.1413325882240544e+01
      - -1.6601134011344820e+00
      - 1.1267863059068423e+01
      - -1.7711945921568495e+00
      - 1.1783301773017831e+01
      - -1.8764797990946711e+00
      - 1.1863647588742237e+01
      - -2.0088527626288366e+00
      - 1.1270930433739284e+01
      - -1.8305554049783754e+00
      - 1.1328228288229097e+01
      - -1.7211081192140882e+00
      - 1.1915889966831548e+01
      - -1.6271761500680106e+00
      - 1.2251660015680944e+01
      - -1.7479800720252481e+00
      - 1.2264609684554811e+01
      - -1.6889060914824772e+00
      - 1.1240269585074676e+01
      - -1.7816412015426351e+00
      - 1.1116396452344363e+01
      - -1.9043129196527135e+00
      - 1.1626049334531869e+01
      - -2.0055398383213650e+00
      - 1.2236350498977428e+01
      - -1.7451379251525450e+00
      - 1.1874539876423391e+01
      - -1.6312492789934743e+00
      - 1.2024961276947682e+01
      - -1.5414452039644719e+00
      - 1.2754110519290764e+01
      - -1.4474547463263945e+00
      - 1.3027876193844737e+01
      - -1.5486735624288541e+00
      - 1.3245545371395790e+01
      - -1.4966973484522983e+00
      - 1.1745531763244637e+01
      - -1.5542205855415709e+00
      - 1.1449330785171469e+01
      - -1.6524587242797706e+00
      - 1.2021089769912908e+01
      - -1.7444790837500632e+00
      - 1.2311040961230676e+01
      - -1.9934411208004243e+00
      - 1.1509750071482626e+01
      - -1.7052620418206843e+00
      - 1.1573932271785488e+01
      - -1.6157118432747009e+00
      - 1.2264430386499020e+01
      - -1.5205960816543562e+00
      - 1.2486081906982706e+01
      - -1.6176538718668600e+00
      - 1.2772446770761238e+01
      - -1.5591470147722424e+00
      - 1.1677522589865578e+01
      - -1.6379835130755063e+00
      - 1.1390073916290218e+01
      - -1.7298472208850177e+00
      - 1.2167090332000202e+01
      - -1.9838247573145591e+00
      - 1.1983069815049115e+01
      - -1.8784773192844517e+00
      - 1.1360322461955429e+01
      - -1.7355015405666945e+00
      - 1.1560137445867523e+01
      - -1.6473894879235671e+00
      - 1.2214398857240687e+01
      - -1.5439535945653553e+00
      - 1.2455668249403661e+01
      - -1.6489529253059543e+00
      - 1.2653469897720420e+01
      - -1.6009253419851734e+00
      - 1.1422743003398075e+01
      - -1.6583124375031133e+00
      - 1.1356125255152758e+01
      - -1.7763574382813807e+00
      - 1.1905781125421592e+01
      - -1.8758551023980345e+00
      - 1.2338112660562821e+01
      - -2.1532066078128622e+00
      - 1.1404707312747426e+01
      - -1.8277277269082661e+00
      - 1.1458219370559698e+01
      - -1.7321319647229638e+00
      - 1.1938802019755352e+01
      - -1.6202642163565597e+00
      - 1.2231036996799050e+01
      - -1.7316024067833875e+00
      - 1.2268383006568444e+01
      - -1.6681728531020010e+00
      - 1.1320651341562096e+01
      - -1.7463773008538004e+00
      - 1.1212231660865424e+01
      - -1.8614812188865715e+00
      - 1.2172972715991957e+01
      - -2.1580398764437700e+00
      - 1.2415829973089600e+01
      - -1.8187715485702882e+00
      - 1.1944105447409274e+01
      - -1.5831579291715168e+00
      - 1.2200471668415364e+01
      - -1.5028400603439858e+00
      - 1.3236522878717059e+01
      - -1.4316310839627666e+00
      - 1.3596955036688740e+01
      - -1.5366281605381014e+00
      - 1.3535761268386597e+01
      - -1.5129355219586123e+00
      - 1.1651221446094972e+01
      - -1.5938615407632681e+00
      - 1.1142878203392577e+01
      - -1.6784103843613822e+00
      - 1.2109196094695310e+01
      - -1.8683045697515419e+00
      - 1.2127932064224739e+01
      - -1.8954874810712383e+00
      - 1.1526971993546352e+01
      - -1.7348984339191467e+00
      - 1.1590278743432268e+01
      - -1.6451003397186508e+00
      - 1.2392263887512653e+01
      - -1.5447139211041778e+00
      - 1.2626450129963118e+01
      - -1.6426450782557278e+00
      - 1.2751216476406398e+01
      - -1.6061161002167739e+00
      - 1.1435685367784277e+01
      - -1.6973689336894573e+00
      - 1.1223171123379936e+01
      - -1.8095030298856689e+00
      - 1.1850154490817184e+01
      - -1.9082147724119864e+00
      - 1.2427973983485247e+01
      - -1.9466698449363988e+00
      - 1.1469234535564620e+01
      - -1.6357700201585765e+00
      - 1.1582620242663031e+01
      - -1.5229108415706094e+00
      - 1.2770892306223498e+01
      - -1.4794310226934264e+00
      - 1.3290748264428350e+01
      - -1.8766051317099637e+00
      - 1.3085495582252792e+01
      - -1.5673229203663843e+00
      - 1.1585964974769013e+01
      - -1.6865732328482272e+00
      - 1.1287830170552187e+01
      - -1.7890731976419110e+00
      - 1.2168551907351604e+01
      - -2.0006424493913939e+00
      - 1.2174460116387463e+01
      - -2.0087206081103504e+00
      - 1.1420967028620845e+01
      - -1.7966133299176992e+00
      - 1.1281485383586796e+01
      - -1.6662383250683246e+00
      - 1.2013045588675070e+01
      - -1.5852833830181143e+00
      - 1.2803175196328658e+01
      - -2.0290108885952001e+00
      - 1.2357241842131986e+01
      - -1.6696274886505567e+00
      - 1.1329301783458302e+01
      - -1.8120250792312289e+00
      - 1.1164869204648697e+01
      - -1.9282368133564727e+00
      - 1.1828352184479405e+01
      - -2.0412062232991102e+00
      - 1.2373540388831163e+01
      - -1.7618018102677599e+00
      - 1.1904063081908955e+01
      - -1.6291399085387119e+00
      - 1.1955921115112339e+01
      - -1.5469074379184276e+00
      - 1.2944023598141124e+01
      - -1.4620624034812510e+00
      - 1.3281473618296967e+01
      - -1.5789375992019350e+00
      - 1.3483931180627904e+01
      - -1.5273923298245611e+00
      - 1.1730869807375862e+01
      - -1.5929685899990531e+00
      - 1.1156491596698840e+01
      - -1.6553736470316471e+00
      - 1.1911617018773839e+01
      - -1.7509817829571985e+00
      - 1.2082409999784431e+01
      - -1.8811226944473181e+00
      - 1.1484750673707360e+01
      - -1.7380189222747573e+00
      - 1.1477402306329495e+01
      - -1.6367419975729753e+00
      - 1.2307437714578493e+01
      - -1.5516524406321690e+00
      - 1.2649580374916871e+01
      - -1.6724074052238058e+00
      - 1.2795039429668334e+01
      - -1.6092410732105364e+00
      - 1.1476191580635689e+01
      - -1.6794750075974734e+00
      - 1.1277677938062020e+01
      - -1.7866465569715586e+00
      - 1.1765250300919373e+01
      - -1.8664169555056043e+00
      - 1.2315129303983616e+01
      - -1.8582868034995410e+00
      - 1.1452985965910225e+01
      - -1.6904292026344840e+00
      - 1.1456169786642894e+01
      - -1.5853741026897576e+00
      - 1.2493602966848487e+01
      - -1.5136788861253516e+00
      - 1.3153254798494725e+01
      - -1.9131855364050740e+00
      - 1.2979292518121291e+01
      - -1.5741082888135502e+00
      - 1.1597310477456190e+01
      - -1.6721909344343076e+00
      - 1.1234954764848260e+01
      - -1.7470473628889196e+00
      - 1.1873434048733900e+01
      - -1.8548527014925482e+00
      - 1.2171787467591216e+01
      - -1.9944604809278366e+00
      - 1.1593499745028648e+01
      - -1.8333325486831913e+00
      - 1.1381378244037629e+01
      - -1.7065735518621312e+00
      - 1.2053678374408054e+01
      - -1.6160633736272891e+00
      - 1.2992370617444633e+01
      - -2.0749517658362930e+00
      - 1.2544878992216088e+01
      - -1.6747320228356397e+00
      - 1.1283063744860916e+01
      - -1.7701791494600878e+00
      - 1.1136772638242261e+01
      - -1.8823872225144149e+00
      - 1.1774577522018889e+01
      - -1.9925297431023425e+00
      - 1.2349732214896948e+01
      - -1.7567520979814206e+00
      - 1.1799369716176562e+01
      - -1.6366201610732307e+00
      - 1.1892060186125661e+01
      - -1.5440770139158495e+00
      - 1.2874201610485105e+01
      - -1.4709363244510596e+00
      - 1.3102893275086281e+01
      - -1.5796946446588318e+00
      - 1.3400006661894928e+01
      - -1.5429302288211131e+00
      - 1.1765200485694193e+01
      - -1.6013681730328044e+00
      - 1.1325420036282122e+01
      - -1.6689653987593762e+00
      - 1.1966307758468812e+01
      - -1.7448096047766759e+00
      - 1.2347790863246383e+01
      - -2.0059243963819449e+00
      - 1.1463366143797513e+01
      - -1.7152446888258919e+00
      - 1.1526597602579564e+01
      - -1.6173846394875506e+00
      - 1.2459986630122664e+01
      - -1.5435381311540537e+00
      - 1.2620314041157703e+01
      - -1.6414022675383584e+00
      - 1.2862569646721251e+01
      - -1.5883378955923140e+00
      - 1.1664818489405558e+01
      - -1.6575450010456751e+00
      - 1.1385578435112446e+01
      - -1.7451395738293873e+00
      - 1.2162541038747836e+01
      - -1.9951884996853946e+00
      - 1.2241343568305037e+01
      - -1.8656426759139333e+00
      - 1.1586145994369298e+01
      - -1.7270500841676752e+00
      - 1.1504441179650911e+01
      - -1.6189999795103580e+00
      - 1.2401345910747887e+01
      - -1.5385608723805624e+00
      - 1.3073119424305030e+01
      - -1.9426779279089490e+00
      - 1.2942100310713293e+01
      - -1.5867408246149712e+00
      - 1.1675074864371826e+01
      - -1.6702201123906175e+00
      - 1.1390000848778920e+01
      - -1.7589317650500182e+00
      - 1.1892358391906768e+01
      - -1.8427916477123238e+00
      - 1.2342236889835995e+01
      - -2.1234235158562118e+00
      - 1.1484585273787719e+01
      - -1.7983548423937925e+00
      - 1.1460298509560635e+01
      - -1.7003964392909592e+00
      - 1.1995242064109650e+01
      - -1.5920624399260743e+00
      - 1.2749676485004477e+01
      - -2.0303599546430524e+00
      - 1.2285406966705589e+01
      - -1.6345011770135112e+00
      - 1.1417774017524417e+01
      - -1.7371000063077180e+00
      - 1.1287541406194116e+01
      - -1.8503104867492539e+00
      - 1.2114411971383749e+01
      - -2.1219497925208399e+00
   output_scale:
      - 5.2631578947368418e-01
      - 4.9999999999999994e-01
      - 5.2631578947368418e-01
      - 4.9999999999999994e-01
   inv_output_scale:
      - 1.8999999999999999e+00
      - -9.4999999999999996e-01
      - 1.8999999999999999e+00
      - -9.4999999999999996e-01
   weights:
      -
         - 2.2498834878124967e-02
         - -1.8892464855451399e-01
         - 1.9944959948783120e-01
         - -2.5294415077392152e-02
         - 3.3489006943073824e-01
         - -1.8750958936431032e-02
         - 2.2391127839442009e-02
         - 6.2382280599340825e-02
         - -4.2584473795714117e-02
         - 2.9700875280236905e-02
         - 6.3463354657020590e-02
         - -2.2636875595275649e-01
         - 5.2604666776947161e-02
         - 1.1430690536762494e-02
         - -2.3736668588745885e-01
         - -1.0324447294888678e-02
         - 2.0659450824698309e-02
         - 8.6188844923075197e-03
         - 2.6255585169426224e-02
         - -7.5051378135633465e-02
         - 1.4173876466669370e-02
         - -3.3035260139455895e-02
         - -2.4414586696278944e-03
         - 2.6758618118118055e-02
         - -1.3410870378006241e-02
         - 2.2060463133604061e-02
         - -4.0967924207727956e-02
         - 7.1951294843995664e-02
         - -2.7155018233718714e-02
         - 7.3627406615566849e-03
         - 3.3728328883631953e-01
         - 7.4459093702920282e-02
         - 3.3202772594821774e-02
         - -6.2084274016119628e-02
         - 2.3227681814202608e-02
         - -3.0465784875792965e-02
         - -4.1069358107670553e-04
         - -4.4577974531201998e-02
         - 3.3950190492156845e-01
         - 1.1241000301408101e-02
         - -3.3770210869196863e-03
         - -6.1406953987559638e-02
         - 2.2025753353749530e-01
         - 1.7434349243796685e-01
         - -1.8427187358150271e-02
         - 1.9844613876866014e-02
         - -4.0287215560875306e-02
         - -8.4001505452379013e-02
         - -2.5108710273050724e-02
         - -1.3269287593691731e-02
         - 3.1007054559005057e-02
         - -1.6446487309110854e-02
         - 1.0118811090669196e-01
         - 1.2095697579236495e-01
         - -1.3530060966386804e-02
         - -4.1171299791439596e-02
         - 3.9849377569377356e-02
         - 4.2473473161671896e-02
         - 3.1609726278727868e-01
         - 8.0706269426614477e-02
         - -3.3919541452743417e-02
         - 1.7230952806274175e-01
         - 2.9662519571692584e-02
         - -4.2973736666778860e-02
         - 6.9385432146889511e-02
         - -4.0957306060857027e-02
         - -2.4130194141283018e-01
         - -2.6946438760023280e-03
         - 3.6642079578692192e-02
         - -5.2229149455687386e-02
         - -3.1553122031627003e-02
         - 2.6802724955201722e-03
         - -3.5658657812344047e-01
         - -6.7629673960237734e-04
         - 3.2592454747682015e-01
         - 3.3570705262943666e-02
         - -5.4312252331336873e-03
         - 8.1400634529122332e-03
         - -2.0828762316087476e-02
         - 2.4395432748012640e-03
         - -1.1765353637149352e-01
         - -7.8987892742109159e-03
         - -3.6151095509442947e-02
         - -4.7249874463036245e-02
         - 1.9743458226706413e-02
         - 3.4953191666633229e-02
         - 2.0570223443516854e-02
         - -4.3873892524029498e-02
         - 3.6248636637817210e-02
         - 1.1215575837579586e-02
         - 3.0566826960165747e-02
         - 4.4323734386323817e-02
         - -1.4773135477707479e-02
         - -1.4175847809082492e-01
         - -5.0305124844392556e-02
         - 3.9550147248295794e-02
         - 4.4427874775424425e-02
         - -4.4939761072050513e-02
         - -3.6544469877859705e-02
         - -4.7877739356673452e-03
         - -5.1897506569580842e-03
         - -1.5818007080785396e-01
         - 5.9119010580211150e-02
         - 1.9552310484218017e-03
         - -2.0890151774306781e-01
         - 9.4478799791622731e-03
         - -5.0239723675169108e-03
         - 3.2730984342106369e-02
         - 2.1042540164031353e-02
         - -4.6390135938627324e-03
         - -1.1850520455789047e-02
         - -4.9198115168209523e-02
         - -8.8415645960989511e-03
         - 2.6432014326555750e-03
         - 9.7174533012459374e-02
         - 6.1689907294047606e-03
         - 4.3007507195423830e-03
         - 3.3720441678094888e-03
         - -3.2749275514767839e-03
         - -1.9360500661293679e-02
         - 8.2554869413785825e-04
         - 1.1510479744406447e-02
         - -2.3633436547981662e-03
         - -3.1474277824648043e-03
         - 3.3287030600499690e-03
         - -4.0102933001390758e-03
         - 2.0002548078741026e-02
         - -3.3990146345754696e-01
         - 5.9832729117195050e-03
         - -7.8212769180166716e-03
         - 1.1168928450420341e-01
         - 1.0616152431721687e-01
         - -1.1922456580046498e-02
         - 7.8669179670941593e-03
         - 2.1661426931477371e-01
         - 4.7831999673900467e-03
         - 4.4537249120993943e-03
         - 9.9531562450396030e-02
         - -1.7608707604071058e-02
         - 4.4207300413532944e-03
         - -1.4578362227114605e-03
         - -1.1294822490551894e-02
         - 3.1087376422522978e-02
         - -5.4819744248839238e-02
         - 1.8528052238623079e-03
         - -1.2079315751414250e-02
         - 1.1301062806390452e-02
         - 2.5126014146322683e-03
         - 1.0306968443505520e-02
         - 1.6173471273646350e-03
         - -9.2378775233540617e-03
         - -2.6698903609819959e-03
         - 8.0700592613142819e-03
         - 3.6611089908502786e-02
         - -5.8076874537917172e-05
         - -9.0438564356429899e-02
         - -2.2484338380797560e-02
         - -1.0907045487537429e-02
         - -4.1511802817426330e-01
         - 1.9202230133562568e-02
         - 3.3908251252618769e-03
         - 2.2096070425780569e-02
         - -1.1405455742454027e-02
         - 1.2188403056119059e-02
         - -1.5787542779998054e-02
         - 9.1102165106294805e-03
         - -5.0066756301879040e-03
         - -2.5434737646439061e-02
         - -4.6636776462616689e-03
         - -2.6279661281820863e-03
         - 9.9102966682791237e-03
         - -4.9217004824309973e-04
         - -5.2528685072296444e-01
         - 3.2918367004293159e-03
         - 3.3014014332734959e-01
         - -8.4574375959869229e-03
         - 5.4473105998991290e-03
         - -4.5174380497587105e-03
         - 1.9616616700002640e-03
         - 9.5749149461445190e-03
         - -5.6998932972057138e-02
         - 1.1512587462136484e-04
         - 6.0276878635075696e-03
         - -2.0057418749614661e-01
         - -7.3647971365492699e-04
         - 4.0217058342149649e-02
         - 5.0685147905389534e-03
         - -2.1439159191184239e-03
         - -8.4604085578533009e-03
         - -9.2704120290788387e-03
         - -1.2750144856455285e-02
         - -1.4801696599837818e-02
         - 4.9601743421279043e-02
         - -5.1795551189424371e-01
         - 1.5099535205067101e-02
         - -1.5239900561347518e-02
         - -5.6958764491426804e-03
         - 1.3400373914527471e-02
         - 7.2434477373620179e-03
         - 4.2148587826041836e-04
         - -8.2818685264149164e-03
         - -1.4704250409906186e-01
         - 1.0550900341551574e-01
         - 9.3090650009887994e-03
         - 7.6850131358068091e-02
         - 9.4591534123873583e-03
         - -4.9804802394688057e-03
         - 7.1887659072596213e-02
         - 1.3942501694608414e-02
         - -4.6463723664505177e-03
         - -1.3237835649932720e-02
         - -2.2327209965168276e-01
         - 9.9401911229298600e-03
         - 4.9506679860924687e-03
         - -1.9028347862156150e-01
         - 6.0199441621383489e-03
         - 5.6178642530478069e-03
         - -4.3565184048266403e-03
         - -5.1256540737899458e-03
         - -5.6004544370905844e-02
         - -6.7904227787977311e-03
         - 3.0554748531737841e-03
         - 2.9973097450747624e-03
         - -1.6131993808976518e-03
         - 5.6981878914349107e-03
         - -5.9329979079869180e-03
         - 7.6670931019756474e-03
         - 2.2197772108492450e-01
         - -7.3199117835555305e-03
         - -3.0388684637318421e-03
         - 4.4443862576708522e-02
         - 1.6133962639601554e-02
         - -6.4938941452970600e-03
         - -6.1601201257633763e-02
         - -2.3324738520554480e-01
         - -1.5621519377668437e-03
         - 6.2649960125880021e-04
         - -1.4773190684031831e-01
         - -1.7495954351901825e-02
         - 2.3060044842057076e-03
         - 3.5263808920385424e-03
         - -2.2332883775682509e-02
         - 1.7307648033170614e-01
         - -2.0039031846411443e-02
         - 9.5278504253704511e-04
         - -4.4291345943433605e-03
         - 1.0839540071473974e-02
         - -4.6395747235865425e-02
         - 1.2621491683456408e-02
         - -8.8623663285949668e-04
         - -1.0923487534556150e-02
         - 3.0908107688743347e-03
         - 8.8828815560605227e-03
         - -1.6695344964984515e-01
         - 5.8135409493503751e-03
         - 1.2532597086363782e-02
         - -2.6450900626026511e-02
         - 1.4949663755897943e-02
         - 3.1084496362429626e-01
         - 4.9658135331595077e-02
         - 4.2192186324761429e-03
         - -1.4435542905458326e-01
         - -4.4477347821128910e-03
         - -4.6605552905469800e-03
         - 1.8547772415936976e-02
         - 9.5347113806644630e-03
         - 2.0222905652598139e-01
         - 1.7551294300402930e-02
         - 9.7639902385104789e-03
         - -1.0663017755267828e-02
         - -1.4931925671143279e-03
         - -7.2158756119075048e-03
         - 1.8874693299558762e-01
         - 5.5831752502216699e-03
         - 2.1170466001738278e-01
         - -1.0722758293625866e-02
         - 5.4809948049563588e-03
         - 3.8996983909176559e-03
         - -1.6976245823797640e-03
         - 2.3983169800130271e-03
         - -2.6013842113744767e-01
         - 1.3060824176576765e-03
         - 8.9387225974438995e-03
         - -1.7703494981439773e-02
         - -8.3907017637156831e-03
         - 7.7387246309760793e-02
         - 4.1934024949679249e-03
         - -3.8195991712079269e-01
         - 1.4829781712699075e-04
         - -4.6596936607730868e-03
         - -7.9864841565385741e-03
         - -7.2792236563533627e-03
         - 1.7029619961399345e-02
         - -2.1125631934343511e-01
         - 8.5759350949063291e-03
         - -1.0033528795160144e-02
         - -4.6050755208736490e-03
         - -4.3167314132069728e-03
         - 2.6058839042469098e-03
         - 5.3154089678967009e-03
         - -8.7006471148173815e-04
         - -1.1949280557210441e-02
         - 1.9232856060084244e-01
         - -1.2168750736518813e-03
         - 9.2464484635090133e-02
         - -3.7684459602703589e-03
         - 1.9012217092282426e-03
         - 6.1805146841367340e-04
         - -1.2753896228086556e-02
         - 2.9221784404704267e-03
         - 7.6867220798748168e-03
         - -3.6771370711997098e-02
         - 4.3002126508894199e-02
         - -1.2977774379189348e-02
         - 3.0200630611530194e-01
         - -7.1045721231436272e-03
         - 6.8480884994635465e-03
         - -3.4795827302053824e-03
         - 2.0880319600833025e-03
         - -3.1907875004006953e-03
         - -2.4466407353712408e-03
         - -3.6361585404845291e-03
         - -6.7805152707677866e-03
         - 5.8450846970542602e-03
         - 1.1080257199742980e-04
         - -2.2462023776627571e-03
         - -1.4989108846008020e-02
         - 1.6772936323927459e-01
         - -1.7077495817493006e-03
         - -1.2585803248899110e-03
         - 2.1541520373784631e-01
         - 3.1084196443022235e-02
         - 2.4963300354023206e-03
         - -1.7341254897458119e-02
         - -2.0918377427854820e-01
         - -9.9585038508777212e-03
         - 3.4179459277650036e-03
         - -2.3878325223898320e-01
         - -7.0867168731215444e-02
         - -2.8896016584299918e-03
         - -4.7807788747481405e-03
         - -7.3016286830454288e-02
         - 2.3156399023740365e-02
         - 2.9783619302594561e-01
         - -3.7174904159696497e-03
         - 8.4986502724621413e-03
         - -8.9885586438995715e-03
         - -1.4263176073633449e-02
         - -3.7078333264329412e-03
         - -5.9673468855997143e-03
         - -6.8947014610425128e-04
         - 3.5508965948251375e-03
         - 3.9072409733502199e-02
         - 7.7845390283734023e-02
         - -5.3878028493652974e-03
         - 1.8760688483872215e-01
         - -7.5024756368202907e-03
         - 1.5062231639703723e-02
         - 1.6073777485696561e-01
         - 8.2119001415532841e-02
         - -9.7649826162349192e-03
         - 4.9000291220015604e-02
         - 8.3712416012651815e-03
         - -1.0149203775949757e-02
         - 8.4326444143780474e-02
         - -5.3161724516570024e-05
         - 4.9744275685621303e-01
         - 2.9976853584309696e-02
         - 1.9599132920328343e-02
         - -2.2385883050935345e-02
         - -4.8635089539213819e-03
         - 4.9635699085447205e-03
         - 3.4596167052977767e-01
         - -1.5090317938099645e-03
         - -1.6652989919652954e-02
         - -2.5251766245100631e-03
         - 1.0512375369993244e-03
         - 1.9171541789401113e-03
         - -1.2931351512609244e-02
         - -4.5861940509477565e-03
         - 1.1525988196510346e-01
         - 3.4031862868591331e-03
         - -3.0069343473418750e-03
         - -3.0575392075679528e-02
         - 1.9515707451759051e-03
         - 5.9157604701114697e-02
         - 1.5536140861005460e-02
         - 3.2227039620151149e-01
         - 2.0080305290705439e-02
         - 3.6530989238204078e-03
         - -2.7473083523216774e-03
         - 2.2079747003269447e-02
         - -6.7823707513402611e-04
         - 5.3797783708356327e-02
         - 3.0957892335613077e-03
         - 3.6396240928226031e-03
         - 1.0725953715167940e-02
         - -6.7270087509819993e-03
         - -8.7094048010145295e-03
         - 1.6092642464425799e-03
         - -2.2626897932156893e-02
         - 1.7291821143981593e-02
         - 1.2933888470672514e-01
         - 1.4035041004180343e-02
         - -2.7067863215653876e-01
         - 6.5972464855015090e-03
         - -2.3552512509743904e-02
         - -3.7135818585157937e-02
         - 2.2443758642830779e-02
         - -1.8551319063174820e-02
         - -2.3167331005752134e-02
         - 6.0814429191965291e-01
         - -2.2709102229954502e-02
         - -9.1369732127995771e-04
         - 6.6167631928121910e-03
         - 1.2768062663925040e-02
         - -7.6985510617896659e-03
         - 7.2228504970378591e-03
         - -1.8303341554433805e-02
         - 1.7105979835777902e-02
         - -2.8822029709434662e-03
         - 2.2503627813810580e-02
         - -1.9497730926860081e-03
         - -1.7163682018774142e-02
         - 7.3961895784728478e-03
         - -1.2581717117562227e-02
         - 2.1304547792780730e-02
         - -6.1771762406479441e-02
         - 2.2790580225495880e-02
         - -5.9249843172974595e-03
         - -2.3951645826852394e-01
         - -7.3706606334450780e-02
         - -2.5799413529547805e-02
         - 1.3090785119250487e-02
         - -3.0232041269146661e-02
         - 1.0256560712752487e-02
         - -6.4286944779927402e-04
         - -2.4947587668675186e-01
         - 1.3179585367371938e-01
         - -6.9501599950185563e-03
         - 2.6173561594167025e-04
         - 3.9911473723760714e-02
         - -2.3592212736317958e-01
         - -7.1779276227421418e-02
         - -6.4486353211720986e-04
         - -1.8863368230428099e-02
         - 2.3800217632747662e-02
         - 1.2253336639729507e-02
         - 1.3386117694804864e-02
         - 4.2885173699897501e-03
         - -1.6692412771395788e-02
         - 6.9001737729128907e-03
         - -3.6526519567051274e-02
         - 2.4410803837931561e-01
         - 5.8842911523450253e-03
         - 8.9049696490383579e-02
         - -3.8144678372166424e-02
         - -2.2370673788061835e-02
         - 2.7468508725018526e-01
         - -5.3000818251084290e-02
         - 1.5371467065162490e-02
         - 1.1016700620100994e-01
         - -1.0511461245864811e-02
         - 2.3818896160831767e-02
         - -3.6990700132419584e-02
         - 2.4222796635572575e-02
         - 1.6886051843522484e-01
         - 2.8756380604826187e-02
         - -2.1447156291533737e-02
         - 4.0757029380657846e-02
         - 1.6367088867909368e-02
         - -1.4704157611963088e-03
         - -2.2123622363461320e-01
         - 9.7868807052610817e-03
         - -1.6647064393625335e-01
         - -2.5531609465383038e-02
         - 6.3164610026368879e-03
         - 1.3210618672558924e-03
         - 2.1243877982733236e-02
         - -4.6822636799825346e-03
         - -4.9139629873188942e-03
         - 7.6798946167291951e-03
         - 2.4490327503464263e-02
         - -8.2945176323087691e-02
         - -8.6068246766345981e-03
         - -5.7126883273178115e-02
         - -7.1958611791173134e-03
         - 4.7667705076170554e-02
         - -2.9709313358508807e-02
         - -5.5558112996265518e-03
         - -2.4135839485258437e-02
         - -2.6561716199695100e-02
         - 2.5188753203048076e-02
         - 2.1488009307675027e-02
         - 2.7512999326329637e-02
         - -2.3771274307644561e-02
         - -3.0692425760573950e-02
         - 3.8370529169581211e-02
         - 2.2788803546274359e-02
         - 4.3605769434603217e-03
         - -3.8431711648571405e-02
         - -3.6926500077780022e-01
         - 1.1021628339936296e-01
         - 2.8783020260619838e-02
         - -4.6093732604275378e-01
         - 1.8083969858329326e-02
         - -3.6611793320678571e-02
         - -4.4893227461183363e-02
         - 4.3917034266789383e-02
         - -2.9583133417571707e-02
         - -3.8727926349323406e-02
         - -3.7130009999332547e-01
         - -5.2336801301855057e-02
         - -2.8562828647387658e-03
         - 2.2568046937977859e-01
         - 1.1755241583980195e-02
         - -2.2799437450070337e-02
         - -1.9218067868992743e-03
         - -2.8445353197970934e-02
         - 5.2693999026879199e-02
         - -1.3888176871749657e-02
         - 4.6287900254978628e-02
         - 6.4885545447497953e-03
         - -3.7944094994896073e-02
         - 2.8256014458122708e-03
         - -2.1072271770303110e-02
         - 5.1755840195800477e-02
         - -1.8868340136120612e-01
         - 5.4970294673188168e-02
         - -9.8449606998173046e-03
         - -3.4708510975244267e-01
         - 1.9570933351103537e-02
         - -4.3570808207904037e-02
         - 8.0496277505448549e-02
         - 3.3230125581798259e-01
         - 2.4534626842976106e-02
         - 6.1797440785207707e-03
         - -1.7014644609187843e-01
         - 4.5806555620968192e-01
         - -5.1577424021068572e-03
         - 8.8953170825428005e-03
         - -1.9742556464710206e-02
         - 8.3828956153244233e-02
         - 6.4577514718108353e-02
         - 1.5851666981353527e-02
         - -2.7585709948644746e-02
         - 4.8090456506399565e-02
         - 6.4676195449286156e-02
         - 2.9547704901545051e-02
         - 6.2452214029095768e-03
         - -3.3619430549153381e-02
         - 1.6199500618400274e-02
         - -7.1120054335679833e-02
         - 1.3784644829594236e-01
         - 1.6151492834939645e-02
         - 3.2416112197080670e-03
         - -6.0785833870560704e-02
         - -6.0437305302486428e-02
         - 1.0060186538435392e-01
         - -2.4579805858261951e-02
         - 4.1349053258560628e-02
         - -1.4008086342293363e-01
         - -1.8384679068246056e-02
         - 5.1706058472783985e-02
         - -7.9208948577102645e-02
         - 4.3550177538629276e-02
         - 3.7646959280183673e-01
         - 2.0329370714675780e-02
         - -5.3893275559892588e-02
         - 5.9001429497130789e-02
         - 3.1790650534547819e-02
         - -7.0954683126837450e-03
         - -2.2443465212780619e-02
         - 8.1242327336801968e-03
         - 2.9243473993038595e-04
         - -4.2927915328860436e-02
         - 5.0158361430927383e-03
         - -5.5146769669238939e-03
         - 3.8712707868266048e-02
         - 1.6581755307113618e-03
         - 2.3120958075445522e-02
         - 9.3970399286135917e-03
         - 3.9530254400176143e-02
         - -1.3712707263351415e-01
         - -1.3019224112967699e-02
         - 4.8189767151034429e-02
         - -1.9009809821452072e-02
         - -1.9804128695384473e-03
         - -6.2512245121940896e-02
         - -1.4477660246653192e-02
         - -5.2104850008305108e-02
         - -6.7624187025657034e-02
         - 5.5620372637491970e-02
         - -2.1665078667863158e-02
         - 5.1295841532342616e-02
         - -4.4854787022915392e-02
         - -4.9431595342335148e-02
         - 9.4156766854637530e-02
         - 4.9035598829609228e-02
         - -2.3426521117064897e-03
         - -3.5241504757457915e-03
         - 4.4121525182471262e-02
         - -1.9533050470753338e-01
         - 1.1550932292377913e-02
         - -1.0016838360084285e-01
         - 4.4385231185199098e-03
         - -1.3254267402123649e-02
         - -1.4873794768224988e-01
         - 1.8059268618727932e-03
         - -1.2862193044047891e-02
         - 6.4023241358932546e-04
         - -1.3997669225598011e-01
         - -1.8441632944118186e-02
         - 4.2248182972161449e-03
         - -2.5224504733788072e-01
         - -1.2843925789496576e-03
         - -1.0389174770105966e-02
         - 3.6480989888192940e-03
         - -3.2485836997068933e-03
         - 5.4818964987624355e-02
         - 2.8796901054198992e-03
         - 3.4821214208161336e-03
         - 6.5652579100313312e-03
         - -8.9900832607970552e-03
         - -3.0243608150868390e-03
         - -7.5177935640614131e-03
         - 1.1316399381553089e-02
         - -3.7478128681284535e-02
         - 2.1191141960863771e-02
         - 1.3321717623809094e-04
         - -1.9283479560572300e-01
         - 1.9699953419685817e-02
         - -1.3215795075302680e-02
         - 6.6628882558259245e-02
         - 9.6340535347294490e-02
         - 5.3368142693144627e-03
         - -2.1328477536559416e-04
         - 6.8378167617627994e-02
         - -2.7710528177031674e-01
         - -8.7929927082597004e-03
         - 1.8701057299948707e-03
         - 9.9523227948613222e-03
         - 1.2878177641686989e-01
         - -1.1804893284926968e-01
         - 4.9325574205449640e-03
         - -4.6661780862284914e-03
         - 1.4204336751324476e-03
         - 5.9699756444667032e-02
         - 1.1046256817377227e-02
         - 3.3923869489928623e-04
         - -4.4628746443310472e-03
         - 9.5556874562343318e-03
         - -2.6477130574259749e-02
         - 1.4085364816895882e-01
         - 1.4931790725845441e-03
         - -1.9102963967969191e-02
         - -7.4624788290370636e-03
         - -2.9612203345618541e-02
         - 1.6557686087589576e-01
         - -2.3846561253145552e-02
         - 7.6873965305897050e-03
         - -3.7068349003002328e-02
         - -5.9618387763545298e-03
         - 1.7825027226223533e-02
         - -2.0130834901262162e-01
         - 3.4735380723573297e-03
         - -3.0374085459059882e-02
         - -7.8398716275575528e-03
         - -1.5165477158877906e-02
         - 1.7329292810266947e-02
         - 6.8480201084607402e-03
         - -8.5313118840654369e-03
         - 3.6681772654994360e-01
         - 5.6407988976877209e-03
         - 2.8191082285162766e-01
         - -1.1177312509979215e-02
         - -5.1214751919433574e-03
         - -2.6476645109457038e-03
         - 2.3505132379756464e-03
         - -6.7905870653640031e-03
         - -7.5614704712551634e-02
         - -1.0276593979347665e-03
         - 1.8006031493465072e-03
         - -2.5832712031023518e-02
         - -6.5373653466396543e-03
         - -4.1309269665399072e-03
         - -1.3004708028771243e-02
         - -4.3490976184386444e-02
         - -1.9517915112640678e-02
         - -2.1413981850642036e-03
         - -1.9525065349192187e-02
         - -3.9158305585316709e-02
         - 1.3718113633275069e-03
         - -1.6037821406983138e-01
         - 2.7097252834450677e-02
         - -5.3047152486849084e-03
         - -1.8618671355486539e-02
         - 2.1634062756770902e-02
         - 6.2526992299885504e-03
         - 4.6788158799948715e-03
         - -1.6442649164575501e-03
         - -2.6220949020216083e-01
         - -1.6692911133269228e-01
         - -1.1041747681545932e-03
         - 1.2453668179582734e-01
         - -5.8284872437427380e-03
         - 6.9864749674257293e-03
         - -9.3785174607130581e-02
         - -1.8070219739531199e-02
         - -1.0064751559428588e-03
         - 6.3579316900196602e-03
         - -8.5771175931906918e-02
         - -1.2641577120368643e-02
         - 2.1483358936552722e-02
         - -6.5332659669218168e-02
         - -5.8993195019796342e-03
         - -1.5390090776997241e-02
         - -3.3869251775895740e-03
         - -1.0517150292006466e-03
         - 3.1120293071243782e-02
         - -3.8081441920361911e-03
         - 2.3478422764477289e-04
         - 2.8285016897653891e-03
         - -6.7298109900726117e-03
         - -1.0538106199756269e-02
         - 5.2737836998117977e-03
         - -5.5027273049025622e-03
         - -1.4559494411571072e-01
         - -8.4534985578649051e-04
         - -7.4615165018040248e-04
         - 1.4136474294951515e-01
         - -1.2642130145148275e-01
         - -4.4908730168542552e-03
         - -1.2600115988352213e-02
         - 3.0757519254185434e-01
         - -5.3355879909057127e-03
         - 2.9782108830706854e-03
         - 5.6244333319335517e-02
         - -3.3802848672121749e-01
         - 2.4470755106112052e-03
         - -4.5098925594091576e-03
         - 9.6954892152016706e-03
         - 1.4733964762489490e-01
         - -8.6296589575041410e-02
         - 7.2299778558747264e-03
         - 6.5778236584971119e-03
         - 1.0221935597519351e-03
         - 1.2582976081130489e-02
         - -8.2273806417663302e-04
         - -1.1474454487079555e-03
         - 4.3226098884442194e-04
         - 9.3717283241443669e-03
         - 2.1537388191478178e-02
         - 1.9100296789443960e-01
         - 4.5526289259291653e-03
         - 3.1344313084599051e-01
         - 2.1980808794749538e-02
         - -4.5549757419319640e-03
         - 1.1596938962178338e-01
         - -7.7063788554829496e-02
         - -1.5348210044400616e-03
         - 2.1628997933204519e-01
         - 3.7726951226008257e-03
         - 6.5453536514392999e-04
         - -2.0302088609743577e-01
         - -7.8647523020169714e-03
         - -3.2648429343673585e-01
         - 9.0624856294526795e-02
         - -8.8038637980773146e-03
         - 6.7657139386422833e-03
         - -2.6683801437149164e-03
         - -4.3102208107150051e-04
         - -1.3305525375456981e-01
         - -1.5589351078277699e-04
         - 6.9422719404547598e-02
         - 1.0197468976384070e-02
         - -3.5388727819834508e-03
         - -3.6426611648946749e-03
         - 6.6126693952368101e-03
         - -3.0339478049058975e-03
         - 2.5204042501385454e-01
         - -3.8445436527448141e-03
         - -7.3501157927624416e-03
         - 6.7916385100251872e-02
         - 7.1923471200524749e-03
         - -3.4604365529536066e-02
         - -1.2644752106156731e-02
         - -2.6497432301581963e-01
         - -5.3514499323965448e-03
         - 2.1335827576249074e-03
         - 6.6781458853750809e-04
         - -2.0618902204639276e-02
         - -2.6016792211999745e-02
         - 3.1641907822314949e-02
         - 1.4735308084550364e-03
         - -1.4675516809273088e-03
         - 6.2482386571477240e-03
         - 2.3291939420349806e-03
         - 3.0537646015659507e-03
         - 3.3467063977653988e-03
         - -1.4791826341437660e-02
         - -1.3346343970176358e-01
         - -2.9956665997840019e-02
         - 1.0664007549247673e-02
         - -7.0652735228249358e-02
         - 7.6699860730523976e-03
         - -1.1335289828254677e-02
         - 8.9373771005555921e-02
         - 1.5229254096263604e-02
         - -6.0883556388913731e-03
         - -8.1760439535414776e-03
         - -2.5378562270391772e-02
         - -9.7771688625958638e-03
         - 2.1557256485742689e-02
         - -2.4102727974568047e-01
         - 7.6012209669494776e-03
         - -2.3246746321526433e-02
         - -1.8288187391172347e-03
         - -3.7347779179958663e-03
         - 1.6378173008714711e-03
         - 3.0772709080847875e-03
         - 1.3538924856216734e-02
         - -3.0481729673889069e-03
         - -1.9203562020739987e-02
         - 9.4472835108329063e-04
         - 5.0917927938733355e-03
         - 2.0491179144821844e-02
         - -2.5922396851262763e-01
         - 1.6802300390766422e-02
         - 4.9287506330831677e-05
         - -5.9273155766423564e-02
         - 8.9978355270761048e-02
         - -1.8387733353089880e-02
         - -1.1683814026767988e-02
         - -1.2583293532030682e-01
         - 1.0513734399113763e-02
         - 2.6926676548341380e-03
         - -1.4022485942949575e-01
         - -5.5783008924818279e-02
         - 1.3961246011047376e-04
         - -2.0421238507549577e-06
         - 2.5611146605938242e-02
         - -2.2554358241524688e-01
         - 1.1740809049435406e-01
         - 7.1891010403357146e-03
         - -8.9421262898369790e-03
         - 2.5544204401423149e-02
         - -3.2813335445123763e-02
         - 2.7697798955161113e-03
         - -2.7301607241633783e-03
         - -1.5192540090923766e-02
         - 2.7063596844001097e-03
         - 9.3454733791975050e-03
         - 1.4864290962741200e-01
         - -5.9289542106040699e-04
         - 5.6283283421859412e-02
         - -1.0088292491733888e-02
         - -2.5318018639574683e-02
         - 9.4057515571180500e-02
         - 8.2659224717737776e-04
         - 1.4794116642318021e-02
         - -3.2610395551905702e-01
         - -7.7900727645972279e-03
         - 9.1775312294951113e-03
         - -8.2025705132268811e-02
         - 1.0588343031700842e-02
         - -5.8226431401000511e-03
         - 3.9667611777028405e-02
         - -4.0817537020958534e-02
         - 2.3503558445526557e-02
         - 4.6048720876771948e-03
         - 1.5835416139777861e-03
         - -2.1674937159625549e-01
         - 1.9018214513527741e-03
         - 1.4395168834182917e-01
         - -2.0435354980287552e-02
         - 2.7443120552457030e-03
         - -2.0884346960390147e-03
         - 2.9914787592246746e-02
         - 7.7172734381506427e-03
         - -3.4918626488919818e-01
         - 5.0455816695118526e-03
         - 1.8231700474240067e-02
         - -2.3888583894610314e-02
         - -6.8624736681620964e-05
         - -1.4339078987183160e-01
         - -4.4673044216983577e-03
         - 3.3290712827568699e-03
         - -3.2361459954893007e-02
         - -1.1313035595165727e-02
         - -2.3137927984592868e-02
         - -2.3207962911640189e-02
         - 8.2609342697351415e-03
         - 7.1068108526519177e-03
         - -6.9334285965846594e-03
         - -1.6205980271342228e-02
         - -1.6445717858848366e-02
         - 3.5054876361733031e-02
         - 1.7665064383904371e-02
         - -2.4148928785805222e-03
         - 3.8670615333942525e-02
         - 1.0292580343925349e-01
         - -4.1388296556859473e-02
         - -2.4827274473889060e-02
         - -1.6375633533285594e-01
         - -1.7326125755136371e-02
         - 3.1448927600678120e-02
         - 1.1705673609802165e-01
         - -4.0204764001923743e-02
         - 2.6700958414312692e-02
         - 6.1741310710267581e-02
         - -2.7004545702714328e-01
         - 6.4209381668346374e-02
         - 1.1916531099215581e-02
         - -1.3694293527037416e-01
         - -6.7474209568881855e-03
         - 2.5699614380524382e-02
         - 5.6853131198127864e-03
         - 2.8372209876033849e-02
         - -5.8873446922983040e-02
         - 1.3900433988611302e-02
         - -4.1148008469952993e-02
         - -3.4048660376900159e-03
         - 3.4327163352552578e-02
         - -5.9642014809145397e-03
         - 2.6973375262721842e-02
         - -5.3572133261564729e-02
         - 1.7457399657374040e-01
         - -3.6623128358474442e-02
         - 1.4785493148942218e-02
         - 2.3415417086197576e-01
         - 1.0145876970844932e-01
         - 4.7563746213861828e-02
         - -5.3953937560501680e-02
         - -7.4913596552343933e-02
         - -3.3705976961723672e-02
         - -3.7167464000465527e-03
         - 1.2020299914113453e-01
         - 1.0793910740255051e-01
         - 7.4860728554108297e-03
         - -3.0643829166073287e-03
         - -1.3997611137974789e-01
         - -1.2391367377689193e-01
         - -2.4787862858609347e-01
         - -1.4275960917927533e-02
         - 2.4213070375544061e-02
         - -3.9107888120772677e-02
         - -5.8145375270248358e-02
         - -2.5893614096934518e-02
         - -7.4041136969216917e-03
         - 2.5329620883590663e-02
         - -1.6539865288996015e-02
         - 9.5981170491727247e-02
         - -1.5564524280786704e-01
         - -9.8058975708091613e-03
         - 8.3237615326989065e-03
         - 5.7075665985102192e-02
         - 6.2725291327305713e-02
         - -3.4960289011565582e-01
         - 8.5988297634376307e-02
         - -3.6530081651506729e-02
         - 2.7414024813218552e-01
         - 2.4700819829494621e-02
         - -5.5890473125281545e-02
         - 1.7768332042437891e-02
         - -4.7127116395777290e-02
         - -1.6584714453645827e-01
         - -1.7033342389700567e-02
         - 5.2567011898069872e-02
         - -7.4051620856389569e-02
         - -2.9088965552820471e-02
         - 1.2426216209270709e-02
         - -1.3707943450843904e-02
         - -1.2352876260232456e-02
         - -1.7292999548020127e-01
         - 4.5373171314936789e-02
         - -1.3635331397324883e-03
         - 4.6097639366872219e-03
         - -2.6320738105857132e-02
         - 3.5070183421539226e-03
         - -2.9058858709935248e-01
         - -1.1598739089075171e-02
         - -4.2384472708443255e-02
         - -7.6689431108579370e-02
         - 1.7515228335566482e-02
         - 1.1017221383503069e-01
         - 2.3635271313257031e-02
         - 2.6133465509715337e-01
         - 5.2899094041922966e-02
         - 1.5809986920032670e-02
         - 4.7114213191618674e-02
         - 3.9206384104446143e-02
         - -1.0778096173061372e-02
         - -1.7473569643485998e-02
         - -5.1586393217809758e-02
         - 4.3886254637853367e-02
         - 5.7829777592927928e-02
         - -5.4458705000279377e-02
         - -4.6155356887723813e-02
         - -7.7279664461828851e-03
         - 1.5836731505973389e-03
         - 2.1806811332356640e-01
         - 9.7972175891604105e-02
         - -1.8098449490597610e-03
         - -1.5413334250244359e-01
         - 5.4563731680063662e-03
         - -1.0611503994006500e-03
         - -3.9898954209237426e-02
         - 1.1358979437364240e-02
         - -3.6744781306502902e-03
         - -8.9791893726957426e-03
         - -4.6331762963930950e-01
         - 2.2296078513700002e-05
         - 1.1120844281753290e-02
         - 6.0182014487308406e-03
         - -5.9654200798232165e-04
         - -2.5202531576372237e-03
         - 8.2038996690399196e-03
         - -6.2297152263812664e-03
         - -1.8536340722770994e-02
         - 4.7628715481825290e-03
         - 1.2101630235255064e-02
         - 2.8275127439907474e-03
         - -3.0936931484995644e-03
         - 4.2313311123072283e-03
         - -4.4508903313132909e-03
         - 1.5476217448438516e-02
         - -3.0361767884807539e-01
         - -1.9485284285234537e-04
         - 2.3291811391379330e-03
         - -2.2203582093393184e-01
         - -4.1449935245575956e-02
         - -8.4691308423493813e-03
         - -1.5298162116029128e-02
         - 4.3854537819935513e-01
         - 6.7323465250721179e-03
         - -2.3859565349040484e-03
         - 6.2314688967690511e-02
         - 9.2711659372395297e-02
         - 3.4256069014089912e-03
         - -6.9837079554646523e-03
         - -2.5143672461991434e-02
         - -3.1786008210049801e-02
         - -9.2749623726080550e-03
         - -7.6338189752960537e-04
         - -9.6965536126426728e-03
         - 6.9254300021668672e-03
         - -1.1946849506708013e-02
         - 1.1606279982417846e-02
         - -4.7561376381250013e-03
         - -1.7292895602475633e-04
         - -3.2023610715232321e-03
         - 2.8389660233828790e-03
         - -2.6686307230171075e-01
         - 8.0951141612544825e-03
         - -1.6047934551773840e-01
         - -1.3764161436321483e-02
         - -2.6979981612224990e-04
         - -3.7623370538192515e-02
         - 1.0878876733587995e-02
         - 4.2969127623758933e-03
         - 1.7455164335988838e-01
         - -5.4487539454134200e-03
         - 5.0899918959724571e-03
         - -1.9312981152024200e-01
         - 1.4443272546717930e-02
         - -3.0834760485796747e-01
         - -1.7202635738253199e-02
         - -9.1550778119205943e-03
         - 3.7500281231068059e-03
         - 9.1375313439939713e-03
         - 5.7247562339069694e-03
         - 3.1875379220345285e-01
         - 6.0594734754750327e-03
         - 2.2271631122550128e-01
         - -5.9508747012718532e-03
         - 4.1889485688182205e-03
         - 4.4217915826994230e-03
         - 9.0315341191724938e-03
         - 5.3858218780512730e-03
         - 1.5365419826543407e-02
         - 5.3625994412140714e-03
         - 1.0365498309037144e-02
         - -2.7291758454653037e-02
         - -6.3167563254231535e-03
         - 1.7696297868386866e-03
         - 8.9176327447966965e-03
         - 2.4214457703766162e-02
         - -4.8255392223751341e-03
         - 2.2127542116026529e-03
         - -3.1634397823605796e-03
         - -3.9875399266197278e-02
         - 3.4333999294780169e-02
         - -2.7841186631078152e-01
         - 4.4816227257073122e-03
         - -5.6278788444498744e-04
         - -1.0550390837192100e-02
         - 8.5222941716090878e-03
         - 1.3939367779681534e-02
         - -2.8503793705643553e-03
         - 1.6662110741566916e-02
         - 9.2990624667566524e-02
         - -2.5763164290417914e-02
         - -1.1555824902973055e-02
         - 4.0419114895048103e-01
         - -3.5707859426068098e-03
         - 1.5369964089558912e-02
         - 1.6294295552345450e-01
         - -1.6524023929109399e-02
         - 8.9314294444258011e-03
         - 2.3741072570071849e-02
         - -3.0258238965166880e-02
         - 4.4360984410992718e-02
         - -1.1399110647158671e-02
         - 6.5777453424426910e-02
         - -9.6567584644878211e-03
         - 2.4740897981285551e-02
         - 1.7990331329933282e-03
         - 1.3185437912550165e-02
         - -1.1868195849004112e-01
         - 7.1822559070753638e-03
         - -2.3365214261304588e-02
         - -6.9474608842740411e-03
         - 1.1372052357178182e-02
         - 5.4072697287538803e-03
         - 6.3891904873640644e-03
         - -2.1064310577354566e-02
         - -2.7022046670148009e-01
         - -3.1250097605034277e-02
         - 6.1193241827987577e-03
         - -9.8513921671923646e-02
         - -1.0930511761547573e-01
         - 2.6827493192135763e-02
         - -1.4511018271147519e-01
         - -2.7095323121186560e-01
         - -1.7115239189191139e-02
         - -1.8748065627528028e-03
         - -8.9684592047049039e-02
         - 2.9838952728112522e-01
         - 3.2654516837343785e-03
         - -9.3956443802068748e-04
         - -4.0664244135216049e-02
         - 1.4925051589100044e-01
         - 2.8472167163024510e-02
         - -5.8429619202328090e-03
         - 1.0589126859057673e-02
         - -2.1185520725306752e-02
         - -1.3181128942300116e-01
         - -4.0569317667755889e-03
         - -2.7938189271502537e-03
         - 5.1971889799583898e-03
         - -1.0485568976431450e-02
         - 3.7938003225352741e-02
         - -1.5762723600487683e-01
         - -7.5833230386273438e-03
         - -9.0660127219565054e-02
         - 1.9161860467620487e-02
         - 5.6236132430203124e-02
         - -3.1149615181335133e-02
         - 6.3647434737402503e-02
         - -1.5378409929034475e-02
         - -1.0711448253140066e-01
         - 1.0060517031097942e-02
         - -2.7711244477374681e-02
         - -8.9942978046689739e-03
         - -1.6094139209646106e-02
         - -2.7729714955751733e-01
         - -4.2332021457750994e-02
         - 5.0857482346195526e-02
         - -2.6218644770707358e-02
         - -1.6305361282733816e-02
         - -8.9385853744746899e-04
         - 2.9451484468367428e-01
         - -3.9058625419998525e-03
         - 1.9126198063595934e-01
         - 1.2675711303794990e-02
         - 3.0626552275320610e-03
         - 1.6290874411182407e-04
         - -2.4289991297585307e-02
         - -2.3126844889424874e-03
         - -1.7164284672375019e-01
         - -9.4938731668939309e-03
         - -1.5286300670136007e-02
         - 1.0099036030982976e-01
         - 1.2140835640854325e-02
         - 8.8054829639046150e-02
         - 2.7386441780348741e-02
         - -1.8015059582653897e-01
         - 4.2736549323838240e-02
         - 1.9904084110953101e-03
         - 3.1200431157574295e-02
         - 1.2230370559976901e-02
         - -1.0593037052635771e-03
         - -1.9094206426228449e-01
         - -2.6372615798129516e-02
         - 1.6558264912362820e-02
         - 2.6833487215364462e-02
         - -4.8196783638865155e-02
         - -1.6561478896464903e-02
         - -5.6902356788145186e-03
         - 4.4049405804728490e-03
         - 2.1549521886818512e-01
         - 2.3652828516131030e-01
         - -3.8118260733599608e-03
         - -1.1738286335375785e-01
         - -1.0892318209275074e-02
         - 4.0784609875122802e-03
         - 6.0684779745357756e-02
         - -3.9933363060401473e-03
         - 3.4368850157376072e-03
         - -1.8538430394681418e-02
         - 1.0221920498289475e-02
         - -4.3407016016589793e-03
         - -2.4727904868656315e-02
         - 2.1104711576337362e-01
         - -1.0089288742588493e-02
         - 9.8077043986340845e-03
         - -3.1370227579986950e-04
         - -1.7820616558951836e-03
         - -8.1657839850283159e-02
         - -3.3733591825133649e-03
         - -1.0692828320908612e-02
         - -7.8667754127015217e-03
         - 5.4515140495955232e-03
         - 4.9075243077545596e-03
         - -4.3179724632392185e-03
         - -5.9842474650803690e-03
         - -3.1392475712967438e-01
         - -1.8310271572895460e-02
         - 3.6826063369504946e-03
         - 4.5359745489355868e-02
         - -3.7444124937741165e-02
         - 1.8440606243789646e-02
         - -1.0385127190081607e-01
         - -3.3652427105681154e-01
         - -1.4187120259997958e-02
         - -2.9752901716189680e-03
         - -1.4403608608133736e-01
         - 3.2021013910734880e-01
         - -3.6157489773334904e-03
         - -2.6595702502391675e-03
         - -7.2334767879349463e-02
         - -8.2890123276417718e-02
         - -1.5395175055863708e-01
         - -4.2300321535993788e-03
         - 7.0589886445436541e-03
         - -1.5525680078466338e-02
         - -1.0295191473816953e-01
         - -8.3745855038936615e-03
         - 1.1281172716417123e-03
         - 5.1016586250415916e-03
         - -1.0332533465592091e-03
         - 9.8042041077940813e-03
         - 8.4349407081832445e-02
         - -2.1706152972026751e-03
         - 1.8887652701264268e-01
         - 8.2726972377917889e-04
         - 4.1831603678731344e-02
         - -1.3530645455643238e-02
         - -1.5951877663161841e-02
         - -8.3422749049951398e-03
         - 3.4707450668668434e-02
         - -2.5586123069861036e-04
         - -2.2743471000179153e-02
         - -7.3203910023776991e-02
         - -9.2819570008402363e-03
         - 2.7248871303108313e-01
         - 2.8783521265140135e-02
         - 3.0985357171526270e-02
         - 2.6321407922703824e-03
         - -5.5954079200996876e-03
         - -5.4682335774314580e-03
         - 2.8276158473375224e-02
         - -2.0495070398005039e-03
         - -8.2681669512911331e-03
         - 1.1436485682082489e-02
         - 3.0786097588261013e-03
         - 8.9653915934040796e-04
         - -2.0883066638666885e-02
         - -1.4463127151426300e-03
         - 9.1156962955599094e-02
         - -4.3076360658117563e-03
         - -5.8561559280734038e-03
         - 1.9364542728286399e-03
         - 8.3820188583314959e-03
         - 6.6971479752052837e-02
         - 2.2017020075989217e-02
         - 3.0735651578329071e-01
         - 3.2650178884510342e-02
         - 5.3675823853286883e-03
         - 2.0446081695585660e-02
         - -8.4947305359819592e-03
         - 4.3634248990166921e-03
         - 2.2044313721028638e-01
         - -1.8180883847233046e-02
         - 1.2865859387941631e-02
         - 1.8216590602355077e-02
         - -3.8390058080329539e-02
         - -1.3987385813488814e-02
         - -4.2631855251438000e-03
         - 2.0681685523160341e-03
         - 2.5354176361799630e-01
         - 1.5255357534046374e-01
         - -2.4177605152493091e-03
         - -1.9563040307909237e-02
         - -7.3991207227210032e-03
         - 5.3861143350745115e-03
         - 9.4952750933985294e-03
         - -2.0843788169811299e-02
         - -5.2355355025140971e-04
         - 2.3711995288852620e-03
         - -1.7226514727285178e-01
         - 1.1464679321507670e-02
         - -1.0029284652212285e-02
         - 3.5568757572412996e-01
         - -7.0637033379844678e-03
         - 4.3400006435227820e-03
         - -1.1033901636690060e-03
         - 1.2360854198407425e-03
         - -5.7566794326805892e-02
         - 2.5610928136066929e-03
         - -6.4854224935564694e-03
         - -4.7694944651559728e-03
         - 7.5573408829735286e-03
         - 1.3823057544366851e-03
         - -6.6422165745444136e-04
         - -8.9486659671026772e-03
         - 2.3339909764486029e-02
         - -1.2926228413781998e-02
         - -4.0884162113190778e-03
         - 9.7532097838919987e-03
         - -8.0077330151575074e-02
         - 1.6962136100108618e-02
         - -7.7847150018641079e-02
         - -1.7173021824486326e-01
         - -5.8949648740897467e-03
         - 2.5595166329382517e-03
         - 2.2346447710816265e-02
         - 3.3916878483576038e-02
         - 1.6301221709501273e-04
         - -1.3295135732049662e-03
         - 7.3036744893639247e-02
         - -1.2508169446560150e-01
         - -8.7508496069806999e-03
         - -8.7084479627411258e-03
         - -5.1157599359030271e-04
         - -1.3485342613210492e-02
         - -8.1175809863258272e-02
         - -4.2960079439635646e-03
         - 7.9085672212418479e-05
         - 1.0319895156606066e-02
         - -6.8139846712493013e-03
         - 3.7247627228886367e-02
         - 2.4185602811647298e-02
         - -3.7771063469309277e-03
         - -8.7185543167258017e-02
         - 3.1908790013945891e-03
         - 3.2623315690114910e-02
         - 1.0969048024961332e-01
         - 2.2742910354730743e-02
         - -4.2932829570625029e-03
         - 2.0149556550170311e-01
         - 9.7775298952910827e-03
         - -1.7317262010307036e-02
         - 5.0529862647786333e-02
         - -3.9489764132323805e-03
         - -1.2577643159677007e-01
         - -6.7826874610958752e-04
         - 2.5094945865520062e-02
         - -4.6444723155197503e-03
         - -4.8970827177600585e-03
         - 1.4463801123215274e-03
         - 8.1837991060114926e-02
         - -6.2225001065116759e-03
         - 1.6660328193357879e-01
         - 4.5959381965873002e-03
         - -5.1225571124839508e-03
         - 1.2490925648117751e-03
         - -1.6244526204804908e-02
         - 2.8003775417419466e-03
         - 1.4149629157708368e-01
         - -6.0369033691109517e-05
         - -1.8337999380178050e-03
         - -2.2281460403610141e-02
         - 4.9550737808712253e-03
         - -9.3029101033074824e-02
         - -2.8643440939141725e-03
         - -1.2127802897416586e-01
         - 2.5747371593284565e-02
         - 3.0185058736006817e-03
         - 2.4528123907759235e-02
         - 1.8823520655160832e-02
         - 2.4273553506049305e-03
         - -9.5019185769628228e-02
         - -6.2357804633952230e-03
         - 5.6817445165216552e-03
         - 1.2101679589831528e-02
         - -4.0219915720944376e-02
         - -1.5376920384721557e-02
         - 4.7539340401645536e-03
         - -3.2142025659423284e-04
         - -3.8300748743093278e-03
         - -1.8503676708894329e-01
         - -6.0596574078930635e-03
         - 1.1687079294302764e-01
         - 3.5252484027939930e-03
         - 1.3773960266334041e-04
         - 9.3331826431314845e-03
         - -1.6780197377201767e-02
         - -2.0652564211547245e-03
         - -9.9149655443144598e-04
         - -3.1109985303910198e-01
         - 2.3850989700012452e-04
         - -5.9073503701101617e-03
         - 2.5745209482250747e-01
         - -1.5949463458630653e-04
         - 1.9941183493937678e-03
         - 1.3535893271178973e-03
         - -1.7913027098478943e-04
         - -1.4998735570348996e-02
         - -1.1968393826691614e-03
         - -5.6172429824617783e-03
         - 6.5814380012492561e-03
         - 7.8749191066883602e-05
         - -2.4218467124449733e-03
         - -6.3015977571281015e-03
         - -2.5659451262758535e-03
         - -3.2260003506159662e-01
         - 1.1629796107707350e-03
         - -3.5230119527585361e-03
         - -8.9023251291592657e-03
         - -1.1567855345683753e-01
         - 5.0940253229019728e-03
         - 6.4220696848962935e-02
         - 8.0294762471572204e-02
         - 3.0543753481180958e-03
         - 2.2597353877351258e-03
         - 9.3768456888358998e-02
         - 1.8700115208118576e-01
         - -1.6769236226646246e-03
         - -3.4579782791218155e-03
         - -4.5422498505818740e-02
         - -1.0374976283129587e-02
         - -1.3287214332438244e-01
         - 3.8882859915625502e-04
         - 8.1049105864048291e-03
         - -6.9891964061550562e-03
         - 9.2176688364795610e-03
         - -5.7512080759419852e-03
         - 1.2917669893069289e-03
         - 5.2106573409614184e-03
         - 5.6479693180603299e-03
         - 8.8543302606949158e-03
         - 1.3237202804287784e-02
         - 8.5754537564037040e-04
         - -3.8238412463186301e-02
         - 1.0213827987618287e-02
         - 1.9767534898746900e-02
         - -4.0131799111888666e-01
         - -1.1943597016381915e-02
         - 2.6779404611253736e-04
         - 1.8345697541217593e-01
         - -2.5165884283592827e-03
         - -1.1825958383446083e-02
         - 5.8736324791523666e-02
         - -1.0235959468534414e-02
         - 1.4709342356587021e-01
         - -9.8094767615194908e-03
         - 5.4524446789123108e-03
         - -5.9051133332779599e-03
         - -4.7603619772789828e-04
         - 6.0355434690931220e-03
         - 5.2373758519258529e-01
         - 6.7643101313809783e-04
         - 1.2810872991545788e-01
         - 9.0590755639500444e-03
         - 4.5225923311126171e-03
         - 3.7489023450385014e-03
         - -8.0904077342554472e-03
         - -4.7214726265561715e-03
         - 3.1336998566767776e-02
         - -7.6723113987906921e-04
         - -8.0800814336448312e-03
         - -1.2294217582383189e-01
         - 5.5155521137235678e-03
         - 4.7714370637634486e-02
         - -4.5706225927617805e-03
         - 9.8576025504098677e-02
         - 1.1084301469684364e-02
         - -2.7953848842556550e-03
         - 1.9011083232578545e-02
         - 9.9218101257660778e-03
         - 1.6500332455461356e-02
         - -5.6214264619684561e-02
         - 2.2119193753001140e-03
         - 4.3040231653709432e-03
         - 6.4807087961863833e-03
         - -1.4851716762396062e-02
         - -7.2847252087347089e-03
         - 4.7813562006774656e-03
         - -2.9224050646855442e-02
         - -3.0013760582218128e-02
         - -1.8684937272234764e-01
         - 2.0085942950532530e-02
         - 1.5156040013788888e-01
         - 1.4874891730425060e-02
         - -1.9277294062699315e-02
         - -8.6018863433796777e-02
         - 2.4651569836494497e-02
         - -2.5329841311321183e-02
         - -2.4414699423034380e-02
         - -2.6012362992443191e-02
         - -3.2346594300189074e-02
         - 1.4231525576412019e-02
         - -1.3133445694724111e-01
         - 7.9341264724917884e-03
         - -2.2103302142979571e-02
         - -5.0846762383819060e-03
         - -1.3048134071749262e-02
         - 7.4696016624772224e-02
         - -1.3745267755362943e-02
         - 2.4768522864857277e-02
         - 7.0305233525436934e-03
         - -2.5445485224579258e-02
         - 5.7790120877009897e-03
         - -1.7952352127937058e-02
         - 2.8195202871968018e-02
         - -8.9539062156180432e-02
         - 3.7230723703136209e-02
         - -8.5632774966558668e-03
         - -1.4080980000845261e-02
         - -8.9400689282213203e-02
         - -2.7708620280383799e-02
         - 1.4086789519828036e-01
         - 2.6445182285085789e-01
         - 2.6638337229532509e-02
         - -9.0176374308487389e-04
         - 3.5035939637528218e-01
         - -2.9274674591929301e-01
         - -1.1773096401897564e-02
         - 6.9917155810902592e-03
         - 5.3915107482618976e-02
         - -1.6174493286029192e-02
         - -1.5013603775678672e-01
         - 2.4332904849472460e-02
         - -1.5935824008156293e-02
         - 2.7765170344688776e-02
         - 1.0380034658674420e-01
         - 2.0672890718674859e-02
         - 6.0448838520598220e-03
         - -2.0776093266866219e-02
         - 1.6884959220636691e-02
         - -3.8104121064488197e-02
         - 1.5507960383694566e-01
         - 6.2847973705669399e-03
         - 1.4277547161923126e-01
         - -3.5953117688585445e-02
         - -5.1092425551996695e-02
         - 1.4974147619963081e-02
         - -4.9768077471198068e-02
         - 2.8311106268513027e-02
         - 3.4792466843029390e-01
         - -2.5023346842316930e-02
         - 3.9489718221555614e-02
         - -5.0652874636920572e-02
         - 2.1716006220459317e-02
         - -4.5929338942165177e-01
         - 4.6873841772942987e-02
         - -4.7747209173217779e-02
         - 3.1955688698249905e-02
         - 2.5517905119995656e-02
         - -1.3008206898007650e-02
         - 3.8043785031585825e-01
         - -1.8657682459157097e-03
         - 2.7983444602641960e-02
         - -3.2133913011161842e-02
         - 6.8430140462488092e-03
         - -2.4065644815239014e-03
         - 2.1078613441632019e-02
         - 1.8099900577576565e-03
         - 1.3299540935818766e-01
         - 4.7315401179644518e-03
         - 2.1798662976873259e-02
         - -2.6944085705254622e-02
         - -1.9140420194182030e-02
         - -8.6808168762406199e-02
         - -2.3863209461096251e-02
         - 2.5458089602299211e-01
         - -3.9389768917327601e-02
         - -1.3247876240631109e-02
         - -3.7758572539971370e-02
         - -9.9487051193233502e-03
         - 2.7502075681618969e-04
         - -2.0772089999087398e-01
         - 2.4087750702891764e-02
         - -2.8736557488491458e-02
         - -3.9425159208121015e-02
         - 5.4029805350614080e-02
         - 2.6424011624200282e-02
         - 7.1012967240704954e-03
         - 8.2921551997573225e-03
         - -7.6239353812901471e-03
         - 1.0292492664118350e-01
         - -1.5541483854567013e-02
         - -1.1165671312430578e-01
         - -9.0473977522806288e-03
         - 1.2533910664175736e-02
         - -8.5845400133976985e-02
         - -2.1234943692895691e-02
         - 1.6045720016624149e-02
         - 3.5411621550358284e-02
         - 2.6317539082914615e-01
         - 1.2380926561528949e-02
         - 2.1459594504883342e-02
         - -1.4444006434258710e-01
         - -3.5968014229770615e-03
         - -2.4185047126503438e-03
         - -5.5641884837636638e-04
         - 1.5675540205844003e-02
         - 1.6085375561664386e-03
         - 1.8540462084258116e-03
         - -1.6706508358912471e-02
         - -4.5636724797493529e-04
         - 8.6864667018639319e-03
         - -4.5408545561044849e-03
         - 1.0354464617635442e-02
         - -1.9243075092141449e-02
         - 2.5826969115531503e-02
         - -3.8852719246692735e-03
         - 5.8962048140213394e-03
         - 1.4260906291716124e-02
         - 1.3863655162649867e-02
         - 9.5320258121011133e-03
         - -2.2371650324486809e-02
         - 6.5100145168590237e-02
         - -1.3844310211670059e-02
         - 1.5291247283007086e-03
         - -6.7440544452678816e-02
         - -1.1450770457882056e-02
         - 3.4000330990684082e-03
         - -3.4715850106423547e-03
         - 3.6245487048754271e-02
         - 2.8689294186970488e-01
         - 4.9240971439638334e-02
         - -1.0848221693070681e-02
         - 1.0529950410141563e-02
         - -9.9776476519210493e-03
         - -8.8543676098150302e-03
         - -2.1822751052798347e-02
         - -1.1499184533837853e-02
         - 1.6214632631333790e-02
         - 5.7656588527913643e-03
         - 2.0314853710628817e-02
         - 7.0374533128174196e-02
         - -1.3440572826379504e-03
         - 1.6185275701369509e-01
         - 3.1883051343818934e-02
         - 4.8940598288287314e-03
         - -1.4981189671066444e-01
         - -2.7532300996918344e-03
         - -1.2017930235607552e-02
         - 1.9561187376920675e-01
         - 1.8982364916592012e-02
         - -1.3468390206078167e-02
         - -9.9114225686453186e-02
         - -2.5187351062130679e-02
         - -3.4154337938377360e-01
         - 5.8473696506187015e-02
         - 1.5165206160336359e-03
         - -1.4652797840014012e-02
         - -6.4843110213220981e-03
         - 7.7763710523015145e-03
         - -1.4833843086517493e-01
         - 1.0181048779949920e-03
         - 2.3104854880725625e-01
         - 2.0029493930464770e-02
         - -4.4190680441679887e-03
         - -4.5475691286644271e-04
         - -7.6863006899199641e-03
         - 2.6259795077049995e-05
         - -4.5515855170940964e-02
         - -1.0709690687116724e-02
         - -2.1309232733939712e-02
         - 1.2825544360952779e-01
         - 3.4382787020667189e-03
         - -1.2061628930255817e-01
         - -1.7704283793508122e-03
         - -1.6312164816947755e-01
         - 3.5769068663383890e-03
         - 4.5281458521341175e-03
         - 1.0816352422059177e-02
         - -2.3644404403507370e-03
         - -3.4180221836847255e-02
         - -1.3835057850270555e-01
         - -2.3714588533861124e-02
         - 1.8394971540184237e-02
         - 1.2300550536988083e-02
         - -1.1643600412643592e-02
         - -1.0303346242884984e-02
         - -3.0234334092910683e-03
         - 4.3181015031723237e-03
         - 1.3962095055062534e-01
         - 2.6800052066464818e-02
         - -8.7551942028603075e-03
         - -8.5410675276961570e-02
         - 1.9405058519412356e-03
         - 2.5493064649518052e-03
         - 3.3966093188578364e-02
         - -9.4325349234127727e-03
         - 1.1644757005762200e-02
         - 1.8974469843845970e-02
         - -2.2296079666511356e-01
         - 1.0924074575093985e-02
         - 2.8217253720097771e-02
         - 3.6034021990674825e-01
         - 2.2902814624562078e-03
         - -1.2446641061099450e-02
         - 3.3537436281229406e-03
         - 1.1958413155900157e-02
         - -1.0296656474127102e-02
         - 5.5165540475726133e-03
         - -3.9911853567275932e-03
         - -3.1790946285804329e-03
         - 6.3655812288574802e-03
         - -1.1514973684287231e-03
         - 1.4807928551234485e-02
         - -8.7160408956697916e-04
         - -2.8941993090061507e-01
         - 5.0210437325145761e-03
         - -2.0882874997407521e-04
         - -1.9646350373163932e-01
         - 1.5655059360976878e-01
         - 7.2451235217794062e-03
         - -8.2813915773080680e-04
         - 1.1559053509707836e-02
         - 9.0278114341047714e-04
         - -4.6197604605869823e-03
         - -1.8678322941275402e-01
         - -9.8610990122830144e-02
         - 5.5339158878160251e-03
         - -1.4658707090235844e-04
         - -3.8416986250735932e-02
         - 3.5001288381555046e-01
         - -1.0431444889775179e-01
         - -1.1123652196709688e-03
         - 1.5341859647726708e-03
         - 2.5816548487077877e-03
         - -1.4915767271693541e-02
         - -1.3094018929358259e-02
         - -4.3694659065526545e-03
         - 3.8596211689984829e-03
         - -3.9226347385949000e-03
         - 2.2199224824537536e-02
         - -3.5928247257520349e-02
         - -1.3310722821860319e-03
         - 3.3721572941466320e-02
         - 4.9451824180625180e-03
         - -3.0252558893114640e-03
         - 3.7023816071228205e-01
         - 2.5626264263821048e-02
         - -1.9468253956744089e-03
         - -2.3234679581857941e-02
         - -9.0070257628347978e-04
         - -1.1381252477228227e-02
         - -3.8719225379345669e-02
         - -1.2399082303097305e-02
         - 2.1698740415705678e-01
         - 4.0492480499794418e-02
         - -1.1750204228002813e-02
         - -4.2488979551445483e-03
         - -6.1860652579007547e-03
         - 1.0789206975839823e-03
         - -8.8207635212263810e-02
         - -5.7115421523556168e-03
         - 6.3734921522361515e-02
         - 9.4237838031477183e-03
         - -4.2641007645174622e-03
         - 5.7173384355639137e-03
         - 2.8605366933042204e-03
         - -2.5056266559747766e-03
         - -2.1601410942503046e-01
         - 3.2222076120032376e-04
         - -1.6626953845342966e-02
         - -2.4740140182633444e-02
         - 9.5817396191669839e-03
         - -7.3552873651605080e-02
         - 9.5419242730395877e-03
         - -4.8365906052668921e-03
         - -1.0678967095557643e-02
         - -3.6325009265303907e-04
         - -4.3773524323196759e-03
         - -5.8985233412064339e-03
         - 5.5702437052951581e-03
         - -1.2088476560086840e-01
         - -1.6989498935323869e-02
         - -2.9959506302274966e-04
         - 5.9352758541649352e-03
         - 1.6672004055328198e-02
         - 1.4693948503935550e-03
         - 1.1645856900816670e-03
         - 1.3080111406060210e-02
         - 2.2528340986871495e-01
         - 2.0496893608980912e-01
         - -1.7177610135081685e-02
         - -3.1795391062149769e-01
         - -1.2273737160978716e-02
         - 2.2485534173133821e-02
         - 3.7515666577842915e-02
         - -2.4062429289874752e-02
         - 2.2093044549545450e-02
         - 2.4438910045184208e-02
         - 5.0147555642310604e-01
         - 1.5327468210672726e-02
         - -1.0571930656081422e-02
         - -6.6116594102670484e-03
         - -5.7012337603529707e-03
         - 8.1100015226856018e-03
         - 8.5363080493709373e-03
         - 1.6930224683607126e-02
         - -3.1596477905079780e-02
         - 7.0621962421017039e-03
         - -2.1322432987983534e-02
         - -1.0319235567929855e-02
         - 1.0986203502770528e-02
         - 8.5253504535646334e-04
         - 1.1984154771702723e-02
         - -1.1800553294490715e-02
         - 1.5739093473583479e-01
         - -1.4033649295267705e-02
         - 7.4919563038413038e-03
         - 1.5834108872407171e-01
         - 1.4803325618644964e-01
         - 1.8574725957129404e-02
         - -3.8357965539909354e-02
         - -1.1684052294477362e-01
         - -1.9813276317036537e-02
         - -4.5162755982724708e-03
         - -9.2230627458533165e-02
         - 1.0963814390783396e-02
         - 1.2134362598301536e-02
         - -5.0560064134913653e-03
         - -2.0877540904599014e-02
         - 5.5414154559431279e-02
         - 2.5166444916312005e-02
         - -1.6000465056209511e-02
         - 1.6537207111801466e-02
         - -2.3420300276567212e-02
         - -3.6300743885473781e-02
         - -2.1302102265377616e-02
         - -8.5148490308214093e-03
         - 1.8512024831176522e-02
         - -1.3481814631916318e-02
         - 2.7515566848408848e-02
         - 1.8840423629443989e-01
         - 6.4932570951151125e-04
         - -2.8781018795023983e-01
         - 2.2825769576852461e-02
         - 2.4728318401559736e-02
         - -1.0251603958255842e-01
         - 4.6653362878565210e-02
         - -1.6571938991037725e-02
         - -1.6953896258905696e-01
         - 1.4005011960816232e-02
         - -1.6632357104547101e-02
         - -3.5424620479750208e-03
         - -1.8832371573591290e-02
         - -2.1463543821537939e-01
         - -8.5130693740108607e-02
         - 1.4193492489020087e-02
         - -2.6445820709158786e-02
         - -1.8676950614044723e-02
         - 3.7686820809755156e-03
         - 9.0620445359086366e-02
         - -1.2408651041880053e-03
         - -6.0666712508137384e-02
         - 1.6255160871043423e-02
         - 8.2706843531904777e-04
         - 4.6653196758199757e-03
         - -1.8087992690713123e-02
         - 4.5744174718779299e-03
         - -3.4721992622496239e-01
         - -2.3627729012409547e-03
         - -2.3598231954671495e-02
         - -2.5431761677796785e-02
         - 7.6381056825036396e-03
         - 5.1945675227801594e-02
         - 1.3403669923799983e-02
         - 4.2936572449597143e-02
         - 1.9207500412583855e-02
         - 8.3208583552472504e-03
         - 2.6525245463479893e-02
         - 1.9129825124043990e-02
         - 5.9321111335592881e-03
         - -2.9132205627565277e-01
         - -2.9641035126824422e-02
         - 1.2048236075000343e-02
         - 2.6172310944256372e-02
         - -2.4281558714432216e-02
         - -1.9373535324055488e-02
         - -7.4812285072677759e-03
         - -1.0593822589199504e-02
         - 3.4747057254956304e-02
         - 5.2346501846209613e-03
         - 6.7233332653112918e-03
         - -1.6739232395561998e-01
         - 6.3795417907854786e-03
         - -2.3020805551136649e-03
         - 4.1605601486306126e-02
         - 2.8391781107369143e-02
         - -5.4906782167944397e-03
         - -1.8055711209630520e-02
         - 1.0394331794018843e-01
         - -5.4579835300474736e-02
         - 3.2075373580332592e-03
         - -3.3485459882646362e-01
         - 1.3282326554346371e-03
         - 1.0080749409954229e-03
         - 9.0794427874898130e-04
         - -1.0651767880404631e-03
         - -1.4724598911279535e-02
         - 5.0882849090278836e-03
         - 9.9957210052482627e-03
         - 2.3911908162091706e-03
         - -4.7364521460936055e-03
         - 1.7124856531000783e-03
         - -4.1865857360664062e-03
         - 2.3996285846282366e-02
         - -9.0866554913787340e-02
         - 6.3351677900051265e-03
         - 5.2325734520151793e-04
         - 1.4494231132770019e-01
         - 1.5137616053554673e-01
         - -1.4042795306289321e-02
         - -8.9008938135922491e-03
         - 1.8284557366700149e-01
         - 2.0418343318247263e-03
         - 4.7949912627989677e-03
         - 5.7614677381878594e-02
         - -5.4685600248594757e-01
         - 8.9112157345255238e-03
         - -7.9374773263225611e-03
         - -6.3661872551523998e-03
         - -1.6187465752526872e-01
         - -4.6920878017084645e-02
         - -3.7406225011257467e-03
         - -2.7830427773044655e-03
         - 2.0217869949225524e-02
         - -1.1379913292767307e-02
         - 1.2593656859568510e-02
         - -3.1251792817124755e-03
         - -5.6474096323093611e-03
         - 3.0966778444581106e-03
         - -1.8324595236495059e-02
         - 1.2076244974943577e-01
         - 3.9437595115645544e-03
         - 8.4101601440519966e-02
         - -2.3998506693989830e-02
         - -8.5376858742820857e-03
         - 9.3137369414665980e-02
         - -2.5444182476613952e-02
         - 1.3403045306182510e-02
         - 3.2185898313660595e-02
         - -4.7081709470116646e-03
         - 9.2665679143643289e-03
         - -1.0719818142588781e-01
         - 8.7010293998569382e-03
         - -1.4281827658274082e-01
         - 7.2339330681473694e-04
         - -1.6364953579384885e-02
         - 1.8608624540675259e-02
         - 6.8586914886436725e-03
         - 3.7987700373056793e-03
         - -4.5958188627848784e-01
         - 3.1181860546832313e-03
         - 1.1211571362349775e-01
         - -1.8250254755302567e-02
         - -4.8715092168240626e-03
         - -7.0676898950990845e-04
         - 9.5143731432151823e-03
         - -1.2798781630030415e-03
         - 3.7134049130138319e-02
         - 7.1045440499369200e-03
         - 1.0398571353973004e-02
         - -9.0034128298766961e-02
         - -2.0666378555688606e-03
         - -2.7459992643579664e-02
         - 2.3871018534448911e-03
         - 8.1757424515752297e-02
         - -2.0232738391659118e-02
         - -6.1797835563078126e-03
         - -6.1538046501829445e-03
         - -5.5092788128965453e-02
         - 5.1473692110451316e-02
         - -4.3347377070450716e-01
         - 6.4003282025168508e-03
         - -1.5239247242767090e-02
         - -8.9659805538523565e-03
         - 2.4376912101453600e-02
         - 2.8618012389568289e-02
         - 1.7066563336188946e-03
         - 6.4518319738064462e-04
         - 1.2523586527967928e-01
         - -2.0615880681480175e-01
         - -4.0361488107271311e-03
         - -9.1940404756327490e-02
         - 1.4772947573150669e-03
         - -6.3560378868348687e-03
         - 2.7518827348206018e-04
         - 1.9924373036732886e-02
         - 1.0223007094543391e-03
         - -1.0035855443327328e-02
         - -2.9855034729061453e-01
         - -1.0405042404991146e-02
         - -3.7433314050792522e-03
         - -1.3080435997361500e-01
         - 5.0166693420796646e-03
         - 3.4158039865645746e-03
         - 2.5477866230643035e-03
         - -7.6625905205854120e-03
         - -2.4219349867880529e-02
         - 2.8567989095547781e-03
         - -1.2681625162403196e-03
         - 5.1143995023144621e-03
         - 3.1123977925130242e-03
         - 8.2212186715380359e-03
         - -5.7912605281080099e-03
         - 1.3172128683220772e-02
         - 7.0106035011632539e-02
         - -7.5946874919136671e-03
         - -4.4246619960149310e-03
         - 2.0043614105838747e-01
         - 6.8452894063544961e-02
         - -9.7196778633329569e-04
         - -4.2281961146518783e-02
         - -2.1222250589632954e-01
         - -3.9501874419805398e-03
         - 3.6205378932795337e-03
         - 5.5804620799523273e-02
         - 2.2482915255607791e-02
         - 1.5045130832598693e-03
         - -6.7919130591926032e-03
         - -8.7231011455920340e-02
         - -2.0532447347892119e-01
         - -2.4035581708889649e-02
         - -2.1091382401463585e-03
         - 9.1956178575795865e-04
         - 5.5730433515977836e-03
         - -2.2844665068124850e-02
         - 7.7671806300190337e-03
         - -2.8562763693355804e-03
         - -5.3896590355484468e-03
         - 1.9649714074598443e-03
         - -3.0342213392906478e-03
         - 1.1819800354832175e-01
         - 8.0714315448041363e-03
         - -5.5999043899505802e-02
         - -2.3117886486757739e-02
         - 7.5227930528443494e-03
         - -7.0943168929997857e-02
         - -2.0759500608774836e-03
         - 4.4439152483973284e-03
         - 5.3500487854777026e-02
         - 5.3232155542718167e-04
         - -2.2224111117653939e-03
         - -1.0954502069471436e-01
         - 6.0458796934040942e-03
         - -1.6725529834524890e-02
         - -2.1754830132998081e-02
         - 8.2705289699814850e-03
         - 3.4690610444164339e-03
         - 5.8032851199666096e-03
         - 1.7237186608556616e-04
         - -2.2523097222092514e-01
         - 5.3321144512865565e-03
         - 2.1495746475402175e-01
         - -1.1872623511836549e-02
         - 1.8588531350867492e-03
         - -4.8404859041440689e-03
         - 1.7124350232322852e-03
         - 1.3037407136886007e-03
         - -7.0666153687252445e-02
         - -7.1055133668352559e-04
         - -2.3431416509325249e-03
         - 2.4502467553519122e-03
         - -1.7830464282479446e-03
         - 6.1947425554824208e-02
         - 1.9794448187169411e-02
         - -1.4910815567509686e-01
         - -3.5126763883079463e-03
         - -1.2356886050101479e-03
         - -2.7772386245922698e-03
         - -3.7183819879430688e-02
         - 1.7932257979564034e-02
         - 8.3099836820890630e-02
         - -3.5784202710875787e-04
         - -4.7141198103938450e-03
         - -6.2193175066186405e-03
         - 1.5764677046591853e-02
         - 1.1402254836447906e-02
         - -1.7562159665343389e-03
         - 7.1302216165180683e-03
         - -3.2035525906171584e-02
         - 5.5356161474875369e-02
         - -1.1805322133395359e-02
         - 2.4473830846851268e-02
         - -2.4265973840055179e-03
         - 4.6008095714241441e-03
         - 8.2612175662637316e-02
         - -2.2288690213197682e-02
         - 4.0611034653996745e-03
         - 1.4058267044388961e-02
         - -3.3487589358771719e-01
         - 3.4603331050152272e-02
         - -1.6339862052573297e-02
         - 1.5611244838160422e-03
         - -4.1297653031974919e-03
         - 1.1204930226806232e-02
         - 5.9533181891246090e-04
         - -2.0062475294219375e-04
         - -2.9586938481883696e-02
         - 7.3596215229950633e-03
         - -1.2560750721314724e-02
         - -5.7278647586143472e-04
         - 1.9229710710964031e-02
         - 3.3247605893848026e-03
         - 3.5687932645345356e-03
         - -1.1930153184031360e-02
         - -5.0532547303008227e-02
         - -2.2226446772428108e-02
         - 2.1891670871666924e-03
         - 1.8855557956730634e-01
         - 1.7592953341758446e-02
         - 1.8401687106452163e-02
         - -4.7652345260832507e-02
         - 1.2137548830815123e-02
         - -1.1479099776525357e-02
         - 1.1161054912686408e-03
         - 2.9747357652442873e-02
         - 2.1688934727770129e-02
         - 3.6425324399450274e-03
         - -6.4637778237855079e-04
         - -1.6157514314525423e-01
         - -2.0480407495188274e-01
         - 4.7696065425760166e-02
         - -3.8056883626640522e-03
         - 8.7223914494838090e-03
         - -2.0944757801284058e-02
         - -3.0645238090083043e-02
         - -3.3604730875268704e-03
         - -2.9205366867430444e-03
         - 3.7789848306073350e-04
         - -7.7332293690252692e-04
         - 3.9552643387424230e-02
         - 1.7352491015463653e-01
         - 2.3352410722294651e-04
         - -1.5880262694716311e-02
         - 1.1261026431959385e-02
         - 1.7738681470105367e-02
         - -4.4958101537860083e-02
         - 7.2274352469309897e-02
         - -3.9540204044269485e-03
         - 2.4260945248513222e-01
         - 8.2457104378416447e-03
         - -1.8041087930775475e-02
         - 1.2792573182073835e-01
         - -1.2058683003956341e-02
         - -3.4121184167633573e-01
         - -6.2831253508745175e-02
         - 2.2182873452321870e-02
         - -3.6463606115945069e-02
         - -1.1355379865512711e-02
         - 1.6841536590773791e-03
         - 5.6517119546432779e-02
         - -6.0088251682261376e-03
         - -7.6480123476899489e-02
         - 1.2398721992248297e-02
         - -4.1691836007590145e-03
         - -5.0875223213707769e-03
         - -2.0385982626613328e-02
         - 3.9850444514736008e-03
         - 1.0648725231491117e-01
         - 2.3182492156772374e-03
         - -1.9459620356380061e-02
         - 7.7497247084425264e-03
         - 1.6837911662137331e-03
         - 1.0168540585373820e-01
         - 3.8171744582550231e-02
         - 2.1778931974124630e-01
         - 2.2514984711036135e-02
         - 6.1523124109608652e-03
         - 1.1831343234831827e-02
         - 5.5325212605838003e-02
         - -3.4060607589040885e-02
         - -6.9847533331527545e-02
         - -8.8100133066578174e-03
         - 1.3127021302054977e-02
         - 2.3460744803253542e-02
         - -8.7545933510228269e-03
         - -2.4341718331558165e-02
         - -4.9644057189488630e-03
         - -2.0080227519314476e-03
         - 9.5379815252888564e-02
         - 2.7585783801855923e-01
         - -1.4238533879594860e-03
         - -1.9994762690954898e-01
         - 5.8312016855073352e-03
         - -8.4810775206478339e-03
         - 4.8190099943518125e-02
         - -5.2801911153145730e-03
         - -5.1942500406516731e-03
         - 2.4436778901131145e-02
         - 2.4757987538065374e-01
         - 4.1407339229325893e-02
         - -1.4465690247506371e-03
         - -1.3813646414176310e-02
         - 2.7594313052030418e-03
         - -1.8820437464754523e-03
         - -3.8373635474590157e-04
         - -9.4877879136557295e-04
         - 4.1815982276538193e-03
         - -9.1253597149725386e-04
         - 3.7146533707157819e-03
         - -1.5622306575349485e-03
         - 7.4808312593894284e-04
         - 4.6021540792327252e-03
         - 3.8600480836733126e-04
         - -1.9081660557841475e-03
         - 8.4505465972073229e-02
         - -4.9383624199449642e-03
         - -1.7742087882567804e-03
         - -2.3790959427254052e-01
         - -9.9320045939701188e-02
         - 5.8824934601400787e-03
         - -5.1505845853431459e-02
         - 1.0338414066255126e-01
         - 2.9459307501851720e-03
         - -3.2056149349621202e-04
         - -6.3760808813493192e-02
         - -9.0923942289814111e-02
         - 2.4279271583690226e-03
         - 1.8907415282086483e-03
         - 1.9125284405620370e-02
         - 2.6093523266569163e-01
         - -6.1137267918389224e-03
         - 5.1866520253991029e-03
         - -7.1240608061770181e-04
         - 2.9466479003690486e-03
         - -8.6793454516716686e-03
         - -2.7138349101281148e-03
         - 3.1707068582906658e-04
         - -3.6376124950967814e-03
         - 4.6634729210705160e-03
         - 2.4130710722844437e-02
         - 1.2954637070125218e-02
         - -3.6429163635600553e-03
         - 4.0441008729649824e-05
         - 1.9731467213370581e-03
         - 2.3181688869619581e-03
         - 6.8159417728914859e-02
         - 4.1413829461304771e-02
         - -4.7096538487061490e-03
         - -1.7732150212591175e-01
         - -2.0591231012336091e-03
         - -2.2849594278781362e-03
         - 2.0977145207785111e-01
         - 3.3634884299285801e-03
         - 1.4436623547565353e-01
         - -1.6730885740923216e-02
         - 2.3171316931658572e-03
         - -3.3526046537768299e-03
         - 1.7406443854290602e-03
         - 3.0871530899606700e-03
         - 1.8160153246773704e-02
         - 5.1815234699807275e-03
         - 4.0164659244188466e-02
         - 1.8873317337061242e-03
         - 3.9949294892041671e-03
         - -4.9507530417884800e-04
         - -2.2946745866896314e-03
         - -4.8146900952887369e-03
         - 1.8440020901024839e-01
