%YAML:1.0
---
opencv_ml_ann_mlp:
   format: 3
   layer_sizes: [ 1024, 50, 2 ]
   activation_function: SIGMOID_SYM
   f_param1: 6.6666666666666663e-01
   f_param2: 1.7159000000000000e+00
   min_val: -9.4999999999999996e-01
   max_val: 9.4999999999999996e-01
   min_val1: -9.7999999999999998e-01
   max_val1: 9.7999999999999998e-01
   training_params:
      train_method: BACKPROP
      dw_scale: 1.0000000000000000e-03
      moment_scale: 0.
      term_criteria:
         epsilon: 1.0000000000000001e-01
         iterations: 100
   input_scale:
      - 2.6104293890104908e+00
      - -1.3790683930467895e+00
      - 2.6041254580102704e+00
      - -1.3826590136808272e+00
      - 2.5960812652676020e+00
      - -1.3773588599171187e+00
      - 2.5889360993841737e+00
      - -1.3730142397804481e+00
      - 2.5803831647749211e+00
      - -1.3737296100360934e+00
      - 2.5756074720961775e+00
      - -1.3749994787499356e+00
      - 2.5696014887899565e+00
      - -1.3752231324747419e+00
      - 2.5632070710545518e+00
      - -1.3778036605215584e+00
      - 2.5556436030061827e+00
      - -1.3790343373318474e+00
      - 2.5587837606059418e+00
      - -1.3831401767213716e+00
      - 2.5594199198875631e+00
      - -1.3828735602243525e+00
      - 2.5640493870781693e+00
      - -1.3852439586073684e+00
      - 2.5608704664171547e+00
      - -1.3856457929870336e+00
      - 2.5571617597416325e+00
      - -1.3835370286998752e+00
      - 2.5564024766947790e+00
      - -1.3847819695612453e+00
      - 2.5613614194779011e+00
      - -1.3863721061732139e+00
      - 2.5572438113794593e+00
      - -1.3817974950657230e+00
      - 2.5532740473579212e+00
      - -1.3787354049731737e+00
      - 2.5583205351853660e+00
      - -1.3835026506822543e+00
      - 2.5655044002687073e+00
      - -1.3804772787763853e+00
      - 2.5663305647174406e+00
      - -1.3735735836739023e+00
      - 2.5720887304370157e+00
      - -1.3749575446008455e+00
      - 2.5765069144924548e+00
      - -1.3735488309475554e+00
      - 2.5844846123264942e+00
      - -1.3751317168886166e+00
      - 2.5894767803422676e+00
      - -1.3744786725917351e+00
      - 2.5989208039566014e+00
      - -1.3733689610962132e+00
      - 2.6066302620787858e+00
      - -1.3744503018298464e+00
      - 2.6077772665112535e+00
      - -1.3726644042625591e+00
      - 2.6142760080822227e+00
      - -1.3689032828421916e+00
      - 2.6268366090074546e+00
      - -1.3657876655861125e+00
      - 2.6394436522174618e+00
      - -1.3644764031193761e+00
      - 2.6424082166794149e+00
      - -1.3588657113581035e+00
      - 2.6077508085155663e+00
      - -1.3815512211626335e+00
      - 2.6019987791831372e+00
      - -1.3840996426820449e+00
      - 2.5949273284151388e+00
      - -1.3808065051590843e+00
      - 2.5858611849219950e+00
      - -1.3778159964974515e+00
      - 2.5776859922642226e+00
      - -1.3781014406771324e+00
      - 2.5701097722299537e+00
      - -1.3764788212828947e+00
      - 2.5640971360833138e+00
      - -1.3770541004254075e+00
      - 2.5652349971427961e+00
      - -1.3810773992878895e+00
      - 2.5563812011370843e+00
      - -1.3790968262732641e+00
      - 2.5529594034558691e+00
      - -1.3808249067554381e+00
      - 2.5589046501773547e+00
      - -1.3883217943417903e+00
      - 2.5627751485660566e+00
      - -1.3923361743378497e+00
      - 2.5601456867892596e+00
      - -1.3909512793765804e+00
      - 2.5572092783038243e+00
      - -1.3893119619735672e+00
      - 2.5550901201603282e+00
      - -1.3888309589840437e+00
      - 2.5513125937382473e+00
      - -1.3857192530551052e+00
      - 2.5548369892510010e+00
      - -1.3857119460546132e+00
      - 2.5540958919683496e+00
      - -1.3823679992758147e+00
      - 2.5596409072474922e+00
      - -1.3846427754646440e+00
      - 2.5660202695741372e+00
      - -1.3828534461663142e+00
      - 2.5649886530935353e+00
      - -1.3762022441773614e+00
      - 2.5700528104912812e+00
      - -1.3766186882841074e+00
      - 2.5726898797155173e+00
      - -1.3749064077610387e+00
      - 2.5792117216859531e+00
      - -1.3745396761193462e+00
      - 2.5880450107736608e+00
      - -1.3760344864269467e+00
      - 2.5933296202595195e+00
      - -1.3743120236219661e+00
      - 2.5995555830445194e+00
      - -1.3756334428886690e+00
      - 2.6036300736359621e+00
      - -1.3754025298327006e+00
      - 2.6115610781410536e+00
      - -1.3732340340952027e+00
      - 2.6252300334653724e+00
      - -1.3709844476317736e+00
      - 2.6347525634541675e+00
      - -1.3668616985637878e+00
      - 2.6400468807396074e+00
      - -1.3600680995327579e+00
      - 2.6041585002925824e+00
      - -1.3784941175133600e+00
      - 2.5973032549021475e+00
      - -1.3817320602069676e+00
      - 2.5892017848825892e+00
      - -1.3821573708948851e+00
      - 2.5820944836824231e+00
      - -1.3839289334021949e+00
      - 2.5789749548717533e+00
      - -1.3859595891696777e+00
      - 2.5709510821127726e+00
      - -1.3823734791838240e+00
      - 2.5651207840749590e+00
      - -1.3830336146864808e+00
      - 2.5658612749081677e+00
      - -1.3847043701001025e+00
      - 2.5569273303255060e+00
      - -1.3804862135538916e+00
      - 2.5535222685295040e+00
      - -1.3835420414489421e+00
      - 2.5600157308539138e+00
      - -1.3945615277164385e+00
      - 2.5629923900919103e+00
      - -1.3971692799317224e+00
      - 2.5555417781850522e+00
      - -1.3946597323116841e+00
      - 2.5546613592524103e+00
      - -1.3948318206987702e+00
      - 2.5506914788281532e+00
      - -1.3913949560311694e+00
      - 2.5456444741650417e+00
      - -1.3891099499508279e+00
      - 2.5504627239935771e+00
      - -1.3893922086265302e+00
      - 2.5532395952691940e+00
      - -1.3874669051408022e+00
      - 2.5569338663153633e+00
      - -1.3856693465605763e+00
      - 2.5595245605708712e+00
      - -1.3829945888103183e+00
      - 2.5624175249927514e+00
      - -1.3811660338970226e+00
      - 2.5692846626566839e+00
      - -1.3811064945253397e+00
      - 2.5710060601684956e+00
      - -1.3799390648629641e+00
      - 2.5776660866612295e+00
      - -1.3807892572961957e+00
      - 2.5879100220451963e+00
      - -1.3803875104217092e+00
      - 2.5884829245549468e+00
      - -1.3764379865605016e+00
      - 2.5913109781822237e+00
      - -1.3772090793243379e+00
      - 2.6042193452683144e+00
      - -1.3790837054822376e+00
      - 2.6097993553910785e+00
      - -1.3767152152217019e+00
      - 2.6235866078610295e+00
      - -1.3767331375805880e+00
      - 2.6302514265644770e+00
      - -1.3696371417278137e+00
      - 2.6375408099600191e+00
      - -1.3607744774772470e+00
      - 2.6067857863873707e+00
      - -1.3802970425207433e+00
      - 2.5935144202237650e+00
      - -1.3788738194461960e+00
      - 2.5885204660955554e+00
      - -1.3831304389044783e+00
      - 2.5826819518045561e+00
      - -1.3875775374084580e+00
      - 2.5803028550737745e+00
      - -1.3893896536967258e+00
      - 2.5715560146412386e+00
      - -1.3854831232718594e+00
      - 2.5647001168890800e+00
      - -1.3871068302739342e+00
      - 2.5610780171004257e+00
      - -1.3870395462736156e+00
      - 2.5566807849393767e+00
      - -1.3841181108060643e+00
      - 2.5544992551846128e+00
      - -1.3884430828408740e+00
      - 2.5565623407193243e+00
      - -1.3943211067386703e+00
      - 2.5573917399310013e+00
      - -1.3957193801508498e+00
      - 2.5526780956716690e+00
      - -1.3966652826547139e+00
      - 2.5480554453496014e+00
      - -1.3949682537625927e+00
      - 2.5445151281977747e+00
      - -1.3937815953514343e+00
      - 2.5440863468603170e+00
      - -1.3946103257302220e+00
      - 2.5469666162514821e+00
      - -1.3931621616763359e+00
      - 2.5489100876570920e+00
      - -1.3898305828115549e+00
      - 2.5521538627000639e+00
      - -1.3892173707409439e+00
      - 2.5594803636936954e+00
      - -1.3891041258761230e+00
      - 2.5656025229508019e+00
      - -1.3869292706821665e+00
      - 2.5696838844362508e+00
      - -1.3861372631827460e+00
      - 2.5685176514054850e+00
      - -1.3848102672368523e+00
      - 2.5747021062092279e+00
      - -1.3854699328528186e+00
      - 2.5806630364719658e+00
      - -1.3838684671022603e+00
      - 2.5830786499823630e+00
      - -1.3805512300918874e+00
      - 2.5853306109525755e+00
      - -1.3788973448918003e+00
      - 2.5964419829536531e+00
      - -1.3794779622742335e+00
      - 2.6065742665020992e+00
      - -1.3799473805522504e+00
      - 2.6177039062333050e+00
      - -1.3789734521699222e+00
      - 2.6240816046873481e+00
      - -1.3710598991207286e+00
      - 2.6322170112866270e+00
      - -1.3626588654956429e+00
      - 2.6014248385403009e+00
      - -1.3802084465702169e+00
      - 2.5939517332200217e+00
      - -1.3805939301787744e+00
      - 2.5872209055309758e+00
      - -1.3835191838879801e+00
      - 2.5845167302562295e+00
      - -1.3895570559203874e+00
      - 2.5776357220331456e+00
      - -1.3893863338317733e+00
      - 2.5703027826142049e+00
      - -1.3864880006928597e+00
      - 2.5634235014153059e+00
      - -1.3866762312454450e+00
      - 2.5599215096079133e+00
      - -1.3883157127011190e+00
      - 2.5536227089345429e+00
      - -1.3855616164815585e+00
      - 2.5511367775007479e+00
      - -1.3907549976131452e+00
      - 2.5522322708893843e+00
      - -1.3944538038413457e+00
      - 2.5503178620782356e+00
      - -1.3936758427385010e+00
      - 2.5489209145179652e+00
      - -1.3955120120482665e+00
      - 2.5440797752592745e+00
      - -1.3951161491372122e+00
      - 2.5409094387777991e+00
      - -1.3955115080458427e+00
      - 2.5438095993461300e+00
      - -1.3982981525010376e+00
      - 2.5413275712670451e+00
      - -1.3935392006643963e+00
      - 2.5436272925566841e+00
      - -1.3912258112177540e+00
      - 2.5507611695058947e+00
      - -1.3932221348394760e+00
      - 2.5550731459481497e+00
      - -1.3917825644318043e+00
      - 2.5626953154043965e+00
      - -1.3888513461050223e+00
      - 2.5666401087325625e+00
      - -1.3897792047372612e+00
      - 2.5698696778849182e+00
      - -1.3917344887950447e+00
      - 2.5730980986692780e+00
      - -1.3874552924272516e+00
      - 2.5722107111523052e+00
      - -1.3841066112965217e+00
      - 2.5779731740668490e+00
      - -1.3824983316385562e+00
      - 2.5806001200096516e+00
      - -1.3791048168440021e+00
      - 2.5884731964166057e+00
      - -1.3801959507839126e+00
      - 2.6044989880003402e+00
      - -1.3810735038288597e+00
      - 2.6135727523087633e+00
      - -1.3777109628541508e+00
      - 2.6208033784537403e+00
      - -1.3720647072204792e+00
      - 2.6283450775388899e+00
      - -1.3666946427442737e+00
      - 2.6004226180802577e+00
      - -1.3813620958452533e+00
      - 2.5983390925317096e+00
      - -1.3863173925222783e+00
      - 2.5914650512265145e+00
      - -1.3884482930421473e+00
      - 2.5845367035129940e+00
      - -1.3906216749948712e+00
      - 2.5722811231628153e+00
      - -1.3888530611514751e+00
      - 2.5652435297429856e+00
      - -1.3874981253251637e+00
      - 2.5652681531001309e+00
      - -1.3907531102947801e+00
      - 2.5615385685240688e+00
      - -1.3924818735677593e+00
      - 2.5549861998536945e+00
      - -1.3908613689255036e+00
      - 2.5495946170047157e+00
      - -1.3939079406441892e+00
      - 2.5461784888645300e+00
      - -1.3968238130355197e+00
      - 2.5460161717689207e+00
      - -1.3975304195294227e+00
      - 2.5444226255255473e+00
      - -1.3989122930443705e+00
      - 2.5384360785331377e+00
      - -1.3979738134043151e+00
      - 2.5362657542400009e+00
      - -1.3987236487174897e+00
      - 2.5375877047472484e+00
      - -1.3980245094248820e+00
      - 2.5380999203431260e+00
      - -1.3947867311187887e+00
      - 2.5436421714639392e+00
      - -1.3951824315204848e+00
      - 2.5498253688236634e+00
      - -1.3987017980007503e+00
      - 2.5525940458060128e+00
      - -1.3959425559688445e+00
      - 2.5562830883364587e+00
      - -1.3924379555050135e+00
      - 2.5646676364653898e+00
      - -1.3948335507273102e+00
      - 2.5688530527233047e+00
      - -1.3951060122751222e+00
      - 2.5720597071053235e+00
      - -1.3907169550474383e+00
      - 2.5754510976804368e+00
      - -1.3893585297786448e+00
      - 2.5772936040486258e+00
      - -1.3865130085117221e+00
      - 2.5784623424442570e+00
      - -1.3815851985361853e+00
      - 2.5856644423247128e+00
      - -1.3813229730360248e+00
      - 2.5996489340631408e+00
      - -1.3820084225806570e+00
      - 2.6086864059621040e+00
      - -1.3772329365536107e+00
      - 2.6174535972083550e+00
      - -1.3755351297850689e+00
      - 2.6244322659599386e+00
      - -1.3725699594966840e+00
      - 2.6017768402528723e+00
      - -1.3835871025843560e+00
      - 2.5942308427638872e+00
      - -1.3857967991013294e+00
      - 2.5893478378876922e+00
      - -1.3907383720889692e+00
      - 2.5804779495180337e+00
      - -1.3907243341254010e+00
      - 2.5710587026764524e+00
      - -1.3906823030571260e+00
      - 2.5655581573322630e+00
      - -1.3912243562961584e+00
      - 2.5644551445668236e+00
      - -1.3927461575609019e+00
      - 2.5617978704444120e+00
      - -1.3953697982043158e+00
      - 2.5554322020984928e+00
      - -1.3948383579417369e+00
      - 2.5509002494322348e+00
      - -1.3976357084036224e+00
      - 2.5425706441223896e+00
      - -1.3981922758979961e+00
      - 2.5426804692864069e+00
      - -1.4001590254147143e+00
      - 2.5402873183857304e+00
      - -1.4021265124403455e+00
      - 2.5360214131500101e+00
      - -1.4018244000824798e+00
      - 2.5321532587415541e+00
      - -1.4008412751939447e+00
      - 2.5351733999602200e+00
      - -1.3976558516857363e+00
      - 2.5365261919604567e+00
      - -1.3959388445245982e+00
      - 2.5431865730493493e+00
      - -1.3983852666937848e+00
      - 2.5468046047623782e+00
      - -1.4011658266189007e+00
      - 2.5499204216621525e+00
      - -1.4018120948492345e+00
      - 2.5537079674198799e+00
      - -1.3994901195932203e+00
      - 2.5623632326632979e+00
      - -1.3989095756339880e+00
      - 2.5668324215060978e+00
      - -1.3963271829973400e+00
      - 2.5711876040047352e+00
      - -1.3951535422885866e+00
      - 2.5729727183058704e+00
      - -1.3931386564674360e+00
      - 2.5773801413225557e+00
      - -1.3918591757995309e+00
      - 2.5789287841787236e+00
      - -1.3857636214522131e+00
      - 2.5867683796719483e+00
      - -1.3833719607393065e+00
      - 2.5960688631729978e+00
      - -1.3816703146996816e+00
      - 2.6035484941543650e+00
      - -1.3780511720083586e+00
      - 2.6142017334288323e+00
      - -1.3770459093929965e+00
      - 2.6247053284567827e+00
      - -1.3759199483596398e+00
      - 2.5983906007943669e+00
      - -1.3844804040477223e+00
      - 2.5924590153344935e+00
      - -1.3871894297523171e+00
      - 2.5851398041578877e+00
      - -1.3895953219348980e+00
      - 2.5764257091688982e+00
      - -1.3888819339504730e+00
      - 2.5674453151974346e+00
      - -1.3910191807510417e+00
      - 2.5684466762211127e+00
      - -1.3965693475927650e+00
      - 2.5652227462005674e+00
      - -1.3956820533346366e+00
      - 2.5592697079664823e+00
      - -1.3964719513384565e+00
      - 2.5542202058398513e+00
      - -1.3977034487161424e+00
      - 2.5477053026587630e+00
      - -1.3990144924698527e+00
      - 2.5406850365835711e+00
      - -1.3995701491169192e+00
      - 2.5377475573016586e+00
      - -1.4014350189869620e+00
      - 2.5349947864359637e+00
      - -1.4045941015965040e+00
      - 2.5317828290348996e+00
      - -1.4053613244627956e+00
      - 2.5285923658439491e+00
      - -1.4039062472553521e+00
      - 2.5329371253130346e+00
      - -1.4023676463795536e+00
      - 2.5357275243327435e+00
      - -1.4008642365119537e+00
      - 2.5372634508627430e+00
      - -1.3999828132870009e+00
      - 2.5415577151512121e+00
      - -1.4037267399296374e+00
      - 2.5450384337926826e+00
      - -1.4044991781480061e+00
      - 2.5489439257472530e+00
      - -1.4026905252499859e+00
      - 2.5557089586851149e+00
      - -1.3999979964846603e+00
      - 2.5637879156705781e+00
      - -1.3998681484771283e+00
      - 2.5713915701883163e+00
      - -1.3999207361936483e+00
      - 2.5714545151868595e+00
      - -1.3946677559776368e+00
      - 2.5757148249327444e+00
      - -1.3920095892449642e+00
      - 2.5763626969484128e+00
      - -1.3871639066720447e+00
      - 2.5830246549178590e+00
      - -1.3833428368333498e+00
      - 2.5924823113860911e+00
      - -1.3814578498796355e+00
      - 2.6004426946854093e+00
      - -1.3769104332380671e+00
      - 2.6114508261132698e+00
      - -1.3764490737513779e+00
      - 2.6262912824694213e+00
      - -1.3775547946542093e+00
      - 2.5971570628855223e+00
      - -1.3847759373328383e+00
      - 2.5915012809809808e+00
      - -1.3865613664256164e+00
      - 2.5808664042753500e+00
      - -1.3865839295945264e+00
      - 2.5726627753332876e+00
      - -1.3873259289974191e+00
      - 2.5667464498067760e+00
      - -1.3913797682080058e+00
      - 2.5625558370964820e+00
      - -1.3954745728126361e+00
      - 2.5581323900009241e+00
      - -1.3946688026162246e+00
      - 2.5515931932642411e+00
      - -1.3957213873614036e+00
      - 2.5496039502471994e+00
      - -1.3986146831334183e+00
      - 2.5471997167252742e+00
      - -1.4010584766937322e+00
      - 2.5408753733433489e+00
      - -1.4030975136100152e+00
      - 2.5365936306121135e+00
      - -1.4058571600838250e+00
      - 2.5242008491580505e+00
      - -1.4038235413155173e+00
      - 2.5239133126069913e+00
      - -1.4069906558728806e+00
      - 2.5228613260021406e+00
      - -1.4044225081196193e+00
      - 2.5233313435245517e+00
      - -1.4004906097968441e+00
      - 2.5286500259533691e+00
      - -1.4007195650600457e+00
      - 2.5314514262475294e+00
      - -1.4014857931474771e+00
      - 2.5336900899034402e+00
      - -1.4013043373340897e+00
      - 2.5402753171735024e+00
      - -1.4054941695797212e+00
      - 2.5430481306630770e+00
      - -1.4050843211266506e+00
      - 2.5500399840407146e+00
      - -1.4032827723779555e+00
      - 2.5563639587241673e+00
      - -1.4028088796170519e+00
      - 2.5636464488279560e+00
      - -1.4001721616106710e+00
      - 2.5691830121642205e+00
      - -1.3939356820703004e+00
      - 2.5725386045926832e+00
      - -1.3901632975247302e+00
      - 2.5750247151706711e+00
      - -1.3870671590679731e+00
      - 2.5832899525920134e+00
      - -1.3835816424311169e+00
      - 2.5929787339674735e+00
      - -1.3820414032184312e+00
      - 2.6027203874702693e+00
      - -1.3780468002998183e+00
      - 2.6100083794884203e+00
      - -1.3764820071435004e+00
      - 2.6232173473635489e+00
      - -1.3805321901233982e+00
      - 2.5940420709882175e+00
      - -1.3850727612300033e+00
      - 2.5902673269208587e+00
      - -1.3858233629174439e+00
      - 2.5804859244806226e+00
      - -1.3853022893744904e+00
      - 2.5737009327788685e+00
      - -1.3892741256590335e+00
      - 2.5641194555630746e+00
      - -1.3901091024049310e+00
      - 2.5600081057512711e+00
      - -1.3923860924671581e+00
      - 2.5561783287273139e+00
      - -1.3946033512734961e+00
      - 2.5458445630361202e+00
      - -1.3952162113874871e+00
      - 2.5428937375707146e+00
      - -1.3966119049505046e+00
      - 2.5420975581480501e+00
      - -1.4020036276151870e+00
      - 2.5401986085994266e+00
      - -1.4075128054901840e+00
      - 2.5319587608598075e+00
      - -1.4068324215577845e+00
      - 2.5231629208782347e+00
      - -1.4066964837421274e+00
      - 2.5192359998386054e+00
      - -1.4079682125734214e+00
      - 2.5168565244923977e+00
      - -1.4046834436345836e+00
      - 2.5159036662962695e+00
      - -1.4005828018457127e+00
      - 2.5214884289813551e+00
      - -1.4025517597773440e+00
      - 2.5210517572461333e+00
      - -1.4011126362186443e+00
      - 2.5273300628142015e+00
      - -1.4006601091132078e+00
      - 2.5352381275596576e+00
      - -1.4058059015273918e+00
      - 2.5367880496706321e+00
      - -1.4063123433070284e+00
      - 2.5417886733209971e+00
      - -1.4024888438687098e+00
      - 2.5485492306154329e+00
      - -1.4001661489866966e+00
      - 2.5553069657122105e+00
      - -1.3992041584419843e+00
      - 2.5647584182531675e+00
      - -1.3959446313702628e+00
      - 2.5726961352840760e+00
      - -1.3907970541526864e+00
      - 2.5758306542215683e+00
      - -1.3872678981342954e+00
      - 2.5821375758901453e+00
      - -1.3823302498385104e+00
      - 2.5908760758504714e+00
      - -1.3803311145566926e+00
      - 2.5992474767083324e+00
      - -1.3767978930762013e+00
      - 2.6086556880501970e+00
      - -1.3775202913720093e+00
      - 2.6229911306344040e+00
      - -1.3816606093554165e+00
      - 2.5934729833283572e+00
      - -1.3848171089532848e+00
      - 2.5872317884854561e+00
      - -1.3853700011684709e+00
      - 2.5803337472933454e+00
      - -1.3871843744896275e+00
      - 2.5714103755315101e+00
      - -1.3898669696648980e+00
      - 2.5663272815156546e+00
      - -1.3927284035987404e+00
      - 2.5586240556028059e+00
      - -1.3941287795469721e+00
      - 2.5521885874186649e+00
      - -1.3942053278533548e+00
      - 2.5417857223933065e+00
      - -1.3930776595404795e+00
      - 2.5370683957372857e+00
      - -1.3949626825214851e+00
      - 2.5335862652749048e+00
      - -1.4004655856156678e+00
      - 2.5329964388739832e+00
      - -1.4069478448333084e+00
      - 2.5253704822345600e+00
      - -1.4060897628535296e+00
      - 2.5195217945455592e+00
      - -1.4065064378308316e+00
      - 2.5157526330034550e+00
      - -1.4071785531152374e+00
      - 2.5125696720099455e+00
      - -1.4070862194156701e+00
      - 2.5124936214816818e+00
      - -1.4052327374957749e+00
      - 2.5134531245779854e+00
      - -1.4057370455587055e+00
      - 2.5147379646010029e+00
      - -1.4038128900098514e+00
      - 2.5235417306724250e+00
      - -1.4047100321972086e+00
      - 2.5270094353576953e+00
      - -1.4049189057822420e+00
      - 2.5302516721085055e+00
      - -1.4057372928337077e+00
      - 2.5371531297108358e+00
      - -1.4038399093073275e+00
      - 2.5460528633930339e+00
      - -1.4021141195933067e+00
      - 2.5531109528196070e+00
      - -1.4009816603011338e+00
      - 2.5613930606742485e+00
      - -1.3971846432115624e+00
      - 2.5694586558885382e+00
      - -1.3901843653743546e+00
      - 2.5714695124044007e+00
      - -1.3847947159423863e+00
      - 2.5776248108804221e+00
      - -1.3814816924897624e+00
      - 2.5845251521818495e+00
      - -1.3788342796951272e+00
      - 2.5917093377702884e+00
      - -1.3757651813321945e+00
      - 2.6027273592686759e+00
      - -1.3779629087391434e+00
      - 2.6155888967273402e+00
      - -1.3800490484959458e+00
      - 2.5954669668930710e+00
      - -1.3852439616786998e+00
      - 2.5914229401981164e+00
      - -1.3878367691753202e+00
      - 2.5840742670477379e+00
      - -1.3908740184464918e+00
      - 2.5747709365252667e+00
      - -1.3895708918683660e+00
      - 2.5662042820567486e+00
      - -1.3934537900491935e+00
      - 2.5578947956420572e+00
      - -1.3966208651422491e+00
      - 2.5478826470565910e+00
      - -1.3936186828674912e+00
      - 2.5411305587139856e+00
      - -1.3947491499730393e+00
      - 2.5393493621410022e+00
      - -1.3982755111505325e+00
      - 2.5306930884169607e+00
      - -1.3992145478576705e+00
      - 2.5272374256571930e+00
      - -1.4028697146357725e+00
      - 2.5179324885127272e+00
      - -1.4038306392486539e+00
      - 2.5154208658507495e+00
      - -1.4066137186788297e+00
      - 2.5152633816590368e+00
      - -1.4087391678128844e+00
      - 2.5089170046203049e+00
      - -1.4083220841466670e+00
      - 2.5053689121097880e+00
      - -1.4077002310116808e+00
      - 2.5068255246643956e+00
      - -1.4081625586090663e+00
      - 2.5111022270665631e+00
      - -1.4067940675404824e+00
      - 2.5161826741220881e+00
      - -1.4047421371388040e+00
      - 2.5225551436187637e+00
      - -1.4054549743256310e+00
      - 2.5255529074071252e+00
      - -1.4049557186460577e+00
      - 2.5316022163835887e+00
      - -1.4029417521000347e+00
      - 2.5402902379779011e+00
      - -1.4000098883446421e+00
      - 2.5510908281825277e+00
      - -1.3988113129265758e+00
      - 2.5590422962082959e+00
      - -1.3956339011796692e+00
      - 2.5646454749493968e+00
      - -1.3910519744736340e+00
      - 2.5675705576678518e+00
      - -1.3827885534161597e+00
      - 2.5764431907035488e+00
      - -1.3816273962395071e+00
      - 2.5831137844809331e+00
      - -1.3797524250464843e+00
      - 2.5916589675572146e+00
      - -1.3767829199008976e+00
      - 2.5992426429540267e+00
      - -1.3781571036523468e+00
      - 2.6130199415008626e+00
      - -1.3822308241993246e+00
      - 2.5934531177511131e+00
      - -1.3839682258278014e+00
      - 2.5885715615628331e+00
      - -1.3873992397118358e+00
      - 2.5794184280254031e+00
      - -1.3907598610560266e+00
      - 2.5743120037758032e+00
      - -1.3933397030008046e+00
      - 2.5642577428169520e+00
      - -1.3941513713384841e+00
      - 2.5570463661394012e+00
      - -1.3966554303371366e+00
      - 2.5467100208496736e+00
      - -1.3944168074665340e+00
      - 2.5388598482011284e+00
      - -1.3961724397634816e+00
      - 2.5370538429867069e+00
      - -1.3993806441385745e+00
      - 2.5320992909090965e+00
      - -1.4016293882648487e+00
      - 2.5236082341624577e+00
      - -1.4011746319561467e+00
      - 2.5159839628902789e+00
      - -1.4043579934816071e+00
      - 2.5125049919935347e+00
      - -1.4092257642525412e+00
      - 2.5084251686014984e+00
      - -1.4099095913271580e+00
      - 2.5000871433540732e+00
      - -1.4080620997953421e+00
      - 2.4979100220828920e+00
      - -1.4076569876174643e+00
      - 2.5008443994747012e+00
      - -1.4085972481460001e+00
      - 2.5068793064338966e+00
      - -1.4082732669882643e+00
      - 2.5153804914860896e+00
      - -1.4079654418396057e+00
      - 2.5159649435089846e+00
      - -1.4036454515754200e+00
      - 2.5201244366657081e+00
      - -1.4032504853521357e+00
      - 2.5281015839276697e+00
      - -1.4006576726493307e+00
      - 2.5390159137596267e+00
      - -1.3997400628482806e+00
      - 2.5466813314036565e+00
      - -1.3973701000729162e+00
      - 2.5521503263913714e+00
      - -1.3906696572467294e+00
      - 2.5616275874529424e+00
      - -1.3885456078610465e+00
      - 2.5653110242417507e+00
      - -1.3833028146583921e+00
      - 2.5731834983289397e+00
      - -1.3810270811144840e+00
      - 2.5822034214780580e+00
      - -1.3792304883210051e+00
      - 2.5920099624847528e+00
      - -1.3773195448535567e+00
      - 2.6004102722556284e+00
      - -1.3789224718112136e+00
      - 2.6120802469157982e+00
      - -1.3838102116631195e+00
      - 2.5891889054279145e+00
      - -1.3808606189342636e+00
      - 2.5836861864276459e+00
      - -1.3864858425536370e+00
      - 2.5811438770322690e+00
      - -1.3911999520189207e+00
      - 2.5770695304335409e+00
      - -1.3951563894070720e+00
      - 2.5646235454862047e+00
      - -1.3945810111673631e+00
      - 2.5574175166988389e+00
      - -1.3963503306187539e+00
      - 2.5476460987619545e+00
      - -1.3953106166983646e+00
      - 2.5378697453350094e+00
      - -1.3952206252624155e+00
      - 2.5317718428109517e+00
      - -1.3966813422305118e+00
      - 2.5286673960403525e+00
      - -1.4010717538661979e+00
      - 2.5194612658191451e+00
      - -1.4010193431047098e+00
      - 2.5185094639521766e+00
      - -1.4070355283467588e+00
      - 2.5131242462381618e+00
      - -1.4119937474770736e+00
      - 2.5039946522060501e+00
      - -1.4124707451117220e+00
      - 2.4980949532245247e+00
      - -1.4102540137181430e+00
      - 2.4968484745132953e+00
      - -1.4090181356967888e+00
      - 2.4981786558965138e+00
      - -1.4089179919973416e+00
      - 2.5011039848229606e+00
      - -1.4088431403602293e+00
      - 2.5107640572642516e+00
      - -1.4082931960431200e+00
      - 2.5113218189061040e+00
      - -1.4040998354465697e+00
      - 2.5147592453841612e+00
      - -1.4003652589947837e+00
      - 2.5246015728848494e+00
      - -1.3990516282244321e+00
      - 2.5338082371872246e+00
      - -1.3983994749721858e+00
      - 2.5431804703934620e+00
      - -1.3976437089076217e+00
      - 2.5505951483395890e+00
      - -1.3911272595016517e+00
      - 2.5574630438204142e+00
      - -1.3852730091592362e+00
      - 2.5651475362672214e+00
      - -1.3809109859698119e+00
      - 2.5736684410752177e+00
      - -1.3781881456342451e+00
      - 2.5809168532702902e+00
      - -1.3791092836960197e+00
      - 2.5887210078586427e+00
      - -1.3773074209118488e+00
      - 2.6003017594300921e+00
      - -1.3801182887128318e+00
      - 2.6116855647439929e+00
      - -1.3844394260024624e+00
      - 2.5867540302299554e+00
      - -1.3793203740264559e+00
      - 2.5836152338722989e+00
      - -1.3868686305211986e+00
      - 2.5788862262760373e+00
      - -1.3895410476172563e+00
      - 2.5715934546632040e+00
      - -1.3899601831547248e+00
      - 2.5637231484262561e+00
      - -1.3910045230083816e+00
      - 2.5559382506088837e+00
      - -1.3943918022247321e+00
      - 2.5510548492715701e+00
      - -1.3984859305577104e+00
      - 2.5419573295405962e+00
      - -1.3991305917552275e+00
      - 2.5338816394139410e+00
      - -1.3989508233397974e+00
      - 2.5295513841783972e+00
      - -1.4015637762518005e+00
      - 2.5200540510615590e+00
      - -1.4015619283661893e+00
      - 2.5148609905926160e+00
      - -1.4053631127106434e+00
      - 2.5111979529593849e+00
      - -1.4103393080023092e+00
      - 2.5039203139445640e+00
      - -1.4114891307473887e+00
      - 2.5010217064515659e+00
      - -1.4134627397270250e+00
      - 2.5009805992164309e+00
      - -1.4130816598944933e+00
      - 2.4953331743121772e+00
      - -1.4084583630902878e+00
      - 2.4953601562175369e+00
      - -1.4077070780137668e+00
      - 2.5069425105118794e+00
      - -1.4099357351138591e+00
      - 2.5104108230570432e+00
      - -1.4060912247252668e+00
      - 2.5181311381328988e+00
      - -1.4010683854930901e+00
      - 2.5214519484667015e+00
      - -1.3980427164487110e+00
      - 2.5280765727559888e+00
      - -1.3982613049352763e+00
      - 2.5351420162732228e+00
      - -1.3936872635752062e+00
      - 2.5460974369138412e+00
      - -1.3885149589428836e+00
      - 2.5548181106623131e+00
      - -1.3839406302681903e+00
      - 2.5635195435137859e+00
      - -1.3797025944938679e+00
      - 2.5706678898040782e+00
      - -1.3758140359032380e+00
      - 2.5778695118316857e+00
      - -1.3783441927107118e+00
      - 2.5874425128374230e+00
      - -1.3785130893620652e+00
      - 2.5999944758917191e+00
      - -1.3821136325940202e+00
      - 2.6110207198053161e+00
      - -1.3836810021877504e+00
      - 2.5903527993760149e+00
      - -1.3822950706102155e+00
      - 2.5821571469220275e+00
      - -1.3851233289091847e+00
      - 2.5743283697720090e+00
      - -1.3887270950306052e+00
      - 2.5686310648288559e+00
      - -1.3911619886697408e+00
      - 2.5626252378676404e+00
      - -1.3928098948113496e+00
      - 2.5545548763747652e+00
      - -1.3938950734113706e+00
      - 2.5479939550350230e+00
      - -1.3984898523511156e+00
      - 2.5405198188327098e+00
      - -1.3995822858077256e+00
      - 2.5328623015737519e+00
      - -1.3986205233192541e+00
      - 2.5273584858114484e+00
      - -1.3994195043017363e+00
      - 2.5173528232877627e+00
      - -1.3983239556454634e+00
      - 2.5108782206501492e+00
      - -1.4021621837209581e+00
      - 2.5069687364825191e+00
      - -1.4062892988782580e+00
      - 2.5050468637651546e+00
      - -1.4109829666725797e+00
      - 2.5012330021066669e+00
      - -1.4137931739665506e+00
      - 2.5004184432062142e+00
      - -1.4135983811557487e+00
      - 2.4952867495420121e+00
      - -1.4117406073677874e+00
      - 2.4940869008152080e+00
      - -1.4082342009465110e+00
      - 2.5044317275475865e+00
      - -1.4093936293216593e+00
      - 2.5078869286680554e+00
      - -1.4074619300230415e+00
      - 2.5140587364029230e+00
      - -1.4024914240167097e+00
      - 2.5216821113504997e+00
      - -1.4005618125803247e+00
      - 2.5286693480094544e+00
      - -1.3989925189821508e+00
      - 2.5337640222133166e+00
      - -1.3924156459573291e+00
      - 2.5445437962717739e+00
      - -1.3880064443070075e+00
      - 2.5556842194807268e+00
      - -1.3859055177847996e+00
      - 2.5647227493238542e+00
      - -1.3823795559509007e+00
      - 2.5726678713252111e+00
      - -1.3782488846811594e+00
      - 2.5799899703017486e+00
      - -1.3770565061343112e+00
      - 2.5903722247371435e+00
      - -1.3785066944170439e+00
      - 2.6015927436980402e+00
      - -1.3839590253103680e+00
      - 2.6078589368169283e+00
      - -1.3831853430565897e+00
      - 2.5876283607476482e+00
      - -1.3844837623514188e+00
      - 2.5814258530424294e+00
      - -1.3859005481232618e+00
      - 2.5715792085433500e+00
      - -1.3865615111711298e+00
      - 2.5711969989419758e+00
      - -1.3922071794443676e+00
      - 2.5599800071327894e+00
      - -1.3924493130768476e+00
      - 2.5506285042828267e+00
      - -1.3920672519908694e+00
      - 2.5433542707171797e+00
      - -1.3953715819220898e+00
      - 2.5368801305106286e+00
      - -1.3989433912444962e+00
      - 2.5301940985576814e+00
      - -1.3974078238675625e+00
      - 2.5226450482796201e+00
      - -1.3968855634926503e+00
      - 2.5165206896021992e+00
      - -1.3969879214150063e+00
      - 2.5106699386246394e+00
      - -1.3992840717169417e+00
      - 2.5064422729891014e+00
      - -1.4037833940155384e+00
      - 2.5037268107097672e+00
      - -1.4080053140227227e+00
      - 2.4978644099176179e+00
      - -1.4098367993169671e+00
      - 2.4986083606059792e+00
      - -1.4114564351538064e+00
      - 2.4943267614876201e+00
      - -1.4113607492017519e+00
      - 2.4956057371232343e+00
      - -1.4100703790271001e+00
      - 2.4999195321655057e+00
      - -1.4082597402019190e+00
      - 2.5063358739691983e+00
      - -1.4079424632756747e+00
      - 2.5105477630645683e+00
      - -1.4030128575283420e+00
      - 2.5161805129388077e+00
      - -1.3979290383552854e+00
      - 2.5245555654671410e+00
      - -1.3958405078814569e+00
      - 2.5316872187250992e+00
      - -1.3901702027194740e+00
      - 2.5438259335469424e+00
      - -1.3875784126025879e+00
      - 2.5563813597914429e+00
      - -1.3860857461231197e+00
      - 2.5663260696000316e+00
      - -1.3844594534283978e+00
      - 2.5722217687744426e+00
      - -1.3786514060954498e+00
      - 2.5819177249902610e+00
      - -1.3753255566288602e+00
      - 2.5919553530228856e+00
      - -1.3775204412685931e+00
      - 2.6010833352553822e+00
      - -1.3825587730871096e+00
      - 2.6087819766501963e+00
      - -1.3841724840812908e+00
      - 2.5853495658232988e+00
      - -1.3814084136138296e+00
      - 2.5782877753653812e+00
      - -1.3844115790677851e+00
      - 2.5719730043484570e+00
      - -1.3874100865523560e+00
      - 2.5691274855628130e+00
      - -1.3919526225662311e+00
      - 2.5605861940657371e+00
      - -1.3937302364328545e+00
      - 2.5520591275108995e+00
      - -1.3927290051938703e+00
      - 2.5460819490771880e+00
      - -1.3952931512183326e+00
      - 2.5373128370415072e+00
      - -1.3986599816476406e+00
      - 2.5310512578572748e+00
      - -1.3974245348770100e+00
      - 2.5225016811508416e+00
      - -1.3955703378814421e+00
      - 2.5160397287524932e+00
      - -1.3952685802163616e+00
      - 2.5136139081220961e+00
      - -1.3987270756568457e+00
      - 2.5078061854662339e+00
      - -1.4012140934765402e+00
      - 2.5056133611397993e+00
      - -1.4072973174669983e+00
      - 2.5030617360377909e+00
      - -1.4105852790320863e+00
      - 2.4999455718942389e+00
      - -1.4117082155847556e+00
      - 2.4949650910220060e+00
      - -1.4101628879696968e+00
      - 2.4970901811353978e+00
      - -1.4100170642822287e+00
      - 2.4980765575640080e+00
      - -1.4049910905691680e+00
      - 2.5042734818754817e+00
      - -1.4041180087455059e+00
      - 2.5138858027386344e+00
      - -1.4030524634174670e+00
      - 2.5201599014799658e+00
      - -1.3979109100736231e+00
      - 2.5285795196664806e+00
      - -1.3961108981738310e+00
      - 2.5348408988630924e+00
      - -1.3917213610594137e+00
      - 2.5442157623124828e+00
      - -1.3879657801124619e+00
      - 2.5540203235330194e+00
      - -1.3855758764256043e+00
      - 2.5654614099748256e+00
      - -1.3827707334836477e+00
      - 2.5674151526801743e+00
      - -1.3764624374450778e+00
      - 2.5785314734111919e+00
      - -1.3742361676489359e+00
      - 2.5930535910485113e+00
      - -1.3781143947580230e+00
      - 2.6029274069768817e+00
      - -1.3817865440843764e+00
      - 2.6094550205109988e+00
      - -1.3808699132185762e+00
      - 2.5795577773756482e+00
      - -1.3768692504352154e+00
      - 2.5747886358879697e+00
      - -1.3793976219722794e+00
      - 2.5702783250344465e+00
      - -1.3844734933340426e+00
      - 2.5690684048158485e+00
      - -1.3898629077120570e+00
      - 2.5587730900145806e+00
      - -1.3917326080727832e+00
      - 2.5535802212385437e+00
      - -1.3920956727157274e+00
      - 2.5464814674450884e+00
      - -1.3907647934576022e+00
      - 2.5359095325818699e+00
      - -1.3944684796354665e+00
      - 2.5303652321676671e+00
      - -1.3959923910360394e+00
      - 2.5238059843357923e+00
      - -1.3944994684752254e+00
      - 2.5164317931891520e+00
      - -1.3940031911525936e+00
      - 2.5108764100985033e+00
      - -1.3964996342423845e+00
      - 2.5090275191571685e+00
      - -1.4020000081372934e+00
      - 2.5080490840902416e+00
      - -1.4061616725408101e+00
      - 2.5025639921339704e+00
      - -1.4057004674305984e+00
      - 2.5005109745295702e+00
      - -1.4067363749593620e+00
      - 2.4982962439652461e+00
      - -1.4080642456331953e+00
      - 2.4983738387451555e+00
      - -1.4099115571780414e+00
      - 2.5004091863743727e+00
      - -1.4058604665568932e+00
      - 2.5082293813332872e+00
      - -1.4041170063364456e+00
      - 2.5173523102795961e+00
      - -1.4037043352606760e+00
      - 2.5226952592276173e+00
      - -1.3974882624364526e+00
      - 2.5313408556570365e+00
      - -1.3954661551709078e+00
      - 2.5390379945609207e+00
      - -1.3934286685610013e+00
      - 2.5443145471303374e+00
      - -1.3883290883856796e+00
      - 2.5525086761455409e+00
      - -1.3847530273711586e+00
      - 2.5611568768886257e+00
      - -1.3797478791173490e+00
      - 2.5673624993579338e+00
      - -1.3761815265967174e+00
      - 2.5766479781459162e+00
      - -1.3756179164848052e+00
      - 2.5916444267801153e+00
      - -1.3798015741112759e+00
      - 2.6032643228387635e+00
      - -1.3806904251829544e+00
      - 2.6122576425037187e+00
      - -1.3778023110088662e+00
      - 2.5838870596898458e+00
      - -1.3765432636325030e+00
      - 2.5766554110717168e+00
      - -1.3769884886053900e+00
      - 2.5731911442134248e+00
      - -1.3833010110207946e+00
      - 2.5688458955976743e+00
      - -1.3888467333124708e+00
      - 2.5613651276735871e+00
      - -1.3917838344359343e+00
      - 2.5515347877455290e+00
      - -1.3904543357581467e+00
      - 2.5473822319583586e+00
      - -1.3920867992184218e+00
      - 2.5397520388979564e+00
      - -1.3954946229138361e+00
      - 2.5286575652474559e+00
      - -1.3927291495640279e+00
      - 2.5255090593896838e+00
      - -1.3954445126918738e+00
      - 2.5192129246643638e+00
      - -1.3953813457271984e+00
      - 2.5114413138400304e+00
      - -1.3946344227307628e+00
      - 2.5091292214206229e+00
      - -1.3986695628551309e+00
      - 2.5076663067116547e+00
      - -1.4023652964911550e+00
      - 2.5008777428735769e+00
      - -1.3999384489511757e+00
      - 2.5029777215677527e+00
      - -1.4025851297719594e+00
      - 2.5003882778400213e+00
      - -1.4032735731446115e+00
      - 2.5021549761667128e+00
      - -1.4065012178541620e+00
      - 2.5030039074726913e+00
      - -1.4062398689152906e+00
      - 2.5098868392674376e+00
      - -1.4049126820592897e+00
      - 2.5189088903988450e+00
      - -1.4034173895441509e+00
      - 2.5259577931208268e+00
      - -1.3984563311341955e+00
      - 2.5321432348720001e+00
      - -1.3947016903937881e+00
      - 2.5432428299809104e+00
      - -1.3943713523449937e+00
      - 2.5464630645646724e+00
      - -1.3879023049200867e+00
      - 2.5519471801772888e+00
      - -1.3818208479200194e+00
      - 2.5612127682452281e+00
      - -1.3788827870588356e+00
      - 2.5686276686218186e+00
      - -1.3769302495110989e+00
      - 2.5793093145627979e+00
      - -1.3761483087061350e+00
      - 2.5897546329813599e+00
      - -1.3781677688950453e+00
      - 2.6005935012226713e+00
      - -1.3767379086398976e+00
      - 2.6101297180598766e+00
      - -1.3742652785574030e+00
      - 2.5811162081808776e+00
      - -1.3721813050923855e+00
      - 2.5812567305250549e+00
      - -1.3768582764447577e+00
      - 2.5748029294147807e+00
      - -1.3806928276909995e+00
      - 2.5705499361994724e+00
      - -1.3880514817380869e+00
      - 2.5633171364233447e+00
      - -1.3907387431656726e+00
      - 2.5546874886715507e+00
      - -1.3904261721921294e+00
      - 2.5495425735884165e+00
      - -1.3934951659088153e+00
      - 2.5387663497841997e+00
      - -1.3917573765049347e+00
      - 2.5298409540673199e+00
      - -1.3914665249298936e+00
      - 2.5281553471258049e+00
      - -1.3954352880718808e+00
      - 2.5238705458517114e+00
      - -1.3971361257041433e+00
      - 2.5163315654177021e+00
      - -1.3941743985543802e+00
      - 2.5143321044963320e+00
      - -1.3971374869732802e+00
      - 2.5123198698419413e+00
      - -1.4027856628807913e+00
      - 2.5049789457495861e+00
      - -1.3987768728722345e+00
      - 2.5051833764495175e+00
      - -1.3976984801413965e+00
      - 2.5056896509348183e+00
      - -1.4001624289865506e+00
      - 2.5067060025613652e+00
      - -1.4016946141422832e+00
      - 2.5092715768792941e+00
      - -1.4052797677614453e+00
      - 2.5162557442178972e+00
      - -1.4051613561827672e+00
      - 2.5207655217393730e+00
      - -1.4010623417171844e+00
      - 2.5289805274873522e+00
      - -1.3990183354685335e+00
      - 2.5355983327739611e+00
      - -1.3950296017030737e+00
      - 2.5410983058619125e+00
      - -1.3921499976304113e+00
      - 2.5515401217333662e+00
      - -1.3887277530677649e+00
      - 2.5598218997957618e+00
      - -1.3830983498097473e+00
      - 2.5659739998423214e+00
      - -1.3806622345555615e+00
      - 2.5797160625038025e+00
      - -1.3814388833520828e+00
      - 2.5842460200141812e+00
      - -1.3762093855902542e+00
      - 2.5921739989112278e+00
      - -1.3762112707671976e+00
      - 2.6014301837450038e+00
      - -1.3755728343239477e+00
      - 2.6087953674858233e+00
      - -1.3740077295188373e+00
      - 2.5815493611538356e+00
      - -1.3704731022269223e+00
      - 2.5797257167151342e+00
      - -1.3741132807098306e+00
      - 2.5750960413766011e+00
      - -1.3775610154640843e+00
      - 2.5736214010582188e+00
      - -1.3847018142635263e+00
      - 2.5655436979652193e+00
      - -1.3885429715291164e+00
      - 2.5595245206663977e+00
      - -1.3913793724311965e+00
      - 2.5540201610105866e+00
      - -1.3923836310582114e+00
      - 2.5402818476348452e+00
      - -1.3896895157468996e+00
      - 2.5317161819161189e+00
      - -1.3897008563856112e+00
      - 2.5288494621691084e+00
      - -1.3949936736195241e+00
      - 2.5278799679618400e+00
      - -1.3965122770583813e+00
      - 2.5211169645809774e+00
      - -1.3922800740420280e+00
      - 2.5210230960305715e+00
      - -1.3975617450362576e+00
      - 2.5166976818256419e+00
      - -1.4006416366236036e+00
      - 2.5117750605764995e+00
      - -1.3978025265294012e+00
      - 2.5094552943277288e+00
      - -1.3962351077484050e+00
      - 2.5134962026177807e+00
      - -1.4008683868975540e+00
      - 2.5107984963888632e+00
      - -1.3997780348663806e+00
      - 2.5168868012705348e+00
      - -1.4031106287837660e+00
      - 2.5216500246837081e+00
      - -1.4018139479160172e+00
      - 2.5217643780652303e+00
      - -1.3974108282224316e+00
      - 2.5311778345352938e+00
      - -1.3983724164905544e+00
      - 2.5388529232287138e+00
      - -1.3945290731018283e+00
      - 2.5457204673639899e+00
      - -1.3900289034253186e+00
      - 2.5584034469605217e+00
      - -1.3881466948919470e+00
      - 2.5680598997192612e+00
      - -1.3849506739398398e+00
      - 2.5724243449129434e+00
      - -1.3824485006187981e+00
      - 2.5805722496414134e+00
      - -1.3791936281264405e+00
      - 2.5885047215587509e+00
      - -1.3752914486668495e+00
      - 2.5978038098800971e+00
      - -1.3767628306251074e+00
      - 2.6044194853172158e+00
      - -1.3758919383780615e+00
      - 2.6145370892244379e+00
      - -1.3745790340589330e+00
      - 2.5824009632085567e+00
      - -1.3696553434888039e+00
      - 2.5786825002237830e+00
      - -1.3731711636630504e+00
      - 2.5806830901341207e+00
      - -1.3816156628819347e+00
      - 2.5775998815559666e+00
      - -1.3863259222344899e+00
      - 2.5695817631348876e+00
      - -1.3881465864544302e+00
      - 2.5627599942485264e+00
      - -1.3897608230469780e+00
      - 2.5552340585220787e+00
      - -1.3894061542430456e+00
      - 2.5444252090221635e+00
      - -1.3892314493165165e+00
      - 2.5359529417974493e+00
      - -1.3893781881458849e+00
      - 2.5325487166065646e+00
      - -1.3942733975732375e+00
      - 2.5302171594710234e+00
      - -1.3952711249842242e+00
      - 2.5296977444629762e+00
      - -1.3938254711670175e+00
      - 2.5257120708096310e+00
      - -1.3942564367223171e+00
      - 2.5192279103906627e+00
      - -1.3951364327351345e+00
      - 2.5152414671677015e+00
      - -1.3952086455587367e+00
      - 2.5101532459983034e+00
      - -1.3938672054235781e+00
      - 2.5110745793565830e+00
      - -1.3964388209501553e+00
      - 2.5178742038725677e+00
      - -1.3987885739108772e+00
      - 2.5229091965797621e+00
      - -1.3975544513402569e+00
      - 2.5241739030223624e+00
      - -1.3947443429539894e+00
      - 2.5266838944133059e+00
      - -1.3942871764107478e+00
      - 2.5351521181090497e+00
      - -1.3975840617965616e+00
      - 2.5403325252039548e+00
      - -1.3919347879050721e+00
      - 2.5471064930811060e+00
      - -1.3854183948380629e+00
      - 2.5591689979517640e+00
      - -1.3845922895107210e+00
      - 2.5673065118253278e+00
      - -1.3819170582690290e+00
      - 2.5777780182066516e+00
      - -1.3826040644602193e+00
      - 2.5858498219538428e+00
      - -1.3788047762911089e+00
      - 2.5923539514781564e+00
      - -1.3743442322709367e+00
      - 2.6002869572817260e+00
      - -1.3749970314231541e+00
      - 2.6093797315254625e+00
      - -1.3745473113786970e+00
      - 2.6185788382978576e+00
      - -1.3738390920849648e+00
      - 2.5844386205488177e+00
      - -1.3676132868446507e+00
      - 2.5789922924295912e+00
      - -1.3709828899113772e+00
      - 2.5814951134756066e+00
      - -1.3800887121533609e+00
      - 2.5767521361670647e+00
      - -1.3851651679226189e+00
      - 2.5703711181330573e+00
      - -1.3871566262052373e+00
      - 2.5635195275873688e+00
      - -1.3856495491966438e+00
      - 2.5600837486050656e+00
      - -1.3890934100132437e+00
      - 2.5467329964507677e+00
      - -1.3886646876273694e+00
      - 2.5391464390306373e+00
      - -1.3862945062831311e+00
      - 2.5364838293221061e+00
      - -1.3910302984046172e+00
      - 2.5323414244295486e+00
      - -1.3918727731656821e+00
      - 2.5330889897806110e+00
      - -1.3918914500924644e+00
      - 2.5294058834123057e+00
      - -1.3923218192068170e+00
      - 2.5246058553301989e+00
      - -1.3942620736872116e+00
      - 2.5216369958527105e+00
      - -1.3958930341421414e+00
      - 2.5171193535164509e+00
      - -1.3948567647470975e+00
      - 2.5178370936865395e+00
      - -1.3947382892547080e+00
      - 2.5203855599583744e+00
      - -1.3946746403736732e+00
      - 2.5246047741455167e+00
      - -1.3925276773031161e+00
      - 2.5284512868326212e+00
      - -1.3923175844700770e+00
      - 2.5337443645575921e+00
      - -1.3928950248679939e+00
      - 2.5390748600852109e+00
      - -1.3943006738526884e+00
      - 2.5470721946536639e+00
      - -1.3902552076917056e+00
      - 2.5542493368957544e+00
      - -1.3857689548625796e+00
      - 2.5612103848187009e+00
      - -1.3842216818858204e+00
      - 2.5703838521144200e+00
      - -1.3814027246414691e+00
      - 2.5800005848303780e+00
      - -1.3800116423226834e+00
      - 2.5888169754947192e+00
      - -1.3783688198206090e+00
      - 2.5948956405690744e+00
      - -1.3754848527894865e+00
      - 2.6046979894872844e+00
      - -1.3756407106333992e+00
      - 2.6137952748375373e+00
      - -1.3725011043081428e+00
      - 2.6236413947496744e+00
      - -1.3707972985159893e+00
      - 2.5861873412467906e+00
      - -1.3668462492578393e+00
      - 2.5790625726020076e+00
      - -1.3703493684760206e+00
      - 2.5810048937867882e+00
      - -1.3782084930361904e+00
      - 2.5792295109011922e+00
      - -1.3836200294160426e+00
      - 2.5699884688640910e+00
      - -1.3836252818046644e+00
      - 2.5617465264575108e+00
      - -1.3800087390636278e+00
      - 2.5575841739985958e+00
      - -1.3838346789414555e+00
      - 2.5500099307346895e+00
      - -1.3865026839670909e+00
      - 2.5395447968152851e+00
      - -1.3821379548999753e+00
      - 2.5394829262929735e+00
      - -1.3863500825737896e+00
      - 2.5366963487289222e+00
      - -1.3895300742255225e+00
      - 2.5359303815471064e+00
      - -1.3907101010468410e+00
      - 2.5319995857136730e+00
      - -1.3922800861882032e+00
      - 2.5276821014759498e+00
      - -1.3940901480073720e+00
      - 2.5263248609205977e+00
      - -1.3974031688638280e+00
      - 2.5240589736200114e+00
      - -1.3962431853774591e+00
      - 2.5195466566026488e+00
      - -1.3895743073870663e+00
      - 2.5240140357237357e+00
      - -1.3897956897758446e+00
      - 2.5289922835224510e+00
      - -1.3891118557021973e+00
      - 2.5342521033101493e+00
      - -1.3894457328008536e+00
      - 2.5405082585453220e+00
      - -1.3911633541150970e+00
      - 2.5439581781614948e+00
      - -1.3896672418545455e+00
      - 2.5519412721749615e+00
      - -1.3882014329477839e+00
      - 2.5599558294953977e+00
      - -1.3850406239455069e+00
      - 2.5653737495011195e+00
      - -1.3824552885493213e+00
      - 2.5712857348280616e+00
      - -1.3812875637440494e+00
      - 2.5821404110228809e+00
      - -1.3797251180252230e+00
      - 2.5928372639634145e+00
      - -1.3779581921957247e+00
      - 2.6019043419471206e+00
      - -1.3752539977361011e+00
      - 2.6088501167964573e+00
      - -1.3744511188489215e+00
      - 2.6154838562629172e+00
      - -1.3700081986012982e+00
      - 2.6218085060983261e+00
      - -1.3660962331364905e+00
      - 2.5890478174579648e+00
      - -1.3670160911762230e+00
      - 2.5851784477279893e+00
      - -1.3713011576456990e+00
      - 2.5829407209938045e+00
      - -1.3774306165834018e+00
      - 2.5756843498770126e+00
      - -1.3779084700231889e+00
      - 2.5654086370919948e+00
      - -1.3790455883546908e+00
      - 2.5641551289781792e+00
      - -1.3821600848572619e+00
      - 2.5580655687730443e+00
      - -1.3809367945914042e+00
      - 2.5520282560617664e+00
      - -1.3822891686520762e+00
      - 2.5432887757677531e+00
      - -1.3791409625441049e+00
      - 2.5428391261983680e+00
      - -1.3838955424705452e+00
      - 2.5404022837496036e+00
      - -1.3874782063015494e+00
      - 2.5404767990988764e+00
      - -1.3879138780685643e+00
      - 2.5389477598853505e+00
      - -1.3898845636343995e+00
      - 2.5349756298842658e+00
      - -1.3948214001529933e+00
      - 2.5327784804041573e+00
      - -1.3965620906343650e+00
      - 2.5268497094078644e+00
      - -1.3908585194915351e+00
      - 2.5255972924395120e+00
      - -1.3853023279166659e+00
      - 2.5312210841490432e+00
      - -1.3869629490845574e+00
      - 2.5385188319135596e+00
      - -1.3864959888830253e+00
      - 2.5433158597823531e+00
      - -1.3859184814737950e+00
      - 2.5464594319401841e+00
      - -1.3862107215197421e+00
      - 2.5498727265765084e+00
      - -1.3864745730541961e+00
      - 2.5548511739884683e+00
      - -1.3852032643623362e+00
      - 2.5610269156537822e+00
      - -1.3816496879183386e+00
      - 2.5702509451110811e+00
      - -1.3798530471664399e+00
      - 2.5757351665292050e+00
      - -1.3807032560142267e+00
      - 2.5880901019707450e+00
      - -1.3822189703051302e+00
      - 2.5997998966009104e+00
      - -1.3792821100302661e+00
      - 2.6062891252534812e+00
      - -1.3740305947490237e+00
      - 2.6117239766622622e+00
      - -1.3722807257581380e+00
      - 2.6162264471561394e+00
      - -1.3704644177785814e+00
      - 2.6227621970143469e+00
      - -1.3676748970745665e+00
      - 2.5911337472016522e+00
      - -1.3637440759577180e+00
      - 2.5863791757495145e+00
      - -1.3680955105674979e+00
      - 2.5822219169123177e+00
      - -1.3723673673248835e+00
      - 2.5763368291440734e+00
      - -1.3732472979243997e+00
      - 2.5618937302551990e+00
      - -1.3723589255444308e+00
      - 2.5633540290472370e+00
      - -1.3797456676349142e+00
      - 2.5622000276246713e+00
      - -1.3814698313933711e+00
      - 2.5520638014092842e+00
      - -1.3784728417493115e+00
      - 2.5469086093006887e+00
      - -1.3775481941304784e+00
      - 2.5466956472474611e+00
      - -1.3821627135502341e+00
      - 2.5463534419384306e+00
      - -1.3860759452244926e+00
      - 2.5433482496786701e+00
      - -1.3865149648554411e+00
      - 2.5429848888676512e+00
      - -1.3880814720837049e+00
      - 2.5398287344917172e+00
      - -1.3907907830846744e+00
      - 2.5388261967912396e+00
      - -1.3914389268655332e+00
      - 2.5330323214673673e+00
      - -1.3876820190937424e+00
      - 2.5286606063931019e+00
      - -1.3835085780814633e+00
      - 2.5367817060494109e+00
      - -1.3844678384613771e+00
      - 2.5452765517706561e+00
      - -1.3827485644060225e+00
      - 2.5499779024400526e+00
      - -1.3810631778209665e+00
      - 2.5503631729911018e+00
      - -1.3808139629616996e+00
      - 2.5549608782328104e+00
      - -1.3820803290291115e+00
      - 2.5604751791470970e+00
      - -1.3811211013793858e+00
      - 2.5650375279029540e+00
      - -1.3792904477137227e+00
      - 2.5763357994907436e+00
      - -1.3796897796814749e+00
      - 2.5830350778315951e+00
      - -1.3792702491530142e+00
      - 2.5931018991864820e+00
      - -1.3807720161143544e+00
      - 2.6029736245926607e+00
      - -1.3775852783583136e+00
      - 2.6068509495378698e+00
      - -1.3734761321089439e+00
      - 2.6139319680877322e+00
      - -1.3695489964982455e+00
      - 2.6195989173975756e+00
      - -1.3702405098359283e+00
      - 2.6234344892590076e+00
      - -1.3659696490507680e+00
      - 2.5922505478318869e+00
      - -1.3602591231803716e+00
      - 2.5877551746280418e+00
      - -1.3642950553040007e+00
      - 2.5828380773355750e+00
      - -1.3672301750087077e+00
      - 2.5761971833675403e+00
      - -1.3677584614877769e+00
      - 2.5701807343447984e+00
      - -1.3697040885220071e+00
      - 2.5665612329280285e+00
      - -1.3767901850492426e+00
      - 2.5636019275757791e+00
      - -1.3788942770604622e+00
      - 2.5556215464039043e+00
      - -1.3759416553223056e+00
      - 2.5492286341437018e+00
      - -1.3735155786099795e+00
      - 2.5502555183525621e+00
      - -1.3792965275298970e+00
      - 2.5526323718382771e+00
      - -1.3848666419690485e+00
      - 2.5481943803717284e+00
      - -1.3863913254894156e+00
      - 2.5467317865211077e+00
      - -1.3860379236662308e+00
      - 2.5430307380914510e+00
      - -1.3852369258648196e+00
      - 2.5432908101619662e+00
      - -1.3869347403158123e+00
      - 2.5429313760688625e+00
      - -1.3850055655504536e+00
      - 2.5394633131014550e+00
      - -1.3820556178652397e+00
      - 2.5419497009999130e+00
      - -1.3822726189271850e+00
      - 2.5464024147284223e+00
      - -1.3797419589742128e+00
      - 2.5524014244341395e+00
      - -1.3784719809919954e+00
      - 2.5552204308626436e+00
      - -1.3764311734721373e+00
      - 2.5607973818402661e+00
      - -1.3772285256064447e+00
      - 2.5656675715966535e+00
      - -1.3769533563326806e+00
      - 2.5713805321648273e+00
      - -1.3761247338604434e+00
      - 2.5798729401415770e+00
      - -1.3786059313133396e+00
      - 2.5847945259410756e+00
      - -1.3770854158857857e+00
      - 2.5911768295650321e+00
      - -1.3755991473983984e+00
      - 2.6009527465924593e+00
      - -1.3742476262467709e+00
      - 2.6077597470181679e+00
      - -1.3706233435641295e+00
      - 2.6124767265274715e+00
      - -1.3663968454465920e+00
      - 2.6193825667762645e+00
      - -1.3654729857664964e+00
      - 2.6281491929708478e+00
      - -1.3630115461913157e+00
      - 2.5875620174179645e+00
      - -1.3547498246032685e+00
      - 2.5925250414351453e+00
      - -1.3623136070200155e+00
      - 2.5826178139549794e+00
      - -1.3640703688503091e+00
      - 2.5774425261883986e+00
      - -1.3653969576131253e+00
      - 2.5733370409501051e+00
      - -1.3671980170427442e+00
      - 2.5703576223917435e+00
      - -1.3750656697706169e+00
      - 2.5675536180160186e+00
      - -1.3768303157956501e+00
      - 2.5626542278928572e+00
      - -1.3728639658712096e+00
      - 2.5567452287349135e+00
      - -1.3701694681439478e+00
      - 2.5528362622278653e+00
      - -1.3751915466759195e+00
      - 2.5554042084665758e+00
      - -1.3817258847446088e+00
      - 2.5514229701489586e+00
      - -1.3833250816467044e+00
      - 2.5549618400664920e+00
      - -1.3875145613662951e+00
      - 2.5517710715538127e+00
      - -1.3864951894573760e+00
      - 2.5513114283676965e+00
      - -1.3860356576237407e+00
      - 2.5510854796981373e+00
      - -1.3820898478381509e+00
      - 2.5473481432754852e+00
      - -1.3779495329860361e+00
      - 2.5469715992995923e+00
      - -1.3783144749057510e+00
      - 2.5503147223082956e+00
      - -1.3782173777884941e+00
      - 2.5545449875922710e+00
      - -1.3775541532260487e+00
      - 2.5611254740154488e+00
      - -1.3754459724625467e+00
      - 2.5676130813746552e+00
      - -1.3753197120768339e+00
      - 2.5725425142225635e+00
      - -1.3748502386224370e+00
      - 2.5793829644106618e+00
      - -1.3754082753939327e+00
      - 2.5854039436347831e+00
      - -1.3768874477842756e+00
      - 2.5881114486804639e+00
      - -1.3739100633186418e+00
      - 2.5918076022004253e+00
      - -1.3702190220679125e+00
      - 2.6018091662679792e+00
      - -1.3715070969064795e+00
      - 2.6100073411711890e+00
      - -1.3669334323762881e+00
      - 2.6165869751385116e+00
      - -1.3649570839567267e+00
      - 2.6255803610474233e+00
      - -1.3640613281084133e+00
      - 2.6324939311857505e+00
      - -1.3602352470879329e+00
      - 2.5937515471244854e+00
      - -1.3547199392836740e+00
      - 2.5932753520169771e+00
      - -1.3610253987013217e+00
      - 2.5858376578805351e+00
      - -1.3645444032709180e+00
      - 2.5845983475914323e+00
      - -1.3659702055231551e+00
      - 2.5794975065608448e+00
      - -1.3666165979440605e+00
      - 2.5708986779496286e+00
      - -1.3692887853224096e+00
      - 2.5738396313713716e+00
      - -1.3746091844120092e+00
      - 2.5676427094166967e+00
      - -1.3721348023454520e+00
      - 2.5641158076966342e+00
      - -1.3704482886806475e+00
      - 2.5618760137050058e+00
      - -1.3752761012893400e+00
      - 2.5559188310724390e+00
      - -1.3776184202037858e+00
      - 2.5546101869201920e+00
      - -1.3819861362703336e+00
      - 2.5576236557318026e+00
      - -1.3865141875883840e+00
      - 2.5535110858017269e+00
      - -1.3835256279061965e+00
      - 2.5575050827125345e+00
      - -1.3830572077183239e+00
      - 2.5554491250195106e+00
      - -1.3786987888475448e+00
      - 2.5530121812316215e+00
      - -1.3746354355127495e+00
      - 2.5546088122058981e+00
      - -1.3743592793263235e+00
      - 2.5552452122152558e+00
      - -1.3739916835828287e+00
      - 2.5574655340912540e+00
      - -1.3746520901661476e+00
      - 2.5652198892021327e+00
      - -1.3743960956187973e+00
      - 2.5711695528204053e+00
      - -1.3731616422492601e+00
      - 2.5772944450492017e+00
      - -1.3715960291555302e+00
      - 2.5852163412621505e+00
      - -1.3739689630454242e+00
      - 2.5909554725995725e+00
      - -1.3744333891460845e+00
      - 2.5923374936146715e+00
      - -1.3701010160158824e+00
      - 2.5972643957821253e+00
      - -1.3690030885346054e+00
      - 2.6032105281077715e+00
      - -1.3684553592474513e+00
      - 2.6120801289043323e+00
      - -1.3635047889674701e+00
      - 2.6189036924693876e+00
      - -1.3597313921914178e+00
      - 2.6289248655160642e+00
      - -1.3602042504190008e+00
      - 2.6314294673824672e+00
      - -1.3566623980249937e+00
      - 2.5977204454397391e+00
      - -1.3551715959595390e+00
      - 2.5932548332908882e+00
      - -1.3591075175305736e+00
      - 2.5886625080877406e+00
      - -1.3635614746276148e+00
      - 2.5907208362467928e+00
      - -1.3658936617864945e+00
      - 2.5860206906938155e+00
      - -1.3674457649442633e+00
      - 2.5763537939121970e+00
      - -1.3694602488482890e+00
      - 2.5738002855811968e+00
      - -1.3721162985475406e+00
      - 2.5700782881868891e+00
      - -1.3737543408309736e+00
      - 2.5696687495637245e+00
      - -1.3733374813168455e+00
      - 2.5692432358486297e+00
      - -1.3748553080034192e+00
      - 2.5617643021399346e+00
      - -1.3762100625704263e+00
      - 2.5597207677061298e+00
      - -1.3798796438641039e+00
      - 2.5573292063583679e+00
      - -1.3811183271453724e+00
      - 2.5615670501804648e+00
      - -1.3811352411984035e+00
      - 2.5621259165451158e+00
      - -1.3784973411154802e+00
      - 2.5595940350594724e+00
      - -1.3758014641363085e+00
      - 2.5617089308823240e+00
      - -1.3768189436280414e+00
      - 2.5612067442205673e+00
      - -1.3749599683213314e+00
      - 2.5604403141551746e+00
      - -1.3723866574031558e+00
      - 2.5640774512076443e+00
      - -1.3736585955268963e+00
      - 2.5680522461861583e+00
      - -1.3741959120814324e+00
      - 2.5757562497515365e+00
      - -1.3754913066750323e+00
      - 2.5819013039147998e+00
      - -1.3737827950545665e+00
      - 2.5874709818663777e+00
      - -1.3705935539738354e+00
      - 2.5932144027383153e+00
      - -1.3688207620724471e+00
      - 2.5970249623022794e+00
      - -1.3682776370572449e+00
      - 2.6010600523498892e+00
      - -1.3671265984448187e+00
      - 2.6063583199331810e+00
      - -1.3641852445513409e+00
      - 2.6100622547933670e+00
      - -1.3572765323638658e+00
      - 2.6221791898278966e+00
      - -1.3543916131198273e+00
      - 2.6324436978091614e+00
      - -1.3537587170490668e+00
      - 2.6381661675158505e+00
      - -1.3528395277126601e+00
      - 2.5973089193759105e+00
      - -1.3545960791093485e+00
      - 2.5945018144155845e+00
      - -1.3585218842440454e+00
      - 2.5886685809844443e+00
      - -1.3620173038904362e+00
      - 2.5895362040726355e+00
      - -1.3622494058547958e+00
      - 2.5871004060326870e+00
      - -1.3650893948353642e+00
      - 2.5787403360325589e+00
      - -1.3696678824862840e+00
      - 2.5746082709252862e+00
      - -1.3705180530944521e+00
      - 2.5729969036205325e+00
      - -1.3720342548154141e+00
      - 2.5754657014646343e+00
      - -1.3736726689788488e+00
      - 2.5749817570303399e+00
      - -1.3729924022827766e+00
      - 2.5651803582320776e+00
      - -1.3743984975437038e+00
      - 2.5619748874270916e+00
      - -1.3764971830466888e+00
      - 2.5626454030629255e+00
      - -1.3769452061137692e+00
      - 2.5681951348627181e+00
      - -1.3780682291338875e+00
      - 2.5645889715874448e+00
      - -1.3758595378611833e+00
      - 2.5653820328850134e+00
      - -1.3743251619104173e+00
      - 2.5675970360706626e+00
      - -1.3767116044774170e+00
      - 2.5658538359094831e+00
      - -1.3763538512634768e+00
      - 2.5685807558320657e+00
      - -1.3725263133065124e+00
      - 2.5751184966668164e+00
      - -1.3741036661350701e+00
      - 2.5772124554101659e+00
      - -1.3757588834050420e+00
      - 2.5784854369946499e+00
      - -1.3747107630777085e+00
      - 2.5861717318440505e+00
      - -1.3734731684859258e+00
      - 2.5907577036611658e+00
      - -1.3693741896214109e+00
      - 2.5968397792236750e+00
      - -1.3669036472079621e+00
      - 2.6022941687820795e+00
      - -1.3666982699258874e+00
      - 2.6045649141816236e+00
      - -1.3653751241965471e+00
      - 2.6114370323693659e+00
      - -1.3610699566079887e+00
      - 2.6139414516365180e+00
      - -1.3517276988466806e+00
      - 2.6258276958205893e+00
      - -1.3498168213630990e+00
      - 2.6336257813583721e+00
      - -1.3464975709339451e+00
      - 2.6404352731496323e+00
      - -1.3467722660751149e+00
   output_scale:
      - 5.2631578947368418e-01
      - 4.9999999999999994e-01
      - 5.2631578947368418e-01
      - 4.9999999999999994e-01
   inv_output_scale:
      - 1.8999999999999999e+00
      - -9.4999999999999996e-01
      - 1.8999999999999999e+00
      - -9.4999999999999996e-01
   weights:
      -
         - 2.0712531526712975e-02
         - -1.1451723100218055e-02
         - 2.5924380016302743e-03
         - -2.0634987794768307e-02
         - -1.9787569290740856e-02
         - 1.8850977912074202e-02
         - -7.6018345375417828e-03
         - -1.7706134034597778e-02
         - -7.2887308028701352e-03
         - -1.2913998749101846e-02
         - 2.1905568014957317e-02
         - -2.4855215535795033e-02
         - -1.0636521979324886e-02
         - -1.1740877795398306e-03
         - -1.6842674617192640e-05
         - 1.3920617803786501e-02
         - -2.5984073085823889e-03
         - 1.0926913813743411e-02
         - -7.8965804241740920e-03
         - 2.0350586745057495e-02
         - -1.5377948727922600e-02
         - -2.8335902225971074e-03
         - 7.8017587274980685e-03
         - 7.4131445133650258e-03
         - -2.0921486418250080e-02
         - 1.4976931135427966e-02
         - -2.6913804000884740e-02
         - 2.5079274008541444e-02
         - -1.5242932014690154e-02
         - 4.2520177481071789e-03
         - -1.9741406070812789e-02
         - -1.4859861370005532e-02
         - -2.0423774971169931e-02
         - -2.3396264867713998e-02
         - -1.9406827522140763e-02
         - -1.5268679188239848e-02
         - -1.4092703567773607e-02
         - 1.1460300340642835e-02
         - -1.6793842780442672e-02
         - -1.5795493473941128e-03
         - -2.2287579408739083e-02
         - 1.5518499144249735e-02
         - 3.4634246475944079e-03
         - -1.9152052055731244e-03
         - -1.0876552461867998e-02
         - -2.5304488000390247e-02
         - 1.4447535230254955e-02
         - 2.1218858481985334e-02
         - 2.1499848305903974e-02
         - -3.9438845336080648e-03
         - 1.1662277412239913e-02
         - -3.5228205875620692e-03
         - -5.2871258287737590e-04
         - -1.0872599528325661e-02
         - -9.2039878990235469e-03
         - 9.4262417991831486e-03
         - -1.3465195526774649e-02
         - -2.2651791769196721e-02
         - 6.6794855547440011e-04
         - -3.0640181990384519e-03
         - 1.0225599933276170e-02
         - -1.0898217526274507e-02
         - -3.6963740528872255e-03
         - -2.5188035176969509e-03
         - 2.0707031420217010e-03
         - 4.8386834699066846e-03
         - -6.9509593321557183e-04
         - 4.7370958329069155e-03
         - -1.4987973503420455e-02
         - 1.0544609346040398e-02
         - -8.0186287164365662e-03
         - -1.0322762702944372e-02
         - 6.0857668089766212e-03
         - 5.0767261719294084e-03
         - -1.3340336629435252e-02
         - 5.8778971198865876e-03
         - -1.4779297016033168e-02
         - 1.2938119992102462e-02
         - -9.7785657468524440e-03
         - -2.1712079173499073e-04
         - -1.3824088353867925e-02
         - -6.4058012033438626e-03
         - -2.4880142395687664e-02
         - -1.3190879166736221e-02
         - -1.0931785034387454e-02
         - -1.9858380262120497e-02
         - -1.9433058467641570e-03
         - 1.8102265632849675e-02
         - -2.0078574580051207e-02
         - -1.7681264558320629e-03
         - -2.5984735921165559e-02
         - 9.9665301801322922e-03
         - 3.4830350077649595e-03
         - 4.7241133762093880e-04
         - -2.1518559614441628e-03
         - -1.1202464641989835e-02
         - 5.5970168003933772e-03
         - 2.6246283367819732e-02
         - 1.6354868806146915e-02
         - 6.7079675185193930e-04
         - 7.9140446153906467e-03
         - -7.3983426250652442e-04
         - 1.3648609433451777e-03
         - -8.4080518106760919e-03
         - -6.5731652399061286e-03
         - 9.3314153495959277e-03
         - -1.1770471797900228e-02
         - -2.3926068330106610e-02
         - -4.4454365798343818e-04
         - -1.1633853844797894e-03
         - 8.8202173917330921e-03
         - -1.1127053863062432e-02
         - 7.6128951443727398e-04
         - 7.2043827540542742e-04
         - 6.3740031579320191e-04
         - 4.0105172070444084e-03
         - -4.0578290283895414e-04
         - 1.3764955729723596e-03
         - -1.4687479628470111e-02
         - 8.7693669267421472e-03
         - -6.3359444567925582e-03
         - -8.6161995591968934e-03
         - 3.1201234152692246e-03
         - 3.1273025733274044e-03
         - -9.4910472375219750e-03
         - 4.8612100961272766e-03
         - -9.9657038687310222e-03
         - 9.2740972168761024e-03
         - -7.0092506671298608e-03
         - -3.5545051385150469e-04
         - -1.1475674204695738e-02
         - -3.3201235468126246e-03
         - -2.5328362265210718e-02
         - -8.7499767589818978e-03
         - -9.2131196341916129e-03
         - -2.0677223172794686e-02
         - -9.6038152697014174e-04
         - 1.5441169523556125e-02
         - -2.0763841683288400e-02
         - 9.7257877355257072e-04
         - -2.5889961725619776e-02
         - 4.9115846603769780e-03
         - 2.1263375647820530e-03
         - -3.0221874365689888e-03
         - 2.6517322761269335e-04
         - -8.5505477055227881e-03
         - 5.9528644261842081e-03
         - 2.5512900037826358e-02
         - 1.0311587584515683e-02
         - 4.5194656057475201e-03
         - 8.0170990263160550e-03
         - -1.2824201849943645e-03
         - -3.9883635898399429e-04
         - -1.0866219740589754e-02
         - -1.0207986587422302e-02
         - 1.0060477836008162e-02
         - -1.0673012680007025e-02
         - -2.2866298246134328e-02
         - -1.0710402665287362e-03
         - -3.5348795247815020e-03
         - 9.3983433632615285e-03
         - -9.9049138831653460e-03
         - -1.1383314861143923e-03
         - -1.7278665262127901e-03
         - 3.4447840552758678e-04
         - 4.6511049591543259e-03
         - -2.8539699989591789e-03
         - 2.9866241006308411e-03
         - -1.1675273114903729e-02
         - 1.0074846550886965e-02
         - -6.4374773731073380e-03
         - -8.0593907035907079e-03
         - 3.5372954620687897e-03
         - 2.6816414359670357e-03
         - -1.0596505356395534e-02
         - 5.6027152139593696e-03
         - -1.2167522265957810e-02
         - 1.3038266765606805e-02
         - -6.1500325201849140e-03
         - 1.7212072462760903e-04
         - -1.2482056189485592e-02
         - -5.8742929869754134e-03
         - -2.0791342420093971e-02
         - -8.6129936804610566e-03
         - -8.0981489982092439e-03
         - -1.7287047415619532e-02
         - -1.4268035120996901e-03
         - 1.3923867656177357e-02
         - -2.1046790858377205e-02
         - -2.2595884815750206e-04
         - -2.3443562149038779e-02
         - 7.9794583943814702e-03
         - 1.8288499658173914e-03
         - -5.3167957563118026e-05
         - -1.3195013127215738e-04
         - -1.0042277417995328e-02
         - 2.7573137904068094e-03
         - 2.4578562725575362e-02
         - 1.4615354833595197e-02
         - 5.7563686681198040e-04
         - 1.4935547404549228e-02
         - -5.3830497722285753e-03
         - -1.4089043172371991e-03
         - -1.5854119453739868e-02
         - -1.5134557407740470e-02
         - 1.3923165073446504e-02
         - -8.2666279088472617e-03
         - -1.3448821417990768e-02
         - -4.0333761332324225e-03
         - -2.1485605857944914e-03
         - 1.6040901795267522e-02
         - -1.5529478535909127e-02
         - -3.0278624193396837e-03
         - -2.4898255791812301e-03
         - 1.7265508343682619e-03
         - 5.4241343511264653e-03
         - 2.1731072799211406e-03
         - 6.3206048898498454e-03
         - -7.5818494425439892e-03
         - 1.5527664398455645e-02
         - -1.2937402174794405e-02
         - -7.8161079258974465e-03
         - 6.7286542419239910e-03
         - 4.1560024180322015e-03
         - -1.4843087716276111e-02
         - 9.1161460197280216e-03
         - -2.0222753223809564e-02
         - 1.9252282042666345e-02
         - -1.1756460488167126e-02
         - 2.0588997869717489e-03
         - -1.2877411839147866e-02
         - -9.0232924256988516e-03
         - -1.3123335367251691e-02
         - -1.6530579936322530e-02
         - -1.2751463040288298e-02
         - -1.2748298966573366e-02
         - -4.7559456370110994e-03
         - 8.8032264634999979e-03
         - -1.4504614789379922e-02
         - 7.3950173686684114e-04
         - -1.7299029492581379e-02
         - 9.3730856207908091e-03
         - 8.0020959253263013e-04
         - -9.8406636501944308e-04
         - -6.1762053958471846e-03
         - -1.9407748321661679e-02
         - 7.2738000749217515e-03
         - 1.7497668657139732e-02
         - 1.7509486613874213e-02
         - -3.2671229084362818e-03
         - 1.0990244062764181e-02
         - -4.8390818526714043e-03
         - -1.8524809524298081e-03
         - -1.2477173033949606e-02
         - -9.5492110989214944e-03
         - 1.0521667621011536e-02
         - -7.9750967525448226e-03
         - -1.3755204641255164e-02
         - -2.1954605376103510e-03
         - -2.7554333400368316e-04
         - 1.3314646398149698e-02
         - -1.0608593046725137e-02
         - -2.5810492058434714e-03
         - -2.3596597677860254e-03
         - 5.3672523604347822e-04
         - 2.6984110963199255e-03
         - -2.0321971554047268e-03
         - 4.8306795097012569e-03
         - -9.0558543988759413e-03
         - 1.0265637669610680e-02
         - -9.6009179786374927e-03
         - -7.7083359052430821e-03
         - 5.5119290318140501e-03
         - 5.2425100773824101e-03
         - -1.3137280868633579e-02
         - 8.0025447236442976e-03
         - -1.4818984239600324e-02
         - 1.2078237275762373e-02
         - -8.7296113881077386e-03
         - 3.3988817890061884e-03
         - -1.2616047320031808e-02
         - -8.2684545563285489e-03
         - -1.3688928317662115e-02
         - -1.2313333355191317e-02
         - -1.2464179447598256e-02
         - -1.2037175173261461e-02
         - -4.1141104955549988e-04
         - 9.9969851029164843e-03
         - -1.3482788084866167e-02
         - 1.4657971908375363e-03
         - -1.6169945619636219e-02
         - 8.1642448734750017e-03
         - 2.0367848059967869e-03
         - -8.0143495737607508e-04
         - -2.1435229113262546e-03
         - -1.3881585395572955e-02
         - 5.1321617825823033e-03
         - 1.5998147260496361e-02
         - 1.3808151122898620e-02
         - 2.2663281941973385e-03
         - 7.2089343889814661e-03
         - 1.1748608861543973e-03
         - -8.5611498450273178e-04
         - -3.8616550931300344e-03
         - -4.9208383174468174e-03
         - 6.8420572448844837e-03
         - -1.0204691214791969e-02
         - -1.5148881786804853e-02
         - 2.8545889182307136e-03
         - 1.1629505523084267e-03
         - 6.6579358022897453e-03
         - -4.9248968492658467e-03
         - 7.5367464168337773e-04
         - 2.9319228422198775e-04
         - -1.4261156314730275e-04
         - 1.3896038776007253e-03
         - -2.6633970561350416e-03
         - 2.0770554746999992e-04
         - -1.1428446821433128e-02
         - 6.4975691517442568e-03
         - -6.1679211129908240e-03
         - -1.1820200824785741e-02
         - 2.2566195209022767e-03
         - 2.5178043765535088e-04
         - -8.3481345831938215e-03
         - 3.0174855955203998e-03
         - -7.6170454826881926e-03
         - 5.9075703613974944e-03
         - -7.1455388232158175e-03
         - 7.5976272955730561e-04
         - -7.5686582979063322e-03
         - -2.5834620760921598e-03
         - -1.6537373336645785e-02
         - -4.4017929901919777e-03
         - -5.6460720927123849e-03
         - -1.2684623370051225e-02
         - 5.2484940268945823e-03
         - 1.3917822305835029e-02
         - -1.4430462732457410e-02
         - -7.1684733354286439e-04
         - -1.8774996582802867e-02
         - 1.1966160549152377e-03
         - 7.3865682715096054e-04
         - -2.0271812408457213e-03
         - 3.7378829162600588e-03
         - -5.7275502508312920e-03
         - 3.8146104488827872e-05
         - 1.9654879121671263e-02
         - 8.1580649667803949e-03
         - 4.0660560119575436e-03
         - 4.7549836353004077e-03
         - 1.7070408301408622e-03
         - -9.3390073169819898e-04
         - -6.7263986329804343e-03
         - -4.4857153415557753e-03
         - 6.9055345069964176e-03
         - -1.0333030220628937e-02
         - -1.5076000995544561e-02
         - 2.8083057979683941e-03
         - 1.6174474918435482e-03
         - 5.1880178667657491e-03
         - -4.8263825096379106e-03
         - 6.7194903122400648e-04
         - -1.3459770976583288e-03
         - -1.7726510543238159e-03
         - -1.5428691810043787e-03
         - 8.7101381436797997e-04
         - -1.3694354787506734e-03
         - -1.3526578346295373e-02
         - 3.5698032392992691e-03
         - -4.7405038527356192e-03
         - -1.3097630386696467e-02
         - 3.0818364597169903e-03
         - 3.0280762204372815e-03
         - -6.8988204288764959e-03
         - 3.1935632212918737e-03
         - -8.5729503092987925e-03
         - 4.3139096968832060e-03
         - -4.5217278159526298e-03
         - 4.0758934950854562e-04
         - -8.5934904768852818e-03
         - -3.9757437861953271e-03
         - -1.6199264694583493e-02
         - -5.8580483305515040e-03
         - -3.6374848259352558e-03
         - -1.1598236269118874e-02
         - 3.7036227667863399e-03
         - 1.0937641155355091e-02
         - -1.4444969080393815e-02
         - 5.3762460733205997e-04
         - -1.7391268285032863e-02
         - 1.8080192409709770e-03
         - 2.2528135718501239e-03
         - -2.1916677621594671e-03
         - 6.8443150344337932e-04
         - -5.8164628051842462e-03
         - -1.4226547075460740e-03
         - 1.6601558139926868e-02
         - 7.8083604293804820e-03
         - 6.5804550618819187e-03
         - 1.4115201195948172e-02
         - -4.4256322668153204e-03
         - 9.3210684396255548e-04
         - -1.5703516888861301e-02
         - -1.2410532958075274e-02
         - 1.2110059379135060e-02
         - -3.8637906408046123e-03
         - -1.2319461855699243e-02
         - -1.8602445647641806e-03
         - -3.7652687140577266e-03
         - 1.2826623741317199e-02
         - -1.6043850617726122e-02
         - -5.0639591156485591e-03
         - -5.9107947886123256e-04
         - -1.4120040827571094e-03
         - 3.7696869987225152e-03
         - -2.7094488630986001e-03
         - 7.0269162815337653e-03
         - -9.0622803829912019e-03
         - 1.2636722092686261e-02
         - -9.2939462305332583e-03
         - -5.1875921210682010e-03
         - 6.2260082658412569e-03
         - 4.3269304593237636e-03
         - -9.7531064779684106e-03
         - 7.0401823513919692e-03
         - -1.7587967518804544e-02
         - 1.8712532155012167e-02
         - -1.2005650278259498e-02
         - 1.9955408384923971e-03
         - -1.2338339390445686e-02
         - -5.9403524192452395e-03
         - -1.2113352867303575e-02
         - -1.7055499539130447e-02
         - -1.2867086338353576e-02
         - -1.0095772137322111e-02
         - -3.7003048255301960e-03
         - 7.6062763331970701e-03
         - -1.0654601572576245e-02
         - -7.6129395724201787e-04
         - -1.3348837254662831e-02
         - 9.0918676324225744e-03
         - 2.3853552875254358e-03
         - 5.2196177351351066e-04
         - -4.1910735338319570e-03
         - -1.7215270439611446e-02
         - 7.4963052495884020e-03
         - 1.6675777223829395e-02
         - 1.5922800331856547e-02
         - -7.4359302323104018e-06
         - 7.8704567573405024e-03
         - 2.3863488825481699e-03
         - 2.2314280234038930e-05
         - -6.4252765523754064e-03
         - -4.8813503183335631e-03
         - 6.6982356114287491e-03
         - -7.5522796273227487e-03
         - -1.6185972424662590e-02
         - 1.4083283666032668e-03
         - 4.3763972931194443e-03
         - 7.3432782789120922e-03
         - -5.9097968558401229e-03
         - 2.0482522279746903e-03
         - 5.5477574085774231e-04
         - -4.1836383693554977e-04
         - -1.3590522816251227e-03
         - -9.2990551454076218e-04
         - 1.5616684966977047e-03
         - -1.2978394519853205e-02
         - 4.7360904684180232e-03
         - -3.0504807072188750e-03
         - -1.1659212680187903e-02
         - 1.2266095463008234e-04
         - -7.4116062545405653e-04
         - -4.7934623050356140e-03
         - 2.1357280063064878e-03
         - -7.8580936366817768e-03
         - 5.8743289825982396e-03
         - -7.1634276314735713e-03
         - -8.0108780975025732e-04
         - -6.0425926025184052e-03
         - -2.3375160216454103e-03
         - -1.5800800038074162e-02
         - -7.5463084674724174e-03
         - -6.4552704323479091e-03
         - -1.5014440319084842e-02
         - 2.2883861152534217e-03
         - 1.0919574091969669e-02
         - -1.6337565809695805e-02
         - -4.6733703496113605e-04
         - -1.8164366086103525e-02
         - 2.3351052659772885e-03
         - -5.1967883424859713e-05
         - 9.9996815357181082e-04
         - 2.1802994935683595e-03
         - -8.4719427326898130e-03
         - 1.9611882938733362e-03
         - 1.8602372281291111e-02
         - 6.6785427637314834e-03
         - 5.9301047485874198e-03
         - 8.9437573568344284e-03
         - 1.3201720158990276e-03
         - 1.6247119660323837e-03
         - -6.0856089287957878e-03
         - -7.1366243490258484e-03
         - 7.9456315533789970e-03
         - -7.8378123569870610e-03
         - -1.4760885518052170e-02
         - 2.4093716243732128e-03
         - 1.1252214427028451e-03
         - 7.2291491077701130e-03
         - -7.0725294528901812e-03
         - 2.0697629240166429e-03
         - -1.2137382335268606e-03
         - 2.9262297498760007e-04
         - -1.1843332541774062e-03
         - 2.5370301861418424e-03
         - -1.5785540653218502e-03
         - -1.1044393169466492e-02
         - 3.7143510810745241e-03
         - -5.5263370316453748e-03
         - -9.4967675866906073e-03
         - 3.1254685504670597e-03
         - -1.9291303844553499e-04
         - -5.4365324286565469e-03
         - -1.5079550932096307e-04
         - -7.5859163998106150e-03
         - 5.7541386455040137e-03
         - -6.8039610061097029e-03
         - 2.4514457539561844e-03
         - -5.8805070478644555e-03
         - -2.4764532886819733e-03
         - -1.4643776954936554e-02
         - -6.8706707611921602e-03
         - -6.2607481775116694e-03
         - -1.2885155505854166e-02
         - 3.6185692221202596e-03
         - 1.1179202903625134e-02
         - -1.5396921532800876e-02
         - -1.2078425104045912e-03
         - -1.8747734603781641e-02
         - 3.3940809459260769e-03
         - 1.3387196012134832e-03
         - -1.2006781276498780e-04
         - 2.0533084409717936e-03
         - -8.5989802865391440e-03
         - 1.1080330053623631e-03
         - 1.9220981552988362e-02
         - 9.4719947723979018e-03
         - 4.3296155952115374e-03
         - 1.2000458042427812e-02
         - -3.1820188317570157e-03
         - -6.2486942421971817e-04
         - -1.1606587500660723e-02
         - -1.0042909805928519e-02
         - 1.2217725130120267e-02
         - -7.6186663398713841e-03
         - -1.3731045670381293e-02
         - -4.0438154293449289e-05
         - -5.9042264754399136e-04
         - 1.0544370493340319e-02
         - -1.1491704025178724e-02
         - 4.4835888915729325e-04
         - 4.6853446896006343e-04
         - -1.0996639560834488e-03
         - 3.0432173218685535e-03
         - 3.2878713856393877e-05
         - 4.7062178126159957e-03
         - -8.6696139944577276e-03
         - 9.8793123616371121e-03
         - -7.6883722970881151e-03
         - -8.7601289941730259e-03
         - 3.2435912592179068e-03
         - 2.2881473826729536e-03
         - -8.8066768809255454e-03
         - 6.7481863841430982e-03
         - -1.2649234613699144e-02
         - 1.0642964765475880e-02
         - -8.9123922145383436e-03
         - 3.8173873972152227e-04
         - -1.1599213613334410e-02
         - -4.4424953595411827e-03
         - -1.6262626592358314e-02
         - -1.2135307195606663e-02
         - -1.0573689379689697e-02
         - -1.3134182403788920e-02
         - 2.3326171587974877e-03
         - 1.1793064808638396e-02
         - -1.1746898219396007e-02
         - 4.7530601650543704e-05
         - -1.6973674318873359e-02
         - 6.7538784724607785e-03
         - 1.3237866066855726e-03
         - -6.2429461831271099e-04
         - -1.0207414167486082e-03
         - -1.0389069986944747e-02
         - 2.5316235199596632e-03
         - 1.8967286249963373e-02
         - 1.1604154431435915e-02
         - 2.1902066470087176e-04
         - 1.1009930055946226e-02
         - -9.5358592025218821e-04
         - -1.4113869056682198e-04
         - -1.2081563898253371e-02
         - -1.1470320993855957e-02
         - 1.1857086886786543e-02
         - -7.9181221680851011e-03
         - -1.0286046475462362e-02
         - 1.3366672970970565e-05
         - 8.9750735616522304e-04
         - 9.5263618595534984e-03
         - -1.1716039055463102e-02
         - -1.8381791551288652e-03
         - -1.7107734198732122e-03
         - -6.3529511625415693e-04
         - 1.2341432505371466e-03
         - 7.7829810582671227e-04
         - 4.3880622656770514e-03
         - -8.0453704789139029e-03
         - 1.0347478239454198e-02
         - -8.5599460613101173e-03
         - -1.2372001341693400e-02
         - 4.5496969344474619e-03
         - 1.1129393979064561e-03
         - -8.5619027656298717e-03
         - 4.5720382058950662e-03
         - -1.2740640558655593e-02
         - 1.3168974892970134e-02
         - -1.0260800922518035e-02
         - 2.2723161794318189e-04
         - -9.3384635800215533e-03
         - -5.9409438710921964e-03
         - -1.6052863593940397e-02
         - -1.5198767176278376e-02
         - -1.2466663446872545e-02
         - -1.1043379691066777e-02
         - 5.2906814735277814e-03
         - 1.0427059212853217e-02
         - -1.2873421758329010e-02
         - 1.3472850742338323e-03
         - -1.3418705645058511e-02
         - 5.2338552725495141e-03
         - 2.9650009775307375e-04
         - -2.7641327843381641e-04
         - 1.0968027949564739e-03
         - -1.3443999889358118e-02
         - 2.2927685280678847e-03
         - 1.5936275876702797e-02
         - 1.2701896911320794e-02
         - 2.0564456110943210e-03
         - 1.1985829970986409e-02
         - 6.7950889689295324e-04
         - -1.6841136699185335e-03
         - -1.2905796068592178e-02
         - -1.3667066617711717e-02
         - 1.3081126891262026e-02
         - -5.8333724204874052e-03
         - -1.0368831306033043e-02
         - 7.6172372467492224e-04
         - 3.3778228810548271e-03
         - 1.4135512382592285e-02
         - -1.2542585904104847e-02
         - 3.5723822615109721e-04
         - -1.6957455888304070e-03
         - 2.1542661441084493e-03
         - 9.9483287023128457e-04
         - -1.5253092600747017e-03
         - 4.0105040938937849e-03
         - -1.0720606986599327e-02
         - 1.0482358353890626e-02
         - -1.0094034040019448e-02
         - -1.3382275780297373e-02
         - 1.7770914027670718e-03
         - 1.3056888447411546e-03
         - -7.9296696873527271e-03
         - 2.2220876429803740e-03
         - -1.5200464349998031e-02
         - 1.1956514778206835e-02
         - -9.6082183938267021e-03
         - 8.3358755893759618e-04
         - -8.2548736793666092e-03
         - -4.3411301869231041e-03
         - -1.3288873966416417e-02
         - -1.5166371936457835e-02
         - -1.2395476809013569e-02
         - -1.2061700886122011e-02
         - 3.4204768992778267e-03
         - 8.2428280877130510e-03
         - -1.2634829191844912e-02
         - 6.7273188246108021e-04
         - -1.3282530690042253e-02
         - 4.8902984987840596e-03
         - -8.9594720228847581e-04
         - 4.2325235520771252e-04
         - 1.5330960397585925e-04
         - -1.1170339927500791e-02
         - 3.4463806367509690e-03
         - 1.2107105131235026e-02
         - 1.0738749768764672e-02
         - 2.3849046452158362e-03
         - 8.7723000849103481e-03
         - -8.1969305472147499e-04
         - 7.5056011340542768e-04
         - -9.5197986734163569e-03
         - -9.5719667621213620e-03
         - 1.0981219198528758e-02
         - -1.0259855447505649e-02
         - -1.2463360057065800e-02
         - 1.6959839073357797e-03
         - 8.9916734939260359e-03
         - 8.0241514048949476e-03
         - -1.0266149785609793e-02
         - 1.3746935356368561e-04
         - -1.3426194969580777e-03
         - 1.5246587511243269e-03
         - 2.2954017180060343e-03
         - -1.7271965083965132e-04
         - -1.0977635335098378e-04
         - -1.2089417667467474e-02
         - 9.0073230378880792e-03
         - -9.3042046917046536e-03
         - -1.4679803363386448e-02
         - 1.3982557740531414e-03
         - 9.7390859126240644e-04
         - -5.8709921033704131e-03
         - 2.0697926527770854e-03
         - -1.2598641630998265e-02
         - 1.0275546095182166e-02
         - -1.0376339328134478e-02
         - 9.8729531261007196e-04
         - -1.0093019603445405e-02
         - -5.6343926922110621e-03
         - -1.7048703811546249e-02
         - -9.9672650917615006e-03
         - -9.6356523214481560e-03
         - -1.2263547634830898e-02
         - 6.7507116955664373e-03
         - 1.2314271434280214e-02
         - -1.4348857599857521e-02
         - -1.9910325074121668e-03
         - -1.2454507455007239e-02
         - 5.6085211394747104e-03
         - 1.2687680581745613e-03
         - 1.6171155682129482e-03
         - 2.5163051188192751e-03
         - -9.4405428329572220e-03
         - 1.4043155799863727e-03
         - 1.7059379859666796e-02
         - 1.1206942808157615e-02
         - 6.4089538879029120e-03
         - 1.3946870377517332e-02
         - -1.0254148204664961e-03
         - 2.1920326734632551e-04
         - -1.4098657536715757e-02
         - -1.3298509761375256e-02
         - 1.3556089485212818e-02
         - -3.9097207915964284e-03
         - -5.7010857998766240e-03
         - -2.2505766568938820e-03
         - 2.6093236855901378e-03
         - 1.3594545430095263e-02
         - -1.4309881038416629e-02
         - -3.3246473144181304e-03
         - -2.2584190386356947e-03
         - 2.5138344215602298e-03
         - 3.2493250615251825e-03
         - -1.1692233057163308e-03
         - 3.2991739551639096e-03
         - -9.8445175372962237e-03
         - 1.3502822705740367e-02
         - -1.0672126360791763e-02
         - -9.5450053596400266e-03
         - 1.4704611430650960e-03
         - 4.1178655370897920e-03
         - -8.9675468935144810e-03
         - 3.5088702856750564e-03
         - -1.8347060459542704e-02
         - 1.6105381958548298e-02
         - -1.0007395444657098e-02
         - 1.8685264470604877e-03
         - -1.0016152416927881e-02
         - -6.2749873024159058e-03
         - -1.2640666824696783e-02
         - -1.4726214819074449e-02
         - -1.3119584596529472e-02
         - -8.9537979065488372e-03
         - 2.8486542712722108e-03
         - 9.4666743101492843e-03
         - -1.0427319238416071e-02
         - -1.7526205029509941e-03
         - -1.0702853385754500e-02
         - 7.6498919099142505e-03
         - 2.0055181154075299e-03
         - 1.6495163470957566e-04
         - 1.3929852862629023e-03
         - -1.5950645604743522e-02
         - 1.8340756745285338e-03
         - 1.0860432024146474e-02
         - 9.9133407453866340e-03
         - 1.2670061440700270e-03
         - 1.0094580920586398e-02
         - 2.9057009703711543e-03
         - -9.7502111505654151e-04
         - -1.0969942633161514e-02
         - -8.8571526125156702e-03
         - 1.1622807268040963e-02
         - -7.9878746866695830e-03
         - -9.4166336247649331e-03
         - 3.0473269696069810e-03
         - 2.3736248145871178e-03
         - 1.1149701313385921e-02
         - -1.0166578119599326e-02
         - 1.2566906475834280e-03
         - -1.7281680415742182e-03
         - 8.6277668403213063e-04
         - -8.7600404120829535e-04
         - 1.7701516728520030e-03
         - -7.8103047274088219e-04
         - -8.3482263997324922e-03
         - 1.2156581070789655e-02
         - -7.2031057083266140e-03
         - -9.3923670097084862e-03
         - 6.4867911923812034e-04
         - 1.4133869685398538e-03
         - -5.1595155132641004e-03
         - 9.4652390735356121e-04
         - -1.3315086071000501e-02
         - 1.0219558236982564e-02
         - -9.0522373517690352e-03
         - -9.3711904667496309e-04
         - -8.5397975316137756e-03
         - -1.2425854203300297e-03
         - -1.2172234390630705e-02
         - -1.2377876577506677e-02
         - -1.0182530003313487e-02
         - -1.0972602383502832e-02
         - 2.9313280355019876e-03
         - 7.7320330612461151e-03
         - -1.0085389159731213e-02
         - -1.5182693990030947e-03
         - -1.1122166589340964e-02
         - 4.1339090112354352e-03
         - -7.7940145960059227e-04
         - -1.7999758209770679e-03
         - 1.3776364284080575e-03
         - -1.1055053529694551e-02
         - -2.9079417373292791e-05
         - 1.1811446635559098e-02
         - 8.3790447813154659e-03
         - 4.1237593940838266e-03
         - 5.1840897374249078e-03
         - 2.3027392517679739e-03
         - 2.4396814003111340e-03
         - -7.5642764435880161e-03
         - -4.3658725858663205e-03
         - 6.8951236759796425e-03
         - -1.3491305843604823e-02
         - -9.1351725338601301e-03
         - 2.3220123502885517e-03
         - 7.3351707753432109e-03
         - 3.6063469644322527e-03
         - -3.7112651598877875e-03
         - 3.4841013357971122e-03
         - 1.5491909113493811e-03
         - -3.2579764278453968e-05
         - -2.5998407138858055e-03
         - -2.8415967542678409e-03
         - 8.0426458313129082e-04
         - -1.3559530450660506e-02
         - 6.3113085658945047e-03
         - -4.8090610431468558e-03
         - -1.5107382990237155e-02
         - 1.2046574111428704e-03
         - -1.4053589382073089e-03
         - -3.6764295201916915e-03
         - 9.6253748332193907e-04
         - -7.3945234102400859e-03
         - 3.8507325148144254e-03
         - -3.3906261915259465e-03
         - 1.7701815051679906e-03
         - -6.5406952484413196e-03
         - 6.2947373261891591e-04
         - -1.4530167335012261e-02
         - -4.8470937629621355e-03
         - -4.9025476061213564e-03
         - -1.5459217053869058e-02
         - 9.2714408195609926e-03
         - 1.4118486529303791e-02
         - -1.2762833697920599e-02
         - -8.5113464811825701e-04
         - -1.1266263447749820e-02
         - 1.8964516257168179e-03
         - 4.0887640101775790e-06
         - 2.9107240138432575e-04
         - 6.7848969945607110e-03
         - -3.3084160983360097e-03
         - 1.1863224745730203e-03
         - 1.4456739726875740e-02
         - 6.5765557136765749e-03
         - 7.9549062024154189e-03
         - 5.0527150350598172e-03
         - 4.0388445658944908e-03
         - 2.1976444194580962e-03
         - -7.0061818814998620e-03
         - -5.4707450576104866e-03
         - 4.9213386604286050e-03
         - -1.0357254479551116e-02
         - -7.0405107615816986e-03
         - 3.4131085063558511e-03
         - 1.2138879045377889e-02
         - 5.4244099343273471e-03
         - -4.2290785553627261e-03
         - 4.1815443970870192e-03
         - -1.2807905275375009e-04
         - 3.0188201985581573e-04
         - -2.2179752188565913e-03
         - 7.3381986593360003e-04
         - -5.2657832375650943e-04
         - -1.3047170741442659e-02
         - 6.3653031884054389e-03
         - -3.8441343849339241e-03
         - -1.6744713714348842e-02
         - 8.6490461672767500e-04
         - -2.4533262392293187e-03
         - -4.1223846707613768e-03
         - -2.5306724756836859e-03
         - -8.4749454211836064e-03
         - 6.5363048137393742e-03
         - -4.6439919997157009e-03
         - -9.1474305176764516e-04
         - -4.9131002753034416e-03
         - 1.2263277979027009e-03
         - -1.4624072198971671e-02
         - -8.2616746249162924e-03
         - -6.0686408661289187e-03
         - -1.0525208663050718e-02
         - 9.9041562680824233e-03
         - 1.2649613132510088e-02
         - -1.2913294535303883e-02
         - -9.9185357927721973e-04
         - -1.0491329411245176e-02
         - -9.6376627463281854e-05
         - 1.0719345241209141e-03
         - -1.6197937287130892e-03
         - 8.4097803596822566e-03
         - -4.4826404508943795e-03
         - -2.5541592779862749e-03
         - 1.1480470346332643e-02
         - 5.4285824228061568e-03
         - 6.6385766214951854e-03
         - 9.3324833611610411e-03
         - 4.6823396070898597e-04
         - -1.1196317951543717e-04
         - -9.9650820924335280e-03
         - -8.0905790652492978e-03
         - 8.2155544604932285e-03
         - -8.0039750349399728e-03
         - -3.2601705189644926e-03
         - 4.0976888736427401e-03
         - 9.5364683936554583e-03
         - 9.4364610899387805e-03
         - -9.1451429716960814e-03
         - 3.7373120301321689e-03
         - -8.8864587123995786e-04
         - 5.3215120383161242e-04
         - 1.0127121208062958e-03
         - -1.6702466320765257e-03
         - 1.2763168599485332e-03
         - -1.3239657580722448e-02
         - 8.3169352533988064e-03
         - -9.6301009519663035e-03
         - -1.5052030622032159e-02
         - -3.1770038663475803e-04
         - 2.3095655996412490e-03
         - -2.9592280110184136e-03
         - -8.4583513309864839e-04
         - -9.6372538414115881e-03
         - 9.0768086459989440e-03
         - -6.1083040147923628e-03
         - 1.8994537257439785e-03
         - -6.8044217298396199e-03
         - -2.1885714905062062e-03
         - -5.8605221706999229e-03
         - -1.1215876678082203e-02
         - -8.6838200432674730e-03
         - -1.1031291054790065e-02
         - 1.0744200452313698e-02
         - 1.1344600957221077e-02
         - -7.4681939995259565e-03
         - -6.2490275285353655e-04
         - -4.6073440667988843e-03
         - 2.3784434126245366e-03
         - -3.2039003248056402e-04
         - 1.4490063419800364e-03
         - 5.1284263817364889e-03
         - -8.5019023839826100e-03
         - 1.6984173075965058e-03
         - 5.2350460778768683e-03
         - 7.6122005961042514e-03
         - 4.3100260381901531e-03
         - 4.5646098458234250e-03
         - 3.5683580750096181e-03
