%YAML:1.0
---
opencv_ml_ann_mlp:
   format: 3
   layer_sizes: [ 1024, 50, 2 ]
   activation_function: SIGMOID_SYM
   f_param1: 6.6666666666666663e-01
   f_param2: 1.7159000000000000e+00
   min_val: -9.4999999999999996e-01
   max_val: 9.4999999999999996e-01
   min_val1: -9.7999999999999998e-01
   max_val1: 9.7999999999999998e-01
   training_params:
      train_method: BACKPROP
      dw_scale: 1.0000000000000000e-03
      moment_scale: 0.
      term_criteria:
         epsilon: 1.0000000000000001e-01
         iterations: 100
   input_scale:
      - 2.6505670969332291e+00
      - -1.5145151055418771e+00
      - 2.6449139409106568e+00
      - -1.5183361834731612e+00
      - 2.6356392274370575e+00
      - -1.5125093819811619e+00
      - 2.6289371538261408e+00
      - -1.5104717857769350e+00
      - 2.6224100027540302e+00
      - -1.5161979698802937e+00
      - 2.6169190840379026e+00
      - -1.5185545360363564e+00
      - 2.6084644213669392e+00
      - -1.5193001272496951e+00
      - 2.6030937818200170e+00
      - -1.5226587188038214e+00
      - 2.5973628727821199e+00
      - -1.5229431622830707e+00
      - 2.6065483695989604e+00
      - -1.5336714834516276e+00
      - 2.6053736785010133e+00
      - -1.5330420279933727e+00
      - 2.6107831402178068e+00
      - -1.5358410306862029e+00
      - 2.6060394805154670e+00
      - -1.5348099124982315e+00
      - 2.6024172976604554e+00
      - -1.5293908392870164e+00
      - 2.6010144500892438e+00
      - -1.5270128731620800e+00
      - 2.6040011645682632e+00
      - -1.5263925284784401e+00
      - 2.5970440678560900e+00
      - -1.5190335150634549e+00
      - 2.5918655750540434e+00
      - -1.5166985452341086e+00
      - 2.6032154154903338e+00
      - -1.5274198624428139e+00
      - 2.6111462421733833e+00
      - -1.5244591503035740e+00
      - 2.6100894620924664e+00
      - -1.5162423171027339e+00
      - 2.6114777127493407e+00
      - -1.5127864460922185e+00
      - 2.6158576645780744e+00
      - -1.5064079732570792e+00
      - 2.6239199386525600e+00
      - -1.5091711381878921e+00
      - 2.6298918643231532e+00
      - -1.5078625445178753e+00
      - 2.6401822526839185e+00
      - -1.5067244520833893e+00
      - 2.6436391354038591e+00
      - -1.5028692151462162e+00
      - 2.6474552204942707e+00
      - -1.4998493113954388e+00
      - 2.6533726352965865e+00
      - -1.4923224740976333e+00
      - 2.6652970350056560e+00
      - -1.4870638200902286e+00
      - 2.6790846546347473e+00
      - -1.4861970670475761e+00
      - 2.6792278823642435e+00
      - -1.4771488836480031e+00
      - 2.6497766574992405e+00
      - -1.5179538709454858e+00
      - 2.6426224999633749e+00
      - -1.5209218518342549e+00
      - 2.6368397876908816e+00
      - -1.5198954074189006e+00
      - 2.6296476416514079e+00
      - -1.5179148741987760e+00
      - 2.6191365053850744e+00
      - -1.5202995465067688e+00
      - 2.6127576050715784e+00
      - -1.5210537680644867e+00
      - 2.6077617497216647e+00
      - -1.5256032997882132e+00
      - 2.6096155289397589e+00
      - -1.5300072892943883e+00
      - 2.6019958028277155e+00
      - -1.5249975795518655e+00
      - 2.5990260177821134e+00
      - -1.5305874108201982e+00
      - 2.6058965984933211e+00
      - -1.5402352157147374e+00
      - 2.6126987653563969e+00
      - -1.5464630355622069e+00
      - 2.6089397790825917e+00
      - -1.5440984748488511e+00
      - 2.6023283372553645e+00
      - -1.5356778241018174e+00
      - 2.5990155498234029e+00
      - -1.5323143139720434e+00
      - 2.5971157349795910e+00
      - -1.5309294874110371e+00
      - 2.6011721706665973e+00
      - -1.5296408894055893e+00
      - 2.5967482113837606e+00
      - -1.5238062855004040e+00
      - 2.6050863784178553e+00
      - -1.5274181718560618e+00
      - 2.6146435987069769e+00
      - -1.5269018421512390e+00
      - 2.6152073632002750e+00
      - -1.5216622660237373e+00
      - 2.6177332324317719e+00
      - -1.5192909358603663e+00
      - 2.6169656617014150e+00
      - -1.5119542167222515e+00
      - 2.6201482953764113e+00
      - -1.5094987065395598e+00
      - 2.6315766616650902e+00
      - -1.5116933854426899e+00
      - 2.6352210951127821e+00
      - -1.5071501508518126e+00
      - 2.6407932143711821e+00
      - -1.5059978830850016e+00
      - 2.6426834569548809e+00
      - -1.5029326072685458e+00
      - 2.6527257290944819e+00
      - -1.4980673731440368e+00
      - 2.6648734753018988e+00
      - -1.4911967954955632e+00
      - 2.6759350733749163e+00
      - -1.4881909692399797e+00
      - 2.6755407472763593e+00
      - -1.4771234207430244e+00
      - 2.6452831294454247e+00
      - -1.5125827235755209e+00
      - 2.6396167968671902e+00
      - -1.5216658767668849e+00
      - 2.6329479512636982e+00
      - -1.5256913439176596e+00
      - 2.6288855949797125e+00
      - -1.5286948998597591e+00
      - 2.6230840688189740e+00
      - -1.5313930029760090e+00
      - 2.6162476152163752e+00
      - -1.5307684082933084e+00
      - 2.6119478520103026e+00
      - -1.5352093673050098e+00
      - 2.6140086253513211e+00
      - -1.5372982661609409e+00
      - 2.6070748452450356e+00
      - -1.5320068291306128e+00
      - 2.6022243599942425e+00
      - -1.5369326011810145e+00
      - 2.6099480055371242e+00
      - -1.5503335651432943e+00
      - 2.6116179911927699e+00
      - -1.5507422698963693e+00
      - 2.6052480056229177e+00
      - -1.5468467592182538e+00
      - 2.6050605536869811e+00
      - -1.5436318789799990e+00
      - 2.5967444888607591e+00
      - -1.5383930894409306e+00
      - 2.5955852735355163e+00
      - -1.5411120376522369e+00
      - 2.6002553283326497e+00
      - -1.5392421854240035e+00
      - 2.6041184521931147e+00
      - -1.5361223177250471e+00
      - 2.6052976448558249e+00
      - -1.5305530255455229e+00
      - 2.6100062927629826e+00
      - -1.5285305845308297e+00
      - 2.6173138680685657e+00
      - -1.5295263202324059e+00
      - 2.6198676363501661e+00
      - -1.5244673254027727e+00
      - 2.6171999998085043e+00
      - -1.5197870161935043e+00
      - 2.6227678699983965e+00
      - -1.5194252686886642e+00
      - 2.6340872309953474e+00
      - -1.5179621844872937e+00
      - 2.6341895796809456e+00
      - -1.5133112183490949e+00
      - 2.6369298356344757e+00
      - -1.5108523345773319e+00
      - 2.6466499898781262e+00
      - -1.5075602689230576e+00
      - 2.6507346127942757e+00
      - -1.5005131894984713e+00
      - 2.6669908998260330e+00
      - -1.4973891005654885e+00
      - 2.6706763731414624e+00
      - -1.4902541382643482e+00
      - 2.6750360047280326e+00
      - -1.4797064601415995e+00
      - 2.6488732336032750e+00
      - -1.5165966517598457e+00
      - 2.6341190998515018e+00
      - -1.5190844646292674e+00
      - 2.6342020388003884e+00
      - -1.5294935405263250e+00
      - 2.6298549232937232e+00
      - -1.5353503243658606e+00
      - 2.6253485451745866e+00
      - -1.5359227835169058e+00
      - 2.6184699609799438e+00
      - -1.5364516921980054e+00
      - 2.6161102112122756e+00
      - -1.5441148349629612e+00
      - 2.6137438152069614e+00
      - -1.5450619354527153e+00
      - 2.6088270363086234e+00
      - -1.5422067042519669e+00
      - 2.6065235640747959e+00
      - -1.5487121739542340e+00
      - 2.6033512980331444e+00
      - -1.5498394415475889e+00
      - 2.6063565766444836e+00
      - -1.5494168124519505e+00
      - 2.6062025208098052e+00
      - -1.5497827918349019e+00
      - 2.6014107894695400e+00
      - -1.5470715408505957e+00
      - 2.5944567870963255e+00
      - -1.5447511068234039e+00
      - 2.5971212978339899e+00
      - -1.5494648716136867e+00
      - 2.6018050924256899e+00
      - -1.5482256675330999e+00
      - 2.6022852369847471e+00
      - -1.5419680719095847e+00
      - 2.6042078373066522e+00
      - -1.5389086228521045e+00
      - 2.6116110106973505e+00
      - -1.5369328516736194e+00
      - 2.6178253158240699e+00
      - -1.5347361439517349e+00
      - 2.6194904759009021e+00
      - -1.5292497187669540e+00
      - 2.6140940625238298e+00
      - -1.5234812531247539e+00
      - 2.6229506201091555e+00
      - -1.5258945187746971e+00
      - 2.6284105349644835e+00
      - -1.5221835406372586e+00
      - 2.6300542748433124e+00
      - -1.5203016231506465e+00
      - 2.6343988936069667e+00
      - -1.5172781411441660e+00
      - 2.6397915837550792e+00
      - -1.5071315657778406e+00
      - 2.6476870444949787e+00
      - -1.5031295438567585e+00
      - 2.6611514180031057e+00
      - -1.5031628772411363e+00
      - 2.6612346894549588e+00
      - -1.4931174498785598e+00
      - 2.6688621396219459e+00
      - -1.4829166384476458e+00
      - 2.6437305950175296e+00
      - -1.5175496713352323e+00
      - 2.6347648191028914e+00
      - -1.5206628561218689e+00
      - 2.6301620229159708e+00
      - -1.5268906660991737e+00
      - 2.6325108474695402e+00
      - -1.5370174576081654e+00
      - 2.6259602254230949e+00
      - -1.5375990323163722e+00
      - 2.6206283270631361e+00
      - -1.5398499097923071e+00
      - 2.6166602322470700e+00
      - -1.5445238779712573e+00
      - 2.6129987142603310e+00
      - -1.5474011720600669e+00
      - 2.6044365539586920e+00
      - -1.5444196104514440e+00
      - 2.6031521561602622e+00
      - -1.5514139951862065e+00
      - 2.6022472111488688e+00
      - -1.5516577896443298e+00
      - 2.6012585675706723e+00
      - -1.5478211801950035e+00
      - 2.6018113495133712e+00
      - -1.5480897930446218e+00
      - 2.5979107560385786e+00
      - -1.5481704594970311e+00
      - 2.5974181607125031e+00
      - -1.5523186423310915e+00
      - 2.6040820437457288e+00
      - -1.5578360872537209e+00
      - 2.6014419124800114e+00
      - -1.5518668511575531e+00
      - 2.6003298721604384e+00
      - -1.5458339548248841e+00
      - 2.6079773692097588e+00
      - -1.5462737651635281e+00
      - 2.6117343230805448e+00
      - -1.5436147942488192e+00
      - 2.6187438515361214e+00
      - -1.5399652499891716e+00
      - 2.6198203360565397e+00
      - -1.5366525391540546e+00
      - 2.6231050711367270e+00
      - -1.5350251057310074e+00
      - 2.6243709278131218e+00
      - -1.5287850553461904e+00
      - 2.6212481792012676e+00
      - -1.5223412791105313e+00
      - 2.6270232524425037e+00
      - -1.5213675555961266e+00
      - 2.6286120415716470e+00
      - -1.5158162311355612e+00
      - 2.6343305818043135e+00
      - -1.5089277743535674e+00
      - 2.6453593074415247e+00
      - -1.5044565235274114e+00
      - 2.6533497370747461e+00
      - -1.5005843849164806e+00
      - 2.6559866055021604e+00
      - -1.4928540600845523e+00
      - 2.6636402273370536e+00
      - -1.4850364035651640e+00
      - 2.6413929319386544e+00
      - -1.5164910094398782e+00
      - 2.6416918571658030e+00
      - -1.5255258143959038e+00
      - 2.6338479842235958e+00
      - -1.5299489654853529e+00
      - 2.6321695014972861e+00
      - -1.5369896470308155e+00
      - 2.6217970351465989e+00
      - -1.5377009098355161e+00
      - 2.6168323760947678e+00
      - -1.5407780733072336e+00
      - 2.6194943967102908e+00
      - -1.5482158499563996e+00
      - 2.6166140608479118e+00
      - -1.5512213457317969e+00
      - 2.6069311676021907e+00
      - -1.5502137371734730e+00
      - 2.6028996223875405e+00
      - -1.5545843411667297e+00
      - 2.6002254468830741e+00
      - -1.5557614124698891e+00
      - 2.6035750211630413e+00
      - -1.5550978982457144e+00
      - 2.6034220679446105e+00
      - -1.5568879202929680e+00
      - 2.5981597617903143e+00
      - -1.5556585780818324e+00
      - 2.5974678891259559e+00
      - -1.5596897585504621e+00
      - 2.5994891914463745e+00
      - -1.5604426686076551e+00
      - 2.5967044931536609e+00
      - -1.5538071731683030e+00
      - 2.6014206592005280e+00
      - -1.5510892533103069e+00
      - 2.6114308889292062e+00
      - -1.5544596271755684e+00
      - 2.6135512559202345e+00
      - -1.5505923540128250e+00
      - 2.6149600322116036e+00
      - -1.5459052511275666e+00
      - 2.6194807289564470e+00
      - -1.5445927754138555e+00
      - 2.6206636827068843e+00
      - -1.5393319444939366e+00
      - 2.6241222866837202e+00
      - -1.5312358804570434e+00
      - 2.6259402179054949e+00
      - -1.5291706330719368e+00
      - 2.6286060345367326e+00
      - -1.5257588052999580e+00
      - 2.6251191402135325e+00
      - -1.5158663747407677e+00
      - 2.6319270247214162e+00
      - -1.5095104340832963e+00
      - 2.6452298688598539e+00
      - -1.5076108167756108e+00
      - 2.6490567671887031e+00
      - -1.4972062130932813e+00
      - 2.6579713797865177e+00
      - -1.4961562369190717e+00
      - 2.6637582583168946e+00
      - -1.4914057066767996e+00
      - 2.6471599843816986e+00
      - -1.5198538109890052e+00
      - 2.6389697807473307e+00
      - -1.5234509047369342e+00
      - 2.6359294215087021e+00
      - -1.5329081139909018e+00
      - 2.6306605359540538e+00
      - -1.5378541771612422e+00
      - 2.6228511176715510e+00
      - -1.5410039962518109e+00
      - 2.6202688632276399e+00
      - -1.5458855508781959e+00
      - 2.6172046585296656e+00
      - -1.5481040020260213e+00
      - 2.6159175539769417e+00
      - -1.5533682821077290e+00
      - 2.6126097854906400e+00
      - -1.5550691342372565e+00
      - 2.6095788347186555e+00
      - -1.5599349346089766e+00
      - 2.6024096793778746e+00
      - -1.5594644908162982e+00
      - 2.6039144251244837e+00
      - -1.5602035605393529e+00
      - 2.6006412946119113e+00
      - -1.5623135923841016e+00
      - 2.5980937570346017e+00
      - -1.5616220159492971e+00
      - 2.5908854250998878e+00
      - -1.5591489746697968e+00
      - 2.5943825817152288e+00
      - -1.5573695265486409e+00
      - 2.5960848628345490e+00
      - -1.5553317211710365e+00
      - 2.6039334125593561e+00
      - -1.5553274288484658e+00
      - 2.6120264476370880e+00
      - -1.5595481555772230e+00
      - 2.6150562342723460e+00
      - -1.5594908863093553e+00
      - 2.6155571339436441e+00
      - -1.5545956124011033e+00
      - 2.6178396947671514e+00
      - -1.5489960152435667e+00
      - 2.6188891884142529e+00
      - -1.5397378195374021e+00
      - 2.6256385722428988e+00
      - -1.5370149391736638e+00
      - 2.6249430836803058e+00
      - -1.5330705295619846e+00
      - 2.6304055755076146e+00
      - -1.5316611847203412e+00
      - 2.6290694099919865e+00
      - -1.5210345745457887e+00
      - 2.6344531432819771e+00
      - -1.5131346369185144e+00
      - 2.6406831040375791e+00
      - -1.5075242536324458e+00
      - 2.6495557027797174e+00
      - -1.5021448367709318e+00
      - 2.6574721256398552e+00
      - -1.4988879725474598e+00
      - 2.6668091531515961e+00
      - -1.4971201573934780e+00
      - 2.6463841467976765e+00
      - -1.5233106854553047e+00
      - 2.6402244520311804e+00
      - -1.5268086629457140e+00
      - 2.6325918065148639e+00
      - -1.5311113226515518e+00
      - 2.6267304367543547e+00
      - -1.5340965233197326e+00
      - 2.6199962122315301e+00
      - -1.5415771597597898e+00
      - 2.6287560643008328e+00
      - -1.5548225468265484e+00
      - 2.6191050261655424e+00
      - -1.5503951970244689e+00
      - 2.6152863631325287e+00
      - -1.5540850663144896e+00
      - 2.6172238506847454e+00
      - -1.5607791337730199e+00
      - 2.6106057345087352e+00
      - -1.5633204747323068e+00
      - 2.6030579351276577e+00
      - -1.5619769668786339e+00
      - 2.6031733660684262e+00
      - -1.5644344369878582e+00
      - 2.5991204719356569e+00
      - -1.5676994471191650e+00
      - 2.5964430391383049e+00
      - -1.5681936567493588e+00
      - 2.5877161065028234e+00
      - -1.5624617059938095e+00
      - 2.5926573295557720e+00
      - -1.5616551325645072e+00
      - 2.5989169744569329e+00
      - -1.5609131690423346e+00
      - 2.5989956389886051e+00
      - -1.5579968661004688e+00
      - 2.6087359597886750e+00
      - -1.5640790163003822e+00
      - 2.6153545079594065e+00
      - -1.5651718239326418e+00
      - 2.6131566810741034e+00
      - -1.5581953640235280e+00
      - 2.6123745152567230e+00
      - -1.5487521335723293e+00
      - 2.6183065256807518e+00
      - -1.5437689005459847e+00
      - 2.6286074081459416e+00
      - -1.5444775424186412e+00
      - 2.6276082558523055e+00
      - -1.5361063101999581e+00
      - 2.6296440046076621e+00
      - -1.5313364921647072e+00
      - 2.6250032478923915e+00
      - -1.5235273261447524e+00
      - 2.6288951092548078e+00
      - -1.5146903714883608e+00
      - 2.6390138371679699e+00
      - -1.5101547064346630e+00
      - 2.6447832951271524e+00
      - -1.5018412993188262e+00
      - 2.6556559253432908e+00
      - -1.4994956384626328e+00
      - 2.6671631768266209e+00
      - -1.4974831462805271e+00
      - 2.6463351485658286e+00
      - -1.5266183187055506e+00
      - 2.6412209456646982e+00
      - -1.5298059744753887e+00
      - 2.6292934020539098e+00
      - -1.5307200882482173e+00
      - 2.6209426198693544e+00
      - -1.5324098739052763e+00
      - 2.6180196075465529e+00
      - -1.5415010909255551e+00
      - 2.6187732730769033e+00
      - -1.5517509218829477e+00
      - 2.6168418207401785e+00
      - -1.5512183853126094e+00
      - 2.6095008080748685e+00
      - -1.5531606819980168e+00
      - 2.6130101615417063e+00
      - -1.5634470033042056e+00
      - 2.6115549500752322e+00
      - -1.5667285487070641e+00
      - 2.6027832762881071e+00
      - -1.5662221541471788e+00
      - 2.6028833786977694e+00
      - -1.5716677108341033e+00
      - 2.5901722509201153e+00
      - -1.5699681323970684e+00
      - 2.5906941647882729e+00
      - -1.5726094632052117e+00
      - 2.5860026258629429e+00
      - -1.5657078152503965e+00
      - 2.5883490545287855e+00
      - -1.5620899516707669e+00
      - 2.5954057592205397e+00
      - -1.5633261769701874e+00
      - 2.5975025810572259e+00
      - -1.5632011963555432e+00
      - 2.5987858168705591e+00
      - -1.5605906822184998e+00
      - 2.6086180307317788e+00
      - -1.5659904291153319e+00
      - 2.6069183917195922e+00
      - -1.5614826414332177e+00
      - 2.6127987106274015e+00
      - -1.5551701049570752e+00
      - 2.6164948290116974e+00
      - -1.5506407271596820e+00
      - 2.6229202986470228e+00
      - -1.5455327857247052e+00
      - 2.6262289862471460e+00
      - -1.5348039946454062e+00
      - 2.6287045053392464e+00
      - -1.5314603151182105e+00
      - 2.6250768017347390e+00
      - -1.5259703917726946e+00
      - 2.6264128127113069e+00
      - -1.5138456523576644e+00
      - 2.6392599350092016e+00
      - -1.5109745254761018e+00
      - 2.6451069688363047e+00
      - -1.5028568693379638e+00
      - 2.6521664944282679e+00
      - -1.4993974031282791e+00
      - 2.6637989003722446e+00
      - -1.5017576796849452e+00
      - 2.6419983909117790e+00
      - -1.5274067062251078e+00
      - 2.6372317738854605e+00
      - -1.5300831602485017e+00
      - 2.6281766466071934e+00
      - -1.5322653509915172e+00
      - 2.6211226804248136e+00
      - -1.5379597045116100e+00
      - 2.6148055361444165e+00
      - -1.5412791194258819e+00
      - 2.6151060983372560e+00
      - -1.5473434153767596e+00
      - 2.6155918611642832e+00
      - -1.5529601805380135e+00
      - 2.6045796032200652e+00
      - -1.5548589982084218e+00
      - 2.6063569770413548e+00
      - -1.5607527596767112e+00
      - 2.6055239206312142e+00
      - -1.5672834501157960e+00
      - 2.6047448798045996e+00
      - -1.5735270191785282e+00
      - 2.5973080357917642e+00
      - -1.5736706689312219e+00
      - 2.5877992522178159e+00
      - -1.5728947392840906e+00
      - 2.5879217878570704e+00
      - -1.5756383224792530e+00
      - 2.5840068558419373e+00
      - -1.5703006555919103e+00
      - 2.5859361735088098e+00
      - -1.5667639927028718e+00
      - 2.5921225013073923e+00
      - -1.5693763685289801e+00
      - 2.5892589262495007e+00
      - -1.5651749404366608e+00
      - 2.5922063995969924e+00
      - -1.5600051858107378e+00
      - 2.6014880624247434e+00
      - -1.5657724896503755e+00
      - 2.6001560671568655e+00
      - -1.5626621449198708e+00
      - 2.6084702522242682e+00
      - -1.5568158553418368e+00
      - 2.6120587265501478e+00
      - -1.5507360942249584e+00
      - 2.6185104545302393e+00
      - -1.5458239930212168e+00
      - 2.6248011950119250e+00
      - -1.5397521618414574e+00
      - 2.6301886812028035e+00
      - -1.5340734230350666e+00
      - 2.6302265734100958e+00
      - -1.5293579307993614e+00
      - 2.6331727682490769e+00
      - -1.5165678612430591e+00
      - 2.6381463656070077e+00
      - -1.5106194812719722e+00
      - 2.6437594085733593e+00
      - -1.5044890439549692e+00
      - 2.6535358379764702e+00
      - -1.5036020641883587e+00
      - 2.6656823847929663e+00
      - -1.5038955977490551e+00
      - 2.6419060780922123e+00
      - -1.5305519653498214e+00
      - 2.6358941191436136e+00
      - -1.5324654464190963e+00
      - 2.6272319168462883e+00
      - -1.5338348467141103e+00
      - 2.6221890763882234e+00
      - -1.5401862916020224e+00
      - 2.6193042557656070e+00
      - -1.5451281177890446e+00
      - 2.6151392254571277e+00
      - -1.5494104216797726e+00
      - 2.6107879080076501e+00
      - -1.5516306556695632e+00
      - 2.5984108731469204e+00
      - -1.5497873420003818e+00
      - 2.5970948677439267e+00
      - -1.5535849689323673e+00
      - 2.5947604042229924e+00
      - -1.5614908178055704e+00
      - 2.5978913934904710e+00
      - -1.5703915134555964e+00
      - 2.5896767985737719e+00
      - -1.5703751667510450e+00
      - 2.5837465235031365e+00
      - -1.5712102311069265e+00
      - 2.5832484475831756e+00
      - -1.5740445559927421e+00
      - 2.5836516380285812e+00
      - -1.5765673386134882e+00
      - 2.5843804149232499e+00
      - -1.5740398706066596e+00
      - 2.5827248706252370e+00
      - -1.5725179517326628e+00
      - 2.5848418965181748e+00
      - -1.5703172480860432e+00
      - 2.5924194846715709e+00
      - -1.5659055113891873e+00
      - 2.5948154466788931e+00
      - -1.5640705894723759e+00
      - 2.5942581227262194e+00
      - -1.5612745030991464e+00
      - 2.6047806689472042e+00
      - -1.5602771821758536e+00
      - 2.6155403153139867e+00
      - -1.5578929132208246e+00
      - 2.6183956367546273e+00
      - -1.5510528133828341e+00
      - 2.6228424733273541e+00
      - -1.5457587815043632e+00
      - 2.6272199270536216e+00
      - -1.5351143098555751e+00
      - 2.6266043732257782e+00
      - -1.5269653613264902e+00
      - 2.6320893286136871e+00
      - -1.5198428892372566e+00
      - 2.6361617768525196e+00
      - -1.5127796863168790e+00
      - 2.6413474154156376e+00
      - -1.5063165721367218e+00
      - 2.6501764343494751e+00
      - -1.5035302728741049e+00
      - 2.6588531103936557e+00
      - -1.5001693781646841e+00
      - 2.6438463661927867e+00
      - -1.5339752013879362e+00
      - 2.6402384270852255e+00
      - -1.5371801675650418e+00
      - 2.6306273131197591e+00
      - -1.5365854112406352e+00
      - 2.6242886163668739e+00
      - -1.5358715356871571e+00
      - 2.6212412437036900e+00
      - -1.5443678669141874e+00
      - 2.6177846711727395e+00
      - -1.5528110576729308e+00
      - 2.6040152732360005e+00
      - -1.5485176020697058e+00
      - 2.5974635246792537e+00
      - -1.5495154276591903e+00
      - 2.6005319280604677e+00
      - -1.5546286101907991e+00
      - 2.5915987836011283e+00
      - -1.5564250900677465e+00
      - 2.5906823132612558e+00
      - -1.5638667824420891e+00
      - 2.5848682521228805e+00
      - -1.5673612627177389e+00
      - 2.5819787783650350e+00
      - -1.5707266354622007e+00
      - 2.5871571984506643e+00
      - -1.5776766550364876e+00
      - 2.5836231922955881e+00
      - -1.5791639149334269e+00
      - 2.5779093975906049e+00
      - -1.5764405570805520e+00
      - 2.5784275794839839e+00
      - -1.5755858837229721e+00
      - 2.5813487900092693e+00
      - -1.5706280617982724e+00
      - 2.5879957506738887e+00
      - -1.5674254259767277e+00
      - 2.5911093233450249e+00
      - -1.5653267331704275e+00
      - 2.5946457778786050e+00
      - -1.5651212512034347e+00
      - 2.6006582886516907e+00
      - -1.5639392281769910e+00
      - 2.6071903748022809e+00
      - -1.5559624922304958e+00
      - 2.6145041713765038e+00
      - -1.5500474356895670e+00
      - 2.6211700979158086e+00
      - -1.5474777969463713e+00
      - 2.6234676573443667e+00
      - -1.5385861588000103e+00
      - 2.6226405518038156e+00
      - -1.5251219010444306e+00
      - 2.6298437741022558e+00
      - -1.5202279896968740e+00
      - 2.6324528958024120e+00
      - -1.5133777327181688e+00
      - 2.6416465660674731e+00
      - -1.5091757053909518e+00
      - 2.6476870664723271e+00
      - -1.5042351614569056e+00
      - 2.6551150640189576e+00
      - -1.5023122646675073e+00
      - 2.6419683756308490e+00
      - -1.5325997429703477e+00
      - 2.6390103823381064e+00
      - -1.5359532740828545e+00
      - 2.6301734918653525e+00
      - -1.5373235239916865e+00
      - 2.6278859190321140e+00
      - -1.5407469541668732e+00
      - 2.6212285617156863e+00
      - -1.5435546116574008e+00
      - 2.6169692276866585e+00
      - -1.5501075382175580e+00
      - 2.6038161824894543e+00
      - -1.5473273894205564e+00
      - 2.5965088592909589e+00
      - -1.5507507815009567e+00
      - 2.5995504154588205e+00
      - -1.5549036353690679e+00
      - 2.5940986272659656e+00
      - -1.5565559083680081e+00
      - 2.5860756648644165e+00
      - -1.5598057345439909e+00
      - 2.5845504624551294e+00
      - -1.5677330526326638e+00
      - 2.5828448634915677e+00
      - -1.5744112529102761e+00
      - 2.5838347710216776e+00
      - -1.5804909040089681e+00
      - 2.5739906999019140e+00
      - -1.5765975094138953e+00
      - 2.5692685456068625e+00
      - -1.5721924420097408e+00
      - 2.5749043135672416e+00
      - -1.5732089569001977e+00
      - 2.5783867646074774e+00
      - -1.5692406603911906e+00
      - 2.5866545483188359e+00
      - -1.5697512242800951e+00
      - 2.5825273907504962e+00
      - -1.5622309287231575e+00
      - 2.5879210382436320e+00
      - -1.5636038337431175e+00
      - 2.5969758592372592e+00
      - -1.5618444778175744e+00
      - 2.6085861709633069e+00
      - -1.5583048301592066e+00
      - 2.6122711446544140e+00
      - -1.5506175638754758e+00
      - 2.6144830503741674e+00
      - -1.5427779284533909e+00
      - 2.6212353645379731e+00
      - -1.5371344966366005e+00
      - 2.6222945181493467e+00
      - -1.5268630136949042e+00
      - 2.6242343245910353e+00
      - -1.5181276764465490e+00
      - 2.6293389932159763e+00
      - -1.5118576768566789e+00
      - 2.6416732342731013e+00
      - -1.5112322513387089e+00
      - 2.6459050690750523e+00
      - -1.5046672144021287e+00
      - 2.6547662312124158e+00
      - -1.5057104167252309e+00
      - 2.6413076203720336e+00
      - -1.5303735022353551e+00
      - 2.6380878527161449e+00
      - -1.5359761537547698e+00
      - 2.6363815457504094e+00
      - -1.5398584716995107e+00
      - 2.6337799017709527e+00
      - -1.5450927594537311e+00
      - 2.6208334139468552e+00
      - -1.5436749424537792e+00
      - 2.6146220081720832e+00
      - -1.5484112482961929e+00
      - 2.6102145847637952e+00
      - -1.5509813557128755e+00
      - 2.5994257446888023e+00
      - -1.5502276823346595e+00
      - 2.5931814993920055e+00
      - -1.5488140666310397e+00
      - 2.5910219679161908e+00
      - -1.5534169390330061e+00
      - 2.5827427180806142e+00
      - -1.5571186760773370e+00
      - 2.5868925421930697e+00
      - -1.5679479244114580e+00
      - 2.5826572454243473e+00
      - -1.5750194623372427e+00
      - 2.5759638352611867e+00
      - -1.5793701289750797e+00
      - 2.5699049484721463e+00
      - -1.5774636717582471e+00
      - 2.5709864184414686e+00
      - -1.5747181313168797e+00
      - 2.5732759568700931e+00
      - -1.5732449715516033e+00
      - 2.5782032264693284e+00
      - -1.5739792160742414e+00
      - 2.5853104490142753e+00
      - -1.5723966084939407e+00
      - 2.5795236353648319e+00
      - -1.5646637396945851e+00
      - 2.5809305899086272e+00
      - -1.5606558037816016e+00
      - 2.5950145155263034e+00
      - -1.5631736681159794e+00
      - 2.6022716300518494e+00
      - -1.5576325067492944e+00
      - 2.6100300840659298e+00
      - -1.5526414157926387e+00
      - 2.6139909419919372e+00
      - -1.5430121542054598e+00
      - 2.6154405262657372e+00
      - -1.5332186128952354e+00
      - 2.6190624195850032e+00
      - -1.5231290893187992e+00
      - 2.6235113686628528e+00
      - -1.5148817818491374e+00
      - 2.6294953329816835e+00
      - -1.5123734759569090e+00
      - 2.6365999902244850e+00
      - -1.5101076975254577e+00
      - 2.6464750484552431e+00
      - -1.5083232593420808e+00
      - 2.6560189240013123e+00
      - -1.5089486076442420e+00
      - 2.6378789039503570e+00
      - -1.5247538222295094e+00
      - 2.6393290037734101e+00
      - -1.5351754971354861e+00
      - 2.6369569118196314e+00
      - -1.5387392135268083e+00
      - 2.6278482862829828e+00
      - -1.5382119234082081e+00
      - 2.6210555496571937e+00
      - -1.5396904264290256e+00
      - 2.6145168796396585e+00
      - -1.5473933211540538e+00
      - 2.6138571579744974e+00
      - -1.5544081003748440e+00
      - 2.6066432876739292e+00
      - -1.5537722319646141e+00
      - 2.5957019211363690e+00
      - -1.5483017425145540e+00
      - 2.5901848593986299e+00
      - -1.5509060287003447e+00
      - 2.5840645418983148e+00
      - -1.5558829623135941e+00
      - 2.5830946011092712e+00
      - -1.5646473946624337e+00
      - 2.5786929861855747e+00
      - -1.5696765054515831e+00
      - 2.5702183730694310e+00
      - -1.5707634842599378e+00
      - 2.5705997695988532e+00
      - -1.5758275563563089e+00
      - 2.5747802323468458e+00
      - -1.5769149361231853e+00
      - 2.5714908595590171e+00
      - -1.5717583531702597e+00
      - 2.5724703336381483e+00
      - -1.5715775865936574e+00
      - 2.5814057044406806e+00
      - -1.5725159366864496e+00
      - 2.5809801691382632e+00
      - -1.5662436171189993e+00
      - 2.5863395616245723e+00
      - -1.5601764377036118e+00
      - 2.5922059466008722e+00
      - -1.5621152357085670e+00
      - 2.5965485643245074e+00
      - -1.5574578821790803e+00
      - 2.5994945720732785e+00
      - -1.5473201680795394e+00
      - 2.6049495557693971e+00
      - -1.5384511837233610e+00
      - 2.6102469168108855e+00
      - -1.5303104624937154e+00
      - 2.6172554796747467e+00
      - -1.5210645905876992e+00
      - 2.6200315415269193e+00
      - -1.5130318113406227e+00
      - 2.6235646161237272e+00
      - -1.5112314583068980e+00
      - 2.6336301676793994e+00
      - -1.5113723431960584e+00
      - 2.6423385610660168e+00
      - -1.5111213244113169e+00
      - 2.6568635050618288e+00
      - -1.5107963467473977e+00
      - 2.6423005574970664e+00
      - -1.5257669025789298e+00
      - 2.6346278955617084e+00
      - -1.5292405945346643e+00
      - 2.6317641227689137e+00
      - -1.5362082655450291e+00
      - 2.6267731697561718e+00
      - -1.5403751981297020e+00
      - 2.6234863954988201e+00
      - -1.5436922982344192e+00
      - 2.6167529439629504e+00
      - -1.5461206819475759e+00
      - 2.6130176014252680e+00
      - -1.5528909622235738e+00
      - 2.6061206312099729e+00
      - -1.5532662344355355e+00
      - 2.5958669748394465e+00
      - -1.5479109355527800e+00
      - 2.5875797134180440e+00
      - -1.5492893629103957e+00
      - 2.5799364755989815e+00
      - -1.5512453258869774e+00
      - 2.5775520917469534e+00
      - -1.5585347263971394e+00
      - 2.5729818285563621e+00
      - -1.5625962544368004e+00
      - 2.5724088808757593e+00
      - -1.5683805580088341e+00
      - 2.5715151298121373e+00
      - -1.5729980232067884e+00
      - 2.5740345523791901e+00
      - -1.5756245483978755e+00
      - 2.5704687747731194e+00
      - -1.5736077278812213e+00
      - 2.5699286883196875e+00
      - -1.5699555337569009e+00
      - 2.5817306403078941e+00
      - -1.5727719318298266e+00
      - 2.5816467621958616e+00
      - -1.5690362042763526e+00
      - 2.5835735133247577e+00
      - -1.5614201219195121e+00
      - 2.5932961884682082e+00
      - -1.5627057421596873e+00
      - 2.5971511699547962e+00
      - -1.5579314653220551e+00
      - 2.5976852943608266e+00
      - -1.5460308874106543e+00
      - 2.6042322212125106e+00
      - -1.5408263399890298e+00
      - 2.6122817273665384e+00
      - -1.5352613664050905e+00
      - 2.6197300956679483e+00
      - -1.5255068448609697e+00
      - 2.6219141224288345e+00
      - -1.5177582174532194e+00
      - 2.6269444436023668e+00
      - -1.5119794652778527e+00
      - 2.6368281868326315e+00
      - -1.5136024611565295e+00
      - 2.6436305884159923e+00
      - -1.5145098981276661e+00
      - 2.6517822301089558e+00
      - -1.5104434477052628e+00
      - 2.6405614878540145e+00
      - -1.5282379211882138e+00
      - 2.6358626313569453e+00
      - -1.5308282576319727e+00
      - 2.6287612364912372e+00
      - -1.5326965007552824e+00
      - 2.6328954111686902e+00
      - -1.5436171718612957e+00
      - 2.6220063434522549e+00
      - -1.5455872510090181e+00
      - 2.6152636625708365e+00
      - -1.5469716648872576e+00
      - 2.6102040714462658e+00
      - -1.5516358257318672e+00
      - 2.6042829166080246e+00
      - -1.5547722240660262e+00
      - 2.5980371580285460e+00
      - -1.5505635376492064e+00
      - 2.5882615710977448e+00
      - -1.5516794349479264e+00
      - 2.5837323408981594e+00
      - -1.5536136648062278e+00
      - 2.5800641819463968e+00
      - -1.5571397275765420e+00
      - 2.5782906704980699e+00
      - -1.5637100547058458e+00
      - 2.5745671355916024e+00
      - -1.5672664550385602e+00
      - 2.5702051042631040e+00
      - -1.5696111241859168e+00
      - 2.5730693251512147e+00
      - -1.5740490322325766e+00
      - 2.5706092061454067e+00
      - -1.5744270505384712e+00
      - 2.5755961082365046e+00
      - -1.5755963814019336e+00
      - 2.5788755332210362e+00
      - -1.5747200890497557e+00
      - 2.5776314893598236e+00
      - -1.5699083036758388e+00
      - 2.5797972757194882e+00
      - -1.5627959367566040e+00
      - 2.5868424235501517e+00
      - -1.5581190800173288e+00
      - 2.5912246510755175e+00
      - -1.5536541232693379e+00
      - 2.5934729534918586e+00
      - -1.5421528151521906e+00
      - 2.6036305489674447e+00
      - -1.5399066689519134e+00
      - 2.6126568933030616e+00
      - -1.5358557548172960e+00
      - 2.6203358161051273e+00
      - -1.5306784202436441e+00
      - 2.6238802067771245e+00
      - -1.5222723149960375e+00
      - 2.6281505035710766e+00
      - -1.5121225555852624e+00
      - 2.6385671052941495e+00
      - -1.5143951242776805e+00
      - 2.6448173538222268e+00
      - -1.5150750497228505e+00
      - 2.6544397328272189e+00
      - -1.5127005186718101e+00
      - 2.6428752066348600e+00
      - -1.5269461589434763e+00
      - 2.6389284717024406e+00
      - -1.5341769307132773e+00
      - 2.6337552560343021e+00
      - -1.5377683558876507e+00
      - 2.6316001722781084e+00
      - -1.5447646648480722e+00
      - 2.6238521052972099e+00
      - -1.5496873840362930e+00
      - 2.6187300272522465e+00
      - -1.5501998461649622e+00
      - 2.6125967900950791e+00
      - -1.5509111339985786e+00
      - 2.6024258307041799e+00
      - -1.5522682847620635e+00
      - 2.5971485069091318e+00
      - -1.5512466577505741e+00
      - 2.5919387161743983e+00
      - -1.5534120866537759e+00
      - 2.5840451603350560e+00
      - -1.5525221861075251e+00
      - 2.5827827548947271e+00
      - -1.5559484051591765e+00
      - 2.5790512479995611e+00
      - -1.5609681741073209e+00
      - 2.5799008368733549e+00
      - -1.5690003360818880e+00
      - 2.5777713886601452e+00
      - -1.5724756301150886e+00
      - 2.5757495159314794e+00
      - -1.5761545200871783e+00
      - 2.5738110197760000e+00
      - -1.5745875056190120e+00
      - 2.5776706027322951e+00
      - -1.5757305019484182e+00
      - 2.5734432908020461e+00
      - -1.5680618977520027e+00
      - 2.5746360304857134e+00
      - -1.5643107682470589e+00
      - 2.5828974671946008e+00
      - -1.5632990039545822e+00
      - 2.5855008216266486e+00
      - -1.5553604601825006e+00
      - 2.5964415019800922e+00
      - -1.5553381833541082e+00
      - 2.6010917720136271e+00
      - -1.5478789008036551e+00
      - 2.6071030625098075e+00
      - -1.5417480221577535e+00
      - 2.6082280177253847e+00
      - -1.5334197437379673e+00
      - 2.6190468459759964e+00
      - -1.5281299147761120e+00
      - 2.6212436616475614e+00
      - -1.5215076424605638e+00
      - 2.6269959399261258e+00
      - -1.5125739484367020e+00
      - 2.6397543078011525e+00
      - -1.5135284099913744e+00
      - 2.6465681772799692e+00
      - -1.5131439927401644e+00
      - 2.6517726263400947e+00
      - -1.5073323818971214e+00
      - 2.6404753147526496e+00
      - -1.5221363742173226e+00
      - 2.6370235240607212e+00
      - -1.5288538267484379e+00
      - 2.6310890171654990e+00
      - -1.5349753019075423e+00
      - 2.6303116445002184e+00
      - -1.5424538595103459e+00
      - 2.6202301281968832e+00
      - -1.5465289802912963e+00
      - 2.6172953374168935e+00
      - -1.5462371840561553e+00
      - 2.6066391447242538e+00
      - -1.5409192353440191e+00
      - 2.5983691567182703e+00
      - -1.5461542112042017e+00
      - 2.5967586770918785e+00
      - -1.5506563534184437e+00
      - 2.5925432195687828e+00
      - -1.5515091689512190e+00
      - 2.5874018831714523e+00
      - -1.5525071562394386e+00
      - 2.5801827147368592e+00
      - -1.5545924165995770e+00
      - 2.5791635048091535e+00
      - -1.5611226575211281e+00
      - 2.5811537249202288e+00
      - -1.5666106924422911e+00
      - 2.5749132359722684e+00
      - -1.5648879006138567e+00
      - 2.5749912483838213e+00
      - -1.5687320094285353e+00
      - 2.5781138511730459e+00
      - -1.5749502681699743e+00
      - 2.5795278869698630e+00
      - -1.5786121060743856e+00
      - 2.5762862517879128e+00
      - -1.5700665596889134e+00
      - 2.5799618066762906e+00
      - -1.5648086397241066e+00
      - 2.5868931549264200e+00
      - -1.5625499544259578e+00
      - 2.5873267873468166e+00
      - -1.5533288897840429e+00
      - 2.5979850583888284e+00
      - -1.5548715698277400e+00
      - 2.6082563761372182e+00
      - -1.5538010246751890e+00
      - 2.6096346433616548e+00
      - -1.5454178625492634e+00
      - 2.6080411232719829e+00
      - -1.5331189337323876e+00
      - 2.6142695220263006e+00
      - -1.5248575645492730e+00
      - 2.6199138031388247e+00
      - -1.5181099669542937e+00
      - 2.6271827119672828e+00
      - -1.5146198575117880e+00
      - 2.6405624468332505e+00
      - -1.5167043890297613e+00
      - 2.6487476126295801e+00
      - -1.5138581240756250e+00
      - 2.6556207337590956e+00
      - -1.5079855202760644e+00
      - 2.6443600994182996e+00
      - -1.5205708676776402e+00
      - 2.6383578357947295e+00
      - -1.5240467317176336e+00
      - 2.6331826409441477e+00
      - -1.5325613240039633e+00
      - 2.6281648173045968e+00
      - -1.5396074908109665e+00
      - 2.6229874015915846e+00
      - -1.5440749599253949e+00
      - 2.6139171952797513e+00
      - -1.5423693570118187e+00
      - 2.6107754384029422e+00
      - -1.5443867279184664e+00
      - 2.6057336145874008e+00
      - -1.5495378436024154e+00
      - 2.5951432623464195e+00
      - -1.5474903962498416e+00
      - 2.5957202753449096e+00
      - -1.5536477795461383e+00
      - 2.5882061538325680e+00
      - -1.5534849726045099e+00
      - 2.5791838319501381e+00
      - -1.5505645137113513e+00
      - 2.5791876070058239e+00
      - -1.5566184030403556e+00
      - 2.5798429788390331e+00
      - -1.5628873932350758e+00
      - 2.5728558264955486e+00
      - -1.5592359035909944e+00
      - 2.5787701073796478e+00
      - -1.5652561157192413e+00
      - 2.5789225717879938e+00
      - -1.5711009549991877e+00
      - 2.5793931487401069e+00
      - -1.5728952670626333e+00
      - 2.5752310040944342e+00
      - -1.5682393709854321e+00
      - 2.5788205887015505e+00
      - -1.5645315689102204e+00
      - 2.5876443127258493e+00
      - -1.5607223004750028e+00
      - 2.5929551437054812e+00
      - -1.5529704765704431e+00
      - 2.5969120111548536e+00
      - -1.5510432780982772e+00
      - 2.6109897847508168e+00
      - -1.5545074771337208e+00
      - 2.6095078892544796e+00
      - -1.5439405385280576e+00
      - 2.6058364166606705e+00
      - -1.5288759446894920e+00
      - 2.6135955778622870e+00
      - -1.5231282948675766e+00
      - 2.6209495050606253e+00
      - -1.5175077462955908e+00
      - 2.6291119505836953e+00
      - -1.5138153600261728e+00
      - 2.6373837241717095e+00
      - -1.5133205946543011e+00
      - 2.6473236079584721e+00
      - -1.5098996285733115e+00
      - 2.6552536104498028e+00
      - -1.5082928335858103e+00
      - 2.6390702830078228e+00
      - -1.5158847152428714e+00
      - 2.6425460718739364e+00
      - -1.5248062269267479e+00
      - 2.6348068066604577e+00
      - -1.5296018637491444e+00
      - 2.6315471607530707e+00
      - -1.5389493729016150e+00
      - 2.6245781526488727e+00
      - -1.5414217671956123e+00
      - 2.6122304840843524e+00
      - -1.5389885109091235e+00
      - 2.6126318074930994e+00
      - -1.5455719933436569e+00
      - 2.6060665294766325e+00
      - -1.5464342803969757e+00
      - 2.5957976974209727e+00
      - -1.5461066345465961e+00
      - 2.5963694410015998e+00
      - -1.5527763987289265e+00
      - 2.5935208752586578e+00
      - -1.5567337130119181e+00
      - 2.5836394792309068e+00
      - -1.5487167522485805e+00
      - 2.5823334032364809e+00
      - -1.5519297923975732e+00
      - 2.5848406375566584e+00
      - -1.5639830869419886e+00
      - 2.5753753440168285e+00
      - -1.5583929455579224e+00
      - 2.5759471765076709e+00
      - -1.5584232337966335e+00
      - 2.5788791137864679e+00
      - -1.5649077952768458e+00
      - 2.5796919802192133e+00
      - -1.5657378823353743e+00
      - 2.5804672708377292e+00
      - -1.5681219531718742e+00
      - 2.5819768105903944e+00
      - -1.5624316547941424e+00
      - 2.5852693816478993e+00
      - -1.5544683926539757e+00
      - 2.5949417790126597e+00
      - -1.5541482191406688e+00
      - 2.6017273784093531e+00
      - -1.5525933263274969e+00
      - 2.6066719279875255e+00
      - -1.5514033537544083e+00
      - 2.6106119887679662e+00
      - -1.5438509602518313e+00
      - 2.6115051063649299e+00
      - -1.5300012258806444e+00
      - 2.6183746525372023e+00
      - -1.5248939830504131e+00
      - 2.6355249743722857e+00
      - -1.5259535152056811e+00
      - 2.6379105670526348e+00
      - -1.5174170897971984e+00
      - 2.6407867836390948e+00
      - -1.5116930225468082e+00
      - 2.6479199170491805e+00
      - -1.5090102642939311e+00
      - 2.6541991444749384e+00
      - -1.5092015308500861e+00
      - 2.6360381019140520e+00
      - -1.5141719380900542e+00
      - 2.6379680310626190e+00
      - -1.5215913205820937e+00
      - 2.6320910207145265e+00
      - -1.5237318086310887e+00
      - 2.6315470167963695e+00
      - -1.5319514654018302e+00
      - 2.6218774537493665e+00
      - -1.5352190707748021e+00
      - 2.6159620677897855e+00
      - -1.5371020016021020e+00
      - 2.6139742335903060e+00
      - -1.5409659633355177e+00
      - 2.6031002920867001e+00
      - -1.5424583743002314e+00
      - 2.5962350567169867e+00
      - -1.5442124298361779e+00
      - 2.5957361104042898e+00
      - -1.5522099821976703e+00
      - 2.5990682183554736e+00
      - -1.5587125758127442e+00
      - 2.5865679776275425e+00
      - -1.5469116570378485e+00
      - 2.5880993703344823e+00
      - -1.5530171038101195e+00
      - 2.5875742115100793e+00
      - -1.5608084704677290e+00
      - 2.5810596767778633e+00
      - -1.5556655553048782e+00
      - 2.5796044579153601e+00
      - -1.5573474711344948e+00
      - 2.5848596353356399e+00
      - -1.5651509818144751e+00
      - 2.5806365704757921e+00
      - -1.5627913206563000e+00
      - 2.5853068681345168e+00
      - -1.5651038298602074e+00
      - 2.5864505276629179e+00
      - -1.5612840470203064e+00
      - 2.5849589306953376e+00
      - -1.5534029427900984e+00
      - 2.5957056063304149e+00
      - -1.5565243517524960e+00
      - 2.6066861598196174e+00
      - -1.5538810975438606e+00
      - 2.6064950358325460e+00
      - -1.5462181837067852e+00
      - 2.6119022537475365e+00
      - -1.5396745025063960e+00
      - 2.6213358892752825e+00
      - -1.5321162900986218e+00
      - 2.6239742179588466e+00
      - -1.5270633453726059e+00
      - 2.6351113829654089e+00
      - -1.5235921087543141e+00
      - 2.6375224804990038e+00
      - -1.5143723908624982e+00
      - 2.6430519442201428e+00
      - -1.5105669510791777e+00
      - 2.6522123229487202e+00
      - -1.5104544192946034e+00
      - 2.6582617427647439e+00
      - -1.5066280670369361e+00
      - 2.6367936660555960e+00
      - -1.5120366916564243e+00
      - 2.6326552758002268e+00
      - -1.5170429786951722e+00
      - 2.6371604209890265e+00
      - -1.5277629454681676e+00
      - 2.6344405709876590e+00
      - -1.5321695712384815e+00
      - 2.6245786355219911e+00
      - -1.5321508382315667e+00
      - 2.6195835351453112e+00
      - -1.5334395673231638e+00
      - 2.6157620021745083e+00
      - -1.5358833516059298e+00
      - 2.6039180105637088e+00
      - -1.5376104786441771e+00
      - 2.5984293781746910e+00
      - -1.5403644622096302e+00
      - 2.5994859073941901e+00
      - -1.5507922721603802e+00
      - 2.5957618995056739e+00
      - -1.5538423661676639e+00
      - 2.5949876795382845e+00
      - -1.5508580826727718e+00
      - 2.5930668844643203e+00
      - -1.5518186384917665e+00
      - 2.5865502001712373e+00
      - -1.5529574495434100e+00
      - 2.5793289583613732e+00
      - -1.5497740979774430e+00
      - 2.5785067147350231e+00
      - -1.5539319833814604e+00
      - 2.5795582722688994e+00
      - -1.5592320065064811e+00
      - 2.5856009536434179e+00
      - -1.5613957166085684e+00
      - 2.5878145002856088e+00
      - -1.5587011036531415e+00
      - 2.5869018059295374e+00
      - -1.5547061132270299e+00
      - 2.5901145648199231e+00
      - -1.5543176409540003e+00
      - 2.5990640574079205e+00
      - -1.5570643782649920e+00
      - 2.6037071516997394e+00
      - -1.5490705766328718e+00
      - 2.6064723383884281e+00
      - -1.5402233424014231e+00
      - 2.6128493715336210e+00
      - -1.5343969073307739e+00
      - 2.6171074987691285e+00
      - -1.5253849335457115e+00
      - 2.6242916534294505e+00
      - -1.5259252892053718e+00
      - 2.6341618063196481e+00
      - -1.5224078717986111e+00
      - 2.6383213227453406e+00
      - -1.5132293774865633e+00
      - 2.6449798435124223e+00
      - -1.5096730198036865e+00
      - 2.6558959171987753e+00
      - -1.5083032222905484e+00
      - 2.6612392490069756e+00
      - -1.5046503961439339e+00
      - 2.6395519497058131e+00
      - -1.5076563378123355e+00
      - 2.6327512071931274e+00
      - -1.5133470727960214e+00
      - 2.6362730812342070e+00
      - -1.5248684810394673e+00
      - 2.6304015826662779e+00
      - -1.5278711494747825e+00
      - 2.6274063736757527e+00
      - -1.5305101403796977e+00
      - 2.6182867019171727e+00
      - -1.5260779359470309e+00
      - 2.6185976627874230e+00
      - -1.5323284696982393e+00
      - 2.6063986638779704e+00
      - -1.5352232560007784e+00
      - 2.6042110768827493e+00
      - -1.5374851581961413e+00
      - 2.5998379554565445e+00
      - -1.5433495779151729e+00
      - 2.5961332014472629e+00
      - -1.5467979796346658e+00
      - 2.5972114789971008e+00
      - -1.5479260904446794e+00
      - 2.5960034364496725e+00
      - -1.5491856872094423e+00
      - 2.5910317629395188e+00
      - -1.5508222428421528e+00
      - 2.5882138161138681e+00
      - -1.5530778042242483e+00
      - 2.5815887802511863e+00
      - -1.5524907629248350e+00
      - 2.5830918667772531e+00
      - -1.5559740111140972e+00
      - 2.5879088625093010e+00
      - -1.5586306630174951e+00
      - 2.5904787606840687e+00
      - -1.5551390295815029e+00
      - 2.5904838251503981e+00
      - -1.5521831179913894e+00
      - 2.5967636173637283e+00
      - -1.5523811877733307e+00
      - 2.6027238452324792e+00
      - -1.5526111817773056e+00
      - 2.6059544393655507e+00
      - -1.5440752041815455e+00
      - 2.6069611674355051e+00
      - -1.5356111002552300e+00
      - 2.6141872087360003e+00
      - -1.5329920029651354e+00
      - 2.6168819187492871e+00
      - -1.5216196235203976e+00
      - 2.6250964924071782e+00
      - -1.5211709196441956e+00
      - 2.6373366308299766e+00
      - -1.5236805067082577e+00
      - 2.6405375801658666e+00
      - -1.5152951208497116e+00
      - 2.6501048729646115e+00
      - -1.5114179007544286e+00
      - 2.6549581122595201e+00
      - -1.5029532305046416e+00
      - 2.6621781705874632e+00
      - -1.4984358402367992e+00
      - 2.6399929979714702e+00
      - -1.5058564597775963e+00
      - 2.6309344440713276e+00
      - -1.5104055092707183e+00
      - 2.6362253229474204e+00
      - -1.5206333473660800e+00
      - 2.6357185600458179e+00
      - -1.5260232156406606e+00
      - 2.6299363209023872e+00
      - -1.5279512612749011e+00
      - 2.6169877278397515e+00
      - -1.5214848577929128e+00
      - 2.6154570081790447e+00
      - -1.5271435401616380e+00
      - 2.6101992560046159e+00
      - -1.5327366986672453e+00
      - 2.6012046396385076e+00
      - -1.5319432705870832e+00
      - 2.6029554551130274e+00
      - -1.5374773419339147e+00
      - 2.6018982900353707e+00
      - -1.5427987763101607e+00
      - 2.6005637807917523e+00
      - -1.5444349133365716e+00
      - 2.6000945265984168e+00
      - -1.5471619010581175e+00
      - 2.5931649086303969e+00
      - -1.5479071526114812e+00
      - 2.5911025050180267e+00
      - -1.5517918407424514e+00
      - 2.5877813227715980e+00
      - -1.5514696217913311e+00
      - 2.5824395819547168e+00
      - -1.5470982284867041e+00
      - 2.5896357913896884e+00
      - -1.5519872762413587e+00
      - 2.5906515452147225e+00
      - -1.5480832730490901e+00
      - 2.5951597331159304e+00
      - -1.5476883200677187e+00
      - 2.6032988183077692e+00
      - -1.5498954213096021e+00
      - 2.6044405669767041e+00
      - -1.5460431600988418e+00
      - 2.6080736078111544e+00
      - -1.5398917069820077e+00
      - 2.6113359174828110e+00
      - -1.5314554490406864e+00
      - 2.6157931090483126e+00
      - -1.5277230382621041e+00
      - 2.6181819696494757e+00
      - -1.5225194052210631e+00
      - 2.6282919795522064e+00
      - -1.5209370577891006e+00
      - 2.6379109109373848e+00
      - -1.5193806074645746e+00
      - 2.6452504839854916e+00
      - -1.5129996769458074e+00
      - 2.6521494157936236e+00
      - -1.5093610877280803e+00
      - 2.6540773952091166e+00
      - -1.4979691603339547e+00
      - 2.6565060507934724e+00
      - -1.4895176099770393e+00
      - 2.6376936849215635e+00
      - -1.5033000220397656e+00
      - 2.6350332471949001e+00
      - -1.5079925244170858e+00
      - 2.6355219231204399e+00
      - -1.5145369013538927e+00
      - 2.6326731952702334e+00
      - -1.5170713576800703e+00
      - 2.6231028811123012e+00
      - -1.5194916756546601e+00
      - 2.6220576108816531e+00
      - -1.5258705351635464e+00
      - 2.6140473877002117e+00
      - -1.5225621075845284e+00
      - 2.6097137549152984e+00
      - -1.5254788151874084e+00
      - 2.6014416608502975e+00
      - -1.5255365681570230e+00
      - 2.6044328413689071e+00
      - -1.5336740482036180e+00
      - 2.6026487728682954e+00
      - -1.5370177631562123e+00
      - 2.6018024319448401e+00
      - -1.5369059741745099e+00
      - 2.6009379924287308e+00
      - -1.5386809699287551e+00
      - 2.5941974642777716e+00
      - -1.5427989125484207e+00
      - 2.5949970792343104e+00
      - -1.5479455181969759e+00
      - 2.5860685531605769e+00
      - -1.5412458369374640e+00
      - 2.5872995650187640e+00
      - -1.5393808337295702e+00
      - 2.5954281730321838e+00
      - -1.5459653214048645e+00
      - 2.6002100210541963e+00
      - -1.5445821108906290e+00
      - 2.6020042439075559e+00
      - -1.5423470020975427e+00
      - 2.6008535370564627e+00
      - -1.5390688490232649e+00
      - 2.6039005269769255e+00
      - -1.5391102642057464e+00
      - 2.6038265123125282e+00
      - -1.5335974876931524e+00
      - 2.6084243154004843e+00
      - -1.5251296484954611e+00
      - 2.6167586231316782e+00
      - -1.5205748889578083e+00
      - 2.6199169060885699e+00
      - -1.5209360894810129e+00
      - 2.6337536071288543e+00
      - -1.5233611882420914e+00
      - 2.6439678184276616e+00
      - -1.5189830412632885e+00
      - 2.6474299682976747e+00
      - -1.5124585133923574e+00
      - 2.6485138958792964e+00
      - -1.5038644531018237e+00
      - 2.6535165270451273e+00
      - -1.4960060490441522e+00
      - 2.6567922008914908e+00
      - -1.4901839249706885e+00
      - 2.6379261777269645e+00
      - -1.4960040887617398e+00
      - 2.6340864355874225e+00
      - -1.5010150926996355e+00
      - 2.6340654701026764e+00
      - -1.5074027296237758e+00
      - 2.6318746997733311e+00
      - -1.5100612329857184e+00
      - 2.6152986880172153e+00
      - -1.5075518113395727e+00
      - 2.6176876841089110e+00
      - -1.5174781607794956e+00
      - 2.6172470307562610e+00
      - -1.5207412310164394e+00
      - 2.6076166304889479e+00
      - -1.5193387578576507e+00
      - 2.6034490534430117e+00
      - -1.5224552273266121e+00
      - 2.6052497830537238e+00
      - -1.5301708770441411e+00
      - 2.6046237526356486e+00
      - -1.5315870818580768e+00
      - 2.5999994284905892e+00
      - -1.5300464438318540e+00
      - 2.6006115567847301e+00
      - -1.5325942416193494e+00
      - 2.5972539855730656e+00
      - -1.5373060231005131e+00
      - 2.5946470110718236e+00
      - -1.5387483749320416e+00
      - 2.5861015060180876e+00
      - -1.5331827192687371e+00
      - 2.5837453336535292e+00
      - -1.5320837768762412e+00
      - 2.5992799240648305e+00
      - -1.5407074496639830e+00
      - 2.6030167505439712e+00
      - -1.5371191096905252e+00
      - 2.6023481281277347e+00
      - -1.5337256509440593e+00
      - 2.6020570254055913e+00
      - -1.5311556489604454e+00
      - 2.6053209380249780e+00
      - -1.5312757958314038e+00
      - 2.6047160937890976e+00
      - -1.5260226659884317e+00
      - 2.6090861221434296e+00
      - -1.5201952971338273e+00
      - 2.6218393274582610e+00
      - -1.5185342337286811e+00
      - 2.6268196730236468e+00
      - -1.5185863198114393e+00
      - 2.6370414009877048e+00
      - -1.5214430677502282e+00
      - 2.6441364787701165e+00
      - -1.5160252571180257e+00
      - 2.6451221354159777e+00
      - -1.5108599751017155e+00
      - 2.6472436911815542e+00
      - -1.4987306617562681e+00
      - 2.6557702549046422e+00
      - -1.4952947787197306e+00
      - 2.6568146294749937e+00
      - -1.4885315423895882e+00
      - 2.6415485388545461e+00
      - -1.4905103928326309e+00
      - 2.6364018805408223e+00
      - -1.4956541956603615e+00
      - 2.6341068072835996e+00
      - -1.4993890584175200e+00
      - 2.6287299817396694e+00
      - -1.4998243569017307e+00
      - 2.6234833304239764e+00
      - -1.5032242183746312e+00
      - 2.6206992948157830e+00
      - -1.5126664224892454e+00
      - 2.6192103325357481e+00
      - -1.5171117718675593e+00
      - 2.6097927964660492e+00
      - -1.5148225058327736e+00
      - 2.6055890907958177e+00
      - -1.5168206750280877e+00
      - 2.6073746092455643e+00
      - -1.5258722681070129e+00
      - 2.6076092946156582e+00
      - -1.5291699748987129e+00
      - 2.6003769963349623e+00
      - -1.5285297812690124e+00
      - 2.5978363979253460e+00
      - -1.5265888715186162e+00
      - 2.5961833409879085e+00
      - -1.5290692884850128e+00
      - 2.5957555883152477e+00
      - -1.5312665168847563e+00
      - 2.5935456530633609e+00
      - -1.5277936295968702e+00
      - 2.5920835331914591e+00
      - -1.5278431205842318e+00
      - 2.5977870404844849e+00
      - -1.5333838490392779e+00
      - 2.6014760638867300e+00
      - -1.5308081183434772e+00
      - 2.6019319797140237e+00
      - -1.5281900200331684e+00
      - 2.6026467406972587e+00
      - -1.5248925139666427e+00
      - 2.6083640868217639e+00
      - -1.5240381398155720e+00
      - 2.6095244885872835e+00
      - -1.5204005311835427e+00
      - 2.6123775801393792e+00
      - -1.5154864331770834e+00
      - 2.6228478132852358e+00
      - -1.5181952639428169e+00
      - 2.6280146021013566e+00
      - -1.5179589660163022e+00
      - 2.6300049621300836e+00
      - -1.5150465202860537e+00
      - 2.6387012090127007e+00
      - -1.5120455184630377e+00
      - 2.6415259191721652e+00
      - -1.5041875736162023e+00
      - 2.6430550075592922e+00
      - -1.4928889115855746e+00
      - 2.6486714999050482e+00
      - -1.4869356404615337e+00
      - 2.6582577663576212e+00
      - -1.4831209381484363e+00
      - 2.6387264085996298e+00
      - -1.4833831848086274e+00
      - 2.6441296002823895e+00
      - -1.4914938859432179e+00
      - 2.6320332367343222e+00
      - -1.4910757007979631e+00
      - 2.6285592292857625e+00
      - -1.4949039620576301e+00
      - 2.6253970290173219e+00
      - -1.4978421639492974e+00
      - 2.6250159189354707e+00
      - -1.5099691957906884e+00
      - 2.6229539227455594e+00
      - -1.5145168357557213e+00
      - 2.6176338396647267e+00
      - -1.5118120919938609e+00
      - 2.6129121385059322e+00
      - -1.5126919178467082e+00
      - 2.6089242084933555e+00
      - -1.5198240243005101e+00
      - 2.6085532666778244e+00
      - -1.5239201043338275e+00
      - 2.6030453306716059e+00
      - -1.5241200089563143e+00
      - 2.6051702830329133e+00
      - -1.5267645400735206e+00
      - 2.6053838579786719e+00
      - -1.5314551279692306e+00
      - 2.6057419264210648e+00
      - -1.5333801848292568e+00
      - 2.6053097262689739e+00
      - -1.5282749720826863e+00
      - 2.5999447388944135e+00
      - -1.5236374001859250e+00
      - 2.5980413924997690e+00
      - -1.5241131489341242e+00
      - 2.5999522131445709e+00
      - -1.5251178014238032e+00
      - 2.6019301656256171e+00
      - -1.5259188941476611e+00
      - 2.6080104593163322e+00
      - -1.5240202201164115e+00
      - 2.6149278408117014e+00
      - -1.5233519806443969e+00
      - 2.6153458594955858e+00
      - -1.5175416434635298e+00
      - 2.6198005733729723e+00
      - -1.5153075803181946e+00
      - 2.6263353025145744e+00
      - -1.5187152426660966e+00
      - 2.6247815730219615e+00
      - -1.5129400092351868e+00
      - 2.6283285747261034e+00
      - -1.5063948149886721e+00
      - 2.6341653604861435e+00
      - -1.5044140767148972e+00
      - 2.6382463382741630e+00
      - -1.4961455256063623e+00
      - 2.6404083793859554e+00
      - -1.4891624814577145e+00
      - 2.6485235850535025e+00
      - -1.4836191924231568e+00
      - 2.6559704630426104e+00
      - -1.4790300360145219e+00
      - 2.6412645917889654e+00
      - -1.4784363196907588e+00
      - 2.6407049314480457e+00
      - -1.4839447031944761e+00
      - 2.6353029619299040e+00
      - -1.4888742806326354e+00
      - 2.6381502558453138e+00
      - -1.4937913707710111e+00
      - 2.6321361824669962e+00
      - -1.4946665487114612e+00
      - 2.6234557115758075e+00
      - -1.5007339482114359e+00
      - 2.6301980529351465e+00
      - -1.5104548887460887e+00
      - 2.6225547727013856e+00
      - -1.5106640671077671e+00
      - 2.6174734367958012e+00
      - -1.5112301299662647e+00
      - 2.6147318063104414e+00
      - -1.5155454748662283e+00
      - 2.6065944799058336e+00
      - -1.5151424780117180e+00
      - 2.6044970272535850e+00
      - -1.5195934801894624e+00
      - 2.6056523929054016e+00
      - -1.5237126338573506e+00
      - 2.6036403086042470e+00
      - -1.5253290609589356e+00
      - 2.6109226377087094e+00
      - -1.5287619395687766e+00
      - 2.6061106029556340e+00
      - -1.5213935804968417e+00
      - 2.6052232588734654e+00
      - -1.5178970030363381e+00
      - 2.6060230640552162e+00
      - -1.5178125993132920e+00
      - 2.6017832173822879e+00
      - -1.5181895752323129e+00
      - 2.6033342903785472e+00
      - -1.5220379348910609e+00
      - 2.6115221277768041e+00
      - -1.5236240288976211e+00
      - 2.6171474948021776e+00
      - -1.5211379982994189e+00
      - 2.6198855690230376e+00
      - -1.5149472067562260e+00
      - 2.6246027677477559e+00
      - -1.5142728540946244e+00
      - 2.6293896081608370e+00
      - -1.5154599394458945e+00
      - 2.6275039022570077e+00
      - -1.5086951920217135e+00
      - 2.6323118173171247e+00
      - -1.5050722775216012e+00
      - 2.6330122761765558e+00
      - -1.5001159874001542e+00
      - 2.6371427843796198e+00
      - -1.4910212472075692e+00
      - 2.6404959202134104e+00
      - -1.4822863889326405e+00
      - 2.6484774583254880e+00
      - -1.4786902028738844e+00
      - 2.6505855785975583e+00
      - -1.4749818056012574e+00
      - 2.6429239077719022e+00
      - -1.4754215070218304e+00
      - 2.6365107393731537e+00
      - -1.4778354744165283e+00
      - 2.6370914584756817e+00
      - -1.4857756387814109e+00
      - 2.6442872200190086e+00
      - -1.4917149934959031e+00
      - 2.6410806524520303e+00
      - -1.4960560206864681e+00
      - 2.6296633278989425e+00
      - -1.5012727864188891e+00
      - 2.6266915380135618e+00
      - -1.5045877659113305e+00
      - 2.6227894375638789e+00
      - -1.5088608076029824e+00
      - 2.6212196478771226e+00
      - -1.5111897605895932e+00
      - 2.6217559696441270e+00
      - -1.5117366531556784e+00
      - 2.6134441254156675e+00
      - -1.5118465051941465e+00
      - 2.6083512019412218e+00
      - -1.5160808843871072e+00
      - 2.6041228800954186e+00
      - -1.5169454337460422e+00
      - 2.6068365817077903e+00
      - -1.5189798645405816e+00
      - 2.6057981328105537e+00
      - -1.5167145703495235e+00
      - 2.6053130351445057e+00
      - -1.5144950877212600e+00
      - 2.6119095630426434e+00
      - -1.5164160851574191e+00
      - 2.6080971707353520e+00
      - -1.5136927906780024e+00
      - 2.6060064800783445e+00
      - -1.5147288169434832e+00
      - 2.6072117883974046e+00
      - -1.5167251833644564e+00
      - 2.6135489186619196e+00
      - -1.5214532469164346e+00
      - 2.6214183514779790e+00
      - -1.5221254657666468e+00
      - 2.6243477348458257e+00
      - -1.5160321634190614e+00
      - 2.6257319006441255e+00
      - -1.5092606792542855e+00
      - 2.6267926516832656e+00
      - -1.5044853623302865e+00
      - 2.6292762668461691e+00
      - -1.5038585336404791e+00
      - 2.6330396436588934e+00
      - -1.5006600931741227e+00
      - 2.6359541551473820e+00
      - -1.4947542069007480e+00
      - 2.6335531272992379e+00
      - -1.4823682179071946e+00
      - 2.6426662080468217e+00
      - -1.4736796297404904e+00
      - 2.6486023049040019e+00
      - -1.4677048798766150e+00
      - 2.6514935561557080e+00
      - -1.4671185061197458e+00
      - 2.6435881641786128e+00
      - -1.4739534355317798e+00
      - 2.6406000682848267e+00
      - -1.4785679667512797e+00
      - 2.6374097278057271e+00
      - -1.4836298995730257e+00
      - 2.6423361299036290e+00
      - -1.4874055543736828e+00
      - 2.6408121601484607e+00
      - -1.4930104676835680e+00
      - 2.6306294751501857e+00
      - -1.4995243047206368e+00
      - 2.6264633638568076e+00
      - -1.5010696812504849e+00
      - 2.6226574942009884e+00
      - -1.5031211900760506e+00
      - 2.6256638815809059e+00
      - -1.5086455061954660e+00
      - 2.6271457341998659e+00
      - -1.5080891615791303e+00
      - 2.6173999971141386e+00
      - -1.5096529252902080e+00
      - 2.6098570376735291e+00
      - -1.5102949461188064e+00
      - 2.6111628211524751e+00
      - -1.5122647807246024e+00
      - 2.6137624527666472e+00
      - -1.5151700014108891e+00
      - 2.6072342757112481e+00
      - -1.5112464974616484e+00
      - 2.6094828651367390e+00
      - -1.5102595504415244e+00
      - 2.6172327281430623e+00
      - -1.5156893109286251e+00
      - 2.6133127186033143e+00
      - -1.5144372629356417e+00
      - 2.6125574046216493e+00
      - -1.5112850251163086e+00
      - 2.6168129059494394e+00
      - -1.5130945076783267e+00
      - 2.6194741067784832e+00
      - -1.5182087944903022e+00
      - 2.6225109422321666e+00
      - -1.5176659775751362e+00
      - 2.6283876874967587e+00
      - -1.5138528905145077e+00
      - 2.6290052011536771e+00
      - -1.5051126139679654e+00
      - 2.6289994865203088e+00
      - -1.4977978719971361e+00
      - 2.6317694409046037e+00
      - -1.4980680130181350e+00
      - 2.6352678130064162e+00
      - -1.4974873314679675e+00
      - 2.6409906091354522e+00
      - -1.4909079359896389e+00
      - 2.6373618659630056e+00
      - -1.4744738068645531e+00
      - 2.6469220530531503e+00
      - -1.4674063907234391e+00
      - 2.6476984045482546e+00
      - -1.4572435642425667e+00
      - 2.6508448918579548e+00
      - -1.4569159245570482e+00
   output_scale:
      - 5.2631578947368418e-01
      - 4.9999999999999994e-01
      - 5.2631578947368418e-01
      - 4.9999999999999994e-01
   inv_output_scale:
      - 1.8999999999999999e+00
      - -9.4999999999999996e-01
      - 1.8999999999999999e+00
      - -9.4999999999999996e-01
   weights:
      -
         - 1.4612901338514948e-02
         - -4.2988682968409528e-03
         - 1.9450482377551524e-03
         - -1.5277844100393449e-02
         - -1.6659848537132881e-02
         - 1.2103274479304921e-02
         - -9.1704608540557706e-03
         - -1.8914772653843233e-02
         - -1.2203955485435649e-03
         - -9.3479892816428160e-03
         - 1.6743559600969009e-02
         - -1.8625811776213318e-02
         - -5.9887432734387971e-03
         - -1.9883741222305730e-04
         - -2.0811197878369662e-04
         - 9.5636021155937907e-03
         - -4.0520206617797961e-04
         - 8.0684516071499578e-03
         - -3.0640336430814080e-04
         - 1.6900987499480963e-02
         - -1.2844233055844661e-02
         - -1.4856988718563919e-03
         - 4.2330283098454234e-03
         - 4.3855911095501731e-03
         - -1.3023604790278561e-02
         - 1.1532793920722356e-02
         - -1.9543134638877368e-02
         - 1.8062783269681359e-02
         - -1.3130265114652139e-02
         - 3.0340994582708728e-03
         - -1.4763090801378342e-02
         - -1.0904527688679038e-02
         - -2.5989541554939505e-02
         - -1.7380944867679261e-02
         - -1.4741639731979016e-02
         - -7.6436235737561489e-03
         - -1.3906281172179591e-02
         - 1.2839987103132985e-02
         - -1.2868757270406924e-02
         - -1.2633399058171425e-03
         - -2.3850176439041131e-02
         - 8.4136875472052616e-03
         - 5.6110455235612697e-04
         - -6.3375251338507188e-04
         - -7.4304975761753508e-03
         - -1.8340874312297129e-02
         - 6.9351703307867817e-03
         - 2.2919262938464788e-02
         - 1.2853758390337445e-02
         - -3.1230315893872036e-03
         - 9.5129277818791162e-03
         - 2.0441357689547320e-04
         - -8.9951508800608585e-04
         - -8.7895835650959875e-03
         - -9.5850486412785030e-03
         - 4.8889014078007205e-03
         - -1.1128082404359956e-02
         - -2.0906877685751717e-02
         - 3.2950543680875656e-03
         - -3.4085800865992187e-03
         - 8.5747877148464931e-03
         - -8.4189298812882181e-03
         - -1.3818399716110010e-03
         - -1.8286528903073960e-03
         - 1.8878580967019599e-03
         - 2.6252115582556879e-03
         - 7.0966334791032926e-04
         - 4.2834730021353582e-03
         - -5.0669265791369452e-03
         - 1.0808751525772332e-02
         - -8.6246222514494812e-03
         - -4.6169724423261423e-03
         - 4.0585634192811162e-03
         - 3.0110221127260151e-03
         - -7.8144417968393151e-03
         - 5.3493422247375888e-03
         - -1.1430634161059258e-02
         - 1.0249480496908051e-02
         - -1.0853960114852021e-02
         - -1.0707709989106130e-03
         - -1.1323595458744732e-02
         - -4.5395424160360248e-03
         - -2.5727154510455676e-02
         - -1.1310793364000224e-02
         - -1.0025937879907607e-02
         - -1.0555281194237650e-02
         - -3.2962368239529000e-03
         - 1.5260607302639714e-02
         - -1.4230104522469349e-02
         - -1.5765542530387804e-03
         - -2.4214413233494683e-02
         - 5.2866995947504309e-03
         - 1.6129061163711708e-03
         - 1.2693184560235329e-03
         - -1.4890164711116082e-03
         - -8.1249468824816720e-03
         - 1.1661931347476690e-03
         - 2.4601784213881674e-02
         - 1.1505139615885387e-02
         - -8.0171146853065761e-04
         - 7.6396510776570578e-03
         - 2.3176651160926875e-03
         - 6.7549201503567494e-04
         - -8.9405567532051047e-03
         - -8.4066060907353121e-03
         - 7.9025141640073748e-03
         - -9.5069825061081699e-03
         - -2.1172073763307282e-02
         - 1.0718358067417215e-03
         - -1.8206883405390904e-03
         - 9.0699281320996538e-03
         - -1.0933786381896267e-02
         - 1.3549537236817047e-03
         - 6.2015156801240620e-04
         - 1.0623222958615398e-03
         - 4.2672566749212279e-03
         - 1.5329127224543396e-03
         - 2.8986029429415474e-03
         - -5.4193749997496835e-03
         - 1.1066250467851521e-02
         - -7.8999518212619271e-03
         - -2.6605916433952714e-03
         - 2.7694105464483084e-03
         - 3.0064891489634572e-03
         - -5.7397609090259916e-03
         - 7.2854373043604800e-03
         - -8.8395356124417925e-03
         - 8.7074321993479663e-03
         - -8.2427420748186486e-03
         - -3.2751158522598394e-04
         - -1.0352193367778543e-02
         - -4.3416079534371946e-03
         - -2.5740758711818943e-02
         - -8.2741076981080481e-03
         - -9.4283909256730001e-03
         - -1.0187257681827438e-02
         - -4.0587187380369755e-03
         - 1.2505880746360576e-02
         - -1.4834524693172384e-02
         - 1.2116527732433061e-03
         - -2.2822826919606437e-02
         - 3.5053512243267164e-03
         - 2.0186780266331062e-04
         - -1.8697432985320490e-03
         - -3.7015531218498489e-04
         - -7.9053937472319102e-03
         - 3.4751171551694027e-03
         - 2.2784290583659824e-02
         - 7.3883775418917422e-03
         - 1.8598474533087677e-03
         - 5.3551505767864766e-03
         - 1.8052879043229113e-03
         - -3.6059483296822179e-04
         - -9.3513033569376930e-03
         - -1.0234409681697094e-02
         - 5.1549535386592208e-03
         - -1.0464788141271972e-02
         - -2.1084874420113846e-02
         - 1.6242501263296573e-03
         - -2.5533873473238275e-03
         - 7.7651571103616304e-03
         - -7.4074067877068156e-03
         - 9.8785007000560068e-04
         - -1.0567836344068944e-03
         - -4.2067493981500170e-05
         - 3.8137671903294779e-03
         - -2.5209040946904330e-03
         - 4.3184799683332019e-03
         - -4.2468917528167421e-03
         - 1.0410747559600347e-02
         - -6.3946158471013519e-03
         - -3.8559365817896654e-03
         - 2.4965992647759012e-03
         - 9.4243859986996293e-04
         - -6.7286958658204872e-03
         - 6.4875091596873534e-03
         - -7.9535328301865785e-03
         - 9.4181088774868641e-03
         - -6.1445582828733225e-03
         - -6.0263860716545622e-04
         - -1.0695651122305704e-02
         - -4.9685380659215605e-03
         - -2.2615178700645285e-02
         - -5.6242452396495363e-03
         - -6.5966610194991265e-03
         - -9.2954142454185641e-03
         - -1.9334283909040295e-03
         - 1.2937784624522162e-02
         - -1.5874393943259495e-02
         - -1.8159104312258419e-04
         - -2.0910204609927069e-02
         - 4.8734501416086012e-03
         - 1.0981581248468296e-03
         - 9.1964372021622020e-05
         - 1.4363713084274074e-03
         - -6.7832038934864235e-03
         - 4.9265106031919146e-04
         - 2.2147712258899024e-02
         - 1.0690830644392989e-02
         - 3.4906957837612794e-04
         - 1.1161330461018963e-02
         - -1.2887146693192036e-03
         - -1.1601213266873155e-03
         - -1.3213235528460378e-02
         - -1.3859423059409967e-02
         - 4.4390241016101090e-03
         - -7.5901199210669339e-03
         - -1.2215055236015232e-02
         - 1.6948132481618672e-04
         - -1.4377626426540350e-03
         - 1.3251538825919089e-02
         - -1.1810392008685010e-02
         - 6.0354643117687171e-04
         - -1.3157302706209256e-03
         - 9.4991782110871866e-04
         - 2.5429447123759674e-03
         - 2.1356433990484410e-03
         - 5.5461098792029774e-03
         - -4.4868557584839749e-04
         - 1.4529316871100942e-02
         - -1.1658951940603561e-02
         - -2.1433032047473016e-03
         - 4.6310570381361488e-03
         - 1.1880818775673683e-03
         - -8.9223135563103063e-03
         - 8.2301242409353968e-03
         - -1.4890618430094017e-02
         - 1.4543621248347608e-02
         - -1.0666470003988501e-02
         - 7.2748797474348403e-04
         - -9.1665376778011232e-03
         - -6.3404592264385681e-03
         - -1.3880137188093077e-02
         - -1.2597081553332843e-02
         - -1.0285436858736317e-02
         - -5.7401555620426340e-03
         - -5.6570901108879907e-03
         - 6.3816547068642499e-03
         - -9.7502047097548696e-03
         - 7.5113048613644655e-04
         - -1.3698403286466347e-02
         - 4.2738603484212693e-03
         - 1.2996683033779185e-04
         - -1.0802558729157666e-03
         - -4.1281517835186901e-03
         - -1.5069062716318832e-02
         - 3.4431844890570095e-03
         - 1.3407445895204016e-02
         - 1.2017645149587993e-02
         - -2.5094230769532899e-03
         - 5.0299723975955691e-03
         - 2.3586256135494999e-03
         - -2.3049904227219289e-03
         - -8.0040655594130691e-03
         - -4.7095963643873024e-03
         - -2.1891572344843496e-03
         - -1.0259856259166344e-02
         - -1.5508113225579457e-02
         - 5.2783037504590046e-03
         - 3.7274171373110239e-03
         - 8.1530272406797263e-03
         - -4.8005227301401868e-03
         - 3.1430936819385790e-03
         - -1.5413563227194146e-03
         - 3.2979627095067459e-04
         - -2.3765580014118394e-03
         - -4.0267942312915153e-04
         - 9.4344521323295148e-04
         - -5.6738615457566826e-03
         - 5.7567121940815145e-03
         - -5.3614903010203692e-03
         - -5.1426913715768947e-03
         - 2.8922343187602847e-03
         - 2.7820015824507570e-03
         - -4.3272186243984408e-03
         - 6.6475770679437305e-03
         - -7.6769658639889464e-03
         - 5.3251325110208921e-03
         - -4.4285826238603309e-03
         - 2.3958771225436166e-03
         - -6.1531317424338653e-03
         - -5.6839607411582737e-03
         - -1.6789736145979551e-02
         - -6.0223467031064355e-03
         - -7.0563229709949254e-03
         - -8.0904387563295703e-03
         - -9.3191197337241582e-05
         - 9.9978563635536779e-03
         - -1.1782509953594561e-02
         - 1.7005603678447528e-03
         - -1.4828478377186783e-02
         - 2.6548707908522033e-03
         - -1.6079297121103321e-04
         - 1.4153741786942858e-04
         - 1.7633475412103610e-03
         - -7.7550188642235944e-03
         - -1.5431143830850818e-03
         - 1.3673639500451520e-02
         - 6.1665795819150658e-03
         - 5.1972150315858379e-03
         - 3.5170149593121772e-03
         - 5.8629700942731469e-03
         - -8.5595449073363290e-04
         - -1.0105448811400233e-03
         - -2.0988798239287062e-03
         - -4.9849307933269790e-03
         - -1.2829810160236066e-02
         - -1.7156307412818924e-02
         - 8.4861604382006021e-03
         - 3.7252685731643236e-03
         - 3.5217059842169037e-03
         - -1.2487725507254366e-03
         - 5.3289217861903276e-03
         - 1.1021552989200548e-03
         - -5.8613089913173546e-04
         - -2.0282319598903119e-03
         - -2.1759848313713630e-03
         - -1.1289891609984456e-03
         - -7.2512835155778468e-03
         - 3.9965728295614199e-03
         - -3.9377537419201273e-03
         - -7.8943341704498481e-03
         - 7.1217603124047030e-04
         - -1.8838914232666838e-03
         - -2.3714659167738787e-03
         - 3.2642553528986636e-03
         - -2.8376687137416754e-03
         - 1.5282793013781137e-03
         - -4.9853936689727759e-03
         - -1.8156876333406177e-04
         - -3.1829667093496656e-03
         - -1.0736769442080962e-03
         - -2.1116819816595567e-02
         - -6.4030803754727488e-04
         - -2.4977335386416493e-03
         - -1.0019943909383685e-02
         - 6.2457463376897511e-03
         - 1.4175278019168812e-02
         - -1.2477223040986493e-02
         - -6.4710018738357324e-04
         - -1.8846421735116345e-02
         - -2.7962922449563826e-03
         - -2.2863610665624281e-04
         - -1.8016290323719737e-03
         - 7.1597186030188846e-03
         - -1.6165797730866146e-03
         - -3.8295359482563274e-03
         - 1.8720738355018259e-02
         - 2.5790591330755205e-03
         - 6.8052585125086299e-03
         - 2.2551904407991218e-03
         - 3.7026556490331354e-03
         - -8.0300500353548514e-04
         - -4.7009985179861311e-03
         - -4.7631878964812194e-03
         - -3.3589583939427309e-03
         - -1.2336411437309189e-02
         - -1.6048153811760300e-02
         - 5.3175432730296051e-03
         - 2.5848278470890877e-03
         - 3.4304504983836406e-03
         - -2.1642223076917223e-03
         - 2.8539335125040721e-03
         - -8.4216088647101205e-04
         - -2.1214041656349033e-03
         - -2.3585150685259027e-03
         - 9.3181483855418214e-04
         - 6.4364199753052351e-06
         - -9.1590048700176743e-03
         - 3.9940947671286099e-03
         - -4.8151544211668699e-03
         - -8.8167212259280970e-03
         - 2.7771577306577523e-03
         - 1.8047226253484888e-03
         - -4.0274290630291833e-03
         - 5.2045604810877152e-03
         - -4.7293264620571181e-03
         - 1.0801315086943757e-03
         - -4.9968656019063837e-03
         - -1.6403885180395799e-04
         - -6.9664441005195749e-03
         - -4.1070510162337362e-03
         - -2.1725681620505952e-02
         - -3.7331159678518351e-03
         - -2.4937529886869688e-03
         - -1.0189502630805864e-02
         - 3.5430770863123769e-03
         - 1.1864481591028779e-02
         - -1.3213371167480089e-02
         - 5.3274465167120564e-04
         - -1.8726699648588661e-02
         - -1.8857016343521251e-04
         - 1.9484835615326481e-03
         - -2.2362942425843296e-03
         - 2.4681140918949140e-03
         - -2.7666190619404594e-03
         - -2.7656911517906376e-03
         - 1.7607531838760900e-02
         - 4.9023028555453844e-03
         - 7.8000538785197417e-03
         - 1.7213008058971524e-02
         - -3.9274585927613166e-03
         - 9.8306300280539387e-07
         - -1.9148098393066498e-02
         - -1.8367462601212137e-02
         - 6.5039508178970171e-03
         - -3.6831975492876933e-04
         - -8.6140061315690825e-03
         - -3.2278654135600823e-03
         - -6.3240069885923712e-03
         - 1.6367841208259289e-02
         - -1.9065543217469186e-02
         - -7.5817041458148549e-03
         - -1.5829336177254354e-03
         - -3.6932636566652636e-04
         - 7.3174386608105485e-03
         - -4.5629594865806243e-04
         - 1.0897358568388308e-02
         - -1.1933777898686139e-03
         - 1.9177208939883020e-02
         - -1.3816040683405520e-02
         - 2.2750611442644291e-03
         - 8.0572994872641270e-03
         - 6.4838569686105707e-03
         - -9.6989391549968246e-03
         - 1.2542905132074450e-02
         - -1.9771043914256291e-02
         - 2.1645645500717740e-02
         - -1.6332251641168739e-02
         - 3.0298248922020960e-03
         - -1.4014786090862145e-02
         - -1.0323971221636663e-02
         - -1.3762038179399930e-02
         - -2.0460940679617099e-02
         - -1.6831057982612585e-02
         - -4.5629844353671936e-03
         - -1.1486770885576394e-02
         - 4.5037602759442040e-03
         - -6.4148137182301213e-03
         - -5.1441874107523611e-04
         - -1.0766616230248152e-02
         - 1.1684096675278480e-02
         - 7.2489214700216195e-04
         - 1.8679636649872045e-03
         - -7.6538430935126555e-03
         - -2.0162239453292225e-02
         - 7.9370285096542585e-03
         - 1.4315145386833058e-02
         - 1.6181020014961509e-02
         - -4.7765164174069117e-03
         - 3.7290383063362359e-03
         - 3.2635538408945348e-03
         - 3.9748169491483112e-04
         - -3.3585987891364818e-03
         - -4.6674410309635126e-03
         - -4.9363482002588990e-03
         - -9.6067219986021492e-03
         - -1.7739822683787317e-02
         - 2.8923824654259979e-03
         - 6.3128428382321598e-03
         - 4.6499140380724642e-03
         - -1.9390416545786533e-03
         - 3.2127717184131164e-03
         - 1.0190884885610265e-03
         - -8.7585661632360310e-04
         - -9.7387068721910611e-04
         - -1.5067495833285790e-03
         - 4.4289995615415592e-03
         - -1.1196843321867930e-02
         - 4.2203692397573562e-03
         - -2.6705941989967029e-03
         - -9.8492803268037214e-03
         - 5.2207542326313167e-04
         - -1.6932748604043999e-03
         - -3.7696854643690576e-03
         - 5.0250735195321991e-03
         - -1.3566314767791126e-03
         - -1.1858903268679950e-04
         - -7.3946945779035820e-03
         - -1.3027860742729528e-03
         - -5.7180158421180401e-03
         - -3.1968302302430186e-03
         - -2.3088914797035596e-02
         - -3.2624510924188516e-03
         - -4.3473572002009674e-03
         - -1.5560138413979421e-02
         - 7.2864304616324939e-04
         - 1.3997781282402819e-02
         - -1.8274386962821656e-02
         - -5.6589379538146917e-04
         - -2.1277691294973138e-02
         - 1.3171199304140462e-03
         - 3.5242092363146866e-04
         - 5.5295016461962313e-04
         - 3.3025787409358392e-03
         - -3.7468035132335862e-03
         - 2.2319147821058538e-03
         - 2.2179091985998444e-02
         - 4.9704746215430981e-03
         - 6.5078363006935451e-03
         - 3.4166879929925635e-03
         - 3.0800662032098923e-03
         - 1.9259171092394635e-03
         - -2.1817501226468498e-03
         - -5.1159007359123992e-03
         - -4.9199575883692266e-03
         - -1.0561618768202821e-02
         - -1.6088926835451295e-02
         - 4.8918290704087130e-03
         - 4.8892992529609219e-03
         - 3.2259308293071235e-03
         - -1.9936061647573612e-03
         - 3.8726804798798866e-03
         - -7.9199519616979111e-04
         - -1.0314638306370321e-04
         - -1.4776736398762842e-03
         - 2.1393488245858715e-03
         - 4.0552162751457600e-04
         - -1.2140565497523906e-02
         - 1.4253158617232142e-03
         - -3.5244702755449081e-03
         - -9.8446760937157731e-03
         - 3.4923554594902028e-03
         - -1.0827568198256759e-03
         - -3.2830632758600467e-03
         - 2.6848577979184840e-03
         - 4.2394698458445956e-04
         - -1.9240577547114423e-03
         - -5.0639664114806226e-03
         - 1.9907515391219960e-03
         - -4.5429931249663952e-03
         - -3.3410442288857576e-03
         - -2.1716457979555778e-02
         - -6.5933239516435620e-04
         - -2.3588797889926814e-03
         - -1.3807395797182086e-02
         - 2.4443517447227561e-03
         - 1.5406480620676948e-02
         - -1.9234318233845686e-02
         - -1.2847354278582019e-03
         - -2.2035713919648654e-02
         - 2.3401740946811947e-03
         - 1.5877073053431846e-03
         - -4.6179497009208052e-04
         - 4.0342436115778429e-03
         - -2.7147708780385343e-03
         - 7.3533614941875293e-04
         - 2.3133574257720294e-02
         - 7.3406535916714210e-03
         - 5.7364384099290013e-03
         - 1.3319906023233625e-02
         - -1.4081248464092324e-03
         - -9.5896709677332581e-04
         - -1.3681029775888040e-02
         - -1.2409021559819574e-02
         - 2.0817689226345195e-03
         - -3.9976526723648435e-03
         - -9.8742594924098714e-03
         - 6.8112039392403931e-05
         - -5.0161286938497939e-04
         - 1.2288847095255620e-02
         - -1.3050761812498419e-02
         - -9.9978260744260561e-04
         - 1.9087260512196130e-04
         - -7.7254626893718181e-04
         - 5.0308860933583298e-03
         - 1.0263505233923072e-03
         - 7.5115383023118812e-03
         - -4.6504005506758424e-03
         - 1.2496472713856005e-02
         - -9.4138839370189690e-03
         - -4.0320041735842204e-03
         - 4.3232084143945537e-03
         - 2.8863006509198632e-03
         - -7.4285360360728352e-03
         - 1.0823003186968152e-02
         - -1.2739685258521758e-02
         - 1.0943009205710133e-02
         - -1.0296836444604014e-02
         - 6.5881933690817556e-04
         - -1.1982941291871864e-02
         - -7.0261398660088643e-03
         - -1.6574457731691562e-02
         - -1.2823716868084837e-02
         - -1.2023185559868092e-02
         - -8.5619003920972200e-03
         - -5.7255916108868501e-03
         - 9.6554254027571042e-03
         - -1.0297828016679981e-02
         - 1.3517199392555892e-04
         - -1.5205698374023557e-02
         - 7.4320392150533576e-03
         - 5.5227007817856269e-04
         - -9.3448920172443738e-05
         - -3.4750924717517648e-03
         - -1.1706236699785599e-02
         - 2.2587582398805543e-03
         - 1.7253075937496608e-02
         - 1.1056110168207190e-02
         - -3.7303317631595971e-03
         - 1.1706662591058211e-02
         - 4.4484739601120018e-04
         - -5.3887143969585379e-05
         - -1.3040702673087832e-02
         - -1.2873271547373178e-02
         - -2.0115033857425273e-03
         - -5.3093413222755556e-03
         - -8.2710316591966329e-03
         - 5.4467470678767449e-04
         - 1.0337070143126910e-03
         - 1.0483020681014843e-02
         - -1.2453767304412271e-02
         - -2.2852763120272809e-03
         - -1.5000181207808594e-03
         - -8.0674846498513897e-04
         - 1.9410905827963721e-03
         - 8.6868286481179148e-04
         - 6.4827506481459785e-03
         - -4.9697001154060472e-03
         - 1.1837193210204931e-02
         - -9.6892584078887740e-03
         - -7.6151009847572042e-03
         - 5.1360690405592505e-03
         - 6.4048628751888783e-04
         - -6.6995805431748707e-03
         - 7.8821480389434703e-03
         - -1.2061223256800030e-02
         - 1.2776397377598682e-02
         - -1.1450410287458029e-02
         - -1.5767427556369341e-05
         - -9.3565229783978653e-03
         - -7.3361117655561916e-03
         - -1.6891038568103547e-02
         - -1.5336042567112693e-02
         - -1.3421480527765955e-02
         - -8.9486665663543376e-03
         - -1.5271396992162926e-03
         - 8.6167440260736805e-03
         - -1.2142812568500545e-02
         - 1.3253024831850933e-03
         - -1.2816468601142715e-02
         - 4.5631364124445436e-03
         - 1.7039743485727346e-04
         - -3.2068667529036062e-04
         - -6.2872142837757305e-04
         - -1.3918167890261830e-02
         - 1.8645548471856730e-03
         - 1.5075603841116683e-02
         - 1.2156605051805715e-02
         - -6.7245296050652884e-04
         - 1.1118627741740694e-02
         - 2.8897148037110515e-03
         - -1.7074616265920031e-03
         - -1.2232453231187358e-02
         - -1.3694320522149049e-02
         - -4.5941046684316259e-03
         - -4.1750222153869700e-03
         - -9.0908433219557393e-03
         - 3.0576364610483465e-03
         - 4.6952508423703338e-03
         - 1.3589063184869739e-02
         - -1.1716542321422841e-02
         - 1.6578423733293809e-03
         - -1.4405358565036819e-03
         - 2.0139864551230206e-03
         - 1.0466492425882533e-05
         - -1.1472336367252423e-03
         - 4.6553167423291335e-03
         - -9.3752847063085353e-03
         - 1.0584527134039552e-02
         - -1.0068184261111586e-02
         - -9.8329527665114765e-03
         - 1.9877444231300037e-03
         - 6.4203632849551878e-04
         - -4.9052295623005357e-03
         - 4.9067534911806385e-03
         - -1.3153314685555667e-02
         - 1.0263100021123496e-02
         - -9.7492311770864502e-03
         - 5.2403628579075648e-04
         - -6.9113802927135747e-03
         - -5.2700486389802492e-03
         - -1.3824030745387973e-02
         - -1.3835856357919866e-02
         - -1.2078513474062191e-02
         - -1.2044098770034910e-02
         - -2.0217616307815580e-03
         - 7.3118331273442118e-03
         - -1.2770878650376693e-02
         - 6.9560688927473792e-04
         - -1.3129486438156991e-02
         - 3.6233474822030343e-03
         - -1.3529237587199437e-03
         - 5.5420864757879499e-04
         - 5.3768962558209873e-05
         - -1.0119953869603010e-02
         - 2.0271002625817198e-03
         - 1.1649901070053941e-02
         - 9.0728856899963822e-03
         - 1.7402287766648602e-03
         - 1.4962197480579862e-02
         - -2.5155546887241174e-03
         - 1.0063261410306181e-03
         - -1.4609283745686314e-02
         - -1.5784564168520213e-02
         - -1.9374110763742535e-03
         - -2.5125222077173851e-03
         - -7.3942019464084590e-03
         - -1.1629790012943164e-03
         - 4.2732030770784250e-03
         - 1.3807110266166980e-02
         - -1.6019006807386403e-02
         - -3.2270133443979623e-03
         - -1.4706484934325693e-03
         - 1.4428213578870351e-03
         - 5.8850137638872648e-03
         - -6.2329789895516387e-04
         - 5.3177442078981649e-03
         - -4.7861220351047345e-03
         - 1.5476683087992210e-02
         - -1.4690303350506218e-02
         - -5.3535266109892435e-03
         - 3.4050736659562847e-03
         - 1.5498458964083122e-03
         - -7.6995169661453113e-03
         - 7.1774019191494934e-03
         - -1.8219310017371232e-02
         - 1.6465790546926481e-02
         - -1.5947918064159815e-02
         - 1.1526774924810175e-03
         - -1.3238821872989727e-02
         - -8.7602197122085834e-03
         - -1.3046296878315157e-02
         - -1.6218952088868688e-02
         - -1.6128784924105469e-02
         - -8.4334534345620188e-03
         - -5.1797845835608132e-03
         - 6.0176367849390277e-03
         - -1.0293469915186555e-02
         - -2.1040302436751094e-03
         - -9.5858395585027394e-03
         - 7.3730808773309932e-03
         - 1.9509412090373604e-03
         - 1.2275851989152137e-03
         - -3.0094188761117333e-03
         - -1.5187869910098772e-02
         - 4.2000577200922628e-03
         - 1.3796949192978945e-02
         - 1.3714074164521898e-02
         - 2.5320130630147295e-04
         - 1.4824184297301105e-02
         - -3.5180946655182909e-04
         - 1.8448384158197361e-04
         - -1.4638004300756100e-02
         - -1.5477963678998280e-02
         - -2.6286864038381000e-03
         - -4.0323764542959516e-04
         - -4.8459743930401884e-03
         - -2.2724944978417387e-03
         - 1.4797601861695376e-03
         - 1.4764382888920093e-02
         - -1.5017251784675587e-02
         - -4.1024727641365390e-03
         - -2.2969038196263445e-03
         - 2.5366903926487302e-03
         - 4.1579416546990225e-03
         - -8.2449423607742090e-04
         - 5.8961520793991999e-03
         - -6.3468535470448083e-03
         - 1.5413274677688335e-02
         - -1.2308845796012293e-02
         - -4.4392111832515929e-03
         - 2.5341632235651159e-03
         - 4.2570524277160630e-03
         - -8.1079066237634244e-03
         - 7.3296021492727783e-03
         - -1.8618322129740413e-02
         - 1.6402839192929380e-02
         - -1.2036396393603169e-02
         - 1.8968620297097644e-03
         - -1.0646909566053605e-02
         - -8.4740201109347445e-03
         - -1.4064648406807035e-02
         - -1.5435857125601223e-02
         - -1.4639761432787437e-02
         - -7.3976428302946224e-03
         - -5.2630110489845271e-03
         - 7.3532683600991532e-03
         - -1.0157300232008049e-02
         - -1.7515767297175985e-03
         - -1.2160640835137541e-02
         - 7.8383101340165663e-03
         - 1.7979442175730647e-03
         - 2.5157170897271254e-04
         - -8.9153052296477432e-04
         - -1.6677458797660760e-02
         - 2.0175970889595722e-03
         - 1.2040885621848347e-02
         - 1.0172625124928737e-02
         - -1.6832574548463200e-03
         - 7.2283121407229608e-03
         - 5.0263548626780881e-03
         - -1.3881068416114605e-03
         - -8.4651685522530665e-03
         - -8.5598680255161552e-03
         - -4.7059496695091791e-03
         - -5.9535407125078854e-03
         - -9.2673053413927682e-03
         - 4.3388372773174319e-03
         - 4.4589585104961912e-03
         - 9.3057237863934938e-03
         - -7.3549434858697438e-03
         - 1.8266558687608627e-03
         - -1.8621528229063385e-03
         - 1.1410703435663352e-03
         - -1.6254111428325368e-03
         - 3.0641850901048256e-03
         - -4.4371493094532625e-04
         - -7.6156477068486106e-03
         - 1.1484929159824131e-02
         - -6.5870267581089742e-03
         - -7.8631558004939889e-03
         - 1.1199263814502106e-03
         - 1.5648629624663815e-03
         - -1.7911119854816177e-03
         - 4.2828137988933177e-03
         - -9.0130910099434844e-03
         - 6.0145953011119290e-03
         - -9.0177407794005560e-03
         - -8.3609573289138270e-04
         - -6.8873470777529883e-03
         - -3.1291910294895110e-03
         - -1.4960865598308190e-02
         - -9.0312904908726819e-03
         - -8.7495374647929506e-03
         - -1.0560483533416541e-02
         - -1.1836026345285887e-03
         - 7.3337665506630362e-03
         - -1.1982934492772339e-02
         - -1.3894352732803953e-03
         - -1.3413904002145906e-02
         - 3.5425322913488501e-03
         - -1.9318287069316677e-03
         - -1.1258309561564897e-03
         - 1.4572067404603184e-03
         - -7.9553304703895520e-03
         - -1.7433724721117132e-03
         - 1.4242003935645562e-02
         - 6.9629074636419139e-03
         - 3.0613549969815868e-03
         - 2.0720279629532390e-03
         - 4.7425598056731813e-03
         - 2.0764958060715310e-03
         - -4.7899330784662124e-03
         - -3.9516932769392979e-03
         - -1.0744479901853010e-02
         - -8.6419374872363768e-03
         - -7.8439374600476879e-03
         - 2.9775347440128158e-03
         - 8.6062405098054039e-03
         - 1.4130415052518157e-03
         - -6.4758556791141982e-04
         - 3.3938834369189232e-03
         - 1.5344811943796882e-03
         - 1.5042725870872576e-04
         - -3.3428690613954985e-03
         - -1.6267373590845564e-03
         - 8.6983887387455405e-04
         - -1.3307960797010835e-02
         - 5.5667199586741187e-03
         - -3.9301087298974089e-03
         - -1.3368762766212336e-02
         - 1.3999945852538908e-03
         - -1.5565795304848075e-03
         - -1.2473390923764362e-04
         - 3.5439317734302506e-03
         - -2.5713472876469101e-03
         - -6.9836997910780352e-04
         - -3.0630314756545096e-03
         - 1.7400758939744173e-03
         - -4.5602092510023699e-03
         - -6.7522182720893128e-04
         - -1.5799033459811752e-02
         - -1.0917039546865387e-03
         - -3.0824203376311004e-03
         - -1.6445363203926863e-02
         - 2.8806593773292592e-03
         - 1.2165966566580600e-02
         - -1.6188225770036833e-02
         - -7.3318196253932479e-04
         - -1.3834754191019403e-02
         - 8.5825258754098363e-04
         - -1.1431665308708177e-03
         - 9.1193027543319473e-04
         - 5.5023225662570972e-03
         - 1.9293480723126819e-05
         - -7.2863820440974790e-04
         - 1.7672796310348793e-02
         - 4.7537588623453230e-03
         - 5.3257505582701608e-03
         - 4.9431117397629974e-03
         - 3.7565851441102192e-03
         - 2.6514307672887570e-03
         - -6.6335610029555426e-03
         - -7.6732770246113876e-03
         - -1.2552137476751182e-02
         - -3.7229715649061386e-03
         - -4.7026541818185495e-03
         - 1.8849027911088951e-03
         - 1.0931027435265020e-02
         - 5.8786017558441804e-03
         - -4.1390046310398445e-03
         - 2.6269804674852082e-03
         - 1.9528838737027475e-04
         - -1.4025882720323241e-04
         - -1.3114296480855525e-03
         - -2.1672326707317767e-05
         - 2.4088952639073230e-03
         - -1.1779654349659550e-02
         - 8.1325090586048376e-03
         - -5.4455667455109314e-03
         - -1.3283167606514061e-02
         - 1.9318465609591742e-03
         - -2.9867846547425954e-03
         - -3.8408938802993340e-03
         - 1.3014311176251523e-03
         - -7.1015128180102289e-03
         - 5.5558389165159929e-03
         - -6.7000742070329865e-03
         - -1.2461766190670065e-03
         - -5.3880816981002055e-03
         - -5.1780566143310109e-04
         - -1.4074233573198992e-02
         - -7.7227631859930011e-03
         - -6.9438968573383199e-03
         - -1.1683483666830280e-02
         - 2.3184166919896676e-03
         - 9.0855174281646751e-03
         - -1.4955956051753283e-02
         - -1.1395552331203011e-03
         - -1.2033508485740554e-02
         - -3.1530196269079593e-04
         - 1.7989374721340704e-03
         - -2.2295087676031363e-03
         - 5.4133578178774087e-03
         - -4.2471310713349105e-03
         - -1.4245743193238693e-03
         - 1.3484603536960786e-02
         - 6.2456520221942438e-03
         - 2.8379598888953763e-03
         - 9.4105262910753832e-03
         - 2.0780346347429234e-04
         - 5.9120885379846983e-04
         - -9.5529202809615989e-03
         - -9.3130960271807488e-03
         - -1.0922289282368752e-02
         - -1.1398828344190851e-03
         - -2.9109288466422681e-03
         - 2.8457793106540850e-03
         - 8.1542909472111427e-03
         - 9.7149867776370104e-03
         - -9.2261301653950595e-03
         - 2.1884216473378585e-03
         - -3.8033394932674661e-04
         - -1.4591084860010668e-04
         - 1.7992513314832354e-03
         - -3.0041460045404879e-03
         - 4.0284539356484446e-03
         - -1.2128981823636047e-02
         - 8.9849518825508394e-03
         - -1.0631989119889594e-02
         - -1.1274700385782696e-02
         - 7.5403600928281001e-04
         - 1.4418763431364142e-03
         - -3.1188145282402976e-03
         - 2.8702018329486256e-03
         - -9.4254440689555911e-03
         - 8.9436008878310113e-03
         - -7.4096525673851086e-03
         - 1.3782547980306353e-03
         - -7.5236883544000845e-03
         - -3.6100188241995749e-03
         - -7.0113645779367297e-03
         - -1.0932341377709721e-02
         - -8.9693962349170157e-03
         - -1.4360776830071883e-02
         - 1.4680834497566722e-03
         - 7.5936134755613706e-03
         - -1.1629569630927693e-02
         - -8.4526393662075650e-04
         - -8.7128779345869937e-03
         - 2.0100904527485864e-03
         - 8.9819672703531539e-04
         - 4.7548048337453096e-04
         - 1.3175831577352580e-03
         - -8.8654153085617905e-03
         - 3.0354539117870127e-03
         - 9.8243079006571383e-03
         - 8.5039793520987651e-03
         - -4.0104817357967876e-05
         - 3.4853821551942229e-03
