%YAML:1.0
---
opencv_ml_ann_mlp:
   format: 3
   layer_sizes: [ 324, 100, 2 ]
   activation_function: SIGMOID_SYM
   f_param1: 6.6666666666666663e-01
   f_param2: 1.7159000000000000e+00
   min_val: -9.4999999999999996e-01
   max_val: 9.4999999999999996e-01
   min_val1: -9.7999999999999998e-01
   max_val1: 9.7999999999999998e-01
   training_params:
      train_method: BACKPROP
      dw_scale: 1.0000000000000000e-03
      moment_scale: 0.
      term_criteria:
         epsilon: 1.0000000000000000e-04
         iterations: 300
   input_scale:
      - 1.1792322285518354e+01
      - -1.7697929486213124e+00
      - 1.1460303074476572e+01
      - -1.5638509217413961e+00
      - 1.1746511567108872e+01
      - -1.4593299633215309e+00
      - 1.2908900651153317e+01
      - -1.3501456024035008e+00
      - 1.2881715577759117e+01
      - -1.5839665456309235e+00
      - 1.3041254847691150e+01
      - -1.3575189669775243e+00
      - 1.1724951381736911e+01
      - -1.4376578993102396e+00
      - 1.1354949449171041e+01
      - -1.5530197031664079e+00
      - 1.1708035709962310e+01
      - -1.7644305524932300e+00
      - 1.1501306321049032e+01
      - -1.8104790389265535e+00
      - 1.1133936344376101e+01
      - -1.6872932074881226e+00
      - 1.1239684392403122e+01
      - -1.5557728444215533e+00
      - 1.2144680678318400e+01
      - -1.4452326646449221e+00
      - 1.2203722593349719e+01
      - -1.6940608859130648e+00
      - 1.2201214261808275e+01
      - -1.4402029550982594e+00
      - 1.1384587557008782e+01
      - -1.5559144058033783e+00
      - 1.1201463373630041e+01
      - -1.6810156031756545e+00
      - 1.1426407716128866e+01
      - -1.8019250465677557e+00
      - 1.1599776516761526e+01
      - -1.9105795331907576e+00
      - 1.1020354900355221e+01
      - -1.6914748348166346e+00
      - 1.1265632673305886e+01
      - -1.5888417695878008e+00
      - 1.2254753417046643e+01
      - -1.4567092273821851e+00
      - 1.2289602447744077e+01
      - -1.5436464819132447e+00
      - 1.2242800254169287e+01
      - -1.4661575946661627e+00
      - 1.1334836488853618e+01
      - -1.5611818419136883e+00
      - 1.1113743740906449e+01
      - -1.6774392246212726e+00
      - 1.1633789422150196e+01
      - -1.9101107308960275e+00
      - 1.1364300057974424e+01
      - -1.9344623941485475e+00
      - 1.1037785001780982e+01
      - -1.8267704555100759e+00
      - 1.1084847286659002e+01
      - -1.7114193728144054e+00
      - 1.1729601786681652e+01
      - -1.5771777883618510e+00
      - 1.1755873153340676e+01
      - -1.6494647397285549e+00
      - 1.1743884513446282e+01
      - -1.5771457660585597e+00
      - 1.1000508309341079e+01
      - -1.6924594595679601e+00
      - 1.1017833072498176e+01
      - -1.8375669017937584e+00
      - 1.1296681839305601e+01
      - -1.9453553889641713e+00
      - 1.1671350380027711e+01
      - -1.6690707813078527e+00
      - 1.1486349537187342e+01
      - -1.5606991224508517e+00
      - 1.1803421136870092e+01
      - -1.4727668085471699e+00
      - 1.2813940360765699e+01
      - -1.3699720278497642e+00
      - 1.2693892069359940e+01
      - -1.6093419035077396e+00
      - 1.2788552947607460e+01
      - -1.3811249583932013e+00
      - 1.1731516341033755e+01
      - -1.4815525851003490e+00
      - 1.1276703165389957e+01
      - -1.5657049492002135e+00
      - 1.1424811466128320e+01
      - -1.6521771416470612e+00
      - 1.1559029118672958e+01
      - -1.7889574740078522e+00
      - 1.1137608444086952e+01
      - -1.6509861083240078e+00
      - 1.1276816537100041e+01
      - -1.5604863986571240e+00
      - 1.2135497439998566e+01
      - -1.4475350770545823e+00
      - 1.2147203437602968e+01
      - -1.6984199436715606e+00
      - 1.2214825447520171e+01
      - -1.4660515817807462e+00
      - 1.1445359559569688e+01
      - -1.5811491412251482e+00
      - 1.1087244198614078e+01
      - -1.6786839639371700e+00
      - 1.1289376948448261e+01
      - -1.7696900581547998e+00
      - 1.1390322187251959e+01
      - -1.7871109533269218e+00
      - 1.0996900630779921e+01
      - -1.6791683591709805e+00
      - 1.1259596254791697e+01
      - -1.5980915820459574e+00
      - 1.2139596330126617e+01
      - -1.4948841565281707e+00
      - 1.2142292479560345e+01
      - -1.5635040700407470e+00
      - 1.2226321735770396e+01
      - -1.4907708868142269e+00
      - 1.1288565876688693e+01
      - -1.5886979498320297e+00
      - 1.1141044320288408e+01
      - -1.6948744800702191e+00
      - 1.1304219901915447e+01
      - -1.7818232641049376e+00
      - 1.1443938473877537e+01
      - -1.9255237158186698e+00
      - 1.0915440402539490e+01
      - -1.7697436220657172e+00
      - 1.1057123182113022e+01
      - -1.6978170226443714e+00
      - 1.1543131995148499e+01
      - -1.5663471054287625e+00
      - 1.1743763996079858e+01
      - -1.6569526045256344e+00
      - 1.1729574048258103e+01
      - -1.5924578440981623e+00
      - 1.1092175734252592e+01
      - -1.7183989147854077e+00
      - 1.0944246428251294e+01
      - -1.8264826032930745e+00
      - 1.1175959790253165e+01
      - -1.9102654728664905e+00
      - 1.1826944883686398e+01
      - -1.6722442034596390e+00
      - 1.1593688664813660e+01
      - -1.5416983912841888e+00
      - 1.1740639583405688e+01
      - -1.4635552340692277e+00
      - 1.2505404328506394e+01
      - -1.3587850567963768e+00
      - 1.2615938244084552e+01
      - -1.6235994764724855e+00
      - 1.2785481609879765e+01
      - -1.3986004615881371e+00
      - 1.1702187478034260e+01
      - -1.5005573641810761e+00
      - 1.1103643567752126e+01
      - -1.5762826506431051e+00
      - 1.1327109258376286e+01
      - -1.6546311628104160e+00
      - 1.1879342491847934e+01
      - -1.9067734442910378e+00
      - 1.1254728558211649e+01
      - -1.6003020814273781e+00
      - 1.1324130030416033e+01
      - -1.5194670223275613e+00
      - 1.2028330809845935e+01
      - -1.4143490559521998e+00
      - 1.2153276808040983e+01
      - -1.6976752338552248e+00
      - 1.2278004770563255e+01
      - -1.4451270958799309e+00
      - 1.1513358486941071e+01
      - -1.5740270595212087e+00
      - 1.0931941317672647e+01
      - -1.6496766043478959e+00
      - 1.1432779858571285e+01
      - -1.8813345191110917e+00
      - 1.1495152857732984e+01
      - -1.7935967337606433e+00
      - 1.1140560099242094e+01
      - -1.6684681839939322e+00
      - 1.1309773973208959e+01
      - -1.6050097905973491e+00
      - 1.2008507766875288e+01
      - -1.4933022261258442e+00
      - 1.2119195119409667e+01
      - -1.5844511780637793e+00
      - 1.2128080106907595e+01
      - -1.5040974508415237e+00
      - 1.1463086020441994e+01
      - -1.6207982463129280e+00
      - 1.1198339735480435e+01
      - -1.7167969217143997e+00
      - 1.1212745449125261e+01
      - -1.7770846285773587e+00
      - 1.1822239073351177e+01
      - -2.0628429542252280e+00
      - 1.1138951674663105e+01
      - -1.7362850135814978e+00
      - 1.1229688466438615e+01
      - -1.6768084311998857e+00
      - 1.1631573112251726e+01
      - -1.5518766593049591e+00
      - 1.1703809435815291e+01
      - -1.6586802168988635e+00
      - 1.1872195418071527e+01
      - -1.5890624303414771e+00
      - 1.1211978056980675e+01
      - -1.7075360096749450e+00
      - 1.0871698582649918e+01
      - -1.8001750917981183e+00
      - 1.1409003021892643e+01
      - -2.0439646228761661e+00
      - 1.2073020043915005e+01
      - -1.7741149000671779e+00
      - 1.1553891399792693e+01
      - -1.5840682309174268e+00
      - 1.1711674216471215e+01
      - -1.4976158378799482e+00
      - 1.2811497192504245e+01
      - -1.4001158347252911e+00
      - 1.2946077044723722e+01
      - -1.4850219628158259e+00
      - 1.3004841255035700e+01
      - -1.4185141756037232e+00
      - 1.1622141603200584e+01
      - -1.4959510022203786e+00
      - 1.1143620386283475e+01
      - -1.5677035792547074e+00
      - 1.1777793244376387e+01
      - -1.7450917796525389e+00
      - 1.1771308500969132e+01
      - -1.8192798486847699e+00
      - 1.1150982301640580e+01
      - -1.6973139059421143e+00
      - 1.1292039566991516e+01
      - -1.6143753839215722e+00
      - 1.2149398805671732e+01
      - -1.5090352966358294e+00
      - 1.2125209135650033e+01
      - -1.5758722915842251e+00
      - 1.2246792661458461e+01
      - -1.5143204214823149e+00
      - 1.1215996051795338e+01
      - -1.6031117732535554e+00
      - 1.1125325409335556e+01
      - -1.7048436826033369e+00
      - 1.1543884679599193e+01
      - -1.7915637090972116e+00
      - 1.2033624036667119e+01
      - -1.9052330237452582e+00
      - 1.1224680553126207e+01
      - -1.6699174020166254e+00
      - 1.1351942164589230e+01
      - -1.5847355889894099e+00
      - 1.2187644652309709e+01
      - -1.4906745257565979e+00
      - 1.2355712051750038e+01
      - -1.5695275602518037e+00
      - 1.2477777094860153e+01
      - -1.5111578595815802e+00
      - 1.1338252935014859e+01
      - -1.6041558505154925e+00
      - 1.1155074340626500e+01
      - -1.7003050736884715e+00
      - 1.1693675507674715e+01
      - -1.8755852164072089e+00
      - 1.1726622247123881e+01
      - -1.9475786703193967e+00
      - 1.1174233879117184e+01
      - -1.8008848069489420e+00
      - 1.1147962544610591e+01
      - -1.7149671791098440e+00
      - 1.1631029040042019e+01
      - -1.6005500762831488e+00
      - 1.1895718422478938e+01
      - -1.6984375048744831e+00
      - 1.1931670164313394e+01
      - -1.6397785430834317e+00
      - 1.1030998130956895e+01
      - -1.7374418916696370e+00
      - 1.1013524719134672e+01
      - -1.8534574357228242e+00
      - 1.1387963343030977e+01
      - -1.9244993210234149e+00
      - 1.1935239293352248e+01
      - -1.6682640139207439e+00
      - 1.1542151901709946e+01
      - -1.5676175340723544e+00
      - 1.1788500396455170e+01
      - -1.5048656075766602e+00
      - 1.2641534331441244e+01
      - -1.4117743302811550e+00
      - 1.2812892800889466e+01
      - -1.5073000986369862e+00
      - 1.2850032291569299e+01
      - -1.4291761601311590e+00
      - 1.1535444445835731e+01
      - -1.5135951288198251e+00
      - 1.1267107730209913e+01
      - -1.5943051375070549e+00
      - 1.1761028113396442e+01
      - -1.6660055014946102e+00
      - 1.1673712424907231e+01
      - -1.7806043798395819e+00
      - 1.1192326361193746e+01
      - -1.6664261210299942e+00
      - 1.1350570867474453e+01
      - -1.6063690754868476e+00
      - 1.1976222669278863e+01
      - -1.4893713010820744e+00
      - 1.2157286334953453e+01
      - -1.5829913509084441e+00
      - 1.2298458913040465e+01
      - -1.5111530952656487e+00
      - 1.1370326816888012e+01
      - -1.6172137007567009e+00
      - 1.1118809083985067e+01
      - -1.7014476822935092e+00
      - 1.1506453321434076e+01
      - -1.7714368575601260e+00
      - 1.1756063752830009e+01
      - -1.7879027896264215e+00
      - 1.1136506175073457e+01
      - -1.6645111201912699e+00
      - 1.1361533212958150e+01
      - -1.6160281837476680e+00
      - 1.2138370634729299e+01
      - -1.5198507821518907e+00
      - 1.2275500425032854e+01
      - -1.6143904086219978e+00
      - 1.2269788148159718e+01
      - -1.5350495409851888e+00
      - 1.1236501951732420e+01
      - -1.6160750114054916e+00
      - 1.1080231083034638e+01
      - -1.7032199145922053e+00
      - 1.1424457771662693e+01
      - -1.7711159204882148e+00
      - 1.1609515021393737e+01
      - -1.9171511349434840e+00
      - 1.1020837428270013e+01
      - -1.7678698145723646e+00
      - 1.1034599867680512e+01
      - -1.6967896561251992e+00
      - 1.1589667627594258e+01
      - -1.6059891115361602e+00
      - 1.1851019229775492e+01
      - -1.7171050483676755e+00
      - 1.1870949589412350e+01
      - -1.6362907804139430e+00
      - 1.1018388436993169e+01
      - -1.7402313994845351e+00
      - 1.0900326965317857e+01
      - -1.8310683698602126e+00
      - 1.1238158904079198e+01
      - -1.8976554455015984e+00
      - 1.2085490069607529e+01
      - -1.6788713449748471e+00
      - 1.1726756953365236e+01
      - -1.5755060402976382e+00
      - 1.1810983723724883e+01
      - -1.5175823341907677e+00
      - 1.2467815073899583e+01
      - -1.4185247234724532e+00
      - 1.2616705204128317e+01
      - -1.5154276532463855e+00
      - 1.2824741124401605e+01
      - -1.4516453622469685e+00
      - 1.1630555587090662e+01
      - -1.5308559262636718e+00
      - 1.1304501127220250e+01
      - -1.6092801516545689e+00
      - 1.1724351965835524e+01
      - -1.6726261696975018e+00
      - 1.2094793552833391e+01
      - -1.9219123328521928e+00
      - 1.1331897749294587e+01
      - -1.6479769897777270e+00
      - 1.1334898083978082e+01
      - -1.5824749562522702e+00
      - 1.1982759213993242e+01
      - -1.4874547348141760e+00
      - 1.2135140168047513e+01
      - -1.5858170218808070e+00
      - 1.2361060767252816e+01
      - -1.5104746879760207e+00
      - 1.1565653759967187e+01
      - -1.6101506241788539e+00
      - 1.1205959856612397e+01
      - -1.6807162897839034e+00
      - 1.1810411071066836e+01
      - -1.8911499503330162e+00
      - 1.1802827561595217e+01
      - -1.7998851387484871e+00
      - 1.1154852066922604e+01
      - -1.6815769068133681e+00
      - 1.1320437101791468e+01
      - -1.6247493285974657e+00
      - 1.1968699883023669e+01
      - -1.5239765169862469e+00
      - 1.2028976800945900e+01
      - -1.6230072700954212e+00
      - 1.2273531027373602e+01
      - -1.5590935373761097e+00
      - 1.1271658063905706e+01
      - -1.6368641569729059e+00
      - 1.1176924876476892e+01
      - -1.7213437466011601e+00
      - 1.1514774999904194e+01
      - -1.7836675701872549e+00
      - 1.2050317042523684e+01
      - -2.0617921207791516e+00
      - 1.1171070101025956e+01
      - -1.7636413767066847e+00
      - 1.1176077269850618e+01
      - -1.6932992735876311e+00
      - 1.1674596486533558e+01
      - -1.5907758957691567e+00
      - 1.1853990484798583e+01
      - -1.7024206778675430e+00
      - 1.1868609518487576e+01
      - -1.6201712166920741e+00
      - 1.1155578928157254e+01
      - -1.7213408345883947e+00
      - 1.1000763644236995e+01
      - -1.7958749701031913e+00
      - 1.1788252815110251e+01
      - -2.0514661152772202e+00
      - 1.2336516015856912e+01
      - -1.7739107163823060e+00
      - 1.1799791068585451e+01
      - -1.5702826032932786e+00
      - 1.1893290659248711e+01
      - -1.4996295987847632e+00
      - 1.2799898152487000e+01
      - -1.4164577408504206e+00
      - 1.3091158666510635e+01
      - -1.5148072984615393e+00
      - 1.3367859189812112e+01
      - -1.4716804937563654e+00
      - 1.1654408538976282e+01
      - -1.5432751272787848e+00
      - 1.1025699602548601e+01
      - -1.6065323135818912e+00
      - 1.1893811074641798e+01
      - -1.7860208103514885e+00
      - 1.1927323058087635e+01
      - -1.8311477923684503e+00
      - 1.1370601755304612e+01
      - -1.7107432554300019e+00
      - 1.1363027916994005e+01
      - -1.6442629954998531e+00
      - 1.2071391860914913e+01
      - -1.5282287620445556e+00
      - 1.2171233569651573e+01
      - -1.6154795897529390e+00
      - 1.2509834081462888e+01
      - -1.5650949572891513e+00
      - 1.1364362390147669e+01
      - -1.6503968722287139e+00
      - 1.1075688210845465e+01
      - -1.7405999935119685e+00
      - 1.1556346726148329e+01
      - -1.8104929445066642e+00
      - 1.2362120847102275e+01
      - -1.9088512615296276e+00
      - 1.1418886443521705e+01
      - -1.6248796393067753e+00
      - 1.1393607576853066e+01
      - -1.5287198767586494e+00
      - 1.2408376707265468e+01
      - -1.4703121812872877e+00
      - 1.2815154585188543e+01
      - -1.8411330487706208e+00
      - 1.2840355479449300e+01
      - -1.5207828917975701e+00
      - 1.1559221494013386e+01
      - -1.6408696796632376e+00
      - 1.1041406088024313e+01
      - -1.7134438892413613e+00
      - 1.1848602200532834e+01
      - -1.9187656776678501e+00
      - 1.2019896489091865e+01
      - -1.9575059135380273e+00
      - 1.1331622409829340e+01
      - -1.7833023716368055e+00
      - 1.1149687939873370e+01
      - -1.6771312858825103e+00
      - 1.1625938263409237e+01
      - -1.5670032853699696e+00
      - 1.2465850976868095e+01
      - -2.0082345840721318e+00
      - 1.2095697130185838e+01
      - -1.6272883485012679e+00
      - 1.1273030531286537e+01
      - -1.7682093909724979e+00
      - 1.0902126079506083e+01
      - -1.8486053793063018e+00
      - 1.1482438859370388e+01
      - -1.9498357206557291e+00
      - 1.2207849904914749e+01
      - -1.6926756464303763e+00
      - 1.1774776599568140e+01
      - -1.5912283494137702e+00
      - 1.1743898621374875e+01
      - -1.5303059272497122e+00
      - 1.2583882440945679e+01
      - -1.4418024071181565e+00
      - 1.2719024779899190e+01
      - -1.5414312771290424e+00
      - 1.3058418441765317e+01
      - -1.4811008786806454e+00
      - 1.1657161203430366e+01
      - -1.5464139938558268e+00
      - 1.1060155282599929e+01
      - -1.5971612892203257e+00
      - 1.1653348326212274e+01
      - -1.6672766017593887e+00
      - 1.1876815238878200e+01
      - -1.7991095615321446e+00
      - 1.1349956547962558e+01
      - -1.6975604494542802e+00
      - 1.1260534554686719e+01
      - -1.6147344769867646e+00
      - 1.2001952915251618e+01
      - -1.5379564140128832e+00
      - 1.2179809630430217e+01
      - -1.6416924741784511e+00
      - 1.2380750507049292e+01
      - -1.5629568986452622e+00
      - 1.1301068804563409e+01
      - -1.6338691042525872e+00
      - 1.1050708525684707e+01
      - -1.7152485179531298e+00
      - 1.1434151540151220e+01
      - -1.7730352969621586e+00
      - 1.2124962757679668e+01
      - -1.7976862827883557e+00
      - 1.1317823286996557e+01
      - -1.6574883108460432e+00
      - 1.1281031986626044e+01
      - -1.5800258036547594e+00
      - 1.2089250048559967e+01
      - -1.4968293934458785e+00
      - 1.2646545642675012e+01
      - -1.8783433667319427e+00
      - 1.2607935141343741e+01
      - -1.5309343420626289e+00
      - 1.1581750593257674e+01
      - -1.6335790911702843e+00
      - 1.1161488416443266e+01
      - -1.6944184810893925e+00
      - 1.1611083818986861e+01
      - -1.7726496828957485e+00
      - 1.1939013476439310e+01
      - -1.9139742153633907e+00
      - 1.1400985926722166e+01
      - -1.7882081636599703e+00
      - 1.1127440829948576e+01
      - -1.6848749956081897e+00
      - 1.1663513994941200e+01
      - -1.6011872901026842e+00
      - 1.2512939021233890e+01
      - -2.0346341875289773e+00
      - 1.2151296126420585e+01
      - -1.6331482710836580e+00
      - 1.1204985290489979e+01
      - -1.7318678662108649e+00
      - 1.0988631519966503e+01
      - -1.8232274759951530e+00
      - 1.1459152558099952e+01
      - -1.8967767452848585e+00
      - 1.2162550899559079e+01
      - -1.6714373975383539e+00
      - 1.1617519234388384e+01
      - -1.5873255946062634e+00
      - 1.1619871633201459e+01
      - -1.5181806268259390e+00
      - 1.2531712230249180e+01
      - -1.4509802640650165e+00
      - 1.2649360459895050e+01
      - -1.5568633343344946e+00
      - 1.2904173100411688e+01
      - -1.4964721527384417e+00
      - 1.1592731868871082e+01
      - -1.5675268787287047e+00
      - 1.1205642387996621e+01
      - -1.6181193887766705e+00
      - 1.1648877851342135e+01
      - -1.6597048784516759e+00
      - 1.2077044413362353e+01
      - -1.9067835669240523e+00
      - 1.1351929178811828e+01
      - -1.6651432489568887e+00
      - 1.1326009970948203e+01
      - -1.5918538197649914e+00
      - 1.2183331898785307e+01
      - -1.5176972323498426e+00
      - 1.2215993995653502e+01
      - -1.6177662403187612e+00
      - 1.2457897104720676e+01
      - -1.5446065194300258e+00
      - 1.1501058988672790e+01
      - -1.6298322365819711e+00
      - 1.1240392273033081e+01
      - -1.6939363799985105e+00
      - 1.1813881196880507e+01
      - -1.8952417245901643e+00
      - 1.2075202020421388e+01
      - -1.7772827896514876e+00
      - 1.1430465559193395e+01
      - -1.6716158780964552e+00
      - 1.1171856761484197e+01
      - -1.5865535749399575e+00
      - 1.1946550756037361e+01
      - -1.5127668593350883e+00
      - 1.2652883247764493e+01
      - -1.9204203667370952e+00
      - 1.2418311521574472e+01
      - -1.5375588041442101e+00
      - 1.1521743136699905e+01
      - -1.6320464976609335e+00
      - 1.1234770547671882e+01
      - -1.7044774068977742e+00
      - 1.1578346791417133e+01
      - -1.7515294096396001e+00
      - 1.2114968413916653e+01
      - -2.0232672700713898e+00
      - 1.1356724464466271e+01
      - -1.7447565370917590e+00
      - 1.1179339494660486e+01
      - -1.6682018994563517e+00
      - 1.1620084604076798e+01
      - -1.5662833370566536e+00
      - 1.2408561362768394e+01
      - -2.0161685391132478e+00
      - 1.1921222919392479e+01
      - -1.5973423446322150e+00
      - 1.1204566124450038e+01
      - -1.6940302643011433e+00
      - 1.1042775903015761e+01
      - -1.7789677996587445e+00
      - 1.1715555426221487e+01
      - -2.0070757069557881e+00
   output_scale:
      - 5.2631578947368418e-01
      - 4.9999999999999994e-01
      - 5.2631578947368418e-01
      - 4.9999999999999994e-01
   inv_output_scale:
      - 1.8999999999999999e+00
      - -9.4999999999999996e-01
      - 1.8999999999999999e+00
      - -9.4999999999999996e-01
   weights:
      -
         - -3.3751340811209213e-03
         - -1.7115317786236905e-01
         - -2.9549957817605460e-01
         - -3.9040683060322769e-03
         - -1.0292404076141860e-01
         - -5.8385665761170728e-04
         - -2.0700561920983722e-03
         - -5.3794020192990316e-02
         - -1.9443687993721457e-02
         - 5.8917312578908266e-03
         - 3.3724172777416851e-03
         - -8.1390333406974630e-02
         - -3.8152712862894608e-02
         - 1.6566427250063201e-02
         - 2.1860241479764009e-01
         - -1.9739941908828666e-03
         - 7.0009055557551467e-03
         - 6.0793064877314009e-03
         - 6.4292636793045624e-03
         - 9.3515226755232668e-03
         - 6.0868464123617618e-03
         - -6.6175223867443846e-03
         - 4.8994786577070777e-03
         - 6.8039417990598886e-03
         - -6.7492610767022681e-03
         - 4.0417343654330822e-03
         - -6.0082363658435257e-03
         - 2.6943660542070619e-01
         - 6.6522781116400880e-04
         - -5.1516991687632777e-03
         - -1.4551309063731525e-03
         - -1.5484327632415424e-03
         - 9.1006017255145042e-04
         - 7.8613219277542778e-02
         - -2.7470334345691991e-02
         - -7.9173151498989382e-03
         - 4.8416540956985272e-03
         - -2.2553123788215965e-01
         - -2.3932970525133290e-01
         - 4.4440486269482953e-03
         - 7.0417690624346909e-04
         - -1.1790855551172301e-01
         - 1.5862744641497853e-02
         - 1.6856102209915957e-01
         - -4.9973733228726226e-04
         - -1.1423188870961834e-03
         - -1.1389962939403895e-02
         - 2.3274479843425039e-02
         - 9.3027332644625782e-05
         - -2.6823325457634071e-03
         - 5.4553479341054442e-03
         - -1.8874159502238405e-03
         - 2.7128417608667466e-02
         - 1.3878185969638923e-01
         - -7.2357731947224968e-03
         - 1.8256020085289723e-01
         - -1.3984155429247024e-03
         - -2.6352434254998535e-03
         - -3.3862479269235031e-02
         - -1.6411103437728364e-02
         - -5.5412343263817280e-03
         - 2.4318043825759757e-02
         - 7.0873203591844828e-03
         - -6.9791614864932227e-03
         - -5.5479710723597191e-02
         - -5.4900694669423747e-03
         - -4.3555282832324022e-01
         - 4.1621510067005658e-02
         - 8.6853318067911991e-03
         - 3.9126328575933306e-03
         - -5.8040120953779728e-03
         - -6.4296455590693545e-03
         - -2.5038607024535225e-01
         - 2.8505046179665185e-03
         - 1.4077049523877344e-01
         - -1.7654670380742366e-03
         - -3.2311842881671267e-03
         - 4.5554080105351573e-03
         - -2.0118658542177246e-03
         - 1.0804270517942932e-03
         - -4.6620814049985748e-01
         - 6.7939305645787454e-04
         - -5.1591168136964636e-03
         - -1.2808533855006876e-01
         - 3.8266745916922793e-03
         - -9.0684193987929207e-02
         - 9.6502579374389223e-04
         - -5.8273097379840988e-02
         - 2.1809809180916065e-03
         - -9.5839227637941292e-04
         - -6.6196760982005923e-03
         - 1.7710556065462530e-02
         - 2.6428511817594546e-03
         - -4.3966051971548570e-02
         - 1.7820753186929422e-02
         - 8.7376117662570189e-03
         - 6.2431777852987808e-03
         - 2.4247291362791273e-02
         - -7.8615899989714251e-03
         - -2.0185279989323591e-03
         - -2.5547739818917330e-02
         - 6.2751371916514045e-02
         - -8.5753288467843455e-02
         - 2.1853892258371987e-02
         - -7.3577616009454533e-02
         - 2.0345771810914084e-02
         - -2.2682470098442049e-02
         - -2.6235683648415432e-02
         - 3.6380157218678495e-02
         - -2.5074764945929785e-02
         - -5.3044575979788330e-02
         - 2.8701554459675361e-02
         - -5.6565129929827498e-02
         - -6.4129312438754547e-03
         - 1.3411406379192936e-01
         - 8.7804865137568952e-03
         - -1.6490765085037096e-02
         - -3.0311496350382515e-03
         - -1.4690894710006897e-02
         - 2.9454332719456935e-02
         - -6.5856142381414779e-03
         - 3.9042220145250758e-02
         - 8.4905009285310298e-04
         - -2.4740140709090711e-02
         - 3.0885948471873811e-03
         - -1.7583863485111994e-02
         - 4.4340177202590175e-02
         - -5.3758694792217476e-01
         - 3.4599711740472376e-02
         - -1.7051065984757512e-02
         - -1.4398157022829253e-01
         - 3.3151675158095994e-03
         - -4.0249366070829774e-02
         - 3.1137634024082487e-02
         - -3.3075752297140193e-01
         - 2.2693865786611256e-02
         - 8.2847974975811412e-03
         - 7.2963640756331216e-02
         - -6.0773806632283531e-02
         - -5.6355609892570577e-03
         - 3.8449979031374157e-03
         - 2.2216614617054696e-03
         - -9.8715007735097449e-02
         - 2.6107139242004932e-03
         - 1.3792393794640385e-02
         - -2.8462334961846483e-02
         - 3.5511692955134525e-02
         - 4.1704809276353699e-02
         - 2.9624050912803668e-02
         - 1.0324656026576156e-02
         - -2.6518366224144690e-02
         - 9.4179213595757625e-03
         - -3.5042905913699254e-02
         - 3.6567589484450624e-01
         - 7.8393193723374846e-03
         - 1.4657890912533739e-01
         - -4.3778640783698267e-02
         - -4.4729465086909989e-02
         - 1.3230231751316937e-01
         - -1.4319501065260704e-01
         - 2.5780866971465890e-02
         - -2.2609154130812542e-01
         - -2.4754235240613254e-02
         - 4.1583373478574825e-02
         - -1.2693802538888582e-01
         - 3.1374217378918962e-02
         - -3.5178780266737941e-01
         - 6.6283479550367647e-02
         - -4.2573208724004566e-02
         - 4.0241058099115573e-02
         - 3.0121381176093334e-02
         - -9.9985226925853789e-03
         - -1.7755560886757280e-01
         - 8.3977266316094500e-03
         - 5.1272689467571753e-01
         - -3.3749951985934487e-02
         - 6.1424514438238806e-03
         - -4.6000062968290035e-03
         - 2.8343542541488347e-02
         - 6.0385670260417511e-03
         - -4.3315679393748996e-01
         - 5.3888308748143840e-03
         - 3.2693692500783474e-02
         - -9.9507416496848453e-02
         - -1.3686081146321579e-02
         - -2.2298562802201619e-02
         - -1.1862027756222224e-02
         - -2.4661869522630324e-02
         - -3.7306136334720408e-02
         - -1.9155396236674407e-02
         - -3.8241510345592811e-02
         - -2.4295654299077131e-02
         - 4.1443097847200579e-02
         - -5.1681523478138723e-02
         - 4.1744548229509459e-02
         - -3.7425119533502055e-02
         - -2.7956731867399574e-02
         - 3.8604871283329234e-02
         - 3.3385563085223696e-02
         - 2.1271454283372411e-03
         - -1.2960196321583423e-02
         - 3.3190638250105992e-01
         - -1.7009700836792435e-01
         - 1.4021230706570584e-02
         - 4.4382951089567474e-01
         - 1.0651934807096797e-02
         - -8.6161312767064208e-03
         - 1.1522170333525344e-01
         - 9.5782898193201467e-03
         - -1.0012378158081906e-02
         - -2.7010627187955442e-02
         - 1.6106928821729966e-01
         - -3.0162277636607816e-02
         - -1.0025215713362776e-02
         - 1.9157342227198942e-01
         - 6.9236950215882569e-03
         - -2.7676057807026829e-03
         - -5.4626552766794843e-03
         - -4.5260771805168808e-03
         - -3.3557847446109013e-02
         - -6.9087691346547070e-03
         - 1.2819575829468424e-02
         - 2.2940563791723190e-03
         - -8.8659218093886712e-03
         - 3.6587650008461882e-03
         - -4.4700916161778880e-03
         - 1.4187331138463920e-02
         - -6.1924190352834182e-02
         - 7.4787586862898586e-03
         - -4.2855479488800785e-03
         - -6.2173186883999372e-02
         - 2.7961516087504468e-02
         - -1.5836249020390242e-02
         - -1.0370299442216134e-01
         - -2.1471976767961148e-01
         - 2.7739691561385073e-03
         - 1.6259807150453773e-03
         - 6.7139345845549009e-02
         - -1.8687402707967954e-01
         - 1.2731913458443522e-03
         - 3.4962537246286483e-03
         - 1.3171573561683547e-01
         - -5.1055537589582915e-02
         - -1.2081254441891832e-01
         - 2.1729072770278026e-03
         - -5.9961656406178430e-03
         - 1.7255376122262193e-02
         - -2.5976293972187536e-02
         - 1.4462605039579300e-02
         - -1.1431071753822328e-03
         - -1.3317818060928256e-02
         - 5.8699441880402520e-03
         - 5.8999945561891468e-04
         - -9.2859114923377742e-02
         - 8.1428174199244824e-03
         - 2.2792702649712865e-02
         - -2.8632926758752054e-02
         - 6.5708212511489186e-03
         - 1.6770740589364586e-01
         - -1.3297504193550462e-04
         - 1.2399354604695408e-02
         - 2.1541678712202070e-01
         - -5.3570955747107036e-03
         - 8.4906222529393723e-03
         - 1.1402225187224291e-01
         - 1.3208268270974932e-02
         - 2.3818519842547789e-01
         - 4.0858418033690794e-02
         - -1.8030722787766278e-02
         - 1.2596954372892601e-04
         - 3.4226436692052524e-03
         - -8.1897091991653941e-03
         - 3.9604942375667906e-01
         - 7.4114021398403278e-03
         - -1.5708765106631536e-01
         - -1.5021788537244327e-02
         - 5.2951110924969597e-03
         - 4.9926458199585633e-03
         - 8.9801063167242526e-03
         - 1.7538045833458582e-03
         - 3.0785921298743826e-02
         - 1.5682181205154619e-03
         - 1.7600666070097394e-02
         - -2.3660677020026374e-03
         - -9.8110670882095297e-03
         - 1.6162961322755490e-01
         - -8.8220208362291674e-03
         - 1.6700923496517805e-01
         - -1.7678970296243178e-02
         - -7.4300323517720321e-03
         - -1.0855648226754635e-02
         - 1.1346338678713160e-03
         - 7.8618672238596476e-03
         - -2.9417912987085099e-01
         - 9.9685158352643150e-03
         - -1.5065323531785002e-02
         - -1.2097108997278684e-02
         - -2.8273242430607174e-03
         - 1.0819118838235903e-02
         - 4.1632493727389022e-03
         - -1.4953873986720118e-02
         - 2.3054024578125190e-01
         - 8.8649035680807800e-02
         - 8.5014487008932653e-03
         - 1.3851813901187038e-01
         - 3.5334245197171390e-03
         - -8.2700238767602977e-03
         - 7.6512989506186277e-02
         - 1.2229223698342867e-02
         - -6.3738538755765597e-03
         - -2.1318785094713074e-02
         - -2.4264763953461421e-01
         - 5.6402033431804614e-03
         - -1.9455655062096171e-02
         - -1.4778973344657231e-01
         - -1.7807546963956769e-03
         - -5.3910275147271104e-03
         - -4.9500742057640382e-03
         - -3.3785725329121990e-03
         - -9.4014145993252737e-03
         - -4.1929440123473910e-03
         - 1.3064931138410184e-02
         - -4.4332783452103808e-03
         - -7.0617679245169413e-03
         - 3.1221991455449689e-03
         - -4.6596670233004633e-03
         - 9.0459688893051744e-03
         - 3.6786541795745853e-01
         - 1.6716918503767213e-02
         - -7.0767876440135987e-03
         - 9.1369349465968641e-02
         - 5.7290891798921495e-03
         - -1.4797401642673515e-02
         - -4.2538394510271423e-02
         - -2.1089277031678369e-01
         - 1.1568549840759828e-04
         - 6.5296020475100460e-03
         - 1.9542550877633894e-01
         - 2.3481602455046109e-02
         - -4.4216279027525394e-03
         - -5.6075513591485032e-03
         - -1.5840499614820555e-01
         - 3.2677008609692143e-01
         - 5.4260061285486910e-02
         - 1.2109599024796047e-03
         - -1.1344923856644155e-03
         - 1.1363312642692516e-02
         - -1.9350115192730603e-02
         - 6.7014367950529461e-03
         - -3.7998488213789325e-03
         - -1.1934059687402496e-02
         - 1.0153621889605238e-02
         - -7.9529959472437010e-03
         - -1.5080688055012245e-01
         - -8.4519823712311446e-04
         - -1.1271243234358040e-01
         - -3.1783338165633661e-02
         - -6.3208680868116641e-03
         - -5.2994745553360596e-02
         - 1.1199944841020307e-01
         - 5.9837332576508136e-03
         - 1.1795289323805004e-01
         - -6.6179929756669391e-05
         - 1.0272373607305766e-02
         - 1.5245506884924409e-01
         - 1.2813842176498759e-02
         - 8.2795386529322772e-03
         - -9.5780276081398649e-02
         - -1.0092849662656909e-02
         - 3.0369522804903184e-03
         - 5.4632009869565457e-03
         - 2.3998841610576018e-03
         - 1.4676296007509734e-01
         - 7.8383815906816893e-04
         - 3.0291235104002018e-01
         - -1.5452266317947981e-02
         - 2.5495879134183261e-03
         - 1.0649477434316668e-03
         - 5.5388150943709753e-03
         - -4.2869829575821429e-03
         - -1.4550967930285608e-01
         - 7.1184455968616748e-03
         - 5.8000568308957880e-04
         - 5.8657343638164383e-02
         - -3.8193946474680712e-03
         - 2.6572848033023986e-02
         - -3.3021121613540836e-03
         - -2.6122668101429924e-01
         - -6.2852914656626293e-03
         - -3.9067549443906379e-03
         - -1.6856396812282577e-02
         - -1.5726528472103266e-02
         - 1.1968404917587192e-02
         - -3.1719158157702121e-01
         - -6.4204778264525643e-03
         - -1.2039872190299065e-02
         - -9.5238327967957920e-03
         - -7.2908615419216656e-03
         - 1.8570655634991787e-02
         - 1.5117158178653857e-03
         - -2.9597656895578917e-02
         - 2.1236179076026598e-01
         - 2.6693819167108129e-01
         - 1.9867862582771491e-02
         - 3.1148804860859983e-02
         - 7.9008613016565369e-03
         - -2.8306463587460737e-02
         - -9.9323716567864104e-06
         - 5.1332912971734521e-02
         - -2.3136695769644996e-02
         - -2.6650394237770290e-02
         - 1.8011147448954662e-01
         - -2.0342903245500615e-02
         - -2.0696879691753697e-02
         - -4.4037670689205305e-01
         - 1.4780886494392869e-02
         - -1.3171131316253457e-02
         - 6.3352503984378883e-03
         - -1.9223059045497638e-02
         - 4.2221210661689240e-02
         - -2.8777596507161725e-03
         - 3.3733434921076576e-02
         - -2.0885994828594464e-03
         - -2.3456490536457684e-02
         - 8.6602843920119948e-03
         - -1.2590557815067625e-02
         - 2.9983432477744262e-02
         - 1.1114673536271154e-02
         - 3.3987006866415960e-02
         - -8.7332797522147801e-03
         - 1.9638513157529115e-02
         - 4.0686305898639613e-02
         - -3.5562744793653317e-02
         - 5.1048844144825550e-02
         - 2.6010120464987102e-02
         - 1.4056963774947560e-02
         - 5.1887286852808938e-04
         - 2.1045160135795948e-01
         - 1.6384386470657830e-01
         - -7.0758016943233172e-03
         - -1.4851734824138675e-03
         - -2.0843071683860140e-01
         - -2.2664835879089969e-02
         - -1.3612104055311705e-01
         - 3.8571921515219809e-03
         - -2.3375758387056876e-02
         - 3.4580970710170765e-02
         - 4.5239295756155228e-02
         - 2.0632835544972871e-02
         - 4.3175967757618670e-03
         - -2.2670286944238529e-02
         - 1.1532615910906398e-02
         - -4.5833399023338058e-02
         - 1.9640178817734083e-01
         - 9.5897998653764367e-03
         - -7.3895314568655723e-02
         - -4.6154221884186823e-02
         - -3.3446195928566534e-02
         - 3.8282990047535043e-01
         - 5.8548661800753007e-02
         - 2.1717518782597506e-02
         - 1.0786437178661999e-01
         - -1.4418687016428655e-02
         - 3.4914819705997482e-02
         - -7.6412818308442210e-02
         - 2.9476370082456710e-02
         - 3.5880190129783501e-01
         - -6.5553292304126029e-02
         - -3.8964122744813166e-02
         - 3.6934207785331574e-02
         - 2.0454136395871136e-02
         - -2.2009973562194347e-03
         - 6.1655084528118305e-02
         - 1.1146316355587648e-02
         - -8.7257084313663094e-02
         - -2.6036596144521456e-02
         - 7.4964486462289438e-03
         - 1.9366856886338937e-03
         - 3.3943745926224851e-02
         - -4.5207467315744364e-03
         - -2.9368005495913563e-01
         - 8.7720174582795393e-03
         - 1.3146070537450838e-02
         - -2.1572018253118462e-02
         - -1.0777088254100372e-02
         - -6.8662045190983040e-02
         - -9.0908251474172714e-03
         - -8.2992995242715584e-02
         - -4.4752151265004460e-02
         - -9.9366751238114202e-03
         - -3.9139365580891580e-02
         - -5.0781805254868820e-02
         - 2.2189778493086749e-02
         - -1.8322959051466081e-01
         - 4.9173422517637504e-03
         - -3.1027693607541530e-02
         - -3.6775552294570260e-02
         - 3.9033854940620172e-02
         - 4.2365112006777776e-02
         - 3.8300440666469591e-03
         - -4.9757028449929144e-02
         - -4.9941851705171619e-01
         - 1.7003337251482883e-01
         - 3.9911736575016579e-02
         - -3.5778175982234334e-01
         - 2.2966993483037899e-02
         - -4.6680154101252570e-02
         - -1.0142217971278147e-01
         - 7.8892031457605011e-02
         - -3.4710058629355514e-02
         - -5.9463443049379144e-02
         - 1.0292739486846574e-02
         - -4.4761226909292517e-02
         - -1.5580218529006807e-02
         - -3.0588760665516174e-01
         - 1.3496140687133460e-02
         - -3.1647928642615411e-02
         - -4.7568170994980400e-03
         - -3.3033392705979818e-02
         - 1.1241191001912829e-01
         - -1.6738625317010508e-02
         - 6.3221422412249914e-02
         - 7.8460157216279150e-03
         - -4.9991581215750924e-02
         - 5.6404677904801923e-03
         - -2.7174080147085455e-02
         - 7.2618666034799689e-02
         - -7.8834034362606095e-02
         - 7.0232971413045187e-02
         - -1.5168993153828242e-02
         - -5.7722123400702305e-02
         - 5.2590752530757012e-02
         - -6.1991019333277775e-02
         - 1.5159524353462572e-01
         - 1.9860952692337061e-01
         - 3.1924033330756441e-02
         - 8.0010737091172207e-03
         - -6.0203382371924699e-02
         - 1.6645748414684050e-01
         - -9.4038831865513716e-03
         - 9.7924422768224557e-03
         - 4.3028747446738264e-02
         - 2.2518057684174003e-01
         - 2.9447553819029360e-02
         - 1.7743814305832162e-02
         - -3.8093453051570622e-02
         - 6.8680638697263444e-02
         - 1.3119643646890533e-01
         - 4.4254345899900197e-02
         - 9.4118484953118059e-03
         - -4.2843079330629107e-02
         - 1.8896346755718014e-02
         - -1.1853571382580214e-01
         - 1.3503332843678331e-01
         - 2.2020043125705192e-02
         - 1.2550003880990981e-01
         - -7.6304137846336828e-02
         - -8.8248344435470388e-02
         - 6.7054370559062673e-02
         - 9.7204629983963665e-03
         - 5.2193782456698500e-02
         - -1.8508902477979004e-02
         - -2.4215534147675463e-02
         - 7.1460880440881974e-02
         - -2.0498030599776887e-01
         - 5.4374442032977213e-02
         - 2.6913552115045875e-01
         - 6.3233282368704291e-02
         - -9.0617770389697927e-02
         - 8.2966409354042037e-02
         - 4.2241502110786124e-02
         - -1.0603625734992768e-02
         - 1.2920713948413248e-01
         - 1.0094370470345868e-02
         - -6.7587395763923877e-02
         - -5.5490685952680446e-02
         - 6.1667613630936756e-03
         - -5.6317775132003608e-03
         - 5.7300229744016044e-02
         - 8.2385653660296896e-04
         - -3.8289260154902388e-01
         - 1.2270353380583980e-02
         - 3.8053462633003847e-02
         - -4.1872799691364659e-03
         - -1.9054185353373554e-02
         - -1.9411457871527016e-01
         - -1.3480833387610448e-02
         - 6.0842919145989618e-02
         - -9.0323108621166104e-02
         - -2.0853168988700908e-02
         - -7.7071358858297953e-02
         - -1.0735997887846782e-01
         - 5.6458876699714645e-02
         - -3.8951227792339310e-02
         - 2.8285756764728012e-02
         - -5.8774165369711702e-02
         - -6.4473899356291359e-02
         - 9.0099253044140418e-02
         - 7.5613422653461437e-02
         - -9.2513627082221764e-04
         - 4.1811873803706033e-03
         - -2.2959566408273721e-03
         - -1.0897641652944250e-01
         - 6.7073019919763957e-03
         - -1.4034026895016261e-01
         - 2.3142837340854282e-03
         - -6.1274649474292826e-03
         - -6.3526861807761820e-02
         - -8.1921936028723011e-03
         - -6.2900656920115800e-03
         - 1.0769327063653534e-02
         - 2.4514483122360577e-02
         - -1.3463708519161869e-02
         - -6.5545948264187403e-03
         - 5.2560386256743655e-02
         - -3.8548213120368716e-04
         - -3.6030520826325642e-03
         - 7.3643411611913380e-03
         - 1.0694872749999467e-03
         - 4.1088984264241180e-02
         - 5.6324855352823519e-03
         - -5.9109098897330041e-03
         - 5.7719935676804101e-03
         - -2.7160714519092796e-03
         - 6.6046464937147471e-04
         - -2.4742583266809505e-03
         - 7.4789990699528630e-03
         - 6.3747925433877334e-02
         - 9.3364145761649329e-03
         - 9.7423485737215606e-04
         - 6.5291142518989806e-02
         - -4.6365084821808102e-02
         - -3.2492631328553921e-03
         - 7.0284805704489653e-02
         - 5.9182244503467940e-01
         - -3.4148972490712098e-04
         - -5.3006294320798316e-04
         - 1.5463353624831000e-01
         - -2.0552812133325377e-01
         - -5.1098907436051746e-03
         - -1.3998226756856274e-04
         - -1.2630199175489501e-01
         - 2.1243931397182475e-01
         - 3.8412039264100674e-02
         - 1.0042615455204862e-03
         - -1.4139432450374773e-03
         - -4.3219360733462754e-03
         - 4.7844742974603185e-02
         - 6.8273896935649794e-03
         - -2.9012891077832407e-03
         - 1.1314069879642885e-03
         - 3.8920496695874322e-03
         - -4.6122754782388455e-02
         - -6.5407929942428375e-02
         - 1.7473752484939899e-03
         - 1.2007858739275773e-01
         - -6.5848206916928106e-03
         - -1.8914747310150557e-02
         - 1.4783498742077800e-01
         - 5.8072800588218343e-02
         - -3.4735663194476626e-04
         - 2.4394753615666057e-01
         - -3.5798563584444804e-03
         - 5.8200648581094687e-03
         - -1.8506135859126868e-01
         - -3.2629063136565802e-03
         - -3.0513369444890548e-01
         - -3.8395034211246369e-02
         - -1.6518528874266396e-02
         - 1.2395414798247779e-02
         - 1.5298577669788276e-03
         - -4.7650962496186364e-03
         - -2.2925619255416890e-01
         - 4.6726202601305982e-03
         - 2.1539033693146390e-02
         - -5.8737874111715969e-03
         - -4.4690554930280771e-03
         - -2.2322597551836091e-03
         - -3.4108248074179665e-03
         - -5.3574692838733989e-03
         - -4.0159358478734836e-02
         - -1.8693982164407273e-03
         - -6.7037568167730155e-03
         - -2.6575074733207443e-02
         - -2.9925245353597482e-03
         - -1.4499055997133989e-01
         - 8.6498600188853150e-06
         - 4.5936312609537050e-01
         - -1.6816811520032872e-02
         - -1.0841714561891315e-03
         - -1.4583831806095487e-02
         - 1.3466007244369414e-02
         - -6.4872682598387157e-03
         - 1.6329684028690814e-02
         - -2.5426520881646902e-03
         - 3.6524274644002123e-04
         - -1.0331281447007295e-02
         - 5.0246399542099113e-02
         - -5.0434650607035260e-03
         - 4.2984017783577379e-03
         - -1.4644642455300604e-02
         - -5.1854149297443863e-01
         - -7.4845228968367192e-02
         - 1.0728430284015791e-02
         - -2.1831810289523203e-03
         - 5.3132765361660287e-03
         - -9.2497434458207236e-03
         - -9.9727101464843315e-02
         - 1.6443705865968330e-03
         - -1.1880567832367458e-02
         - -3.2674823309157823e-02
         - -5.4336130438330722e-02
         - -8.9509385902816652e-02
         - 5.8400184320822213e-03
         - -1.0039661593198025e-02
         - 2.7718168563050866e-03
         - -1.4284357842232908e-02
         - 1.1906526141736299e-03
         - -1.1003258124609189e-02
         - 7.1075658703996528e-02
         - -5.5697845333163125e-03
         - 1.8178701800477367e-02
         - 6.1863756791056754e-03
         - -1.6145152131070744e-02
         - -4.0493057303797970e-03
         - -2.9107189459902940e-03
         - 2.9199122230995460e-02
         - 1.5494439801796658e-01
         - 1.5828845922103166e-02
         - -9.4147750865087414e-03
         - -8.3228029071936212e-03
         - -2.0147945778985397e-03
         - -2.5279147728297768e-02
         - 1.2519224941796320e-01
         - -1.1203459884612366e-01
         - 6.5576513799910545e-03
         - 6.6226726246969370e-03
         - -1.8027496041318666e-01
         - -2.1985810716485060e-01
         - 2.5578714751481649e-03
         - -4.9737076515796843e-03
         - -1.0357300477244681e-01
         - 2.5340633892324926e-01
         - 1.5478007772873265e-01
         - 1.2781068895420926e-02
         - -5.7685911557582483e-03
         - 2.3370289278417621e-02
         - 7.0638366266476932e-02
         - 1.5284473228459298e-02
         - 2.3006737379099428e-03
         - -1.2877037971745643e-02
         - 1.3810624215189433e-02
         - -7.3644860225725584e-02
         - -8.4040923220438282e-02
         - 1.0882869383244450e-02
         - 6.4612327671268927e-02
         - -3.9364839436297094e-02
         - -3.6653056856750563e-02
         - -1.5818460762359200e-03
         - 1.4706173071653736e-02
         - 1.4341694975316245e-02
         - 1.2173472319762747e-01
         - -1.0058030455561407e-02
         - 1.9349430751449438e-02
         - -1.0424523836764139e-01
         - 1.5819957983378430e-02
         - -4.4580973401187551e-02
         - 7.7074059309010000e-03
         - -3.9890378576474081e-02
         - 3.6801866587349012e-02
         - 1.1878902230649911e-02
         - -3.2242525132761381e-03
         - 8.7722614339834831e-02
         - 1.4273449915360244e-03
         - 6.6142107316304921e-01
         - -1.7791121109961217e-02
         - -1.1817921978434982e-03
         - -5.1728494730791082e-03
         - 1.6835955418930623e-02
         - -1.0919304026405618e-03
         - -1.8107407840791898e-01
         - 1.4019793441448025e-03
         - 1.1269654984729196e-02
         - -1.7093030424461109e-01
         - -6.5176810468907972e-04
         - -1.7152812144790774e-01
         - -1.2716556481822065e-02
         - 1.7600873933207879e-02
         - -3.8681691175877699e-02
         - -7.1004260337403750e-03
         - -3.0455280729267585e-02
         - -1.8902885923368747e-02
         - 2.6525005145408245e-02
         - -6.6069747519499428e-02
         - 3.2322817711011316e-02
         - -2.6535292540410215e-02
         - -1.9632506305447425e-02
         - 1.2608077400202372e-01
         - 2.2803180151847718e-02
         - 3.6973841479940634e-03
         - -6.2522558889982838e-03
         - -1.1743881503723690e-01
         - 2.5002292884834726e-01
         - 2.2665365865173837e-03
         - -2.6173038271059751e-01
         - 1.4249208503340285e-03
         - -4.0254589191346980e-03
         - -8.9077120868995871e-02
         - -6.5167858094724602e-03
         - 9.5698793421128739e-04
         - -2.1165908358789322e-02
         - 4.4919809060778110e-02
         - -5.8320351562326754e-02
         - 1.4524748316278967e-02
         - -3.8596891422842866e-01
         - 3.2995833521872976e-03
         - -4.5348184345047806e-03
         - 3.9201511249112206e-04
         - 2.4626599442594644e-04
         - 4.5032237341159471e-02
         - 4.8375160580841226e-03
         - 2.0243238818626525e-03
         - -4.2830500297705359e-03
         - -4.8861056342090836e-03
         - -8.7973745145597981e-04
         - 7.4423482704398620e-03
         - 1.0953745268675345e-02
         - 7.8729713103772872e-02
         - 4.8375515106960365e-03
         - 4.6366480631039944e-03
         - -2.5736652192547904e-01
         - 3.1608019231967988e-02
         - -8.1580539301979362e-03
         - 1.1291338272816442e-01
         - 6.1068305352901298e-01
         - 2.1897939620206782e-03
         - -2.9801187211078137e-04
         - 4.7361612384749499e-03
         - 1.2985619356052286e-01
         - 2.5291846036587656e-03
         - 5.7034508180778211e-04
         - 1.0351196140666241e-02
         - 4.0959504711432934e-02
         - 1.9305789895435785e-01
         - 2.3175206531265377e-03
         - -2.2733677833635172e-04
         - 1.2295923502989465e-02
         - 4.8007495215105611e-02
         - -4.0079301009781493e-03
         - -4.3216253750294736e-03
         - -8.1811913164940766e-03
         - -2.3627562692937832e-03
         - -9.4459220510362766e-03
         - 1.0090422670860769e-01
         - -5.0994834086842012e-03
         - 5.5096748784317140e-02
         - -1.9777952852633965e-02
         - -2.0439167578597945e-02
         - 2.7119904158610836e-01
         - 1.7121493999141377e-01
         - 6.0420838731912582e-03
         - 1.0809995159963137e-01
         - 4.1651489545864334e-05
         - 2.4101081962656952e-04
         - -9.5085354326603602e-02
         - 5.8315179672474423e-03
         - 1.4304211469109190e-01
         - 2.8546029309817689e-02
         - -1.6583056078846949e-02
         - 1.8407292608839207e-02
         - -2.3924632616812375e-03
         - 3.2390647621680390e-03
         - 1.4683341561300160e-02
         - -1.3946524649153329e-03
         - 1.9534211626440601e-01
         - -1.2464082848767872e-02
         - 1.7082655678075757e-03
         - -2.5091065581492092e-03
         - 7.8431243408938981e-03
         - 8.0662467328722690e-03
         - 5.4275142633558260e-02
         - 1.9203009124896732e-03
         - 4.1571907867834204e-03
         - -1.3758080227440203e-01
         - 4.6380308648205559e-03
         - -9.3515674389118675e-02
         - -1.1302794370267653e-03
         - -3.3108519204565777e-02
         - -1.7968885101492849e-02
         - -4.1139300883889186e-03
         - -1.7718727572502611e-02
         - -4.1624592903322993e-03
         - 1.8720849523964710e-02
         - -1.8233627638358099e-01
         - 2.5165378883186755e-02
         - -7.9380812413333071e-03
         - -1.0319379726299909e-02
         - 7.4648777439809549e-02
         - 4.6127080897719920e-04
         - -1.8608074650891435e-03
         - 2.6266734032294927e-02
         - -9.9052771859927530e-02
         - -9.6033114215419144e-02
         - -1.6878467536022006e-02
         - 1.6945419786529647e-01
         - -8.3366525358463169e-03
         - 2.3175878033240612e-02
         - 1.9059050879530838e-02
         - -2.6558753926034944e-02
         - 1.3612263621386749e-02
         - 2.7323494136270606e-02
         - -4.1210389672971254e-01
         - 1.4419043165622246e-02
         - 6.3202002857072510e-03
         - -6.2431159274313067e-03
         - -2.5607181998547309e-03
         - 2.0539513419764930e-02
         - 4.5040154034231865e-03
         - 1.9992414872616868e-02
         - -3.7778311460074099e-02
         - 1.0259786427504533e-02
         - -3.0716087000064715e-02
         - -1.4773712532154849e-04
         - 2.5735681851710258e-02
         - -4.3111576399424440e-03
         - 1.9156000434293555e-02
         - -3.7748531919795880e-02
         - 9.3353180970868102e-02
         - -2.4773763029567134e-02
         - 1.0057768458029640e-02
         - 4.7963433445107784e-02
         - -1.1040257294765042e-02
         - 3.7026689563366702e-02
         - -2.5427779001259403e-03
         - -7.6366536893360662e-02
         - -2.3946523350764103e-02
         - -1.7007052474567797e-03
         - -1.4244675992812897e-01
         - 4.2746290305339232e-02
         - 5.0849086963354077e-03
         - -1.0148519873081252e-03
         - -9.1998811772069408e-02
         - -2.5962296962297526e-01
         - -7.7288176633890121e-02
         - -3.1799411236350015e-03
         - 1.5930321688085274e-02
         - -2.6024080398977894e-02
         - -4.4072459291586090e-02
         - -1.6175375783800152e-02
         - -2.7862902150907294e-03
         - 1.3311022608946635e-02
         - -9.1124458243619175e-03
         - 6.0495416611505842e-02
         - -1.2274903790119350e-01
         - -8.7056910644640779e-03
         - 5.6220385297362500e-02
         - 4.6044724948275967e-02
         - 4.0061546607052419e-02
         - 8.7183680590577031e-02
         - -2.6240071733915370e-02
         - -2.0675411553599452e-02
         - 3.2188079046037717e-02
         - 1.2902632382806067e-02
         - -3.6965817174158561e-02
         - 2.8869632426954454e-02
         - -2.9685895316132343e-02
         - -9.7176192338808101e-02
         - -6.7854837659730646e-03
         - 5.0910711341434274e-02
         - -4.3661120190872600e-02
         - -1.9413649824363857e-02
         - 8.5299478496370998e-03
         - -9.9369321261912561e-03
         - -1.1005353904355687e-02
         - -2.6411200778907545e-01
         - 2.8036816611807333e-02
         - -8.2572697382189274e-04
         - 2.9329925261911971e-03
         - -2.0798724157722163e-02
         - 2.7753770331537353e-03
         - -2.3472380710488569e-01
         - -8.3141979238603881e-03
         - -2.6105342874051383e-02
         - -2.7971763932760629e-02
         - 1.1353283048935563e-02
         - -2.1572294764982147e-03
         - 1.0563773376259831e-02
         - 1.6111463113236896e-01
         - 4.3555068103431231e-02
         - 1.1277190126350789e-02
         - 3.2621840966209424e-02
         - 3.7171526851410036e-02
         - -1.8028323883351984e-02
         - -7.5173969659845753e-03
         - -5.4431025642084031e-03
         - 2.9789651769930089e-02
         - 3.6937305176721419e-02
         - -1.3740245237291619e-02
         - -2.8898688412426293e-02
         - -6.9776374985916949e-03
         - -2.2952423316577116e-04
         - 6.1230851512071728e-02
         - -3.6111431222246759e-01
         - -1.8073358221560942e-04
         - 3.5663546678697889e-03
         - 7.0513222009977996e-03
         - 1.7064699323868474e-03
         - 7.9822892301571038e-02
         - 9.5360565293424807e-03
         - -8.1441945459517651e-03
         - -2.4092948831942729e-02
         - -3.0593469543482327e-01
         - -3.3366937614991612e-02
         - 1.7087636764836671e-03
         - -2.7060457431253893e-02
         - -5.1213103146391088e-04
         - -8.6243115335874875e-03
         - 6.0167509026709930e-03
         - -6.7557579085500306e-03
         - -1.0843897139239099e-02
         - 2.4965898148630763e-03
         - 1.1258024746452749e-02
         - 3.6390196860750373e-03
         - -5.7533565575199107e-03
         - 4.0228126038560474e-03
         - -6.3907997928316883e-03
         - 8.7136220801640411e-03
         - -1.9054893403200504e-01
         - 1.6536506463625819e-03
         - 9.3863337948320779e-04
         - 1.1498049170535972e-01
         - -2.3825090511578773e-02
         - -6.4188417448079113e-03
         - -3.9570441517678197e-02
         - 1.4953645450600586e-01
         - 8.0522172393999378e-03
         - -1.6295648391539412e-03
         - -1.7735338162469683e-01
         - 5.4531034299700248e-03
         - -1.9577953717373169e-04
         - -4.9585514724390205e-03
         - 3.4499718223322359e-02
         - -2.5533682945820380e-01
         - 1.2514521676587595e-01
         - 4.7631527139866533e-03
         - -1.1082411666937585e-02
         - 3.5969213775075125e-03
         - -5.5463987778879269e-03
         - 1.1375904512865671e-02
         - -3.1616438926633430e-03
         - -1.2902613147922765e-03
         - 7.9980246205108463e-04
         - 6.2905386420698799e-03
         - 6.8793582873821577e-02
         - 9.4572207103008014e-03
         - 9.8027488809703536e-02
         - -4.7421531295375281e-03
         - 1.7665379727162325e-03
         - -1.0601604047675243e-02
         - -1.0896207722997946e-01
         - 5.3379652142095235e-03
         - -2.4808086412615130e-01
         - -8.0251918072105424e-03
         - 4.4540038627378757e-03
         - -2.4576821133077700e-02
         - 1.1945497547780248e-02
         - -2.1051840959354959e-01
         - 5.1277353990589233e-02
         - -5.1691292467810294e-03
         - 1.8754434359335660e-03
         - 9.1091549213063536e-03
         - 3.5760629779055591e-03
         - -1.5483084913956979e-01
         - 6.9498707345049902e-03
         - 1.0412898162327039e-01
         - -4.3226534630019181e-03
         - 4.2233593790267218e-03
         - 4.3352948608124898e-03
         - 1.1353954962874283e-02
         - 3.8553747877292390e-03
         - -3.0932340861062446e-01
         - 6.1831144145230634e-03
         - 1.4654907522619038e-02
         - -7.3158524458831461e-02
         - -8.0982156528473896e-03
         - 8.5497261175977890e-02
         - -1.3101333667567170e-03
         - -5.8656605863178050e-02
         - 3.3335847117121954e-03
         - 5.7867743488526407e-04
         - 1.0225021795645765e-03
         - -4.8752906148482565e-03
         - 1.8629816772848001e-02
         - 5.3048051914337459e-02
         - 2.0378661165816110e-02
         - 2.1105345574829477e-03
         - -4.7439391443889574e-03
         - 2.3783594673884401e-02
         - 1.4548635399551021e-02
         - -1.9742685537176576e-03
         - -6.5856087415441097e-03
         - 1.0247095434730857e-01
         - -9.0531843347428129e-02
         - 8.2419333890686626e-03
         - 2.3648489459180680e-01
         - 9.9225275397568993e-03
         - -6.3039666799441429e-03
         - 1.3596238944621886e-01
         - 1.2618813550692868e-02
         - -1.0457523417701956e-02
         - -1.3864153488937901e-02
         - 4.9497898829020594e-02
         - -4.5891379444418137e-02
         - -1.6217722755166145e-02
         - 5.5478477495344597e-02
         - -2.0019077269372025e-03
         - 7.4797347339581992e-05
         - -2.8646227025377019e-03
         - -3.6905323839848671e-04
         - -2.2862716353303083e-02
         - 9.9435601252984701e-04
         - 5.8897090910616946e-03
         - -3.2464453641966448e-03
         - -1.3236586206912702e-02
         - 7.7773684258070882e-03
         - -5.8996895797729905e-03
         - 1.2476673589774060e-02
         - 1.9099555132794735e-01
         - 7.7201499366926383e-03
         - -3.0670829756560057e-03
         - -9.2535193183670206e-02
         - -1.9866624848801886e-02
         - -5.7847754924482105e-03
         - -8.4718240440382231e-02
         - -1.3333345667733584e-01
         - 2.4667660963766389e-03
         - 3.1307774474130987e-03
         - -6.1934602374104641e-02
         - -1.9339600309463825e-01
         - -4.3722463248854595e-03
         - 1.5554397756665970e-03
         - -3.0601723479202696e-02
         - 2.9014809319184293e-01
         - 2.6329286917315332e-02
         - 2.7219802418854367e-03
         - -6.2468439037110237e-03
         - 6.3640479459290506e-03
         - -2.2627367333380600e-02
         - 1.4078973559673120e-02
         - 4.5429428349361214e-03
         - -1.3753807743514377e-02
         - 1.2648497065336716e-03
         - -1.5061696657278955e-03
         - -2.5669634573539818e-01
         - 7.4518767703912072e-05
         - -1.1044995266831970e-01
         - -1.5643858410046365e-02
         - 5.5354288725380646e-03
         - 2.7026569378172821e-01
         - 1.0237153766240931e-02
         - 1.2354911063865909e-02
         - 3.3740341038980125e-02
         - -6.1582281363319596e-03
         - 8.2659796938181710e-03
         - 4.6591824895120967e-02
         - 1.0071738983323020e-02
         - 5.1807696907897244e-02
         - -3.1113302345672438e-02
         - -7.6973250579076887e-03
         - 8.3759173834726721e-03
         - 4.5799585195396564e-03
         - -7.8445913547031398e-03
         - 9.2521056391355855e-02
         - 1.9379438634528332e-03
         - -5.5120369210890079e-02
         - -1.5839459956546006e-02
         - 4.1039215478997672e-03
         - -3.6826178741193274e-04
         - 6.1967269172800354e-03
         - -4.4896734131517953e-03
         - 1.3294583474239834e-02
         - -3.4817535710283702e-03
         - 1.5282369592872398e-02
         - -9.6728759051916677e-02
         - 1.1394509143071272e-03
         - 1.5959214887819645e-01
         - 2.9754033396024167e-03
         - -1.3812678016914418e-01
         - -3.3541751555055932e-03
         - -1.0147571206681159e-02
         - -5.6056481175871999e-03
         - -1.8697285190678117e-02
         - 1.8203003323958314e-02
         - -8.2428548969133403e-02
         - 1.4269501670154923e-02
         - -1.2299930966741316e-02
         - -7.6041040018208069e-03
         - 4.3578006132597852e-02
         - 1.6458475220033828e-02
         - -5.2362709185783127e-03
         - -1.8164271106406192e-02
         - 1.5490182441216430e-01
         - 3.2507013802637566e-03
         - 1.5241142782206670e-02
         - -2.8604034216785579e-01
         - 1.4225973079086815e-03
         - -1.8377774090307233e-02
         - 7.6747666762099084e-02
         - 2.9156627902190150e-02
         - -1.5900980976903564e-02
         - -3.5707344786745844e-02
         - -2.5030986510630665e-01
         - -3.9042200956533518e-02
         - -2.5777308189832215e-02
         - -1.9269175956754894e-01
         - -1.1641549181399468e-03
         - -1.2001753929466310e-02
         - -9.0731220250830035e-04
         - -1.3723236206165010e-02
         - -8.0565782915208561e-03
         - -5.9964219537523358e-03
         - 2.2453866256684250e-02
         - -4.9700700498202365e-03
         - -1.7641591033789737e-02
         - 8.8139105218862056e-03
         - -1.1741660972982163e-02
         - 3.0316434041535979e-02
         - -1.7057458012719595e-01
         - 2.0084194981743245e-02
         - -5.7740207625536421e-03
         - 1.1326428009772002e-01
         - 4.2789912332289445e-02
         - -1.4838895600695729e-02
         - -3.8013362125407679e-02
         - 8.2087401642837662e-02
         - 5.0458003928592690e-03
         - 2.5022551756440441e-03
         - 2.4865032948577639e-02
         - 3.9292123765111056e-02
         - -6.8191894293781492e-03
         - -3.6097441770040384e-03
         - -7.7890897406284285e-02
         - -1.7530506930914105e-01
         - 3.3441910561522785e-02
         - 5.5488535617837995e-03
         - -9.2883081406429403e-03
         - 1.5662904128490831e-02
         - 5.7115415760135230e-03
         - 1.1426454220313775e-02
         - 4.9246129337621024e-03
         - -1.4763684338645078e-02
         - 1.0925394122858978e-02
         - -1.2079867375989208e-02
         - 2.0299234871501946e-02
         - 6.5561490095961327e-03
         - -3.3952569438348033e-02
         - -4.2912084461805916e-02
         - -1.2088886377266211e-02
         - -2.0556208107446677e-01
         - 9.1498366299014117e-02
         - 1.9471735182476458e-02
         - 2.2658347271545018e-01
         - -1.5904706667792763e-02
         - 1.7883238167653387e-02
         - 8.9872646071028212e-02
         - 1.9012330954018504e-02
         - -3.2675922503600602e-02
         - -6.9778137596663584e-02
         - -3.0887993222626232e-02
         - 2.0312914802505237e-02
         - 1.5342095655557364e-02
         - -9.2771659658471457e-03
         - 2.5622135009510629e-02
         - 3.2893510023677521e-03
         - -1.5584126933585235e-01
         - -1.3957288090000707e-02
         - 5.3784172125374554e-03
         - 1.1086494057435470e-03
         - 1.2151400311330534e-02
         - -1.5527316830451722e-03
         - 1.1242470604807615e-01
         - 1.1888636560533122e-03
         - 8.8714071338935451e-03
         - -6.6356571496200376e-02
         - -1.2207114718382301e-03
         - 4.3299332358241578e-02
         - -9.3451756911403748e-03
         - -2.3250795089071874e-01
         - -1.8926103845448915e-02
         - -7.7093826962114503e-03
         - -2.2261843500998052e-02
         - -2.7917009765690306e-02
         - 2.3326509624272039e-02
         - -1.3140853824639637e-01
         - 2.2534377895556184e-03
         - -1.7747633225542358e-02
         - -2.1373271147189149e-02
         - 3.9251680353729196e-02
         - 1.7163522612144672e-02
         - -5.1194938823288707e-03
         - -7.2783026470205512e-03
         - 1.6112526413937359e-01
         - -2.4681703430384622e-03
         - 5.8513849116997368e-03
         - -1.7165869980388854e-01
         - -3.6740928780882864e-03
         - -6.6801979696153512e-03
         - 4.2490662295699144e-02
         - -3.4352833332840596e-03
         - -8.0298835268232116e-03
         - 1.3027678291933854e-03
         - 1.0162109280161005e-01
         - 1.2895295055688195e-02
         - -1.6859461548705712e-02
         - -5.9608582869614146e-01
         - -4.2286467046573949e-03
         - -5.0155129185403026e-03
         - -3.4209088710873531e-03
         - -3.7291304621953859e-03
         - -8.4745252990690318e-03
         - 1.5724334137405174e-03
         - 9.0151226715797627e-03
         - -3.9525387902282416e-03
         - -1.7871095628631871e-03
         - 3.2401758358175351e-03
         - -2.7756461204082152e-03
         - 2.5171971434613518e-03
         - 1.8774160096735362e-01
         - 5.4401464532100839e-03
         - -7.6066923907161218e-03
         - -3.5547297645398754e-02
         - -1.5201317847517029e-02
         - 1.6416852147481357e-03
         - -3.3098914085674259e-02
         - 1.7572493238049799e-01
         - 2.8816596510054839e-03
         - 4.2028756221871031e-03
         - -3.8842718263005928e-02
         - -6.1096886638457956e-02
         - -9.2847867371061306e-04
         - -2.4831353810069617e-03
         - -1.1581658712211999e-01
         - 9.2111596995962455e-02
         - 4.6679604431183064e-03
         - -2.2320041568818887e-03
         - -6.8731052588936522e-03
         - -1.8824135422877716e-03
         - -9.0080338682554262e-03
         - 5.1579171655351972e-03
         - 1.2011318462996688e-03
         - 1.5591331154622143e-03
         - -9.2853305828964557e-05
         - 2.1137840097553977e-02
         - 5.6295534261881601e-02
         - -2.4793269043422815e-04
         - -1.7188117175882736e-01
         - -1.3369085002636699e-02
         - 8.0356145436229660e-03
         - -3.9529206736598384e-02
         - 1.4386261553502910e-01
         - 5.5917849839002033e-03
         - 3.3540611108350277e-01
         - 2.5682297727050826e-03
         - 6.5801459078299984e-04
         - 4.6045077425282771e-02
         - 7.0433140722803876e-03
         - 2.2032865816511085e-01
         - -9.7888168746902274e-02
         - -2.1645495046247664e-03
         - -7.1001075687345729e-03
         - 3.5770707071567935e-03
         - 4.2386769707086509e-04
         - -1.3176990705392172e-01
         - -4.1857701226306228e-03
         - 3.1405469745900617e-02
         - 1.7885949399612549e-04
         - -3.9236307418106745e-03
         - 1.5170202178414545e-03
         - -8.7846330541733921e-04
         - 2.3311476998827589e-03
         - 1.1999931152385163e-01
         - 1.9279805905282265e-03
         - -1.1843023670619436e-02
         - 2.0395417692566239e-02
         - 1.3349063029090365e-03
         - 2.3243080413479413e-02
         - -7.4487260162803652e-03
         - -2.5629992150915704e-01
         - 1.4117407142817731e-03
         - -2.4284600790709207e-03
         - -1.4431859455654279e-03
         - 2.0217158608018633e-03
         - -6.7277118182382800e-03
         - -1.7464324640357434e-01
         - -9.7668001616280729e-03
         - -7.2898930883315430e-03
         - -1.3174280004100564e-03
         - -2.9364007910602497e-02
         - -2.6417114500291586e-03
         - 4.4790345151754889e-03
         - -1.1158766537600831e-02
         - -1.4679552335213519e-01
         - -1.0532425466361593e-01
         - 4.2805014678844724e-03
         - -1.5878980757386926e-01
         - 8.4311168980868711e-03
         - -1.1930997087789474e-02
         - -2.3942984003791404e-03
         - 4.3190729614005089e-03
         - -1.0619368834557739e-02
         - -5.6806812423634287e-03
         - -4.1120816825768436e-01
         - -3.6546681202472876e-03
         - -8.1390668934045573e-03
         - 2.8572948317011945e-02
         - 2.4915238502347860e-03
         - -5.3860206041129125e-03
         - -1.3125454046625407e-03
         - -6.2555454755529281e-03
         - 3.3723179074003247e-02
         - -2.9883462994448429e-03
         - 1.2076956313391975e-02
         - 7.6518834710678947e-03
         - -1.0115890873968870e-02
         - -2.1469453439790795e-04
         - -1.0995888242599320e-02
         - 1.5617574125984326e-02
         - 5.9538657458443826e-02
         - 1.8469900949400674e-02
         - -7.8195445553779688e-03
         - -8.5075720011331665e-02
         - 2.3776492073355152e-02
         - -1.3986517161699689e-02
         - 3.5281689332064187e-02
         - 2.8881004782797420e-01
         - 1.2728110612005065e-02
         - 4.0100490647648982e-03
         - 5.8334623734560012e-02
         - 4.5783565741054659e-03
         - -4.1731448982469891e-03
         - -4.0215417400247489e-03
         - 7.8812303644331644e-02
         - -2.0362631395315728e-01
         - -1.0829441883700867e-01
         - 5.8211885506800343e-03
         - 2.6591950447149587e-04
         - 1.0962081431987345e-02
         - 4.0233422078335648e-02
         - 6.6408666041725987e-03
         - 3.6771284055273309e-03
         - -4.9489520386785503e-03
         - 1.0978235410038529e-02
         - -8.2721501653693248e-03
         - -2.2142774910683262e-02
         - 4.5155416771446534e-03
         - 4.3917031887365350e-02
         - -1.0408438321864470e-02
         - -7.4199930888200257e-03
         - -3.0978263077232737e-01
         - 9.8612091374687655e-02
         - 1.2682198638568971e-02
         - 6.8376329603285380e-02
         - -1.0722138193064954e-02
         - 9.2554735664053204e-03
         - -6.8187477028683940e-02
         - 6.2375302569668513e-03
         - 2.8843995589939858e-01
         - 3.4948692813292617e-02
         - -2.7983412878621588e-02
         - 5.4899490642837312e-03
         - 1.0213877687332531e-02
         - 4.0303007221906256e-03
         - 3.6597706245868084e-01
         - 2.7297896620431875e-03
         - 5.9120000141668877e-02
         - -4.1324460410249071e-03
         - 5.5370586344395860e-03
         - 3.6742765746183466e-03
         - 6.9322767665447246e-03
         - -5.2166787927850353e-03
         - 3.0245814896531087e-01
         - 1.5487003503031210e-03
         - -4.9025974515765221e-04
         - 6.2944960135973699e-03
         - 9.0875876626603930e-04
         - -4.9168892330930906e-02
         - -3.4296552012950806e-03
         - 1.8950977917433887e-02
         - -1.6623981976864027e-02
         - -8.2331198152164106e-03
         - -1.0032058578922802e-02
         - -6.3812503960935076e-03
         - 4.5557822400883550e-03
         - -3.8001509242874452e-02
         - -1.3244991607949724e-03
         - -1.2857140198266210e-02
         - -1.0470438859021710e-02
         - 1.9501973145013420e-02
         - 7.3175824916017068e-03
         - 5.2480670648734845e-03
         - -1.5221080659370136e-02
         - -2.0742088278381848e-02
         - -5.7436476673152041e-02
         - 1.1179448552579324e-02
         - 1.2866689126045633e-01
         - 5.9762791240041049e-03
         - -8.2546650283828061e-03
         - -7.6811807651975705e-02
         - 4.1552983254833772e-03
         - -1.4593941563975052e-02
         - -1.0831576698872350e-02
         - -3.7097590442473388e-01
         - -2.3180464649745606e-02
         - -2.6344082005261477e-03
         - -3.0490904149336993e-02
         - 5.2423905931491327e-03
         - -1.0894227482231093e-02
         - -7.0081203592044412e-04
         - -4.0405919320398711e-03
         - 4.9586041056569857e-02
         - -7.8762274413833027e-03
         - 1.2815963500877863e-02
         - 2.3815963002061400e-03
         - -1.4469039182171003e-02
         - 2.0899535279492397e-03
         - -1.0153448884623896e-02
         - 1.3742305136103538e-02
         - -1.5035428778717056e-02
         - 2.1782710310713129e-02
         - -3.3431078181167125e-03
         - -2.5062211621976976e-01
         - 3.6050490788821763e-03
         - -1.5381066822679935e-02
         - 8.5186771281958298e-02
         - 6.8879717300811594e-01
         - 1.7713178918337388e-02
         - -3.2336809025709859e-03
         - -7.2617623979382318e-02
         - -1.1104216340525706e-01
         - -6.5430459570516835e-03
         - 3.1743597223195526e-03
         - -3.4516407611471553e-02
         - -4.8484888632745810e-01
         - 7.2446398624780611e-02
         - 1.3311156380227895e-02
         - -4.8892443399563921e-03
         - 1.5563059728991368e-02
         - 4.4243852179932056e-02
         - 9.1585143970423551e-03
         - 1.6703982764712158e-04
         - -8.6712323048517732e-03
         - 9.1741913599609325e-03
         - -4.4340032385777925e-02
         - 6.0881936946106420e-02
         - 3.9189120509690442e-03
         - 1.1173923327398100e-01
         - -2.2206781551860941e-02
         - -3.1373216946744331e-02
         - 7.5606578097231217e-02
         - 2.3475808376799859e-03
         - 1.3420489307168377e-02
         - -5.1649488659613746e-02
         - -1.3869637086712893e-02
         - 2.1400575681615016e-02
         - -1.6952643181293547e-01
         - 7.9233685548617625e-03
         - -3.0752626316833975e-01
         - 2.7173033978886513e-02
         - -4.0647648003925188e-02
         - 2.5716740380411825e-02
         - 1.5452962563390134e-02
         - -8.4225397884273041e-03
         - -2.3433523175953799e-01
         - -3.2043239955658752e-03
         - 4.1597134385483475e-01
         - -2.0346424922284754e-02
         - 5.9887498456155540e-03
         - 1.9330670581039591e-04
         - 9.5591608641508088e-03
         - 4.0694082722706974e-03
         - 2.1853072542124492e-02
         - 5.7252794294654157e-04
         - 1.1503591287016814e-02
         - 1.7539987974784781e-02
         - -1.1884901351727387e-02
         - -1.4517689261682717e-01
         - -8.0884829847676035e-03
         - -7.6009759986373063e-02
         - -2.4844890977384959e-02
         - -7.1346056926471163e-03
         - -2.3531767411944578e-02
         - 1.8164168808636812e-02
         - 9.3852003668952223e-03
         - 1.9345639453227502e-02
         - 4.4067938710644844e-03
         - -1.6246494549827219e-02
         - -2.0353112939302080e-02
         - 3.0232820606515977e-02
         - 1.0088230380525472e-02
         - 4.3697757176435360e-03
         - 5.2723989565665623e-03
         - -2.6905184917964540e-02
         - -2.7466694999981202e-02
         - -1.3228503825236430e-02
         - -1.6647773114738176e-01
         - -2.9291534752465234e-03
         - 8.0150168799273704e-03
         - -5.3323393082522770e-02
         - -2.2493116808595889e-02
         - 1.3856385629528107e-02
         - 1.5567904045244534e-02
         - 2.5468023384559679e-01
         - -1.1726447072470265e-02
         - 9.5814109853215347e-03
         - 3.2899220159677756e-01
         - -2.5743277699545489e-04
         - 9.4799292074840714e-03
         - 2.3952814550558029e-03
         - 9.5227195053593939e-03
         - 9.9326456492104982e-03
         - -2.2783505279159871e-05
         - -1.8353678684425816e-02
         - 3.1784206775372112e-03
         - 9.8185009539289506e-03
         - 2.0992918540489944e-03
         - 4.4565252300032190e-03
         - -9.3725823398992623e-03
         - 4.4589193618327028e-02
         - -8.8612461619791399e-03
         - 2.2857736601445983e-03
         - -2.2824886658489692e-02
         - 6.1326013047039440e-02
         - 8.4422825346752006e-03
         - 3.8675961586301391e-02
         - -2.3471329129578497e-01
         - -9.5669025102190653e-03
         - 2.3702624180739840e-03
         - -2.2614231799924672e-01
         - 1.5922613101874514e-01
         - 3.8023628567862024e-03
         - -1.9774580455803620e-03
         - -4.9109553595605695e-03
         - -2.1800180137873958e-02
         - 1.4007826325493378e-01
         - -6.6547740497473994e-03
         - 5.7328314311299432e-03
         - -7.5462204106470721e-03
         - 2.9599130337199897e-03
         - -1.7182789579003412e-02
         - -9.1234348895625362e-03
         - 1.2373412750087909e-02
         - 4.5425288002034405e-03
         - -1.3463655899726541e-02
         - -4.9607174945831743e-02
         - -9.9924876523697177e-04
         - 9.8165223431617876e-02
         - 1.1478218623375202e-02
         - 2.0076800144280460e-03
         - -2.0786222432305593e-01
         - 3.9148261151398502e-02
         - -9.7206405812757576e-03
         - -5.4474669955027429e-02
         - 1.0842059364070828e-02
         - -1.3772637111611970e-02
         - -6.7813778420286214e-02
         - -1.5042741450026721e-02
         - -2.0114356984773732e-01
         - 3.3115410451139776e-02
         - 9.8797143407510345e-03
         - -1.7181738081288331e-03
         - -1.6099649354109813e-03
         - 7.0606535313715735e-03
         - -1.3555041972574032e-02
         - -2.4409462532463559e-04
         - 4.2394429455684245e-02
         - 9.8651623102069975e-03
         - -3.3690936109554369e-03
         - -3.0679425161430590e-03
         - -1.4178254999898278e-02
         - 7.7603479806659565e-04
         - -1.3627894721925612e-01
         - -7.4874522214743583e-03
         - -5.1179765893629454e-03
         - 2.8094073144444270e-02
         - -8.1789796800016629e-04
         - -6.2756251756887788e-02
         - 2.1592508895775751e-04
         - 5.5988058145365768e-02
         - 3.3777115985750448e-03
         - 1.9865763006085045e-03
         - 5.6756099713805115e-03
         - 3.4001134997334391e-02
         - -5.6953624087488098e-03
         - 5.3869077472307111e-02
         - -8.5852446679005202e-03
         - 9.8691444579992980e-03
         - 4.4585168264901602e-03
         - 1.7451413547719428e-02
         - -1.2515920819816190e-02
         - -9.6084385188936977e-04
         - 3.3118181007184083e-02
         - 3.3898688264108669e-02
         - 1.3531638934391219e-01
         - -3.5654969103431355e-02
         - 1.8559216192296443e-02
         - -1.3922098298771071e-02
         - 3.1827420234011403e-02
         - -1.2494950099564275e-02
         - -7.1215682890594698e-02
         - 3.4348581649505543e-02
         - 5.1204649368338344e-02
         - -2.4636003871565820e-01
         - 2.3763536056159041e-02
         - 1.5638284415542963e-02
         - -3.8564678613225309e-02
         - -8.6436963702695522e-03
         - 2.2375549669359073e-02
         - 3.9133345326498184e-03
         - 2.6699220643326176e-02
         - -4.1331409425691218e-02
         - 9.2511888020657736e-03
         - -4.7642789570061302e-02
         - -5.8591443940620349e-03
         - 3.9400591206613121e-02
         - -5.1018279699463478e-03
         - 2.5808145738419656e-02
         - -5.1328371850035248e-02
         - 5.7409905868729946e-02
         - -4.1598818811465765e-02
         - 1.3033335253547133e-02
         - 2.0981459549602396e-02
         - -1.5683524165525223e-02
         - 5.1672246981744323e-02
         - -1.3620889953611130e-03
         - 3.3334640210676399e-02
         - -2.3338506048941238e-02
         - -1.1771965770520238e-02
         - -1.8094941171944937e-01
         - 4.6225622480493715e-02
         - 1.0894341444786232e-02
         - 8.0521125827537159e-04
         - -1.2025127433284996e-02
         - 1.0163813711378922e-02
         - 5.6430925025767492e-02
         - -1.0527254845394234e-02
         - 2.4497010491356296e-02
         - -4.2751454945294309e-02
         - -4.9577168938561116e-02
         - -4.1632404879189309e-02
         - -9.9990038819592238e-03
         - 2.9567426631660461e-02
         - -1.8146135077430403e-02
         - 6.5647343346255341e-02
         - 1.7202347213542205e-02
         - -1.4302638391947104e-02
         - 1.4693318435032662e-01
         - 4.8126083853758342e-02
         - 5.1906829651070116e-02
         - -3.5047458525597314e-01
         - 1.7425819770515613e-01
         - -3.4674432927248387e-02
         - 1.5717782865277635e-01
         - 1.8357947141689229e-02
         - -5.5196247318269560e-02
         - 3.8278922785103371e-02
         - -4.4948037942468197e-02
         - 3.3279931043793826e-01
         - 2.7573020439081004e-02
         - 6.4143836729770948e-02
         - -4.8356825833782417e-02
         - -3.3308221035847088e-02
         - 7.3909967799638682e-03
         - 3.6997506235809469e-01
         - -1.3357828020349159e-02
         - 1.8683840532976326e-01
         - 4.9730144639870327e-02
         - -7.0594035864164290e-03
         - 4.7265931285812891e-03
         - -4.6243386935363201e-02
         - -2.7043571562755911e-03
         - -8.6048475661516813e-02
         - -7.1936904145298297e-03
         - -4.8892639653899179e-02
         - 9.2060143859619952e-03
         - 2.2809311736389740e-02
         - -2.3007605238580871e-02
         - 1.0585718658350594e-02
         - -9.5332038006613370e-02
         - 4.8970024144908454e-02
         - 1.7074611177498880e-02
         - 4.6752772595663773e-02
         - 8.9200846184151528e-02
         - -4.4991446315413797e-02
         - 1.6073488694622686e-02
         - -2.2123274296338039e-02
         - 3.7369769491782112e-02
         - 4.5319079590188736e-02
         - -1.3585987431841392e-02
         - -5.5046084729415176e-02
         - 2.5557106860097053e-03
         - -4.6239549266453911e-03
         - -1.8852182902916678e-01
         - -2.8549065466908424e-01
         - -1.1518551970241956e-03
         - -4.0290830064588501e-02
         - 2.2451854037272424e-04
         - 2.4910985076435324e-03
         - 4.9090693070649933e-04
         - -4.3957375781368530e-04
         - 4.2473611665281462e-03
         - -2.6038177748585190e-03
         - -1.2182275020316288e-01
         - 9.5826387719916209e-03
         - 9.3271202583232529e-03
         - -1.5335796604626850e-01
         - -1.1649583572420495e-03
         - -5.9946794473773003e-03
         - 4.5760187911630260e-03
         - 2.0262206469901707e-03
         - -4.2146803974154306e-03
         - 1.3507284479742269e-04
         - -1.9205439281006715e-04
         - -5.4405626642616157e-03
         - -3.7345575159708241e-03
         - 4.8597486058627511e-03
         - -3.0048457477891521e-03
         - 5.3174995072342753e-03
         - -1.5489279412794879e-01
         - 3.1545911765294547e-03
         - -1.8504045202434537e-03
         - -2.6653696344841910e-01
         - 2.8931083294109091e-02
         - -5.0238485893444717e-03
         - 1.2673786361723725e-02
         - -6.4006347538995811e-02
         - -3.1227869689008760e-03
         - -5.9266263161634038e-04
         - -1.1268466711565911e-01
         - 9.8317463068003555e-02
         - 4.6417726835052469e-03
         - -6.3542247490100965e-04
         - 7.4364661047324115e-02
         - -4.2697918501819906e-02
         - 5.9721724898414465e-03
         - -1.5758176489761733e-03
         - 4.9752228149575457e-04
         - -3.2265261282112029e-03
         - 6.4033169391285293e-03
         - -1.5186815477836717e-03
         - 6.2128236587518477e-04
         - -7.3637160611980169e-04
         - -2.2616896443329241e-03
         - 1.9333506317655107e-02
         - -1.5770069850782159e-01
         - 6.2408307214629919e-03
         - 1.1905715524581890e-01
         - 6.5233309470760174e-03
         - 1.6235862401774723e-04
         - 8.0426339688555745e-04
         - 4.8660923055886924e-04
         - 1.5834496979482678e-03
         - 1.2182973364918548e-01
         - -1.1723995149195182e-03
         - 6.6841339072930949e-03
         - -9.5477197851198292e-02
         - 3.9917114121002977e-03
         - -2.1495838495573577e-01
         - 5.5937426878379243e-02
         - 1.0459209927404544e-03
         - 1.2947008694609607e-04
         - -1.3884978836212761e-04
         - -3.8142187921837568e-03
         - 1.5287550996627433e-01
         - 2.4406216423097401e-03
         - 4.5200658054964221e-01
         - -7.2648194544420184e-03
         - 1.9546042136004021e-03
         - 2.7035603354330744e-03
         - -1.4729374233222506e-03
         - 2.4002892550779253e-03
         - -3.4735660690909015e-01
         - 3.8324645859463941e-03
         - -3.1624992949211505e-03
         - -2.3754702682677365e-02
         - -4.3758479319412546e-03
         - -2.0380955728059164e-02
         - 4.4367850327228769e-03
         - 5.2096861352030364e-02
         - 3.7668036888141819e-03
         - -3.4895213625051844e-04
         - 3.6745499612302920e-03
         - 4.2999065561312904e-03
         - 7.3939337532729649e-03
         - -1.0974360537388986e-01
         - 3.9042573608851164e-03
         - -6.8245647969067506e-03
         - 2.6298972778325751e-03
         - -6.9772673718302806e-03
         - -4.5962478387753873e-04
         - -5.1585499884720951e-03
         - -8.4610681446701998e-03
         - 1.4224932188592023e-02
         - -2.1993974416395071e-01
         - 7.1149886317589377e-03
         - -3.7122482172930976e-01
         - 6.3595150359344712e-03
         - -6.8574282494219077e-04
         - 7.6549873339333496e-02
         - 8.2740900630584487e-03
         - -9.2410022525620823e-03
         - -1.3913457407099020e-03
         - 1.8289200046345605e-01
         - -9.5639091222715130e-03
         - 6.9557823562587714e-03
         - -2.5109877928866359e-01
         - 3.6246131854071435e-05
         - -1.8340971631228260e-03
         - -2.9318998155822866e-03
         - -3.8419895065748100e-03
         - 2.2397988950566788e-03
         - 2.3648921494227046e-03
         - 5.3410604070656415e-03
         - 3.2488097936583730e-03
         - -4.1648391537031666e-03
         - 4.9654173554925191e-04
         - -9.2540802379205301e-03
         - 6.4939610972096357e-03
         - -9.8073431983771608e-02
         - 2.0802037140792030e-03
         - -6.0336210051903300e-05
         - -3.1255819413520675e-01
         - 2.8218063573448415e-02
         - -1.2878818435073202e-02
         - -4.3462949276129280e-02
         - -1.2447273999283401e-01
         - 2.9703807357896708e-03
         - 4.9765053734549406e-03
         - 1.3803735654712407e-02
         - -2.7697250228751813e-01
         - 3.7192952790804233e-03
         - -4.9273334355432290e-03
         - 2.1353314522003755e-01
         - -8.0279470839948505e-02
         - 4.2999766292738585e-02
         - 9.4971927335480756e-04
         - -1.8472049939245226e-03
         - 9.3481005164277858e-03
         - -1.9227977252324188e-03
         - 1.1278455977486408e-02
         - -1.5587551558988966e-04
         - -5.8925901035291944e-03
         - 6.2526753410626530e-03
         - 6.2922147669847604e-03
         - 9.6944665643253672e-02
         - 3.9993004618693977e-03
         - 5.3750593734070554e-02
         - 5.2887883456701991e-03
         - 1.2316262439291373e-03
         - -6.4816040648910334e-02
         - -4.0969808217272322e-02
         - 1.1120242739784788e-02
         - -2.5070547756787381e-01
         - -5.7937317057378864e-03
         - 5.7670788562787251e-03
         - -4.2825838642507150e-02
         - 4.6728662766733929e-03
         - -2.3247990886700882e-02
         - 6.5651002352449236e-02
         - -1.0026277718537917e-02
         - 5.6506346564869072e-03
         - 7.2034994843882512e-03
         - 8.6295063181729870e-04
         - -1.9145692304865791e-01
         - 3.8623812133561468e-03
         - 2.9879813607115599e-02
         - -1.3353617773041431e-02
         - -5.3586686584371065e-03
         - -1.0978514286458685e-03
         - 3.3560902556771868e-03
         - -2.9953671685702533e-03
         - -7.9497896359741194e-02
         - 7.8287006223861019e-03
         - 1.7132512010114356e-02
         - 6.2789460821347717e-03
         - -3.8474342557900405e-03
         - 1.0268298013144343e-01
         - -5.5589883934811391e-03
         - 1.0305098460884576e-01
         - -6.8747828708775188e-03
         - -5.6814662969463855e-03
         - 4.1968698770317534e-03
         - -6.8758109480692503e-03
         - 1.1789353353192806e-02
         - 1.0751986618491501e-01
         - 7.7218365766114488e-03
         - -7.6499133798346632e-03
         - -2.0823554332416027e-04
         - -6.1170127889895202e-03
         - 9.1021624208305618e-03
         - 2.8531799562660615e-03
         - -1.2780111856199336e-02
         - 1.1735155315949187e-03
         - -2.1373636263525483e-01
         - 8.6353639801561455e-03
         - 2.1905874540387418e-03
         - 8.6125596744876624e-03
         - -1.9287939461318179e-02
         - 1.1336106236817617e-01
         - 3.5511416918849167e-02
         - -1.2003710032775155e-02
         - -2.6725444799699301e-02
         - -5.6075880627150451e-02
         - -3.9206156904072371e-02
         - -9.8489036782860879e-03
         - 1.0039978809040483e-01
         - 8.2484848545891845e-03
         - -1.3686387421914551e-02
         - -2.3036072258815570e-03
         - -1.6062244552728998e-02
         - -6.7890987956076582e-03
         - -1.8466506657923236e-03
         - 1.7069590983644030e-02
         - 6.6172192291001205e-03
         - -1.3235035515996337e-02
         - 6.9908453568331749e-03
         - -1.5798237591352456e-02
         - 2.6430394168259524e-02
         - 1.9621554466464070e-01
         - 1.3098974492454936e-02
         - -9.8856627217361655e-03
         - -3.1132162783170401e-02
         - 2.5593190307940356e-02
         - -1.8568008488426858e-02
         - -7.9755887609258086e-02
         - -2.3923575279483154e-02
         - 8.6882056875838155e-03
         - 6.8099457125673345e-03
         - -9.8329245639790508e-02
         - 3.4159036000567501e-02
         - -5.9808383714755626e-03
         - -4.4047207955349140e-03
         - 1.4442089164990002e-01
         - -3.4856929692661548e-02
         - 1.3638636856474878e-01
         - 2.1151301325806299e-03
         - -9.5158442924942414e-03
         - 2.0012120255219420e-02
         - 1.0295856720758606e-04
         - 1.8933808839149944e-02
         - 2.7661032940059492e-03
         - -1.6198125579092528e-02
         - 9.1765613470307268e-03
         - -6.6312737572138342e-03
         - -5.8177274484749561e-02
         - 1.3336881751343156e-02
         - 1.1604118585072914e-02
         - -2.8996224107877760e-02
         - -8.0875376784390520e-03
         - 1.7160068596219069e-01
         - -8.8655136287480465e-02
         - 2.0433234334857425e-02
         - -1.7011054303682668e-01
         - -6.7431122100584029e-03
         - 1.8494842311497967e-02
         - -3.8689224546397824e-02
         - 2.0576982731838288e-02
         - -4.0759225180300895e-01
         - 5.6718717786279738e-02
         - -1.8289959410276155e-02
         - 1.9163469379101725e-02
         - 1.8156491873098944e-02
         - -6.2324435428328427e-03
         - -4.7641666802004372e-02
         - 1.0221149036981566e-02
         - 2.9001646780098242e-02
         - -2.6434870610727364e-02
         - 1.7631746827882842e-03
         - -4.2553384888786615e-03
         - 2.0901342487029670e-02
         - -8.3952564993769192e-04
         - -2.8549764718428139e-01
         - 2.8912612366502823e-03
         - 1.9418470379923867e-02
         - -3.9442803666338212e-02
         - -9.3989676757968744e-03
         - 1.5960191153916539e-01
         - -1.0985289133103078e-02
         - -2.9850894484976770e-01
         - -2.4727929459639562e-02
         - -7.8986713717443847e-03
         - -1.1073883041464044e-02
         - -3.9073067607239609e-02
         - 2.2872548307577172e-02
         - -4.4189743758852588e-02
         - 1.6134870487144223e-02
         - -1.7715802021035915e-02
         - -2.4507065047941930e-02
         - 2.2986641121672841e-02
         - 2.6535153354994217e-02
         - -1.9689641061880667e-03
         - -2.2210144448511385e-02
         - -2.2916474304508289e-01
         - 6.4554369658735358e-02
         - 1.4497406952304994e-02
         - 2.1917175956633259e-01
         - 1.3601751896811764e-02
         - -2.3127339180922038e-02
         - 8.4880346073205645e-02
         - 2.2201446464956746e-02
         - -1.9422448986986605e-02
         - -2.8685619440852340e-02
         - -4.3566181083654576e-01
         - 6.5133514358172101e-03
         - -2.4214084927692656e-02
         - 9.9395639339369915e-02
         - 3.7830268627641224e-03
         - -1.6789284782480991e-02
         - -5.4308434278993682e-03
         - -1.6142102642912451e-02
         - -3.2138614060337302e-03
         - -2.7875186522208895e-04
         - 2.7622067147794614e-02
         - 4.1059299628299689e-03
         - -1.1845283380965280e-02
         - 7.2036676949882210e-03
         - -1.1489562009523717e-02
         - 3.5763178039276533e-02
         - 1.8700898351048664e-01
         - 1.8393469866913821e-02
         - -1.0740963888586500e-02
         - 9.6609669407053622e-02
         - -8.3073847935564316e-03
         - -1.9075466742019698e-02
         - -4.4403959673908720e-02
         - 4.1688781869469632e-01
         - 1.3542318353052885e-02
         - 7.8370041302520659e-03
         - -1.5273530344312048e-02
         - 3.3970577253347206e-02
         - -5.2569864925613918e-03
         - 2.2388266684646913e-03
         - -1.6495630911911704e-01
         - -7.5582400101266947e-02
         - 1.6859575758676290e-01
         - 6.4094198440625303e-03
         - -1.4841430258314161e-02
         - 2.0610264084631260e-02
         - 1.0949711956382661e-02
         - 2.4396011269447848e-02
         - 6.4373761448020027e-03
         - -2.4002069326019910e-02
         - 1.2381514582962116e-02
         - -1.3034228965880058e-02
         - 4.9872674798889328e-02
         - 1.1686687478190884e-02
         - -8.0332447019610856e-02
         - -3.7072317252011260e-02
         - -2.6199416985913708e-02
         - 9.0147099612858883e-02
         - 1.0193249914290758e-01
         - 2.9156797348841405e-02
         - 1.2540680462713841e-01
         - -9.9836876475985683e-03
         - 2.7133994857412466e-02
         - 5.9561205233323838e-02
         - 1.9973900598249286e-02
         - -3.1444575206864783e-01
         - -8.2706011545462504e-02
         - -3.2210645006690075e-02
         - 1.2683169851078967e-02
         - 1.5441831075596903e-02
         - -7.4240233022379249e-03
         - -1.2293220932812142e-01
         - 1.8820846013450296e-03
         - 2.3995961562820806e-01
         - -2.0912022185805460e-02
         - -2.4027257487212283e-03
         - -5.3361184409924899e-03
         - 1.8507483082385243e-02
         - 1.0362667954334302e-03
         - 1.0935408662597140e-01
         - 1.0248181727415312e-02
         - 2.9070405891560219e-04
         - 1.2284281767150469e-02
         - -1.3965290215369359e-02
         - 7.7214119553491958e-02
         - -6.8919475081241849e-03
         - -2.8772165103306956e-02
         - -3.0850519876606693e-02
         - -9.4328320575081392e-03
         - -2.1025381203694859e-02
         - -3.6901462855714974e-02
         - 1.6031485475329732e-02
         - -1.5552589547592632e-01
         - 7.7782292117176057e-04
         - -2.0779704725840002e-02
         - -2.0135295070864635e-02
         - 9.9206944529157820e-03
         - 2.2608365929649748e-02
         - -4.3550504110887490e-03
         - 1.3725704244887289e-02
         - -1.3488999289838408e-02
         - -2.1235404828831270e-01
         - -1.7779758313821146e-02
         - 2.9305420719531095e-01
         - -5.9883819322056929e-03
         - 1.0917372504541953e-02
         - 5.8946819094078534e-02
         - -1.6145363742125315e-02
         - 1.0486385385082439e-02
         - 3.7830986886660985e-02
         - 6.9729447356862897e-03
         - 3.3662131574548199e-02
         - -8.6679240453752821e-03
         - 4.2239444383564201e-01
         - -3.6920497663146287e-03
         - 9.4854035122859948e-03
         - 3.4977377978859969e-04
         - 1.2368631381120479e-02
         - -3.3220675535194956e-02
         - 4.1883078168495885e-03
         - -1.8927914100364571e-02
         - -4.7185206409408173e-03
         - 1.7199911356374959e-02
         - 2.6704766982282393e-03
         - 1.3564948289077205e-02
         - -2.8386457970387316e-02
         - 1.0323544188840876e-01
         - -2.8957472348322091e-02
         - 6.5769686877320595e-03
         - 1.4803897263480670e-01
         - -6.5984906404071925e-02
         - 3.0795892836114717e-02
         - -4.6521971424041610e-02
         - -2.6975657968661443e-01
         - -1.2756916902351144e-02
         - -4.3490277883070786e-03
         - -2.8702344764608218e-02
         - 2.7588595230968538e-01
         - 8.2604754479073221e-03
         - -9.6607745659592445e-04
         - -7.1885590329057947e-02
         - -1.7415231966968139e-01
         - 1.3809808799825651e-01
         - -1.5433096678932798e-03
         - 1.3782742975317997e-02
         - -1.8367832985354202e-02
         - -4.5000814508293803e-02
         - -2.0244273505536765e-02
         - -6.9274468691918490e-03
         - 1.2085226449779931e-02
         - -3.6776291998757938e-03
         - 5.7806331336952614e-02
         - -7.3404723823596203e-03
         - -9.5383805538273858e-03
         - -1.0775222902607605e-01
         - 2.8542310457728572e-02
         - 4.6345672167375840e-02
         - 1.4054832591981886e-01
         - 1.7509408011409464e-01
         - -2.1918066715267998e-02
         - 1.5907185383749733e-01
         - 1.0960870434317158e-02
         - -2.7560392199056198e-02
         - 4.8225896777974279e-02
         - -2.2689100358963876e-02
         - 1.6910410698619438e-01
         - -5.6215938706673130e-02
         - 3.7331973796385691e-02
         - -3.7326635589708466e-02
         - -1.7963646275509511e-02
         - 1.0405982950050120e-02
         - -1.2106274572582962e-01
         - 1.2320883298417545e-03
         - 7.2763457667125372e-02
         - 3.1540300741363617e-02
         - 3.0899937917543362e-03
         - 2.6910442567732834e-04
         - -2.0481220527253208e-02
         - -4.2400135768855705e-03
         - 2.0055206298538769e-01
         - -6.4148560886398143e-03
